3.013659440554531340e-05,-5.241219010526266007e-05,3.475261679567454145e-05,2.541284571261173718e-05,-2.050828095953860779e-05,-1.993454335569459088e-05,-4.969736201784097259e-05,4.032806474416068658e-05,-1.963824756453413012e-05,-2.414723927085588969e-05,-7.955897288050532289e-05,3.551014288526676660e-05,-5.071071348435412488e-05,-2.004933011149736871e-04,-2.471798217146106474e-05,-4.421313920718130980e-05,-6.659332919804847751e-05,-1.020807574887759670e-05,1.589392886302751393e-06,-1.083623912489392968e-04,-8.967501851657239705e-07,7.005569281417762910e-05,3.640360134971504279e-05,1.546430693005561687e-05,-4.018949811737993682e-06,1.077072319532170543e-04,-7.786878348848283926e-05,1.471049316784209592e-05,5.176269607102605789e-05,-2.403399851225147084e-05,-1.159404842559661418e-04,-3.341080038852581949e-07,-6.683989026796262301e-05,1.656972195996421029e-05,7.415331448208588674e-05,9.356501252562523052e-06,-4.458850114907679361e-05,1.033928934693876021e-04,-1.967254328229267211e-05,-1.377779697004578223e-04,2.184762799892321031e-04,5.706259186602514728e-05,1.574605212660434793e-05,8.406236991362606625e-05,-2.796713089996830248e-05,7.060585831335274357e-05,-8.176162614589209876e-05,-1.548670538631075494e-06,2.048026363681047589e-05,6.419447035401874304e-06,4.717159071827532675e-05,2.283991575495042585e-05,2.192842537010338916e-05,-2.015480366260130564e-04,-6.194470790750099883e-05,6.920472430475208356e-07,2.417837193528137924e-05,-3.286050506250218194e-06,-9.264711075918224416e-06,5.308330012766810632e-05,5.835188027511323646e-06,-2.028780064107692252e-05,2.310957875575050328e-05,5.436896279441320406e-06,-5.358535491282681872e-05,1.836800837782424304e-05,6.349116576001955360e-05,3.798302115740280732e-05,4.351323756746748340e-05,2.389082983477375913e-05,-2.774321075699739001e-05,8.033462457698104301e-05,-8.937727250561477510e-05,5.943582519653375413e-05,3.062261944038870501e-05,-7.198430357932385031e-05,8.444498019220923887e-06,2.875841346268851554e-06,4.969311913801543893e-05,-9.251011476395144156e-05,4.163162892578611970e-05,9.714964565228569561e-06,-2.856321785189280663e-05,-2.862636183131889793e-05,7.622715295298503927e-07,-2.656998970670416672e-05,8.473745142379570891e-05,3.008137605601582908e-04,4.603889575150132252e-05,-6.551093760650644705e-05,2.610873486053527171e-05,6.652434793290681230e-05,5.588355786451514870e-05,3.003346283373763595e-05,-2.224199317839578319e-05,1.238320169277273841e-04,-9.019526346183910612e-06,3.280303288793896692e-06,-2.417372504904772101e-05,3.353904571377139667e-05,8.444115755741921927e-06,-5.418490301918931976e-05,-3.202406469626235531e-05,-3.509814879995029553e-05,1.042247598668885378e-04,1.175688813385720793e-04,4.315136538821660509e-05,-7.283758487548145505e-05,-3.243878810171700757e-05,-4.993125575744388964e-05,-1.236639217217128517e-05,-7.035333889587991438e-05,-4.345238861974095263e-06,9.891328381055377315e-05,2.992783785162423128e-05,2.232421691258438582e-05,-1.133707763563882281e-04,9.289246423169303553e-05,-1.417483572578631943e-05,-2.987166282978738019e-05,-2.034667290944934783e-05,8.694134316968048416e-06,-9.737568681700839923e-05,-1.890066724685582274e-05,2.840203749258746836e-05,1.817140384812177532e-04,2.520549969740426381e-05,7.032594587546082997e-05,3.714738734687101745e-05,8.811875296181216591e-07,-5.484048281550929672e-05,1.397712072546859210e-04,5.306984131208913712e-05,1.091010603788370665e-05,9.512339769564330744e-06,1.904122366828683106e-04,5.177398869497779875e-06,6.079972607401629131e-05,-2.297660825765514541e-05,6.269936832455949539e-05,-2.756460448439683586e-05,-2.621110460713612831e-05,-2.004579455625506981e-04,-4.730558083612096247e-05,-3.023702097518852063e-05,3.183726535850760821e-05,5.701285303064578994e-05,-1.083211464602149430e-05,-3.143181293615484592e-05,1.876171932111531546e-05,5.257539172330940626e-05,-1.023092650236840592e-06,7.247359296641568336e-05,-2.248072053659305915e-05,1.589460621027703537e-05,3.935479539505479544e-05,7.863498157819336662e-05,1.676118450769901854e-06,9.362565114761885196e-06,-8.147286661401886333e-05,-2.232747124057766203e-05,3.048160238407916524e-06,7.503917693330598964e-05,4.269885317046482177e-05,-7.927616375721760928e-06,-1.255866503492555008e-05,1.359940498035283932e-04,-4.429853524437567166e-05,3.371462516817146543e-05,-1.588426632307144429e-05,-5.843580191653937471e-06,-7.100703762884323081e-05,-7.881971418298054971e-07,2.068210106033039784e-04,8.574583957570186164e-05,8.934614730744222630e-05,-1.315424678708281757e-05,1.267076861898330887e-05,1.122730587887775712e-04,2.019077627885931028e-05,5.073057855131853767e-05,-1.182157528020416600e-05,-6.841586489970155403e-06,-1.062616865188354911e-04,6.481064574993841660e-06,-2.532188624527138401e-05,-2.723710071779257934e-05,-4.852077695011193300e-06,-8.097515639375341958e-05,-7.339015496001995446e-05,4.995487926913190774e-06,2.258286360270637190e-04,-7.137585229729648663e-05,6.955399886938439815e-05,7.656578115310156373e-05,3.197254654839027716e-05,2.053396053104647364e-05,-1.291926800400194531e-05,-3.824439495262008955e-05,4.549799110277499928e-05,7.152585835402466158e-05,9.432125473839141235e-05,-7.389505251562090375e-05,-7.377313108491596601e-05,-2.262211130860619326e-05,-4.740335119323803097e-06,-1.686776369009391721e-05,-8.765910382964744410e-05,6.133113726390189088e-05,-5.689928148811546901e-05,2.869310573922633265e-05,-2.567473701365518540e-05,6.501565912038098259e-05,-2.416203820309133202e-05,-1.307094471682564824e-04,-3.407999413596897714e-05,1.757552462961753631e-04,7.006049233323333506e-05,3.954244941897899616e-05,5.056207972193038646e-05,-2.336478532637757407e-06,-1.394718046318771946e-06,7.270004277324252696e-05,-4.469513456959035272e-05,-7.868995784817983273e-05,-8.696204670281771840e-05,1.984442967142623581e-04,-3.169620142633105156e-06,1.914837309439521238e-05,-1.142451454831056799e-04,-1.063419194941365152e-04,8.401539504554120241e-05,-8.979260583186406965e-06,6.532976206302731528e-06,1.488148920914705614e-04,-8.204050819487140531e-05,-3.676417261004404470e-05,-2.526943217275360275e-05,4.290635280686438339e-05,2.969144042245728377e-05,-1.860404366487644964e-05,4.667737602649859468e-05,-3.215579297488250056e-05,-4.929643974469151738e-05,4.613698633499727916e-05,9.033383062446762144e-05,2.845664523529740542e-05,1.146113558262489902e-04,-6.338295655850001758e-06,-5.056757056457608711e-05,-3.455107941674568305e-05,3.243793181696072437e-05,-5.810881067280132176e-06,-1.396609211582070153e-05,1.610676603912481437e-05,4.532388637371887461e-05,-9.847526484993475719e-05,2.069078069972151086e-05,-6.720082494139289976e-05,4.830533957828454972e-06,4.974836082560577519e-05,-2.343362204812320340e-05,1.464812750989032240e-05,-1.551810068855331292e-05,-2.388958209276491372e-05,5.413208978324932284e-06,-2.358138938037670360e-05,-5.384394237627609378e-05,4.903252362131655934e-06,6.744664351548771417e-05,-3.364478268874955135e-05,2.826383296094874429e-05,6.427221988250779127e-06,3.106933968547138198e-04,4.218263069253683499e-05,1.069134641922450308e-05,-6.468366997072222825e-05,-5.496050117436344603e-05,7.587364813038289836e-06,-1.819528535286415180e-05,-4.222024149643642017e-05,-5.860758474758035402e-07,-9.499261393042601558e-05,3.537735984637369030e-05,-3.269711679219493598e-05,-3.239440482827763237e-05,1.004575985497737544e-04,1.141484309203312195e-05,1.550376346477751963e-05,6.376894071795933053e-05,-4.394601151345389577e-05,6.570547569420152672e-05,9.676608148004366096e-05,-2.672513915318130675e-05,-7.057154415952687223e-05,5.810668745581452045e-07,6.267393198664050551e-05,-1.266881946753843375e-04,7.356862373315453294e-05,1.346371729462838897e-05,-6.975954926483934795e-05,-8.879603578956795935e-05,2.240252389279610814e-07,-9.355943266460752785e-07,8.466286101824371964e-05,2.233327727169235374e-04,1.314726242086643418e-05,2.681245201884340654e-05,-3.984486476214355955e-05,8.981273870899481233e-05,3.583826050619597894e-05,-9.573301639711886480e-05,-1.139734263186020715e-04,-1.880078267239238408e-05,5.853526390842206725e-05,-8.651432326647556467e-05,4.675767675446797613e-05,-7.790212951850558767e-06,-2.542419315929917616e-05,4.237349651808972745e-05,-1.934170963313414920e-05,2.564908904883928754e-05,1.495727988817487146e-05,-3.880179458403527578e-04,2.155515477298802741e-04,-1.047104097709592488e-04,-4.883678351845246156e-05,-6.088058772240078937e-05,1.239271389255721040e-05,1.624940111110961466e-05,-5.634159187920934856e-05,4.294659441072754669e-05,-1.083757290930194430e-04,8.834293286603472027e-05,-2.769790255768433425e-05,9.609674341247346314e-05,-1.611341639077259327e-05,-1.931953490162677191e-05,4.336511768973055594e-05,-7.187076832391696836e-06,4.859248184285656226e-06,8.545862575581505136e-05,1.023296674946172258e-04,5.772022651998521983e-05,2.046698446814772241e-05,1.007281669682234187e-06,7.487521753921166456e-06,2.023285817340093338e-06,3.634795925316877582e-05,-1.103032386167559192e-05,1.169139777476500120e-04,-3.222873811980312293e-05,1.681552068331251698e-05,-4.163311313478424829e-05,-1.637531050705716101e-05,-9.165347835203491503e-05,-5.342651853936264574e-05,-4.548407151218353131e-05,6.018192894599527304e-05,-2.123149616309236607e-05,-1.373916383657567937e-05,-6.267071800554440536e-05,2.167154736621369797e-05,5.574523805559397763e-05,2.369496660538687808e-05,-1.096139336990164685e-04,-7.828497321983355034e-05,1.078809006361100873e-04,1.278385459901006261e-05,-1.204483028815875603e-05,-3.703037036315187273e-05,-3.338949958113124637e-05,-3.795592781458430169e-05,-1.530811312736151652e-06,-2.024210126008075489e-05,-3.733239126104888372e-05,-1.959312583310193753e-05,8.229555531634208821e-05,-1.427082680382484058e-04,-2.634210695763371479e-05,1.942953542265597961e-04,6.776315803607900797e-06,8.888828703744511598e-05,9.200008695862698924e-07,2.666517247832226003e-05,3.699663094753614359e-05,-1.737439647914685992e-05,1.572392026247647080e-05,6.797101368443969345e-05,4.462128722877168328e-05,-1.854532559069856331e-06,3.427032907587116242e-05,-7.573051405206738906e-06,2.217763684590708228e-05,-3.994431639540169522e-05,-1.387329156075068856e-05,1.533444038247237020e-05,3.635688708336282977e-05,-1.290311197882778604e-05,4.124030348667324280e-05,-1.176641413586814168e-05,-1.207445023352755369e-05,8.942419504444742008e-06,1.168254764198973246e-05,1.479144643656505637e-05,-1.829949491258324831e-05,-4.671208400385340947e-05,4.008237085899081181e-06,-1.088079685145360709e-05,1.990257884782728253e-05,-1.068977268045525196e-05,1.634009032658146981e-05,4.654638208888589888e-05,1.232375438168862939e-05,-3.337691853769107845e-05,-3.049204935949368430e-05,-6.701391352327678808e-06,-6.074895767566030249e-06,-3.308041888278943194e-05,7.830976639747567276e-06,-2.404518020313263949e-05,-1.205385476078701316e-05,3.489478705207000312e-05,3.770705680951660086e-05,-3.586064405813392493e-05,8.299266352285189445e-06,-1.290171896062584027e-05,2.003682747632879986e-05,8.496482541354833084e-06,-2.419306765540815528e-05,1.838093340538979144e-05,-5.412371986565848704e-05,1.909203355638881066e-05,4.081242756833230372e-05,-3.838654720661649380e-05,1.254753310134386175e-05,6.106026186073274682e-06,1.116555950486972405e-05,-1.056841823786024527e-06,-1.662904161196295259e-05,-2.628049247389381744e-05,-2.885902411422450542e-05,3.013998202243430816e-05,3.782512836095095556e-05,-1.436736671226961675e-05,-8.436431842334590208e-06,-6.277484574340329139e-06,-3.367537597108344766e-05,-2.287782403268064400e-05,-4.056489883815746130e-05,-3.639532785316170583e-05,1.849876103314323012e-05,1.737986463744257024e-05,2.358986433157238291e-05,-1.090009073284402925e-05,-1.553635223180025392e-05,-3.052094543473420958e-05,5.132600672803634386e-05,3.551589386116931466e-05,-6.477743296426082322e-06,-2.000241330340124437e-05,2.317762555835999025e-05,-1.517434882392270126e-05,-2.907326678709868344e-05,2.021325247230272497e-06,-2.766509162642631205e-05,1.522338480790833638e-05,-1.034422240769933630e-05,-2.040600035494309598e-05,-2.356206096195719493e-05,1.173521173618906634e-05,-1.885462769262525192e-07,3.708530419021796765e-06,-1.324369296537279925e-05,-5.671132654546900249e-05,4.893131559830409189e-05,-1.661003550479943334e-05,4.644211449268750028e-05,-3.439856166879070600e-05,5.414047379864998713e-06,1.242512793056809329e-05,-5.314056596944947085e-05,5.047530820984376744e-06,2.989803802016391542e-05,2.863615178744326257e-05,-1.859539738049567362e-05,-1.215941950041124382e-05,3.283939097525637673e-05,-1.040769077848971602e-06,2.153685739241346391e-05,6.465132052879557782e-05,-1.045253664046092083e-05,1.437261467730924583e-05,4.835204054115184349e-05,-2.434023334339413782e-05,2.008506686210354941e-05,-1.568134957826772187e-05,-5.351060270010518012e-06,-1.221698673536470606e-05,-2.797047376268280641e-05,-3.871701449685520228e-05,4.024804691821248640e-08,-3.700265913089686515e-05,1.756960190374598881e-05,-9.780817674856639117e-06,2.279295892381375164e-05,4.628963325789295190e-05,2.720249584515582704e-06,-3.095584106212800131e-05,-1.367730637836417796e-05,-9.004780725475195667e-06,-4.872314176586601331e-06,-1.465591413925147252e-05,-2.468273804281658439e-05,4.562849830584200619e-06,1.859257575163059009e-05,-3.214680796247775213e-05,1.006516015680300046e-05,-3.276474001347994081e-06,5.870384049864406226e-05,-1.499892872335826591e-05,1.056056628512881057e-05,-3.814872232537790451e-05,-5.815493896152519653e-06,-3.100009637977237586e-05,-6.185302859778890192e-06,-1.550024879437019408e-05,-1.925846549384413483e-05,-4.217540627465315637e-05,4.248801146124630320e-05,-2.942331271996373045e-05,-3.700442890289308036e-05,-1.509112306215395272e-05,-1.049306857264255018e-05,7.196088491272479789e-06,-3.518264110655325809e-05,2.059612078862284838e-05,1.817297712315384789e-05,1.438718262519200209e-05,2.576510032366513816e-05,4.605937715297355084e-06,-1.721533543952208280e-05,-1.460806876806650876e-06,-1.560237534112849248e-05,-2.110279467680590225e-05,-2.322086115680417224e-05,-1.189890980853661625e-05,-2.007167332305230040e-05,2.907052067601744020e-06,-3.633800756580616643e-05,2.231417813333668452e-05,6.503600987363482335e-06,-1.545685539844543808e-05,1.636069850673032726e-05,2.153318111195796686e-06,-8.216703228367470732e-06,-1.373104296398899949e-05,2.203185249766643268e-06,-6.951196084145717176e-05,-1.109965789748101885e-05,1.357527428670902541e-05,-6.959647994018382801e-06,2.145195136160139745e-05,6.816052971657586858e-06,-5.144397916991841586e-06,-5.634577029465623133e-06,7.077784249078594660e-05,-1.884232011715648682e-05,5.274438538678324494e-05,4.824778583552495576e-05,-1.796335931232360897e-06,9.531662379297067744e-06,3.982581314728772298e-05,-2.563101260572472456e-05,3.902940663888541006e-07,1.666776400328244385e-05,2.389914234528772035e-05,-2.783370107135621396e-05,1.542656432579944315e-05,-6.749313023725850728e-06,-1.444969050141496405e-05,2.705858310497111747e-06,-1.766764875658540171e-05,8.136815802298864674e-06,-1.711664352874248121e-05,-1.304680060616182569e-05,2.026674595958778309e-05,-2.916227689273457059e-05,-3.163144335484935934e-06,9.914735477076210229e-05,2.539370512957648548e-05,-1.562073209356506717e-05,-1.578181216338955681e-05,2.966005323006484351e-07,-2.292385530015315464e-05,-2.096933353029746145e-05,-8.411647827132769898e-06,-3.892426777103391122e-05,-2.545553461389922430e-05,-3.014844041636772254e-05,-4.800904801471739761e-06,-1.378262691876591811e-05,7.956220602498211263e-08,6.224660130879722374e-06,-1.068893904769152462e-05,-2.016632236403027525e-06,5.537352122532547365e-05,3.618028929870521993e-05,-2.514055176614005441e-05,-2.927067653233896900e-05,-1.778286118218045829e-05,-1.018466976117054837e-05,-8.617891269394484938e-06,1.513670705129689406e-05,7.846676939385703305e-06,-1.350231939908035553e-05,-3.656590226426628405e-05,4.469830361105232624e-05,8.067213569328153708e-07,-2.255296594135318639e-05,-4.664782507555068959e-05,-2.593892883859712239e-05,-2.785529984611564245e-05,2.245175161020330605e-06,4.772187580085236492e-05,-2.455045257137530065e-05,4.371986858355794707e-06,-2.052807580690748116e-05,1.071822010479217169e-05,-7.436951014785112382e-07,-2.341620512401107994e-05,-1.925352944848744932e-05,-1.406510006196701043e-06,2.909652462389880791e-06,2.532339077205780371e-05,1.609166234133692694e-05,2.904933134462584898e-05,1.429789990146310288e-05,-1.139352014682407271e-05,-3.766076242457495958e-05,1.013126471299791936e-06,-6.346980490640791143e-06,-1.404672469794797368e-05,-2.824224334883679370e-05,6.091154511591535693e-06,1.409207499435725591e-07,5.970404324130436613e-05,-3.378686177451269598e-06,-1.257161770649326594e-05,3.575086955897799111e-06,2.122574712333777288e-05,2.605064868673265288e-06,-5.170225833193691097e-05,-1.516055858941625717e-05,1.009820292269392788e-05,-1.898783680718331310e-05,-3.648755539147189214e-05,-2.590136992333138824e-06,-2.694283566456911590e-05,2.526096230561146123e-06,7.709500253803235851e-06,2.826068922633454751e-05,1.017242142480386223e-05,-8.780747362201006128e-07,-2.441664801981846756e-05,3.109595474050411655e-05,-3.921405499917941963e-05,6.725333821300387087e-06,3.052312923773763282e-06,-9.559001831893382859e-07,3.466995029342651930e-05,-5.793288422342600062e-07,-4.290157671267529743e-05,3.517111969386667015e-06,1.940599163963037637e-06,-2.639057867218133274e-05,-2.757315823396067271e-06,-1.269044270711188595e-05,6.563709972527482681e-06,5.373827454752705971e-05,2.835467391537277931e-05,-4.456484819953162988e-05,-4.312042277999180893e-05,-1.703821304605672652e-05,2.291747000588226772e-05,1.756827668255350121e-05,-4.012479507715980100e-05,-7.000696946247216695e-05,-6.049114820245910819e-05,-1.164931965544930041e-06,1.789338503551715818e-05,-3.460074384928354841e-06,4.473529803521929245e-06,-2.810188256415118363e-05,3.019115357700510966e-05,1.816842173627023448e-05,2.716141041176720630e-05,-3.874927250003619195e-05,-7.002981389585914555e-06,-3.344454859304287354e-05,-1.133402563246376583e-05,3.381205474066102022e-05,4.492163871291968735e-06,-1.001962125939866527e-05,1.139248126062681113e-05,-3.038013167101901853e-06,-8.445009400275642138e-06,-9.534475962931545433e-06,-8.225541740796060689e-06,7.314792855780152770e-05,1.124033780143986335e-05,1.371038816605268683e-05,2.782765263031287945e-05,-2.848766901640120420e-05,9.313600501744767360e-06,1.740624758076657298e-05,1.608278764214253389e-05,-3.064915526870937943e-05,2.122479491510925024e-05,1.324470010541860058e-05,-4.028448450825917218e-05,-1.081292651984645655e-05,1.971896459301452937e-05,-2.837496075543899119e-05,2.666903725182644886e-05,3.613444996180253859e-06,-3.347827123647087195e-06,-5.475555159419628810e-06,8.721126841345251142e-06,7.626810838904163952e-07,-3.828986114056149984e-05,-7.727221720303161049e-06,-1.062169790839120123e-05,5.059643413951711620e-05,-8.615901264816849575e-05,9.349588769933379109e-06,-2.535919843112235067e-06,-2.993248088477708733e-06,-3.123275820028465578e-06,1.509243193954003807e-07,-5.564736460417962447e-06,-1.639333691717064263e-05,-7.462933337311042634e-06,2.718178307514385273e-07,1.611896037005104240e-05,-4.190915243452966431e-06,-1.054906524261833008e-05,-1.609692541600633397e-05,5.713665956042697016e-06,-2.990558052046800358e-06,2.884775839616665757e-05,5.889019469712033757e-06,-4.068248748627685806e-05,-6.944008214333535601e-06,-6.979541912237274511e-05,-1.568150259817281846e-05,-2.504535388031387181e-05,8.918415682347170803e-06,-4.890022051877777945e-06,-2.343817567515728414e-05,2.289892114274999693e-06,8.625066417878314145e-06,1.976233404804000741e-05,-2.434360860935317161e-05,-1.767144690669353747e-05,-1.957939327774335883e-05,-2.565424792775981974e-05,-3.915995562288455105e-05,-6.209622497799540226e-06,2.739231140364457116e-05,-5.840756852189811422e-06,1.370551788689647022e-05,9.192343132244476191e-07,-1.671842813948402131e-05,2.082286336488836881e-05,-4.896746277218857839e-05,-2.362549398349097173e-05,-1.275702647560471165e-05,2.613174903100485826e-08,-1.550220297936161224e-05,-7.951617270598600293e-06,-3.540979556428738026e-05,1.223137713047640283e-05,-3.527664256787775088e-05,-7.107155736799856448e-06,-1.492628174616904426e-05,-5.714378285346899571e-06,-5.484417103256575358e-05,1.982176954729811353e-05,-2.203950029542883369e-05,1.015055413732046118e-05,-3.943359959867394782e-05,-1.059541369900114694e-05,-3.238736644985659751e-05,-2.129425631331467847e-05,-1.240262105947819404e-05,3.856094032435255261e-06,-7.370913002045754395e-05,-2.626910473475627612e-06,5.412216089425598329e-06,2.139179405138320832e-05,-4.274825695876296094e-05,-2.954262132863105832e-05,3.426431487835949335e-05,-1.167738042553191229e-04,4.796973536842809169e-05,-6.125569634196648884e-06,-1.075237330988270936e-05,-1.432557650982584857e-06,-5.934974424691971863e-05,-1.779247347249248001e-05,-2.214651399934746320e-05,1.541823034067730150e-05,1.078001410571139581e-05,6.817529109643386724e-05,8.285747304187499846e-06,-7.063164898668642137e-05,-2.222427244581317944e-05,7.332946448444836776e-07,-2.366459419064367121e-05,-2.585558246606303447e-06,2.897156377992753215e-05,-4.091555672152745682e-05,-4.183361757253296605e-05,-4.937765358693481594e-05,-1.285237203050987523e-05,-2.064978154309364682e-06,-7.475529598761276627e-06,2.019812032171567013e-05,-8.042384615442667737e-07,4.165168012050040968e-06,-2.908740547084978168e-06,5.715570800434911525e-06,1.263178792001514170e-05,-3.298074518272575966e-05,4.066798465800813334e-05,9.653058445720391238e-06,3.849315999903679810e-05,7.063912042451817212e-06,-2.535398332844078783e-05,-5.875000834059107411e-05,3.289373281537825609e-05,-5.479359068000662980e-06,-3.406866000269947217e-05,-3.082999597772195300e-05,2.486719635478655714e-05,-2.206167994462808523e-05,-7.966124899289242755e-06,-1.257031071798466518e-05,-2.898485402262033513e-06,-1.444238496115967499e-05,4.677417192289946320e-05,5.102602439499122426e-05,7.641913951394430998e-06,-7.908351729739297216e-06,4.298292573833785066e-05,-4.553779410399549658e-06,-4.728589506076551212e-06,2.445834124956190823e-05,-1.395587979019393521e-05,-3.240238173872411536e-06,-1.748552938253624786e-06,2.085897509367393569e-05,-4.661139251466964346e-05,-3.247297454070319846e-05,-3.204227493695687063e-05,-1.209818507914643615e-05,-1.623090013695893316e-06,-2.514899278988169788e-06,-1.236155673904427466e-05,-6.124343231605310683e-06,-3.018558175357273707e-05,4.207371683545137815e-05,-6.106615475536710173e-06,-4.399675761942892054e-05,4.330428778872114513e-06,-1.416732959538979246e-05,5.177058822971563598e-05,7.583447689005755359e-06,9.197468199624627482e-06,-1.294637828932051701e-05,1.168164804775113620e-04,-1.813760034725182997e-05,1.073385251427685119e-05,3.229802733639709056e-05,1.376603953529327324e-06,-3.067900570004892846e-05,3.736205282317798680e-05,-5.239147572019609382e-06,-9.631112376079333103e-06,-1.564498758452345195e-05,-3.651631811317804426e-06,1.497147315877334376e-04,1.154288354545996766e-05,-3.330587938135395681e-05,-4.938263156967589853e-06,7.369332272839946110e-07,-1.373493680108014581e-05,-5.301730798251887302e-05,-5.601912929471054473e-05,1.100647501674464741e-05,4.135890352016013388e-06,-1.164944027777818164e-04,-6.888956908356045120e-05,2.376595527875252837e-05,-2.539303598476385336e-05,7.417885611458469454e-05,-1.223330941290883595e-05,-1.019273148839943961e-04,1.188815307294601380e-04,6.684514866206302123e-05,9.559923822417045947e-06,4.040890283859533777e-05,-6.466805770227284896e-05,-9.079595318725437411e-05,-4.481117038357326291e-06,-9.231656576177644580e-05,1.947426858608134419e-05,2.518452785297587581e-05,-1.098723555196069799e-04,4.808061112990005646e-05,1.174810176813118680e-04,6.476963379274398424e-05,-6.536615023661462289e-05,-2.007282427852131033e-05,8.437052550561669015e-05,-1.284885511712779954e-06,6.474663185317448420e-05,-9.505951986368386551e-05,-4.797292618233042896e-05,-1.293991631906655560e-05,7.971458899957917438e-05,-3.630088500509946596e-05,1.158717294698148099e-04,-3.549782848524166942e-05,1.864144374338124605e-05,9.887447838619419608e-06,-7.818750443920713289e-06,8.070482486545803400e-05,9.765813755437375394e-06,-1.070343455222942262e-04,1.411054192479830216e-05,-3.034057528600353468e-05,-3.362587551362201336e-05,-3.528899641499104499e-06,8.699446525780977785e-05,3.874457571807123231e-05,-1.157607866198977621e-05,-1.029160370263157820e-05,-2.468052276550748513e-05,5.613576619195819703e-05,-1.214811997920343312e-05,1.323037964485092321e-04,-5.839935176798873511e-05,3.435866494234437764e-06,1.499077184587830535e-05,9.292943332805227781e-05,-2.635859683020274927e-05,2.096155377489343892e-05,-2.772626145275992340e-04,-1.595171267340754614e-04,-1.165727144986067587e-04,5.998071671173992904e-05,-8.756292651934425111e-05,-3.810107640587292760e-05,-3.325450554559631453e-06,2.918720305778199460e-05,-1.007469668378445099e-05,8.007184224804556489e-06,1.702039406052056249e-05,-6.257705658922410466e-05,-9.759270292637123054e-06,4.001508822624043647e-05,-1.338335764190623067e-04,2.094006627199504581e-05,-2.405421224785257771e-05,-2.114593673289131594e-05,-6.839127372045907558e-05,5.090317048263640743e-05,2.479943439757723627e-05,5.550587694489738668e-06,5.954551765056902282e-05,-9.119347895442494112e-05,-1.557195121059340247e-05,-1.052721557712341254e-05,-1.534707053741892402e-05,-1.323536715697754419e-04,2.715287662905386656e-05,2.585652703955772889e-05,9.363893250432567985e-06,-8.345233020116372079e-05,-1.199488872426379347e-05,1.155398478621301599e-06,3.739327827013291480e-05,-1.973430508813294479e-04,-1.468800767352995845e-06,2.544135549754651654e-05,-2.874988247092385201e-05,-3.094137934562454095e-05,-1.321105727893556510e-06,4.364392978148348321e-05,-7.321342703646554757e-05,-5.779365191597990578e-06,1.116656134627573984e-05,-7.917147441413246847e-07,5.770492079646156184e-05,1.263144288878096398e-05,-1.461324641788978634e-05,3.533134376713202878e-06,-9.137231366543231042e-06,-3.989951359939173373e-06,-1.509227345215518846e-05,9.526732566652013989e-05,1.317480265372313557e-05,-9.359309589831428338e-05,1.427301475704909940e-04,-5.106394585625331480e-05,-1.517778451940824027e-05,-1.509854769732480925e-06,-6.018042317710294112e-05,-7.689651917412848310e-06,-9.694201886227427219e-05,1.179244210794488846e-05,3.273095454698845587e-05,-3.779558354302420099e-06,-3.480710212280106774e-05,3.331606160140725446e-05,2.670028508805324035e-05,-5.745194093872987525e-05,1.281667045241402251e-05,-3.938177044353150392e-05,9.273197351116225780e-05,3.673342455131387940e-05,1.384024844124223186e-05,-9.459350113458854558e-05,1.535964290709589025e-05,-2.626150126142986696e-05,-2.153080392543571086e-04,-9.023870831813130322e-06,-7.089519216615624273e-05,-1.251085287390555723e-04,-2.038672115441891736e-05,2.880638646243270195e-05,-6.365009989396312577e-05,-2.279235951716788880e-05,7.308782482483773036e-05,5.182128321912105192e-05,3.524307975664801705e-05,2.311215096026416794e-05,1.006462905875225351e-04,-2.044330222876409702e-05,2.996599567549342760e-05,8.275303803232712352e-05,-2.652671765659458172e-05,-6.879112654803013784e-05,-2.284032108580486407e-05,-9.723240389749415161e-05,3.804860704459560642e-05,7.571809232363882838e-05,1.421396409365386779e-05,-2.376133891975059663e-05,9.983999181095193386e-05,6.625943897141238350e-06,-7.286214521086692571e-05,1.835336426112285993e-04,6.025535765713625455e-06,4.973944060480991986e-05,8.709940853041613475e-05,-5.825428473662535201e-05,4.673629350091038488e-05,-6.298302036674357325e-05,-5.961786885227747678e-06,5.271951197301769447e-06,2.653110530216683239e-06,7.974049579824327313e-05,3.557287620522417779e-05,3.118997565681849487e-05,-1.891630421829981203e-04,-3.304405791056819067e-05,1.146164100674935266e-05,-1.431743714713412988e-05,3.125416330655442901e-06,-7.808122197712025160e-05,5.179600116285737086e-05,5.365151510425043049e-05,-1.018367214629048146e-05,-2.744408939002226279e-06,3.409256233065800892e-05,-9.035637285150073213e-05,3.753739189981341283e-05,6.734603635914036411e-05,7.467547175003168367e-05,3.727837432082644199e-05,9.429186988428260292e-05,5.695928667581288092e-06,1.097248558157797835e-04,-3.817962420633400230e-05,6.800951872374160552e-05,6.646837447304194556e-05,-7.626680059824215182e-05,6.959803623121191231e-05,2.817501054258554619e-05,5.658384656905439739e-05,-8.424110183034875458e-05,2.136472091418702406e-05,-4.864004659149576614e-05,-1.944219982278221328e-05,-2.668827501573151081e-05,5.983819689348642943e-06,-6.811686435882191300e-05,1.196072342570992552e-04,2.074469384539987210e-04,6.426725281870241497e-05,-6.459069194879233473e-05,3.367864828021690772e-05,7.963093119052400343e-05,2.697461234228629219e-05,7.555903932901454536e-05,4.579937604309834923e-06,6.498869145164840164e-05,1.429090932138962507e-05,-2.218303981982348519e-06,-1.089636794140216790e-05,7.607601756530284458e-05,1.842281541847559783e-05,-5.426211210044015341e-05,-5.528716807118431070e-05,-3.790548654993919022e-05,8.229334568394108677e-05,9.183589251742309051e-05,5.185190050270852208e-05,-4.917760357838105552e-05,-4.297099372281856734e-05,3.626305543756830845e-05,3.326134699190748932e-05,-4.754939106977107069e-05,-2.772265306809863628e-05,1.443193787904092885e-04,4.069334560100499264e-05,5.568202981311397959e-05,-7.871163401858224950e-05,8.438879536685673266e-05,3.215128252051784892e-05,-2.565693779254266672e-05,-5.334321292231182031e-06,1.597073357879910685e-05,-6.399504272527226729e-05,-5.665238766145770264e-05,7.461035316675262974e-05,1.142792834524438978e-04,-5.433562638291497229e-05,6.389047478625277995e-05,5.461879009087778601e-06,4.331271643104841253e-05,-3.236073951846574659e-05,1.125021265489754829e-04,6.976066804878165424e-05,1.512236455893240775e-05,5.981415741711585871e-06,1.691716043842923930e-04,-2.081472036418388294e-05,8.797094474696016042e-05,-2.418392318681323873e-05,6.357343481601486826e-05,3.385919102886930676e-05,8.292022047162350606e-07,-1.872793723912874236e-04,-2.944060343360512615e-05,-2.103416340174775882e-05,3.688287426312853644e-05,6.029330345183817465e-05,-1.040726544647333354e-05,1.019621608833706047e-05,5.372397839474817434e-05,5.896661153718764695e-05,-9.238239161384749455e-06,1.158972081984038077e-04,2.004352811020060127e-05,6.459212258009587528e-05,9.195899967134730482e-05,1.234217007411690800e-04,-2.686136670381278151e-05,4.281867312554223949e-05,-1.096345321524780494e-04,-3.355243937479474633e-05,3.801263174370498523e-06,6.985356685752279146e-05,3.863011909486928249e-05,3.775628715686027724e-05,-3.530508155107123615e-05,1.085598125575349174e-04,-4.221106428917360039e-05,1.074589015013915052e-05,-2.090649302645017384e-05,9.890185470868347473e-06,-9.352601220118292021e-05,4.389062545474189389e-05,2.259124704261048237e-04,7.138178670078738604e-05,1.824822413099129548e-05,4.530608276287488481e-05,4.260267406395538541e-05,1.002086938096889950e-04,2.584420538174255627e-05,5.310789694244041003e-05,9.735909565809080051e-06,-3.831914106006965479e-05,-1.234896227897706107e-04,6.529398826750208067e-05,1.575957229589190943e-05,-5.630951808234710936e-05,-4.893594046445057197e-06,-2.374479713968632281e-05,-1.594742995233752844e-04,-1.601005825224534055e-05,1.877420746282370677e-04,-1.524684333821184725e-04,8.751928595761033353e-05,6.656898929854196205e-05,7.045689930174287366e-05,9.530262792127328287e-06,2.065559697708733969e-05,-2.893537164858495041e-05,-1.435120409685677674e-06,9.396010854741930496e-05,1.114903243026818004e-04,-4.530292654578758438e-05,-1.246638010697268917e-04,-3.017457368532660579e-05,-3.114803751769517541e-05,-1.250766163252374955e-05,-2.824031250541142804e-05,8.842969610326464663e-05,-2.704882079528687678e-05,1.703342639676562448e-05,-9.416149130375882373e-06,5.854066416079351285e-05,1.120894738816367038e-05,-1.565153031959886623e-04,-1.952983473150445023e-07,2.115289008916918922e-04,4.274004346995109596e-05,1.503268527319100034e-05,4.624236058396186805e-05,1.161391695778066653e-05,4.119320383556462136e-06,5.757897118621588999e-05,3.900146941423156044e-05,-1.739386801250882204e-04,-7.298600203250318950e-05,1.204721553061891275e-04,-1.519147386571541727e-05,1.393483921426754904e-05,-1.193703445766602320e-04,-4.255657801824172688e-05,7.143946606499117073e-05,3.521002071850882792e-05,3.757849908784534316e-05,1.337147361973558450e-04,-1.046394867607250417e-04,-4.232783662190728032e-05,-3.111202015226676018e-05,1.385572317166301382e-05,1.569253709209173322e-05,-4.031310666511929468e-05,7.081709888669825116e-05,-2.940459009434529672e-05,-7.223849768062137289e-05,5.945049628306615117e-05,9.368337198460599102e-05,4.051988049320388342e-05,1.683679585000541165e-04,6.796734963026056979e-05,9.383831296622352239e-06,-7.771788060001375749e-07,-6.610457318041819744e-06,3.007869748236256872e-05,-2.527667391710078072e-05,-3.212089977129568261e-05,-6.716665942149114977e-06,-1.384899345866470537e-04,5.249980994967902187e-05,-3.980033772683851833e-05,-1.043419613765553812e-06,4.256189819959579684e-05,7.459607230099073932e-06,4.943263585076775344e-05,-3.231146808841570090e-05,-3.670238347526409109e-05,1.994405758505296493e-06,-1.798029701798904153e-05,-3.364406962136930310e-05,5.955949537913142293e-05,2.665361115616869285e-05,-1.154752634260321454e-06,4.475122062310655439e-05,-4.175080765655709013e-05,3.410413733404770668e-04,1.032177836956294534e-04,4.066199985874216326e-05,-5.495360948949025014e-05,1.478368891931221438e-05,-1.699507036816678439e-05,1.926520602382017199e-05,-3.864190794095555791e-05,2.702729499232380886e-06,-8.988953858814620161e-05,2.122656321639927244e-05,-1.064639094017607104e-05,-2.424458897552524879e-05,1.483798393674798963e-04,1.787802985329159909e-05,-2.754837846155443819e-05,5.670101766067511221e-05,-4.511860893096576101e-05,3.848749574023447965e-05,1.365729349909659775e-04,-3.354114258729641769e-05,-9.043784378465903444e-05,-6.274275649475088370e-06,6.597993580055049371e-05,-7.947382118641494538e-05,4.915503528226277438e-05,-1.375495262165835932e-05,-1.083046707595408046e-04,-3.405267498788874857e-05,-2.184202727976542705e-05,1.799414550540460436e-05,5.255420628150173247e-05,1.607360267959449395e-04,-1.047817572533269912e-05,3.026781373463221795e-05,-1.905671303372620811e-05,8.562178930581698059e-05,5.684984056824789742e-05,-7.144386820551958974e-05,-1.041014221307161498e-04,-1.288637259648028218e-05,6.337343671830388578e-05,-3.517066068657558867e-05,1.533516785545079139e-04,3.317733491702900357e-05,-4.003133109970147220e-05,7.009647365988641988e-05,5.841694797539194901e-05,4.952505995230984461e-05,1.118569250691818714e-05,-3.805182357103849581e-04,1.889816420642343657e-04,-1.001043341507370442e-04,-7.842769307302265155e-05,-2.143922961218065764e-05,3.247121182730595496e-05,5.840176295368770034e-05,7.371067447654158256e-06,-4.769797396891975764e-05,-6.076368084524799907e-05,5.821557233926072622e-05,-2.295423503587455951e-05,8.110484497043750612e-05,-1.683093181057758082e-05,-2.725927507359288891e-05,5.256673425725226024e-05,2.950960463982856330e-05,1.929681089005366457e-05,8.444262584097235057e-05,1.087930000433754731e-04,8.416735955890846733e-05,3.018585003653318324e-05,-8.482084088930239059e-06,-1.879565240992697755e-05,2.031001953239197345e-06,5.259436259522532082e-05,1.399107927996866654e-05,1.046602629287809110e-04,-5.686615385305791214e-05,-1.287270831711391069e-05,-8.479919282422602707e-06,-1.527036148692816747e-05,-7.210607731739653470e-05,-9.331419199672939563e-05,-3.087762727434982231e-05,6.196237059816873081e-05,1.307361057296663854e-05,-2.436482983769885447e-05,-8.569385700889498296e-05,3.773871255638241870e-05,1.958438962610229396e-05,4.097665489934727861e-05,-8.074927531562755049e-05,-1.200039679919597235e-04,1.879429359521151788e-04,3.232837754793522635e-06,1.043976294443823518e-05,6.033983560160841214e-06,4.966760968263418251e-05,-4.661308539101609213e-05,3.495719955186697827e-06,1.314468572545290291e-05,-2.305347678336340823e-06,8.685951921271687419e-06,8.128747656668434550e-05,-8.284850249510112891e-05,3.121439878794864348e-05,1.600957288240109264e-04,-4.024353967053147451e-06,5.009815418918573885e-05,7.139001103710602243e-05,5.628422261707288630e-05,4.417320639511609139e-05,-8.265414873076942510e-06,3.760150684908013658e-05,1.239143334253073358e-04,7.631309251030364321e-05,-8.015849808561841851e-06,5.166250152964242236e-05,-2.855310060964170394e-05,4.744180004217971698e-05,-6.310259666544489607e-05,-3.722301046147072139e-06,3.188940053134069137e-05,5.938498673410936397e-05,-2.525717740954687399e-05,6.107880156511276046e-05,-4.223229975120265786e-05,-3.756749584708923975e-05,2.241573250184339961e-05,3.979706923094392682e-05,2.088105308635520256e-05,-1.318226891261859311e-05,-5.392540768559488080e-05,-1.300060958108283179e-05,-1.525336754251959684e-05,3.302469608383459620e-05,1.155971099279691200e-05,3.073532142708009142e-05,8.445246284885082324e-05,1.088177123166298971e-05,-4.199500117004352739e-05,-4.455424414378637859e-05,-6.426283480724077638e-06,-2.202435816327833710e-05,-4.576784933510768741e-05,1.088464227789682650e-05,-1.719224957368325706e-05,-3.010052206340636674e-05,8.081951671200292373e-05,6.113569070464558138e-05,-5.844816644988179801e-05,-4.799571038758193528e-07,1.341403984749438691e-06,2.031141513668999039e-05,-1.893611915562973594e-05,-5.876743894364548431e-05,3.442243759682817516e-05,-5.461551722918284868e-05,1.667230651425158079e-05,6.263014226636083018e-05,-5.726011743457374068e-05,3.117429410913602879e-05,4.641232821210204010e-06,3.129148394002808162e-05,8.463243609149166560e-06,-3.729495696168889316e-05,-1.790778014250014082e-05,-3.278339700204569335e-05,6.541733613894281209e-05,5.408731240885642633e-05,-2.445544059234552799e-05,-2.105084257780700797e-05,1.744512162387994509e-06,-2.521601620755545677e-05,-5.531626791079866562e-05,-4.842590919697223784e-05,-6.673736721597900076e-05,5.382148375566584759e-05,9.347725540881413368e-06,3.474922871410404771e-05,3.915631253151236055e-06,-2.013415367038862987e-05,-3.879358575126383083e-05,1.147299275919065029e-04,5.929935684536651811e-05,-1.719030180892419614e-05,-3.426373193136496379e-05,4.924684348934936691e-05,-2.275121118202479527e-05,-4.389941626992820308e-05,1.365325833279776299e-05,-4.173518264332272680e-05,2.963063023294788332e-05,-3.216256984616524624e-06,-5.193138116077768547e-05,-5.360448346328375400e-05,-2.038873844382025054e-05,-7.059797502878996356e-07,-2.437303652170179566e-05,-1.308643637718541711e-05,-8.486357786584185138e-05,9.605228926157794171e-05,-1.407857131596618634e-05,6.079358371437543142e-05,-6.683736249856684622e-05,1.123516116294916644e-05,2.167370570241295338e-05,-4.922581197770117161e-05,2.578680268065679500e-05,4.298411167924147421e-06,1.764698335884888855e-05,-3.908817199721768615e-05,-1.115373304509887326e-05,5.157084156069573943e-05,2.414206070593031718e-05,1.649402863751196999e-05,9.204065165749652545e-05,-1.640387948259081107e-05,1.805344980479976899e-05,8.389878186578351754e-05,-3.201982075754598585e-05,3.109651506386876827e-05,-2.384014535000220843e-05,-2.691561421887912276e-05,-2.592231510049736770e-05,-3.078796783674602388e-05,-4.937794166389337111e-05,-1.778044990506005138e-05,-4.757476551526507147e-05,3.007699814125136138e-05,6.296438645649529296e-06,4.086703316521527780e-05,6.669846932485842665e-05,8.436236924757836475e-06,-2.745548786261359255e-05,-2.858528192732063915e-05,-2.481001025446797446e-05,-1.361659837104254256e-05,-4.456510630533446697e-05,-4.522660128580225991e-05,4.951996275474917311e-06,5.424357171927107573e-05,-6.248742502829736074e-05,3.375184821703898134e-05,-5.104950700909057498e-06,6.658993344428689495e-05,-1.788051553456612206e-05,2.237668154905192002e-05,-6.186424647955760545e-05,9.931105554695686066e-06,-5.526248944249388575e-05,2.782095253550693861e-06,-1.610121916579555882e-05,-1.563006673985200187e-05,-5.898628558217743404e-05,7.236968765712218764e-05,-3.086703344551679717e-05,-6.053712192296512528e-05,-2.443308409447726665e-05,-2.417825767819680835e-05,6.063598787272022726e-06,-3.614444290714359645e-05,3.875534262209354250e-05,3.907310378596786049e-05,3.188821581971829474e-05,3.328153425572056418e-05,-4.362015772458003369e-06,-4.923332179416665217e-05,-1.289950141275005567e-06,-1.459176508385689439e-05,-2.677737270518127356e-05,-3.534333244167353467e-06,-1.008756730120578460e-05,-1.988926180519261924e-05,-2.558509991992822727e-05,-8.419100059452633462e-05,2.964446842104833445e-05,3.789404726657919794e-06,-3.483314856176385996e-05,2.363001759412500173e-05,-9.788063282276642589e-06,-9.899089534664084160e-06,-2.437747419461402281e-05,-1.214317453902934982e-05,-1.290930132489034312e-04,1.332844040775454784e-05,1.826012313221990621e-05,-9.347627797865788390e-07,2.532969813447955886e-05,3.461754490255505286e-06,-1.052325074894754629e-05,2.789690330930131982e-06,1.107064334099390484e-04,-1.650306401540271083e-05,1.085336800643818826e-04,8.869219233699487948e-05,-1.912603678441657668e-05,2.469525792754279488e-05,6.484660302909661005e-05,-3.379395395532812900e-05,6.703077196056930890e-06,2.213404326552299869e-05,8.026647013482621793e-05,-3.775313116206923861e-05,3.399976939913305256e-05,-9.489880809307296489e-06,-1.443832757417544315e-05,4.113709397337704960e-08,-1.106236146530472988e-05,-8.718175939934760875e-06,-2.423623608137250905e-05,-8.934616782471224833e-06,2.274385931768174184e-05,-5.381269037876769586e-05,-8.585711217375483086e-06,1.580611125808142490e-04,6.825881348174657351e-05,-1.703267654267532860e-05,-1.145720303628895234e-05,-2.088661978881708721e-05,-3.254483253847395026e-05,-2.409143251540851865e-05,-2.511208021788063666e-05,-6.167814925922119500e-05,-3.850781388255180996e-05,-3.311565026567873672e-05,1.557057606900311619e-05,-3.791435666568359681e-05,1.676441702192545610e-05,3.196121724984796730e-06,-7.715626487039572876e-06,-1.901986144777522003e-05,8.900400739195326412e-05,5.624032448269439309e-05,-3.136272554723401661e-05,-5.079745117124012310e-06,-3.995521393540215531e-05,-2.069774526495279002e-05,-1.109471880415269534e-05,2.079497744131334096e-05,2.396570137834718744e-05,-5.424701159340167153e-05,-3.447064257003982070e-05,3.383905630814946027e-05,1.272594073190710287e-05,-1.711561883472183005e-05,-5.166650195818526603e-05,-3.635646844318788116e-05,-5.681005672995620209e-05,-2.008457148524913124e-08,8.043627571260435899e-05,-1.633686120249928177e-05,2.721777995882089355e-06,-3.214765059833413360e-05,1.778435252246940773e-05,-7.855144954746848211e-06,-3.228203238105341885e-05,-5.449491404214793655e-05,1.406545147272500217e-05,5.340706535052112909e-06,4.301923711468542613e-05,2.390867188453361082e-05,3.589858213540833993e-05,2.598848516549098238e-05,-1.522652197957287976e-05,-5.003838886965664064e-05,1.395050149319491404e-05,-1.937560335572966640e-06,-8.270271735341043311e-06,-5.052666604657758849e-05,5.441125841143987045e-07,3.623463454294467091e-06,8.876247300388409546e-05,1.911235639613658065e-05,-2.419142066125809818e-05,7.961990073505710911e-06,1.066342350461861608e-05,5.893942578699231299e-06,-6.000053638894609889e-05,-2.659768410144471869e-05,2.432972989093781706e-05,-3.934965503314578558e-05,-5.544943009120165708e-05,-1.662022668481512177e-06,-1.425353194141381003e-05,-1.794973113813967948e-05,2.877203995312663435e-05,6.276108406262666923e-05,-1.016572865825038581e-05,1.916685303806134672e-05,-5.634471154203464450e-05,5.660876734675502985e-05,-8.321044311965682388e-05,9.822921964139879928e-06,-4.514121533299682567e-06,1.244193646001340595e-05,6.371519245937379153e-05,-7.688834903252146521e-06,-4.108913741376480749e-05,4.600599786486691063e-06,-3.527453356721097673e-06,-4.850278033515345903e-05,-1.726719124751112990e-05,-2.183688429993264934e-05,-1.373106079883262069e-05,1.086885742803483327e-04,6.048124765963656534e-05,-5.557982363843125219e-05,-6.964337193253569746e-05,-3.537958031987085354e-05,1.953524208214378865e-05,3.110443982285399865e-05,-8.319809995279859997e-05,-1.061588664986138096e-04,-9.520809846540758097e-05,-1.026424079709206612e-05,4.193030515210910707e-05,-9.436640796046808486e-06,8.685758807931549143e-06,-3.126134493163606039e-05,3.829037260384478579e-05,3.572098167673264357e-05,3.603847244067552547e-05,-7.004022371285663015e-05,1.816491658490536085e-05,-6.200633024431116138e-05,-1.912395429445937201e-05,5.349553957985129458e-05,2.103806689081248011e-05,-2.052387972601860811e-05,3.963079312556497822e-05,-2.338722516507849879e-05,-6.319969787840956585e-06,-1.391932527187937410e-05,-7.004561263583583478e-07,1.284800868597985859e-04,1.424783977698122124e-05,2.824698164807020405e-05,3.383835145212719719e-05,-3.989132426924298265e-05,1.971158947030530583e-05,1.765651616169100008e-05,3.792837657337112551e-05,-5.886924650982083807e-05,2.971233393142196265e-05,7.371278276052660482e-06,-7.814888037566623238e-05,-1.136927599641669394e-05,2.943428090822275544e-05,-5.283986241917973078e-05,5.131086410840425760e-05,1.179386888764317601e-05,-8.066959973706382678e-06,-1.030386241885154210e-05,1.575067676418389151e-05,1.002285647586972494e-05,-4.890889114171165187e-05,-2.297596437269408320e-05,-3.153097873617439318e-05,9.634764245014269053e-05,-1.202847117370414845e-04,1.518073361176367330e-05,1.409487816347104436e-05,-1.867386429614834440e-06,-3.271919249412358989e-05,-8.208320830782071665e-06,-1.899804969417144635e-05,-3.090602401728416557e-05,-1.030230677681483684e-05,6.411441907681001585e-06,3.063375829467533874e-05,-1.645627177873836900e-05,-4.039685435844155836e-06,-1.481435697759977904e-05,2.954970558022227805e-05,-1.607990641238007083e-06,4.425939837429315933e-05,1.340297505054703353e-05,-6.459855032158785424e-05,-3.461732342656487167e-05,-9.992705186748449008e-05,-1.671639505200226750e-05,-3.266500722832563777e-05,4.583435149968331822e-05,-4.104963790305377720e-05,-4.847481362771086989e-05,-1.489115797146125851e-05,6.391184442361290044e-06,4.420602504205846384e-05,-3.313249931599192147e-05,-1.779464691067726803e-05,8.187765932183035630e-06,-1.765624236738156091e-05,-5.740992236883660140e-05,-1.270878178425772012e-05,3.718468353692684327e-05,-1.843363264972211439e-05,1.389657092904965303e-05,-2.090991261744929575e-05,-3.246952059751553963e-05,3.243960307426389328e-05,-5.407371460422668588e-05,-1.481156936213517484e-05,-1.612915522472640093e-05,2.348606296170460109e-05,-2.252494394276604353e-05,-3.118656549163229653e-05,-6.686008058557114139e-05,1.507522381247509281e-05,-1.816115977775504682e-05,-5.471226191642296670e-06,-2.974831857956504553e-05,-7.227805542098872941e-06,-9.677975215024146611e-05,2.233707559106963125e-05,-2.914492750317109956e-05,-4.544280241732089364e-06,-4.674510736511593026e-05,-1.750138124547645296e-05,-2.866965729909507895e-05,-2.885995885018932059e-05,-3.656980597188198137e-06,-7.848679500649808618e-06,-1.031013569261607880e-04,2.107829608249015196e-06,1.092535245123672499e-06,1.924899789942558404e-05,-4.746465782282061427e-05,-3.183919286301675354e-05,4.033991548579840390e-05,-1.398416609254097838e-04,5.626810504214324799e-05,-2.181810766540224209e-05,-3.166271137082004780e-05,-3.124321500079691774e-06,-8.728251238907483607e-05,-4.253561637143549775e-05,-1.819266914539255964e-05,3.017957572127182746e-05,1.245993465718324516e-05,9.572458709533166702e-05,8.698156732375073136e-06,-9.678955904277493371e-05,-1.028087494823298856e-05,-1.885146856032204027e-07,-2.689983502825851524e-05,-1.100416576228560990e-05,4.281358762571474148e-05,-5.448951295316471880e-05,-5.291619180626579567e-05,-4.146133556978171436e-05,-8.848152349214639936e-06,-4.034713637929570286e-06,-2.265771386385174406e-06,3.234435619839578504e-05,6.038652189551438339e-06,1.188604610720109988e-05,2.777833452133284143e-06,9.269287321567347734e-07,1.162204766360720368e-05,-2.762924728285210909e-05,6.449153215992539559e-05,2.516329372603080873e-05,4.582174497121307554e-05,7.850385076422140799e-06,-2.862288920668167012e-05,-6.373982776563589625e-05,5.872369666500936559e-05,-3.309691606911813443e-05,-4.346721391170288792e-05,-4.371659403711328841e-05,3.254536818916999003e-05,-5.229526022325422672e-05,1.355584672717157719e-05,-1.963503694560051388e-05,-8.751719304072730625e-06,-1.940660910217831571e-05,7.115315789289302956e-05,6.263554071944777237e-05,1.161975516669517127e-05,-1.131082352960416562e-06,6.482993415793611718e-05,-1.614210092151268221e-05,-9.936406976872882868e-06,4.935082714375905088e-05,-2.580672372449978994e-05,1.817478896688755504e-05,-4.809873251045437339e-06,2.315018430754523914e-05,-6.525732538503325065e-05,-5.368132525408215457e-05,-3.675244047831430124e-05,-3.701259193837641180e-05,-2.586813252451135841e-06,2.139895315017273215e-06,-2.042067063079843652e-05,3.442893829444445447e-06,-9.854571048712184946e-06,3.388743078495234289e-05,-1.363259014073084962e-05,-6.222757696085730382e-05,7.936642358448166065e-06,-2.076782704626429089e-05,7.756071446789348102e-05,2.776793616616015259e-06,1.006451827826990575e-05,-2.509787089750512690e-05,1.459491953972529921e-04,-3.104083993954332029e-05,1.583231811161116325e-05,4.413457432805928735e-05,2.376183815981373874e-05,-2.877161749020620390e-05,5.002105373209648451e-05,2.450753610915897538e-07,-2.835619694502754457e-05,-2.546479665356548867e-05,-7.715369843102207065e-06,1.859202845952856876e-04,2.943840437849260691e-05,-4.894468138612028801e-05,-1.605920777219456023e-05,2.319986286186040872e-06,2.838178040704100028e-05,-9.428844808526423520e-05,-4.941617594429663731e-05,2.416361553840261977e-05,3.882454038777490550e-05,-1.004492329470358064e-04,-1.994175783073870499e-05,7.452146656048751010e-05,3.465101940115103901e-05,6.754164006305507062e-05,-5.345006859904348349e-06,-1.010697552844872735e-04,1.213047038017375681e-04,9.614667624654454491e-05,6.142685598218898351e-05,2.678125379159088204e-05,-8.247605832723307277e-05,-1.244620268238754931e-04,1.269760175261784848e-05,-3.137169552719530825e-05,2.492801798631787182e-05,-1.541895940116473827e-05,-7.791461968785222034e-05,3.253188037302632836e-05,1.058757860100986812e-04,6.912038760472723382e-05,-7.203629192007636808e-05,-5.024967477664077213e-05,1.154042541714178622e-04,5.955665174733447188e-06,5.984738379403530103e-05,-9.327695562772810609e-05,-5.849312297926708679e-05,-1.791835098165917565e-05,1.416642088877307390e-04,-5.313008239951237866e-05,6.105219287134149464e-05,-5.622148118645926515e-05,4.616322750443670165e-05,1.587610728676788437e-05,3.264114667865572044e-05,9.213754437437184943e-05,2.144242385706887768e-05,-1.310049944492674479e-04,-5.686942029575743987e-06,-3.213736262962250468e-05,-6.458495135496165039e-05,-4.209481496665706633e-05,9.010333246382261363e-05,3.030954795699176629e-05,-2.421723991443094467e-05,3.724839451681803123e-05,1.616029833555877968e-05,5.414066168916107106e-05,-1.575112369781937790e-05,9.653020594453291066e-05,-9.187061121318439399e-05,8.706903666913858741e-06,2.102009429147801909e-06,8.888060645524927601e-05,-2.722192969411357327e-05,4.742071504842983978e-05,-2.725111879974854382e-04,-1.611887634858576949e-04,-8.224159310020074808e-05,6.095425214893432711e-05,-6.606542017459924102e-05,-5.264059045066948840e-05,2.519556367305988655e-05,5.185101197221961131e-05,-1.111849098969300569e-04,6.922776406828135841e-06,3.904741311624328187e-05,-1.198663031509577132e-04,5.703331935387101937e-05,7.881374790984324824e-05,-1.130959770804855177e-04,2.743422484101071376e-05,-2.074447020834323946e-05,-2.909643957163435512e-05,-6.412461768829634285e-05,7.745453738811436200e-05,-8.056693024949140420e-07,1.930687409032386516e-05,1.451525058532674081e-05,-7.809870142636407737e-05,4.286545270271981746e-05,-6.348408702543342666e-05,1.727243126565774757e-05,-1.214567388144943217e-04,4.158576148823209896e-05,5.704493217743867338e-06,2.703359315548297700e-06,-5.946288596388998041e-05,-2.041676255472969033e-06,-1.667437410461326461e-05,4.464108786873460864e-05,-1.446833804536679969e-04,-1.255038666179631594e-05,5.259211789006262822e-06,4.205399186224673599e-06,-3.537461875886740298e-05,1.041867298498386447e-05,4.953247978239886805e-05,-7.306273455197728100e-05,1.820079158957760041e-05,-2.288631553478956469e-05,-1.128666831875457838e-06,1.443676313096162494e-05,4.722437874342289580e-05,-1.036823965757141904e-04,6.240002826832299927e-06,-1.639305954656225138e-05,1.004028918817228353e-05,-2.343453678380283135e-05,1.118816850764574853e-04,-3.798759442042787867e-05,-7.742755152441466876e-05,1.414204340573008286e-04,-3.060081108953939571e-05,3.871661568388160360e-05,-6.214610063808717610e-05,-6.731867269249936848e-05,3.108884500041990065e-05,-9.548854923953303635e-05,-2.265542918590286370e-05,7.150208221643173615e-05,-7.720759023291952729e-05,-4.406496349547815451e-05,9.592877815679103179e-05,-1.636994474827781397e-06,-6.824686579050978446e-05,3.212460294120758093e-05,-7.953175730181245428e-05,1.007173574125903192e-04,-1.260375610840733979e-05,-2.103660971471904434e-05,-1.070236443767744411e-04,2.589184445112923479e-05,3.305004355378541919e-05,-1.657939580543146092e-04,1.414570006214317774e-05,-5.622430065010077167e-05,-7.594459218454319973e-05,-2.268443895450895635e-05,2.284274298529372416e-05,-9.875941540189305348e-05,-1.896506180498515337e-05,5.814514266214147227e-05,7.410285563344339489e-06,3.898876771690500169e-05,9.969095607622383535e-05,1.224766312701543929e-04,1.021883603201048532e-04,3.712060604823466529e-05,1.295835771926573128e-04,2.966131426778790270e-05,-2.411376970581410111e-05,-5.324933171905679588e-05,-1.040709208683997816e-05,7.160590584548303143e-05,4.595023636642544781e-05,-3.063769883377193847e-06,1.214816051398616025e-07,1.030449709252901974e-04,6.478592520872833652e-06,3.142245687706365920e-05,1.257852934686035334e-04,8.354768009812045754e-06,7.775645261855304883e-05,8.474680289321537762e-05,-1.102061649034528939e-04,2.464994677685208502e-05,-9.594559919807332414e-05,3.677995738414366420e-05,-5.664944852109680636e-07,-3.989405420385568599e-05,1.248946122045425542e-04,-8.295932077307381324e-06,4.838492672280682007e-05,-1.320909109164033601e-04,-5.667913524347817724e-05,-2.166061474378927926e-05,-6.371121025369940675e-05,-7.990881796841791131e-06,-9.484450852959713666e-05,1.996944659450708136e-06,8.385146333825959936e-05,4.930750296177938315e-05,-2.105779231207559966e-05,1.863997288915954253e-05,-9.650699609312398655e-05,-9.110728421291117116e-06,8.320825036008183478e-05,6.790015228223978013e-05,-1.614190355348085220e-05,7.466363060474340437e-05,6.699182961929681001e-06,5.826732793981406061e-05,8.531293759976899060e-07,6.655097149195097692e-05,4.482522184029291278e-05,-2.679199616007614480e-05,4.699125953462071436e-05,7.492750769899187921e-05,6.888148211971987242e-05,-7.611542680270930302e-05,7.385577472979696602e-06,-5.412113752431477718e-05,2.718450306299914464e-05,-1.296640636712028966e-05,5.064482590196369464e-07,-5.477365700813744158e-05,1.235188633641742394e-04,1.719440147202267117e-04,4.441458697240686264e-05,-9.787119753779616410e-05,5.442091135260698619e-06,8.524701190606182185e-05,-3.386858300529865333e-06,9.728452034324110945e-05,-9.359666316158025913e-05,5.426186158406037742e-05,3.030314576935023535e-05,4.093055301417545096e-05,-8.270010168282091674e-06,4.585795402694436322e-05,4.157469827601955155e-05,-6.242721866872230694e-05,-7.464387909889930390e-05,-7.932190148730317708e-05,4.739903271585867953e-05,9.813086147400711752e-05,4.962711131118309428e-05,-4.008641646026772892e-05,-4.055161144517323914e-05,3.129266003403495950e-05,5.927650987854742336e-05,-2.251157070900460289e-05,3.725499816691049629e-06,1.406599409645811110e-04,6.489269877937801760e-05,1.089960765877621718e-04,-5.816209621647652111e-05,3.067853448498186747e-05,4.631094985447930005e-05,-4.545946289777716995e-05,-1.075473385060525533e-05,2.189593289686668642e-05,-5.210777266140836651e-05,-9.283719244137765840e-05,7.481300057718284985e-05,9.691473130891708370e-05,-1.047330039421801885e-04,7.415375840205814736e-05,-5.733292023304453657e-05,1.798698205874420806e-05,-2.355257543561708845e-05,1.271634568080401678e-04,7.158216571543174023e-05,2.370196564967564477e-05,3.908179701650537979e-05,1.247517666404352019e-04,-5.938381845552402735e-05,8.402039534376043992e-05,-5.604869465448243730e-05,2.147995195762424239e-05,4.164107528607921332e-05,1.514391062253928191e-05,-1.827036847991000371e-04,-4.672600412567483791e-05,4.715957380034874777e-05,4.428494890625550356e-05,6.515018003853786834e-05,1.290147252356907614e-05,6.959987176881856003e-05,7.869889863852700610e-05,7.077017334558207155e-05,-1.722070949738667157e-05,1.009671117084765592e-04,-3.066328607196119177e-05,6.181849007469489277e-05,5.691801618563953878e-05,9.241932370013997264e-05,-2.902258487832490083e-05,7.538805166125381069e-05,-3.662435128040857042e-05,-6.261923984765167274e-05,5.379246484892967280e-06,1.061348583126610004e-04,2.060752271433415246e-05,3.842824709443435586e-05,-2.538707421001642888e-06,1.038034922543360161e-04,-1.133444685322429555e-04,3.221469218990322131e-05,-2.011898669825064448e-05,7.052399677997477870e-06,-1.487268772022243366e-04,1.019257027612347958e-04,2.071886098982505782e-04,2.205159077150259590e-05,-1.326873229576205824e-05,1.019206924434139006e-04,6.739955234195686338e-05,7.402876177319940110e-05,-1.707235965686531318e-05,1.979670887401826661e-05,6.154063703062829751e-06,-5.239573508446806983e-05,-7.703912485228968593e-05,7.001452608159434131e-05,2.489640614189721999e-05,-2.216302387415933137e-06,4.982428355628330802e-05,-1.679246891461884931e-05,-1.397386701909737988e-04,-2.453109453882519977e-05,1.177166763237218487e-04,-1.285609735128466729e-04,6.959203938597049869e-05,4.394250697856036348e-05,4.956190679945186113e-05,3.688268498881326033e-05,-5.478604353145415821e-07,-6.674831427907949139e-05,-2.192726140303374321e-06,1.168074483644988707e-04,9.421884020442136210e-05,-6.569582263792568827e-07,-1.098243913466668349e-04,2.145627937646582876e-06,-8.174643723397789145e-05,-6.199061163036517616e-06,-1.991012352645181433e-05,4.982267184654419625e-05,-3.225684590031973811e-05,-3.127206929208633211e-05,3.485985685915249903e-05,1.164284156766077490e-06,1.057818510073518092e-06,-1.254085259661413571e-04,-2.879563372362203865e-05,1.523229884137703555e-04,5.619623281181779426e-08,1.367334425315881056e-05,5.570366615553132273e-05,3.199503770671784228e-05,-1.873102206630053587e-05,4.615924593966283718e-05,6.861181804492716642e-06,-1.778452211650715699e-04,-8.804434902006846094e-05,6.924891048164984338e-05,-2.694569102474014230e-05,-6.747538336528558899e-05,-8.429068411111940507e-05,2.763662031667711160e-05,9.247923271746595077e-05,7.840199847039322207e-05,2.864718413995521524e-05,8.825686023960713092e-05,-1.169857295587757562e-04,-3.402022500120197197e-05,-2.866031919408777021e-05,-1.440765940934080346e-05,1.504669048717840142e-05,-3.846614043643412957e-05,7.541219711773011346e-05,-2.530819794166330668e-05,-1.060847458948370209e-04,7.509754190026874711e-05,7.546176742131344205e-05,6.430168805459288891e-07,1.548000767631754553e-04,6.448893613909593926e-05,1.100161699383742705e-04,6.731832820858418461e-06,-2.936185781965671695e-05,3.891385343147044334e-05,-5.904335389645891483e-05,-2.370458706676464915e-05,-5.867637040111745722e-05,-9.438029468999019811e-05,5.888373422922859598e-05,-2.125527097738400290e-06,1.490036918350761013e-05,4.088083925364171552e-05,3.839916948238150782e-05,4.533500931001869713e-05,-3.770148023486174832e-05,-2.609966824456866718e-05,-4.418382306238563501e-05,-2.306677089371526102e-06,3.502006745790381246e-05,1.010370288192368886e-04,1.069982609541340622e-05,8.607178517886900502e-06,2.772714456388760161e-05,-4.865608443849470577e-05,3.166333916918286323e-04,9.078887050790517899e-05,4.260383157132773961e-05,4.753457396490475626e-06,2.176443942137507307e-06,-2.273496982938692015e-05,3.317636102804023596e-05,-6.189503816586250205e-06,2.789411696327082958e-05,-5.201159503085725597e-05,1.165309846880773983e-04,-1.627156645182780334e-05,-1.145349865671457553e-05,9.654454425400887452e-05,6.362330124802529051e-07,-3.901989194570497160e-05,3.887877111741302902e-05,-4.124486362357362881e-05,4.611282622066479621e-05,1.085903350560152563e-04,-4.961634253022438617e-05,-8.752816563615016055e-05,-1.329975903997703671e-05,4.156832834554013468e-05,7.260146109761259458e-06,-1.475032939463973958e-06,-2.298726329754403430e-05,-1.378112860436956190e-04,1.512646015414789113e-05,-1.946033975554338789e-05,3.507017221965914855e-05,-8.489616646450069717e-06,4.859917660929755317e-05,-3.940566528181361334e-06,7.422387815755624525e-05,4.789088945471845936e-05,4.762636780769967637e-05,5.330948157255195776e-05,-7.452032855622442073e-05,-7.325246104065741585e-05,-2.001824465034075120e-05,8.188994625394908607e-05,-2.321272053228101340e-05,1.792927299939210011e-04,4.615826856442543306e-05,-1.614037507181397788e-05,-8.677504806478617870e-06,6.648719017378487087e-05,3.657708861040068638e-05,3.404212808211113723e-05,-3.568594853047633961e-04,1.388540604602171507e-04,-6.821966929161040643e-05,-1.333165659842032935e-04,1.749175376838323664e-05,4.334321516940161875e-05,1.495793304485417384e-05,2.865464086043568965e-05,-7.543979633931676169e-05,1.560918316520063691e-05,4.953126906209513812e-05,-1.376150828415108385e-05,1.416647302434228876e-05,-5.113589289756272573e-06,-1.626128254811682307e-05,8.037940166512491820e-05,1.342609295234832817e-04,2.131808334862516984e-05,2.744561974267423156e-05,8.231344200186018454e-05,7.793357629991156082e-05,-1.017416104373627848e-05,-3.714967306556138068e-05,2.076741946546153066e-05,6.256752200808570239e-06,5.798823101093201018e-05,3.149731993575018909e-06,4.476229030819358430e-05,-2.161323623156889427e-05,-9.607104964507615517e-06,3.159323474608387300e-05,2.123950158686459377e-05,-5.129276397288089792e-05,-7.753364176780678911e-05,-5.539625269286371366e-05,5.592239310580115000e-05,-4.480882667322148725e-07,-4.757611303044595111e-05,-9.985014122108827779e-05,2.925493277666214889e-05,7.854073920365857409e-05,5.139951712416843127e-05,-1.881327625278839347e-05,-1.443379782574437983e-04,1.337244057253548927e-04,-7.123200474403621689e-05,-4.711872535064934124e-06,3.145811282818721877e-05,7.055202543678123302e-05,-3.947968150783218183e-05,1.658425222000676745e-05,6.535770795564896992e-05,4.281673808816481191e-06,-4.883986596475636351e-06,1.544726571504611169e-04,-4.456374204195293520e-05,4.187508004736099367e-05,9.893355405968172977e-05,-2.842717146805163318e-06,6.692561486766905512e-05,8.129665536862605590e-05,6.851981173874056852e-05,2.422598222607399374e-05,3.751156124980938112e-06,4.039475893530269115e-05,1.180812297122771912e-04,8.209948474819868164e-05,-3.358821681638612986e-06,4.160755112621084039e-05,-5.513509288457417066e-05,6.109515868959413635e-05,-5.484513656761182083e-05,-1.691389007727430428e-05,3.540132747577733909e-05,2.422258550516024107e-05,-2.167967975476255599e-05,3.154344418650242545e-05,-7.698791223879786097e-05,-7.717862662408561301e-05,1.483520793313812793e-05,6.192702828009268262e-05,-2.935900919233712920e-05,1.515983248620405489e-05,-4.051983669042587575e-05,-3.429866357111776811e-05,-4.369581482798103254e-06,3.065109467722268791e-05,2.461168323433722175e-05,3.424170701905433171e-05,9.342131594965439104e-05,-4.412703770056799519e-05,-3.753961517487964530e-05,-5.386337423319626010e-05,-2.383309017744544020e-05,-5.191159013104670899e-05,-4.417414892195609371e-05,-2.081730653404195261e-06,9.495731821375303898e-06,-3.858895001682462482e-05,8.812823994398627742e-05,6.620229972214837326e-05,-4.198443422012776638e-05,-3.475095330920053226e-05,1.379046376150367001e-05,7.849240761587743571e-06,-3.600854907484566075e-05,-7.711228620493560868e-05,1.641155062223372387e-05,-2.268498030711506381e-05,1.312046434373024143e-05,6.011913950830754649e-05,-6.968900166418073210e-05,5.275480121639481508e-05,-6.054204722591501284e-06,4.735443784020550563e-05,1.160162510553058560e-05,-4.265527584008561315e-05,-1.110977855122003432e-05,-2.773485806570098416e-05,5.472999712217605054e-05,6.238770226228930644e-05,-6.592031538337771754e-05,-4.535549335603124169e-05,1.429905852845308506e-05,-6.972068405994604906e-06,-9.970185758110016773e-05,-5.175436517097895835e-05,-9.474269812330749006e-05,6.753133429070059081e-05,2.315091302520333433e-05,2.956475164808593931e-05,2.098659039700206819e-05,-4.112447738116748201e-05,-2.616362627843054719e-05,1.285730620496758532e-04,5.435612567190583060e-05,-2.916890437950310565e-05,-4.109592791929391874e-05,5.947348729590910018e-05,-4.954618418985170793e-05,-3.591335054261984036e-05,2.291352659441629530e-05,-3.742457989655704261e-05,1.098177825272632051e-05,2.277113479823581206e-05,-9.333630848146266638e-05,-7.260259858309546456e-05,-5.919995437572258184e-05,-6.055511010781875576e-06,-6.658855847978126718e-05,9.535365475637049690e-06,-5.178764615550161306e-05,1.287630421403043485e-04,3.801883983551523901e-06,6.148822585047036989e-05,-3.532468702717428931e-05,7.503778677526379832e-06,2.322395945271477107e-05,-3.337635755610623750e-05,2.320362457388713758e-05,-5.252042420947788704e-05,-1.385215722865965102e-05,-4.301809309800699226e-05,-1.448501007056117173e-05,4.137916722103097912e-05,3.533904973486381198e-05,-6.107861756637110414e-06,6.837437114467591196e-05,-2.740782904555027897e-05,9.632290005292999007e-06,9.131561919559097549e-05,-3.297275796555548203e-05,1.722729920763453905e-05,-5.927205715286896939e-05,-4.036433007648245153e-05,-3.851966977157151895e-05,-2.198627578097860565e-06,-4.081261075809951939e-05,-4.569663128822308953e-05,-6.665221000953215570e-05,4.474283286683902597e-05,2.316195716600463259e-05,3.186291788639609567e-05,4.415785570733486926e-05,1.012599668296332607e-05,1.193739601552329430e-05,-5.732297507274926595e-05,-7.189467327083597353e-05,-1.576734283254899101e-05,-6.717158138220038208e-05,-3.107188485573502426e-05,-2.252102633432839134e-05,7.164994130116192610e-05,-7.137448110028220976e-05,3.623351038524046282e-05,8.456408947556554641e-07,5.005506479765546932e-05,-1.869344701159031250e-05,-1.336068643761604248e-05,-6.430757865395382035e-05,1.499110118387814455e-05,-7.630867427213185075e-05,1.014191114345434733e-05,5.553281434336255180e-06,-3.055995177212295067e-05,-4.025314513934106586e-05,8.348965944411025262e-05,-1.857812071627861817e-05,-5.620056075234505430e-05,-5.908463548389154130e-05,-3.341140619172302742e-05,1.062663069917363721e-05,-5.432897394753995966e-05,2.156205291959609836e-05,1.740980900953524829e-05,4.706142175108728968e-05,2.869925003011057933e-05,-2.343443701307838014e-05,-7.450133871044044298e-05,4.168142417101011941e-07,-2.870656972823234371e-05,-6.101920674658376057e-05,2.111876283828642188e-05,-2.055756893819384189e-05,-2.824915756215817037e-06,-9.537108449253222547e-05,-1.092311447663611419e-04,2.196074621071400832e-05,-1.568464239277165143e-05,-5.056504124783679885e-05,1.842925363838194712e-05,-3.161889015479177703e-05,-1.505531394198178842e-05,-1.594079781292505148e-05,-7.398502712175188340e-05,-1.266421633622071149e-04,2.601868226922705011e-05,3.873350008063491864e-05,-1.118711651786438579e-05,2.162252716736018048e-05,-1.049347425784274748e-05,-6.838685836975948957e-06,-3.625792672076151831e-07,1.301270168224194436e-04,-1.642419684563888700e-05,1.055676523784343556e-04,8.918396584667954768e-05,-4.030429672767349132e-05,1.414135241307407885e-05,4.689251605773390373e-05,-2.392230455210007023e-05,2.168455648019988662e-05,3.651619396359818113e-05,1.087204178005389733e-04,-2.421689279521814950e-05,2.249288146379402608e-05,-2.400873802640435899e-06,-5.565941514815652887e-06,-1.076390691501478344e-05,1.647410147319778993e-05,-2.335559270974369426e-05,-3.122566688571652374e-05,9.981326818535555349e-06,-1.433272161216666734e-05,-5.199040276768292950e-05,-3.559908461093031163e-05,1.400813817015342472e-04,6.532334605107589461e-05,-4.296920860922056354e-05,1.105066815819298993e-06,-5.168629307451681651e-05,-5.490141424369330425e-05,-3.762069456340269168e-05,-5.215751225497733683e-05,-5.621605582438263802e-05,-1.901269634026325270e-05,-2.782187780009405656e-05,2.536342024688948717e-05,-7.599474452484622521e-05,3.654406629895656702e-05,8.436555447708827342e-06,-1.508835234486939309e-05,-4.730434717981971669e-05,5.660440004628847661e-05,5.800725353198152350e-05,-3.323210486597586415e-05,2.579359897997305837e-05,-4.837473288068405215e-05,-6.674475534520886068e-06,-1.980165708069987434e-05,2.395292465779343504e-05,1.706084531107831913e-05,-8.268473461680923397e-05,-9.747727541094738653e-06,-8.389028473151849196e-06,1.441960627203950971e-05,6.931636891006566981e-06,-4.606039189650726660e-05,-2.632170090031811868e-05,-6.374699977468037068e-05,-1.592929783578294557e-05,8.211206643544231441e-05,-1.688414399064235629e-05,6.398764021630858783e-07,-2.830332353262375331e-05,7.667894260181584200e-06,-1.274468736150981254e-05,-3.666603409187265338e-05,-8.182260111126493434e-05,4.432334960761848537e-05,2.956748557147283803e-05,3.529449286638733542e-05,-1.014731830667052689e-06,2.835474380979779806e-05,3.703951960670587681e-05,-9.393562387265373071e-06,-3.913015965197292961e-05,2.230329921812563521e-05,-1.527057022503413019e-05,-9.608623489211962133e-06,-6.267242130970111455e-05,3.389004810414315953e-06,-4.807930940491463930e-06,9.254547039852154249e-05,3.357543329560370472e-05,-3.436300111596425069e-05,2.728388617731475314e-06,-1.702883752748744055e-06,-1.534977719823255084e-05,-3.314360137166483846e-05,-6.130105132035755164e-05,1.044074309598796355e-06,-2.881738810987873015e-05,-5.038557895086497068e-05,-1.996447053786326145e-05,-3.173433245414490676e-06,-5.201093601171056136e-05,2.059662703795199135e-05,4.794132442216404683e-05,-2.349750961461974887e-05,3.602023811213733164e-05,-5.001602276872822451e-05,4.077540311330427443e-05,-7.871562649778231680e-05,1.013518342833265651e-05,2.023856529800258492e-06,2.941118135176876493e-06,8.348609684071558838e-05,-1.336387048137126897e-05,-5.478595528413741613e-05,4.022110581092466509e-05,-2.064961948738697770e-05,-6.373870405812742364e-05,-2.098722047800685456e-05,-1.844899016941683011e-05,-5.636649961115466163e-05,1.369305022567862424e-04,5.546802958042392390e-05,-6.590348815836020644e-05,-7.560820124193142909e-05,-4.029159067129307713e-05,2.320263891339515825e-06,3.892511768828615655e-05,-1.112255720920837278e-04,-1.176266589831005655e-04,-1.176684557814457600e-04,-2.826712390700327163e-05,3.981026023099720572e-05,-1.295259916737186136e-05,3.960395300978752708e-05,-7.206443693663150715e-06,3.685960023594037890e-05,3.363389253839650439e-05,3.019825809153510026e-05,-8.855029773584526670e-05,3.141350866427191632e-05,-6.137533499722002848e-05,-6.385420616583596513e-06,4.847642980542790343e-05,4.900394689090310720e-05,-4.589045729283530169e-05,6.963616766160055430e-05,-5.302271146750132231e-05,-2.796957915806215680e-06,-2.390446244052280537e-05,-1.577699430420821889e-05,1.196052580130043579e-04,2.055006846086039184e-05,4.885354649400976905e-05,1.660448986822239114e-05,-2.865087408306738538e-05,2.800603868749576867e-05,-2.476834445383125261e-05,2.751768620619795088e-05,-5.898991486861716356e-05,1.623034034297218066e-05,2.100561507251845578e-07,-1.223538329486700924e-04,-2.404189281731117348e-05,3.550796612785741418e-05,-5.068047867614359971e-05,3.870257787492327716e-05,-2.641321796496448016e-05,-1.657757703096526710e-05,-4.467609682846427721e-06,1.450308708646619175e-05,2.587936995822918743e-07,-8.865492872038794247e-05,-1.664179785209812527e-05,-4.086620373371969853e-05,1.302980460327467520e-04,-8.088000547692450828e-05,3.228307630777840533e-06,4.812584501039193113e-05,-2.593422630824083598e-06,-9.577262363663658501e-05,-2.162802449905287550e-05,-1.498884832726076337e-05,-1.656154981432430713e-05,-1.227126510242919030e-05,5.512347822187063181e-07,3.262232065442101852e-05,-2.441909292798042960e-05,1.948729469452009706e-05,-6.030029750351413215e-06,5.648254025775925055e-05,-2.122060156539753227e-05,1.012961668346145511e-05,1.626573494359891687e-05,-5.361013919925818223e-05,-9.210595064152628654e-05,-5.471734166486957835e-05,-2.814505400586214573e-05,-2.818671521188256435e-05,7.380533160399997152e-05,-6.248615156056856355e-05,-8.708555408630121153e-05,-3.237768783347101241e-05,2.867379532646110102e-06,1.715419340622080627e-05,-3.206207783895623361e-05,-1.429175695877477896e-06,2.088180578569181483e-05,6.375164548959379274e-06,-5.647073635618279539e-05,-1.049849078077776805e-05,5.260585888255887350e-05,-3.392877469625919378e-05,4.104754645035090644e-06,-3.534483985856510515e-05,-7.258656728146464072e-05,3.508438954989523504e-05,-6.257898730349836563e-05,-2.500333811792329223e-05,-1.728004793937204999e-05,5.373755993784635121e-05,-3.301221992641302017e-05,-5.011558962003306573e-05,-6.878007647968220855e-05,1.632785171125321948e-05,-1.467316432252317364e-06,-1.603294248113592898e-05,-4.326019076871713028e-05,-1.383701846891551589e-05,-1.243532403061677668e-04,3.008484128834628082e-05,-4.685698107942511072e-05,-2.620112329523338645e-05,-5.088626304441568347e-05,-4.452496088641793491e-05,-4.381525630910516531e-05,-4.118195342885885054e-05,2.027382818700775675e-05,-1.558781879702874276e-05,-1.234489712403495805e-04,4.032155892480520729e-06,1.958760269420705902e-05,1.009606510054013324e-05,-6.279179709870380327e-05,-4.257371704390202445e-05,4.753586676141475565e-05,-1.727488817312315325e-04,5.543435954587139274e-05,-3.065183696170502184e-05,-6.072251574077230604e-05,-5.816879240881244847e-06,-1.036940023908354140e-04,-5.544596473825246207e-05,-5.974079285493279203e-06,3.643474491388999539e-05,2.653559830234285234e-05,1.156325122100084233e-04,1.311921787031629177e-05,-1.329125441697450219e-04,1.935966985838657572e-05,2.955529545907232254e-06,-4.048270413218932594e-05,-1.172473130192734151e-05,6.316954385841135413e-05,-7.088643985698964286e-05,-3.349252403604700894e-05,-3.851932522019952732e-05,-3.809748834035276841e-06,-1.535890558058303643e-05,-1.064400907184622874e-05,4.266880110049277140e-05,1.347701199013344111e-05,1.254178556045997283e-05,-4.551565795316124004e-06,1.095250861163627142e-06,1.234504412458738594e-05,-2.738017168992841008e-05,6.567573779996159836e-05,2.386495718421627452e-05,5.685990129563418729e-05,2.894747141447789270e-06,-5.759879443879035988e-05,-2.284982332236040644e-05,5.100024306253631137e-05,-6.300787147389710322e-05,-3.512236973086067386e-05,-5.292575987882340349e-05,2.486159573934603245e-05,-7.887420742398294174e-05,2.477199969023329457e-05,-5.640551260193850748e-06,-1.780535867359999932e-05,-2.659458798480903496e-05,1.082740896712352000e-04,6.403095466634248798e-05,1.241802785530027263e-05,-3.338774195571545860e-07,7.106359357588124394e-05,-1.509444707849925366e-05,-2.614858475567665111e-05,5.625340032858145372e-05,-3.824841515775004622e-05,1.375303340088170572e-05,3.708955327087763442e-06,-2.244220356004442374e-05,-3.931005068635261810e-05,-7.419569251198749617e-05,-4.137120416203360015e-05,-5.224068785882015665e-05,6.699876364277217184e-06,6.273609536557768050e-06,-3.950822102875409844e-05,2.458220465508006275e-05,1.301912979850196050e-05,2.616798400382789816e-05,-3.089718140475736463e-05,-7.632676936905910352e-05,2.068668478958606237e-06,-4.987166286770929421e-05,1.047008458406733378e-04,5.058150769357697511e-06,1.463994761839753707e-05,-3.866924863066158977e-05,1.438225123810126654e-04,-4.323167440427567673e-05,2.672056708133437974e-05,3.245547737879717092e-05,2.711095576562356244e-05,-3.974499268938853301e-05,5.437121854136143135e-05,1.617583624769171260e-05,-5.394245455904213971e-05,-4.331518425306067919e-05,1.067168366093660356e-05,2.157491168669024373e-04,4.269904736902033980e-05,-7.384255572916715422e-05,-3.621301570358144098e-05,2.934364014601931604e-05,3.805317354594938355e-05,-1.716311196113036604e-04,-1.097220073944960169e-04,3.735190525397009422e-05,7.187210711569858674e-05,-1.091548751141403653e-04,5.219393329967535623e-05,1.070136673034733157e-04,6.597963271489471837e-05,-4.798517269100355355e-06,2.700174262261543126e-05,-9.733319931220241476e-05,1.533693868155593890e-04,5.924634716551825165e-05,1.375387086852043891e-04,-6.095516919860879973e-05,-8.865647306279133178e-05,-1.449654526605930556e-04,3.282258218185247540e-05,3.036339278417702711e-05,-4.281457345435974300e-05,-2.251567975961371032e-05,-6.623233109564783208e-05,-2.622986656078825059e-05,8.499041039624117178e-05,6.262065480035751094e-05,-7.083142497165240516e-05,-5.295100160173124804e-05,8.567928657963410526e-05,1.474393847181520896e-05,4.323912362159040563e-05,-1.320118242063896008e-04,-7.813333515179801648e-05,-1.278396116320262697e-05,2.622869346529140672e-04,-4.775619784910712127e-05,1.774031127726502765e-05,1.982735508054240411e-05,5.284797463365797704e-05,4.580377808930853487e-05,6.993160685884317117e-05,7.321541163376405815e-05,5.886702222753877658e-05,-1.256641998900773314e-04,-1.123167288190740412e-05,-6.032149542792206956e-05,-7.567016043158469613e-05,-6.457397661854557571e-05,7.842186620256952421e-05,9.946402504687436639e-06,-3.489970469956229349e-05,5.927005436316596000e-05,1.407792494505789353e-05,4.231092263307130187e-05,-2.578807816056036823e-05,1.283155664842253532e-04,-1.208913821173487408e-04,3.842054688839179240e-05,1.438827642924769350e-05,6.776695873718511555e-05,-4.482455722132155061e-05,2.216905517338224816e-05,-3.071464953590745633e-04,-1.701207478130302268e-04,-9.056041621204856406e-05,8.842226201814807880e-05,-7.377586739520338355e-05,-8.560537689824657148e-05,3.684061428042517775e-05,7.864598496707814461e-05,-1.521204648204181316e-04,7.295964228600871140e-06,1.678084982452681534e-05,-1.593609522777221640e-04,5.706717156496886372e-05,1.265702172544544467e-04,-1.361714584876076695e-04,4.867379727860376618e-05,-2.333762807432398836e-05,-7.558950432415471421e-05,-6.677197901057530080e-05,6.611961696390091555e-05,-1.220885270999314718e-08,8.798391504256087539e-05,9.249349766011030917e-06,-1.182719946716581422e-04,6.604397536280459246e-05,-4.244134443926938577e-05,8.132194517699940079e-05,-6.005240853798544438e-05,6.772930227432895464e-05,2.966757305650500530e-05,6.482969178515865318e-07,-7.109039818965392349e-05,-1.767950604037872345e-05,2.722135711558592523e-05,6.906317074662484616e-05,-1.358886324693276944e-04,2.774857475294995811e-05,-1.481757635496590873e-05,5.013582265156486383e-05,-1.080522888885411931e-05,6.241592318373482542e-05,6.462527544529500295e-05,-7.834737399033285727e-05,4.174965160853253560e-05,-2.210435972401754171e-05,1.187942579029736774e-05,4.862148655586421658e-06,4.314176507720088517e-05,-1.600530190886782637e-04,3.102218181338226347e-05,3.340613928286637599e-06,2.616119463953143955e-06,-3.912359425394517645e-05,6.712697765875415875e-05,-7.648168610508613121e-05,-4.629312537293422139e-05,1.153016841083252179e-04,-2.927240630695135108e-05,5.646673372522291744e-05,-1.444298122654919371e-04,-7.554986750195307593e-05,3.818088965178509923e-05,-1.604635198972870712e-04,-7.245535008674785008e-05,7.463812876679216371e-05,-1.143433171036540848e-04,-3.022982583735854846e-05,8.689546121750773558e-05,3.952072035778589424e-06,-6.491972313763754549e-05,1.754162136652847540e-05,-1.144368981579629608e-04,9.855629659035613924e-05,-7.146327618182780417e-05,-1.326676939478399963e-04,-7.134986733010805437e-05,5.418507056528501693e-05,-1.420213070221662670e-05,-1.007548756188476159e-04,-6.526432147170723613e-05,-6.493250166863116422e-05,-4.709693507696308264e-05,-5.518918426476851952e-05,2.651544990155785328e-06,-1.634651338895737793e-04,1.149774512765518798e-06,3.535677973878241704e-05,8.104214330330795533e-06,2.349363101845191104e-05,1.217348112531754193e-04,9.447413389393659127e-05,1.444239597459115378e-04,3.705912986827806328e-05,7.919210952490398118e-05,-6.394890052103646638e-06,-3.810588119076057317e-05,-8.532504223652679005e-05,1.083633996848834250e-05,3.382237868653948537e-05,2.999867662820288213e-05,-2.444716497153498304e-05,-1.845227800313992334e-05,1.168593248464494500e-04,-3.010828005851377088e-05,4.995700247880930896e-05,5.821996479948367850e-05,2.654331647001143099e-05,5.965410877412160190e-05,7.449671752797236760e-05,-1.182893939511376675e-04,9.950307299254341879e-05,-1.221827723314783702e-04,2.073003062096723820e-05,2.249288520241470620e-05,-7.367228665354910516e-05,7.067121175958689073e-05,-1.980022089696536870e-05,2.558643721666738302e-05,-1.085903189942306093e-04,-7.232027588544946695e-05,-4.701982002235631118e-05,-2.764081735616775358e-05,-3.603941189295588812e-06,-4.327341829837490510e-05,-5.811290740121487848e-06,1.102821104749083814e-04,5.018968208582501946e-05,8.283037694780870231e-06,-1.589693321421007920e-05,-7.831521527449421954e-05,-4.934941243754295130e-05,5.676311922303062311e-05,7.379470726032687482e-05,-4.706021022666695300e-05,4.153536449963236230e-05,-2.346241803031136550e-05,6.289631557461604231e-05,-6.728679741394245960e-05,5.817873279881163266e-05,2.151346104513715579e-05,2.943237809163702117e-05,1.493952634670646140e-05,9.392117639531550666e-05,7.242205452695505959e-05,-8.171126281615335237e-05,-6.584243916484125976e-06,-8.269188566897449138e-05,6.247157955423884737e-05,-2.674946610881895185e-05,-1.232610063370144714e-05,-4.360440104682859075e-05,1.127881379536766312e-04,1.887356834019504961e-04,-6.433474951143393979e-05,-9.638486137872095938e-05,-6.278763773538607277e-05,8.274380584813697593e-05,-5.138030593652697429e-06,7.300215379368057999e-05,-6.619993984358728116e-05,1.603650040477822242e-05,1.660440147513492616e-06,4.546721863563058614e-05,-4.734377534889842469e-05,4.781919577173319969e-05,1.999420306872122361e-05,-5.990857535399926256e-05,-3.674672699258802014e-05,-1.048228247251877128e-04,4.243356460427605704e-05,7.099654699330416277e-05,4.849990889495911647e-05,-3.451362155479129843e-05,-6.693310083170395271e-05,4.146993541960735887e-05,7.675000834326364308e-05,-6.349443597334835049e-05,4.663494870066255482e-06,1.130757553559109686e-04,8.352608750473274806e-05,1.526228364268222978e-04,-5.096103205508014327e-05,8.294225258140288889e-05,2.782522076246212226e-05,-4.399412778327148506e-05,-2.130882474707035805e-05,-1.384688825793671638e-05,-7.122459604959196112e-05,-7.125115698598414801e-05,1.065520446021415524e-04,6.950245653446863537e-05,-1.355603932003368291e-04,1.336756282311948863e-04,-4.434013974817924131e-05,3.877283519753788657e-08,-2.097286231801719845e-05,9.838777913069159608e-05,4.158281303646009947e-05,1.353014640055989897e-05,2.228307852253109131e-05,4.108552257728632505e-05,-8.315568873702963346e-05,3.517944468920424552e-05,-8.484962714964371371e-05,2.411019230303837623e-05,-7.080368341907225056e-06,-2.205637815250361509e-06,-1.483876929354941278e-04,-4.541473332116715260e-05,-1.643060158162850987e-05,6.755703418746620279e-05,-7.536612872154436211e-06,2.667559302107464056e-05,9.050896189553893638e-05,1.057266416126336321e-05,6.293155991489461155e-05,-2.708907840056698772e-05,2.861141160731171199e-05,-3.339631254851370526e-05,4.424921289021013592e-05,2.033118553012515682e-05,1.958168068480043331e-05,-4.419524570571135104e-05,-6.213392214609002046e-05,-7.485652097833615803e-05,-8.626568760813706997e-05,2.359986795798319148e-05,1.026810953360534522e-04,5.763078700449611355e-05,6.502465266378818713e-05,-1.287890564831911437e-05,1.398976084299737943e-04,-1.651154593218062780e-04,6.690732699930081439e-06,-4.344773424707921978e-05,-2.031252479862087206e-05,-1.381023556714655869e-04,1.132133737485752355e-04,1.821222309105997254e-04,-1.080270158725999069e-05,1.658016096791607339e-06,1.249058875370815053e-04,2.789805204154555842e-05,5.114612658625649288e-05,-7.134700704293713577e-05,8.848855367975726557e-06,-3.413733004158752673e-05,-7.254537881154631712e-05,-8.597915542930108723e-05,4.972350109688988498e-05,4.363616280128392201e-05,-9.447275635038361252e-06,2.463660671497243718e-05,-6.370193116805216230e-05,-1.066000222251090713e-04,-1.302859189681688144e-05,9.534566272356355691e-05,-1.669834077269573367e-04,1.107697910385266430e-04,1.517218886239824590e-05,3.414523045428941950e-05,3.392330832959616904e-05,-2.443143164495015709e-05,-6.670443133416504428e-05,-9.692248473108370352e-06,7.947593225739692431e-05,6.955788376251260529e-05,3.246648048887934671e-05,-8.511978031185649400e-05,-7.729616355133350731e-06,-4.612302277555803599e-05,-1.648169683568596259e-05,-3.533914654458279893e-05,2.837073903423409284e-05,-2.828568819538367684e-05,-3.762932381840102995e-05,3.441619342130821648e-05,-3.633809414422810194e-05,2.005469397633694186e-05,-1.020764485462479041e-04,-6.262231910751135471e-05,1.998939691670590301e-04,4.244679960980043731e-05,1.851369103231810233e-05,4.316045793454449864e-05,-1.693626967374175813e-06,-1.969305273884008203e-05,1.717155556812901987e-05,-4.373322248438456293e-05,-9.466912164156845197e-05,-6.422094901521280090e-05,8.002383610651611049e-05,-3.370352530243213312e-05,-6.808766708431041211e-05,-7.965264946115213737e-05,-4.375890836985599517e-05,7.786798799582987489e-05,2.557923585732000966e-05,2.063326628642458223e-05,5.344779187443339465e-05,-9.555488894091606256e-05,-5.206403280842789174e-05,-2.310045039788412167e-05,-6.991957520614322031e-05,4.656262697095516661e-05,-7.671543570556111459e-06,1.049849563511627955e-04,-8.120914127049871116e-07,-1.290248486698456246e-04,2.111352848718761193e-05,7.850258457319506849e-05,-4.883494317395872060e-05,3.628472979047581983e-05,4.906946185830035064e-05,2.949675545692861535e-05,1.052207273675785204e-06,-1.846179033874869866e-05,9.905648622000367672e-06,-7.791042746175524665e-05,-2.125302266528434050e-05,1.595088008968853965e-05,-1.439337165903398338e-04,4.602821858304391125e-05,2.750546586245996214e-05,3.091023122713690508e-05,9.388165487432268883e-05,4.159847465760169302e-05,9.138514584997681027e-05,4.583787760910925192e-06,-1.558955725067379643e-05,-1.259312307126227879e-05,2.212561777055546076e-05,3.661319332576422765e-05,4.497115131687882023e-05,-2.328797733378872351e-05,2.804576051819412744e-06,-3.938724113713415821e-06,-4.078275837571277031e-05,3.207178790480141070e-04,4.429285019604667752e-05,4.772230723427805236e-05,1.881299090363806553e-06,-8.544180474759912618e-06,1.205408268177989171e-05,4.555542107736417948e-05,8.727017604653032287e-06,-2.339675197294429861e-05,-6.301951137839327218e-05,-6.533599822118988644e-06,-3.561467530652545659e-05,-2.080426293080125591e-05,8.553508057759090510e-05,-4.086521514233884257e-05,-5.854207551323412350e-05,2.995951639980300071e-05,-4.577025022826117055e-06,3.363894599824040078e-05,6.499012859020449691e-05,-5.447150118840128760e-05,-3.385795177221126700e-05,-5.789681710050238115e-06,2.141997011632289862e-05,5.219445393307371500e-05,-3.298431100958550464e-05,1.403266751969007683e-05,-1.666351267457535880e-04,1.854328129432046654e-05,-1.280739628369882309e-05,2.398095268940367159e-05,-3.545313548828035884e-05,-1.603297575769070931e-06,2.296487684440364380e-05,6.816804584267277230e-05,3.435514926532934359e-05,5.646863448162626407e-05,6.318621252332600575e-05,-1.076961789334632545e-04,-1.219875733381363219e-04,3.370301819873614196e-06,5.500228942877685668e-05,-5.121113153852334084e-05,1.254656854091640013e-04,4.858961767558523671e-07,-1.426014954243957579e-06,-5.806488423856577579e-05,9.711453669684673321e-06,6.211421569384600541e-06,1.683520753461529383e-05,-3.420866840878430850e-04,1.620581314474331782e-04,-8.503212712890792740e-05,-1.109109901168907315e-04,1.867233486700992499e-05,3.313768330048947784e-05,-2.118676706383908080e-06,5.759765799680711024e-05,-8.199758627927212693e-05,-2.322223864856901873e-06,5.116877046065756903e-05,-1.073043601278767497e-05,-1.004261164836987822e-05,-2.085389531737490376e-05,-5.572959468058215663e-05,5.733526524925264896e-05,1.124950046870171720e-04,1.388862211264169189e-05,2.548945341021501237e-05,8.369356259118304446e-05,4.340593661773009234e-05,-1.349566061683505133e-05,-6.028545142776347990e-05,4.200498489410926789e-05,3.054238484243554082e-05,7.721205991251648174e-05,2.079068120062547479e-05,1.387611577120703745e-05,3.071978512890269888e-08,7.402455460030956581e-07,5.609407887068419625e-05,-5.381364089235702160e-05,-8.187932933189966199e-05,-1.121278426620076960e-04,-4.545975594328230895e-05,4.858086700880025633e-05,-8.412891981133034129e-06,-1.984074155529227265e-05,-1.062856264390027249e-04,1.134913111181939124e-04,7.547701665218627175e-05,9.852181323948057293e-06,-4.824354074527981704e-05,-2.166370225782007493e-04,7.312201149727605421e-05,-6.585225863901746253e-05,-7.593225835363186769e-06,5.129818903121528454e-05,8.227522678507915405e-05,-2.000631217300491215e-05,2.621663151905544121e-05,6.459968370747633183e-05,-5.824616041552318840e-05,-4.653515933221242981e-05,1.528901970712987955e-04,-1.443373679728394826e-05,9.046139479551131563e-06,1.336867284102175263e-04,9.743913155753699626e-06,5.652501684924796094e-05,5.830735714492785821e-05,7.712447509010826097e-05,2.182099051802841930e-05,-1.286562073926085487e-05,1.326609602420864444e-05,6.851441017772445623e-05,7.209276866558334614e-05,-1.722822752563134646e-05,2.448842873960428791e-05,-6.314603994333677312e-05,4.276539956041435815e-05,-1.197712221821004891e-05,-4.853688758126884910e-05,1.397884498044697167e-05,-3.587270393798376166e-05,-1.550507040162569275e-05,1.812842563956870923e-05,-7.538773580418814272e-05,-9.345727753689900383e-05,-1.592643968177811744e-05,5.885915227075110261e-05,-3.952456340478350969e-05,3.446394713003056448e-05,-1.364158370694859553e-05,-3.845015672636543274e-05,1.146245271586071639e-05,2.301408464790335166e-05,5.785659251715876702e-05,4.057545228511171025e-05,6.923813633847229439e-05,-6.677629701807595900e-05,-3.102850046709010779e-05,-3.390040339712888985e-05,-4.560527588680130694e-05,-5.760108299425554450e-05,-3.607442224699495132e-05,-1.349210305601252935e-05,-1.721194686984074541e-05,-2.606741555032340263e-05,6.593353189267631338e-05,2.008065437928589021e-05,-3.126216898485012675e-05,-5.792344189787993587e-05,7.737775119493733715e-06,2.539816345639392684e-06,-5.426330811389578506e-05,-5.310864453813498193e-05,-1.018899329766262532e-06,-4.430860512978754316e-06,1.872497214223286231e-05,6.116531249746413196e-05,-8.492847354834731513e-05,4.280692295905830469e-05,-1.889901721371720344e-05,8.932463570158383529e-05,3.200674664513345451e-05,-4.669661902876197417e-05,9.551055311530346929e-06,-3.513323529337368317e-05,3.812358554871785114e-05,5.017386809649951936e-05,-4.931051615054073850e-05,-7.201852093475015774e-05,7.982416011661374087e-06,-2.805859904674976084e-05,-1.362688134811391300e-04,-4.342965174301889500e-05,-1.007930031839086171e-04,6.281462029443280089e-05,2.370689509591573544e-05,1.813207814862420435e-05,8.095237758790838214e-06,-4.306301607539849005e-05,-1.304620826448113762e-05,1.074161892626487419e-04,4.109445175899374231e-05,-1.654820813530123179e-05,-5.297225197795515071e-05,4.134853273432674309e-05,-3.986389296506457041e-05,-3.280696508577753281e-05,1.884271093886612052e-05,-2.601152749420056713e-05,-7.793703610933051459e-06,8.666184183866586745e-06,-1.024899192612585590e-04,-1.044173659416470883e-04,-7.669550447325826196e-05,-3.954209975011341405e-06,-7.012465736567730860e-05,2.045656263878455340e-05,-5.351577982656263869e-06,1.374578062309161301e-04,-1.122681101619673099e-05,5.624160451132791642e-05,-4.867295723755623329e-05,1.488743611225088406e-05,3.473537887508680653e-05,-4.526638788744388145e-05,-1.252334706738284256e-05,-5.157820302620390795e-05,-6.871657905338020734e-05,-5.034668155345314882e-05,-3.869015903222714945e-05,2.791369714160114244e-05,3.735990870737592073e-06,-1.033718558540648562e-06,5.683012311901174709e-05,-2.690864196550720908e-05,-1.601109266041302000e-05,7.701393229435594880e-05,-6.407868286782004780e-07,2.091527885169614073e-05,-6.377863233559494878e-05,-5.026768975518556296e-05,-2.403296590733519742e-05,-2.568305858433449533e-06,-4.565601796248433531e-05,-7.512950823104803130e-05,-5.887611987389069059e-05,6.360231000534479135e-05,4.300454706355755078e-05,9.606832825575425938e-06,3.462533340018833137e-05,2.393380104446421583e-06,2.641062450268359812e-05,-7.771165949129695591e-05,-6.319157873348343023e-05,-1.492478514330633859e-05,-7.206690515020554495e-05,-1.907139160658850017e-05,-6.287734912503412739e-05,1.220525002340316906e-04,-7.056347114618462919e-05,2.210178174423942798e-05,2.028633823344898607e-06,4.746560070200400163e-05,-2.089076411235791906e-05,-2.666180318135408502e-05,-3.906369202976164932e-05,-1.935000412839488418e-05,-8.265030996839886547e-05,-4.487379318483564498e-06,5.045863826061853849e-06,-3.627368116546772974e-05,-2.074017231949896946e-05,5.361307706274622930e-05,-2.597128710093791879e-05,-2.321853031747797422e-05,-6.240766923928330837e-05,-1.092754935839609007e-05,-2.137168926592995260e-06,-7.808762744734296980e-05,-9.856095526610136079e-06,9.888289512200807704e-06,4.726644801179336503e-05,6.322557819185095651e-05,-4.247055017600067603e-05,-5.970993336650452836e-05,9.602801851266936324e-06,-4.780502870020907318e-05,-4.558151541404591167e-05,6.787959214157296265e-06,-3.007731562854606218e-05,1.988469858080535967e-05,-1.148605236894681956e-04,-1.180413218071103685e-04,1.726299014671495274e-05,-1.286455475073147225e-05,-7.388512857956297335e-05,-8.689830185796395539e-06,-5.472951768982355590e-05,-2.583798413254325329e-05,7.991380405180987450e-07,-8.490865807020364327e-05,-1.104445951178300851e-04,8.461116175698109407e-06,3.378220837455937715e-05,1.032462683487121822e-05,2.828495194312163571e-05,-6.505571336298048252e-06,-1.693775307090936703e-06,-7.552858680732402462e-06,1.297550507800769820e-04,-7.403126265273166632e-06,7.965791961458047624e-05,6.586949695205321408e-05,-5.121538599255759513e-05,4.046357395498966414e-06,1.218268751289300382e-05,7.957914408085299006e-06,1.889882356265359088e-05,7.876219056197051628e-05,1.056037570562089124e-04,-2.757318555252639944e-05,3.037735106313969684e-05,-4.563488730373418712e-06,8.199728280997258177e-06,-2.106302393502601056e-05,6.504436209445184391e-05,-4.725944284039289175e-05,-3.156016785603793024e-05,-1.419478777964999006e-05,-3.470948080877082469e-05,-5.427029711152778419e-05,-4.922879309632944488e-05,1.206775309501845043e-04,3.122094823323679261e-05,-6.323855039221787898e-05,-1.621565096468043429e-05,-4.805071661874455179e-05,-6.335299454339097342e-05,-4.040068592035131950e-05,-6.118244572916336122e-05,-4.421296789698380298e-05,7.033500990296452500e-07,-1.353560235705370657e-05,-7.140816391011647072e-07,-9.149609843440642478e-05,1.631141064181798752e-05,9.970509485931518635e-07,-3.247058875568752605e-05,-5.278254789362248355e-05,5.486332598765381529e-05,4.322609677306313725e-05,-3.405378699057414984e-05,9.915155102209525809e-06,-3.322742280341104174e-05,-1.205437486444106491e-05,-2.286232311227214282e-05,2.909914893018422207e-05,-3.115440449741907626e-06,-8.807704136487755093e-05,-5.103591535263323099e-06,-3.355137439933473419e-05,3.998003671637864899e-06,5.120897873431358916e-06,-4.101142410610210902e-05,-1.150137200049246980e-05,-3.424523962069980982e-05,-2.500998317567616766e-05,6.160599958733598968e-05,-2.663846777560019451e-05,9.737810598677978593e-06,-2.044708392294644178e-05,-1.660114771800699803e-05,6.001268224115844005e-06,-4.686423641867381294e-05,-6.802972274971007835e-05,6.510200960784197539e-05,8.607439486410655379e-06,3.493750235702783059e-05,-8.749741984707865535e-06,1.579551361190396387e-05,5.847937929665342049e-06,2.783513816331989994e-05,-3.497174503091989999e-05,-1.657049341045388813e-06,-4.865721763182958225e-05,-6.169623407277470282e-06,-8.029320893015855925e-05,1.968392524634810938e-05,-2.239765146089362185e-05,9.116502883600022321e-05,3.180991747271731240e-05,-3.735982330007881343e-05,-1.650808026902993994e-05,-3.330060111957015953e-05,-9.792068715946585509e-06,-5.665347853257055147e-05,-6.642582196306399370e-05,-2.300360796718168779e-05,-1.503908118499818181e-05,-3.383507722837324319e-05,-3.424288338992217512e-05,8.238696927076070300e-06,-9.076271275164032415e-05,2.510142507193739773e-06,5.321351793279044005e-05,-7.693816703541393027e-06,3.903377550603651433e-05,-4.129553361837723141e-05,3.918742544005795504e-05,-7.897190541870696863e-05,1.259462300143514918e-05,1.470475594138297871e-05,-2.967567991551175994e-06,7.377566122897126673e-05,-6.368283118702095063e-06,-7.038774031851614149e-05,6.106239152198509939e-05,-3.137869233536810250e-05,-2.361901587690277103e-05,-9.592814503356710633e-06,-1.341690372459739771e-05,-6.408971990390423278e-05,1.057109749498503739e-04,3.902782158349611837e-05,-5.898974451726524240e-05,-5.985281746796236298e-05,-3.658148336792981669e-05,-1.088786992571608550e-05,4.427917850622776471e-05,-1.110232529687451105e-04,-1.167471591697334226e-04,-1.262239250791345388e-04,-2.245670812645196292e-05,3.323523252996286600e-06,-3.254623164758156553e-05,6.721831368206012335e-05,-5.008326066971016844e-06,6.275441756485286716e-06,1.743275620731329911e-05,1.956652669990567321e-05,-8.832895209567353980e-05,4.819498142552520537e-05,-3.636427249911477761e-05,-5.323278976673297487e-06,4.127446171860770841e-05,3.335990521398097245e-05,-3.196929343279682396e-05,5.014442152913741433e-05,-6.804641948967013801e-05,-3.175189916771671531e-06,-1.463976271599009719e-05,-4.276228584193652736e-05,1.223811365168163987e-04,1.734406327844681208e-05,4.791881431640400511e-05,-4.898553640030555399e-05,-1.630931104353543345e-05,6.972662318573463394e-06,-3.057568315661850564e-05,-2.330515172510138665e-06,-7.181182527733764604e-05,-1.099727455969613855e-05,-2.796632060509590055e-05,-1.062820249742867681e-04,-6.997068639860577586e-06,1.693497429446594752e-05,-4.232187253500184108e-05,-5.217260870858311766e-06,-6.136359533199950639e-05,-2.148762377105203561e-05,-8.336749135485045994e-06,2.541039308413921893e-06,-2.206171227731139938e-05,-1.063491431180186241e-04,-1.592437995849972052e-05,-5.304655757577167284e-05,1.092043024835706008e-04,-4.422556362703165448e-05,7.727782767241018780e-06,6.805513134334306008e-05,-1.136504382342741777e-05,-1.123414697953970703e-04,-2.206216667853571606e-05,-1.812801266856042804e-05,-8.712676848042708575e-06,-2.044463209160514103e-05,1.873353117875820428e-06,2.350254564192916438e-05,-4.516197833233273861e-06,3.266354967805140973e-05,2.376349035197875063e-06,5.228452955076739534e-05,-6.160321623304619793e-05,9.702197749313410904e-06,8.183049008266807912e-06,-3.852128238204354915e-05,-1.128791893169585548e-04,1.495404614009603953e-05,-5.756514763911589378e-05,-1.130526019719739206e-05,6.964307841750820181e-05,-6.236766183649659857e-05,-1.237105686850729024e-04,-7.177962457500685798e-05,3.556443764946018373e-05,2.744881452817153674e-06,-1.707241364666930422e-05,-1.027109996815810431e-05,1.799215389053795708e-05,-4.394151136746186887e-06,-5.657667157828657491e-05,-5.408734870983107153e-06,6.270537351836417766e-05,-3.262398602737266224e-05,-7.676415223612999175e-06,-2.475100689281707411e-05,-1.172678496982719487e-04,1.937990138696141828e-05,-4.894664409668427450e-05,-3.490611875660673574e-05,-2.039266856663428550e-05,9.376291044359962186e-05,-4.921595499086620112e-05,-5.039673383947171630e-05,-5.499576547619737315e-05,3.369787389977424570e-06,2.469875723769129615e-06,-1.193809789596882758e-05,-5.650535182218868020e-05,-9.516252712713357001e-06,-1.143951210996748351e-04,3.165905430050954672e-05,-1.508351291676829397e-05,-3.265127743581459311e-05,-4.553101493535520033e-05,-2.426106333354950540e-05,-4.958848988191885085e-05,-4.821173663951731859e-05,3.755818640859500979e-05,-2.378952246820924553e-05,-1.199249930424820654e-04,1.383914113762896752e-05,2.434929132030011460e-05,-2.558387354708576530e-06,-5.516654860223873727e-05,-5.203127710512696141e-05,4.932036061870230775e-05,-1.686360406076350417e-04,4.078910709343624980e-05,-1.776972504732515583e-05,-6.188244850480243114e-05,-6.164609334072706346e-06,-9.939919959869069938e-05,-4.022522005022365012e-05,1.133192153647255382e-05,3.157422487294360956e-05,3.198612072248204120e-05,1.116345452050045649e-04,2.620805092560650229e-05,-1.305821006903623701e-04,4.704390185949806848e-05,3.975163294626946378e-06,-3.114368907777386852e-05,-1.133354331612531513e-05,6.580499536797533469e-05,-7.647196758314416128e-05,-1.777459388713895617e-05,-2.045712738320625517e-05,-9.294440328225400625e-06,-3.912734191181250180e-05,-1.425704084117681417e-05,3.298548074949740475e-05,3.170109217926779977e-05,1.068263222497234809e-05,-1.615725306335881668e-05,1.335073274225931861e-05,4.210953749767638688e-06,-2.432786562933996957e-05,5.936603862290715976e-05,2.279718735473284497e-05,6.366671316540136404e-05,-3.008823002495795598e-06,-8.291958897323442428e-05,-2.602987781076182417e-05,4.460595834922608487e-05,-9.610143111895343713e-05,-2.274732552931458174e-05,-5.233982901954619587e-05,1.855204239756073746e-05,