2.275254563245324542e-06,4.858904611495685451e-06,5.257047861693993255e-06,-4.519706409590697869e-06,-7.844653574051227049e-07,-3.535203257395187040e-07,-3.639109922582890184e-07,1.963786708547952714e-07,8.105912156738540118e-06,6.803749694561829148e-06,-9.072246399193323840e-07,1.327467903057593210e-05,6.289939266926468165e-06,2.682127599524165450e-07,-6.109337626577053910e-06,5.887426003849685158e-06,4.498839993766154553e-08,2.184952930968952727e-06,-1.288001748907103446e-06,5.905505621058671850e-06,1.098688404072099690e-06,-5.914273959669973991e-07,6.609606284435794776e-06,1.963375037268874190e-06,-2.200465882794453939e-05,-2.032438465198664693e-06,1.277822106696126834e-06,5.046245447137996352e-06,5.231475680703037866e-06,-5.307937653394155279e-07,3.886536675727659881e-06,-4.330044634450720593e-06,5.079600009159165077e-06,2.482687057986076711e-06,5.129210899481866662e-06,-9.236961314893298619e-06,8.907437605050434229e-07,2.788305612238098079e-06,-3.563886045092490464e-06,2.928760733697662486e-06,3.247081374568548093e-07,3.205992999662128623e-06,-1.337484631376434094e-06,4.388346531160444452e-06,5.698582578534668444e-06,4.628533692245633262e-06,3.407740603994539087e-06,-4.764779378600507443e-06,2.753090245396152260e-06,-4.291774558891678750e-07,1.932582887355305124e-06,3.789239800284894480e-06,1.501373653595588219e-06,1.338371231778929068e-06,4.689799745846481319e-06,1.243586204699303896e-05,2.306073128705878103e-07,6.254147856223194804e-06,2.718278845540880623e-06,1.795676695056650065e-06,9.447250252401338096e-07,4.421376263760884303e-06,6.513283645010546230e-06,1.180292841396029327e-06,3.756222056030105134e-07,-1.627270986987267791e-05,-3.502055978798577238e-06,5.469501345801261837e-06,2.075179262088426852e-06,1.032515863792471649e-06,8.206799230787970922e-08,2.129530856004708887e-06,7.724001534458178258e-07,-1.399851984173957938e-06,2.236264106472009222e-06,1.908713912430236515e-06,7.756239428332557038e-07,-1.770078831873022009e-06,-5.480617301777987017e-08,-3.298413680621284176e-07,1.309265196812616372e-06,6.746191853892353529e-07,-1.139341198477839438e-06,1.076208958384564028e-06,1.016827954208990580e-07,5.999226495242688662e-06,9.032025382580227359e-07,-3.531059719235684431e-06,1.282534095150230520e-06,3.025778949942582584e-06,7.751861363446665016e-06,4.241196889464789197e-06,6.292914548917524056e-06,4.866981140291580010e-06,-1.994075546810228217e-06,5.611320879113360956e-06,-3.707379035249862162e-06,3.116406641128570055e-06,1.913005278379948089e-06,1.301316889994233615e-06,2.623274893843738650e-06,1.049554138692428968e-05,7.185407939521060741e-06,-5.117563201169020083e-06,1.344569394000996694e-06,-1.144921992935790126e-06,4.047709644636301372e-06,3.869092415229612901e-06,3.444384741808030920e-06,-2.170763149403789161e-06,1.748682034802113446e-06,-6.416298651718622923e-06,1.321675026016482649e-06,1.631322921875977526e-06,2.631234530309579960e-06,1.346141995273358807e-06,5.276771025767745853e-06,1.022114900432346299e-05,5.095746042934289326e-06,1.431705401529279542e-06,7.311410177536316660e-06,2.553409076945298168e-07,3.175676244932620279e-06,8.628940087301909567e-06,4.043295471481359596e-06,3.245900521468295088e-07,3.792254935282141376e-06,1.745462338796580090e-06,2.477872046405257040e-06,2.292217880001344989e-06,-6.617450240591957529e-07,-1.891322105830588263e-06,1.023165831241864793e-06,2.014166621863051254e-06,-8.904095660337745432e-07,3.578802666376652762e-06,5.111932484936192291e-06,2.510800810930256830e-07,3.761295902224982170e-06,-8.846370462706604749e-07,-2.938000153544422906e-06,2.239537165883132580e-06,2.432453111591169873e-07,-2.531037385211025740e-07,2.210599817382397822e-06,1.895521388240193320e-06,2.250228392494176535e-06,4.285446326476123357e-06,-7.150153266925172419e-07,-7.336370571436752046e-06,3.660069494804953616e-06,1.983808742195214535e-06,-6.947329793519080779e-06,-5.859342815623153401e-07,-3.217798223086047576e-07,1.814373284673020419e-06,-2.106423664657700478e-06,2.792300944974794069e-07,9.476113139367924974e-07,-1.289261283933805901e-06,3.338984128495786328e-06,-6.066953429566394036e-06,7.331116605981941139e-07,2.908773051736384050e-07,-1.661490321630032831e-07,-2.664914576009823499e-06,7.059455914383945933e-07,7.586604494704364140e-07,8.995042082920842166e-07,4.058811149224786978e-06,-1.553188460440040259e-06,4.415210079504778508e-07,1.606783732732000292e-07,6.439336447152376976e-08,2.103833698204430271e-06,-3.260797998875686397e-07,2.038603386990187078e-06,-2.437792772739626857e-06,-3.068602512637606535e-06,2.922754879701886341e-06,3.587586170765813270e-06,4.293748995256960393e-07,1.093387425803972547e-06,5.439523181509272939e-06,1.043796006500146889e-06,-1.510922576555024433e-06,4.759592574322879627e-07,2.710642682873001250e-06,9.713865053369450404e-07,-1.166000713495198414e-06,-2.689761662947321343e-06,5.345762940348895151e-07,-2.000823564247487255e-06,-5.188384164890955946e-07,3.222070190108396606e-06,3.356097660827242364e-06,5.312985263433991948e-06,5.351040714250860434e-07,8.145289241712923922e-07,-1.153584884724285875e-06,3.928966838573141642e-06,9.569890021585383374e-07,6.046141198178794215e-07,5.600453935173432192e-07,1.669278352554877182e-06,-1.062776223478385840e-06,1.079041525478827651e-06,-2.504898579403063352e-07,-3.390020066723074220e-06,-9.358561103039536848e-07,-1.678875276939494708e-05,-3.702806842939489962e-06,4.555202642300864913e-07,3.427718519491351708e-06,1.629765088274461794e-06,-8.226155274682461036e-08,-9.086495176382008075e-07,1.438579882629883508e-06,-5.380912122954826513e-06,6.769592325848497422e-07,1.092717494366800916e-06,1.772259036050171256e-06,7.933467767460602971e-06,-4.623880134512839525e-06,1.202561329558761106e-06,2.391897497954810422e-07,-2.376533559843180965e-06,5.941122174370833495e-06,6.799276709573814384e-06,-2.558235310824406895e-06,1.504375319816718368e-06,1.745673667192730437e-06,2.498737473824943796e-06,3.132482554999152126e-06,-1.575984981215066507e-07,1.032754571376006334e-06,-6.976892545598382635e-07,-4.850714059117173095e-07,4.143419611156565668e-06,2.720948298335794078e-06,-1.547794864588479985e-06,3.570305783524602923e-06,3.576374508859194153e-07,2.644200348661022836e-06,4.105197128764810140e-07,6.962859642940673074e-06,5.755697745602617761e-07,-1.132068442248358118e-06,-1.081997532603761189e-06,-3.906907629646654133e-07,3.067150468810803167e-06,-2.475280162602271791e-08,-5.269220920649340499e-06,1.905466148284507387e-06,2.610344393196129011e-06,2.893855504998501387e-06,-2.870007864531553821e-07,-1.210901297375859505e-06,-1.276100778250747178e-06,4.931376717320469886e-06,9.285098503411774920e-07,4.386186261001448068e-06,1.629862472651723116e-06,-2.071062016421497807e-06,-4.237525818741434658e-07,2.097346814230499271e-06,-3.479411891097581296e-06,1.957583143372026667e-06,1.696386935842473274e-07,-7.189696850218882387e-07,-7.325153441049061378e-07,2.796611763609449142e-06,2.439888599249154708e-06,-5.987584332567590885e-08,1.286615734717332721e-06,1.808324542801771948e-06,4.731041134745930700e-06,4.665954284667178482e-07,-9.531465115232877215e-07,3.331275154575769858e-06,-5.157690977215913106e-07,4.041590916563878365e-06,6.538465866380074492e-06,-1.180135893748651774e-06,6.814612063139415031e-06,6.200753463535640822e-07,-3.612771791466768314e-06,-5.184754629086878004e-06,5.407579409115339484e-07,1.831770988055766725e-06,-3.929122102117911244e-07,1.339611065234296369e-06,3.862616216723379305e-06,-4.577482828887936776e-06,2.496971340427358815e-07,9.942611096133795541e-07,4.190719370093060253e-06,4.352540226063803878e-06,1.163253499208165259e-06,1.731577365124431279e-06,2.019977385556361895e-06,5.822524842933347891e-08,5.073935563440926570e-07,9.555725848063881534e-07,7.741719554061149768e-07,-1.985633549537943064e-08,-7.306276914060076808e-07,4.177988632482586340e-07,-6.077765974990763097e-07,-2.014769877508943623e-06,-7.656820333350203515e-07,-1.085889085926461008e-07,9.124229835738721092e-07,2.973917483442849172e-06,-5.036881288396354558e-06,2.425366781206052823e-06,4.005213062386312615e-06,3.618117844238784586e-06,-1.768406374918685496e-06,1.018509724569981795e-06,2.546374962745563380e-06,8.453946921491967027e-07,-9.875671586182152110e-07,2.078089784922901535e-06,-5.089666204297861639e-07,-3.940007467957308356e-08,-1.892082215549783702e-06,-1.306829186598523772e-06,1.733668795586180266e-06,-5.624022680354243953e-09,3.240675063901125758e-06,2.159905447288453918e-06,1.319221659807016900e-06,8.676129902791234735e-07,2.977177056678747243e-06,9.291992984197796061e-07,-2.633431136634711045e-07,-6.368141661674376818e-07,6.411172114005910577e-07,6.716395463591937893e-07,1.382351139785651000e-06,1.079874708316042153e-06,1.180256794152401476e-06,2.165645300648009497e-06,6.184468477303220574e-06,-1.991223005624262866e-06,1.671800845892522451e-06,-1.628066052983414376e-06,1.712761656781911113e-06,-2.891060695280590233e-06,3.775441121670382400e-06,-2.753892415496000601e-06,3.106747813618931267e-07,-1.439938210444729600e-07,-2.058353227158151492e-07,2.583680644348065338e-06,-1.258489114393875830e-06,5.382747409750656340e-07,1.157003141499388559e-06,-3.798013370016746585e-06,1.045473024559715522e-06,-6.143932624243238138e-07,1.062162901969215297e-06,-2.473338325357732616e-06,-8.579810395639434397e-07,-2.416038639434581596e-06,4.332272898262818817e-06,1.905889962232963121e-06,2.728091280479935118e-06,1.920618928793416110e-06,5.657654874783045167e-06,2.704278919310186816e-06,-3.669316875383249881e-06,2.552411393075150081e-06,2.082249735566357402e-06,7.464524008673378608e-06,-2.938708441761338456e-07,-1.852840278590252649e-06,-4.523905697411660365e-06,1.181113055450013184e-06,2.150370913109517159e-06,1.685758149638840862e-06,5.809882464987758339e-07,-3.250187396838441326e-06,9.505926357196963868e-07,9.060849891582248711e-07,-3.458527083467541111e-06,9.174869482305030613e-07,9.726195148834145681e-07,-2.186071223047892119e-06,1.731201684205066053e-06,-1.888227286204426495e-07,8.730281955218090819e-07,3.369481700231876215e-07,1.936861205306001052e-06,6.366637447140219478e-07,-3.195670783352437025e-06,-4.059255085984965862e-07,-3.761534019700600599e-06,-1.382245317725086499e-06,-2.359083041060508691e-07,-4.782552841247436419e-07,2.026122198363678062e-06,4.729452128811296817e-07,2.836261687209904392e-06,-9.984263185331210664e-07,6.449815730997433549e-07,6.948734572426245092e-07,1.537722505033773443e-06,-9.479340809055256766e-07,4.820738986938313487e-07,2.924327138309695232e-07,1.275688866090353189e-06,6.801923375551224297e-07,-1.995355813111569592e-06,-6.870693802476550362e-06,-3.631883644568620706e-06,2.554900831976213133e-07,-6.942105367723608050e-07,-6.059027853394266792e-07,-4.138600073013103191e-07,-4.122983142674694142e-06,1.670177624652449840e-06,2.118910932465066833e-06,-2.186114127079022054e-06,1.561387249785178585e-06,-1.515618232594402731e-07,8.798444817118812419e-07,8.997067652942107719e-07,-5.493757733443603770e-07,-3.769485275367542974e-07,3.997191539441192084e-07,-2.247257964240942380e-06,-6.820138111061276276e-07,8.618930433673328554e-08,2.063053070750965601e-07,2.550977918436534266e-07,4.136500527882791735e-07,-3.991428003953295516e-07,-3.061034456413988252e-06,1.826662534886194728e-06,6.340072533432513522e-06,-4.048069985970789234e-07,-9.313169655637254465e-08,3.292354510047227982e-06,4.130203892191329498e-06,6.377757472327398401e-07,-2.431437289196160316e-06,1.878479662508292310e-07,2.931672120043349247e-07,-1.100215997532759979e-06,1.417849413205916802e-08,-1.261420909724268059e-07,-4.063363749118008238e-06,9.173175923778882493e-07,1.159963666410223909e-07,2.305556462687061706e-06,-1.392850309903697007e-06,-5.379834212272502303e-07,-1.946798765014543247e-07,-1.101871270323701483e-07,4.228147740516591180e-06,1.954767739813270933e-06,4.909379263054250143e-07,1.230736751854353153e-06,2.696354908132419245e-06,8.538594781161446910e-07,-2.649250694692821982e-06,3.395494278718658467e-06,2.001258168484957795e-06,1.036801992952013145e-06,-2.021614199288911815e-07,3.115608742593045909e-07,9.449216397985335181e-07,5.994120773410540135e-07,-8.341707277975488602e-07,1.430375889535341542e-06,3.316585088741138421e-06,-3.570111658126434983e-06,1.712565545913146861e-07,7.205006180157920209e-07,-2.546675950765648312e-08,-1.590024753379223138e-06,1.975982874387123001e-06,-1.439148717308940204e-07,2.704182161267438228e-06,1.773583705723778559e-06,-1.172698974404340517e-07,1.131470800967593949e-06,2.579317050693170508e-06,5.415715386838387279e-07,1.804124376560108295e-07,-7.914653256513957207e-06,-6.959363935509833534e-07,3.873923526180701226e-06,-4.197704884426406540e-06,-7.468024308936132120e-07,5.714019460320854091e-07,6.738247054202175472e-07,-8.241500182600321703e-07,-2.288281386232830086e-06,5.976944658490864387e-06,1.112139151320868093e-06,2.812494684763075417e-06,1.981823213850100533e-06,7.957745331317686710e-08,-2.311033020075346875e-06,1.787981572116955806e-07,-1.352152196964122937e-06,4.108890031238076082e-06,-8.696636432874046779e-09,1.717806445790496115e-06,-2.451087229919041409e-07,1.757886748758139522e-06,4.398340610316487533e-06,-1.403128414991035863e-06,-1.157703268916783933e-06,-3.762079417093330039e-06,-2.145619059986472404e-06,9.966812582319446325e-07,7.481674353089196288e-06,4.751881225695161800e-06,1.986007186888775727e-06,7.654420317205189330e-06,4.462262924301051823e-06,2.185272736222674220e-06,-3.225351740302770575e-06,2.394349777470084791e-06,6.115740740907257764e-07,1.962633287185596994e-06,-2.761953280696291912e-06,4.394356225527488644e-06,-2.519162873183685295e-07,-6.524046510658517582e-07,1.530995965322410504e-06,3.515214072317483026e-07,-1.240647143699569471e-05,-2.543455852527092748e-06,2.548160746704511741e-06,5.656029494957009358e-06,2.670393481647000452e-06,-2.356181326211697050e-06,2.011590390571231834e-06,-4.230334306933457101e-06,3.713778884072632203e-06,1.323133498927844390e-06,3.060581186138339659e-06,-1.462818251938569707e-06,-5.044527683904398532e-08,7.173730464144637650e-07,-1.491706629327804142e-06,3.384692446398448839e-06,1.053973766878691978e-06,2.167534198610201015e-06,-1.290064461133714826e-06,4.179352007104851912e-06,3.801583709985285916e-06,3.110259942504942870e-06,1.703756601679182896e-06,-1.757997043904855135e-06,3.823122131040685003e-07,1.288004429923566892e-06,3.393945482808785435e-06,1.699103596407866358e-06,4.666974026312587179e-08,-2.739643148993274692e-06,4.339300860900678351e-06,1.065369983564951047e-05,3.542124274707246361e-06,3.166698761274388441e-06,-1.869650046398206624e-06,7.226915564757567553e-07,-7.631614362224398851e-07,3.692201418537542192e-06,6.550861982748765036e-06,1.021372751922260028e-07,-1.476647689818302290e-06,-7.926881036961914013e-06,-8.753416456608914618e-08,5.755467372009620609e-06,1.687297055748852232e-06,1.352820762927166841e-06,-8.511952270209570204e-07,1.531784190282459787e-06,-1.561289173681718788e-06,-3.464789546782740009e-06,2.012844035284559226e-06,1.250630958846871591e-06,3.627590738800740344e-07,-5.079639424440703941e-06,5.325079571652163662e-07,-1.351020301485834716e-06,2.019449485441813953e-07,1.045435143827659696e-06,-3.881752772695168236e-07,4.228065119146115311e-06,-2.920342929520828271e-06,2.647094902745169575e-06,1.418028039880091141e-06,-1.568476610473665653e-06,5.877611430065633214e-07,9.018886045817817770e-07,5.889145071400039887e-06,-1.400701167624532136e-08,3.880272711393792967e-06,3.471062576647587904e-06,-2.545632822306725961e-06,4.670975829829712108e-06,-3.123727844563348108e-06,1.647064254030496156e-06,5.474092445502118636e-07,1.112546924355930979e-06,-5.259835812031696095e-07,3.528035005067183442e-06,4.929142672649387712e-06,-3.548712900436915055e-06,1.350631295002959908e-06,-3.087465194681523803e-06,3.000066051087521868e-06,2.905754055540291058e-06,1.934801036442700539e-06,-3.773919913764153430e-06,2.663016580685192229e-06,-4.966769000324687022e-06,5.152582067177525056e-07,4.037346024042402001e-06,1.049122994800964329e-06,1.800056802178700797e-06,3.565900769015166296e-06,7.347506808565311148e-06,3.894852313070399335e-06,1.976285103112527368e-07,2.639529428328545355e-06,3.918756991187204568e-07,1.763122450915824326e-06,4.493207785589099765e-06,9.652979645490413773e-07,-3.051076867021889811e-06,3.545967138046976476e-06,1.032044464304400734e-06,3.539370905441692281e-06,1.244285986558694122e-06,-3.280538887009664016e-07,-2.992548975601452295e-06,3.017393945762140829e-06,1.315019165747221199e-06,-3.546515564616791153e-06,3.276451195859626614e-06,5.950244807849022439e-06,-9.174810082608283752e-07,3.297434893384667541e-06,-2.891869252480133182e-09,-1.428281393072589346e-06,2.014729563985150714e-06,-2.414181745289301945e-07,-1.111563072247121977e-07,2.336228423943383845e-06,-5.482633544467312687e-07,3.206709040883896150e-06,4.847611663315622720e-06,-9.266676042631813583e-07,-7.674313203753971218e-06,4.371594108904150931e-06,2.704012654678525295e-06,-9.086728847639682563e-06,-8.263508101722920714e-08,3.784942512463296863e-07,2.923467534272009610e-06,-9.055633902534951822e-07,1.511581406331940676e-07,1.626473700594041047e-06,-2.069207935386574096e-06,3.222750024915561999e-06,-8.397432473313944939e-06,6.564927110082072313e-07,-1.391706408282738015e-07,-8.423246800279605817e-07,-2.557296628004083658e-06,9.256082912887480086e-07,-2.774691658016985769e-07,1.496835767288813300e-07,4.179024775233715778e-06,2.081968042461028538e-07,-5.309058003271149577e-07,4.397187410008957457e-07,-8.539075134572557340e-07,2.790372426823067133e-06,-2.639951740361544880e-07,2.333015602291420412e-06,-2.435986290436395695e-06,-2.792676986947209961e-06,2.684584401394228773e-06,3.625520092463991829e-06,2.956856717718825853e-07,1.222860131368341255e-06,4.567892747180051227e-06,1.596675778734240887e-06,-2.568746318608761475e-06,6.567635611399372143e-07,3.031047568350198194e-06,1.533751351686219782e-06,-1.863969002454889476e-07,-3.159948600352512375e-06,5.223965783320956190e-07,-3.156058341853963923e-06,-1.503085098976519510e-06,3.324952725743134896e-06,4.946284177337230990e-06,7.301137441670810328e-06,-3.058712616618501404e-06,-4.420974267015458816e-08,-1.410282951221350631e-06,3.135398600033437560e-06,1.383233879217774204e-06,9.326965872172311164e-07,1.209813703789897919e-06,1.845956324747005715e-06,4.473925493442522619e-07,1.800616181739104330e-06,-1.546546702523370795e-06,-3.356054443556716595e-06,3.790514894153476855e-07,-1.956331597969132119e-05,-4.081689385155412926e-06,4.415006071520084345e-07,5.927127717549392379e-06,2.027346960836253754e-06,-5.905228410566933500e-07,-3.476593999164377575e-06,1.332538224889335794e-06,-6.452981118475776073e-06,3.222796650676355283e-07,1.166200554775029613e-07,7.914797258080946299e-07,8.861687085625235522e-06,-4.999041446542354044e-06,1.042819940004390712e-06,-3.765726298039282056e-08,-2.197344836437402018e-06,6.006625188851886984e-06,6.438317952286455266e-06,-2.454647671205071754e-06,1.053187115525674033e-06,2.398465819140759283e-06,2.292937729883590106e-06,3.306417613487330302e-06,-5.870156074348319048e-07,-8.389229623386668492e-07,-8.803924452928947677e-07,-3.483377317167121463e-06,4.339261626471170158e-06,2.721609892464171734e-06,-4.189462901328606719e-06,1.550219965854672019e-06,-4.865284192873095377e-07,1.371561031806680207e-06,-1.733704535597745069e-07,8.966311425656325456e-06,-7.271583178239941712e-07,-7.166854878049817134e-07,-2.479475755781560660e-06,-1.721054410480241137e-06,3.315147002860198235e-06,4.843024874682177748e-07,-7.304411918009019347e-06,2.835213306231323179e-06,2.202394578246101505e-06,4.161791671347451723e-06,-8.157075000357477289e-07,-6.087865939973450481e-07,-1.775033890791500894e-06,6.505015678814939600e-06,1.644508796472738643e-06,6.373220534871488033e-06,-7.823748002748236302e-07,-4.148661661937221128e-06,2.905265181014385118e-07,1.113425867654254946e-06,-5.449749410567941497e-06,2.488388616201432024e-06,-1.149533916034266018e-07,-1.630273043823366450e-06,-5.315901780600665685e-07,4.136817003250593733e-06,1.642568146281812330e-06,-1.352261502641719052e-07,8.667122025628230099e-07,1.140126582042273901e-06,4.364574659589921369e-06,8.818936875521635713e-07,-1.855540646478152129e-06,4.728612214553488994e-06,-1.835089772105365575e-06,2.875874028879644652e-06,7.844478617271395142e-06,-1.832078721878322342e-06,8.794156413916736750e-06,5.517782763339694488e-07,-5.016509319657609047e-06,-5.001172800374141316e-06,1.162855099499436018e-06,1.625042251562359320e-06,-7.756788403945103024e-07,2.429686148136985077e-06,3.197539793961703971e-06,-3.932094689876483134e-06,5.155925072925456072e-07,1.176962861867359595e-06,2.846428012041681585e-06,6.370811820492509161e-06,8.726181346525375020e-07,1.324244855515420542e-06,4.745148500670455233e-06,-4.009507836966899809e-07,2.458719855004132015e-09,2.429937128949466359e-07,-1.782589742688088373e-07,-9.876658945657636239e-07,-1.607158584049189690e-06,-2.839483350884784400e-06,-7.192677341249794932e-07,-8.327766716593437513e-07,1.758411876235963960e-06,-1.095807677258062730e-06,2.638133678618710744e-06,2.107198011724871745e-06,-4.815083492855865498e-06,1.783623087870039587e-06,2.391177736481369030e-06,3.537658518674704206e-06,-1.427128561661007799e-06,-7.407109145714896886e-07,2.631363873290281201e-06,5.241679748651633407e-07,-1.196882818079204634e-06,2.887187324289935396e-06,-9.767792754764287221e-07,7.583044245758020537e-07,-9.913382123393189179e-07,5.282424707962701408e-07,1.783158726100533412e-06,-4.761092760606836776e-07,3.147031688440868651e-06,2.950402934210472022e-06,1.259270872946857222e-06,8.665987891354283314e-07,3.999196202911291577e-06,1.035577050410583186e-06,-3.555869628027675489e-07,-1.898807059507952761e-06,4.357856351275974748e-07,-1.011723224750665855e-07,3.081666442312595918e-06,8.431534429039945579e-07,3.685369817845001282e-08,-1.377943695446156241e-08,5.300600124075701601e-06,-5.251296020928292822e-07,2.404357049710213151e-06,-9.149077442287408771e-07,2.453775162786714480e-06,-1.817772930571702392e-06,4.491100063995794794e-06,-2.081610029522011545e-06,9.926074039723359027e-07,-3.837742238406805914e-07,-2.064759950124285460e-06,4.964548604540214943e-06,-1.179519608672019500e-06,8.587647386099691014e-07,-1.147500709678104669e-06,-2.529159615077370110e-06,1.411542970575256258e-06,-8.748632561775463569e-07,1.334317228605817766e-06,-6.300087470306245513e-07,-1.044691500204138125e-06,-2.735358527547482585e-08,5.057050929575719419e-06,2.774005706545923941e-06,2.430365283024455124e-06,1.582206868336463508e-06,6.809954936353243260e-06,2.144071041617582970e-06,-5.139770223871932739e-06,2.480625901997553937e-06,1.767947633179884111e-06,9.216764785318783444e-06,1.385942824187195613e-07,-4.685257692882566091e-06,-6.978411234808801963e-06,1.819939437350624788e-06,1.503541951554957047e-06,1.293073232070282819e-06,7.809287694838827914e-07,-3.907102168331519870e-06,1.862331363682335962e-06,-1.066135970054679665e-06,-1.507849231530358201e-06,2.619223203884720774e-07,2.652345675814886444e-07,-3.612677059297137517e-06,9.263147610127091999e-07,-3.034709989728569627e-07,1.524160816454980048e-06,-5.673666035115696149e-07,2.926247136762127451e-07,5.541432895964234570e-07,-3.518694893787984883e-06,9.363286206155532333e-07,-1.537538889263428976e-06,-2.481230982967957071e-06,-9.382238635904347751e-08,-4.056569512692910423e-07,2.347413562601008024e-06,-1.230087513421172525e-06,3.532156153932045740e-06,-3.552818236512351251e-07,1.156877509888662086e-07,1.016654523790449277e-06,2.070233819490947562e-06,-9.225107263924528173e-07,-2.803497364443281667e-06,3.545056735670086623e-07,2.585898090350400425e-07,5.352560983652921404e-07,1.147014533853409919e-06,-4.648711050949402085e-06,-2.045229901623966677e-06,8.905307022847574152e-07,-9.896161270882074399e-07,-5.120542987512445947e-07,-5.436568308338070317e-07,-2.101634104933560715e-06,1.480713261246998407e-06,4.757777474632835917e-06,-1.808441461504522753e-06,7.076829912463976941e-07,4.917814439248212971e-07,9.584938527008360654e-07,8.421729405936845994e-07,4.187417659883466299e-07,1.315254034402549705e-07,3.235936258559682667e-07,-5.879397070730746491e-07,-8.167825317852358670e-07,4.530518272458659842e-08,4.329633430846468982e-08,3.944338622464175536e-08,7.077903186136509676e-07,-1.027780543696072161e-06,-3.475851830274960454e-06,-3.038683788457855586e-07,8.098584220397261619e-06,9.906724974855916751e-07,-1.031986988517251652e-07,3.697823309061110192e-06,2.488858590989934110e-06,-4.691427847485712086e-07,-1.953539156078460414e-06,-6.194076708210842459e-09,-5.797174329462698262e-08,-8.878475923323289823e-07,6.624679323412355258e-07,-6.677506043649950214e-07,-5.117571290461856328e-06,5.360735097145174804e-07,-7.080113248626659397e-09,2.976720741995481801e-06,-1.556692210761014602e-06,-9.203448154573734831e-07,-1.403794982257340645e-07,2.447895977640132207e-08,4.535642549063419379e-06,2.031437744973052239e-06,3.255725600048152683e-07,5.736595271744701999e-07,2.152198205608895632e-06,1.981289969659525603e-06,-2.492817721337615364e-06,3.985113422603668477e-06,9.336432302403829262e-07,9.359264569350782624e-07,-2.037111704989489114e-07,-1.788891696767179801e-07,1.004565803553213547e-06,8.837873431046772297e-07,-1.729258105508996573e-06,1.325402740823396317e-06,1.344911593036489596e-06,-3.082840403647297994e-06,-6.201414719695589981e-07,1.734267502914791052e-06,-2.135410998099532409e-07,-3.110882618680122976e-06,1.829037922655090945e-06,2.065369430245324003e-07,1.922869076802725814e-06,2.423017700986120597e-06,4.834759622777444944e-09,9.891793589628815058e-07,3.498002655097299738e-06,-2.820083660732658326e-07,-1.709143990355389705e-07,-1.005603985439522207e-05,-4.780089771798749356e-07,3.676352013924188289e-06,-4.263938652468210145e-06,-6.633042806368770104e-07,-1.813699202473937128e-06,5.971308462709065996e-07,-6.645922798890635750e-07,-2.371837238729046844e-06,5.508234778205174884e-06,6.807850657942845415e-07,3.627656720178828699e-06,1.911070989181394131e-06,-2.820480632922408481e-07,-1.646420560668760532e-06,1.244739226110709177e-07,-1.852751949453124874e-06,3.370805053850420226e-06,-9.461086328881572508e-07,2.140768291556254338e-06,-2.158027428501840494e-07,2.761816899290146866e-06,2.639981812320048237e-06,-2.598404235437320342e-06,-1.633111356427489679e-06,-1.834151036148473013e-06,-6.373609515118265866e-07,4.999502841488761499e-07,3.991929242701189797e-06,4.560396696268602908e-06,2.888350126048924074e-06,4.171078475641517898e-06,3.188261936472949764e-06,2.346192232449853974e-06,-9.264373369888967258e-07,2.824961832252705597e-06,4.400781002152556330e-07,1.246312264072993966e-06,-2.564438216332682030e-06,4.269340643751757076e-06,-1.698881063546140978e-06,-3.969077971936721522e-06,2.121598238382773666e-06,-5.002317329612784313e-07,-1.404314499457387563e-05,-2.438384057555783527e-06,3.496958865268277258e-06,5.513914712590906125e-06,8.670007865437753663e-07,-4.657558588337356505e-06,1.794329987426569346e-06,-2.220278381257431501e-06,2.814963239111997130e-06,-2.065878757061594024e-06,1.456490185956350196e-06,-2.005119170212423533e-06,-1.579168864264369339e-06,-3.490355420139149339e-07,7.441971399529868210e-07,4.802912495590649107e-06,-1.370330171910402765e-06,3.444598982832468567e-06,7.363308258308282059e-07,5.620563277305862440e-06,2.665719635465943424e-06,-7.811325644971780494e-07,1.152060496445757448e-06,1.724578666153741648e-06,1.289511473279106786e-06,8.089800418346994312e-07,5.060339345613901913e-06,7.729543313014320106e-07,9.199377000249166774e-07,-4.430654503808543838e-08,2.105436004459635172e-06,7.033381847413124414e-06,2.813206347043456456e-06,3.162907127705446253e-06,-3.741552922996685459e-06,7.413198045655200125e-07,-1.909206518511948410e-06,5.145871510259733686e-06,4.309758627664715633e-06,6.418878083256415803e-07,-5.526170398214620685e-07,-6.763558861880362509e-06,9.584467826202404938e-08,2.952271300601407537e-06,1.122473337952753035e-06,6.368988782635297891e-07,9.274229538317153563e-07,6.051560176880720258e-07,-2.000902484241588502e-06,-1.813331734371988060e-06,2.565245619902551524e-08,1.533049938782585671e-06,3.597593580945748687e-07,-5.650607572029667004e-06,-1.354901381897585537e-06,-7.294075412941418177e-07,-2.020954849767268664e-07,6.899400805921672665e-07,-2.196432781864685602e-06,2.405295356580767042e-06,-1.750890950926410134e-06,2.376378822914301197e-06,1.101354019757709001e-06,-1.874299676158104084e-06,-1.261872578341723628e-07,1.197042630352519008e-06,4.344885394173013956e-06,1.084782971940332495e-06,4.270913303740164207e-06,3.741658228946260937e-06,6.205526505509744039e-07,6.416647205838804585e-06,-1.391157635896821407e-06,1.879868257755785993e-07,9.939457200142110576e-07,-1.298489264340296075e-06,1.327622801687656097e-06,3.947639064561111414e-06,3.210528789802557938e-06,-1.054567843411230429e-06,1.669019891154279508e-06,-9.167403815417170571e-08,7.403063814561467148e-07,2.358200055041214103e-06,-8.704890045800874384e-07,-3.117119972494091054e-06,2.696431630968127632e-06,-2.205308678394662946e-06,1.051364842104991164e-06,5.146108679128873933e-06,1.027560469733612249e-06,2.476413207922699953e-06,4.845900609009354249e-06,5.414363559862587693e-06,1.455842955450176588e-06,1.475643714396877999e-06,3.361883832759050109e-06,-1.580202133433459830e-07,2.311919789671038077e-06,5.150042566774829174e-07,6.569496542856095889e-07,-1.326997980909665993e-06,3.682295198547067700e-06,8.343933997729948998e-08,4.945402487075459976e-06,8.295535587371886056e-07,1.031510879496740740e-06,-1.142737207189830943e-06,4.006201658387312326e-06,4.853203740567048730e-07,-3.307333033326100856e-06,1.588638697479557234e-06,5.977760375519684053e-06,-4.020187886872893561e-07,1.385775650636016402e-06,-5.007036177758921539e-07,-4.703300965604439365e-07,1.291746376916650737e-06,6.824167503767709306e-08,4.137462140395635193e-07,1.839041394901522904e-06,-5.768627066344393913e-07,3.531222301014552523e-06,3.917891460847516756e-06,-1.759883835676895575e-06,-4.359687453641414922e-06,4.064032571784103546e-06,1.461995767158283921e-06,-7.537902760059975994e-06,2.694022129726320455e-07,5.013472238155007272e-07,2.818643559102615645e-06,1.210859672965380344e-06,2.914888668216695919e-07,1.452521907089570368e-06,-1.687720153169746567e-06,2.226486026508590886e-06,-8.305999551564386028e-06,1.207101430676235055e-06,4.603164465133624831e-07,4.297299943969572282e-08,-2.495063652229400572e-06,1.077083659198371032e-06,-1.198238941193883656e-06,-2.111370350624949258e-07,2.746567788618867397e-06,1.359231122458051141e-06,-1.459842866342391306e-06,5.252081462873779243e-07,-4.929457538701313138e-08,1.445353699320062867e-06,-5.203136648803613992e-08,1.213844219755443407e-06,-1.790170510002910609e-06,-2.294337411652719005e-06,2.802796853509562736e-06,1.965083970663352284e-06,4.518287644129469911e-07,1.271577270876483176e-06,2.934268979799077573e-06,1.512073948563237775e-06,-2.921710827526703626e-06,5.301453074925245014e-07,3.267669711615709514e-06,1.779998607998698888e-07,-8.890106392280984881e-07,-1.772330884754782979e-06,1.658438863751571194e-06,-5.974033895664835658e-07,-2.550280332368625963e-06,9.348429464081240500e-07,3.512718275148299972e-06,5.273571364867513877e-06,-5.422690332079474409e-06,-6.652447147683080048e-07,-3.216424449877351953e-06,2.862291395452256216e-06,1.580551980700348054e-06,1.159214811254333392e-06,2.038118781933791422e-06,1.510154392999178597e-06,1.635918337407833450e-06,2.123565380379476345e-06,-2.541465719809881223e-06,-2.235830212458006548e-06,2.975665172857462913e-06,-1.472830772203013567e-05,-2.959135025755765642e-06,-1.000759505162917867e-07,6.133088799104018518e-06,1.962512056754985409e-06,-5.696385447870189389e-07,-2.255064324243813762e-06,7.575621687379502889e-07,-5.010939240919014441e-06,6.290365359948673054e-07,-1.539409492709291575e-06,7.617586543022804371e-07,7.464943753476147808e-06,-5.387358620216413217e-06,4.413313371694994732e-07,3.102449611230978694e-07,-1.063294200520966744e-06,4.812200706153306271e-06,3.817667009645361141e-06,1.120982549145127242e-07,1.170194092512136653e-06,3.333005033439168842e-06,1.906592551842308691e-06,2.342830765759874889e-06,-1.552284986145559338e-06,-1.198889155465382999e-06,-9.476022109831257422e-07,-1.971036948737081764e-06,3.552334761043449884e-06,2.716895901169367669e-06,-4.452800385395016332e-06,-2.957022390292801852e-07,5.648293641320656500e-07,6.746752599959516207e-07,-4.482907252339098777e-07,9.661733140055576063e-06,-8.459585741021286698e-07,-8.313592163906735811e-07,-2.845358854287847982e-06,-3.520016271395962508e-06,5.545558570641015644e-07,4.539295905229627844e-07,-6.941425786551921043e-06,1.120791650778579261e-06,2.538036271587686765e-06,3.114539504883095523e-06,-1.727999554075549713e-06,-7.097421389506931847e-07,-8.692166996200259871e-07,6.824140084587339157e-06,2.239012689267445409e-06,4.901131151963724859e-06,1.968359552407915709e-06,-3.537084587079726634e-06,9.729780619004319973e-07,1.054610434537688658e-06,-3.139391430659507901e-06,1.763965247626914074e-06,2.359426710484144791e-07,-4.033115740378085336e-06,-6.313940241467138655e-07,2.999477779000145484e-06,8.070554958869714955e-07,-5.181536843086142183e-07,9.814714086329585903e-07,1.176194150010262246e-06,2.200456786651808039e-06,6.305616747321132747e-07,-1.704106788937103439e-06,2.683371504195048370e-06,-2.445069000146544630e-06,1.910987166430809670e-06,5.691228345570193404e-06,-2.181719688713701131e-06,6.461228685263650700e-06,-1.456220964976558846e-06,-2.052909644805472121e-06,-3.664465182397360450e-06,1.322101231222588326e-06,5.993319662797189115e-07,-9.948654252607390170e-07,2.479645169778705550e-06,2.902714805852794879e-06,-2.775055222357984394e-06,1.902268650033516167e-07,1.224025370471287407e-06,-1.065849805316819928e-06,7.021763898342238961e-06,1.024512850826725884e-06,2.169631323684973695e-06,3.489027627608790025e-06,-1.233866528068403497e-06,5.068671818455339404e-07,1.507479798484061441e-07,-1.649592192905697973e-07,3.010679005044522594e-07,-2.101454805872198323e-07,-2.040304685780954346e-06,-1.443236980565100044e-06,9.360863371937751055e-07,1.473022468629013546e-06,-1.589904007888088468e-06,4.310504037202234825e-06,1.613698509228913084e-06,-3.274298880378740934e-06,8.660804825205276717e-07,3.312979458489386947e-06,3.679257527520182264e-06,-6.467782634339353205e-07,-1.700978071953322737e-06,1.764210133365282111e-06,-1.134205489999802100e-06,4.788462260847018631e-07,3.417572489069591855e-07,-8.590725467649523842e-07,8.680139070562359333e-07,2.288158897664588819e-07,-9.979743107366969528e-07,1.403239322847173647e-06,-7.066536533364565822e-07,5.999765343975392206e-07,3.552062037723380625e-06,2.306157527105577814e-06,1.334993440431181543e-06,3.344935537257088049e-06,6.813852605688807211e-07,3.052333375020673007e-08,-1.524123415802969729e-06,1.066788167818961276e-06,-2.157315631625383884e-07,3.429878115674700597e-06,1.190739751593475306e-06,-8.826580539221558976e-07,-4.844894611961974702e-07,2.529976833652288691e-06,9.809044863784672077e-07,2.263846555857974319e-06,-6.945445929406396755e-07,1.741723676581163601e-06,-1.838487363133759906e-06,3.537289604522022996e-06,-1.487711287680455801e-06,1.488047065472600903e-06,2.037840651545616400e-07,-1.735772895310546000e-06,4.408856888874396070e-06,-5.137630554569578444e-07,1.006777263698290829e-06,-2.011937884134581362e-07,-3.376610793107392419e-06,1.537391452348554909e-06,-3.155758674613399810e-06,5.057109497999695681e-07,9.263746359043957205e-08,-8.114625015306331152e-07,1.949009864918041086e-06,3.618900987049349906e-06,1.679398724026820657e-06,2.556600182976168025e-06,1.092582521806442645e-06,7.264503422963009115e-06,1.591079423058974777e-06,-2.319284337074323550e-06,2.431674665858102659e-06,1.778383595830037110e-06,5.872992517771216081e-06,1.540861860424828599e-06,-4.439627743326854102e-06,-5.309443242609513358e-06,1.234259810761977804e-06,-3.714871760884348186e-07,1.160558925063624803e-06,1.745732989456704699e-06,-2.322421525552753412e-06,2.366012446086796235e-06,7.610497418142860338e-07,1.193464703888346828e-06,3.232852414011251313e-07,-1.723396136236425318e-07,-4.834229809521477792e-06,-4.789023090909024030e-07,-3.879461006347196563e-07,-4.318996017129324163e-07,-1.645253072728854029e-07,-2.336260909439138672e-06,3.531693073696993414e-07,-2.005665110309330062e-06,3.396020605789130056e-06,-2.007130923418681464e-06,-3.074807803839937154e-06,2.182722216666418409e-07,-9.910831990414528018e-07,9.250403753065791951e-07,-1.633249333724632881e-06,3.519291312774587230e-06,-6.859783611023579388e-07,8.691741779906968074e-08,9.584546763813390284e-07,3.423896586000376563e-06,-4.904677336906894646e-07,-4.427101895336028269e-06,2.673113970111061518e-07,-5.192538112556026753e-07,5.642633377784248997e-07,2.149121820044172187e-06,-2.288017674669795012e-06,1.681912163979192443e-06,1.249102300521898834e-06,-2.677725943654513274e-08,-4.546217041226426592e-07,1.142870892872620141e-07,-6.184799775062204390e-07,-1.638771352091201874e-06,7.028971905254260659e-06,-5.728963781254443536e-07,1.296362466110833409e-06,4.987711205954122902e-06,7.832641758340299770e-07,-1.342160077375293628e-07,-2.853952624168565378e-07,4.870039981254669974e-08,6.656694751028655398e-07,-8.983053088252524760e-07,-3.316330311128792459e-08,9.000839010506146786e-07,4.833083709053526161e-07,-4.530727890538437922e-07,7.230644521958761776e-07,1.458172933173286251e-06,-3.971850937203117063e-06,-2.665698185640901796e-07,8.545798768081516085e-06,3.216633624181017785e-08,-1.467280545098339710e-08,1.815975007376228880e-06,3.361135063656567131e-06,-6.949903176309628264e-07,-1.679295073345754591e-06,-6.886173958993208815e-08,4.786285320911736871e-07,-3.694524256934009418e-07,8.994314110945094325e-07,-1.306951137802467614e-06,-3.063193956616885889e-06,1.945499974353472416e-07,-9.404600825151854215e-08,1.980199528215239217e-06,-1.506951884969374240e-06,-1.365321328067947447e-06,8.076438135049255636e-07,-1.561624734733850761e-07,4.721736243803742269e-06,2.464773771560940722e-06,6.178307237211625771e-07,3.958903026221417991e-07,1.718066770766634553e-06,2.828669706183520411e-06,-1.716202100896339976e-06,3.665561453053859793e-06,1.443277165200448524e-06,-1.604255606428110028e-07,-2.194188194532618548e-07,1.128195490403531316e-07,7.632808264394879894e-07,4.219075961187128971e-07,-2.859800280606338247e-06,1.735960865822643271e-06,-4.135180942129533285e-07,-4.620947648973433167e-07,-1.359617506906165006e-06,1.190431241305433094e-06,9.482442339259590824e-08,-3.056627373652588667e-06,1.848244738601849540e-06,-9.160126791783303314e-08,9.733962939711163594e-07,1.104458615577350875e-06,-5.536932646507942318e-08,1.108544873841382490e-06,3.677183375187602621e-06,3.569158296657801319e-07,-2.144240432109386650e-07,-9.272952338556778148e-06,-1.831087254996953251e-08,2.445957939378203131e-06,-5.284026841837566504e-06,-2.700991796851272610e-07,-3.397576178457002300e-06,7.565090361372142681e-08,3.493770491462907011e-07,-3.927152205653106463e-07,3.982426651932604862e-06,4.614772083264059036e-07,2.348369260238190026e-06,5.346178262599389605e-07,-5.552724066005329803e-07,-1.716484672358738658e-06,-4.273097922868477268e-07,-1.277577186544109923e-06,3.223760179793391222e-06,-1.149795710644095382e-06,1.472438997085795527e-06,7.321929092808495609e-08,3.806093043416298626e-06,-3.722988529654819650e-07,-3.365424746729576351e-06,-1.888028790946824020e-06,-8.375047221971367590e-07,-1.991770108226446339e-06,-1.360141020891097874e-07,2.011006753055310543e-06,3.181587033450661796e-06,2.384517234582160496e-06,1.923292048311449174e-06,3.340559283712911676e-06,2.451217531491395675e-06,-8.582502208045693357e-07,2.693907012249093941e-06,-4.302069508787505984e-08,8.130105294802789692e-07,1.178493703031898625e-07,4.228126049048480100e-06,-5.292661882766355770e-07,-4.218824929905834253e-06,1.412252107304894833e-06,-8.820869695869149221e-08,-1.124026450384815301e-05,1.369620326689430221e-08,1.683603816428855256e-06,4.321189544390737566e-06,5.544660694809465735e-07,-4.048361146939329413e-06,1.930524313791418438e-06,-2.016621273476438537e-06,3.881047596306083034e-06,-2.419397387096376702e-06,1.901318628668753616e-06,-4.088169307384439277e-06,-1.424262942581351641e-06,2.300468888883397125e-07,-2.459086688124138907e-06,4.167732098567416464e-06,-8.871602919244460490e-07,2.944196115599503770e-06,-2.065121572117559534e-06,6.328184823065444661e-06,3.768318829147241852e-06,-4.208759817146283834e-07,-1.119582042297442415e-07,1.274209863648654554e-06,1.336935331100296334e-06,1.134048951896143362e-06,4.940787978399353586e-06,8.257906487426885000e-07,-4.903693317142486989e-07,5.513167640636475945e-07,1.888559050601589600e-06,3.868027743648986069e-06,2.846113791557311151e-06,4.230328389642819586e-06,-4.347600134767696827e-06,9.597226267908092994e-08,-1.088846087306379076e-06,4.916514457211879884e-06,4.563056874389561922e-06,-2.831262398101175411e-07,-7.393145495336573373e-07,-5.357880684048720280e-06,9.216692640237570482e-07,1.498649711018563945e-06,8.940804275000486368e-07,2.764699246103471419e-07,2.224399168870990625e-06,2.294995104132886100e-07,-1.622704705855583440e-07,-3.120826419835436703e-06,-7.957577901316433760e-07,5.021805928012362491e-07,1.117345201972685671e-06,-5.501232590513576199e-06,-6.985894930231723576e-07,-1.809464999540814423e-06,-8.948194890918606842e-07,5.140309269399513252e-07,-2.738700384036757255e-06,2.779183059352758796e-06,-4.462471467089697921e-07,1.210236443910538426e-06,1.204915673398056032e-06,-2.992638740473455707e-06,7.482054806448151232e-07,1.140647030963635357e-06,3.792477699332502149e-06,1.785115520914464646e-06,4.093853877231058064e-06,3.852149442820747319e-06,2.264054073190187489e-06,6.107362694919268501e-06,-1.263222718385034990e-06,1.667361555351920060e-06,1.095095724968792722e-06,3.419563113786070893e-08,3.040604693519084375e-06,3.214348903300192630e-06,4.619959658593274378e-06,-1.870620087394639270e-06,1.780518280977184820e-06,-6.978894720783949654e-07,-9.695965030942045895e-07,1.446311805347401638e-06,-7.344277298999100510e-07,-1.477207195573389603e-06,1.638894981228575490e-07,-2.465561912418415175e-07,8.660359807922937808e-07,4.747205619657685719e-06,1.172961472420887107e-06,9.675720548282698051e-07,4.278611887130540084e-06,6.787536288957617490e-06,3.475495474480918738e-07,1.133561417763448317e-06,2.325605738309519049e-06,8.255322882879626636e-08,2.994220724539921101e-06,1.166462920855134111e-06,-4.117984347323419915e-07,-3.936802388020302772e-07,2.824585287390614451e-06,-2.304527980094631455e-07,4.599127513277298153e-06,5.857365617244644425e-07,7.022125922849424841e-07,-7.007625439811340351e-07,3.630962428370262794e-06,7.661178721145599261e-07,-2.910513377653314026e-06,1.773434246688128047e-06,6.265280629203812964e-06,-2.301282903158819332e-07,2.311279643398604874e-07,-1.230847307805416219e-06,-4.425180181008200866e-07,5.799700693154245976e-07,7.040654096586298967e-07,1.757457847496245251e-06,1.229981387286156114e-06,-1.128808919348043460e-06,3.206867731561657062e-06,2.662280929165095690e-06,-3.128736968197525181e-06,-3.643002308935207811e-06,2.720337225258768841e-06,3.627240417692599727e-07,-6.593934349030743555e-06,7.526671343328692398e-07,5.527514782212264615e-07,2.117422792301356886e-06,2.756644602499555268e-06,-1.285555873165365438e-07,8.455395603309138870e-07,-1.101611482919979033e-07,2.618506601946923667e-06,-6.383101400205916170e-06,1.424275218292861175e-06,8.441903709335428670e-07,2.126928032218738062e-07,-1.727253831637903992e-06,1.435910118501196544e-06,-8.689834230453379339e-07,7.499855204375789236e-08,2.272838880488829148e-06,4.687780054022637376e-07,-1.917024577711843659e-06,3.790070475571156837e-07,-6.023244909445362249e-07,2.903617572412972220e-07,-1.044455984727949975e-06,1.317721832066205258e-06,-1.786074383483403261e-06,-2.010570602882629239e-06,1.921495797282653671e-06,2.378018194423176464e-06,1.229964038783151066e-06,1.499989385587948193e-06,2.432807858187459982e-06,1.325827213530927249e-06,-1.541927721965778372e-06,8.802130527623395773e-07,3.372814064115164621e-06,-7.110894674790066300e-07,-5.301592313611250263e-07,-1.467224329361934596e-06,1.462612333268552151e-06,7.402855862823500116e-07,-1.646069101885974695e-06,4.519331236837787788e-07,2.020158880414529949e-06,2.238221022845118059e-06,-4.302939503879191995e-06,2.950895495471902017e-07,-3.476499235645197238e-06,2.260271737011890705e-06,8.848755528695495494e-07,8.107199446146386104e-07,1.963738784644188902e-06,1.641624956473952399e-06,2.003235177634248276e-06,2.162754588132327597e-06,-9.738913532941656276e-07,-6.179192172745412541e-07,3.943861404401476481e-06,-1.215449688524151692e-05,2.025387460659672069e-07,1.114551110136474571e-06,7.526549901772562154e-06,7.058663559714276962e-07,-1.103133504444406275e-06,-4.222099259318095229e-07,1.147275541319015172e-06,-3.991273371215555781e-06,-3.670914220453521129e-07,-1.795284052330614059e-06,1.452725873429664051e-06,7.436159633239709956e-06,-5.924815078159795588e-06,6.951734480889729342e-07,-9.587493458111524383e-10,-6.546275135296463245e-07,4.107477969049487135e-06,1.791662166929338410e-06,1.492045981749778003e-06,1.407983273267280717e-06,2.127231164806550395e-06,9.901440647397477766e-07,8.632986159375395954e-07,-6.834896657393059109e-07,6.372900858611380857e-08,-1.853449084671172896e-07,-2.951030032126453005e-06,3.523630358234618209e-06,2.792826480976951805e-06,-4.656104779923484296e-06,-5.665350818740046863e-07,-5.455007089277193024e-08,1.970432492839887308e-06,-1.705310034454528447e-06,9.041546076248422502e-06,-3.722027315581670427e-07,-2.435294165978542130e-06,-2.062232929011438592e-06,-4.690496362787137936e-06,1.174401396389459359e-07,4.416893870592851393e-07,-6.279854104957553977e-06,-7.567291058361160787e-07,1.278095713283232892e-06,4.345942992231294487e-07,-2.178437155792992212e-06,-1.288689365626791894e-07,7.575659822257496426e-07,5.167742848885846629e-06,2.231342719166775478e-06,4.863858426313675669e-06,1.284312567342239518e-06,-4.398348240236610570e-06,1.223454739302297428e-06,8.931969384830651010e-07,-2.524580029033670636e-06,1.512040000426154484e-06,6.482724217573438196e-07,-4.589526730897005389e-06,-4.867692671007711376e-07,2.190425558838027704e-06,7.029531155807546424e-07,7.668230046764508067e-07,1.785342238539144508e-06,1.315675146137176570e-06,1.629865789201044481e-06,-3.804227245210182866e-08,-8.406530035978952933e-07,1.239124614114151933e-06,-2.244870781352093899e-06,1.667626960408604771e-06,4.938158379563260292e-06,-1.001201188009095135e-06,4.260520514709100192e-06,-1.727029996700013557e-06,-1.923070537421616172e-06,-2.616021798382153849e-06,1.251462552603078251e-06,4.239532156376276061e-07,-5.269237927365419467e-07,3.669556984384491346e-06,2.137451062170868998e-06,-1.955672794812265592e-06,-5.255504951457955328e-07,5.261262485468489792e-07,-2.620032337958169808e-06,8.152599798690865477e-06,1.825017799537658163e-06,2.809646669516096278e-06,2.408454700190914767e-06,-5.814312447955816236e-07,7.906814149715579385e-07,-2.701256908665149036e-08,-2.343568374795323431e-06,2.484848822257781118e-06,9.330125257130333034e-07,-1.270139534278328853e-06,-1.144928063807559819e-06,1.767618814774351202e-07,3.199726929953661481e-07,-1.008472383134262391e-06,4.507989356098358957e-06,-1.207463776205006352e-07,-2.268627365618128887e-06,9.326091200649754956e-07,4.096078532928583688e-06,3.588973149149522250e-06,-1.397946822456761889e-06,-2.750467027758550298e-06,6.476243228738226732e-07,2.001480340787961838e-07,2.593282407462267848e-06,-4.163568029726704826e-07,-6.562802072046192918e-07,-3.515112085204127450e-08,-5.524802346584224101e-07,-1.776076028550905250e-06,1.283194935271523399e-06,9.443886020399810792e-07,3.724541368458136415e-07,2.975983111029449860e-06,2.735476275739978062e-06,1.392265489009052725e-06,2.292489335833137828e-06,8.675551500613613995e-07,4.210121037663104308e-07,-9.748226421774292009e-07,2.540733363740486033e-06,-4.181785809651698901e-07,2.456454545580563872e-06,1.648328048228579944e-06,2.327234475136413010e-07,-3.613261929731728000e-07,5.170031427205800864e-07,5.864594228037149341e-07,2.459743207078523410e-06,-1.817525679277503921e-06,1.296444966816623666e-06,-2.219460817182208376e-06,3.222317848449253987e-06,-1.093914672633992183e-06,2.718363101438852399e-06,3.199009396388019317e-07,-1.792391503179368091e-06,2.833074734459257099e-06,2.332867805868255764e-07,2.436019679070365540e-06,-3.445151287919392503e-07,-5.905640110861170631e-06,1.342329865458373219e-06,-3.954410445999009588e-06,6.434503373636095518e-07,1.663437718003210101e-06,-1.878535534634912006e-06,-2.529758401458079639e-07,2.104263430104515844e-06,1.293794566263051309e-07,2.168090222234012696e-06,7.736561830138618842e-07,7.413877013433035234e-06,1.799438173561267710e-06,-1.882075849682551807e-07,1.474146933490286698e-06,3.996376804133981345e-07,2.653972454047314992e-06,1.569338554056333876e-06,-2.832355349644700389e-06,-6.167451543365044002e-06,7.355301330264231154e-07,-2.843983195745167841e-06,1.327247681950258346e-06,1.543904571738677223e-06,-7.208137094189520397e-07,8.740001160095159007e-07,4.146738481833030410e-06,4.021823148898307115e-07,1.607137530870924164e-06,6.628667089344668399e-07,-1.261379594280412791e-06,-1.972948760354892190e-07,-3.462688294342077007e-07,9.023776495424527698e-08,-8.509627236081978687e-08,-1.829099111462336674e-06,1.747650162463331113e-06,-1.580402536273308341e-06,2.810916166720366835e-06,-3.225774948485486954e-06,-1.245187542130514303e-06,-3.265906792245226424e-07,-1.347752232226924975e-06,-4.447235586736172091e-07,-5.971368654539464189e-07,2.239162483017570906e-06,-2.210486849237215118e-07,7.735122506977031084e-07,5.920179815547762047e-07,1.685891194253253171e-06,-7.664591644713515812e-07,-1.752139301371282569e-06,7.027186857404876669e-08,7.732516478811718801e-07,-6.802378616147382692e-07,2.435030773776181724e-06,-3.951678977560626624e-06,1.231841049986046027e-06,1.226903965195638926e-06,5.834473038744261621e-07,-3.815517348126238374e-07,4.102321543863636694e-07,-9.139641514529250697e-07,-1.577096855166177522e-06,5.631582202750630461e-06,2.095518080958815498e-07,3.569056016995723611e-06,3.144845547417005431e-06,4.337535848787808081e-07,-4.438033234610149141e-07,-2.234677178938299613e-07,2.612751866019864497e-07,1.268287101137612469e-06,-6.571550358004417728e-07,-2.174130588273098790e-07,5.363091834515064825e-07,-9.144094886977574350e-08,-4.703036286998500682e-07,1.144475299535509776e-06,2.236441273628804218e-06,-2.720410145991691870e-06,5.005241851824696095e-07,4.257857436756682168e-06,-8.818098535035508457e-07,-1.345007166340144114e-08,-2.058807930640176761e-06,3.781255194030040026e-06,-1.542887629770134633e-06,-2.350885020540746353e-06,-2.739777759345171018e-07,-4.471076716699492285e-07,-1.534566286333797880e-07,5.178699821828629836e-07,-2.042886876100182605e-06,-4.076715746186739868e-06,4.503116055111677200e-07,-1.728995780149894897e-07,1.257563904409013542e-06,-7.920852171580135279e-07,9.206998973554189183e-07,4.605019446350463674e-07,1.081758083388868513e-07,3.770075863315723401e-06,2.183154072438923538e-06,8.805184778020290083e-07,5.830368821713407134e-07,8.500821028592941737e-07,2.805714447168040411e-06,-1.900061151229029902e-06,2.487944010675215825e-06,9.948923316720310920e-07,3.306790038649816054e-07,7.142509328237770217e-08,-1.653830351085103607e-07,4.196484634234170122e-07,1.752119801388618149e-07,-3.542287269315269723e-06,3.693882477129174509e-07,2.268162062504034173e-07,7.084106947390495920e-07,-1.425658908001006254e-06,7.362605680154767203e-07,-3.636668251537627350e-07,-2.388951255390075838e-06,1.505188287938049364e-06,8.244236486659520382e-07,1.049682967382355784e-06,1.502184500303939443e-06,-4.520094999639023361e-07,9.090902426379073689e-07,4.237817087103749830e-06,-1.153428282405415526e-06,1.989219370138338809e-06,-7.272560762539968481e-06,-3.968422969308017687e-07,1.892191805801687132e-06,-3.422887107732420715e-06,1.609392787138821327e-07,-2.697942446551634928e-06,-2.540919115427808215e-08,7.047352299708803615e-08,9.172351290158289933e-08,3.263994772776866107e-06,4.344618738686396514e-07,1.212895195923155694e-06,-4.834399687556882090e-07,-3.700629531700782184e-07,-2.938612603927580374e-07,7.122870618712533387e-07,-9.681639234314597352e-07,2.434274703645535204e-06,-1.288337302378833382e-06,1.386148906491928476e-06,2.159252889858291193e-06,3.510250429132738689e-06,3.318517629183756037e-07,-1.760113150555214157e-06,-1.202936335890910462e-06,1.029074073881660389e-06,6.688751050639950028e-07,-2.231670374535035619e-07,5.182605950451064450e-06,1.495066334976713846e-06,4.654445427557405701e-06,4.031193714913808267e-06,1.895264231701759637e-06,2.221398354768013440e-06,3.935226507941581037e-07,1.402289182252106694e-06,3.639952326988133443e-07,1.827991211666861943e-06,6.167505571389180316e-07,3.492491709339961663e-06,-1.610372991870218393e-06,-1.057473095516307831e-06,7.599618704960274347e-08,5.544345602815025525e-07,-1.026076195068668825e-05,-2.744979040458562215e-06,2.699685975533692921e-07,4.507176260676945008e-06,1.604467708725273672e-06,5.955647360794752435e-07,4.542030670304620434e-07,-1.286548147887418569e-06,3.986660739034410157e-06,-1.317916740420450074e-06,2.589055947122717166e-06,-2.446730527059228883e-06,-1.748292846907381233e-06,2.104939742053612015e-06,7.615313257942617947e-07,2.170777713688813521e-06,-1.540877524133315081e-06,4.280973510935563996e-06,-1.601712471995763122e-06,5.981698185004462516e-06,2.610724132478603818e-06,4.775743759409338510e-07,3.933383919812097294e-07,2.111728405813357943e-06,1.204847037226211521e-06,-1.571482459152127872e-06,3.249076543159927530e-06,2.543910730297239182e-06,1.193558591133536570e-06,2.173424710908051800e-06,2.666298162893262413e-06,2.727129178718734427e-06,2.277165232242262081e-06,4.459800675525656013e-06,-5.513462524466247409e-06,5.207673673903040487e-07,-2.520728408336769701e-06,3.032301520494866052e-06,2.597845879554837516e-06,4.813029477708492670e-07,-2.170008361780968742e-06,-3.840499122171738369e-06,4.129329869267635346e-07,1.157557258092390863e-06,2.002863958446608855e-07,-4.372822706474000775e-07,3.231766382553418232e-06,4.399299446026381121e-07,-1.425674820051463070e-06,2.306300410722698096e-06,6.200174113113443714e-07,9.545840508528917577e-07,1.119562468477423616e-06,-2.329781906054870715e-06,2.194653248282632188e-06,-3.469637825402964156e-07,-5.951642081121895222e-07,1.881314420334656043e-07,-2.042795527816517872e-06,4.735352013311674989e-06,-1.416939924941398688e-06,4.937183887927900481e-06,8.178979681231564456e-07,-2.549752530402908682e-06,3.197564051591586370e-07,-1.143786335153667811e-07,3.024341285732598946e-06,3.934279238837478453e-06,3.250972402529863503e-06,2.907481895490065924e-06,1.643846579719804493e-06,5.548150462941036414e-06,-3.536821962809099535e-07,2.257309168388252991e-06,-5.825660789269978555e-07,6.810379160105204931e-07,1.447135507576168150e-06,2.739707250427989698e-06,5.790348807380417722e-06,-6.164942885324319674e-07,-2.834926227774052919e-07,-5.281477334311644497e-07,-8.039299693400487019e-07,1.238038212722638496e-06,-1.856494492591464537e-06,1.156184680051271278e-06,7.288187834740475640e-07,-2.514926917653476570e-06,8.591303018248753835e-07,5.559114746906493579e-06,2.701916075164699938e-07,1.913741992804646845e-06,3.616803708891211372e-06,6.766654208843542176e-06,1.687354146882425408e-06,1.045043132766156678e-06,3.602629685985087495e-06,1.544530636277405148e-07,3.270892448112915866e-06,1.342910539683738437e-06,-9.955287369788704910e-08,1.435972525711065380e-06,8.216451874371467291e-07,1.172552867666830498e-07,3.983759759146771446e-06,4.165415721858017405e-07,1.551953039725243516e-06,-3.641716331081558427e-07,3.851157084544706811e-06,7.386832030961989807e-07,-3.767467946001891332e-06,2.184221349850231373e-06,5.744418811490318738e-06,-1.329546426030607320e-06,1.492720284221776532e-06,-1.498399681761281163e-06,1.653001018849540779e-06,5.174627477507288629e-09,1.407798222252808208e-06,2.148334648958023215e-06,1.484226207122955093e-06,-1.611777963880598924e-06,2.830135064550508680e-06,2.123780641765446177e-06,-3.476599292356829850e-06,-1.771176181214033340e-06,1.740081704876642031e-06,-8.578678116168477124e-07,-4.321400165178314306e-06,8.840065712741604658e-07,6.578730026335108551e-07,3.035755147618236476e-06,3.000869469896835133e-06,-9.972045525596358902e-07,-2.379131234249934779e-07,8.998245694692836993e-07,1.647286965038334519e-06,-5.620330576751108326e-06,1.607567327669882604e-06,1.028120594011685569e-06,2.076133812220243979e-06,-9.090315552986094057e-07,1.402468791961888173e-06,-9.734807801333278858e-07,4.244297616607371323e-07,2.635096829551284846e-06,2.635159060427640913e-07,-3.011507136205257191e-06,2.148741732815540043e-07,-5.105157062315036691e-07,3.163316809781710982e-07,-9.736913298861678638e-07,2.102106300607725116e-06,-1.104671969488210574e-06,-6.545762175791920940e-07,-1.315412683797958706e-06,1.618962874774659576e-06,1.528789597970941732e-06,6.062892460229505456e-07,1.656933701139041444e-06,1.071001543188712780e-06,-5.285317779702204123e-07,1.034315745592798798e-06,3.435879385397253872e-06,-5.838589964681240337e-07,8.256238139006432426e-08,-1.328339906355052890e-07,1.086702112457845602e-06,8.071381649181590685e-07,-1.180710844231333308e-06,9.776194192743016659e-07,1.593303398407540265e-06,-6.758540949064984536e-07,-3.458517702282037041e-06,1.094949975063871588e-06,-4.972710227072515113e-06,1.810766762492265282e-06,5.866784629490758957e-07,-1.421205362091638975e-07,3.766710787421396490e-06,2.145403739391178388e-06,2.555218237763539736e-06,2.875644941473522245e-06,-7.718756691804551942e-07,1.099099596154761819e-06,3.818020507586080385e-06,-9.296067985583531204e-06,2.767603205421473072e-06,1.440326858463782956e-06,7.416286631439115366e-06,3.976729638006544407e-07,-1.071770987730621981e-06,-5.187137543989694882e-07,9.880507974152437568e-07,-3.067688178289797471e-06,-1.003266470545873681e-06,-1.527202831429126124e-06,1.665558140542640192e-06,7.829563274451238953e-06,-4.670560973666521336e-06,5.078325301198833203e-08,-1.020796104667443762e-07,-3.316230864333838502e-07,4.784624809122616912e-06,8.696710837835788926e-07,2.929294144005849178e-06,2.460429974050433481e-06,2.618116115965521087e-06,6.436645951397949266e-07,3.324577773096944989e-07,-9.212968909574528429e-08,1.151061049130324415e-06,1.011273524183923941e-06,-1.323112809086595427e-06,3.805330779147495292e-06,2.968994196320281355e-06,-5.229594505305320386e-06,-1.883315522508208983e-06,-5.207048697473830457e-07,3.015327379550977208e-06,-7.920684644144932018e-07,9.261366055325374329e-06,-4.963660817110455285e-07,-1.111950772742840955e-06,-4.326548023850735145e-07,-5.167801334816607379e-06,3.741769591998214775e-08,4.823416426767251054e-07,-5.402762559785130501e-06,-1.453784149696976774e-06,1.090002421079975091e-06,1.380597179211684544e-06,-2.210601310001989200e-06,6.222538901297408630e-07,1.335021690576446620e-06,4.451111417866052070e-06,1.338488346435119183e-06,4.150060745489566927e-06,2.511738533627646268e-06,-5.331947137414822455e-06,9.692343589091190697e-07,9.301672238376011381e-07,4.052471853188745644e-07,5.566937042768468228e-07,1.635741558480154862e-06,-4.212888299329803234e-06,-1.296120051995445999e-06,2.743632288510184990e-06,3.848653996348907038e-07,1.813618300759338552e-06,2.689963077608911524e-06,1.347509148702665876e-06,6.610833336901656298e-07,1.492010729167133287e-07,8.874468433918047829e-07,2.376744244243062062e-06,-2.005177574435810363e-06,1.076540647105545753e-06,5.377179183657426666e-06,4.177786214515085302e-07,4.715820737743548356e-06,-1.199900197970000020e-06,-2.979736061629147146e-06,-1.236673108912747901e-06,2.074773231956442086e-06,-4.385311452351752644e-08,-4.887059305079673456e-07,4.373864087281010401e-06,3.118252570129371966e-06,-7.815834891777577968e-07,-2.925047532666595657e-07,-5.615797650575701010e-07,-1.048409478485226915e-07,8.997716722230510427e-06,1.965775330342582017e-06,2.915396479379385322e-06,2.660029268190995152e-06,-4.327721059966865326e-08,-2.239660593788329090e-08,1.848907565513192658e-07,-1.721266600901813859e-06,3.361643648339606501e-06,3.957638175308177279e-07,-1.892603646456084875e-06,-9.795442111378587125e-07,2.265254874094245369e-07,7.625432993402487413e-07,-9.458049656654467883e-07,4.276800897605218216e-06,1.934718170474540820e-06,-1.663744224269801134e-06,1.145987085851635692e-06,4.620797770665067442e-06,4.348461218492390086e-06,-1.001301743915944500e-06,-1.685453653939487346e-06,2.849147904031608291e-07,1.586030720510531943e-06,2.896941345436985681e-06,5.668653402492820908e-07,-7.719149224857827081e-07,-2.895399780447590840e-07,-9.363146188194187410e-07,-1.998340496790016551e-06,8.335217953037590529e-07,1.938418354843907635e-06,-1.155945865350342945e-07,3.941862650643554609e-06,2.949528108238537806e-06,1.036323985732325424e-06,2.542726700808050478e-06,4.637360145605619993e-07,2.236146570965948982e-06,9.482390502149184847e-08,3.536677700679836217e-06,-6.289755851034339297e-07,2.169964261451332859e-06,1.147379888452338581e-06,1.518719341901998108e-06,4.130124908127193747e-07,-2.286491446218565615e-07,6.147286388189172061e-07,2.348893962226708352e-06,-1.712469252825105773e-06,1.405109786259693980e-06,1.078192465011625094e-06,3.086777876539503271e-06,-1.100570714033303387e-06,3.792273911035829503e-06,3.888348184841640614e-08,-1.767494832870914735e-06,2.434803618287467484e-06,3.109464233975843578e-07,2.708100941370651753e-06,-1.610302798463363920e-06,-6.200001729168174748e-06,3.766478919493683450e-07,-1.737632343869941382e-06,-1.867024352622435606e-07,-1.489811453431365982e-06,-3.139988474932578105e-06,1.586985390922328675e-07,2.892483865499451775e-06,5.359951761160789893e-07,1.667533076162227606e-06,9.110240036860067727e-07,6.810537470009415649e-06,1.551006684821879621e-06,1.776976632137087656e-06,-2.949614240391115539e-07,5.392637091952811502e-07,3.329125780300989715e-06,1.382200941671738209e-06,-1.541351074216924237e-06,-5.749762399967263415e-06,3.652254520458644666e-07,-2.561407171785946645e-06,9.197069161553319238e-07,1.953119801492130511e-06,-5.651285321072766308e-08,-2.304902758703421262e-06,4.568878624149571578e-06,-8.099947035583327018e-07,1.794709980230395438e-06,2.274461884644268299e-06,1.643116888185189618e-06,1.693054924243817750e-07,-5.747885072557571625e-07,3.011973312270325471e-07,5.972566970085908449e-07,6.664506298023907581e-07,8.250477826278156793e-07,-7.410885319482993284e-07,4.961319737318942168e-07,-3.611586199649501355e-06,7.259621788462823004e-08,-1.480276810169933219e-06,-1.827118711245802663e-06,-7.583813317840287866e-07,2.290000286758731109e-06,2.313467842170851611e-06,1.381646040616188063e-06,1.236215293025161338e-06,1.138403530821253999e-06,-4.236433479487277943e-07,-1.100328721671800226e-06,-1.801952591890773452e-06,1.988263459966537641e-07,2.468131632367867365e-06,3.817205155849316992e-07,4.653435684263468379e-06,-1.235460353407326640e-06,8.987335773289905682e-07,-1.229113633704266837e-06,8.362942324543373873e-08,-3.104921265267282909e-07,1.646364659055034317e-06,5.852661589984347780e-07,-5.923079590511056228e-07,3.969340009485199133e-06,1.044558757008114783e-07,3.679625775442238762e-06,1.536784801923307708e-06,4.807924885778633251e-07,-1.499293076516963546e-06,-2.696381538604588906e-07,2.192182580955680085e-07,1.492482818065075463e-06,5.955677572397222835e-07,-1.632943010033704364e-07,8.940230651284693369e-07,-7.917253226772293117e-09,-2.475656021988050056e-07,1.500291473603473857e-06,2.264156199527800942e-06,-7.824678228130299530e-07,1.921332727780750031e-06,1.625621627322819231e-06,-8.557155359516223967e-07,-1.834100681372925010e-08,-4.523576489953747168e-06,5.445929624834484705e-06,-1.034494751915380588e-06,-2.779026517348784810e-06,-5.436516252395208463e-07,-4.438536829979461173e-07,-1.049632947200887210e-07,4.381606187345226916e-07,-2.363391995013768070e-06,-8.055661117665924062e-07,1.684625167225788976e-06,-1.241077569150853248e-07,4.689191280884577743e-07,-6.310133364026757194e-07,2.239567874775930302e-06,1.594651042889754136e-07,4.502800491777849481e-08,4.069727837716904383e-06,2.464526192245133463e-06,1.603704855551502864e-06,6.325941096369669812e-07,7.466942996527412199e-07,2.118141925467788803e-06,-1.898106683511765110e-06,2.837349349557986872e-06,4.071209174279769489e-07,1.474692231822088593e-06,4.800168534417261987e-07,-2.371178190028954213e-07,8.042286190143124370e-07,1.629414729419952350e-07,-4.137941176842341323e-06,-6.065256082937104431e-07,1.211606970510331264e-06,-1.699176613212185930e-06,-1.371141806874825496e-06,6.321886128808630653e-07,7.698518760489042453e-07,-8.417415686938678330e-07,1.855692195682430766e-06,3.244841938087311971e-07,1.375238383567653723e-06,1.116138936539575015e-06,-1.187433242000078715e-06,-1.422201590326637412e-07,4.315069790839970689e-06,-7.704745547394235446e-07,2.297713383118463052e-06,-6.429283364960552101e-06,-2.234498759924178805e-06,9.723953373567932776e-07,-2.377535947341612366e-06,4.692613601792438494e-08,-3.224779997703784208e-06,-1.898808923569077979e-07,1.498921667819928836e-08,-5.190543157917424495e-08,3.137445747923493610e-06,2.186360478397247849e-07,1.216188469962672736e-06,-1.085567144456634048e-06,-4.328894282043581303e-07,-3.368267399738829954e-08,-3.490654110367949702e-07,-2.980061142906349425e-07,3.163814174917609485e-06,-1.269224838866769403e-06,6.301993754851684824e-07,4.319833210579597224e-06,1.921681674738086270e-06,3.131390041673559726e-06,-3.047873993349268603e-06,-9.983642242652020693e-07,-3.061706536849068201e-06,9.090407382629428988e-08,-3.818149329168063329e-07,6.113900964104173753e-06,1.216297650040614652e-06,4.902622936253692779e-06,8.089718460531905635e-06,1.928408340318641732e-06,-1.368806993402253813e-07,-4.985473020299628717e-07,2.210469887991013706e-06,7.046747097756843497e-07,2.413342969503162723e-06,2.606148521202156333e-06,5.947726002362621493e-06,-2.222778800350537694e-06,-1.415237576178809033e-06,5.119140370074860928e-07,-2.846867004205362250e-07,-1.253785630280372833e-05,-2.424599574267600137e-06,-4.089748721048930992e-07,3.248820007169016924e-06,-4.775810827401957020e-07,2.551039857271071152e-06,-3.316695686558830478e-07,1.648015246426495247e-06,4.123468006188311283e-06,-2.029237633094716516e-06,3.458767723265833396e-06,-2.194689805042858280e-06,-7.664053885497885893e-07,4.290655252906522767e-06,1.085009017389531798e-06,1.480098520442812682e-06,3.205758809791914344e-07,4.706203514036531449e-06,-3.919266124189200311e-06,4.598932208860787145e-06,2.044773717699592194e-06,1.172810288574031969e-06,1.981255647508926756e-06,4.723513599946675847e-06,-3.393307581326857576e-07,-9.893835891145680669e-07,3.874896562218899543e-06,-5.835191785101944232e-07,1.336666519116393169e-06,3.605098661496381340e-06,3.000329909615030055e-06,6.011365077924498349e-06,2.209940410071493028e-06,3.742071661621323377e-06,-5.674447302197918671e-06,3.154806458917872834e-07,-1.676226692207508024e-06,2.015077330702868487e-06,2.851044811458450150e-06,2.319259445142848323e-07,-2.713516806097922219e-06,-5.057667086606778103e-06,1.949210883979052027e-06,1.121907257648262235e-06,1.322864180221723312e-06,-2.801123755385644831e-06,4.104673436902985877e-06,1.079603295710697906e-06,-3.405424831395185350e-06,3.133368489439141985e-06,-1.823412154736237834e-07,1.686197121840830003e-06,-1.266752182842835116e-06,7.184217967664710617e-07,2.272086116457044001e-06,1.762365812006554685e-06,-3.844059076795030268e-07,5.243591038795263953e-07,-4.706958655887286965e-07,3.608699628901054368e-06,1.173094489407045345e-06,4.062793808681527655e-06,9.631572169256437087e-07,-1.843376735271201733e-06,-1.106576286876236182e-06,-1.286311546947942343e-06,2.941817374494923116e-06,2.877385655449132789e-06,2.323703811891302531e-06,2.008527061638330520e-06,1.390017282052367431e-06,2.609949562307315194e-06,6.377828981708468249e-07,2.156664475126077913e-06,-4.778804481482062272e-07,-2.670599335263846655e-06,2.484284152742997166e-06,3.247294374364795009e-06,5.472980568957767019e-06,1.725147541210030647e-07,-4.968735984698994722e-07,-7.264197417878152618e-07,-3.515244976037003397e-06,1.406629385702241118e-06,6.858026561655082920e-07,-9.493401064164575295e-09,-1.463074249436282629e-06,-2.749363060823870970e-06,3.272898677924756165e-07,4.098578480578420902e-06,8.201419993007245251e-07,1.192034954066478254e-06,2.557157607427511833e-06,4.796988515866956786e-06,1.777199680059671998e-06,-2.027557631114244007e-06,4.131515059435641595e-06,-1.393402877833136343e-06,8.746160077586899523e-07,1.392867584316447038e-06,5.186092605790661322e-08,2.542780083344277699e-07,2.351351538853003010e-07,-1.016720560310790134e-06,2.843360890808728811e-06,2.786940097617693934e-07,2.617750494940045573e-06,-1.523256404936953252e-06,4.608614727494175930e-06,-3.073846668414803042e-07,-3.462158800978056783e-06,1.824842948386117455e-06,4.740838654130606790e-06,-2.345460285968354391e-06,1.586817045164011723e-06,-7.855376163230952247e-07,1.530022618516994453e-06,-5.043245540536760623e-07,1.212581972618952679e-06,3.013702170866643537e-06,1.108461059344247469e-06,-1.134902047245851993e-06,1.933956143243314740e-06,1.450194092047552918e-06,-3.224540053117142673e-06,-2.039611939908370603e-07,1.365710783406521551e-06,-1.088520525990799063e-06,-4.006092785880356963e-06,-2.279273598288612901e-07,1.175337156270817286e-06,1.983061247008945351e-06,2.502585794157323142e-06,-1.278715044384313327e-06,4.859982002121978398e-08,5.694436670599185911e-07,1.636237839806764831e-06,-3.585754948332756986e-06,1.942312328248903445e-06,8.529109070643569149e-07,1.735891371245872606e-06,-1.201589405160920710e-07,1.240627687276627394e-06,-2.899347489286943027e-07,7.848796416119561507e-07,3.739964940530504847e-06,5.499156165325798228e-07,-2.925471538143149069e-06,8.686385218973888539e-07,4.378331687321386597e-08,2.598190172848345096e-07,-3.629811562347246978e-08,7.491701589188642215e-07,1.710041880119391645e-06,1.775308600596836364e-09,-2.215738774944825085e-06,8.951119130805800745e-07,1.553544416884645238e-06,2.531662960166888192e-07,-1.482667699788980001e-07,4.629771132807933180e-07,-1.049097800068336611e-06,1.577416923654082450e-06,3.955353279192414434e-06,6.301790597830472546e-09,1.283494941040778751e-06,3.535772136817937817e-07,1.828319339952796539e-06,3.908065736238560707e-08,-1.739291385900927325e-06,1.598539073587316967e-06,-5.534538712459266286e-07,-8.884357822683788213e-07,-2.874840902277825453e-06,1.792481976066788378e-06,-4.597963905925799915e-06,2.341617046465343759e-06,1.657339790177484235e-06,-2.828605495058611648e-07,3.411083163305785096e-06,1.817637725016697264e-06,1.209362708183920764e-06,1.774045445637782008e-06,-1.431364250679441005e-06,5.216212121439637157e-07,3.675673527469312601e-06,-7.246563795101021658e-06,4.425624816581957216e-06,3.269855972771472823e-07,6.343935584261866016e-06,5.381387848797052938e-07,-9.189193505452601984e-07,-5.313240569422414804e-07,1.540378941482415389e-06,-2.982587901962528521e-06,-4.281161967123722480e-07,-1.329586274233667717e-06,8.800513947593861303e-07,6.705860615457785305e-06,-4.218825520475951612e-06,-2.800685377466970037e-07,3.082832667551706828e-07,-5.630834692122059145e-07,4.667380600261492962e-06,1.865179301734946912e-06,3.354995182634266482e-06,2.920454169479647135e-06,2.816547666318459356e-06,-8.289451004850229582e-08,1.409834090069067734e-07,-4.757855412486891104e-07,2.519822627967280942e-07,1.745124066487789418e-06,-1.021910319314930624e-06,3.518578429176659803e-06,2.426428581190115265e-06,-5.122933167627232386e-06,-2.869671472208793290e-06,-1.162052628723722060e-06,2.314380053699033192e-06,1.833846367844107696e-07,1.001014432805345451e-05,-7.806726464019876274e-07,7.522920298358228600e-07,5.431888528356937703e-07,-5.637256242826887634e-06,9.944256692952267732e-07,4.563522117798249660e-07,-4.092212721301800650e-06,-2.172510044228470584e-06,3.068152161671647058e-07,1.630372805929728156e-06,-9.584343603632940460e-07,8.591322356193926296e-07,1.517584019029517651e-06,4.108708419804210653e-06,1.096886622915535889e-06,2.845983563167702497e-06,3.368349646682607649e-06,-5.369325360548190487e-06,8.937145397979642504e-07,3.277637333793721408e-07,1.830415397301153174e-06,7.221201493316206729e-07,1.734235032865549803e-06,-2.593762523453299582e-06,-1.508307898090627744e-06,3.573731922224387230e-06,1.437140147427092243e-06,2.399712366128209282e-06,2.891608378377761536e-06,1.293106252817807319e-06,-3.058907048729049408e-07,5.366835187769290216e-07,1.719127766240271813e-06,1.904983278965362267e-06,-9.513696914934404918e-07,-2.949545556364836748e-07,4.016784556535034829e-06,1.473525011787257139e-06,4.427787780053550607e-06,-7.626356959496605239e-07,-5.224690469853798386e-06,1.244627723971222371e-06,2.052098374621655734e-06,5.056037638149786459e-07,8.234339566561596173e-08,4.128665376589505007e-06,2.843409686513021540e-06,-8.970547478749488406e-07,1.526850357891160361e-06,-1.458987962929329486e-06,-2.710799400176861970e-08,7.183166985555391974e-06,1.804697845259908008e-06,1.592432589538784258e-06,3.527267409834717012e-06,9.310024039538080879e-08,-1.146752916298895968e-06,-3.134769552516173217e-07,-4.880697883837532804e-07,2.939690278010149239e-06,6.839756333014762331e-07,-2.823439116285867643e-06,9.198929397947617840e-08,6.719518585499881757e-07,6.884399664424096741e-08,-1.871918297576216409e-06,2.543485905615836881e-06,2.841957967458975975e-06,-2.088885295759426704e-07,5.711552080064233369e-07,3.323023891705558268e-06,5.216666656869841558e-06,-3.426545334235780491e-08,2.067685529330825012e-08,-9.308937294208573929e-07,1.806557661109308368e-06,1.293100176194983975e-06,2.293163034327309488e-06,-9.161748000903190957e-07,5.946029705246717598e-07,-7.819923618935320034e-07,-2.623799273923554737e-06,1.124506899186126943e-06,2.108717455179103983e-06,-5.811465565623823769e-07,4.495210809765782476e-06,2.395045257815367993e-06,7.929844550160879200e-07,2.857862243208734467e-06,7.896778461127171453e-07,2.638567419994310487e-06,-9.867441186857148500e-07,2.481459644087201637e-06,-1.888956880416224903e-07,2.160274656977707958e-06,2.271482735194584144e-07,1.832785765547048161e-06,1.205035681347834979e-06,1.558765942927465209e-07,7.546115783610367944e-07,1.903490937013549898e-06,-8.510632971554381105e-07,1.340487996235387906e-06,1.665713157679043413e-06,3.769273649095130354e-06,-9.514094368558276238e-07,3.831123970847629224e-06,4.248831641214146751e-07,-9.430101277536478915e-07,1.120514266457421915e-06,-1.197865176553148291e-07,2.665827966058901370e-06,-3.423702767921918194e-06,-6.353183752357380923e-06,-1.468720018725911310e-07,-8.870265917758345253e-08,1.781201818736439937e-08,-4.754110015743979901e-06,-2.088894432544019347e-06,8.794992898544025267e-07,3.182249844234589342e-06,1.069697970672387616e-06,1.105214114657603322e-06,7.608248694267346559e-07,4.540139552885793451e-06,1.671682641955704782e-06,1.586738079810503751e-06,-1.271031786030560830e-06,1.203678887474552725e-06,1.406344855600458018e-06,9.650218415535032112e-07,-8.158531491814967981e-07,-3.982920526424866368e-06,9.080277971168842614e-07,-2.072337978607382297e-06,9.246027097965487124e-07,1.545368287373458210e-06,-3.367098629027680770e-08,-2.685150812678434441e-06,3.442638925294729071e-07,4.496474379938263033e-06,7.088834157201292855e-07,1.687799315222640826e-06,-2.321049501096872231e-07,6.605489618775326038e-07,-4.543008596754081150e-07,1.662986060711874539e-07,2.973834818966426160e-06,-1.133543276396482249e-06,6.302872457368872443e-07,4.605177426322868202e-09,1.474683761738731478e-07,-3.802633599256716877e-06,2.368331423290217210e-06,-6.994408713602429584e-07,-1.334183490535894142e-06,-7.964905468725159625e-07,3.820444189886896837e-06,1.347866251293175167e-06,1.693923243986515267e-06,1.103937093209757665e-06,8.536232096844863557e-07,6.194749389670248986e-08,-6.220822114281301521e-07,-3.353280364087626900e-06,-2.752080523586054951e-07,3.671674974890184186e-06,1.382500425883969359e-06,3.923949388713057572e-06,-9.447627231919139773e-07,5.378663012103965654e-08,-2.495195774674304267e-06,2.424939766673176688e-07,-1.133415347458646824e-07,2.144116445002568396e-06,5.440587212744511507e-07,2.027289371609181157e-06,4.482104414575340311e-06,-2.384136550082777080e-07,1.401354937105202922e-06,1.223264217236638672e-06,7.874873791291852706e-07,-2.331103213377050063e-06,-8.622425507045085987e-07,1.352432357619552424e-06,1.153150378405505186e-06,-2.444828750063388532e-07,2.329799976608423617e-08,6.433885693346434374e-07,1.905439097638173563e-08,-5.819917190395021500e-07,1.791397537877710759e-06,3.517434301900724886e-06,-8.897602999318390446e-08,1.088506610502013858e-06,1.546789528204153023e-06,-4.425401358522894791e-07,-1.964961102200890607e-08,-3.890198929947688698e-06,8.101643004115368642e-06,1.457853031770867352e-06,-3.102766311635330239e-06,-5.604443235840925389e-08,5.398652767143940124e-08,-4.542078445635543163e-07,1.156826251075762990e-06,-2.988630958539196110e-06,1.097990083923339429e-06,1.590312848492095926e-06,-8.788837710186028157e-08,3.063902020522835562e-07,-5.003504435750827717e-07,1.947973020392136645e-06,6.172409481749614162e-07,6.315237344789286267e-08,5.730382348408806197e-06,1.708662709622867354e-06,1.227006076099105059e-06,2.109416216964110195e-07,1.163919559019404569e-06,8.502487955166690311e-07,-2.480679758308483759e-06,4.282429248364408051e-06,-2.087954927819766782e-06,2.258122090826683309e-06,6.208422440126006540e-07,-2.153388948954101548e-07,1.136881510406678436e-06,-1.943252311947167864e-07,-3.329487928178443894e-06,6.416851071711825092e-07,2.785248371297752254e-06,-2.472609380306079999e-06,-1.140470664314146118e-06,2.570518930489418947e-08,7.223490113181443760e-07,-8.305795071724246490e-08,8.929484240220287454e-07,-6.685196129119645364e-08,1.014647720887284467e-06,2.700327565978944930e-07,-2.070934865014077789e-06,-1.152813913910692943e-06,3.049294116041017159e-06,-3.549157646471939371e-07,2.343987077738604629e-06,-6.023916326584052271e-06,-3.473019940707606189e-06,1.817728313053706210e-06,-2.237453584807945704e-06,-7.545720723141948133e-09,-3.923880876665013517e-06,1.272287659198586449e-07,-2.351505600496495818e-07,-2.392677051231318403e-07,3.423582183855838688e-06,-1.745459442421135836e-07,3.139117803789997387e-07,-6.016473640577065127e-07,-2.663869624382389480e-07,1.197659750324744476e-06,-7.883366067939639512e-07,-2.525903787987413841e-07,6.323684411558499224e-06,-1.213247357692103669e-06,5.145401084983121514e-08,3.634892843143661555e-06,1.666102037852208214e-06,5.259356128156770641e-06,-1.870465477639641109e-06,-4.013657090174101046e-06,-6.615982917747033535e-06,9.337573949552689229e-07,3.767356496217225174e-07,7.560428618681119429e-06,-8.643075724507896328e-07,7.309658687479696183e-06,8.818954631751186124e-06,1.519004114314946839e-06,-3.978886082407637727e-07,-1.746713395228449586e-06,3.505171231124273556e-06,7.223397200958078289e-07,1.850966517410891370e-06,3.337655807850901480e-06,8.132990574134765273e-06,-1.365100410685868484e-06,-1.621308520945697498e-07,3.796931131979837310e-07,9.329751932233096620e-07,-9.271733553093845903e-06,-2.292223516057018887e-06,4.451509335434763852e-07,1.760210630143531552e-06,-1.764415707186887349e-06,-5.359042859309239974e-08,-1.507749713377030673e-06,2.749817108847232669e-07,5.471520527060983481e-06,1.933630064837875467e-06,3.453054518225707173e-06,-1.829887759721936564e-06,-2.380195259231613906e-06,5.477092620618292923e-06,1.521113542662286939e-07,-1.885704397849912826e-06,1.782331148150442562e-06,3.888345191861790623e-06,-2.929009841422497334e-06,3.552295194760316674e-06,7.658270272532173608e-07,3.160833874421274522e-06,4.119826297601252706e-06,3.283500206217646486e-06,7.106814352340016654e-07,1.061153391667099977e-06,1.222062465900980284e-06,-3.042081141570651758e-06,8.497252157854077860e-07,1.945373152988387560e-06,3.449034367769218334e-06,5.467399203535758632e-06,1.847511760329387379e-06,3.246499706765903026e-06,-3.660574835169302435e-06,-4.696134310115476394e-07,-2.128599025422462764e-06,2.397366756869741706e-06,5.112083358205921040e-06,-7.488099800297144452e-08,-1.428421084039840185e-06,-3.597116177276057740e-06,3.077230567544506633e-06,1.768738404260910158e-06,3.826541568481413328e-07,-9.238879245328301880e-07,4.217220716534854947e-06,1.119885914781752971e-06,-1.698733952022322343e-06,3.291643471519237759e-06,-1.510082562578663895e-08,9.951945818658823428e-07,-1.486060807121652642e-06,2.094807519505390945e-07,1.106431550347004411e-06,1.190562454713164098e-06,-3.201429197681191407e-06,1.069378071598133852e-06,-1.262458777004562067e-07,1.351978080687421272e-06,1.296402028985052452e-06,4.561833449379072434e-06,6.946799978016310943e-07,-2.735585941632510253e-06,8.263412423147937915e-07,-3.337460483229327534e-06,5.892865725937458813e-06,4.310032421442803416e-06,5.196088656592433092e-06,1.743171980200545314e-06,3.400727930300940001e-06,3.534298487677337414e-06,-4.178036162996316419e-07,1.825279860880621739e-06,-2.016534477761218299e-07,-4.889125950161319991e-07,3.596562646337635620e-06,3.010287165120964488e-06,5.573815160550407770e-06,-5.942199662900885274e-07,1.059924758491283377e-06,3.682831624444996983e-07,-2.688524361180443356e-06,2.159625772847610132e-06,7.657966297433846911e-07,-1.227341260012230780e-06,-4.163354960768664520e-06,-6.784637113951003349e-07,1.337194217510613876e-07,2.446906087664057292e-06,1.130482566101220318e-06,3.045929274187813911e-06,3.185661119118568455e-06,6.359855038460755047e-06,4.595986348689346485e-06,-1.994848072368462131e-06,4.492187099760221233e-06,-1.681113526263974035e-06,2.550018931988112108e-06,1.176760390493018487e-06,-1.117521441314373158e-06,-8.880176315743188474e-07,1.736143817535654752e-06,-6.770514483519514038e-07,1.842072836340313321e-06,4.920934542111079177e-07,6.711832392823610822e-07,-1.932420681722600708e-06,3.931358905868555702e-06,-9.181730795601212037e-07,-2.469235564680107585e-06,9.695062648158196285e-07,3.903619534457621529e-06,-2.045546956959113001e-06,1.957087662552467710e-06,-1.085645321270178527e-06,4.654702726123420138e-07,-9.211708797291227796e-07,1.307307503379183371e-06,1.301188816072409260e-06,8.771916128123530952e-07,1.307786921399629179e-06,2.231479982142990764e-06,1.650931533323731416e-06,-1.769782586178076309e-06,-1.404669487978797217e-06,1.910391439455743882e-06,-1.513266358620143282e-07,-2.882676195975686760e-06,2.675109572204816921e-07,8.813501016439185591e-07,1.765026714513265717e-06,2.011197008755811796e-06,-1.705707707462158049e-06,2.653755536885598325e-07,1.003377415797656586e-07,1.787890591599163079e-06,-4.277208246781651268e-06,2.017943758852821467e-06,1.219150566369967729e-08,9.265539568573647364e-07,-3.653947153693228514e-07,1.311389008627944481e-06,-5.385155968480433977e-07,7.756112953518889662e-07,3.885617146257148038e-06,-7.275857890114709867e-07,-3.354764368605221949e-06,5.633019731588461319e-07,9.009573712075351238e-07,-3.566873471781860837e-08,-3.710176290364095771e-07,-4.481621944787960958e-07,3.593112870388737142e-06,7.457088131053883759e-07,-1.590337304902969361e-06,4.618060186112320891e-07,4.925104325202293056e-07,8.702449753883718427e-07,2.066935441581703844e-08,-5.114569139436823452e-07,-6.399590366349014517e-07,1.929683710261035983e-06,4.143040446171331415e-06,-1.923808596219706008e-07,1.896745758342894559e-06,-6.077168059019729821e-07,1.465118412074063757e-06,-7.241993185448297506e-07,-2.721101398214521122e-06,1.347191798724028192e-06,-1.526524968591203542e-07,-1.308541042574632721e-06,-9.345406925075489429e-07,9.565849670021610707e-07,-3.421957430185522204e-06,2.257459705648113435e-06,1.666254174979389080e-06,-2.027677986318180895e-07,3.790386081615579044e-06,1.569274227756779631e-06,1.197367148561259713e-06,1.877590769529540332e-06,-1.736476534925239522e-06,6.222919508902019569e-07,3.376269943449522180e-06,-6.592410705469295168e-06,5.928886541374612483e-06,-6.382193681779279432e-08,8.781489961672756783e-06,3.087516637225280038e-07,-1.387832661628230439e-06,-5.322211807400210574e-07,1.825642207060798589e-06,-3.369800111302299274e-06,-6.388708546371871820e-07,-4.222008502156128406e-07,1.675951647142950959e-06,6.111389166066779580e-06,-3.332934438515422175e-06,8.159427589352639076e-07,2.903035117756269478e-08,4.148608555139927364e-08,3.319630995217093105e-06,3.176681540605829267e-06,4.027972105780277588e-06,3.021952101166170317e-06,3.944456438286036932e-06,-6.281268128906076340e-07,4.858190121349430635e-08,-4.507096541521567695e-07,1.567531753188317355e-06,1.771659417658409059e-06,-1.205820445969561670e-06,3.472563885352921967e-06,2.023088459240586911e-06,-4.922846965744071554e-06,-1.664634481159842476e-06,-1.809362355448826364e-06,1.524085680910071982e-06,5.317624830581728455e-07,1.076729254723367477e-05,-1.397394154982625481e-06,5.715221275040321018e-07,5.757249490984521505e-07,-3.615349319983957308e-06,2.522760308502937484e-06,4.118004663637094537e-07,-4.775030101099232291e-06,-1.901229780534748557e-06,-8.871082767906396116e-07,2.314295357689132463e-06,-4.048480766246693130e-07,1.079204150330709398e-06,1.580921821891379820e-06,4.683623651703639444e-06,6.178687954308530854e-07,3.298643853034604052e-06,2.956913739278232942e-06,-4.249636159413404090e-06,7.672812252802660721e-07,5.198642639468849532e-07,1.734437346417696953e-06,-2.458126569853215067e-07,2.096495823423228431e-06,-1.838956713433279043e-06,-1.987369630263903672e-06,1.607092041533135737e-06,1.102084157047136137e-06,2.628461203767412157e-06,2.365542582061213524e-06,6.610628416368443689e-07,-6.658593266000726548e-07,1.058036065721979686e-06,2.228884943328430747e-06,2.076891005820125944e-06,-1.561529248692639387e-06,-3.387904513034270803e-07,3.796329008813071753e-06,8.652026900998035717e-07,4.862448960102446055e-06,-7.721196774045713122e-07,-6.262084096816193805e-06,3.394811811398269652e-06,1.930380816194865912e-06,3.318009484130717543e-07,-6.640122844932439627e-08,2.981624856787471628e-06,8.401252078419838603e-07,-6.628915669402690847e-07,2.429433435068126261e-06,-2.236401349986614247e-06,2.694929894554929444e-06,5.736302668062087910e-06,1.851495822813186213e-06,1.082531918905179816e-06,4.614104518901742046e-06,-1.075805904805532609e-07,-3.615886763216449977e-07,-7.082414367651074067e-07,-8.914319933444523660e-07,8.667073234709518939e-07,1.146699153751523804e-06,-2.870452990987392049e-06,7.792019723066090351e-07,-5.653080823952790439e-07,3.118334405756263245e-07,-7.497834044931544877e-07,1.271682454980519752e-06,3.523381443070282700e-06,1.095955473171188870e-06,4.330748128607321548e-07,3.677780684198038409e-06,3.949190905745777532e-06,2.422123813398122056e-07,1.043502862825568338e-06,-1.374594932879006508e-06,-1.282045017246359372e-07,-2.023670942180546546e-07,9.529508293975071188e-07,-1.039026232209807729e-06,-3.949685712321752250e-07,-6.079553900017049767e-07,-2.169059775258143455e-06,7.829095688285950867e-07,1.857895309932719922e-06,-1.322701800102135891e-06,4.119543497156916911e-06,3.155244279653848118e-06,6.265389576035840571e-07,2.014645192980495462e-06,2.112662767963443013e-07,1.617312707060774396e-06,-2.232852116134502253e-06,1.170372152486214741e-06,-7.367067433611864702e-07,2.729157705166685338e-06,-5.100410880703805590e-07,1.389714512093465987e-06,1.601523400633846621e-06,2.479662883677314954e-06,1.491559627587315302e-06,1.669247150616102100e-06,-4.728540216519492723e-07,3.657902943462006326e-07,1.453958584271242267e-06,3.796001429597179986e-06,-5.677402074087818426e-07,3.660027474024169695e-06,4.775797552155065994e-07,-1.719046066218775482e-06,1.947084907731911801e-06,-1.638346408487158383e-08,1.418990418306817208e-06,-3.129695754434762454e-06,-6.187396178096563182e-06,-1.586989939344194845e-06,-8.039920790472413692e-07,-2.329999110791861225e-07,-4.218929629416295701e-06,-2.790768955813529157e-06,1.256448557339161956e-06,4.648363582569661492e-06,9.276038469685068916e-07,-5.263546995580270500e-07,4.157696876722217048e-07,3.716245227612987518e-06,2.231865663693954854e-06,1.156914162352215157e-06,-8.162788525823013418e-07,2.976418300924053965e-06,2.863239202061675088e-06,6.717399754474689975e-07,-1.001051319800635183e-06,-3.814698838860829737e-06,1.709551169439878090e-06,-2.064377173033469001e-06,8.320746024576741659e-07,1.287501838037941840e-06,-2.257158878118816041e-07,-2.632955799226082299e-06,2.591401672036806660e-07,3.765203387749552237e-06,1.537408678302246577e-06,-5.030743108058986798e-07,-1.897095866884380800e-06,6.512746935555483811e-07,-1.325165902307766474e-08,2.863770384619564198e-07,3.103515883127414224e-06,-6.915970364200045894e-07,5.407180551753418809e-07,2.565959334294948044e-07,1.414676594871193072e-06,-2.472161088495353026e-06,8.387556305976912277e-07,8.375298845316242537e-07,-2.227853522345562813e-06,-6.916640807620199738e-07,6.156885636594836579e-07,5.011283254618512791e-07,1.214247374805544917e-06,2.639724585956767374e-06,5.003844953066379821e-07,1.687923802332006333e-06,1.786580460518096889e-07,-4.512883155152990679e-06,-8.955195101688519588e-09,1.610330502967010891e-06,-4.562088366276811061e-07,4.317350494380702918e-06,3.401317426774459217e-07,-2.519594618070543069e-07,-1.252030779386270095e-06,1.000239543310237793e-08,-5.351258448658643030e-07,2.177604421605806395e-06,5.396853068449458083e-07,5.070827288973208352e-06,5.264202760934789996e-06,-1.294421361133691161e-06,2.402136330720288142e-06,1.483293576167111386e-06,5.018430465509407095e-09,-2.532011938915211438e-06,1.018030777968069698e-06,1.033864354783422083e-06,9.402978938185112329e-07,-3.650350081936464376e-07,-1.476254396663207222e-07,8.372877324319876305e-07,8.897945650357874777e-08,-2.441680911554395511e-07,7.582810762623414265e-07,2.125658259160197781e-06,-4.621025074649199772e-08,8.489579223668938886e-07,1.842099399163482178e-06,-3.278894361365468186e-07,-2.750337010086461751e-08,-4.358509615849320475e-06,8.725325012786632527e-06,7.695591771377555582e-07,-2.750176302877257365e-06,4.297587844589638903e-08,-6.405114688520829982e-07,-3.972207651860008930e-07,1.875240677639684704e-06,-1.864753556584235894e-06,2.777882067958982298e-06,1.854739947588662239e-06,-1.642994911809592077e-07,-1.173012579723826319e-06,-1.037755691992617512e-06,1.110320524430947388e-06,-2.380666451456094300e-07,1.472349230809220534e-07,5.508092715003963882e-06,1.216661698359319114e-06,1.039993207746510912e-06,-4.496670553361650761e-07,1.420779445521342525e-06,6.595025252937283120e-07,-2.423970245903558799e-06,3.939560541826184347e-06,-4.034794719135155547e-07,2.258270750471273070e-06,1.015719481346237756e-06,-2.434987698966633717e-07,1.322420535567675434e-06,-4.707067015165667038e-07,-2.745231906245460306e-06,3.875410173089032206e-06,2.602264119391665199e-07,-2.005702943155166591e-06,-1.569202099831761406e-06,5.607449418987514627e-07,-8.891302077600308892e-07,-9.314385676875975480e-07,9.327869614204111623e-07,-2.124731276103613111e-07,6.257619591977372728e-07,9.195988144916895911e-07,-1.996901770641538264e-06,-1.734610768975463867e-06,2.672821681895409365e-06,-9.735095973339946805e-07,1.550416947114006795e-06,-4.708738952280123292e-06,-3.290986548139981758e-06,3.086685975821404349e-06,-2.070357359288211556e-06,-3.756165880825958060e-07,-2.349271720953679489e-06,2.604729231783204112e-07,-2.600649235390360760e-07,4.442758432625715450e-07,4.153879204979595828e-06,-2.135690695500281867e-07,1.207581323474515691e-07,-1.135562145259966678e-06,1.599102929649052922e-07,8.141026555075434787e-07,-9.273204133075978284e-07,-2.705890393919953049e-07,6.933136273547118409e-06,-8.993799929753938766e-07,6.878352221806177878e-07,3.297824033216579381e-06,2.402898461875142297e-06,3.028184598286042078e-06,-1.306355366373603553e-06,-4.882457913479399849e-06,-3.979709491217675615e-06,2.567729832616918028e-06,8.889401241632927497e-07,8.570414879114586203e-06,-3.357366887611747930e-07,7.370029050979947539e-06,8.278137158099066324e-06,2.192933419621729381e-06,-2.618909790026801667e-08,2.601833302698773898e-08,1.284390764763474517e-06,1.321928151788644421e-07,1.764633561613723538e-06,4.269383236779554714e-07,5.526922198489175742e-06,-2.161359817587292409e-07,-2.247901201831364658e-06,-2.717033152465645004e-07,2.813227020469988290e-07,-1.340826013078856059e-05,-3.238664399951199087e-06,1.141772892578146727e-06,3.697450979145061926e-06,-1.813951607440462870e-06,-9.067839827410672888e-07,7.042138717658699232e-07,-3.423580435649571354e-06,4.898187204691145557e-06,2.371678504336015474e-06,4.195618829888721069e-06,-1.474064013337025520e-06,-1.389456195958957357e-06,2.080221148762610084e-06,7.512138300098918473e-07,-2.913294478030013131e-06,1.628870980521529576e-06,5.494477184314243194e-06,6.738392367163700009e-07,5.396405612277687195e-06,2.624602906386328753e-06,3.137726700755343239e-06,3.535511512212400828e-06,2.361152688433184349e-06,2.429566607383587013e-06,8.555205917879103124e-07,1.752904864358918613e-06,-2.263264945568785373e-06,5.220267592553325952e-07,2.440996334308087955e-06,2.697450066358576077e-06,5.221078401820833133e-06,1.476714577163414069e-06,4.764261004108866454e-06,-9.309973065117122243e-07,-8.165406457023675435e-07,-3.406206386500768603e-06,1.687008118547912704e-06,3.895075055994240521e-06,-2.526317469149783175e-07,-2.122754095358241419e-06,-8.417102485343972529e-07,1.468955720152191841e-06,3.480784119585427540e-06,1.216880971120847517e-06,-1.203987192877596809e-06,4.358141979939410108e-06,-3.042274975510274814e-07,9.028046597597824363e-07,3.425961422716860848e-06,-2.684363331592109855e-08,-1.656416651259048278e-07,5.062862409022801238e-07,9.655542605070891994e-07,6.247127029125426289e-07,2.848978156371543081e-07,-1.714450419428416441e-06,4.114688111898800038e-07,-1.813213051930054959e-06,1.862510881905674877e-06,-7.167114840331092474e-07,5.757750024823211137e-06,-9.100078285631888083e-07,-1.352166851771356565e-06,-4.924501962385098819e-07,-3.123250499607631289e-06,6.610487706657630179e-06,1.319246398004151065e-06,3.760007927043085663e-06,1.231323677365542774e-06,1.310101585643451640e-06,5.098791420293795073e-06,-1.249336894608026771e-06,2.047070330903009548e-06,-2.453794082186325267e-06,1.346240865820231797e-06,7.770333077396146069e-07,2.589886908372317057e-06,4.427860673957474561e-06,-1.328208994040587341e-06,1.541969172318925901e-06,-8.999599486476211056e-07,-1.186296006285877318e-06,2.469508382113761127e-06,-1.783890705973596648e-06,-3.298951142644453686e-06,-1.598572955730370966e-06,-1.106506666771484758e-06,5.200355223267330054e-07,1.473940704079180893e-06,1.058261234718322563e-06,2.108594874959801682e-06,3.302611717653092034e-06,6.254121400459149976e-06,3.064108455706723938e-06,-2.405630777328798750e-06,5.610919355521468153e-06,-2.596065649706933934e-06,3.295443408922453345e-06,-1.224919334158408031e-06,-2.474229022903335856e-07,-8.418313927192907259e-07,2.614916283136763245e-06,-5.267496884594622308e-07,2.251148569028863318e-06,1.004500411365960992e-06,-8.658671814806627179e-08,-9.713578386727913644e-07,3.889217143059764951e-06,-9.552759618275845955e-08,-2.470413216279086950e-06,6.491386227945120130e-07,4.833544206298607092e-06,-2.040636673162701836e-06,6.601661720532962118e-07,-5.313625821213095282e-07,1.200626118297139447e-06,-4.902193632993374437e-07,1.151171532161806324e-06,1.722702696305392726e-06,1.235415221807609184e-06,1.015388739800760563e-06,2.420419181959602949e-06,2.397836206378504704e-06,-1.710439400736195459e-06,-1.731942070146779826e-06,2.539079981289160617e-06,2.160874881622117930e-06,-3.466979731140771652e-06,5.468103348774979742e-07,6.307076777207596627e-07,2.512086692390229834e-06,1.530685463317623495e-06,-1.031866729801794751e-06,1.034896388547907559e-06,-2.163165775864998450e-07,1.513242417784115548e-06,-4.931745104299705529e-06,1.494925220151103986e-06,-1.252488148408571496e-07,1.124193329494594624e-06,-2.263360617461127622e-07,7.015808363364552789e-07,-5.915699253269823936e-07,5.405485188187745290e-07,3.675993908513387058e-06,-3.018232844181798352e-07,-2.991158557627917129e-06,3.560561783918215919e-07,8.454569076343875013e-07,6.076933920361527228e-07,-2.496132933205468114e-07,-1.089414460342559862e-06,3.183774290704542555e-06,1.047570151210570453e-06,-2.024464958829202900e-06,4.066535672713916068e-07,3.337671011026492454e-07,1.592995991008088106e-06,1.178182170122331373e-06,-3.697307517866767019e-07,-5.275217006589429028e-07,1.763569296585389283e-06,3.156708277783889657e-06,8.775476667589241270e-07,-3.376292875434540567e-07,-1.016816282056836686e-06,8.255421653380494045e-07,-2.058057323994525654e-06,-2.392642544688173963e-06,3.742198759927992128e-06,5.999510633734175588e-07,-2.141490312569392661e-07,-6.349958385244481769e-07,5.618352003106371165e-07,-2.512811278948354966e-06,1.865491701904462245e-06,9.467151696997987637e-07,7.561510168581356807e-07,4.411632606511271782e-06,1.500201366865397183e-06,2.154722671505130284e-06,6.991797084480094811e-07,-2.313560934404242370e-06,1.059068194208184161e-06,4.123092795495925698e-06,-5.751961462171122162e-06,4.583442180036480160e-06,3.930542695313721070e-07,9.353160580185419982e-06,-7.481127062560038390e-08,-1.277305936878022676e-06,-1.488399357715243048e-07,2.702768868339829113e-06,-2.051303466943176088e-06,-1.585283767077589037e-06,-1.930465326557430410e-07,2.863284934090508811e-06,6.144045151029977292e-06,-2.919964049046989073e-06,1.808286610851025264e-06,-7.595399173633713645e-07,-4.696382539637971050e-07,4.876857222034924747e-06,3.626593970280883404e-06,4.471746563844704801e-06,3.517424588016801984e-06,3.914161629575374424e-06,-2.686117228177266867e-07,1.017906411881466204e-06,7.011997613468960823e-08,2.427748086539848200e-06,2.222353813120597751e-06,-1.547832714102065467e-06,3.435630224760602690e-06,1.422694556621474108e-06,-4.219603596842337136e-06,-6.332457015565338977e-07,-2.282318541161518562e-06,2.080099244100104480e-06,6.097167738891564549e-07,1.041676066987309308e-05,-2.008197439249624233e-06,2.071610467668019899e-06,5.801654807996876187e-07,-3.026563351922599400e-06,2.200785529289755237e-06,2.141448991439891891e-07,-7.665060211114338727e-06,-1.035928697722649889e-06,-6.188255322195009468e-07,3.563899171916780546e-06,-1.461479759861977845e-06,-7.791630366874432564e-08,2.188089406573649851e-06,5.233141674109168258e-06,4.729597986249655020e-07,4.444171791922530267e-06,4.961698648498403966e-06,-3.914826379431847318e-06,1.029346136727325065e-06,1.228512565089121757e-06,5.152269108603388319e-07,1.937937134430028814e-06,1.256043157302698321e-06,-1.152717561913797416e-06,-1.262100290974138869e-06,7.482878332934555305e-07,2.803774877160079779e-07,2.901880010369592899e-06,3.782057524952928733e-07,6.749711826122117647e-07,3.851196484946571203e-07,1.028467130532029403e-06,2.048214921789029354e-06,1.986914290515356385e-06,-1.872143836393757903e-06,9.356454448472362161e-07,3.832806601262897513e-06,-2.895908357895982893e-08,4.635816338819893502e-06,-1.472265780620388138e-06,-5.707500445831119541e-06,3.107798523954591690e-06,2.483923976143149621e-06,8.021207793758094659e-08,-5.246690118327305426e-07,3.033602354089247543e-06,5.015722875169633141e-07,7.990324474609103954e-07,3.031676041179509931e-06,-2.046799416546931328e-06,6.242778939655929308e-06,4.644762479977381929e-06,2.209297364070549729e-06,1.382870896462284128e-06,4.026242126731207348e-06,-3.078503314865603717e-07,8.914238233959482729e-07,-6.600399140313562915e-07,-3.162013108768751090e-07,1.956397447040600167e-06,3.340243077174696518e-07,-3.419133397681341371e-06,5.006886783646332189e-07,-2.277031703707117807e-06,1.391658021929917269e-06,3.197541824002153028e-07,1.138068059672824554e-06,4.423125503682041862e-06,9.798746783088262814e-07,3.701002618800165219e-07,3.639267484893129997e-06,2.509800147326477724e-06,5.353124265191223061e-07,8.888212880317194791e-07,-4.543795751108791173e-07,-1.325520232696010700e-07,-6.105683776217602827e-07,1.817611107585682970e-06,-8.523305094658038554e-07,-1.009593931059801316e-06,-1.434644588906786100e-07,-1.157733578537657115e-06,1.716279513305681479e-07,5.502148083979035461e-07,-9.813216892975893966e-07,4.681827497039436069e-06,3.447140938057681306e-06,5.087815125882795881e-07,1.958717071701744954e-06,3.027120584358848914e-07,1.774141880208418565e-06,-8.274858163813360558e-07,1.270726547724131661e-06,-1.708031121410940277e-06,2.600432261020702487e-06,-1.257953110175842786e-06,1.035968949058954159e-06,9.493309583568603001e-07,4.350141836700944121e-06,1.672932526099702915e-06,1.248334651845430565e-06,3.926455819919102265e-07,6.253471900027660611e-08,1.358136623682008631e-06,4.669742322025014945e-06,-1.177641351587882932e-06,2.941818217028134469e-06,5.995587257821553426e-07,-1.385542140236068385e-06,2.208011506764719867e-06,