1.481849167935226497e+01,1.303399664144981429e+01,1.848649388465880250e+01,-0.000000000000000000e+00,-0.000000000000000000e+00,-0.000000000000000000e+00,0.000000000000000000e+00,0.000000000000000000e+00,2.096227896290737291e+01,1.388436445340954251e+01,0.000000000000000000e+00,2.017918017323461655e+01,1.751564273202837185e+01,-0.000000000000000000e+00,-0.000000000000000000e+00,1.570078212042214183e+01,0.000000000000000000e+00,1.041080242679333523e+01,0.000000000000000000e+00,1.868547688826410180e+01,8.178614166711211553e+00,8.005453155215871419e+00,1.684996201243751202e+01,5.238635178440741669e+00,-0.000000000000000000e+00,0.000000000000000000e+00,0.000000000000000000e+00,1.819596532533520872e+01,8.595285147409230220e+00,0.000000000000000000e+00,1.357002391795584728e+01,-0.000000000000000000e+00,1.833423359525048824e+01,7.887647613211177244e+00,1.913296936475187948e+01,-0.000000000000000000e+00,-0.000000000000000000e+00,7.797341357811643725e+00,-0.000000000000000000e+00,1.015402080874123492e+01,8.755772543523677953e+00,0.000000000000000000e+00,-0.000000000000000000e+00,1.182673679438084413e+01,1.838418316377503814e+01,5.650755207727132579e+00,1.775971909667694248e+01,-0.000000000000000000e+00,1.013504027353904746e+01,-0.000000000000000000e+00,1.189896167302746299e+01,8.485946108515465269e+00,1.083123547056504421e+01,1.540967008483380951e+01,2.053354451658806923e+01,2.545942718330076815e+01,8.398941822508444233e+00,1.253860632535240427e+01,0.000000000000000000e+00,8.350879056059177685e+00,0.000000000000000000e+00,1.438104065881430671e+01,1.038505896136328843e+01,7.111869413030648346e+00,7.287220715047829422e+00,-0.000000000000000000e+00,-0.000000000000000000e+00,1.661716151584672119e+01,0.000000000000000000e+00,6.786061768042817022e+00,0.000000000000000000e+00,0.000000000000000000e+00,1.014991804593018898e+01,-0.000000000000000000e+00,1.289716677553799862e+01,6.556451298253636928e+00,7.998549059861855604e+00,-0.000000000000000000e+00,7.439232034287939221e+00,7.680915608792693305e+00,6.648782559103933565e+00,9.463781228381154875e+00,5.722378453993909986e+00,1.231196950528741141e+01,0.000000000000000000e+00,1.325848449598777457e+01,6.834241040425320435e+00,6.365198655286993912e+00,6.190698927396955042e+00,1.386380416179755493e+01,1.976042190284494282e+01,1.390177299387991106e+01,1.028133681995139703e+01,8.859827075307041611e+00,7.563643341850363022e+00,1.848729288551610139e+01,-0.000000000000000000e+00,1.737216704148835333e+01,1.022213434818316280e+01,-0.000000000000000000e+00,1.534467041664053077e+01,2.434636551966100271e+01,1.571476929513726084e+01,-0.000000000000000000e+00,0.000000000000000000e+00,0.000000000000000000e+00,1.329613781458141020e+01,1.767153976527817605e+01,1.046291603682076499e+01,-0.000000000000000000e+00,9.892658971525321476e+00,-0.000000000000000000e+00,6.248084784784248669e+00,9.187447725028471623e+00,7.723737783983875893e+00,1.068354954298635917e+01,1.652401813837326472e+01,1.786363622034986065e+01,1.102688392291470976e+01,7.393789861588041745e+00,1.959954773054762711e+01,0.000000000000000000e+00,1.896332297745383855e+01,2.049575046907770215e+01,1.329852855476084628e+01,9.759585950252612108e+00,1.144766336569229814e+01,1.261435164384637453e+01,1.006463945584555297e+01,1.078424505459308769e+01,1.010464965029998297e+01,0.000000000000000000e+00,-0.000000000000000000e+00,7.924768564824189454e+00,0.000000000000000000e+00,1.977380164718002931e+01,1.801775310000163088e+01,-0.000000000000000000e+00,9.883805487938589707e+00,5.259794562777877935e+00,-0.000000000000000000e+00,0.000000000000000000e+00,-0.000000000000000000e+00,6.302366583932993649e+00,1.407482955570728045e+01,1.401283375880137605e+01,1.213303494796284809e+01,1.826257542864875205e+01,0.000000000000000000e+00,-0.000000000000000000e+00,2.031727578035168946e+01,1.585150527964022871e+01,-0.000000000000000000e+00,-0.000000000000000000e+00,-0.000000000000000000e+00,7.955916753922090301e+00,-0.000000000000000000e+00,7.309686001152751800e+00,0.000000000000000000e+00,-0.000000000000000000e+00,1.332675478520353174e+01,0.000000000000000000e+00,7.652213238262944195e+00,-0.000000000000000000e+00,-0.000000000000000000e+00,-0.000000000000000000e+00,8.992440349928010335e+00,0.000000000000000000e+00,1.079254268394934080e+01,6.879362062772159447e+00,-0.000000000000000000e+00,0.000000000000000000e+00,5.597302233566232132e+00,0.000000000000000000e+00,1.348046871846004535e+01,0.000000000000000000e+00,1.500541170347862163e+01,-0.000000000000000000e+00,-0.000000000000000000e+00,0.000000000000000000e+00,9.005690554223543032e+00,-0.000000000000000000e+00,1.018973949651492106e+01,1.146373825467189000e+01,7.680699256751973181e+00,0.000000000000000000e+00,8.598961766296170595e+00,1.511019471833936478e+01,0.000000000000000000e+00,0.000000000000000000e+00,-0.000000000000000000e+00,-0.000000000000000000e+00,-0.000000000000000000e+00,0.000000000000000000e+00,1.768564489383398097e+01,0.000000000000000000e+00,1.701498599556508751e+01,0.000000000000000000e+00,9.596507517203022530e+00,0.000000000000000000e+00,7.062873406778297891e+00,9.772212457667766472e+00,9.100257169677185232e+00,0.000000000000000000e+00,6.228904262628669031e+00,-0.000000000000000000e+00,1.221385516126682269e+01,6.395477388378663974e+00,-0.000000000000000000e+00,0.000000000000000000e+00,-0.000000000000000000e+00,-0.000000000000000000e+00,0.000000000000000000e+00,2.027179769840702406e+01,1.181844234522205284e+01,8.573298064474833780e+00,0.000000000000000000e+00,5.602238046412417738e+00,-0.000000000000000000e+00,1.131394010415469786e+01,0.000000000000000000e+00,-0.000000000000000000e+00,1.146041822035793167e+01,-0.000000000000000000e+00,1.010862981603565913e+01,-0.000000000000000000e+00,0.000000000000000000e+00,2.093595519174363417e+01,8.104982002964250754e+00,-0.000000000000000000e+00,6.507341641792319109e+00,0.000000000000000000e+00,0.000000000000000000e+00,1.203707815133539505e+01,-0.000000000000000000e+00,1.694042112199930372e+01,-0.000000000000000000e+00,0.000000000000000000e+00,0.000000000000000000e+00,9.379801514989470235e+00,0.000000000000000000e+00,1.388490520242587323e+01,1.321629169368810430e+01,1.597319252290058245e+01,7.272472223656995638e+00,1.826345911999824523e+01,-0.000000000000000000e+00,-0.000000000000000000e+00,-0.000000000000000000e+00,-0.000000000000000000e+00,6.919439889857851078e+00,-0.000000000000000000e+00,-0.000000000000000000e+00,5.473285186080745213e+00,1.498502292238652700e+01,9.784587649094001804e+00,-0.000000000000000000e+00,-0.000000000000000000e+00,5.501369880232572562e+00,2.336650269086905851e+01,-0.000000000000000000e+00,1.523422001001350701e+01,0.000000000000000000e+00,-0.000000000000000000e+00,5.373239160978447337e+00,1.802950159760920457e+01,-0.000000000000000000e+00,1.350417813741898065e+01,1.042245249974372712e+01,0.000000000000000000e+00,-0.000000000000000000e+00,1.611820222913766187e+01,1.039753531705137668e+01,-0.000000000000000000e+00,1.309272860783422132e+01,8.850085007836124618e+00,2.282000724485163090e+01,5.593452270168215890e+00,-0.000000000000000000e+00,9.105924276123451122e+00,7.086191913959623001e+00,1.030946162008916822e+01,2.514038581429296570e+01,0.000000000000000000e+00,1.857036538218948252e+01,-0.000000000000000000e+00,-0.000000000000000000e+00,-0.000000000000000000e+00,-0.000000000000000000e+00,0.000000000000000000e+00,1.017741280598094278e+01,9.907782308442341090e+00,1.300816712170795952e+01,-0.000000000000000000e+00,0.000000000000000000e+00,5.575818479632201452e+00,7.248757187652250522e+00,5.871043969140889551e+00,9.164977525271694958e+00,0.000000000000000000e+00,1.505241721008263411e+01,0.000000000000000000e+00,1.227176627021415101e+01,0.000000000000000000e+00,-0.000000000000000000e+00,8.111321833850812624e+00,-0.000000000000000000e+00,8.054462890440506229e+00,0.000000000000000000e+00,-0.000000000000000000e+00,-0.000000000000000000e+00,0.000000000000000000e+00,1.259765925820703458e+01,8.096092721912308221e+00,-0.000000000000000000e+00,8.466092255448266712e+00,1.956467957821459791e+01,1.922827908391587570e+01,-0.000000000000000000e+00,0.000000000000000000e+00,-0.000000000000000000e+00,1.089043898974423463e+01,9.333710190024655518e+00,1.484185010239718139e+01,-0.000000000000000000e+00,8.497471884632098238e+00,-0.000000000000000000e+00,-0.000000000000000000e+00,1.268683209703501547e+01,-0.000000000000000000e+00,6.662856886027477721e+00,-0.000000000000000000e+00,7.095619642114598946e+00,8.747728056981634026e+00,1.612237919115725759e+01,1.176079656705888965e+01,9.571574691143352354e+00,7.576665929239065456e+00,0.000000000000000000e+00,7.857746156858652853e+00,-0.000000000000000000e+00,1.351110947948026819e+01,8.106203779850901014e+00,7.779272498159983229e+00,1.958557537680271921e+01,-0.000000000000000000e+00,1.101994506691874953e+01,-0.000000000000000000e+00,9.831181528457422658e+00,-0.000000000000000000e+00,1.787934755856648650e+01,-0.000000000000000000e+00,1.111838464511280478e+01,0.000000000000000000e+00,5.834860980320064172e+00,-0.000000000000000000e+00,-0.000000000000000000e+00,1.443822948409250984e+01,1.159808681678589082e+01,-0.000000000000000000e+00,7.799831306033278011e+00,1.191310313388061104e+01,0.000000000000000000e+00,0.000000000000000000e+00,0.000000000000000000e+00,-0.000000000000000000e+00,1.284588669135649219e+01,7.660658778821103354e+00,7.880465692261147126e+00,9.951823836578419957e+00,2.057975917377013531e+01,1.560215197990071090e+01,-0.000000000000000000e+00,1.143531674848553692e+01,0.000000000000000000e+00,1.338143808332631224e+01,-0.000000000000000000e+00,-0.000000000000000000e+00,-0.000000000000000000e+00,1.616677480860042948e+01,-0.000000000000000000e+00,1.070134784857171972e+01,0.000000000000000000e+00,-0.000000000000000000e+00,-0.000000000000000000e+00,7.205807037015588890e+00,-0.000000000000000000e+00,6.632590392298282289e+00,9.262505161212082783e+00,-0.000000000000000000e+00,1.096504412976682197e+01,-0.000000000000000000e+00,1.351267112147410465e+01,8.899073033065816318e+00,0.000000000000000000e+00,8.823081189964829818e+00,-0.000000000000000000e+00,1.346266526418267695e+01,-0.000000000000000000e+00,6.835205118652616818e+00,0.000000000000000000e+00,-0.000000000000000000e+00,8.854093038242456970e+00,9.431745381073065815e+00,-0.000000000000000000e+00,-0.000000000000000000e+00,1.090700788862602266e+01,-0.000000000000000000e+00,-0.000000000000000000e+00,-0.000000000000000000e+00,8.000157050246153645e+00,1.225292900954932485e+01,9.219802171519585698e+00,0.000000000000000000e+00,-0.000000000000000000e+00,-0.000000000000000000e+00,-0.000000000000000000e+00,5.333995309886851999e+00,-0.000000000000000000e+00,-0.000000000000000000e+00,9.680245763324322184e+00,-0.000000000000000000e+00,1.048121415058428418e+01,-0.000000000000000000e+00,-0.000000000000000000e+00,8.748879253842211767e+00,-0.000000000000000000e+00,1.546168704374249359e+01,1.235907223939312516e+01,-0.000000000000000000e+00,7.497260678312739124e+00,1.452622361536277396e+01,-0.000000000000000000e+00,5.479190164797126172e+00,0.000000000000000000e+00,0.000000000000000000e+00,6.414281111036508776e+00,1.013908899849320555e+01,1.105236459514471825e+01,-0.000000000000000000e+00,5.796706928362537425e+00,1.252188601164676029e+01,-0.000000000000000000e+00,-0.000000000000000000e+00,1.651677026834197193e+01,1.167008078489791068e+01,1.233034704892029509e+01,-0.000000000000000000e+00,0.000000000000000000e+00,7.355007797595893848e+00,0.000000000000000000e+00,0.000000000000000000e+00,-0.000000000000000000e+00,-0.000000000000000000e+00,0.000000000000000000e+00,0.000000000000000000e+00,0.000000000000000000e+00,0.000000000000000000e+00,7.352104159178219689e+00,0.000000000000000000e+00,0.000000000000000000e+00,2.326897805549572595e+01,1.346520005139536913e+01,5.814697280534258717e+00,6.724514030243125440e+00,9.785932132638205161e+00,-0.000000000000000000e+00,5.230177676656960095e+00,1.879732365823054607e+01,1.481477490846553557e+01,0.000000000000000000e+00,-0.000000000000000000e+00,0.000000000000000000e+00,0.000000000000000000e+00,0.000000000000000000e+00,-0.000000000000000000e+00,6.314479849828287250e+00,1.908125052094450425e+01,-0.000000000000000000e+00,-0.000000000000000000e+00,-0.000000000000000000e+00,1.023696917721088617e+01,-0.000000000000000000e+00,1.369851982005863711e+01,0.000000000000000000e+00,8.493541897489739867e+00,-0.000000000000000000e+00,-0.000000000000000000e+00,0.000000000000000000e+00,1.226457185311464393e+01,-0.000000000000000000e+00,-0.000000000000000000e+00,-0.000000000000000000e+00,6.444527423394917243e+00,1.819928776605981469e+01,-0.000000000000000000e+00,0.000000000000000000e+00,-0.000000000000000000e+00,5.453178565288586022e+00,-0.000000000000000000e+00,-0.000000000000000000e+00,1.569520129751546555e+01,7.813578953766488588e+00,8.925457324346057320e+00,-0.000000000000000000e+00,6.306487336634202023e+00,6.645971640854602569e+00,-0.000000000000000000e+00,-0.000000000000000000e+00,1.717873497264358207e+01,-0.000000000000000000e+00,6.629540998210028846e+00,9.900863556081509032e+00,1.114640392538269964e+01,1.573480927190360745e+01,-0.000000000000000000e+00,-0.000000000000000000e+00,-0.000000000000000000e+00,-0.000000000000000000e+00,5.686058095638158782e+00,1.676408090505473325e+01,7.751606122941810284e+00,1.128133542789539945e+01,1.851630922150464542e+01,1.431427011814073857e+01,-0.000000000000000000e+00,-0.000000000000000000e+00,1.186585956068938330e+01,0.000000000000000000e+00,1.053081216746593718e+01,-0.000000000000000000e+00,1.594693618124674650e+01,6.588829838622753954e+00,0.000000000000000000e+00,1.016529648481596837e+01,0.000000000000000000e+00,-0.000000000000000000e+00,0.000000000000000000e+00,9.685926266054496026e+00,1.752832075814561108e+01,6.216704213795544831e+00,-0.000000000000000000e+00,9.935717954912831829e+00,-0.000000000000000000e+00,1.392171415412109070e+01,5.634697018100973231e+00,1.360508414395010846e+01,-0.000000000000000000e+00,-0.000000000000000000e+00,5.723077216599778083e+00,-0.000000000000000000e+00,7.469415337838694491e+00,6.799060171813677833e+00,0.000000000000000000e+00,-0.000000000000000000e+00,1.183162708889963710e+01,1.511883929924902681e+01,5.577623282375730795e+00,1.661143359751521587e+01,-0.000000000000000000e+00,7.029087024007407258e+00,6.067881078538914785e+00,1.009253496089448632e+01,5.793138268762566767e+00,1.152253503250341105e+01,1.084519662983003485e+01,1.679619571371797448e+01,2.218521301081878505e+01,1.067121406086814339e+01,8.963954524290455694e+00,-0.000000000000000000e+00,0.000000000000000000e+00,-0.000000000000000000e+00,1.093276540953637799e+01,1.015490834170575063e+01,5.670572725268645975e+00,6.605809595543983725e+00,-0.000000000000000000e+00,0.000000000000000000e+00,1.562809054695813593e+01,-0.000000000000000000e+00,5.259964243345832458e+00,0.000000000000000000e+00,-0.000000000000000000e+00,8.608106461030050838e+00,-0.000000000000000000e+00,1.357754241788001082e+01,5.086156224412645699e+00,5.141569487326647092e+00,-0.000000000000000000e+00,7.947084255044639001e+00,5.029477692170431169e+00,0.000000000000000000e+00,7.801137322571577215e+00,0.000000000000000000e+00,1.559455620242114904e+01,-0.000000000000000000e+00,5.292818109678812277e+00,9.883799148708167337e+00,6.759352022178431341e+00,0.000000000000000000e+00,1.298328245547418369e+01,1.926067904885421811e+01,1.120113948580302576e+01,5.501731224647975260e+00,7.076458925316093662e+00,5.804488918060338953e+00,1.825870956136380840e+01,-0.000000000000000000e+00,1.611455891579160138e+01,7.917459886337059771e+00,-0.000000000000000000e+00,1.182379711953057111e+01,1.299272126760487467e+01,1.334274517168325858e+01,-0.000000000000000000e+00,0.000000000000000000e+00,-0.000000000000000000e+00,1.141849123239689057e+01,1.480524556714327566e+01,8.786005997985919080e+00,-0.000000000000000000e+00,1.031657263270880343e+01,-0.000000000000000000e+00,5.653143154541734994e+00,1.296601841498182850e+01,6.185059895557902365e+00,9.644443856745940735e+00,1.070690345534144150e+01,1.409907030301580733e+01,0.000000000000000000e+00,0.000000000000000000e+00,1.095716358773924348e+01,0.000000000000000000e+00,1.856785410511164613e+01,1.619997263053336312e+01,9.709671829020658507e+00,0.000000000000000000e+00,9.720347311696855286e+00,1.001820762289990263e+01,9.946725869005636156e+00,8.128852614473458971e+00,7.872661883597072752e+00,0.000000000000000000e+00,-0.000000000000000000e+00,5.277344177010985682e+00,-0.000000000000000000e+00,1.731044749955238160e+01,1.852495446703458271e+01,-0.000000000000000000e+00,6.435311285725034303e+00,0.000000000000000000e+00,-0.000000000000000000e+00,-0.000000000000000000e+00,0.000000000000000000e+00,7.212017848854724633e+00,1.421280059479662583e+01,1.050642168831364742e+01,1.113771309072825311e+01,1.728742988960832605e+01,0.000000000000000000e+00,-0.000000000000000000e+00,1.895976110107422841e+01,1.487846147851292677e+01,-0.000000000000000000e+00,-0.000000000000000000e+00,0.000000000000000000e+00,8.850416084418306184e+00,-0.000000000000000000e+00,6.685873832227471780e+00,0.000000000000000000e+00,-0.000000000000000000e+00,1.210498676446713695e+01,-0.000000000000000000e+00,8.121021356486599174e+00,-0.000000000000000000e+00,-0.000000000000000000e+00,-0.000000000000000000e+00,7.781587586791085087e+00,0.000000000000000000e+00,7.268460637247303069e+00,8.364520657729633157e+00,-0.000000000000000000e+00,-0.000000000000000000e+00,0.000000000000000000e+00,0.000000000000000000e+00,1.426531921152344040e+01,-0.000000000000000000e+00,1.329262740965618583e+01,-0.000000000000000000e+00,-0.000000000000000000e+00,-0.000000000000000000e+00,5.083464009182080190e+00,-0.000000000000000000e+00,7.663533767262542540e+00,7.141257940952319139e+00,0.000000000000000000e+00,-0.000000000000000000e+00,8.856062369550816271e+00,1.393225972835543125e+01,0.000000000000000000e+00,0.000000000000000000e+00,-0.000000000000000000e+00,0.000000000000000000e+00,-0.000000000000000000e+00,-0.000000000000000000e+00,1.551549385511532186e+01,-0.000000000000000000e+00,1.544500925936109148e+01,0.000000000000000000e+00,7.673559689621590074e+00,0.000000000000000000e+00,8.117010246457523337e+00,8.618418505282196662e+00,7.697177272342011989e+00,-0.000000000000000000e+00,6.910234161892996774e+00,-0.000000000000000000e+00,1.195638381722777766e+01,0.000000000000000000e+00,-0.000000000000000000e+00,0.000000000000000000e+00,-0.000000000000000000e+00,-0.000000000000000000e+00,0.000000000000000000e+00,2.193175878129245859e+01,9.168610707577300900e+00,7.302059566916155653e+00,0.000000000000000000e+00,0.000000000000000000e+00,-0.000000000000000000e+00,7.363202844347096487e+00,0.000000000000000000e+00,-0.000000000000000000e+00,1.323684723948302100e+01,-0.000000000000000000e+00,9.158778167934976011e+00,-0.000000000000000000e+00,0.000000000000000000e+00,1.768050953180928175e+01,6.023509737087507254e+00,-0.000000000000000000e+00,5.917953735646565683e+00,5.397784466463091846e+00,0.000000000000000000e+00,1.388107520441117693e+01,-0.000000000000000000e+00,1.626378249248794461e+01,-0.000000000000000000e+00,-0.000000000000000000e+00,0.000000000000000000e+00,9.998486451245920392e+00,-0.000000000000000000e+00,1.321267082869464282e+01,1.222790790558747887e+01,1.095373665909922245e+01,5.162238768102939801e+00,1.695317987625383083e+01,-0.000000000000000000e+00,-0.000000000000000000e+00,-0.000000000000000000e+00,-0.000000000000000000e+00,7.115479932541346031e+00,0.000000000000000000e+00,-0.000000000000000000e+00,9.755392593555175296e+00,1.177510925517243123e+01,6.892704800244729313e+00,-0.000000000000000000e+00,0.000000000000000000e+00,7.193824662054081998e+00,2.173201897826242757e+01,-0.000000000000000000e+00,1.472095826151983466e+01,-0.000000000000000000e+00,-0.000000000000000000e+00,6.559048570211195361e+00,1.514436177105366532e+01,-0.000000000000000000e+00,1.338157382384988026e+01,7.709545609224790041e+00,0.000000000000000000e+00,-0.000000000000000000e+00,1.476395443099399785e+01,1.038020831279982126e+01,-0.000000000000000000e+00,1.320229897586829892e+01,6.460925064870171042e+00,1.821820884747200964e+01,5.295160346135083351e+00,-0.000000000000000000e+00,9.013560149627288354e+00,5.132669715489842410e+00,7.546441555064201445e+00,2.050703897142794219e+01,0.000000000000000000e+00,1.754722695008853250e+01,-0.000000000000000000e+00,-0.000000000000000000e+00,-0.000000000000000000e+00,-0.000000000000000000e+00,-0.000000000000000000e+00,7.038360776988894507e+00,1.034095616639181614e+01,1.158769142184735301e+01,-0.000000000000000000e+00,0.000000000000000000e+00,0.000000000000000000e+00,7.329825789816529102e+00,6.280317679771734163e+00,6.916477374380577636e+00,0.000000000000000000e+00,1.552146509234939487e+01,0.000000000000000000e+00,1.085961276751293170e+01,-0.000000000000000000e+00,-0.000000000000000000e+00,0.000000000000000000e+00,0.000000000000000000e+00,0.000000000000000000e+00,0.000000000000000000e+00,-0.000000000000000000e+00,0.000000000000000000e+00,0.000000000000000000e+00,1.519901092096309192e+01,7.072169661592820233e+00,-0.000000000000000000e+00,0.000000000000000000e+00,1.817492270854726044e+01,1.680799417106216964e+01,-0.000000000000000000e+00,-0.000000000000000000e+00,-0.000000000000000000e+00,8.036199347143636373e+00,7.702455639638962737e+00,1.475259120837549709e+01,-0.000000000000000000e+00,8.606481772698572286e+00,-0.000000000000000000e+00,0.000000000000000000e+00,9.794722400353208513e+00,-0.000000000000000000e+00,7.201969141929023266e+00,-0.000000000000000000e+00,5.712461133616399067e+00,6.810634591449778341e+00,1.567450763428665539e+01,9.576346453510200973e+00,1.093257168357801490e+01,0.000000000000000000e+00,0.000000000000000000e+00,7.453273462269078387e+00,-0.000000000000000000e+00,1.128182410418370019e+01,9.301654268983698515e+00,5.976186611845503371e+00,1.679662860009982950e+01,-0.000000000000000000e+00,7.929695911775577422e+00,-0.000000000000000000e+00,8.632299984618851951e+00,-0.000000000000000000e+00,1.725390383293595065e+01,-0.000000000000000000e+00,1.003600540249250805e+01,0.000000000000000000e+00,0.000000000000000000e+00,-0.000000000000000000e+00,-0.000000000000000000e+00,1.256618847656316262e+01,8.516630846622632589e+00,-0.000000000000000000e+00,7.295773221236694361e+00,6.683626265001551658e+00,0.000000000000000000e+00,0.000000000000000000e+00,0.000000000000000000e+00,-0.000000000000000000e+00,1.214443743435923295e+01,6.152511712474124650e+00,0.000000000000000000e+00,8.438626574810967895e+00,1.877482093224532278e+01,1.494369386163123359e+01,-0.000000000000000000e+00,7.640643104457661039e+00,0.000000000000000000e+00,8.656956417651908708e+00,-0.000000000000000000e+00,-0.000000000000000000e+00,-0.000000000000000000e+00,1.565397673221335495e+01,-0.000000000000000000e+00,1.027565401025835001e+01,0.000000000000000000e+00,-0.000000000000000000e+00,-0.000000000000000000e+00,-0.000000000000000000e+00,-0.000000000000000000e+00,5.398104690520302285e+00,7.665272153891046436e+00,-0.000000000000000000e+00,8.104068208337382728e+00,-0.000000000000000000e+00,1.177835979996704374e+01,8.710373675644051517e+00,0.000000000000000000e+00,7.760373001158374251e+00,-0.000000000000000000e+00,1.510314193764383006e+01,-0.000000000000000000e+00,0.000000000000000000e+00,0.000000000000000000e+00,-0.000000000000000000e+00,8.584313134936135015e+00,6.589321890290799288e+00,0.000000000000000000e+00,-0.000000000000000000e+00,0.000000000000000000e+00,0.000000000000000000e+00,-0.000000000000000000e+00,-0.000000000000000000e+00,0.000000000000000000e+00,9.911859905820397998e+00,8.024284932545945992e+00,-0.000000000000000000e+00,-0.000000000000000000e+00,-0.000000000000000000e+00,-0.000000000000000000e+00,7.317254887841499134e+00,-0.000000000000000000e+00,-0.000000000000000000e+00,8.726429882112798353e+00,-0.000000000000000000e+00,8.766576039090692163e+00,-0.000000000000000000e+00,-0.000000000000000000e+00,7.875964632112748554e+00,-0.000000000000000000e+00,1.344693412523209730e+01,1.311332420240939634e+01,0.000000000000000000e+00,6.386748883095998863e+00,1.449477707148883354e+01,-0.000000000000000000e+00,0.000000000000000000e+00,0.000000000000000000e+00,0.000000000000000000e+00,7.649915623793880570e+00,8.103908615576784769e+00,8.768507861330807174e+00,-0.000000000000000000e+00,0.000000000000000000e+00,1.585894681339394374e+01,-0.000000000000000000e+00,-0.000000000000000000e+00,1.412087037196568851e+01,6.627547434636197110e+00,1.003781092370845052e+01,-0.000000000000000000e+00,0.000000000000000000e+00,5.958697322033216004e+00,0.000000000000000000e+00,0.000000000000000000e+00,-0.000000000000000000e+00,-0.000000000000000000e+00,0.000000000000000000e+00,0.000000000000000000e+00,5.327761571232569437e+00,0.000000000000000000e+00,6.580322374201814206e+00,0.000000000000000000e+00,0.000000000000000000e+00,2.281497082810512111e+01,1.288722018069722530e+01,0.000000000000000000e+00,6.385958470788153818e+00,8.932709166520453437e+00,-0.000000000000000000e+00,5.085027289232255221e+00,1.816755899632871873e+01,1.495577771723218774e+01,0.000000000000000000e+00,-0.000000000000000000e+00,0.000000000000000000e+00,0.000000000000000000e+00,-0.000000000000000000e+00,-0.000000000000000000e+00,8.365211039326009512e+00,1.992776730758165371e+01,-0.000000000000000000e+00,-0.000000000000000000e+00,-0.000000000000000000e+00,9.928398376221590382e+00,-0.000000000000000000e+00,1.301078882754235977e+01,0.000000000000000000e+00,7.317993196122154487e+00,-0.000000000000000000e+00,-0.000000000000000000e+00,-0.000000000000000000e+00,1.239865902935590825e+01,-0.000000000000000000e+00,-0.000000000000000000e+00,-0.000000000000000000e+00,1.094224589159778738e+01,1.691838165434193542e+01,-0.000000000000000000e+00,0.000000000000000000e+00,-0.000000000000000000e+00,0.000000000000000000e+00,-0.000000000000000000e+00,-0.000000000000000000e+00,1.469177556666774365e+01,6.003145410262774817e+00,9.533144916559992410e+00,-0.000000000000000000e+00,5.723590995584154406e+00,8.311405050074972323e+00,-0.000000000000000000e+00,-0.000000000000000000e+00,1.646570628778177436e+01,-0.000000000000000000e+00,7.059227992518724903e+00,1.010160732652086146e+01,1.022726690874638145e+01,1.133798369118995630e+01,-0.000000000000000000e+00,-0.000000000000000000e+00,-0.000000000000000000e+00,-0.000000000000000000e+00,5.101216903067344433e+00,1.426104636158728667e+01,0.000000000000000000e+00,1.476326299223783067e+01,1.624250700964029193e+01,1.277342533553479598e+01,-0.000000000000000000e+00,-0.000000000000000000e+00,1.061967221283176777e+01,0.000000000000000000e+00,9.879751850402398006e+00,0.000000000000000000e+00,1.308010711674769944e+01,0.000000000000000000e+00,0.000000000000000000e+00,5.717863936410767067e+00,6.248306430538450584e+00,-0.000000000000000000e+00,-0.000000000000000000e+00,1.316886126193703355e+01,1.641014543786028312e+01,0.000000000000000000e+00,-0.000000000000000000e+00,1.037410030392577909e+01,-0.000000000000000000e+00,1.236793249137197215e+01,-0.000000000000000000e+00,1.228156873127285031e+01,-0.000000000000000000e+00,-0.000000000000000000e+00,5.738061135510788446e+00,-0.000000000000000000e+00,7.244893048110323086e+00,0.000000000000000000e+00,5.894478868930867144e+00,-0.000000000000000000e+00,1.535858945068765635e+01,1.312156567362275084e+01,-0.000000000000000000e+00,1.384827744777626890e+01,-0.000000000000000000e+00,5.391683999306517983e+00,0.000000000000000000e+00,7.935941065508802517e+00,0.000000000000000000e+00,1.021165281591225948e+01,6.905892630786042652e+00,1.450354868954793908e+01,1.655724259656275166e+01,1.210918871672009800e+01,5.631223656913127762e+00,-0.000000000000000000e+00,0.000000000000000000e+00,-0.000000000000000000e+00,9.513654181120370978e+00,6.806271644676692212e+00,6.243797740379259054e+00,0.000000000000000000e+00,-0.000000000000000000e+00,0.000000000000000000e+00,1.438883846029255942e+01,0.000000000000000000e+00,5.973728748949104883e+00,-0.000000000000000000e+00,-0.000000000000000000e+00,6.925257432545014247e+00,-0.000000000000000000e+00,9.826335457162146625e+00,0.000000000000000000e+00,6.496875243829819624e+00,-0.000000000000000000e+00,6.932939715739272479e+00,0.000000000000000000e+00,0.000000000000000000e+00,8.516192381385707222e+00,-0.000000000000000000e+00,1.346113304872269900e+01,-0.000000000000000000e+00,0.000000000000000000e+00,8.194707951025367976e+00,5.648307722665558472e+00,0.000000000000000000e+00,1.437884120944639932e+01,1.658291034083833893e+01,1.058722847134488632e+01,5.329223243144806332e+00,8.124228270376541161e+00,6.402151977023911478e+00,1.644511076751071244e+01,0.000000000000000000e+00,1.298299847034804877e+01,7.222900588813410572e+00,-0.000000000000000000e+00,7.873703225557592944e+00,7.649590247450340996e+00,1.137808357210872501e+01,-0.000000000000000000e+00,-0.000000000000000000e+00,0.000000000000000000e+00,8.030051479293719652e+00,1.070985012527515501e+01,6.468792884891399808e+00,-0.000000000000000000e+00,1.116809262894163624e+01,-0.000000000000000000e+00,7.667962965889875804e+00,1.203810562520771299e+01,5.698200952360742200e+00,8.772062621501445889e+00,9.596460567368351846e+00,8.005774556342140968e+00,-0.000000000000000000e+00,6.301570527380768283e+00,9.265100548154933335e+00,0.000000000000000000e+00,1.614959523787321416e+01,9.800141151447283150e+00,8.326251398719232810e+00,5.290441506253595882e+00,1.218170675180160600e+01,7.853755406446935261e+00,9.818805539465030208e+00,7.749054048847291654e+00,9.301157517961147647e+00,0.000000000000000000e+00,0.000000000000000000e+00,0.000000000000000000e+00,-0.000000000000000000e+00,1.564846600939346466e+01,2.056381640787417808e+01,-0.000000000000000000e+00,0.000000000000000000e+00,0.000000000000000000e+00,-0.000000000000000000e+00,0.000000000000000000e+00,8.649474020042681843e+00,1.140019303753232016e+01,1.360079118811124133e+01,1.163254392768951462e+01,1.108558132280951369e+01,1.568199363423284254e+01,-0.000000000000000000e+00,-0.000000000000000000e+00,1.774507733430996836e+01,1.318721614797030206e+01,-0.000000000000000000e+00,-0.000000000000000000e+00,0.000000000000000000e+00,9.094245807921303992e+00,-0.000000000000000000e+00,0.000000000000000000e+00,0.000000000000000000e+00,-0.000000000000000000e+00,1.057217850925924374e+01,-0.000000000000000000e+00,8.935912360266737409e+00,-0.000000000000000000e+00,-0.000000000000000000e+00,-0.000000000000000000e+00,5.521609657547053907e+00,-0.000000000000000000e+00,5.202138809989571122e+00,7.547801076960586109e+00,0.000000000000000000e+00,-0.000000000000000000e+00,0.000000000000000000e+00,-0.000000000000000000e+00,1.421444541896560310e+01,-0.000000000000000000e+00,1.183025654987333297e+01,-0.000000000000000000e+00,-0.000000000000000000e+00,-0.000000000000000000e+00,0.000000000000000000e+00,-0.000000000000000000e+00,6.772431733586435243e+00,0.000000000000000000e+00,0.000000000000000000e+00,-0.000000000000000000e+00,9.063919584648797212e+00,1.343266812195861704e+01,-0.000000000000000000e+00,0.000000000000000000e+00,-0.000000000000000000e+00,7.755340304832485820e+00,-0.000000000000000000e+00,-0.000000000000000000e+00,1.228070270973966061e+01,-0.000000000000000000e+00,1.160507059047909983e+01,-0.000000000000000000e+00,7.523153310576274677e+00,0.000000000000000000e+00,1.076421744574049555e+01,9.787590044599420835e+00,6.191778828429438164e+00,-0.000000000000000000e+00,6.604911507851882746e+00,-0.000000000000000000e+00,1.126665713104815225e+01,0.000000000000000000e+00,-0.000000000000000000e+00,0.000000000000000000e+00,-0.000000000000000000e+00,-0.000000000000000000e+00,0.000000000000000000e+00,1.970482194339012949e+01,9.135517086746453685e+00,7.052994203053275513e+00,-0.000000000000000000e+00,5.595158965589964062e+00,-0.000000000000000000e+00,7.475156781495622127e+00,0.000000000000000000e+00,-0.000000000000000000e+00,1.260855441880037731e+01,-0.000000000000000000e+00,9.666570203343470169e+00,-0.000000000000000000e+00,0.000000000000000000e+00,1.513930919016421761e+01,6.818037867510574834e+00,-0.000000000000000000e+00,5.443482800071643979e+00,6.859919471361821230e+00,0.000000000000000000e+00,1.228081817155991651e+01,-0.000000000000000000e+00,1.631890683599227643e+01,-0.000000000000000000e+00,-0.000000000000000000e+00,6.418645322130227093e+00,1.096386275083861506e+01,-0.000000000000000000e+00,1.263224849405477812e+01,1.266151565795936662e+01,7.838056911253570291e+00,0.000000000000000000e+00,1.580359309077864438e+01,-0.000000000000000000e+00,-0.000000000000000000e+00,-0.000000000000000000e+00,0.000000000000000000e+00,7.383148213813322869e+00,-0.000000000000000000e+00,-0.000000000000000000e+00,7.524347958082707066e+00,1.203866175254965931e+01,0.000000000000000000e+00,-0.000000000000000000e+00,-0.000000000000000000e+00,9.549925087404307789e+00,2.087842746925162274e+01,0.000000000000000000e+00,1.437235585146330763e+01,-0.000000000000000000e+00,-0.000000000000000000e+00,8.030475077034314069e+00,1.349828382582329134e+01,-0.000000000000000000e+00,1.200635013675846885e+01,6.313468443184464540e+00,-0.000000000000000000e+00,-0.000000000000000000e+00,1.228708875443214588e+01,9.723401288300072665e+00,0.000000000000000000e+00,1.296633446788705513e+01,0.000000000000000000e+00,1.395063584251873223e+01,0.000000000000000000e+00,-0.000000000000000000e+00,6.860971411627706296e+00,0.000000000000000000e+00,0.000000000000000000e+00,1.468517225556056616e+01,0.000000000000000000e+00,1.261236746341647041e+01,-0.000000000000000000e+00,-0.000000000000000000e+00,-0.000000000000000000e+00,-0.000000000000000000e+00,-0.000000000000000000e+00,6.826663048690234881e+00,1.107510500179138191e+01,1.243895079368920698e+01,-0.000000000000000000e+00,7.170279823683063825e+00,5.039577587906205913e+00,5.991086292467520558e+00,9.274407887969973174e+00,6.374665969407066868e+00,-0.000000000000000000e+00,1.302323092001122085e+01,-0.000000000000000000e+00,9.088030795934153971e+00,-0.000000000000000000e+00,-0.000000000000000000e+00,0.000000000000000000e+00,0.000000000000000000e+00,0.000000000000000000e+00,-0.000000000000000000e+00,0.000000000000000000e+00,8.286481929841000849e+00,0.000000000000000000e+00,1.301702995278749242e+01,8.151408135852515002e+00,-0.000000000000000000e+00,0.000000000000000000e+00,1.549861432562405739e+01,1.560074490017162852e+01,-0.000000000000000000e+00,-0.000000000000000000e+00,-0.000000000000000000e+00,6.208914179739179140e+00,6.849822625780945806e+00,1.653994570763788019e+01,-0.000000000000000000e+00,8.743823616432022661e+00,-0.000000000000000000e+00,0.000000000000000000e+00,8.129317324885668938e+00,-0.000000000000000000e+00,7.065247179118947507e+00,-0.000000000000000000e+00,7.026176842640493803e+00,0.000000000000000000e+00,1.392346561105933489e+01,9.104791999663458313e+00,1.214021902370041062e+01,0.000000000000000000e+00,0.000000000000000000e+00,8.293730926345752152e+00,-0.000000000000000000e+00,1.067578802536029237e+01,6.934509683862799534e+00,6.331429373582539100e+00,1.495677275347946278e+01,-0.000000000000000000e+00,5.640394718249250872e+00,-0.000000000000000000e+00,1.061068364997525038e+01,-0.000000000000000000e+00,1.672141756266332280e+01,5.238482963898233535e+00,1.003721989442314033e+01,-0.000000000000000000e+00,0.000000000000000000e+00,-0.000000000000000000e+00,-0.000000000000000000e+00,8.014565417543224157e+00,0.000000000000000000e+00,-0.000000000000000000e+00,7.747113172053149199e+00,0.000000000000000000e+00,0.000000000000000000e+00,-0.000000000000000000e+00,0.000000000000000000e+00,-0.000000000000000000e+00,1.107692632959551737e+01,6.367993440383823867e+00,0.000000000000000000e+00,7.311415735209648048e+00,1.816108885049006716e+01,1.389763477805290037e+01,-0.000000000000000000e+00,9.075910586311096040e+00,0.000000000000000000e+00,0.000000000000000000e+00,-0.000000000000000000e+00,-0.000000000000000000e+00,-0.000000000000000000e+00,1.436828135131664652e+01,0.000000000000000000e+00,9.272780082264292290e+00,0.000000000000000000e+00,-0.000000000000000000e+00,-0.000000000000000000e+00,-0.000000000000000000e+00,-0.000000000000000000e+00,0.000000000000000000e+00,5.576581985051386248e+00,-0.000000000000000000e+00,5.178088537379657019e+00,-0.000000000000000000e+00,0.000000000000000000e+00,1.692179786582348910e+01,-0.000000000000000000e+00,5.132755797780101936e+00,-0.000000000000000000e+00,1.807478636562044372e+01,-0.000000000000000000e+00,6.002682020191738133e+00,0.000000000000000000e+00,-0.000000000000000000e+00,5.465376482265513758e+00,7.562117913208528996e+00,0.000000000000000000e+00,5.911025044788526195e+00,7.464165987279637982e+00,8.355450058738957964e+00,0.000000000000000000e+00,0.000000000000000000e+00,-0.000000000000000000e+00,7.704638361220650822e+00,8.235763166595685192e+00,-0.000000000000000000e+00,-0.000000000000000000e+00,-0.000000000000000000e+00,-0.000000000000000000e+00,7.954469148110712595e+00,-0.000000000000000000e+00,-0.000000000000000000e+00,8.519242323381286397e+00,-0.000000000000000000e+00,6.497179771245481739e+00,-0.000000000000000000e+00,-0.000000000000000000e+00,9.856503304473818616e+00,0.000000000000000000e+00,1.130583061580205850e+01,1.212842460275577849e+01,0.000000000000000000e+00,8.509022822886853632e+00,1.339151893400171467e+01,-0.000000000000000000e+00,0.000000000000000000e+00,0.000000000000000000e+00,5.460685607558851906e+00,0.000000000000000000e+00,6.731358370137298763e+00,8.714341579469843779e+00,-0.000000000000000000e+00,0.000000000000000000e+00,1.914851134041383673e+01,-0.000000000000000000e+00,-0.000000000000000000e+00,5.220560748662053108e+00,1.473676156266628290e+01,1.030520372536404317e+01,-0.000000000000000000e+00,-0.000000000000000000e+00,6.186923082079019309e+00,0.000000000000000000e+00,0.000000000000000000e+00,-0.000000000000000000e+00,-0.000000000000000000e+00,0.000000000000000000e+00,-0.000000000000000000e+00,5.109682824405118673e+00,0.000000000000000000e+00,6.824010156941473504e+00,0.000000000000000000e+00,0.000000000000000000e+00,2.195018248211036394e+01,1.244183132556818094e+01,0.000000000000000000e+00,5.420643599516829170e+00,7.568319274662446361e+00,-0.000000000000000000e+00,0.000000000000000000e+00,1.848375423852370858e+01,1.540815869227383850e+01,0.000000000000000000e+00,-0.000000000000000000e+00,-0.000000000000000000e+00,0.000000000000000000e+00,-0.000000000000000000e+00,-0.000000000000000000e+00,1.113947784426300558e+01,2.023889550123855940e+01,-0.000000000000000000e+00,-0.000000000000000000e+00,-0.000000000000000000e+00,9.130943723844673343e+00,-0.000000000000000000e+00,1.235604390890783932e+01,0.000000000000000000e+00,5.857421244853090236e+00,0.000000000000000000e+00,-0.000000000000000000e+00,0.000000000000000000e+00,1.148674848970818907e+01,-0.000000000000000000e+00,0.000000000000000000e+00,-0.000000000000000000e+00,1.180216411001874022e+01,1.545004993307382435e+01,-0.000000000000000000e+00,-0.000000000000000000e+00,-0.000000000000000000e+00,0.000000000000000000e+00,-0.000000000000000000e+00,-0.000000000000000000e+00,1.222765684044304990e+01,0.000000000000000000e+00,8.439761252030395511e+00,-0.000000000000000000e+00,6.580786432130559582e+00,9.339823658455657096e+00,-0.000000000000000000e+00,0.000000000000000000e+00,1.687491776951873490e+01,-0.000000000000000000e+00,6.223311299000040542e+00,1.020598715082479124e+01,8.327620973226952827e+00,9.515441409631950620e+00,-0.000000000000000000e+00,-0.000000000000000000e+00,-0.000000000000000000e+00,-0.000000000000000000e+00,6.288523038761741901e+00,1.416202515757455060e+01,5.713314799367403829e+00,1.375602170073142183e+01,1.631613086749922559e+01,1.098917978458455735e+01,-0.000000000000000000e+00,-0.000000000000000000e+00,7.794507223670520624e+00,0.000000000000000000e+00,9.481978346048327566e+00,0.000000000000000000e+00,1.137316114794355748e+01,0.000000000000000000e+00,-0.000000000000000000e+00,0.000000000000000000e+00,0.000000000000000000e+00,-0.000000000000000000e+00,-0.000000000000000000e+00,1.205735030234944460e+01,1.557372384844092039e+01,-0.000000000000000000e+00,-0.000000000000000000e+00,8.687728662154224679e+00,-0.000000000000000000e+00,9.295845349180726913e+00,-0.000000000000000000e+00,1.244204984431795147e+01,-0.000000000000000000e+00,-0.000000000000000000e+00,7.938912218959593758e+00,-0.000000000000000000e+00,7.473033406993401684e+00,-0.000000000000000000e+00,8.264392971481074213e+00,-0.000000000000000000e+00,1.354389319003590408e+01,1.344285035644791115e+01,-0.000000000000000000e+00,1.176242188476229877e+01,-0.000000000000000000e+00,0.000000000000000000e+00,0.000000000000000000e+00,6.024212561603318861e+00,0.000000000000000000e+00,1.026183828006351995e+01,0.000000000000000000e+00,1.172040702497748832e+01,1.657574788168534141e+01,1.055413113940254988e+01,5.331433151980235152e+00,-0.000000000000000000e+00,0.000000000000000000e+00,-0.000000000000000000e+00,0.000000000000000000e+00,0.000000000000000000e+00,0.000000000000000000e+00,0.000000000000000000e+00,-0.000000000000000000e+00,6.435318931269351062e+00,1.329667081463573020e+01,-0.000000000000000000e+00,0.000000000000000000e+00,-0.000000000000000000e+00,-0.000000000000000000e+00,7.320298044976435214e+00,-0.000000000000000000e+00,6.625509522304172449e+00,0.000000000000000000e+00,5.728898388406488351e+00,-0.000000000000000000e+00,7.924357932575482266e+00,0.000000000000000000e+00,-0.000000000000000000e+00,6.685293841635390422e+00,-0.000000000000000000e+00,1.302008597185197836e+01,-0.000000000000000000e+00,0.000000000000000000e+00,5.807829605001671780e+00,0.000000000000000000e+00,5.284694492737401994e+00,1.358707150517693307e+01,1.346837183508377223e+01,9.205649752116599416e+00,0.000000000000000000e+00,7.121256971371161093e+00,6.380555019070184741e+00,1.450996736116040076e+01,-0.000000000000000000e+00,1.302747993582500996e+01,6.562960203128450409e+00,-0.000000000000000000e+00,6.542658358008722530e+00,0.000000000000000000e+00,1.057793795616196064e+01,-0.000000000000000000e+00,-0.000000000000000000e+00,0.000000000000000000e+00,6.560988083052829545e+00,7.186440485845420945e+00,0.000000000000000000e+00,-0.000000000000000000e+00,9.176592692943669860e+00,-0.000000000000000000e+00,7.569417986749584770e+00,1.332798993696042622e+01,5.736737412301690320e+00,8.101207521492373331e+00,9.325362644383506705e+00,0.000000000000000000e+00,-0.000000000000000000e+00,5.538754960817151130e+00,5.424873859893505568e+00,0.000000000000000000e+00,1.399320004130852624e+01,8.657066661442190281e+00,7.438970461943033463e+00,0.000000000000000000e+00,1.045049351240764857e+01,5.914686065383534697e+00,7.780799349645847407e+00,7.330662757504785354e+00,1.014654359977826203e+01,5.185071936069189036e+00,5.389551172212421193e+00,5.053371253736104407e+00,-0.000000000000000000e+00,1.490415547727983636e+01,2.246750091972132779e+01,0.000000000000000000e+00,0.000000000000000000e+00,0.000000000000000000e+00,-0.000000000000000000e+00,0.000000000000000000e+00,1.125274206164766255e+01,1.314863426086916043e+01,1.261152353535113235e+01,1.085208916171353621e+01,1.006757067050453713e+01,1.365421463047289130e+01,-0.000000000000000000e+00,-0.000000000000000000e+00,1.655445454781335357e+01,1.045774898383636753e+01,-0.000000000000000000e+00,-0.000000000000000000e+00,0.000000000000000000e+00,7.447950924138903694e+00,-0.000000000000000000e+00,0.000000000000000000e+00,-0.000000000000000000e+00,-0.000000000000000000e+00,1.042644290700270915e+01,-0.000000000000000000e+00,7.196298305791204442e+00,-0.000000000000000000e+00,-0.000000000000000000e+00,-0.000000000000000000e+00,-0.000000000000000000e+00,-0.000000000000000000e+00,5.894857636977544502e+00,7.353885296070562738e+00,0.000000000000000000e+00,-0.000000000000000000e+00,5.305210672204283107e+00,-0.000000000000000000e+00,1.114186870613663949e+01,-0.000000000000000000e+00,1.033753803151653017e+01,-0.000000000000000000e+00,-0.000000000000000000e+00,-0.000000000000000000e+00,0.000000000000000000e+00,-0.000000000000000000e+00,6.301267226917996567e+00,0.000000000000000000e+00,0.000000000000000000e+00,-0.000000000000000000e+00,9.148154613353748132e+00,1.277381573584489161e+01,-0.000000000000000000e+00,0.000000000000000000e+00,-0.000000000000000000e+00,9.717639380180917996e+00,0.000000000000000000e+00,-0.000000000000000000e+00,1.113950458109821007e+01,-0.000000000000000000e+00,9.020281645653337677e+00,-0.000000000000000000e+00,7.187341328657472772e+00,-0.000000000000000000e+00,1.105337266628078474e+01,1.014878820623798283e+01,5.746024088899975624e+00,0.000000000000000000e+00,5.085788826363589088e+00,-0.000000000000000000e+00,1.048821768758648609e+01,0.000000000000000000e+00,0.000000000000000000e+00,0.000000000000000000e+00,-0.000000000000000000e+00,-0.000000000000000000e+00,0.000000000000000000e+00,1.771605902394847476e+01,8.316911681185931826e+00,7.908244881178393193e+00,-0.000000000000000000e+00,7.760847796275995414e+00,-0.000000000000000000e+00,0.000000000000000000e+00,-0.000000000000000000e+00,-0.000000000000000000e+00,1.385906976840869831e+01,-0.000000000000000000e+00,9.695214395629498938e+00,-0.000000000000000000e+00,0.000000000000000000e+00,1.375850069391636765e+01,5.321804507728590039e+00,-0.000000000000000000e+00,0.000000000000000000e+00,6.020494345524400437e+00,5.162191186662333564e+00,1.147026537440809513e+01,-0.000000000000000000e+00,1.808328133671022542e+01,-0.000000000000000000e+00,-0.000000000000000000e+00,9.646635009322276133e+00,1.264176761858960063e+01,-0.000000000000000000e+00,1.270641720482037407e+01,1.178668314433965847e+01,6.580547111717693021e+00,0.000000000000000000e+00,1.570245206029989049e+01,0.000000000000000000e+00,-0.000000000000000000e+00,-0.000000000000000000e+00,0.000000000000000000e+00,7.529561402854490382e+00,-0.000000000000000000e+00,-0.000000000000000000e+00,7.477117320945590784e+00,1.179820139524938405e+01,-0.000000000000000000e+00,-0.000000000000000000e+00,-0.000000000000000000e+00,1.230020080741080157e+01,1.938507686787007955e+01,5.480510242303400226e+00,1.330924703518242502e+01,0.000000000000000000e+00,-0.000000000000000000e+00,7.276589076145580925e+00,1.315572926692720657e+01,-0.000000000000000000e+00,1.046881652743079982e+01,5.294419557876375748e+00,-0.000000000000000000e+00,-0.000000000000000000e+00,1.031920191575820134e+01,9.128123033166582800e+00,7.149216386108304455e+00,1.331906901562504508e+01,0.000000000000000000e+00,1.119940400940808800e+01,0.000000000000000000e+00,-0.000000000000000000e+00,8.110950488520265012e+00,0.000000000000000000e+00,0.000000000000000000e+00,1.181032788428404245e+01,0.000000000000000000e+00,7.629019515904769122e+00,-0.000000000000000000e+00,0.000000000000000000e+00,-0.000000000000000000e+00,-0.000000000000000000e+00,-0.000000000000000000e+00,6.010691015225784639e+00,1.182941284018986217e+01,1.022902190452367854e+01,-0.000000000000000000e+00,6.658526625548047306e+00,0.000000000000000000e+00,6.798158027862757358e+00,1.350335787393021469e+01,8.404743726472272414e+00,-0.000000000000000000e+00,1.025185078483739254e+01,-0.000000000000000000e+00,7.907114698719155399e+00,-0.000000000000000000e+00,0.000000000000000000e+00,0.000000000000000000e+00,6.308304843452011035e+00,0.000000000000000000e+00,-0.000000000000000000e+00,0.000000000000000000e+00,1.165167636752491376e+01,0.000000000000000000e+00,1.084837622586422157e+01,7.371056843188955376e+00,-0.000000000000000000e+00,0.000000000000000000e+00,1.458510162972129365e+01,1.384719605011757082e+01,-0.000000000000000000e+00,-0.000000000000000000e+00,-0.000000000000000000e+00,7.882941351926629814e+00,7.138768587931656917e+00,1.686307283824173453e+01,-0.000000000000000000e+00,7.353345474164669326e+00,-0.000000000000000000e+00,-0.000000000000000000e+00,0.000000000000000000e+00,-0.000000000000000000e+00,7.614564340233218154e+00,-0.000000000000000000e+00,8.975025890748904445e+00,0.000000000000000000e+00,1.295004217601045404e+01,9.597536121176608148e+00,1.183171642276687052e+01,0.000000000000000000e+00,0.000000000000000000e+00,7.717324766943983505e+00,-0.000000000000000000e+00,1.070081908186125297e+01,0.000000000000000000e+00,7.128090465716311108e+00,1.369334464622008340e+01,5.212006422849735365e+00,5.324504349704670680e+00,-0.000000000000000000e+00,1.184698498961013691e+01,0.000000000000000000e+00,1.596891426413881909e+01,8.439537934500082272e+00,1.081342344987001169e+01,-0.000000000000000000e+00,0.000000000000000000e+00,-0.000000000000000000e+00,-0.000000000000000000e+00,5.207203594581891970e+00,-0.000000000000000000e+00,-0.000000000000000000e+00,6.826914858601670133e+00,-0.000000000000000000e+00,5.537512007063775776e+00,-0.000000000000000000e+00,-0.000000000000000000e+00,0.000000000000000000e+00,1.146513406317680506e+01,6.739980854329096438e+00,0.000000000000000000e+00,6.035650099544334068e+00,1.754630034529817451e+01,1.217051623919413572e+01,0.000000000000000000e+00,7.946416525584680812e+00,5.485408484930508699e+00,0.000000000000000000e+00,-0.000000000000000000e+00,-0.000000000000000000e+00,-0.000000000000000000e+00,1.431598309313114470e+01,0.000000000000000000e+00,9.507788992154218022e+00,0.000000000000000000e+00,-0.000000000000000000e+00,-0.000000000000000000e+00,-0.000000000000000000e+00,0.000000000000000000e+00,5.144382761862560827e+00,0.000000000000000000e+00,-0.000000000000000000e+00,0.000000000000000000e+00,-0.000000000000000000e+00,0.000000000000000000e+00,1.879758003282756817e+01,-0.000000000000000000e+00,6.737880776710780673e+00,-0.000000000000000000e+00,1.920520271163941928e+01,-0.000000000000000000e+00,0.000000000000000000e+00,0.000000000000000000e+00,-0.000000000000000000e+00,0.000000000000000000e+00,6.215281636132412579e+00,0.000000000000000000e+00,8.971308434386264352e+00,9.278705462628682454e+00,6.814725738484663786e+00,-0.000000000000000000e+00,-0.000000000000000000e+00,-0.000000000000000000e+00,8.233936320534267495e+00,6.085216945575193215e+00,-0.000000000000000000e+00,-0.000000000000000000e+00,-0.000000000000000000e+00,-0.000000000000000000e+00,0.000000000000000000e+00,-0.000000000000000000e+00,-0.000000000000000000e+00,8.151634138986876721e+00,-0.000000000000000000e+00,5.828530919048962033e+00,-0.000000000000000000e+00,0.000000000000000000e+00,9.425591263335675762e+00,0.000000000000000000e+00,1.002502590788201609e+01,1.066343118704465809e+01,5.435899508914467049e+00,7.953230822159691016e+00,1.297202065680913918e+01,-0.000000000000000000e+00,0.000000000000000000e+00,0.000000000000000000e+00,0.000000000000000000e+00,0.000000000000000000e+00,6.626777871400428843e+00,5.818356450549008407e+00,-0.000000000000000000e+00,8.513918956375270852e+00,2.174743383905671479e+01,0.000000000000000000e+00,-0.000000000000000000e+00,0.000000000000000000e+00,1.683947445601985038e+01,9.312886826489606307e+00,-0.000000000000000000e+00,-0.000000000000000000e+00,5.556985668938859035e+00,0.000000000000000000e+00,0.000000000000000000e+00,-0.000000000000000000e+00,-0.000000000000000000e+00,-0.000000000000000000e+00,-0.000000000000000000e+00,5.998405522741052209e+00,0.000000000000000000e+00,6.186076054106909972e+00,0.000000000000000000e+00,0.000000000000000000e+00,2.067894946576472037e+01,1.141611790104387758e+01,0.000000000000000000e+00,0.000000000000000000e+00,6.185856035073710402e+00,-0.000000000000000000e+00,5.186980387147030136e+00,1.587132922271532465e+01,1.403929549186060832e+01,5.207747795169070493e+00,-0.000000000000000000e+00,-0.000000000000000000e+00,0.000000000000000000e+00,-0.000000000000000000e+00,-0.000000000000000000e+00,1.043000910176948182e+01,1.994859563360793331e+01,-0.000000000000000000e+00,-0.000000000000000000e+00,-0.000000000000000000e+00,9.429084944462381657e+00,-0.000000000000000000e+00,1.144675722006785179e+01,0.000000000000000000e+00,0.000000000000000000e+00,0.000000000000000000e+00,-0.000000000000000000e+00,0.000000000000000000e+00,1.101996577739855532e+01,-0.000000000000000000e+00,0.000000000000000000e+00,-0.000000000000000000e+00,1.233847462198736800e+01,1.481756617955037569e+01,-0.000000000000000000e+00,-0.000000000000000000e+00,-0.000000000000000000e+00,0.000000000000000000e+00,-0.000000000000000000e+00,-0.000000000000000000e+00,8.289986902680798408e+00,0.000000000000000000e+00,8.599719432599499669e+00,-0.000000000000000000e+00,0.000000000000000000e+00,9.193842520749479164e+00,-0.000000000000000000e+00,0.000000000000000000e+00,1.669450105895884917e+01,-0.000000000000000000e+00,7.018767699358126499e+00,8.637610992856167513e+00,6.004360466975618316e+00,8.695142113457890787e+00,-0.000000000000000000e+00,-0.000000000000000000e+00,-0.000000000000000000e+00,0.000000000000000000e+00,5.663303335668510741e+00,1.275652582576799077e+01,7.734425355740298436e+00,1.352019477102170164e+01,1.598800381515770219e+01,6.725474066400243700e+00,-0.000000000000000000e+00,-0.000000000000000000e+00,6.609264139105264668e+00,-0.000000000000000000e+00,9.449455401180108183e+00,0.000000000000000000e+00,9.096338390043962718e+00,0.000000000000000000e+00,-0.000000000000000000e+00,0.000000000000000000e+00,5.876477677537673472e+00,-0.000000000000000000e+00,-0.000000000000000000e+00,1.122199699560754560e+01,1.316598209081598547e+01,-0.000000000000000000e+00,-0.000000000000000000e+00,5.251494817685766314e+00,-0.000000000000000000e+00,7.940763352291717148e+00,-0.000000000000000000e+00,1.162411301978956857e+01,-0.000000000000000000e+00,-0.000000000000000000e+00,7.711310689767170601e+00,-0.000000000000000000e+00,7.017083683915850578e+00,-0.000000000000000000e+00,9.270232608921674000e+00,-0.000000000000000000e+00,1.195820887318748404e+01,1.249134646151283867e+01,-0.000000000000000000e+00,1.290260376199826631e+01,0.000000000000000000e+00,0.000000000000000000e+00,0.000000000000000000e+00,5.431526507227798284e+00,0.000000000000000000e+00,1.023476808679263073e+01,0.000000000000000000e+00,1.055350713734922508e+01,1.617473922091132366e+01,9.523563802735163009e+00,5.856625883545549804e+00,-0.000000000000000000e+00,0.000000000000000000e+00,-0.000000000000000000e+00,-0.000000000000000000e+00,0.000000000000000000e+00,0.000000000000000000e+00,0.000000000000000000e+00,-0.000000000000000000e+00,8.090035003187830753e+00,1.256039730949481203e+01,-0.000000000000000000e+00,0.000000000000000000e+00,-0.000000000000000000e+00,-0.000000000000000000e+00,6.816035727177173875e+00,0.000000000000000000e+00,5.071384256216656894e+00,0.000000000000000000e+00,0.000000000000000000e+00,-0.000000000000000000e+00,6.736735206296311063e+00,0.000000000000000000e+00,-0.000000000000000000e+00,0.000000000000000000e+00,-0.000000000000000000e+00,1.216777772205365515e+01,-0.000000000000000000e+00,0.000000000000000000e+00,5.123527092457548449e+00,5.458013946734320498e+00,5.933271607577828455e+00,1.211783273063383781e+01,1.055090896272516687e+01,8.487116428807686574e+00,0.000000000000000000e+00,6.026398367904842068e+00,6.206377980195125765e+00,1.308811956560429124e+01,-0.000000000000000000e+00,1.223691944886959782e+01,7.214962607082265222e+00,-0.000000000000000000e+00,0.000000000000000000e+00,0.000000000000000000e+00,9.519910173998916036e+00,-0.000000000000000000e+00,-0.000000000000000000e+00,0.000000000000000000e+00,8.588840846417610919e+00,0.000000000000000000e+00,-0.000000000000000000e+00,-0.000000000000000000e+00,9.456590605051221843e+00,-0.000000000000000000e+00,5.903256520477563996e+00,1.547069382223809342e+01,0.000000000000000000e+00,9.439261770866355761e+00,8.343723384411598332e+00,0.000000000000000000e+00,-0.000000000000000000e+00,6.155095771219938783e+00,0.000000000000000000e+00,-0.000000000000000000e+00,1.226661805538849670e+01,8.740106454101070454e+00,0.000000000000000000e+00,5.467687010750587717e+00,8.957778711287824436e+00,5.827382664196140816e+00,7.166806903458605937e+00,6.566570912157498441e+00,1.085839609633857172e+01,5.526372362930874971e+00,8.853665961376107063e+00,5.906845437963623269e+00,-0.000000000000000000e+00,1.320406488177781590e+01,2.193580201343157654e+01,0.000000000000000000e+00,0.000000000000000000e+00,0.000000000000000000e+00,-0.000000000000000000e+00,6.303661786203528905e+00,1.145694446991737792e+01,1.432956212940180052e+01,1.157421675916809178e+01,1.022627335343876709e+01,9.763619574632640408e+00,1.218672774234332046e+01,-0.000000000000000000e+00,-0.000000000000000000e+00,1.409436525084529457e+01,6.803453942935242971e+00,-0.000000000000000000e+00,0.000000000000000000e+00,0.000000000000000000e+00,6.568887425454620121e+00,0.000000000000000000e+00,0.000000000000000000e+00,-0.000000000000000000e+00,-0.000000000000000000e+00,1.088217263731101880e+01,-0.000000000000000000e+00,6.499783729144654743e+00,-0.000000000000000000e+00,-0.000000000000000000e+00,-0.000000000000000000e+00,-0.000000000000000000e+00,-0.000000000000000000e+00,6.479254314202333553e+00,8.538681151400110636e+00,0.000000000000000000e+00,-0.000000000000000000e+00,0.000000000000000000e+00,-0.000000000000000000e+00,9.966419445151370127e+00,-0.000000000000000000e+00,9.127965552415565398e+00,-0.000000000000000000e+00,0.000000000000000000e+00,-0.000000000000000000e+00,-0.000000000000000000e+00,-0.000000000000000000e+00,5.437321375266651380e+00,-0.000000000000000000e+00,-0.000000000000000000e+00,-0.000000000000000000e+00,9.452473565042703640e+00,1.107369956804373423e+01,-0.000000000000000000e+00,6.632339822862541645e+00,-0.000000000000000000e+00,9.199397201591496653e+00,0.000000000000000000e+00,-0.000000000000000000e+00,1.149899917078655420e+01,0.000000000000000000e+00,6.938045151491477824e+00,-0.000000000000000000e+00,0.000000000000000000e+00,-0.000000000000000000e+00,1.077190965227772601e+01,9.249726854620343275e+00,5.513291142965025315e+00,0.000000000000000000e+00,0.000000000000000000e+00,-0.000000000000000000e+00,9.809428597482654055e+00,0.000000000000000000e+00,5.933944376140611432e+00,0.000000000000000000e+00,-0.000000000000000000e+00,0.000000000000000000e+00,-0.000000000000000000e+00,1.489104343055574020e+01,8.867570202111735966e+00,6.469012027573202595e+00,-0.000000000000000000e+00,7.344841240126439352e+00,-0.000000000000000000e+00,0.000000000000000000e+00,-0.000000000000000000e+00,-0.000000000000000000e+00,1.440854690674074412e+01,-0.000000000000000000e+00,9.274514480089061763e+00,-0.000000000000000000e+00,0.000000000000000000e+00,1.293380149581273209e+01,6.219463369502349792e+00,0.000000000000000000e+00,0.000000000000000000e+00,0.000000000000000000e+00,6.763705810940885854e+00,9.985780090986157376e+00,-0.000000000000000000e+00,1.979614758266623653e+01,-0.000000000000000000e+00,-0.000000000000000000e+00,1.257760966900843869e+01,1.215726782986355836e+01,-0.000000000000000000e+00,1.306717288250147391e+01,1.105813046197673799e+01,6.801254213874694088e+00,0.000000000000000000e+00,1.591611375450574428e+01,0.000000000000000000e+00,-0.000000000000000000e+00,0.000000000000000000e+00,0.000000000000000000e+00,6.408401250368940261e+00,-0.000000000000000000e+00,-0.000000000000000000e+00,7.961481731317732624e+00,1.220992522945001291e+01,0.000000000000000000e+00,-0.000000000000000000e+00,-0.000000000000000000e+00,1.405959670805212447e+01,1.892401724581887379e+01,5.151854918452490217e+00,1.222678009894071671e+01,0.000000000000000000e+00,-0.000000000000000000e+00,5.884635768277141743e+00,1.160564103114365508e+01,-0.000000000000000000e+00,1.054062935595021777e+01,0.000000000000000000e+00,-0.000000000000000000e+00,0.000000000000000000e+00,9.188227899168333934e+00,8.380101267314611135e+00,9.773530250403670294e+00,1.192347071941538772e+01,5.293664867911378025e+00,9.787171488825993748e+00,0.000000000000000000e+00,-0.000000000000000000e+00,1.080994908300301560e+01,0.000000000000000000e+00,-0.000000000000000000e+00,1.066671944756052071e+01,0.000000000000000000e+00,0.000000000000000000e+00,-0.000000000000000000e+00,0.000000000000000000e+00,-0.000000000000000000e+00,-0.000000000000000000e+00,-0.000000000000000000e+00,0.000000000000000000e+00,1.141584796112970857e+01,1.013759694849301596e+01,-0.000000000000000000e+00,5.942176978401188414e+00,0.000000000000000000e+00,7.658647257497798400e+00,1.559607904190480099e+01,9.387364228312701897e+00,-0.000000000000000000e+00,8.384948564410539262e+00,-0.000000000000000000e+00,6.972072136777849316e+00,-0.000000000000000000e+00,5.356196649710388336e+00,6.894588900730792780e+00,5.938891857499822180e+00,0.000000000000000000e+00,-0.000000000000000000e+00,0.000000000000000000e+00,1.310201108511358647e+01,0.000000000000000000e+00,9.353640352456125129e+00,7.568394632444944925e+00,-0.000000000000000000e+00,0.000000000000000000e+00,1.413121527566406321e+01,1.341230417122160112e+01,-0.000000000000000000e+00,-0.000000000000000000e+00,-0.000000000000000000e+00,7.988174591671390878e+00,6.906695211444291438e+00,1.546943289980798575e+01,-0.000000000000000000e+00,7.102797995837637934e+00,-0.000000000000000000e+00,-0.000000000000000000e+00,0.000000000000000000e+00,-0.000000000000000000e+00,9.052246771942503045e+00,-0.000000000000000000e+00,9.942499586613239515e+00,-0.000000000000000000e+00,1.294923825381089522e+01,1.117398530187906225e+01,1.239987451262488882e+01,0.000000000000000000e+00,5.097720306784010447e+00,7.286842791577566203e+00,-0.000000000000000000e+00,9.302000460556673289e+00,0.000000000000000000e+00,9.349049970851789126e+00,1.331857508135480472e+01,8.459446958783164661e+00,5.389790829136908101e+00,0.000000000000000000e+00,1.169256538156325931e+01,0.000000000000000000e+00,1.628158483973790283e+01,8.731100186212577441e+00,1.117377488553814757e+01,-0.000000000000000000e+00,0.000000000000000000e+00,-0.000000000000000000e+00,-0.000000000000000000e+00,0.000000000000000000e+00,-0.000000000000000000e+00,-0.000000000000000000e+00,6.345180526978933422e+00,-0.000000000000000000e+00,0.000000000000000000e+00,-0.000000000000000000e+00,-0.000000000000000000e+00,5.548194579063509657e+00,1.264489943700461971e+01,7.822661369357691186e+00,0.000000000000000000e+00,5.926896279916553212e+00,1.674315845040386108e+01,1.254510479606426365e+01,5.850082124041374065e+00,7.691637307048351246e+00,7.395898689194694064e+00,0.000000000000000000e+00,-0.000000000000000000e+00,0.000000000000000000e+00,-0.000000000000000000e+00,1.387859569433070561e+01,6.448198104415271636e+00,9.819722462467552759e+00,-0.000000000000000000e+00,-0.000000000000000000e+00,-0.000000000000000000e+00,-0.000000000000000000e+00,0.000000000000000000e+00,0.000000000000000000e+00,-0.000000000000000000e+00,-0.000000000000000000e+00,0.000000000000000000e+00,-0.000000000000000000e+00,0.000000000000000000e+00,1.939602759652454012e+01,-0.000000000000000000e+00,7.493835629285138467e+00,-0.000000000000000000e+00,1.597050982236875782e+01,-0.000000000000000000e+00,-0.000000000000000000e+00,0.000000000000000000e+00,-0.000000000000000000e+00,-0.000000000000000000e+00,8.405384991959795826e+00,7.310816761238887906e+00,1.256275782624915216e+01,8.555508313181828584e+00,5.813685154936225175e+00,-0.000000000000000000e+00,-0.000000000000000000e+00,-0.000000000000000000e+00,8.124983881190143364e+00,7.373006354137270790e+00,-0.000000000000000000e+00,-0.000000000000000000e+00,-0.000000000000000000e+00,-0.000000000000000000e+00,0.000000000000000000e+00,-0.000000000000000000e+00,0.000000000000000000e+00,8.010183824440291644e+00,-0.000000000000000000e+00,6.090575408948537550e+00,-0.000000000000000000e+00,0.000000000000000000e+00,9.097488531920564725e+00,5.347828029519678950e+00,1.036101031402883166e+01,9.791944819387248700e+00,8.209354287774843328e+00,8.680143049322429860e+00,1.324204259266385897e+01,-0.000000000000000000e+00,0.000000000000000000e+00,0.000000000000000000e+00,0.000000000000000000e+00,5.733274980227248463e+00,5.345584729327076623e+00,5.422635507632161733e+00,-0.000000000000000000e+00,1.079184880731510354e+01,2.090874249781697003e+01,0.000000000000000000e+00,-0.000000000000000000e+00,-0.000000000000000000e+00,1.963337494750187773e+01,6.227604707407786933e+00,-0.000000000000000000e+00,-0.000000000000000000e+00,5.805281963148430258e+00,-0.000000000000000000e+00,-0.000000000000000000e+00,-0.000000000000000000e+00,-0.000000000000000000e+00,-0.000000000000000000e+00,-0.000000000000000000e+00,0.000000000000000000e+00,0.000000000000000000e+00,6.512046537945330726e+00,-0.000000000000000000e+00,0.000000000000000000e+00,2.070483294103430438e+01,1.107395442027534926e+01,5.328752704980870725e+00,0.000000000000000000e+00,0.000000000000000000e+00,-0.000000000000000000e+00,0.000000000000000000e+00,1.384667243566106620e+01,1.392518280137342224e+01,5.200083933599857211e+00,0.000000000000000000e+00,-0.000000000000000000e+00,-0.000000000000000000e+00,-0.000000000000000000e+00,-0.000000000000000000e+00,1.139351564386911875e+01,2.033862470292183389e+01,-0.000000000000000000e+00,-0.000000000000000000e+00,-0.000000000000000000e+00,8.873122879450491496e+00,-0.000000000000000000e+00,1.184563659413316650e+01,0.000000000000000000e+00,0.000000000000000000e+00,5.149127050084165269e+00,-0.000000000000000000e+00,0.000000000000000000e+00,9.821600466043541644e+00,-0.000000000000000000e+00,5.361269374812404287e+00,-0.000000000000000000e+00,1.193359670437593678e+01,1.395973641989681191e+01,-0.000000000000000000e+00,-0.000000000000000000e+00,-0.000000000000000000e+00,-0.000000000000000000e+00,-0.000000000000000000e+00,-0.000000000000000000e+00,0.000000000000000000e+00,-0.000000000000000000e+00,8.404585775365449152e+00,-0.000000000000000000e+00,0.000000000000000000e+00,8.368526980131139936e+00,-0.000000000000000000e+00,0.000000000000000000e+00,1.690527852327510416e+01,-0.000000000000000000e+00,7.075217838712705820e+00,1.001998943560101196e+01,0.000000000000000000e+00,9.086714787215152356e+00,-0.000000000000000000e+00,-0.000000000000000000e+00,-0.000000000000000000e+00,0.000000000000000000e+00,0.000000000000000000e+00,1.215076542194961817e+01,6.255119629483323784e+00,1.374489386505267063e+01,1.599419330176846010e+01,0.000000000000000000e+00,-0.000000000000000000e+00,-0.000000000000000000e+00,0.000000000000000000e+00,-0.000000000000000000e+00,9.864777106410071994e+00,0.000000000000000000e+00,7.455583385281918218e+00,-0.000000000000000000e+00,-0.000000000000000000e+00,0.000000000000000000e+00,5.515770385206980819e+00,-0.000000000000000000e+00,-0.000000000000000000e+00,9.451781755153644937e+00,1.131052780841499050e+01,-0.000000000000000000e+00,-0.000000000000000000e+00,0.000000000000000000e+00,-0.000000000000000000e+00,7.559898417840409834e+00,-0.000000000000000000e+00,1.121541053429456092e+01,-0.000000000000000000e+00,-0.000000000000000000e+00,7.060402111973276718e+00,-0.000000000000000000e+00,5.846103643537914785e+00,-0.000000000000000000e+00,8.796345692981251574e+00,-0.000000000000000000e+00,1.134273897423512523e+01,1.073173927482032930e+01,-0.000000000000000000e+00,1.251967545261486237e+01,0.000000000000000000e+00,0.000000000000000000e+00,0.000000000000000000e+00,0.000000000000000000e+00,0.000000000000000000e+00,8.805102018812490883e+00,5.066595636140760028e+00,8.759636452091710268e+00,1.469929010728738561e+01,9.452679918454720109e+00,6.033915373805244009e+00,-0.000000000000000000e+00,0.000000000000000000e+00,-0.000000000000000000e+00,-0.000000000000000000e+00,0.000000000000000000e+00,-0.000000000000000000e+00,0.000000000000000000e+00,-0.000000000000000000e+00,8.635703748637599375e+00,1.186971369136915477e+01,-0.000000000000000000e+00,0.000000000000000000e+00,-0.000000000000000000e+00,-0.000000000000000000e+00,6.056814593136516045e+00,0.000000000000000000e+00,5.378498465185869826e+00,0.000000000000000000e+00,0.000000000000000000e+00,-0.000000000000000000e+00,6.635899073064718046e+00,0.000000000000000000e+00,-0.000000000000000000e+00,0.000000000000000000e+00,-0.000000000000000000e+00,1.082750682532602227e+01,-0.000000000000000000e+00,0.000000000000000000e+00,0.000000000000000000e+00,0.000000000000000000e+00,0.000000000000000000e+00,9.762069833251647566e+00,9.887496973554990021e+00,8.648993074844408824e+00,0.000000000000000000e+00,0.000000000000000000e+00,5.713922667104290198e+00,1.134157971204569471e+01,-0.000000000000000000e+00,1.025236970015754423e+01,6.582283224612321071e+00,-0.000000000000000000e+00,0.000000000000000000e+00,-0.000000000000000000e+00,9.718837823111318386e+00,-0.000000000000000000e+00,-0.000000000000000000e+00,-0.000000000000000000e+00,7.424312746222234694e+00,0.000000000000000000e+00,-0.000000000000000000e+00,-0.000000000000000000e+00,8.151962912489599589e+00,-0.000000000000000000e+00,0.000000000000000000e+00,1.693086885349896420e+01,0.000000000000000000e+00,8.224267999305720167e+00,5.941093498238779524e+00,-0.000000000000000000e+00,0.000000000000000000e+00,0.000000000000000000e+00,-0.000000000000000000e+00,-0.000000000000000000e+00,1.041675278947459482e+01,7.943327923868976015e+00,0.000000000000000000e+00,0.000000000000000000e+00,6.923626011453468010e+00,0.000000000000000000e+00,6.961702205922507325e+00,5.518592394789732403e+00,1.044205232846657339e+01,0.000000000000000000e+00,1.113109230002152117e+01,6.164966435963548541e+00,-0.000000000000000000e+00,1.086263462778729405e+01,2.124239544001240176e+01,0.000000000000000000e+00,0.000000000000000000e+00,0.000000000000000000e+00,0.000000000000000000e+00,5.529972908284602973e+00,1.080121459100124959e+01,1.492266659220266156e+01,1.216173295455933712e+01,8.652465974997507914e+00,1.050360968933460981e+01,1.162379164778465679e+01,-0.000000000000000000e+00,-0.000000000000000000e+00,1.283585871725299299e+01,0.000000000000000000e+00,-0.000000000000000000e+00,0.000000000000000000e+00,0.000000000000000000e+00,6.946453736518407140e+00,5.622850224848288114e+00,-0.000000000000000000e+00,-0.000000000000000000e+00,0.000000000000000000e+00,1.086673977216767106e+01,-0.000000000000000000e+00,6.446548938064707635e+00,-0.000000000000000000e+00,-0.000000000000000000e+00,-0.000000000000000000e+00,-0.000000000000000000e+00,-0.000000000000000000e+00,0.000000000000000000e+00,9.424872357387840793e+00,0.000000000000000000e+00,-0.000000000000000000e+00,0.000000000000000000e+00,-0.000000000000000000e+00,8.221775677743060839e+00,-0.000000000000000000e+00,7.479001987243074190e+00,-0.000000000000000000e+00,0.000000000000000000e+00,-0.000000000000000000e+00,-0.000000000000000000e+00,-0.000000000000000000e+00,0.000000000000000000e+00,-0.000000000000000000e+00,-0.000000000000000000e+00,-0.000000000000000000e+00,9.876772994291918906e+00,9.049110178647877589e+00,-0.000000000000000000e+00,7.733106838284284024e+00,-0.000000000000000000e+00,7.574734643242773124e+00,0.000000000000000000e+00,-0.000000000000000000e+00,1.208712808418046158e+01,0.000000000000000000e+00,5.034611944892422919e+00,-0.000000000000000000e+00,0.000000000000000000e+00,-0.000000000000000000e+00,9.973855623714328544e+00,7.495737509523680231e+00,5.460928993723485725e+00,0.000000000000000000e+00,-0.000000000000000000e+00,0.000000000000000000e+00,9.027402964565405696e+00,-0.000000000000000000e+00,7.577096162276986568e+00,0.000000000000000000e+00,-0.000000000000000000e+00,0.000000000000000000e+00,-0.000000000000000000e+00,1.485174860423621723e+01,7.033216574847423352e+00,6.222280987703807220e+00,-0.000000000000000000e+00,6.527849335950441478e+00,-0.000000000000000000e+00,-0.000000000000000000e+00,0.000000000000000000e+00,0.000000000000000000e+00,1.511818658436547480e+01,-0.000000000000000000e+00,9.489321956933649105e+00,-0.000000000000000000e+00,0.000000000000000000e+00,1.313808475092998584e+01,7.285006792230325878e+00,6.521437896525630329e+00,0.000000000000000000e+00,-0.000000000000000000e+00,6.048124499255076003e+00,9.861901825205261929e+00,-0.000000000000000000e+00,1.984407346970690966e+01,-0.000000000000000000e+00,-0.000000000000000000e+00,1.415764530289890288e+01,1.143656704518395095e+01,-0.000000000000000000e+00,1.143618509050066834e+01,1.032005675249807375e+01,6.989164189377215841e+00,0.000000000000000000e+00,1.605864384570189785e+01,0.000000000000000000e+00,-0.000000000000000000e+00,5.834030970264389104e+00,0.000000000000000000e+00,7.623636275173291565e+00,-0.000000000000000000e+00,-0.000000000000000000e+00,7.583965739107769721e+00,1.170487198224335934e+01,0.000000000000000000e+00,-0.000000000000000000e+00,-0.000000000000000000e+00,1.464423860885087691e+01,1.891087538725834705e+01,0.000000000000000000e+00,1.219898610486553459e+01,8.304864611697505339e+00,-0.000000000000000000e+00,5.573689571497024708e+00,1.024872229693789016e+01,-0.000000000000000000e+00,1.132611001588855792e+01,0.000000000000000000e+00,0.000000000000000000e+00,0.000000000000000000e+00,9.189506024207235058e+00,8.039619022370002810e+00,1.227162739933641333e+01,1.074798462424215550e+01,6.555491430943326314e+00,8.503555152351241375e+00,0.000000000000000000e+00,-0.000000000000000000e+00,1.348171190562025679e+01,-0.000000000000000000e+00,-0.000000000000000000e+00,1.162472249939718516e+01,0.000000000000000000e+00,0.000000000000000000e+00,-0.000000000000000000e+00,0.000000000000000000e+00,0.000000000000000000e+00,-0.000000000000000000e+00,-0.000000000000000000e+00,0.000000000000000000e+00,1.034390271029915809e+01,9.282546834664547220e+00,-0.000000000000000000e+00,6.769686618369688880e+00,0.000000000000000000e+00,9.344096700704248804e+00,1.586528840558937858e+01,7.604469077535406463e+00,-0.000000000000000000e+00,7.694394374890612731e+00,-0.000000000000000000e+00,5.752982526615166847e+00,-0.000000000000000000e+00,6.068046990352685022e+00,8.748439479501014304e+00,5.182911681140600635e+00,-0.000000000000000000e+00,-0.000000000000000000e+00,0.000000000000000000e+00,1.225452835090007042e+01,0.000000000000000000e+00,9.033091009843017716e+00,7.948928174814910541e+00,-0.000000000000000000e+00,0.000000000000000000e+00,1.374378598663643736e+01,1.088353538849531255e+01,-0.000000000000000000e+00,-0.000000000000000000e+00,-0.000000000000000000e+00,7.939308229478545087e+00,5.596317530782893179e+00,1.604688384964737224e+01,-0.000000000000000000e+00,6.118359843515412955e+00,-0.000000000000000000e+00,-0.000000000000000000e+00,0.000000000000000000e+00,-0.000000000000000000e+00,9.744055601768200958e+00,0.000000000000000000e+00,1.073099289288628455e+01,-0.000000000000000000e+00,1.071648041448158395e+01,1.107454717269322586e+01,1.206655685926231314e+01,0.000000000000000000e+00,5.136286328458319339e+00,7.180019127905389098e+00,-0.000000000000000000e+00,8.274107232786201749e+00,0.000000000000000000e+00,8.940361522443655673e+00,1.291858069334907277e+01,9.767403973087969149e+00,5.322303323726700341e+00,0.000000000000000000e+00,1.077539272741435461e+01,8.489278473103562206e+00,1.590856382373256217e+01,8.112762550406927176e+00,1.067090297127115406e+01,-0.000000000000000000e+00,-0.000000000000000000e+00,0.000000000000000000e+00,-0.000000000000000000e+00,5.190618858736477215e+00,-0.000000000000000000e+00,-0.000000000000000000e+00,5.569248949791901993e+00,-0.000000000000000000e+00,0.000000000000000000e+00,-0.000000000000000000e+00,-0.000000000000000000e+00,5.892886166063230569e+00,1.335730234559274088e+01,7.550219592976010752e+00,0.000000000000000000e+00,5.902758479510261225e+00,1.593581492791755494e+01,1.213911677968517289e+01,7.002439617215840073e+00,6.235001430953061252e+00,7.999638951294000044e+00,7.866284732913702449e+00,-0.000000000000000000e+00,0.000000000000000000e+00,-0.000000000000000000e+00,1.325261088547914667e+01,7.488588822022761882e+00,8.754126354466707838e+00,-0.000000000000000000e+00,-0.000000000000000000e+00,-0.000000000000000000e+00,-0.000000000000000000e+00,6.339972491118984976e+00,5.464038986160057121e+00,-0.000000000000000000e+00,-0.000000000000000000e+00,5.380011289926469153e+00,-0.000000000000000000e+00,-0.000000000000000000e+00,1.885640805025688493e+01,-0.000000000000000000e+00,7.404476855638335131e+00,0.000000000000000000e+00,1.601997435965147432e+01,0.000000000000000000e+00,-0.000000000000000000e+00,-0.000000000000000000e+00,-0.000000000000000000e+00,-0.000000000000000000e+00,7.984467483003274246e+00,8.743776778739844602e+00,1.323038164856860988e+01,6.939109073278594053e+00,5.380050010541151728e+00,-0.000000000000000000e+00,-0.000000000000000000e+00,-0.000000000000000000e+00,7.661998461058843191e+00,8.258206417776454700e+00,-0.000000000000000000e+00,-0.000000000000000000e+00,-0.000000000000000000e+00,-0.000000000000000000e+00,0.000000000000000000e+00,-0.000000000000000000e+00,0.000000000000000000e+00,8.142792680210828138e+00,-0.000000000000000000e+00,0.000000000000000000e+00,-0.000000000000000000e+00,0.000000000000000000e+00,7.654896642518320249e+00,5.501927809299272276e+00,1.002307790094880602e+01,8.745752172712164096e+00,8.042764501078295325e+00,8.894752372786463468e+00,1.282139767535756292e+01,-0.000000000000000000e+00,0.000000000000000000e+00,0.000000000000000000e+00,0.000000000000000000e+00,0.000000000000000000e+00,0.000000000000000000e+00,8.754563758597010192e+00,0.000000000000000000e+00,1.216808473156191361e+01,1.925026132029958958e+01,0.000000000000000000e+00,-0.000000000000000000e+00,-0.000000000000000000e+00,1.963202130807039580e+01,0.000000000000000000e+00,-0.000000000000000000e+00,-0.000000000000000000e+00,5.531165365457356486e+00,0.000000000000000000e+00,-0.000000000000000000e+00,-0.000000000000000000e+00,-0.000000000000000000e+00,-0.000000000000000000e+00,-0.000000000000000000e+00,0.000000000000000000e+00,-0.000000000000000000e+00,6.173414478003774519e+00,-0.000000000000000000e+00,-0.000000000000000000e+00,2.119374544392762161e+01,1.163260367899635739e+01,0.000000000000000000e+00,0.000000000000000000e+00,0.000000000000000000e+00,-0.000000000000000000e+00,0.000000000000000000e+00,1.302383276424474445e+01,1.502751503984675630e+01,5.318104578540562954e+00,0.000000000000000000e+00,-0.000000000000000000e+00,-0.000000000000000000e+00,-0.000000000000000000e+00,-0.000000000000000000e+00,1.162688098293749484e+01,2.002554172044557745e+01,-0.000000000000000000e+00,-0.000000000000000000e+00,-0.000000000000000000e+00,7.648045663400326433e+00,0.000000000000000000e+00,1.101126326005933365e+01,-0.000000000000000000e+00,-0.000000000000000000e+00,5.498212060486276975e+00,-0.000000000000000000e+00,0.000000000000000000e+00,9.641420088027714996e+00,-0.000000000000000000e+00,6.993208754029644147e+00,-0.000000000000000000e+00,1.074750892195873675e+01,1.357477723354554655e+01,-0.000000000000000000e+00,-0.000000000000000000e+00,-0.000000000000000000e+00,-0.000000000000000000e+00,-0.000000000000000000e+00,-0.000000000000000000e+00,0.000000000000000000e+00,-0.000000000000000000e+00,6.392359261786530134e+00,-0.000000000000000000e+00,0.000000000000000000e+00,8.507920734961910370e+00,0.000000000000000000e+00,0.000000000000000000e+00,1.590425550151433853e+01,-0.000000000000000000e+00,6.427801066209909209e+00,7.944367763236254376e+00,0.000000000000000000e+00,8.946686889667221365e+00,-0.000000000000000000e+00,-0.000000000000000000e+00,-0.000000000000000000e+00,5.277658165896606413e+00,0.000000000000000000e+00,1.062129577952309312e+01,5.840866977533703874e+00,1.374668394263115445e+01,1.547130822219837576e+01,0.000000000000000000e+00,-0.000000000000000000e+00,-0.000000000000000000e+00,0.000000000000000000e+00,-0.000000000000000000e+00,7.297717388963952168e+00,-0.000000000000000000e+00,6.900761404061816151e+00,-0.000000000000000000e+00,-0.000000000000000000e+00,0.000000000000000000e+00,0.000000000000000000e+00,-0.000000000000000000e+00,-0.000000000000000000e+00,8.626064641742903660e+00,1.120695682790379877e+01,-0.000000000000000000e+00,-0.000000000000000000e+00,0.000000000000000000e+00,-0.000000000000000000e+00,7.223514513856965635e+00,-0.000000000000000000e+00,1.037276318318210322e+01,-0.000000000000000000e+00,-0.000000000000000000e+00,5.870093165003393842e+00,-0.000000000000000000e+00,5.339200531529577631e+00,-0.000000000000000000e+00,6.707028149117949312e+00,-0.000000000000000000e+00,9.767491292474474562e+00,7.319997975811220137e+00,-0.000000000000000000e+00,1.154604925830252249e+01,0.000000000000000000e+00,0.000000000000000000e+00,0.000000000000000000e+00,0.000000000000000000e+00,-0.000000000000000000e+00,7.508479875976855844e+00,5.986508021607908958e+00,6.647811641641170333e+00,1.132195481551860716e+01,7.969169328977306677e+00,5.532130079434366188e+00,-0.000000000000000000e+00,0.000000000000000000e+00,-0.000000000000000000e+00,-0.000000000000000000e+00,0.000000000000000000e+00,-0.000000000000000000e+00,0.000000000000000000e+00,-0.000000000000000000e+00,9.354857086821789736e+00,1.051461441801674468e+01,-0.000000000000000000e+00,0.000000000000000000e+00,-0.000000000000000000e+00,-0.000000000000000000e+00,5.691158800843057364e+00,0.000000000000000000e+00,5.120742095613389999e+00,0.000000000000000000e+00,0.000000000000000000e+00,-0.000000000000000000e+00,0.000000000000000000e+00,0.000000000000000000e+00,-0.000000000000000000e+00,0.000000000000000000e+00,-0.000000000000000000e+00,9.425119263930080038e+00,-0.000000000000000000e+00,0.000000000000000000e+00,0.000000000000000000e+00,0.000000000000000000e+00,5.969035779217191084e+00,7.303249701124016724e+00,8.172265217907373369e+00,9.271055048632675266e+00,0.000000000000000000e+00,0.000000000000000000e+00,6.092934523374497147e+00,1.033471823390411792e+01,-0.000000000000000000e+00,9.571730825336901560e+00,0.000000000000000000e+00,-0.000000000000000000e+00,0.000000000000000000e+00,-0.000000000000000000e+00,7.587562176420578730e+00,-0.000000000000000000e+00,-0.000000000000000000e+00,-0.000000000000000000e+00,7.063375589508503083e+00,-0.000000000000000000e+00,-0.000000000000000000e+00,-0.000000000000000000e+00,6.905921602678682270e+00,-0.000000000000000000e+00,0.000000000000000000e+00,1.720379724994629811e+01,-0.000000000000000000e+00,5.436840621202257751e+00,0.000000000000000000e+00,-0.000000000000000000e+00,0.000000000000000000e+00,0.000000000000000000e+00,-0.000000000000000000e+00,-0.000000000000000000e+00,7.662057854239928467e+00,7.265871334136419613e+00,-0.000000000000000000e+00,0.000000000000000000e+00,6.503872019309511643e+00,0.000000000000000000e+00,5.991768482485007929e+00,5.584253074595083355e+00,8.414135745188362492e+00,0.000000000000000000e+00,1.181861123638448063e+01,5.358408165924783084e+00,-0.000000000000000000e+00,9.551710659031428463e+00,2.101593139872682414e+01,5.741368586326784929e+00,0.000000000000000000e+00,-0.000000000000000000e+00,0.000000000000000000e+00,0.000000000000000000e+00,1.045634502972578872e+01,1.377858205614446696e+01,1.130622157905808578e+01,7.939464971364203372e+00,9.606258539211276926e+00,1.095733324303913925e+01,-0.000000000000000000e+00,-0.000000000000000000e+00,1.252454335698513610e+01,0.000000000000000000e+00,-0.000000000000000000e+00,0.000000000000000000e+00,0.000000000000000000e+00,5.731066979869029687e+00,7.114064601173089919e+00,-0.000000000000000000e+00,-0.000000000000000000e+00,-0.000000000000000000e+00,1.065490240429317303e+01,-0.000000000000000000e+00,6.224064769304867184e+00,-0.000000000000000000e+00,-0.000000000000000000e+00,-0.000000000000000000e+00,-0.000000000000000000e+00,-0.000000000000000000e+00,0.000000000000000000e+00,8.841093480911361269e+00,0.000000000000000000e+00,-0.000000000000000000e+00,0.000000000000000000e+00,-0.000000000000000000e+00,9.169252023227141279e+00,-0.000000000000000000e+00,5.449958102520600534e+00,-0.000000000000000000e+00,6.571222680188288479e+00,-0.000000000000000000e+00,-0.000000000000000000e+00,-0.000000000000000000e+00,0.000000000000000000e+00,-0.000000000000000000e+00,-0.000000000000000000e+00,-0.000000000000000000e+00,8.949439656507907515e+00,7.642136835197831601e+00,-0.000000000000000000e+00,7.789940336265468446e+00,-0.000000000000000000e+00,5.246102995430424798e+00,0.000000000000000000e+00,-0.000000000000000000e+00,1.137118002175505360e+01,0.000000000000000000e+00,0.000000000000000000e+00,0.000000000000000000e+00,-0.000000000000000000e+00,-0.000000000000000000e+00,9.626617888419902513e+00,5.715749062487733845e+00,5.440494351155376052e+00,5.315828755788412963e+00,-0.000000000000000000e+00,0.000000000000000000e+00,8.231439306234960895e+00,-0.000000000000000000e+00,8.131453810156076045e+00,0.000000000000000000e+00,-0.000000000000000000e+00,0.000000000000000000e+00,-0.000000000000000000e+00,1.403791492814754527e+01,6.305020656272417590e+00,5.197443815106439047e+00,-0.000000000000000000e+00,5.665336531806973497e+00,-0.000000000000000000e+00,-0.000000000000000000e+00,0.000000000000000000e+00,0.000000000000000000e+00,1.559570533935184677e+01,-0.000000000000000000e+00,1.046193022077646795e+01,-0.000000000000000000e+00,0.000000000000000000e+00,1.087698479170768806e+01,6.422720615241485298e+00,8.874471630566533875e+00,-0.000000000000000000e+00,-0.000000000000000000e+00,0.000000000000000000e+00,9.598848963565037806e+00,-0.000000000000000000e+00,1.969743452811687945e+01,-0.000000000000000000e+00,-0.000000000000000000e+00,1.435312087496878242e+01,1.127225082295501579e+01,-0.000000000000000000e+00,1.012635151046014492e+01,9.406065721741871499e+00,5.745104938064192091e+00,0.000000000000000000e+00,1.628549048016812151e+01,0.000000000000000000e+00,-0.000000000000000000e+00,6.707119721735736562e+00,0.000000000000000000e+00,9.036085349860050187e+00,-0.000000000000000000e+00,-0.000000000000000000e+00,6.909614932462269543e+00,1.038092108712601558e+01,0.000000000000000000e+00,-0.000000000000000000e+00,-0.000000000000000000e+00,1.436139874840616137e+01,1.928920926878152287e+01,0.000000000000000000e+00,1.227748649616576415e+01,1.013269465439758754e+01,-0.000000000000000000e+00,5.479074792880093803e+00,9.523796737826977221e+00,-0.000000000000000000e+00,8.788134172004260947e+00,-0.000000000000000000e+00,0.000000000000000000e+00,0.000000000000000000e+00,8.431242900227413628e+00,6.728849663361147648e+00,1.249373305012698587e+01,1.009232578007708803e+01,6.093650351427695178e+00,8.268310410172640346e+00,5.373834651390706263e+00,-0.000000000000000000e+00,1.466775313178221651e+01,-0.000000000000000000e+00,-0.000000000000000000e+00,1.071589516977228662e+01,0.000000000000000000e+00,0.000000000000000000e+00,-0.000000000000000000e+00,0.000000000000000000e+00,0.000000000000000000e+00,-0.000000000000000000e+00,-0.000000000000000000e+00,0.000000000000000000e+00,9.212435555787491737e+00,6.639969005812081271e+00,-0.000000000000000000e+00,7.502169323482191565e+00,0.000000000000000000e+00,1.032478322234971202e+01,1.498252816004002952e+01,6.635374559786455073e+00,-0.000000000000000000e+00,6.514828895837912803e+00,-0.000000000000000000e+00,5.505911792699575535e+00,-0.000000000000000000e+00,5.172833472544438926e+00,8.812932337788542014e+00,0.000000000000000000e+00,-0.000000000000000000e+00,-0.000000000000000000e+00,0.000000000000000000e+00,1.211534430140267737e+01,0.000000000000000000e+00,9.258176374721982071e+00,7.954752160452360776e+00,-0.000000000000000000e+00,0.000000000000000000e+00,1.310994335491559504e+01,9.310879244012980394e+00,-0.000000000000000000e+00,-0.000000000000000000e+00,-0.000000000000000000e+00,7.195675238515825356e+00,0.000000000000000000e+00,1.423021662669460596e+01,-0.000000000000000000e+00,0.000000000000000000e+00,0.000000000000000000e+00,-0.000000000000000000e+00,0.000000000000000000e+00,-0.000000000000000000e+00,9.815568333018818592e+00,0.000000000000000000e+00,1.130900235029557521e+01,-0.000000000000000000e+00,8.643590312831033629e+00,1.019716625076818950e+01,1.067832925879717187e+01,0.000000000000000000e+00,0.000000000000000000e+00,0.000000000000000000e+00,-0.000000000000000000e+00,7.964291974193819179e+00,0.000000000000000000e+00,8.007545827952263551e+00,1.319006931905802205e+01,1.053740979524173227e+01,0.000000000000000000e+00,0.000000000000000000e+00,9.055397722160765994e+00,1.059147178331697248e+01,1.526168534736374127e+01,7.548156367242971676e+00,1.010150374660046069e+01,-0.000000000000000000e+00,-0.000000000000000000e+00,0.000000000000000000e+00,-0.000000000000000000e+00,0.000000000000000000e+00,-0.000000000000000000e+00,-0.000000000000000000e+00,6.096617400215275318e+00,-0.000000000000000000e+00,0.000000000000000000e+00,-0.000000000000000000e+00,-0.000000000000000000e+00,6.318183960916697650e+00,1.309219410498576686e+01,6.524383383980111084e+00,0.000000000000000000e+00,5.490498575366573597e+00,1.474414506211263820e+01,1.058661573007533008e+01,6.703416867502615339e+00,5.771844800662678132e+00,8.363176524279104740e+00,9.602880865140893007e+00,-0.000000000000000000e+00,0.000000000000000000e+00,-0.000000000000000000e+00,1.097719473473136986e+01,7.612555954811065284e+00,8.144614787759818952e+00,-0.000000000000000000e+00,0.000000000000000000e+00,-0.000000000000000000e+00,0.000000000000000000e+00,8.221024644850201568e+00,6.602930456768249634e+00,0.000000000000000000e+00,-0.000000000000000000e+00,6.768786968125173331e+00,-0.000000000000000000e+00,-0.000000000000000000e+00,1.865854248430044038e+01,0.000000000000000000e+00,7.848303829407155874e+00,6.117600565181435357e+00,1.601166233897165370e+01,-0.000000000000000000e+00,-0.000000000000000000e+00,-0.000000000000000000e+00,-0.000000000000000000e+00,-0.000000000000000000e+00,6.080347363251431325e+00,1.101099090952820347e+01,1.313701840053971104e+01,8.438765491474764957e+00,0.000000000000000000e+00,-0.000000000000000000e+00,0.000000000000000000e+00,-0.000000000000000000e+00,8.380335734227717381e+00,5.684056056466531004e+00,-0.000000000000000000e+00,-0.000000000000000000e+00,0.000000000000000000e+00,0.000000000000000000e+00,-0.000000000000000000e+00,-0.000000000000000000e+00,0.000000000000000000e+00,8.281443392092535660e+00,-0.000000000000000000e+00,-0.000000000000000000e+00,-0.000000000000000000e+00,5.480750337167157760e+00,0.000000000000000000e+00,0.000000000000000000e+00,1.002750803748026520e+01,6.958861024666800787e+00,6.270387913868264107e+00,7.434881422961512776e+00,1.205131689874435530e+01,-0.000000000000000000e+00,0.000000000000000000e+00,0.000000000000000000e+00,-0.000000000000000000e+00,0.000000000000000000e+00,0.000000000000000000e+00,1.084248541676815591e+01,0.000000000000000000e+00,1.122221362722964777e+01,1.866332501951731970e+01,0.000000000000000000e+00,-0.000000000000000000e+00,-0.000000000000000000e+00,1.853591345685877556e+01,0.000000000000000000e+00,-0.000000000000000000e+00,-0.000000000000000000e+00,5.389540394128121470e+00,-0.000000000000000000e+00,-0.000000000000000000e+00,-0.000000000000000000e+00,0.000000000000000000e+00,-0.000000000000000000e+00,-0.000000000000000000e+00,0.000000000000000000e+00,-0.000000000000000000e+00,6.459211301408163131e+00,-0.000000000000000000e+00,-0.000000000000000000e+00,2.074009922321244304e+01,1.120517014679551693e+01,0.000000000000000000e+00,0.000000000000000000e+00,0.000000000000000000e+00,-0.000000000000000000e+00,0.000000000000000000e+00,1.279126513376684571e+01,1.527117661341286592e+01,5.987095850440169897e+00,-0.000000000000000000e+00,0.000000000000000000e+00,-0.000000000000000000e+00,-0.000000000000000000e+00,-0.000000000000000000e+00,1.146782711348376438e+01,1.920288501786852464e+01,-0.000000000000000000e+00,-0.000000000000000000e+00,-0.000000000000000000e+00,6.897538599764833300e+00,0.000000000000000000e+00,1.135773139576078883e+01,-0.000000000000000000e+00,-0.000000000000000000e+00,5.480059567901296447e+00,-0.000000000000000000e+00,0.000000000000000000e+00,1.031949296194939336e+01,-0.000000000000000000e+00,8.139416879048090081e+00,-0.000000000000000000e+00,1.061148449438361752e+01,1.328308967420560549e+01,-0.000000000000000000e+00,-0.000000000000000000e+00,-0.000000000000000000e+00,-0.000000000000000000e+00,-0.000000000000000000e+00,-0.000000000000000000e+00,0.000000000000000000e+00,-0.000000000000000000e+00,5.113144324369518934e+00,-0.000000000000000000e+00,0.000000000000000000e+00,8.133388535459454616e+00,0.000000000000000000e+00,0.000000000000000000e+00,1.554596930638746244e+01,-0.000000000000000000e+00,5.757227647225313660e+00,8.014982413937961070e+00,0.000000000000000000e+00,9.542831684898159139e+00,-0.000000000000000000e+00,-0.000000000000000000e+00,-0.000000000000000000e+00,0.000000000000000000e+00,0.000000000000000000e+00,1.190610814034400811e+01,7.050177039953393177e+00,1.367668777891070064e+01,1.390255377686914429e+01,0.000000000000000000e+00,-0.000000000000000000e+00,-0.000000000000000000e+00,0.000000000000000000e+00,-0.000000000000000000e+00,6.997977857076307373e+00,-0.000000000000000000e+00,7.498484501590381157e+00,0.000000000000000000e+00,-0.000000000000000000e+00,0.000000000000000000e+00,0.000000000000000000e+00,-0.000000000000000000e+00,-0.000000000000000000e+00,7.874997344113499942e+00,1.287207000667677903e+01,-0.000000000000000000e+00,-0.000000000000000000e+00,0.000000000000000000e+00,-0.000000000000000000e+00,7.920158494854598885e+00,-0.000000000000000000e+00,1.207230538501038097e+01,-0.000000000000000000e+00,-0.000000000000000000e+00,6.546257046921238221e+00,-0.000000000000000000e+00,5.175877200994722926e+00,-0.000000000000000000e+00,9.048649351050494616e+00,-0.000000000000000000e+00,1.003849885081158533e+01,1.015587367601602686e+01,-0.000000000000000000e+00,1.214058787489393509e+01,0.000000000000000000e+00,0.000000000000000000e+00,0.000000000000000000e+00,0.000000000000000000e+00,-0.000000000000000000e+00,6.114434311096873742e+00,5.840596374268821833e+00,8.371626716503236310e+00,1.343746991126476864e+01,7.145980521488898063e+00,0.000000000000000000e+00,-0.000000000000000000e+00,0.000000000000000000e+00,-0.000000000000000000e+00,-0.000000000000000000e+00,0.000000000000000000e+00,-0.000000000000000000e+00,0.000000000000000000e+00,-0.000000000000000000e+00,8.326025186795201094e+00,9.781500994960923734e+00,-0.000000000000000000e+00,0.000000000000000000e+00,-0.000000000000000000e+00,-0.000000000000000000e+00,6.167717688296336043e+00,5.253857256631609296e+00,0.000000000000000000e+00,0.000000000000000000e+00,0.000000000000000000e+00,-0.000000000000000000e+00,0.000000000000000000e+00,0.000000000000000000e+00,-0.000000000000000000e+00,0.000000000000000000e+00,-0.000000000000000000e+00,1.010605668120192568e+01,-0.000000000000000000e+00,0.000000000000000000e+00,0.000000000000000000e+00,0.000000000000000000e+00,5.143706479736864345e+00,8.505822675207497241e+00,1.047914804452853232e+01,9.553923554625081138e+00,0.000000000000000000e+00,0.000000000000000000e+00,0.000000000000000000e+00,1.134648422822972336e+01,-0.000000000000000000e+00,9.018756280758893240e+00,0.000000000000000000e+00,0.000000000000000000e+00,0.000000000000000000e+00,-0.000000000000000000e+00,7.471675867982390251e+00,-0.000000000000000000e+00,-0.000000000000000000e+00,-0.000000000000000000e+00,6.936365132971649139e+00,0.000000000000000000e+00,-0.000000000000000000e+00,-0.000000000000000000e+00,6.873327729655953178e+00,-0.000000000000000000e+00,0.000000000000000000e+00,1.671900773299319098e+01,0.000000000000000000e+00,6.387821596555028236e+00,5.048274531799316733e+00,-0.000000000000000000e+00,0.000000000000000000e+00,0.000000000000000000e+00,-0.000000000000000000e+00,-0.000000000000000000e+00,7.979525699064377697e+00,7.337370863948427413e+00,0.000000000000000000e+00,0.000000000000000000e+00,6.588048529530739827e+00,0.000000000000000000e+00,6.224585461650862683e+00,5.846606017553408918e+00,7.744032840980452193e+00,0.000000000000000000e+00,1.309415277893539553e+01,0.000000000000000000e+00,-0.000000000000000000e+00,1.002852544954618175e+01,2.193431304502173163e+01,6.666222661704270358e+00,0.000000000000000000e+00,-0.000000000000000000e+00,0.000000000000000000e+00,0.000000000000000000e+00,1.005673818517150764e+01,1.387654358071562122e+01,1.195508085202568438e+01,8.285652614454543041e+00,8.893830213555572684e+00,1.122750703165977981e+01,-0.000000000000000000e+00,-0.000000000000000000e+00,1.433288123794885216e+01,0.000000000000000000e+00,-0.000000000000000000e+00,0.000000000000000000e+00,0.000000000000000000e+00,5.574720886493301109e+00,6.253035727416194511e+00,-0.000000000000000000e+00,-0.000000000000000000e+00,-0.000000000000000000e+00,1.037146348016788089e+01,-0.000000000000000000e+00,6.120627153260998377e+00,-0.000000000000000000e+00,-0.000000000000000000e+00,-0.000000000000000000e+00,-0.000000000000000000e+00,-0.000000000000000000e+00,0.000000000000000000e+00,8.808003604276350984e+00,0.000000000000000000e+00,-0.000000000000000000e+00,0.000000000000000000e+00,0.000000000000000000e+00,7.773515517350404025e+00,-0.000000000000000000e+00,5.821590335667099048e+00,-0.000000000000000000e+00,6.419116717232236091e+00,-0.000000000000000000e+00,-0.000000000000000000e+00,-0.000000000000000000e+00,0.000000000000000000e+00,-0.000000000000000000e+00,-0.000000000000000000e+00,-0.000000000000000000e+00,8.554038745147995115e+00,8.320510371529561411e+00,-0.000000000000000000e+00,7.789500417624160455e+00,-0.000000000000000000e+00,5.988144230277371527e+00,0.000000000000000000e+00,-0.000000000000000000e+00,1.160757337595693883e+01,0.000000000000000000e+00,0.000000000000000000e+00,0.000000000000000000e+00,-0.000000000000000000e+00,-0.000000000000000000e+00,9.896109642236348591e+00,5.913340714367706141e+00,6.153145378294086143e+00,5.642624962337114525e+00,-0.000000000000000000e+00,6.125275475096482403e+00,8.263546560540863339e+00,-0.000000000000000000e+00,7.841004757913327516e+00,0.000000000000000000e+00,-0.000000000000000000e+00,0.000000000000000000e+00,-0.000000000000000000e+00,1.339711318021791620e+01,5.484334472080441003e+00,6.860825498556661906e+00,-0.000000000000000000e+00,6.739175067226997662e+00,-0.000000000000000000e+00,-0.000000000000000000e+00,0.000000000000000000e+00,0.000000000000000000e+00,1.559105545348533894e+01,-0.000000000000000000e+00,1.066397262430591830e+01,-0.000000000000000000e+00,0.000000000000000000e+00,1.102374883746712619e+01,5.479910090394170652e+00,9.135042741694192614e+00,-0.000000000000000000e+00,0.000000000000000000e+00,0.000000000000000000e+00,9.599687158912782792e+00,-0.000000000000000000e+00,1.958745418916080538e+01,-0.000000000000000000e+00,-0.000000000000000000e+00,1.521964212076638923e+01,1.101399730269266541e+01,-0.000000000000000000e+00,1.028924207169092853e+01,1.008181365177996369e+01,5.371556325578469071e+00,0.000000000000000000e+00,1.645586165158896819e+01,0.000000000000000000e+00,-0.000000000000000000e+00,7.457424535353404771e+00,0.000000000000000000e+00,1.004670102352507222e+01,-0.000000000000000000e+00,-0.000000000000000000e+00,6.239463128025685812e+00,1.005462104020887892e+01,0.000000000000000000e+00,-0.000000000000000000e+00,-0.000000000000000000e+00,1.393936375240967962e+01,1.988097751851880446e+01,0.000000000000000000e+00,1.322311161262721058e+01,1.049812941725859616e+01,-0.000000000000000000e+00,5.326864783977249829e+00,9.362907785135396566e+00,-0.000000000000000000e+00,1.175042866961154253e+01,-0.000000000000000000e+00,0.000000000000000000e+00,0.000000000000000000e+00,9.283593425663255516e+00,6.152309967991167028e+00,1.290522944667167771e+01,1.014839058990520115e+01,5.575783300426480515e+00,8.634924036652188661e+00,0.000000000000000000e+00,0.000000000000000000e+00,1.482271564519964535e+01,-0.000000000000000000e+00,-0.000000000000000000e+00,1.082808709034262762e+01,0.000000000000000000e+00,0.000000000000000000e+00,-0.000000000000000000e+00,0.000000000000000000e+00,0.000000000000000000e+00,-0.000000000000000000e+00,-0.000000000000000000e+00,0.000000000000000000e+00,9.705681417693250879e+00,6.888771833630817909e+00,-0.000000000000000000e+00,8.234055193474185685e+00,0.000000000000000000e+00,1.169334935354912375e+01,1.549730503666665271e+01,7.368490049130971720e+00,-0.000000000000000000e+00,8.148337073292099220e+00,-0.000000000000000000e+00,6.354581370363917792e+00,-0.000000000000000000e+00,5.202041276426108141e+00,8.495002189198713083e+00,0.000000000000000000e+00,-0.000000000000000000e+00,-0.000000000000000000e+00,0.000000000000000000e+00,1.141212891647215066e+01,0.000000000000000000e+00,9.936993488005642305e+00,8.799503679704129055e+00,-0.000000000000000000e+00,0.000000000000000000e+00,1.352829260925677879e+01,9.672280932466282621e+00,0.000000000000000000e+00,0.000000000000000000e+00,-0.000000000000000000e+00,8.017024698549160888e+00,0.000000000000000000e+00,1.641010032528199147e+01,-0.000000000000000000e+00,0.000000000000000000e+00,0.000000000000000000e+00,-0.000000000000000000e+00,0.000000000000000000e+00,-0.000000000000000000e+00,1.023372550662659286e+01,5.674746859947777722e+00,1.240340632436586255e+01,-0.000000000000000000e+00,9.094535854375552120e+00,9.253931050414818671e+00,9.512945474742432239e+00,0.000000000000000000e+00,0.000000000000000000e+00,0.000000000000000000e+00,0.000000000000000000e+00,8.451618063419642723e+00,0.000000000000000000e+00,6.680487673837963492e+00,1.306482318508226115e+01,1.031858529092430210e+01,0.000000000000000000e+00,0.000000000000000000e+00,1.012699527652274689e+01,1.044118386117542840e+01,1.482643819792709827e+01,7.902618613379868151e+00,1.034930478409378374e+01,-0.000000000000000000e+00,-0.000000000000000000e+00,0.000000000000000000e+00,-0.000000000000000000e+00,0.000000000000000000e+00,-0.000000000000000000e+00,-0.000000000000000000e+00,6.395931354118535417e+00,-0.000000000000000000e+00,0.000000000000000000e+00,