-4.880236858253341303e+00,-1.396393046100947721e+00,1.893248994165264376e+00,5.520044517752745961e+00,2.865932470275180943e+00,1.930017339320395209e+00,-6.061807237670431281e-01,3.436498771936878249e+00,-1.140602696648169934e+00,4.028569752477349497e-01,6.773347320321504661e+00,1.988844503189458823e+00,-4.023893711408867979e+00,-1.690729228941480500e+01,9.281408201175894490e+00,6.715145370369011990e-02,-1.430823267761078599e+00,-5.474133752556372023e+00,2.814114990784362558e+00,-8.667802745243180951e+00,5.986150949539000621e+00,9.268826260630236291e+00,2.649842153494320840e+00,3.592465760101637873e+00,2.858297386191303247e+00,6.427694217828918255e+00,-1.910954106762649118e+01,-2.795228595947484518e+00,7.208495991766933564e+00,3.853622686361322547e+00,2.360633862302183417e+00,-1.591052790887071300e+00,-4.481712054920684807e+00,4.254598478926213900e+00,8.050860080204220282e+00,2.774321564208799273e-01,-1.213108768329158593e+00,7.868573388787948986e+00,9.238276674837841984e-01,-7.458618043505315320e+00,1.062710045146567239e+01,6.886431337415755749e+00,4.747607297569249596e+00,9.238206629328320929e+00,8.560616520685188080e-01,8.932287792181080377e+00,-5.318873870164525508e-01,-1.115638763426177293e+00,-3.368069141637217712e+00,-3.205227299064033808e+00,-1.459812025386539647e+00,-2.257964169581873737e+00,1.493266747876619283e+00,-1.738403372843807304e+01,-1.234452827969164002e+00,3.942559202857417677e+00,-1.203408986116471446e+01,-5.254098569237813932e-01,7.786170612984353312e-01,4.086199356964479001e+00,5.620381066274870996e+00,1.027714357306505899e-01,-1.150995354751151556e+00,3.852867099544936003e-01,-3.157061392816682854e+00,5.351477015003795579e+00,6.310867425224910399e+00,8.814461163399240462e+00,-1.429616803212535148e+00,2.542382409446399372e+00,-2.594154490853328165e-01,1.194708636434138072e+01,-8.810297954738577353e-01,7.632935994193955409e+00,1.255610628014076635e+00,-2.256542513651937920e+00,-2.576376023621080105e-02,5.188928522543605482e-01,1.035973381272926019e+01,-2.031041843070058306e+00,-1.734375273245746918e+00,-2.280304279761884712e-01,3.668779169553235686e+00,-5.385170803506497350e+00,-3.882598965302431537e+00,-5.062513995017085655e+00,9.113145236248710646e+00,1.557751154145931238e+01,-5.587346532418284717e-01,-1.461779310750860539e+00,-4.736763057025584978e+00,7.770282066017526468e+00,5.922038465421849196e+00,2.924261413148732114e+00,5.865893273734295477e+00,1.173694449699314113e+01,2.009664509313818126e+00,3.263597193944482555e+00,3.484405046404157158e+00,-1.072909165372765372e+00,-7.370259604237422435e-01,-2.883559059278244074e+00,-7.942684611770715719e+00,-4.876332099273650855e-01,4.757094655000699390e+00,9.961593306218878396e+00,7.978132653937282548e+00,-4.939280271165460867e+00,-9.405603268596674837e+00,3.692090903510032440e+00,3.778143943379350667e+00,-5.311522817925867557e+00,8.642398367078633070e-01,8.100770594483019948e+00,4.000743042095933788e+00,6.999388238701326870e+00,-9.696300951551214409e-01,1.000499464543532646e+01,1.449103211194616714e+00,6.662975484451177932e-01,-2.389319718143451343e+00,1.100120992401542180e-01,-2.829283651752850126e+00,-2.598617863651811799e+00,7.142810936300026725e+00,1.055169813400437917e+01,-1.487178931600653842e+00,5.381729191835062487e+00,-5.138541499177406990e+00,-3.469175258941117335e+00,-7.517402710245272957e+00,6.290213622187140530e+00,4.149640133164504086e+00,1.531221876212827571e+00,-6.831335517621247355e+00,7.888183137456232785e-01,-7.058226825426027196e-01,7.280941975816654477e+00,-6.777588295215590364e+00,4.719954369300019437e+00,-2.360655474302529935e-02,-1.530170463705396722e-01,-2.058653037549131426e+01,-5.034596528198961529e+00,-2.615579483071813538e+00,2.004131618009024507e+00,9.881037870072788110e+00,0.000000000000000000e+00,-4.048065227623985352e-01,-1.845446820634450424e-01,8.142802231064623086e+00,-2.092589732618117981e+00,5.177683315007550746e+00,6.810243126785442414e-01,9.608408189475555750e-01,7.054784972323902892e+00,4.030900327899190394e+00,-3.328102664378053688e-01,6.632979007719813858e+00,-1.447012954910095672e+01,-1.688094215442557999e+00,2.545919099769377247e+00,7.009509804042131087e+00,1.012121715221755203e+00,4.543503494442117652e-01,1.039119192437702566e+00,6.702758031927942284e+00,-2.389807370920052243e+00,3.122788076631011656e+00,1.983745016731004174e-01,2.054472443775684276e+00,-3.422978956642959592e+00,1.908902906757016460e+00,1.150662411017668951e+01,3.121725381996276472e+00,-3.064316562633613739e+00,4.725992717009022570e+00,3.144668154716518949e+00,5.219890690313254922e+00,4.789729453167168138e+00,4.442406947571787335e+00,-1.001684510735708633e+00,-4.030302181635783576e+00,1.505348026061543054e+00,4.898432685299349387e+00,3.856367814752708068e+00,-2.650225824591585955e+00,-1.682469543671659462e+00,-5.311902672135374592e-01,-2.282690178048736307e+00,-1.199846802047470407e+00,1.013365333466675722e+01,-4.483533598047140245e+00,3.885831901884448047e+00,6.420444179733849843e+00,2.650566346854622779e+00,6.347475123539152442e+00,4.909006196599238203e-01,-8.388867850724720521e-01,4.560041578857479294e+00,6.754179118998237641e+00,5.700281456836113314e+00,-2.135033642449891911e+00,-1.204575587046694629e+01,-4.486385737701265586e-01,-1.847223924758766511e+00,-4.381515475519982772e+00,-1.544721934121148088e+01,2.321938283208801579e+00,-9.674532821707000352e-01,-9.536759384239562598e-01,6.196140310393403183e+00,2.908946152909915650e+00,3.794428326714000654e+00,-2.796486591742110672e+00,-5.152271411043126470e+00,8.561610474719996589e+00,4.518210315394692422e+00,1.363494208797750185e+00,1.059349365370320317e+00,9.713801165532598425e-02,2.620500454131976298e+00,9.541789996604594037e+00,-3.886985661723594276e+00,-4.864352593445498307e+00,-1.128022158530189856e+01,8.137834156626089666e+00,2.651871202296655294e+00,-1.654646722142001369e+00,-3.987993905314814125e+00,-2.332187287618108673e+00,6.686411811377027448e+00,-3.108203125788976173e+00,1.436924562065168054e+00,1.044068064146227215e+01,5.343076337215102001e+00,-3.120596936434871099e-02,8.866507046035733142e-01,4.493660288301357220e+00,7.664832710403756799e+00,-1.206104730853408746e+01,8.679973632539027761e+00,-6.823688874649929126e+00,1.909809541994929305e-01,2.692061332512607041e+00,1.036694695167824065e+01,2.526705647554354228e-01,2.313901973668516909e+00,-4.104214455848049226e-01,2.642800665100476731e+00,-7.035876817106768710e-01,5.317154987782510389e+00,3.285523238610892349e-01,2.127720512614228454e+00,-5.871942485085946295e+00,5.528350010270515646e+00,-7.026869214599042124e+00,6.665145801147451809e-01,-1.586270087702596365e+00,-3.986015837194590183e+00,6.454344673478225047e+00,6.324859693750998213e-01,1.359793814492157749e+00,2.426420941388678643e-01,-3.141743944389498111e+00,-1.766718064360768725e+00,3.788889868950691131e+00,-3.297144978805463200e+00,4.388697799760632456e+00,2.374900779336915235e+00,-3.243280983241811910e+00,3.389755167169784533e-01,3.767279118430076235e+00,1.831989982754620527e+01,3.226271563977416434e+00,3.342516260668105588e+00,-3.959097391747028016e+00,6.010621924209713640e+00,4.683801929372581441e+00,-1.245820078681617149e+00,-1.179333885291562023e+00,-2.853028768174109331e+00,-4.680090003951789868e+00,3.258090919871917457e+00,-8.214095326729866642e+00,-5.088361265897543007e+00,4.857617367280180787e+00,8.069870202751945609e-02,2.710437783944747103e+00,1.826626050513250998e+00,-2.904524426568377837e-01,5.198641737458841838e+00,1.094852406840521475e+01,-5.308110993063627880e+00,-2.693013919211383111e+00,-1.870436298070444758e-01,3.843259943602546080e+00,-6.806031604134901158e+00,5.771778015261173067e+00,6.609208047599064884e+00,-1.927630231160017971e+00,-3.285570586681563210e+00,5.724747125180227325e-01,7.979451221170791309e-01,4.754462860997664464e+00,1.478756559478785881e+01,2.595476175949168240e+00,6.301589821711493400e+00,-6.252427940648233040e-01,7.849314550356665254e-01,5.765596474403675842e+00,-4.755416459001971852e+00,1.655602251708435668e+00,-3.233149377459306084e+00,6.021835966091257930e+00,-1.813588683237497445e+00,6.978321996059281496e+00,-2.221322648193174931e+00,7.016614229162471128e-01,-6.661581667321295086e+00,-2.204773691306622485e+00,-3.251218062592450053e+00,8.741684091757644381e-01,-2.940158048149354286e+01,1.049894116511749687e+01,-2.409693391809038854e+00,-2.161157920700017332e+00,3.609923317513484609e+00,3.076715086172126412e+00,-1.935788846434429944e+00,3.583343325535298440e+00,3.038027179115117549e-01,-4.985918826595202302e-02,8.477963849658534556e+00,3.191804028705238938e+00,5.024084156150919078e+00,-3.059148638089288941e+00,-1.936355240696012947e+00,8.725990063661853702e-01,-1.904377243997958491e+00,3.058238589757699799e+00,7.078650742273659091e+00,8.996465395628185036e+00,9.135464101366340017e+00,-1.279558473209370772e+00,2.126930721450650541e+00,4.953944769491249289e+00,-1.005361756686610430e+00,-1.105792457324405342e+00,1.010498855991690537e+00,1.064118856049140227e+01,2.445551117506646221e+00,3.646592454591346955e-01,-7.620691991696753043e-01,-3.733444508756019187e-01,-1.782535090004385481e+01,-2.223080728183948640e+00,-4.498597965632323836e-01,7.612838849220525672e-01,-4.507846886821949894e+00,5.621684128090588262e-01,-8.490239763045675403e+00,4.986230441200397046e+00,6.929672219863741489e+00,-3.663199508811727512e-01,-2.477974732550495496e+00,-3.984273093341731631e+00,1.126178504262902180e+01,-1.382584789572300243e+00,1.808995740721496825e-01,-1.029678135543998785e+00,1.379348698811482254e+00,-2.167532827008979091e+00,-3.519950988629428484e-02,6.447197701223970068e-01,-2.197060188179074391e-01,-4.407122021325768024e+00,6.616522148243153545e+00,5.438800512731448045e+00,1.169660409689075031e+00,8.969345054522921856e+00,-4.821342183698520856e+00,6.470129524852202607e+00,7.594241787363964491e+00,2.413185762502370491e+00,5.448242326253807555e+00,4.101526038865491941e+00,-2.373873230289438307e+00,3.745476012601166360e+00,4.210448404047374638e+00,-1.354907564636838480e+00,2.206823264074809554e+00,-1.321900764602885470e-01,-3.502035682358271007e-01,-2.249474591441201099e+00,-1.048981841709841545e+00,3.306941346394314696e+00,1.694386003263754770e+00,8.541367295881056032e-01,5.221405965041393316e+00,-5.004098799193962499e+00,-1.393178894726868622e+00,3.791234389838265884e+00,3.248063957785600309e+00,8.616620107565324815e-01,-3.798244404243140249e+00,-2.789304457962555883e+00,-3.005191158165189336e+00,7.588843432487449858e-01,6.308936796667152791e-01,1.731206281204356046e+00,4.297611131062563317e+00,6.114347025267592883e+00,1.482236598556365470e+00,-3.145879049912509995e+00,-2.479624806899131784e+00,-1.380059700995741157e+00,6.343659511244203131e+00,-3.740180262445742088e+00,2.507619277587702644e+00,9.515010363131922722e-01,2.710872779486095396e+00,1.865070328815654932e+00,-4.247842773809356487e+00,-7.377534669399558875e-02,-1.868428083518018645e-02,3.081263897105749106e+00,6.261151034253322756e+00,4.054822782041895834e+00,1.754268637151794819e+00,2.979205990672358917e-01,-3.458909082300259730e+00,6.389278164217098599e+00,2.651404140045370283e+00,-3.449589020059474542e+00,5.363024970823410342e+00,1.693699330143499493e+00,3.626363446875541907e+00,2.028477074136470382e+00,-2.211069346462311458e+00,-2.949557052994150830e+00,-2.400478523590023450e+00,8.749575080080713718e+00,4.155532011039538176e+00,-1.209148761164222236e-01,-4.003404659358941409e+00,-7.126443815922175462e-01,-1.526390364964722801e+00,-2.163741291825968638e+00,-2.855650882334070051e+00,-9.578571115986277418e-01,5.971915863383758349e+00,1.711430487800235767e+00,3.256555741666352422e+00,1.217461419878137274e+00,8.042433485192904685e-01,3.015232888185040760e+00,4.886744474656717685e+00,1.073773289858931257e+01,-6.194782445902352386e+00,-4.896609349196731742e+00,-3.109727446038020204e+00,-6.024851155736269392e-01,1.177098611272794360e+00,-4.477311048213075684e-01,3.662783135893507014e-01,-6.529118046585166146e-01,-6.432901656657855627e-01,-5.433242356229781578e+00,-2.475206602211470486e+00,-3.374532480098474396e-02,-7.530633842020172386e-01,1.739808177897882002e+00,-1.428795137755760614e+00,3.235122285465015790e-01,2.053180191598114490e+00,-3.631209768505946123e+00,7.899263439854602886e+00,-1.717541581748138979e+00,-4.974396500686629752e-01,4.203056781981977075e+00,-1.156744702089095078e+01,6.586786541412160967e-02,-4.205031374260410626e-01,3.535116599717673225e+00,2.198556801096618329e+00,2.320208880154663866e+00,4.589846956538273126e+00,9.073718933788543772e-01,2.815637322769653395e+00,6.325757754000126631e+00,-3.834717449074433127e+00,-1.602073714716913733e+00,4.524356840378605860e+00,6.909370665462261307e+00,5.005549448955534331e+00,-9.509881836999324989e+00,-5.745304433964984803e+00,-2.646344913226832407e+00,0.000000000000000000e+00,-1.243103171564228582e+01,-2.923156194689529030e+00,2.928054995645715808e-01,4.330435102341086306e+00,-3.176864924125271106e+00,2.542698060477410205e-01,8.127650467975398030e+00,-4.274543261498047753e-01,-2.716392237314704694e+00,-2.242674192710105707e+00,3.090361903597534932e-01,-1.250270393617128328e-01,-2.590747740864323578e+00,5.695138460992224871e+00,1.667675269633591251e+00,9.441177670354541362e+00,-2.945147360468871156e+00,2.822082505487164550e+00,-1.545291011112995605e+00,8.572721980224130789e+00,-5.032486894449728076e+00,3.909398017381169321e+00,-3.592515103148413935e+00,-1.796792305616672358e+00,-2.864062135653347774e+00,2.589005926483810338e+00,-7.473259609139341064e-01,-2.115709216978572282e+00,1.470995732367532005e+00,5.961320126337638747e+00,-4.382821121342908910e+00,-6.563842183879829761e+00,-2.912050451341807289e+00,2.064726320811944849e+00,1.365449606534640870e+00,-9.688986771068330839e+00,6.084344331159116104e-01,1.022085838685663006e+01,9.848641284479878744e-01,6.661371223828115085e+00,5.508043558215987012e+00,1.209003652747305813e+00,-1.637074406380236047e+00,-5.921126009326544093e+00,-2.110417690861625672e+00,-1.960541521168709167e+00,-7.423284135874234302e+00,2.668599891192463325e+00,-6.472779277124804387e-02,-6.045896337488780858e-01,-1.444941235778602007e+00,3.641271920126393447e+00,-3.088302325658163650e+00,-3.406654163105301336e+00,-3.201054579115172327e+00,-4.035791775778815982e+00,-5.965792072911073607e-01,1.119180606349326146e+00,-3.599781643910041851e+00,4.825140039897878319e-01,-3.725941324903974672e-01,2.006280959819306098e+00,1.199437786178220389e+00,3.763472870556854755e+00,2.814076118696406947e-01,1.958752912783113143e+00,1.395119947705384966e+01,-7.383644933838952262e+00,1.866534691258923351e+00,-1.257417893098799588e+00,-4.630040568191106765e+00,-2.300220529899008159e+00,6.792639019500485986e+00,-5.969817779733982199e+00,3.477143340241962921e+00,8.057215000147225581e+00,3.680731038850467485e+00,-4.335188667799733331e+00,1.920976806535325210e+00,6.709922475364606953e+00,1.611207439105494688e+00,-1.571021945028343358e+00,3.530214630781221441e+00,5.144929045646975396e+00,2.192232222489661542e+00,2.966682813608529923e-01,2.062680634288452275e+00,-3.426949765283306526e+00,-4.092958990178927614e+00,7.737769269033503150e+00,1.698086581548985174e+00,-2.295448953478351317e+00,-6.995588009109990346e-02,5.256436932916482618e+00,7.327898162903007773e+00,3.507028592284819890e+00,8.408768065880967146e-01,-2.380608829754131683e+00,-2.268521512329337408e+00,3.825583813822523993e-01,-3.819388790801629519e+00,2.923241180430220520e+00,3.010689279974080979e+00,-3.097903559846895583e+00,2.396791867383653685e+00,6.186682216054275152e+00,9.468415423407909870e+00,4.451300017677570331e+00,3.368956150630581181e+00,-1.516176892374244645e+01,-3.131643845906624257e-01,2.757996911399585027e-01,-1.540568047141212427e+00,5.404094139468829994e+00,-7.877909671544316428e-01,-7.605650094169166486e+00,-3.994257561966109371e+00,1.092083002010283854e+00,2.758354231234128040e+00,2.751885327481420895e-01,-3.284977145239452501e+00,-1.381943937019934454e+00,-4.374695571364132229e-01,-1.934467248147815344e+00,7.316258790234424936e+00,4.325620385220586561e-01,-4.624507242701608511e+00,-1.510962879097830447e+00,-2.353061328616701697e+00,2.869217021344727225e+00,-8.563321281547413122e+00,-4.978870215753316564e-01,-7.640190747579758579e+00,1.982163693337637644e+00,3.380631104788951458e+00,4.354928317473519606e+00,2.248875461257358488e+00,1.052393124400587299e+00,2.071464162471266246e-01,-5.889442428859046341e-01,-1.710105942198444362e+00,2.030217757456320271e+00,6.117617881870037744e-01,-1.366425677566640573e+00,-2.654724923128605418e+00,1.973186337837044280e-01,2.576980803702665135e+00,-3.476293224182857688e+00,-2.625651527968960952e+00,2.499038426052280215e+00,3.397537845902205422e-01,-8.230204500152049629e-01,-3.924516263959277218e+00,4.946171023123560495e+00,1.492056207313013472e+00,-1.164056361686505170e+00,-4.483932320387672199e+00,3.055076234022548576e+00,-3.998879690245270013e-01,-3.806787572242452677e-01,3.418807429664126873e-01,-4.174104536518744801e+00,8.585611969076293093e+00,1.693868835729849032e+00,-1.695019824293235056e+00,1.428729996142859893e+00,1.295917888650789107e-01,3.044214581744794645e-01,4.462795705319147821e+00,-8.917841744569482421e-01,3.770817082657725638e+00,-1.888922245168424885e+00,-4.810885725683459846e+00,4.112862893164322742e+00,-1.206220903169397562e+00,-2.522137061698710880e+00,1.044581696723747788e+00,1.089897650855975175e-01,2.953375012091621343e+00,8.346530378915717918e+00,-1.309740283447198506e+00,-6.240307287754136197e-16,-6.817507044642809433e+00,-1.251501222748156172e-01,1.483291970300296692e+00,4.593982510479066583e+00,-1.067316177393381249e+00,-1.343405564018874898e+00,7.540884631756794576e-01,4.356615373081235809e+00,1.076254216155712040e+00,-3.167063330851155545e+00,-1.149688552998808566e+00,1.167675372267493294e+00,2.485563494098662340e-01,-1.698249988097122687e+00,5.755693811386002778e+00,-6.723378876010433380e+00,-2.449128083903984732e-01,-4.260520601351149850e+00,-5.420324485188158237e-01,5.123186665935407724e+00,8.342808017452542302e+00,3.430719468168051955e-01,7.388552572857532752e+00,-1.104984995938381509e+01,-1.106080379488780130e+00,-2.240220681629435884e+00,-1.430790712284168098e+00,1.671144202829022163e+01,-4.390243398765377059e+00,3.259267318968859239e+00,-3.027766694114105928e+00,2.288311759041771476e-01,1.728640652987653237e+00,5.761278251999981670e+00,-1.572588740884416358e+00,8.482284092256769270e+00,3.030356156681905944e+00,-1.003058323702401999e+00,-4.165102006385791533e+00,1.978371643861562834e+00,-1.609362327764564338e+00,1.253330926587676863e+00,-7.557925681889838820e+00,-2.280828309630588357e+00,-3.822952988482453685e-01,2.399778877836051372e+00,1.718822146911083149e+00,-3.880061409627936220e-01,-2.463569268813781132e+00,-4.497141269229507188e+00,-2.349213089999144355e+00,1.677795028085939055e+00,-6.704910530901057042e-01,3.432761661091256578e+00,4.790401879547743214e+00,-1.612224618315443170e+00,6.264270091587677669e+00,2.696048424909081920e+00,-2.036747279510025876e+00,8.764008039703273800e-01,-3.263600857652471654e-01,-7.248467293764356001e-02,2.245817639543455257e+00,0.000000000000000000e+00,6.435839220177164144e-01,9.738103278404197649e-01,2.089132489051477304e+00,-8.364466732557878093e-01,9.926086180853809893e+00,5.419601334142178040e+00,1.733935644243312479e+00,-1.576293900122436531e+00,2.501464864186625281e+00,-2.503646273654813292e+00,-1.077344532925878395e+00,7.562661932973030465e-01,2.594713507430246313e-01,-3.370585929436307193e+00,-4.402824604115095575e+00,-7.834824008538679996e-01,1.441481494933400498e+00,-1.084065781139458506e+00,-3.761322280387559669e+00,2.506810428847800143e+00,-4.147351443883840361e+00,-3.113296755897444257e+00,1.641539467282985942e+00,2.824764765325050053e+00,-1.906946098401180789e+00,3.216228309819655906e-01,1.647809398351524512e+00,-1.747198137441027921e+00,-6.455761802326440701e+00,-4.543773353575216944e+00,4.382238056496242429e+00,-2.458675560295264351e+00,6.762260306871731963e+00,-2.036458455997270101e-01,-2.121812418448271398e+00,-1.839774610814641775e+00,-1.382818569363074568e+00,-4.731454813258745062e+00,2.873138265548483838e-01,-6.784527080004229549e-02,-1.900197011411370873e+00,-2.369422405217822547e-01,4.333010890530244907e+00,-3.813293430973991427e+00,-1.243237088927966250e+00,-7.454395741365051897e+00,-3.015273492871506811e+00,-3.033551313133295402e+00,-3.325585050133057052e+00,1.594700612876730483e+00,-2.040647608342154307e+00,-2.788342681862355565e+00,6.798657855045060483e-01,-2.372611639679562234e+00,2.098939020959000867e+00,-4.481346067010129275e+00,-3.381860258124907759e+00,7.982704223017021761e+00,-4.576205381774554048e+00,1.078715729103264964e+00,-5.707325902057862610e-01,-2.946598324933182411e+00,-7.190215318476981254e-01,-1.081574751318564331e+01,4.315950332398322153e+00,7.436361172415518750e-01,2.522703206037184120e+00,2.723416599487137990e+00,6.550213567176185414e+00,-2.354310964978732379e+00,-3.987181149699329019e+00,7.110117087216687892e+00,-1.437597072087587691e+00,-4.828161524127209780e+00,1.305553311712093212e-02,4.025159951487399468e+00,-4.668712690030250911e+00,-1.682111087268095995e+00,-3.292819400392318130e+00,1.152339337149052456e+00,8.916137599757565368e-01,-3.950663970057997521e+00,7.439905761921378868e+00,4.906423101814019638e+00,-9.879506031943089406e-01,-9.065848875758755199e+00,-7.536295957269302015e+00,2.547586720860777643e+00,-7.550973226285976558e+00,5.279757299290227301e+00,-1.461079718055994237e+00,8.176522279145617134e+00,-1.003619498399604737e+00,-4.907098015320823237e+00,-2.329833833201346849e+00,1.013836308328874836e+00,2.930148829836620283e+00,-1.581416881406148889e+00,-1.033405192666653960e+01,4.713515446410638354e+00,-7.260693398228600159e+00,-6.542003435095604669e-01,-3.079629753407694959e-01,1.675328824387830318e-01,-1.873393602283979220e+00,1.481738994550320676e+01,6.863359783784064305e+00,1.391781161085269281e+00,2.507748841221248082e+00,1.746949893071291893e+00,1.542967615025090167e+00,-1.049289807298343424e+00,-2.743347393375832777e+00,-2.660021539451296935e+00,2.941460776560780754e+00,3.637731867540747732e-01,-2.141822517684550953e-01,-5.484107983264684627e+00,-2.886817223162002399e+00,-9.172166923857785648e+00,2.039707630924360693e+00,2.082039895191650558e+00,3.673401451013897034e+00,-1.626164692442199966e+00,5.415778204268506535e+00,-8.240045234418408304e-01,1.166142181608436079e+00,4.759803965858994124e-01,-3.389243971604267269e+00,1.304787009902087513e+00,-1.827122075450860139e+00,1.220411371912213028e+01,5.183846150635309513e+00,1.804856138120438214e+00,-2.249591919140178309e+00,1.402700172314055038e+01,-1.049681403854130668e+00,5.992026233888715581e+00,-3.747682790302060862e+00,7.426064448483991498e+00,1.315621297050219123e-02,7.010588980340802578e+00,9.259003743608920090e+00,-3.527202303909471759e+00,-2.109956394168334359e+00,2.073490766800371699e+00,1.386570034244593685e+01,3.432884087577871557e-01,5.980817213697722678e+00,-3.135427232383868112e+00,6.546815306189661676e+00,6.251504275729694582e-01,-6.342576885700763611e+00,2.981656277611060446e+00,2.233618959797942782e+00,-7.697222954271704110e-01,-8.429192271040758522e-01,-1.375953009609560018e+00,-4.785092057015651323e-01,3.387961613019499829e+00,2.184026067794015979e+00,3.116752622824793040e+00,-6.744494057908382301e-01,7.522321103994082492e+00,3.502777337076921960e+00,2.597129428499849624e+00,6.371462153323738775e+00,-5.059121438719420105e+00,5.871010148448015942e-01,2.806504013281621024e+00,-4.031208274814543913e+00,3.313912769060804120e+00,3.712380241255016644e-01,1.518274167907120997e+00,5.841563488911092783e+00,7.840504626863914694e+00,5.830375330807566758e-01,-5.334918463921868081e+00,-7.562476573513504441e+00,6.650610461479189439e+00,-5.470171820403699758e-01,2.220167990193541829e+00,6.777147413404042975e-02,-1.215487434632869457e+00,-3.602373832672850495e-01,6.862853063246871166e+00,-1.254140119016356358e+00,-3.517020414431761832e+00,4.748750355168361859e-01,-1.211917926099347786e+00,2.741941001700176073e-01,5.198228537943655247e+00,6.328411134833809015e+00,1.720249275607977024e+00,-9.515608920856227781e-01,6.729561124901616509e+00,7.829062839645242744e-02,3.052215574475512838e+00,-1.880940674682222147e+00,2.211767049498362780e+00,2.597850032440352841e+00,-2.370835754296484466e-01,4.713580120602012258e+00,2.932257962833040299e+00,4.941336560271631484e+00,-7.257965438873998032e+00,4.191613005861501762e+00,-9.344340363054137732e-01,-1.277623004542012275e-01,1.273210350796112555e+00,2.946677613463114659e-02,-2.095548013590539105e-01,1.005446939482840918e+00,-1.546144145777103596e+01,-3.087801248952997568e+00,-3.528414081357488463e+00,7.084964094247549582e+00,-2.041160020612883486e+00,-2.362225681046797199e+00,6.209348897736744810e+00,3.242381347644969214e+00,-2.688543512648819966e+00,-4.096586501605127495e+00,6.563799966811692421e+00,-3.172486986565433931e+00,-4.436507313970465549e-02,3.499206290979632872e+00,-9.328051360389271185e-01,2.436410509231742072e+00,-1.798400777237167736e+00,3.021883752772873688e+00,-2.934013800847034226e+00,-2.714007661520930204e-01,6.772096979275549211e-01,4.200508605610096424e+00,-5.755626051652574793e-01,-8.830117008380129917e+00,-7.017659762114202282e-01,-1.280598681076394740e+00,-3.563645796878525562e+00,-7.167242168898567689e-01,3.284112787831415137e+00,-3.220462370981798661e-01,3.987407980472082780e+00,3.117205108920865775e-01,1.410972642740998095e+00,-1.831768410014880943e-01,6.681614021699846973e+00,-3.378354462660768220e+00,3.430362020368627363e+00,-2.555592428369951596e-01,-2.562973450152082666e+00,-1.126634308396326167e+00,3.622277657760953673e+00,2.232822055768216796e+00,1.869076359706820512e-01,-6.413649347229797293e-01,5.186319888063801287e+00,-3.789974230551325651e-01,-1.659352590483253342e+00,1.118478817802791347e+00,-6.267408177858122542e+00,3.186276093945457077e+00,-7.628139863540911447e-01,2.020410290200463699e+00,5.520895134913326174e-01,-2.930370552021289043e+00,-2.400337529918025403e+00,-2.104421553899344488e+00,3.069351840297286360e-01,-3.965643397078356003e+00,2.556964996229418308e+00,2.440292347482448942e+00,1.487686268956854185e+00,2.167005349069058617e+00,-2.965913169001455518e+00,-2.151917505691225418e+00,8.528388775154219781e-01,-5.501843052255358302e+00,-2.388416078583356139e+00,7.749060753786353173e-01,5.675371375198627000e+00,8.343801209511760852e-01,1.156208725910380375e+00,-2.238986440201439776e-01,3.889600870999387006e+00,2.417645849753542742e-01,-7.602340058886691496e-03,7.966137520088585333e+00,2.578545891289707903e+00,-3.461611018467461331e+00,-1.564900377275423082e+01,9.559105735267220183e+00,-1.813808577299625080e+00,-3.199116740978242834e+00,-7.167587853898847783e+00,3.425463502366907775e+00,-1.159496242195814020e+01,3.421034334610123295e+00,1.032426478917192370e+01,1.786925968528831676e+00,4.410114248671565207e+00,2.886281617363753771e+00,3.620825603698461848e+00,-1.622737695472553909e+01,-2.012805784448493007e+00,7.700064151393251954e+00,4.641869829377061940e+00,1.472594140095314197e+00,-3.185210833260664121e+00,-4.247141831391972211e+00,4.964835274106315310e+00,8.261270873288442118e+00,7.435336967863416247e-01,-1.138303975341925733e+00,8.301997359521008590e+00,1.544144493202473267e+00,-4.627881654618230201e+00,9.630590999125169915e+00,5.042697579312695133e+00,5.520633956121821839e+00,7.579824529970442981e+00,0.000000000000000000e+00,6.467795037901828081e+00,-1.187660135068920875e-01,-3.635011349940955871e-01,-1.448750008391075594e+00,-3.693737132248604116e+00,-8.189476643403265088e-01,-2.409184922040231491e+00,8.144549135616402369e-01,-1.619428416889758893e+01,-8.202328740241159322e-01,2.697909147396378771e+00,-1.571474628869234103e+01,-4.224233192664157421e-01,-1.677965120336283589e-01,4.412561188974815529e+00,4.884814213430852980e+00,2.305125484124873614e-01,-5.656223654750272001e-01,-6.980643933753226671e-01,-7.275353547356074202e+00,4.745042935400772599e+00,4.611950935930938300e+00,8.523153553354186229e+00,-2.018041776260269593e+00,4.360813567676638414e+00,-7.762387700663705981e-02,1.402125208209972484e+01,-1.340151925887316242e+00,5.695930725255372806e+00,9.969820561018855054e-01,-1.573211207094193043e+00,7.506957802714653294e-01,-3.841233720732752932e-01,9.597736574151003452e+00,-1.596278226980838877e+00,-1.244837170700309636e+00,-3.656904048707621424e+00,3.833106592876049490e+00,-7.746311284796342456e+00,-5.329322046317952477e+00,-6.968891979240892987e+00,9.125688746064657408e+00,1.488671265997050419e+01,-2.561547358546962805e-01,-7.467728405456014462e-01,-5.908453828740202418e+00,5.945760253879610602e+00,4.011482606709029675e+00,3.100612347403620017e+00,6.936004087649295435e+00,9.885255328505371253e+00,3.358867597777740688e+00,3.474937021067536325e+00,3.328256990331149634e+00,-1.630774064125311451e+00,-1.323572075844542173e+00,-2.259023566389908588e-01,-9.315618120513368794e+00,6.962211063976340153e-01,3.075256364686353105e+00,1.021533311999743354e+01,6.426209104709130315e+00,-4.803865522703979707e+00,-8.276100063696203435e+00,4.465994930605583058e+00,3.847460911502365466e+00,-2.781776937530894500e+00,-1.055039694879162174e-02,8.869399580602403077e+00,5.233632197071732328e+00,6.431541023677117330e+00,1.034761007220571072e+00,8.087688552692920751e+00,3.203517834454778779e+00,-1.246406690371299586e+00,-1.143779714584851837e+00,-5.943513509223286029e-02,-1.313990863418014410e+00,-4.389528978726454866e+00,7.755698665055104968e+00,9.503032285643142174e+00,-1.418194021637591895e+00,6.211996012261577604e+00,-5.092943582049755058e+00,1.767816183975980115e-01,-6.773284385667250440e+00,5.133373619873024651e+00,5.220170566904042353e+00,1.166184576903651848e+00,-6.457528013800762245e+00,-4.597778895611590144e+00,-1.940838231784906442e+00,7.437272511825439913e+00,-5.111488635691884497e+00,4.255377528405501764e+00,-1.122587576283696625e-01,5.387118752278582390e-01,-1.983753703361158927e+01,-5.146149214710117548e+00,-5.119083998076225939e+00,1.900270552068483054e+00,9.234427204872833528e+00,6.443218221203080853e-01,1.306037073032229046e+00,4.623934744011773956e-01,7.930336852650886392e+00,-3.804406927536517991e+00,2.778999355715379149e+00,2.019600962716849857e+00,1.042617913089600307e-01,7.724161709885101423e+00,4.224345108348825484e+00,-9.348384583885774868e-01,7.214631136893995489e+00,-1.461074894767116028e+01,-1.907895116105081224e+00,3.455962368042813537e+00,6.808737733323888541e+00,1.510174514117895161e-01,2.393185661919060347e+00,7.189228276000475537e-02,8.277836038769651239e+00,-4.070902355008824358e+00,2.318753368600814380e+00,-9.837095723692570459e-01,1.230412897592895183e+00,-1.476803039807745299e-01,3.508474362370633148e+00,1.214878213631775772e+01,1.884788822970803412e+00,-2.305307584652271480e+00,5.665274739163119300e+00,1.611840993216712592e+00,4.575528242000856949e+00,2.927667764915016235e+00,4.650701481866780007e+00,-6.417425150147134660e-01,-6.632412343215619899e+00,2.672690415413177423e+00,4.418514029377483610e+00,3.513406674830712006e+00,-3.542483385112627392e+00,-2.720265486600915494e+00,8.164098099868235536e-01,-6.055427756087495617e+00,-2.136307765461102903e+00,8.621229445734337915e+00,-6.300338198475679441e+00,3.590206382270821894e+00,2.317936657648719923e+00,4.419808502404976913e+00,6.578810176051864467e+00,1.109374165475067953e+00,3.935967526779430847e-01,4.724507334255021895e+00,8.020498204251788721e+00,3.841761558010463151e+00,-2.837847037435392128e+00,-9.497105423455128204e+00,-1.932538906895347575e+00,-3.934527841115762037e+00,-5.991513455342085237e+00,-1.517244950272575821e+01,4.948840264076822537e-01,-1.466243745059865100e+00,-4.870581713602858187e+00,5.022459903477687782e+00,1.606730735485452755e+00,3.660747689605974298e+00,-1.711417554155456600e+00,-4.676166522311397067e+00,9.687916179000334083e+00,3.317850396285239700e+00,4.064682640998197316e-01,-2.089641672954835716e+00,1.569033518667077631e+00,2.259637059774891821e+00,9.559775722108506457e+00,-1.623453680264325349e+00,-4.393371497837617490e+00,-9.491683696108070833e+00,3.559622820200651905e+00,2.594989997240109592e+00,-1.314899041587102246e+00,-3.825006922092062389e+00,-2.051718717348647747e+00,6.287258139309157556e+00,-4.142322260125718358e+00,3.463855091380434459e+00,9.131167470720269463e+00,5.301327993078213119e+00,-6.515960436519929733e-01,1.201342625875480463e+00,2.919703171412451059e+00,5.667819610171513034e+00,-1.140395213464244684e+01,9.087153081354216511e+00,-7.005363374779504326e+00,-1.437264743901865982e+00,2.801253393098145139e+00,1.093484745070845321e+01,-2.585144485581828966e-01,6.687763258399183286e+00,2.337797298855955219e+00,3.976405395040734092e+00,-1.768641170412240671e+00,5.453081237147255678e+00,8.106314634970365196e-01,1.603577237182761017e+00,-9.442231365698782852e+00,4.722919160323217014e+00,-9.411471914677013828e+00,2.347922327202637272e-01,-1.967494807297421655e+00,-1.885673032038648333e+00,5.516857742279904997e+00,-1.147528626593318446e+00,5.539904434176367021e-01,4.622125056413536881e-01,-2.579154412486719838e+00,-3.083257854263496966e+00,4.901596697580519191e+00,-3.165638425490819419e+00,4.763140629453502584e+00,1.837216316461152354e+00,-3.868135899184241833e+00,-1.353037943826487510e-01,2.383519407656470079e+00,1.952557358859354153e+01,5.403946075915174951e+00,3.203537909703487063e+00,-2.731225755634364205e+00,7.703432980176697420e+00,4.709769939179535569e+00,-7.280723979811691837e-01,-1.073995110334199810e+00,-2.302232677863310872e+00,-4.631946858846211157e+00,4.064209975742012482e+00,-7.679498365112306324e+00,-5.236057029882483782e+00,5.144743063449915610e+00,-4.198019360789258525e-01,1.127702292389580085e+00,2.130136919905929016e+00,4.509644164917220310e-01,5.677200512887167427e+00,1.346112574806687157e+01,-6.478721656940991558e+00,-4.659197215508759093e+00,-7.813431952780619527e-01,2.674913521756838275e+00,-7.374400594442261259e+00,5.511575352451623999e+00,5.652808775170175437e+00,-3.101178402599372941e+00,-2.872894562280243758e+00,-7.124901878785020459e-01,9.445740137297402583e-01,8.572718759757578244e-01,1.308127534752306964e+01,5.015043142334359993e-01,5.284751697198021958e+00,-7.609769277241927865e-01,-5.841494913063596250e-01,4.217281562949215079e+00,-5.351046441380369778e+00,3.034185223174944213e+00,-3.073769221625135550e+00,4.883878871763088547e+00,-3.332848019013354257e+00,8.183050602448480149e+00,-1.017158383895814477e+00,-1.076531615181164359e+00,-8.271158455467569226e+00,9.198244507875233955e-01,-5.252384303970016433e+00,-1.174028610689170637e+00,-2.375855909234185503e+01,1.011490287452882519e+01,-3.692970923414372386e+00,-1.928530110907197281e+00,5.012864514182319375e+00,2.956274505420197762e+00,5.809927085572111904e-01,6.897561759910804113e+00,-2.931806033969521330e+00,6.037234647051716863e-01,6.511366210835106472e+00,2.953975311220981226e+00,5.096904643248985067e+00,-3.197488302487292877e+00,-7.402933982775767863e-01,1.079142964115015868e+00,-2.936059786687927442e+00,2.976435702982323850e+00,6.824617411974293724e+00,8.726119771274799319e+00,8.519921142016997351e+00,2.853130020829556732e-02,1.411784017192081020e+00,6.086604794049090827e+00,-1.215306132460671318e+00,-2.102846796844296762e+00,6.296300047458380789e-01,9.188480980719219815e+00,1.569306229954285481e+00,-1.841932764518815713e+00,1.035716582255376966e-01,-1.205711767433857773e+00,-1.569661421617024999e+01,-3.694204411277544953e+00,-7.717507830055952978e-01,8.240603213702971663e-01,-4.083744489493751573e+00,-9.018354456892850868e-01,-8.982206631211077763e+00,4.853788629499146801e+00,5.625599655407221178e+00,0.000000000000000000e+00,-1.031743558108634939e+00,-4.722754093990246815e+00,1.267056734105429960e+01,-1.866802856502062680e+00,-3.004117036251102713e-01,-5.653666482129114934e-01,1.315687014597746396e+00,-1.335020927941050983e+00,-1.338538558551031432e+00,-2.190163214498205946e+00,-5.746053566373269250e-01,-3.142128078113654688e+00,7.549434331685136890e+00,5.853084720549565745e+00,1.146371839487833277e+00,6.481683355400554625e+00,-8.050071638476524072e+00,3.499183643347900219e+00,8.748250956863726557e+00,3.156854137104267100e+00,5.202244539422480329e+00,4.171151898227336119e+00,-2.309337451624499771e+00,5.275497668054866196e+00,5.218459497204448461e+00,-2.221917834565295014e+00,2.248661279039692484e+00,9.696198772976646341e-01,-1.115133614883625945e+00,-2.212362826782207748e+00,-1.281126095979393087e+00,1.957753328440297480e+00,2.519813445672603347e+00,9.195002397601494959e-01,5.162761879797151288e+00,-5.973901842324527145e+00,-2.558012175011663114e+00,5.097155907748379455e+00,3.780188043538798670e+00,7.091262216221491110e-01,-3.868266573373378758e+00,-3.380047225862675919e+00,-3.190575992558581486e+00,-8.425509139319897756e-01,1.058020161002932058e+00,2.002090709272394520e+00,4.851125890389370809e+00,6.901358583780981881e+00,2.269203264420762256e+00,-3.420039031209240576e+00,-3.111401117673235905e+00,-1.764537765851028395e+00,6.501136537848830166e+00,-4.725708827169925463e+00,1.758575613790372527e+00,1.636500831402823097e+00,1.478091978500657655e+00,1.463770459375214550e+00,-5.537991146804957410e+00,-1.730563403341657813e-01,-3.920568589344574639e-01,4.596943184935120108e+00,6.019902259718110216e+00,3.553005305129581792e+00,1.291852128463983895e+00,-2.177871832741637426e-01,-2.870492824280038935e+00,6.909442612753874613e+00,3.392891442622566256e+00,-3.066867156282498730e+00,4.945002657939387092e+00,1.292855931551236015e+00,3.580172301806432422e+00,1.141851756940690965e+00,-2.345345217965112639e+00,-8.705370287465142853e-01,-2.602306438209614825e+00,8.636840014118218889e+00,4.706779574215977036e+00,-1.214726544915219475e-01,-4.441401814654836855e+00,-2.438777998783878964e-01,-7.365897944816434117e-01,-2.787092711058793526e+00,-3.713894599675017005e+00,-6.949511603761960865e-01,6.334552505414667856e+00,2.644210995843891521e+00,3.565452107737552723e+00,2.176882295543459023e+00,1.237605138771053381e+00,3.114094996451814090e+00,7.752726230035077215e+00,9.696782715323184476e+00,-7.324388807434409010e+00,-5.914727644301231102e+00,-4.225742409116600484e+00,-1.572483280171984799e+00,1.109949008148518601e+00,-9.140554048018273772e-03,7.746059994474587818e-01,0.000000000000000000e+00,-9.321562891341875767e-01,-5.737986238414610085e+00,-2.639152538483600097e+00,1.943489356653040068e-01,4.570118102889273448e-01,1.213832724968073595e+00,-1.108092534052802725e+00,-3.936551336527652767e-01,2.827147087903259859e+00,-4.050627220313628207e+00,7.830427464433334706e+00,-2.305879753294413970e+00,-3.739482945724793561e-01,5.371164311964382598e+00,-1.007346089077700668e+01,1.858090303948781441e-01,-3.974712802831666392e-01,4.275219222049901902e+00,2.267267705460033866e+00,2.685138226399311989e+00,4.232309264875182109e+00,2.102054961085079832e+00,2.645301459733732763e+00,6.855436557925783880e+00,-3.046988367522533103e+00,-1.973223353270788794e+00,4.623495105595026189e+00,7.475121969379503462e+00,6.324319501487755346e+00,-9.251713779794016546e+00,-4.872993735681466987e+00,-2.739186504830630753e+00,-3.455079455407744082e-01,-1.262842604407799030e+01,-3.521616913928528714e+00,2.051216774447752744e+00,4.317588800465366639e+00,-2.867929837491505651e+00,5.761524462124926194e-01,9.065857468036211841e+00,-4.094817031615315961e-01,-2.062124416176421615e+00,-2.429809289228064273e+00,-1.963029969545413422e-01,-2.422565237199846011e-02,-3.362090339500968472e+00,6.191320406307196933e+00,1.163548727077140743e+00,1.006877248820284620e+01,-2.996616470366682439e+00,5.183417127990010087e+00,-2.275284997353117511e+00,9.477304707074866386e+00,-4.113778418090331179e+00,5.703799546027929601e+00,-4.337155075476491817e+00,-1.854461818696085729e+00,-3.327590962349084247e+00,3.217897892165896501e+00,-1.165010176302505363e+00,-2.395771694188328471e+00,1.427475272020179320e+00,6.440448476753982909e+00,-5.003629506947147476e+00,-7.782337102550961561e+00,-3.196671546081286230e+00,2.826157088582794685e+00,1.039298939836129643e+00,-9.323531715652345397e+00,7.884446722837349375e-01,1.064117092881185656e+01,1.148757160395914800e+00,7.366286723576715545e+00,5.891954088115481269e+00,5.893008213468312606e-01,-1.742556115645712111e+00,-5.378094765292146029e+00,-2.285415736467844017e+00,-1.847882397221237483e+00,-8.132546524019227618e+00,1.957917113964747102e+00,4.468929436553603085e-01,-6.875917870506222940e-01,-1.540590625166288641e+00,3.851222979524992596e+00,-3.911320126118129181e+00,-2.478473996928800993e+00,-4.095625398865792022e+00,-4.130262131319182295e+00,-6.103866806411949453e-01,1.561279598879091957e+00,-3.841039735201613237e+00,5.324526040249999426e-01,7.213841734482431267e-01,3.300209280808627632e+00,1.503911573925270417e+00,4.410441656592456461e+00,3.106576814637400097e-01,2.553672775677175100e+00,1.468157886338384621e+01,-5.690484062788678798e+00,4.209898418608389647e+00,-9.217701760987926374e-01,-5.362936499120642075e+00,-3.115829488059533414e+00,7.446620588581087219e+00,-5.369211203604593585e+00,2.877667502857587323e+00,9.102598946933495583e+00,5.841320930928294963e+00,-4.142523576792451756e+00,1.377405492391960529e+00,6.225555757245088806e+00,3.281340519231040531e+00,-1.376873542166514142e+00,2.838134701866366072e+00,5.930923534866136215e+00,2.144551358698209231e+00,1.875062395061789289e+00,3.233912672598234117e+00,-3.580948354977872672e+00,-4.417194199895951634e+00,7.914732563277959265e+00,6.527584167341755617e-01,-2.196542643880125656e+00,2.822403659530092757e-01,5.815705248781090297e+00,7.460416451864015031e+00,5.939835623518724184e+00,1.189396621173445384e-01,-1.152027692665761327e+00,-2.512614880405306561e+00,-7.025075004377342447e-01,-2.851525552934075058e+00,3.841484944094156084e+00,4.070073743648817910e+00,-3.065589910365700277e+00,2.601028785424095879e+00,7.472975543744588833e+00,9.835987787303080765e+00,3.272168586628767528e+00,3.379631693969209483e+00,-1.641181963778893760e+01,5.792453376329917969e-01,1.249191186536753984e+00,-1.646222321144020784e+00,5.962833430423884806e+00,-8.435535705739125034e-02,-9.183414199601449113e+00,-4.537537965660896511e+00,1.239860372849420411e+00,2.070185642635013590e+00,2.320184565428422274e-01,-2.399549363649438050e+00,-1.687791988102025798e+00,-7.403948982303830695e-01,-1.655368143651607893e+00,7.380636537327097457e+00,6.184047724476812169e-01,-3.774624153075665678e+00,-2.110318326775398212e+00,-2.920307411941888809e+00,4.372737916361138844e+00,-6.091326604324320826e+00,-1.215478689280493629e+00,-7.863671905014091301e+00,2.950294609491891595e+00,2.825976716647130793e+00,4.673847892236445034e+00,2.390917108851289274e+00,3.923514143404923660e-01,1.009181024776800023e-02,-1.637641615185897459e-01,-1.427419749828169326e+00,2.264680892010139335e+00,8.459179271312039505e-01,-2.148031800548103387e+00,-2.666979770716131348e+00,4.401203490421540243e-01,1.588537267367856387e+00,-2.571401099427234271e+00,-1.869282727177538961e+00,2.244454128045617392e+00,9.085586556525375723e-01,-1.506080014057762373e+00,-4.693932743961517495e+00,5.898043218859622350e+00,3.016508792463056920e+00,-2.053952461508831817e+00,-3.961821445321784818e+00,3.742326833261545804e+00,2.126036255375895190e-01,1.179856301197484303e+00,6.671895218144865414e-01,-3.161488043200236575e+00,8.020248497808099231e+00,1.993699432197576726e+00,-2.584226408306711686e+00,1.158016005729304743e+00,-1.088630941628532689e+00,1.344177338951347389e+00,4.724910177272100498e+00,-3.990727064726507511e-01,2.931923874269555697e+00,-7.355805634664915882e-01,-4.429524629860074114e+00,3.718336739774818156e+00,-1.685137779487420939e+00,-2.204434777463077477e+00,4.751610225160171619e-01,-1.436365750379235418e-01,3.413982100388191387e+00,8.252149258938782594e+00,-1.310693382791692230e+00,1.531862893496487965e+00,-6.574519043610145275e+00,-4.445363874554619787e-01,1.371897966661578483e+00,4.674993095790267006e+00,-1.611963002402845069e+00,-8.711560096550761134e-01,7.327091727926875464e-01,3.476894503478692222e+00,1.855831966317303960e+00,-1.642244214387108103e+00,-2.010130706364901820e-01,2.338118883857455366e+00,-6.911538688095691940e-01,-2.218290972604884947e-01,5.921308056190649260e+00,-6.799593559835277468e+00,1.626382047105843220e-01,-4.887233415905292588e+00,-8.725648101548448832e-01,4.412001675636535225e+00,9.700361957190828832e+00,-5.514561684595329361e-01,9.295695440983374525e+00,-1.252761208443201113e+01,-8.027121545990549834e-01,-2.804176351394850997e+00,-1.861336231074690151e+00,1.884528357897806927e+01,-5.266080989670870238e+00,3.480716456816701054e+00,-2.850314557385834391e+00,4.722353762705994717e-01,1.690433322854623999e+00,5.964910989617451698e+00,-3.334136361156790906e-01,8.489708089254181189e+00,2.864860546014294407e+00,-5.718027505353173723e-01,-4.839299672061498470e+00,2.766673955920829098e+00,-1.880158477812747586e+00,1.555240782577274272e+00,-7.162034559533628553e+00,-2.130793094426446821e+00,-8.149762672595859403e-01,4.390676284885969949e+00,1.681574079307253111e+00,-3.107304980736176891e-01,-2.080413301306248020e+00,-4.747258833999493000e+00,-3.218753227127506999e+00,1.992053447176647563e+00,-1.081325477276051439e+00,3.765952065111690672e+00,6.105128810520140448e+00,-1.585681184814619948e+00,6.837154441780914915e+00,2.810649876654324419e+00,-2.478611139010801878e+00,1.337466177583868543e+00,-7.457127898539956945e-01,-1.168577589164958797e+00,2.673248421201521285e+00,2.971233524823307937e-01,-2.796711082099873416e-02,1.495088912735534681e+00,2.742832215768838289e+00,-1.711292448872319349e+00,1.076221581043758668e+01,7.229853196468778442e+00,3.287318585323833808e+00,-2.403410145455711966e+00,3.042371853730187148e+00,-3.276466918107630466e+00,-1.142686407571300133e+00,2.105721345293849023e+00,-6.118271582501328965e-01,-3.446045563241777021e+00,-4.983426835774126040e+00,-1.719603653258062748e+00,2.289558307813348126e+00,-1.230463263579651745e+00,-2.310014297570709196e+00,3.046380352996177709e+00,-4.105963964006074995e+00,-3.451663951597457203e+00,1.255359739432109212e+00,3.453939320546862923e+00,-1.969995381742852381e+00,-1.584724570857492520e-01,4.679715779160381617e-01,-2.047799398485845135e+00,-6.807840219854551123e+00,-4.621555929098435378e+00,3.608337489748670190e+00,-2.491259821189792500e+00,8.288805549805228878e+00,-4.562269419330226561e-01,-3.271258136837511543e+00,-2.283779222210392756e+00,-1.466805407818255969e+00,-4.388654761140639238e+00,4.780690966091270533e-01,-4.670450870805258753e-02,-1.917140932953721455e+00,-1.463568160872591672e+00,4.288651218561323475e+00,-3.628263067388382446e+00,-2.185393834679561387e+00,-7.331926362038283074e+00,-4.512186240096366596e+00,-2.740338689309852693e+00,-3.763239850000008158e+00,2.140324838741864966e+00,-3.401061361684611040e+00,-3.289843272033864174e+00,6.618912267006519246e-01,-2.641407751404544424e+00,1.298953450959589473e+00,-3.824835555702227108e+00,-3.139490305456303254e+00,8.246666708651776645e+00,-4.536389055258706726e+00,8.584030084633561541e-01,-6.079785446977303831e-01,-3.188084562850905801e+00,-8.119867876100711479e-01,-1.058035455148580795e+01,4.253625384501886764e+00,1.607409451996857808e+00,2.488070057027115922e+00,2.757942299887861548e+00,6.811712494191256795e+00,-1.121366916651734824e+00,-3.944908760115960256e+00,8.005854800174082797e+00,-1.021437892408266546e+00,-4.198826258501612507e+00,-2.564313841498711000e-01,4.624245961087217083e+00,-4.697396971070159744e+00,-2.042610036052823652e+00,-3.156646256346091306e+00,8.802364483946670815e-01,1.071768082040871484e+00,-4.238726606203750968e+00,7.615961141176051719e+00,6.157938155097675725e+00,-1.312424750105163795e+00,-9.160797349370268350e+00,-8.017651348672263367e+00,2.422090281916028154e+00,-6.135137472813195991e+00,4.990513558223719670e+00,-1.367547389278543690e+00,8.336610138289456629e+00,-1.073414444776452203e+00,-4.499393324860593069e+00,-2.168311126615642070e+00,1.385470441010087761e+00,2.302299385254672703e+00,-1.563376243827634404e+00,-1.009169061107617971e+01,4.748226592515441880e+00,-7.728873695671154564e+00,3.026599633831888458e-01,-6.518005662956564139e-01,8.427132106905191877e-01,-2.140430747213825313e+00,1.552461699739595602e+01,6.846328202842075328e+00,1.466744414587364265e+00,1.887284300964625627e+00,1.181126344821237018e+00,7.468772906620985141e-01,-1.617775957496439654e+00,-2.472626084877820762e+00,-3.711495434634405122e+00,3.958322284712389560e+00,9.067220349070973517e-01,-9.548118213877969662e-01,-4.914777210219235748e+00,-3.587517000596736505e+00,-7.716526689871588296e+00,1.600431609146993894e+00,2.691272702445545839e+00,4.177101705020033862e+00,-2.239097567317821280e+00,5.830685583747953871e+00,-1.292848679696761288e-02,3.084634885698318563e-01,6.289977990587368728e-01,-3.518384860105677081e+00,1.052567313020210227e+00,-2.044374557616027932e+00,1.272743461088818862e+01,5.601140800718781954e+00,2.286511601619369838e+00,-2.282548976066439916e+00,1.367198292754788014e+01,-1.695534823064828833e+00,6.421970581350278984e+00,-4.281254294441080077e+00,7.734893446563773090e+00,9.658431215153587268e-02,7.436480161834507996e+00,9.524143022560135563e+00,-3.844818499422208546e+00,-2.523170150718545113e+00,6.718868227146882477e-01,1.489891606219234177e+01,7.595324106367801198e-01,6.538784647703822728e+00,-3.383341722372648519e+00,7.418286526417021243e+00,1.330710832251750686e+00,-7.140871040199962216e+00,3.918712700588112163e+00,2.138949527085100666e+00,2.500447284360149069e+00,4.246797620954895769e-01,-2.444559053744006782e-01,1.145874500683561115e+00,4.092796561741697481e+00,1.347935554715503859e+00,2.568661381708209568e+00,-5.859563431848567872e-01,7.501905765151582806e+00,2.442127367890832623e+00,3.349092420881857990e+00,5.649043955648961557e+00,-6.283055145281853271e+00,-2.803507406317446229e-02,3.614436735508272491e+00,-1.988038694907239723e+00,3.333149846924746917e+00,-1.286365543856242966e-01,1.882866273581191630e+00,5.942024341041808100e+00,8.391625053690008329e+00,1.952071023553914930e+00,-6.369400485055058958e+00,-7.815944266772144822e+00,7.042548682687788997e+00,-3.456185536936484115e-01,3.516595376323322863e+00,9.844376599864806954e-02,-1.611822608975646887e+00,-4.854741379390428158e-01,6.882783703341013748e+00,-1.211406682036711535e+00,-4.287860112668478330e+00,7.908648340578843250e-01,-3.788077610158785413e-01,-3.695735411310699381e-01,6.362613233910303201e+00,5.549042831187920299e+00,1.414659236970966960e+00,-1.523698737480923660e+00,7.709904715583677515e+00,1.931670043833176587e-02,4.382381839916284605e+00,-2.174471191821954807e+00,2.852693506809881541e+00,2.917987904009006428e+00,-8.827015407362504007e-01,6.453240229301323794e+00,4.922670195372088386e+00,3.872941103043335165e+00,-8.460798601418238363e+00,3.008200458463000881e+00,-9.883614213136063809e-01,-9.593174138128363060e-01,9.311472240891319752e-01,-8.119673165476228860e-01,7.917101183574267731e-01,2.020909980104639292e+00,-1.606494950137680888e+01,-2.721446005907055987e+00,-1.945490650747976336e+00,6.621563059302660648e+00,-5.443984915208534003e-01,-4.133550697165653709e+00,7.230238404847416867e+00,2.853315399217767112e+00,-3.494999731548694921e+00,-3.285853566075911392e+00,7.049227918902152723e+00,-4.441952077734842241e+00,7.246143415843809832e-01,2.792563137301637521e+00,-1.049200129433016437e+00,2.575816133859784252e+00,-1.423095681184784578e+00,2.626648249701790228e+00,-3.236208496700519355e+00,5.389376077394899545e-01,2.732671262269827372e-01,5.170301630496235035e+00,-1.996111036914695491e+00,-6.853805367806860005e+00,-6.619456913440525669e-01,-1.020185553737158468e+00,-3.366990780703020381e+00,2.281660117015266859e-02,3.150864576546497542e+00,-1.246187089759831057e+00,3.762900946234413624e+00,2.730890044539776018e-01,8.365240825337625363e-01,2.353030109196976027e-01,8.210637321554630219e+00,-2.484413622668872890e+00,3.054693873047085173e+00,-1.502997093578921639e+00,-2.372115987605027509e+00,-7.710441352169110640e-01,5.264426895514742633e+00,1.525187175848967458e+00,1.768849702300811622e+00,7.995945968272607507e-01,4.340556886345462217e+00,-6.471411535591072850e-01,-2.274766090947806241e+00,1.401730612311322455e+00,-8.536886474976364880e+00,3.146316586938140869e+00,-2.391141779076650042e+00,2.094387639061550122e+00,5.437647210730006675e-01,-4.499939939203000949e-01,-4.322927801384181201e+00,-3.008005876811890023e+00,1.528896957531044709e+00,-3.998788115461349602e+00,4.008268485037661755e+00,1.448392725684272353e+00,1.806383283019661334e+00,2.323325256529024774e+00,-3.162341563044620774e+00,-1.863407080702814689e+00,7.962241813347327168e-01,-6.761656473237579235e+00,-2.573256327096923979e+00,1.703113340842867141e+00,4.542866571384226226e+00,-9.977723663481593563e-01,4.064571084894272879e-01,-3.417706068726238389e-01,3.669634383365864227e+00,1.379727153721613808e+00,-5.611038957579321806e-01,7.158132762466256516e+00,3.121135241108727865e+00,-3.511651166924922407e+00,-1.146395220680561522e+01,7.727760830870814779e+00,-2.210553340307713110e+00,-2.892855450385728666e+00,-8.406936447051490902e+00,1.339628584296368219e+00,-1.347674024542446425e+01,1.083711002357841569e+00,7.562543172545177939e+00,1.122267239076680356e+00,5.257532036975782752e+00,3.875075745694277707e+00,3.013910881133298414e+00,-1.070552227709390358e+01,-3.078123361417232307e+00,8.346992972926193133e+00,4.001044843270152640e+00,8.615521718116377903e-01,-4.094499102362240350e+00,-4.656513356309903706e+00,5.332883525349552123e+00,8.047932065245715805e+00,1.348586554173585528e+00,-2.372838352979901533e+00,7.497772643240489643e+00,3.059370165884042425e+00,-2.302421086717060916e+00,6.525597598173206393e+00,2.484766286609409125e+00,5.257239827645596719e+00,7.225220041640851854e+00,-1.396905961564473220e+00,3.749423562031923396e+00,-1.353332455241174292e+00,4.857975389603538807e-01,-2.157694987485901272e+00,-3.687438669984824280e+00,-3.795676950297975916e-01,-2.847797923938761411e+00,1.369742768606895478e+00,-1.282015989786737187e+01,-1.104415399462481240e+00,2.125448411708397600e+00,-1.812583563919922014e+01,-1.751519298933717161e+00,-1.796611995073856161e+00,4.373327307970782840e+00,3.082365766497254356e+00,3.590247626464185271e-01,6.986681986251018772e-01,-2.170568359343858944e+00,-8.479849257269773233e+00,2.244538034816757399e+00,2.382197310229356102e+00,8.362310580268683680e+00,-2.956946248396761678e+00,1.958967580903749672e+00,3.145332385066177405e-01,1.481881796416180386e+01,-2.928098287658119414e+00,4.199375109923763283e+00,-8.986194462314849307e-01,-4.109524778059557293e-01,-1.066474695420386087e+00,-2.456356530351718193e-01,8.085516631521949549e+00,-2.707190726647128898e+00,-3.754460072500934054e+00,-4.091160390471922703e+00,3.616632500618510715e+00,-9.114302003652783313e+00,-4.975922402140013467e+00,-7.334662625401034752e+00,8.717128504229712860e+00,1.491867800666470245e+01,-1.735112274173912450e+00,-4.200721452065373507e-01,-8.742305302069008022e+00,3.172279218831124847e+00,1.794290076394888578e+00,2.530835971741222323e+00,6.518655384028901878e+00,8.839608329904153905e+00,2.299343190970871476e+00,3.273510661083521178e+00,3.327215816327493858e+00,-1.066254857417440194e+00,-1.701611539359193737e+00,-3.094866257875206195e-01,-1.111966504919224974e+01,-2.754904276118175233e-01,1.816395095902487045e+00,1.047730077516764347e+01,5.248668572099909113e+00,-4.110180878504106516e+00,-9.176690160440779565e+00,2.146791288147454679e+00,3.538673452096411154e+00,-1.822162259873168377e+00,-6.774510252069096961e-01,8.742039626581904699e+00,4.265650903991708098e+00,5.410655824463140640e+00,2.282400800713056288e+00,5.471454562369139296e+00,3.144652861120726506e+00,-3.731437236272626468e+00,-1.243147778896130040e+00,-1.229940398838868854e+00,-3.277872453510266015e-01,-5.299341573427249763e+00,6.285872257785706907e+00,8.278558201231376756e+00,-2.593462539645047471e+00,6.470146872298027318e+00,-5.076583239235780809e+00,1.208056910537452566e+00,-5.773984538270261702e+00,4.783773822184417490e+00,4.463431294106413816e+00,-2.552160660375735191e-01,-5.400940792735637430e+00,-4.611677344417064006e+00,-2.851014718418832583e+00,6.000346153370943014e+00,-3.309021863920037720e+00,1.514857855798851016e+00,2.581314511762791697e-02,5.719222539741922740e-01,-1.721098658062086528e+01,-4.342623327114094600e+00,-5.447712426508201311e+00,8.748414129686689078e-01,7.610219217371047229e+00,6.240970202553843826e-01,1.355968000112447669e+00,-7.830760086695857936e-03,8.465106519902251492e+00,-3.729809599929360342e+00,2.496109853554184355e+00,6.348360819149642120e-01,-1.130062723864682317e+00,8.920637661591678480e+00,4.197722850774894710e+00,-5.840807124528843985e-01,7.528209021266232703e+00,-1.296067661275234428e+01,-3.332360064992745841e+00,4.332202299191498795e+00,6.314149786865013603e+00,9.674755636276092252e-01,1.844970942387482937e+00,-1.385782226898251368e+00,7.027112139642921029e+00,-5.849927361203901555e+00,1.088452018667508847e+00,-3.031246991884406050e+00,-7.758729896226731482e-01,1.219288668601751446e+00,4.580791743510689962e+00,1.243464058582559417e+01,2.083477774741475941e-01,-1.325012574389992315e+00,6.685403506456812472e+00,-3.620014592627499028e-01,3.165112111860660438e+00,2.299931995520566819e+00,2.568167550007876443e+00,-1.943432542821408759e+00,-7.027340764584174337e+00,1.894715194846561701e+00,5.756139684798531775e+00,2.412273747206632901e+00,-3.357639035134416083e+00,-2.005667342723862934e+00,1.255379763982070518e+00,-7.235843725798661197e+00,-3.040959319324424648e+00,6.300078564562920036e+00,-6.213738856387280407e+00,3.723537976898719126e+00,6.002153620287489777e-02,4.973929892971875155e+00,6.847635962861585490e+00,-2.152749008109089424e-01,1.004326162124578925e+00,5.275575591205644344e+00,7.908943583763639040e+00,2.528981428690363575e+00,-3.555694599701020309e+00,-5.804990485327124361e+00,-2.973318329818471106e+00,-4.887924818766032686e+00,-5.407344173884242267e+00,-1.572539692735160166e+01,1.496822052640148115e+00,-5.096818125335992322e-01,-7.386659057664967776e+00,8.060541430639849736e+00,1.761014283635402800e+00,2.033494072266697650e+00,-1.398494722810980084e+00,-4.790272026713783049e+00,8.794008239709762975e+00,3.519045617283966365e+00,-7.171700381197135821e-01,-5.714839242414561760e+00,1.998058537277350721e+00,1.900915207692140396e-01,7.624505967786807226e+00,-1.964326161129878567e+00,-4.992682433479251003e+00,-9.835406442431869678e+00,1.505873074799439104e+00,2.161923962718519387e-01,-2.062511635630849494e+00,-3.995813788600367733e+00,-1.512075889278060359e+00,6.414280092557674173e+00,-5.301478713250178387e+00,2.797219299464399622e+00,8.760557865265880650e+00,4.075591058399814059e+00,-1.759313434311274627e+00,-2.831399526432103464e-01,4.425511441038303961e-01,4.930946279416983380e+00,-8.889184005058618609e+00,8.087942394779707556e+00,-6.514888590920722145e+00,-3.390854323358066580e+00,2.132419197309603387e+00,9.116631241688658349e+00,-4.157098035994474472e+00,5.972759692618532235e+00,3.245322555432153866e+00,4.307663697654843027e+00,-3.623536495666334734e+00,3.117648743854900317e+00,-1.386775496657762785e-01,-3.285380644003015327e-01,-1.054866650670882677e+01,2.342317169852965009e+00,-1.025323643929421991e+01,-1.625994441391732437e+00,-5.907942117448704566e-01,-2.736256003932107106e+00,4.109528465729101576e+00,-2.301540112839588925e+00,6.041652250060175477e-01,-7.006132544627018399e-01,-2.565566313699710221e+00,-3.911685143450752467e+00,4.136063481868859526e+00,-1.576551859431314817e+00,5.684718304077166273e+00,1.905440521929572473e+00,-4.596433851127801340e+00,-1.847078901116718574e+00,8.332936571156659422e-01,1.934332811712791766e+01,5.230130063781454730e+00,1.563130117187139678e+00,-2.259841200411914830e+00,7.363901204907338460e+00,3.814865002929920035e+00,-1.687587296323465491e+00,-1.140327197226444600e+00,-1.563612295083512072e+00,-4.179870014594289529e+00,5.978383922621127056e+00,-7.130168346809639068e+00,-3.577446433402323045e+00,3.207132510895567723e+00,-2.186430436501985319e+00,-1.113396443495028088e+00,1.596370728104206105e+00,-1.789626823187496218e-01,4.728325632622810915e+00,1.259726853750582265e+01,-6.963909695128225330e+00,-3.404139019706289737e+00,-2.298015390375894029e-01,7.100629342173579994e-01,-6.134121305396292634e+00,4.891301246818930082e+00,4.296023349133332836e+00,-4.351146725200197629e+00,-2.201753889858445223e+00,-3.296252826197241248e+00,8.105569492194089620e-02,-1.062925612004426146e+00,1.022951191197937248e+01,7.618410663947842165e-01,3.515860985535717909e+00,-1.842127027904048864e-01,-1.872866855737584268e+00,2.584306353620158703e+00,-6.102100728327473966e+00,3.581820737503484953e+00,-4.026246352078719504e+00,3.980735888242185716e+00,-4.373718941612223965e+00,8.695554214453338204e+00,-8.179973210759385882e-01,-1.383636591934948923e+00,-1.218632489759955106e+01,2.412496054260184319e+00,-7.739415532078409932e+00,-8.900290594913981002e-01,-1.941920789316698048e+01,9.512323420603028268e+00,-3.806830733596403782e+00,-1.272238634008360458e+00,4.588937614067737591e+00,2.536786877748189895e+00,-8.081192521478964830e-01,6.218586695589452873e+00,-3.747265798081250043e+00,2.636690459420957477e+00,5.812655245062372522e+00,1.703301067350416753e+00,2.116190809215939606e+00,-3.973134853302863867e+00,-6.702053348612125871e-01,9.711481415681645357e-01,-2.662823961690204744e+00,2.394722364642571488e+00,4.600469058050337345e+00,6.603583597163553698e+00,6.912573580100039194e+00,7.334266035208788503e-01,5.623735872911723721e-01,5.673525390761413156e+00,-2.581039963448790719e-01,-8.771502421124396376e-01,4.244222925435389149e-01,5.594111762588825698e+00,1.628681784016686507e+00,-2.640556201975486683e+00,9.668899429371943244e-01,-1.652525497635291662e+00,-1.156269613938295215e+01,-2.754814405965362756e+00,-2.732457351240760168e+00,1.173651288338941612e+00,-4.155297442590526025e+00,-1.977440155845097358e+00,-9.214631518861446935e+00,2.801691482862653793e+00,5.608471649247212198e+00,-1.246179431616589284e+00,1.066079492039461243e-02,-4.778410144562701412e+00,1.360379868625044786e+01,-2.647870195250051406e+00,-8.999658934224961104e-01,-1.341972259356534414e+00,1.342744185548119917e+00,-9.930096024534306176e-01,-2.500280483881183180e+00,-2.834642735999375329e+00,-5.284987566209544685e-01,-2.634854523648895164e+00,6.843769833170101791e+00,5.724592756858846165e+00,3.080158651627122879e-01,3.584408801826574731e+00,-1.009923526302350894e+01,-5.485462545560999548e-01,5.925964390730466214e+00,3.702542435584885272e+00,2.810285374016075366e+00,3.494693088100872647e+00,-1.932158508297893151e+00,5.595251699845842808e+00,5.591273761825185318e+00,-2.863714362652084233e+00,2.926616819060240182e+00,1.083505794464226346e+00,-2.070387991441756892e+00,-1.405963441796934665e+00,-2.060783672987586357e+00,9.692247825663929950e-02,2.242317763347134729e+00,1.152651085447524038e+00,4.533980875162028745e+00,-6.714630044456370683e+00,-3.447857373044088458e+00,4.409001617603475864e+00,2.835416641301863994e+00,-4.814896733002875795e-01,-4.594705124406215369e+00,-4.073598151514379317e+00,-3.513691317179958418e+00,-1.626807990994054265e+00,6.287669504276446331e-01,2.000238384138075975e+00,4.893582492477086099e+00,6.258320053918284387e+00,1.841225680519866348e+00,-3.728921473351775706e+00,-4.286552552248793724e+00,-1.878489807850746374e+00,5.473652657493695450e+00,-6.392702198366831290e+00,-8.707445833797562706e-02,2.345120725603154987e+00,-4.321565018135717362e-01,1.524385158373895155e-01,-7.143960961438619250e+00,-2.041025420736123641e-01,-1.628305059623381457e+00,4.904662542458544827e+00,4.919368028939169690e+00,2.010169001111410392e+00,1.668507622955210490e+00,-1.622049551199745032e+00,-1.846194059481320426e+00,6.052086437071046099e+00,3.374147655309975402e+00,-3.220759917923395221e+00,3.771509399148555985e+00,7.443960506914707453e-01,2.642142043207841073e+00,3.063860794910989727e-01,-2.058998332752760341e+00,0.000000000000000000e+00,-2.918709169160732309e+00,6.247875564768872181e+00,3.958203276075979993e+00,-4.293270968609698701e-01,-4.491720125071746672e+00,-1.418242218834381563e-01,-1.273316953083127312e-01,-3.709919157745674045e+00,-5.324841326674051523e+00,-8.311803086427623777e-01,5.687060055512646706e+00,3.520726144760331966e+00,2.602612221321585206e+00,3.171202587797221195e+00,1.027425928559356771e+00,2.342249510918972710e+00,8.053789270133853151e+00,7.416612938586706782e+00,-8.499582704938259070e+00,-6.225055098497544570e+00,-5.496443438552762295e+00,-2.568673624299111058e+00,4.042865776223383834e-01,-5.319151557833130539e-01,2.122383553749909446e-01,-3.813957384682094554e-01,-1.166167752887143694e+00,-6.008265582167597429e+00,-2.057331662347235302e+00,-6.703316181721975520e-01,1.564847183055291691e+00,1.116397315447236888e-01,-4.439674817505820936e-01,-1.343115519529445967e+00,3.451861658657641385e+00,-3.923234881006341102e+00,7.287722981007807910e+00,-2.359943508812146096e+00,-1.240664707082981932e+00,5.558068960324535901e+00,-8.124671714654436272e+00,-9.195708389508466807e-01,-1.611428787131102380e+00,4.007048516262035953e+00,3.044788189541394186e+00,2.394082494742482137e+00,2.695567499513325416e+00,2.007801038636218394e+00,1.896288185952623717e+00,6.398914058732064092e+00,-3.253768012478131411e+00,-3.066898233609990143e+00,3.562744181038290048e+00,6.774273326439153031e+00,6.168908077614077001e+00,-9.390133276525704176e+00,-3.579309908715409883e+00,-2.799768115002965185e+00,-5.923764345884041660e-01,-1.206507566925326458e+01,-4.314260623639759373e+00,1.592666442525703774e+00,4.625358959137662929e+00,-2.581392821886945743e+00,-1.960593491492060580e-01,8.521985854993758380e+00,-9.617106298214136428e-01,-1.202217338598264407e+00,-3.067282239820981360e+00,-1.058132885991883043e+00,-4.092959443503088601e-01,-3.432600205495738521e+00,5.446203734382180528e+00,5.016786858039224972e-01,8.513973868868850658e+00,-3.336798248306116932e+00,5.891179568807467959e+00,-2.536285430286850495e+00,1.000943838295471799e+01,-3.418821196769159965e+00,6.163240988790622765e+00,-5.260650300189894324e+00,-2.087670592533477532e+00,-3.372274982115663011e+00,3.298654116982825180e+00,-1.191064581092095898e+00,-3.526402328143559917e+00,4.457931808457817335e-01,5.525604273763692120e+00,-5.237261046377658325e+00,-8.628067677092570165e+00,-4.468319688071746398e+00,2.690420980733860379e+00,-1.533003554428175319e-01,-7.231437744936780376e+00,5.183919812087026679e-01,9.294155646538650117e+00,5.847571466072059021e-01,6.891836235576402458e+00,4.969417379157489378e+00,-3.449478180577781328e-01,-1.789980905914215548e+00,-5.482384191793681971e+00,-2.618857506036720739e+00,-2.544801021282164566e+00,-9.547698329983822063e+00,1.237584537125488104e+00,9.960148581769799891e-01,-1.053000703348302647e+00,-1.883354411295831587e+00,3.691672705394398957e+00,-4.255663513103335127e+00,-1.877439272518040658e+00,-3.978179153495445153e+00,-5.387293250736643557e+00,-1.294169609126106568e+00,4.822082299999191912e-01,-3.075343199400230265e+00,3.381771583135922410e-01,1.762108096616479269e+00,2.787364377160689521e+00,1.147254689101510516e+00,4.208898376346317249e+00,1.132385798326863036e+00,1.065353949146822465e+00,1.466206981708430135e+01,-4.318704621516153530e+00,5.458217511160047941e+00,-6.789441204330459723e-01,-6.699773195299542294e+00,-4.057012263258432228e+00,6.375053549886236404e+00,-4.698174163837551376e+00,1.580170586512424924e+00,8.187683968763415976e+00,6.408578729607993907e+00,-3.269932208925157457e+00,4.840819925488921149e-01,4.974389119098018952e+00,4.485611462400713734e+00,-2.112730347231220662e+00,1.854762950805256994e+00,5.520850075218105779e+00,1.046342561571030672e+00,3.016715632759899179e+00,3.086404674556869399e+00,-3.845500202005702306e+00,-4.664301656280141373e+00,6.706658027515283393e+00,-7.988511887700761038e-01,-2.813918772217665953e+00,3.275253664441972190e-01,5.544274908044143579e+00,6.986313583833371865e+00,6.206206634704904523e+00,-8.774915241558840506e-01,-1.024434198477655183e-01,-1.998252911992500769e+00,-2.244231613921103374e+00,-3.153853703002292175e+00,4.141765621144282150e+00,5.124834935421472615e+00,-3.182065969534068728e+00,1.749631214742447760e+00,7.544641388332458121e+00,8.363752280262612970e+00,6.535276907958834647e-01,2.566916865020718586e+00,-1.663855371316434884e+01,8.495993544108659812e-01,1.970526527309589992e+00,-1.826408806894747938e+00,5.034930129533742083e+00,-1.609594094646293605e-01,-9.687921775613975939e+00,-4.736337703006045174e+00,6.426734521811668932e-01,1.975370039973369796e+00,-5.285093699108054377e-01,-2.777949399299032063e+00,-2.178960542460600447e+00,-1.997712666187279940e+00,-1.825585973095500858e+00,6.193260302969617825e+00,-2.597287890336554828e-01,-3.454020844701192861e+00,-2.614097705203164868e+00,-3.760229213360334999e+00,4.992868383872853144e+00,-2.909423091349004231e+00,-2.074321476502458683e+00,-7.879993995620781178e+00,2.678936409826775833e+00,1.357176041994862636e+00,3.036354257030998927e+00,2.130388551187022639e+00,-6.669874999992004838e-01,5.495708486078894062e-01,-4.902163133283460317e-02,-1.453336308139917987e+00,1.418447747018878546e+00,1.302677861549226712e+00,-3.221911560930988294e+00,-2.916288246886114877e+00,8.318853966912245212e-01,4.256996130271445966e-01,-1.690978480101519743e+00,-2.397419077781598684e+00,8.820458380535119991e-01,-3.786990718821727636e-02,-2.715037344140545539e+00,-4.538003669640083615e+00,5.237980931024273978e+00,2.535556800676563416e+00,-2.755142803939705232e+00,-3.623720802237339278e+00,2.620886247955275916e+00,-2.298639774373939515e-01,2.211545833645375048e+00,1.031473704009344683e+00,-3.412910305877064232e+00,7.415645413780351802e+00,7.754510464195689678e-01,-3.435465934696693147e+00,6.014370042445771336e-02,-4.997936119559605039e-01,1.771722584545976309e+00,4.584320282360809351e+00,-5.881071801459363257e-01,1.666915679680142759e+00,-1.973749506275592203e-01,-4.428280124779795379e+00,3.035898792335220975e+00,-2.294181783512404760e+00,-2.023060006655008625e+00,-7.849823625672868177e-01,-2.742033625386575135e-01,2.918738500520550172e+00,5.536012323012985625e+00,-2.488066004759989180e+00,3.025169864912027773e+00,-6.063804024241378876e+00,-8.832869647881832487e-01,8.944625281361242575e-01,4.974352328124392209e+00,-1.959766030620112787e+00,-8.316584903792745287e-01,-5.956702776467927007e-01,1.724968689201684890e+00,2.647718850385417433e+00,-1.209171279385342190e+00,1.336840869090745176e+00,2.935541073928252143e+00,-1.601907820085264111e+00,2.561188409697767177e-01,4.524125043472711383e+00,-6.797138295899091354e+00,-2.273159278721944565e-01,-5.553533815200081492e+00,-4.177425147840781450e-01,2.970655880731761567e+00,9.603394444235693328e+00,-1.228813319968945938e+00,9.343423811963587511e+00,-1.246149582077426743e+01,1.174237337472401471e-01,-3.293833559081731366e+00,-2.844434185918958136e+00,1.702038302695372707e+01,-6.019161364122462388e+00,2.747668496153017781e+00,-2.975438294109681525e+00,7.351162576912059210e-01,1.844627765059380087e+00,4.732558669589342237e+00,-7.959489091845943498e-02,7.303115392794278016e+00,1.364289380170087052e+00,-5.005125932834395552e-01,-5.761195518186788433e+00,2.938302454308623801e+00,-1.675868024651551824e+00,7.566835637815231275e-01,-6.658963124053352445e+00,-3.377314320554091864e+00,-1.100135305452699663e+00,5.991097491391416341e+00,1.189769463829038809e+00,-9.751931506223721069e-01,-2.532078926727815205e+00,-4.607149115074078871e+00,-4.039709683888509595e+00,1.861163902628526934e+00,-1.450999989545997959e+00,3.656261950644590808e+00,6.696146199293852241e+00,-1.742863914784236856e+00,4.600261088742251481e+00,2.125065126665476090e+00,-2.392115687663301404e+00,6.984980385157589788e-01,-1.535500751348923609e+00,-2.190455612743914759e+00,2.633146278166648813e+00,2.449434903728145707e-01,-2.494782678158717348e-01,1.991289127871439080e+00,1.651348080000079932e+00,-2.987934395628466522e+00,9.349950232525818805e+00,7.732721530055353121e+00,3.869302706142125903e+00,-3.902361128120599432e+00,3.043316136721412324e+00,-3.858988275604831042e+00,-9.234009014617791111e-01,3.601317970251269873e+00,-1.647479948720847576e+00,-3.794787818760684051e+00,-5.031889775873162662e+00,-3.137771818192265361e+00,1.745922935906760065e+00,-1.123711208587800270e+00,-1.624870223402978597e+00,3.156600933457977209e+00,-3.605884173335383913e+00,-4.024428562987604430e+00,1.231608427886246249e+00,3.960115450715394836e+00,-2.149455696417092110e+00,-5.958163202358887078e-01,-4.353132806672286859e-01,-2.550003195620095475e+00,-6.892101909939113646e+00,-4.512166032860582376e+00,2.967981545054274584e+00,-2.979461771715389506e+00,9.207268404992634103e+00,-9.149617000993095495e-01,-3.355358170955351937e+00,-2.658470154348299364e+00,-1.439421825384036291e+00,-4.069070388697068275e+00,9.992894861124869410e-02,7.596810954354397960e-02,-2.108802828582304389e+00,-2.085541382549033873e+00,4.322803279861570758e+00,-3.848622198653630644e+00,-3.007331261541449141e+00,-7.698795298598724912e+00,-5.597549809928251463e+00,-3.283125630341668710e+00,-3.129937940369055482e+00,2.548908514830362737e+00,-4.157445862606614639e+00,-3.295234884535006348e+00,6.506058602740806274e-01,-3.026664304529701699e+00,6.200304053210132782e-01,-3.979379048563518761e+00,-3.182925068892888287e+00,8.273651116363792468e+00,-4.785541077526742626e+00,8.440451435331065566e-01,-7.028163563121699875e-01,-3.817751200770461928e+00,-7.057309048913298355e-01,-1.057281119795665703e+01,4.141641373830710293e+00,2.268038300013991648e+00,2.986872652464832356e+00,3.021665880512439450e+00,7.239056944431922602e+00,-1.085403600263083357e+00,-4.162780357051267366e+00,8.727993964530579518e+00,-1.216047596902030570e+00,-4.256533338008689604e+00,-4.193445959925598543e-01,4.238284445170041437e+00,-4.846769972006435445e+00,-2.205433705489291629e+00,-3.201933582572867198e+00,5.900376301651655275e-01,9.652424786152199454e-01,-4.549339371122631093e+00,7.557413762734572771e+00,5.997367677315214252e+00,-1.442655277824668181e+00,-9.673157937391078320e+00,-8.196941292241529453e+00,2.074672630456994682e+00,-6.243973661628112737e+00,4.877167951048303252e+00,-1.448010905910233515e+00,7.827747281100913668e+00,-1.235088038114722897e+00,-4.822799160963580967e+00,-8.140092378208967361e-01,8.861304585613383189e-01,1.828167018570371116e+00,-1.408542934502012400e+00,-9.567662546993101813e+00,4.868634370016377666e+00,-7.845644698609126166e+00,8.265203653298951458e-01,-8.306100919586315579e-01,8.197156963503301474e-01,-2.183732682722968388e+00,1.608482072105224248e+01,6.705620077973994064e+00,1.027844393090763475e+00,1.409409156202565683e+00,6.508843536854699297e-01,9.153282989342505227e-02,-2.203712907787700903e+00,-2.770141486770713701e+00,-3.977460168673899510e+00,4.330760918771882295e+00,7.702317777365422780e-01,-2.464617275871656688e+00,-3.897099379823961041e+00,-4.174912258530816267e+00,-6.774754344923118232e+00,1.789875411952284390e+00,2.414418160854754358e+00,4.477276423283285567e+00,-2.607131336625938989e+00,5.543673128096886060e+00,5.213790141023791902e-01,-3.328360858943906764e-01,1.689998404921148056e-01,-3.672902462723117711e+00,8.016437028966547640e-01,-2.781801487708661202e+00,1.327065724332040375e+01,6.372600398484648210e+00,3.236349032430036576e+00,-2.301856396503491720e+00,1.384043207486399929e+01,-2.151293497363852225e+00,6.874968518232893899e+00,-4.725335472412865556e+00,7.304497843047542460e+00,3.361708458451899417e-02,7.962937129779603218e+00,9.481148058766891040e+00,-4.534672451241912761e+00,-3.084449381084282571e+00,1.711556464675051958e-01,1.585898856348897823e+01,1.299326947463457893e+00,6.321608258195009711e+00,-3.834511184324508104e+00,7.533177994962310109e+00,7.708751629959973428e-01,-9.110757092127027335e+00,3.831498769677807559e+00,3.211705767570248060e+00,3.036010431882766980e+00,9.026620292915500388e-01,1.251388407792066282e+00,1.915909096497909081e+00,3.796721896239083627e+00,1.725308027603497329e+00,2.389534623282306480e+00,-1.654124820227198533e+00,7.398984513012079489e+00,1.289448283758477087e+00,3.120697833972331026e+00,3.994620676690279204e+00,-6.811547523479970501e+00,-9.727690580240949680e-02,3.833511677674709794e+00,-1.385435757783352706e+00,2.996718301579975652e+00,-8.747741400888616736e-01,2.470948708553083240e+00,5.316162479469383584e+00,8.752953340311989905e+00,1.605699996967110632e+00,-6.790899806444910425e+00,-7.388053116302230272e+00,7.168315988573216835e+00,-9.877958138756084416e-01,3.603325798582340145e+00,-1.266381506618410535e+00,-1.348877982990741575e+00,-2.728870568711771472e-01,7.384585044572178347e+00,-1.144849868942494409e+00,-4.842988403955088117e+00,8.886709466330896534e-01,-1.079193465704404220e+00,9.210839469415083372e-03,6.807967333398378784e+00,5.803699298317871680e+00,1.582052546597605858e+00,-1.743770769927215580e+00,6.723094374633807213e+00,-4.266242059739530079e-01,4.917102563303923368e+00,-2.974409528210544273e+00,2.248310347234213413e+00,2.313962723474019878e+00,-2.085443653782507401e+00,6.808846120957684711e+00,6.365897129268197396e+00,3.509447026319381102e+00,-9.274213073594548717e+00,3.698104757451381452e+00,-8.890649103617892512e-01,-1.304928771057089376e+00,4.799405091162819437e-01,-7.394133945487080251e-01,-3.097914351059392890e-02,9.965460804545629436e-01,-1.718134847570737733e+01,-2.763645520998292415e+00,-1.194767876391908956e+00,6.376853532054581386e+00,6.182093998970371596e-01,-4.245937271031645643e+00,7.204897768642584133e+00,2.586081750458864015e+00,-3.666834469700932075e+00,-3.932001093807869996e+00,7.415594993923148692e+00,-5.026084563612230660e+00,7.985384249122805533e-01,3.693917600243697752e+00,-1.382594146806072732e+00,2.552817611800074715e+00,-1.105865217760466646e+00,2.251083350348707324e+00,-3.657070694529931387e+00,-2.623053476495648684e-01,-3.915610513423691819e-01,6.609863703955830339e+00,-2.146419962867106790e+00,-4.734154568691361753e+00,4.089231679956963073e-02,-8.021383798907038010e-01,-3.596320024413218075e+00,1.263368998051201730e+00,2.591987500122202359e+00,-1.444884626123615234e+00,3.934217808486219603e+00,1.108196670903385528e-01,8.172876138881458585e-01,7.527495558415608912e-01,8.913010748517844917e+00,-1.736421511718270860e+00,3.335619647040700908e+00,-2.259702681771235788e+00,-2.544962962270902462e+00,-5.918612133871650194e-01,6.453568128188639008e+00,1.674206713561301907e+00,2.272243877462579498e+00,1.457824889968730497e+00,3.761027369943997556e+00,-1.629376142980256015e+00,-2.631361144201496582e+00,1.173175092205235970e+00,-9.818149537258848980e+00,2.783957069783418614e+00,-2.126184603484762015e+00,9.965673601374580581e-01,4.403625656564167379e-01,-2.279016254340075764e-01,-4.568701884781162015e+00,-3.351350417251619085e+00,2.348100024315802337e+00,-4.070699417371614892e+00,4.093769162650080062e+00,1.076628038619180439e+00,2.752006191096054710e+00,2.229338254660381047e+00,-3.328498097503044484e+00,-2.573874485301719250e+00,6.890360166185751645e-01,-6.332574003025219334e+00,-1.250486421528627101e+00,7.092586372597604605e-01,4.165033380047669098e+00,-1.099800596849525469e+00,6.419381336766172286e-01,1.341404124970058120e-01,2.694254030147411605e+00,2.412779015600683211e-02,-1.872918876072216188e+00,6.804402831298806298e+00,4.297638160840524968e+00,-3.684975922101796364e+00,-9.269442931631482807e+00,6.825353454909127926e+00,-1.883618436282658459e+00,-2.859212519438380173e+00,-1.024628128914809011e+01,9.878705703808263738e-01,-1.495930710156420851e+01,4.012595139028527491e-01,6.170690775482662538e+00,5.709572720315702066e-01,4.945643179729625416e+00,4.662662732699291546e+00,2.454595346905694697e+00,-8.840651691532780632e+00,-2.814696753321793032e+00,7.805352251984940537e+00,3.947836378867938034e+00,7.038658823304535517e-01,-4.457811669632151030e+00,-4.552624077211775422e+00,4.384419030139483198e+00,7.139989787450424785e+00,1.709203347924363348e+00,-1.985594956079125062e+00,6.518839796342144055e+00,2.885432033636103899e+00,-2.020401432831643085e+00,6.115226565363459876e+00,2.191588864006700277e+00,4.790754854933577001e+00,6.860623918852573055e+00,-8.875604434564061673e-01,5.050395486615427032e+00,-1.074731266194330015e+00,2.806459512327154626e-01,-3.047527708378226841e+00,-3.835243467761409786e+00,4.412951984891838597e-01,-2.551291649340494683e+00,1.293497088402532080e+00,-1.277766625607339890e+01,-1.462301068942929438e+00,2.376999229793248514e+00,-1.758737861163487182e+01,-1.203514418961393329e+00,-1.607088494670368073e+00,5.591441520434176304e+00,2.368915452696225721e+00,-6.799014600966448718e-01,1.726487633096634444e-01,-2.654636734360486194e+00,-8.620043587964557830e+00,2.564390123255265788e-02,3.597808551261919008e-01,7.644833558098247828e+00,-2.849267504603488543e+00,8.093036850496762025e-01,-7.104766490809962809e-01,1.368679786336505266e+01,-3.800556553719917297e+00,3.464274689588012990e+00,-1.728082727304917077e+00,1.300008582659876177e-01,-2.795505575105217577e+00,-3.135443811600245878e-01,7.465553842228771941e+00,-3.375675498421145004e+00,-4.342434915056964329e+00,-4.396821003893530921e+00,4.256658616474250145e+00,-1.052565637238890162e+01,-5.939415248815756776e+00,-6.449330180119904554e+00,8.466818686582801234e+00,1.450571846318676705e+01,-3.555542665467192887e+00,-7.999493563996781242e-01,-1.041965960557947035e+01,2.583978261868870252e+00,1.454607168175862109e+00,1.027228843390505686e+00,6.030087403924551559e+00,7.901757663836880496e+00,1.812263385087517165e+00,3.072457114897212627e+00,3.552983921646598375e+00,-1.062291047200449867e+00,-1.938804443085485607e+00,-4.192346209814878932e-01,-1.152027090232962259e+01,-8.625275681923043614e-01,2.043453261753524597e+00,8.825072559203205103e+00,5.947245908686037197e+00,-3.334403498588323522e+00,-9.152558561273295368e+00,1.736346272638417787e+00,3.641108811389127009e+00,-3.414132011009890277e+00,-1.364688349382596311e+00,7.662186796366724728e+00,3.799594123916511190e+00,4.462195340948068356e+00,1.938866322223767202e+00,5.081046389053850199e+00,2.395668056859843187e+00,-3.732680909071001807e+00,-1.646784167010444833e+00,-1.636937607869889399e+00,5.147429584093711485e-02,-5.337074135745896619e+00,5.848873670034381966e+00,6.586690130752349326e+00,-3.188960069862246449e+00,7.093086768752618454e+00,-5.647037612014631058e+00,1.096922844537043584e+00,-5.379005949846015433e+00,4.623740239377623240e+00,2.763227908909902997e+00,-9.342850125688112461e-01,-4.993014152813070261e+00,-5.847903682231900824e+00,-3.303812185532440271e+00,5.344517822601958734e+00,-3.493109288412676428e+00,1.227552485569697538e+00,-1.016685155803415119e-01,2.207703739463520026e-02,-1.621636597520121370e+01,-4.221897454952851625e+00,-5.970018585389534671e+00,3.656548134259149374e-01,5.604090764797089896e+00,3.248801114158299530e-01,1.298065301770770397e+00,-4.689181409548753288e-01,7.729119767818416697e+00,-4.015061466030839021e+00,1.120465586550941417e+00,5.092695056752984117e-02,-2.343824749134726382e+00,6.960786909022782964e+00,2.950061190647129905e+00,-7.881996686944343633e-01,6.733000767237848017e+00,-1.326212470643890384e+01,-3.908709113602152563e+00,4.368651870772897183e+00,6.327540708583423879e+00,1.473730249897878597e+00,1.843218920500725888e+00,-1.845605016906878060e+00,6.186419406391665987e+00,-6.462824789485106081e+00,1.055030379293731446e+00,-3.185989847246994078e+00,-2.650058385874366707e+00,1.998408493756278936e+00,4.069238532347509540e+00,1.149058905351265381e+01,-7.456830940216637726e-01,-1.214955570858527345e+00,6.324180224465830946e+00,-1.012019644863511036e+00,1.552592438249208451e+00,1.456138663817700518e+00,1.843305531315565293e+00,-2.560947094453184469e+00,-6.961039984697960925e+00,1.198521767098673418e+00,5.065753294399624629e+00,7.404253835014640295e-01,-3.408538881694589850e+00,-2.436349787205411843e+00,1.443100217481379843e+00,-7.289165238701759364e+00,-3.203322101190163362e+00,6.642596547609416646e+00,-6.271070491585222229e+00,3.555349051656972126e+00,-1.814702500104159455e+00,5.092473844250586801e+00,6.125412401698702602e+00,-1.887373793047728787e+00,4.460269098498252927e-01,5.540461674516735435e+00,7.370423308323906575e+00,2.219530276410036418e+00,-3.046867129586115830e+00,-3.857894020718129813e+00,-4.333267651359752115e+00,-4.770473534585749853e+00,-4.335048859958048340e+00,-1.589957558644731073e+01,2.279643278012621010e+00,3.235592732032551710e-01,-9.225785373455630989e+00,6.220454054941570554e+00,1.858539471332538717e+00,1.238119610142825566e+00,-1.664161105160717691e+00,-4.749616870584648431e+00,8.458930121837896721e+00,4.215290562846716327e+00,-2.456464594430260717e-01,-6.827890512385379473e+00,9.980705069179238720e-01,-4.008028338592053430e-01,5.806825592819443216e+00,-2.809227682041164798e+00,-4.065272128041042876e+00,-1.053914675954476188e+01,2.037090682352044269e+00,-5.708604773309227109e-01,-2.323443257741968804e+00,-3.626475674773589564e+00,-1.772727176936429672e+00,6.391393695625075644e+00,-5.789193936470321766e+00,1.536011046764210075e+00,8.480326607747823431e+00,3.564879955520995569e+00,-2.151126067064015324e+00,8.477870360387700366e-01,-7.135136657283769335e-02,5.779947793627317587e+00,-7.904888337024697620e+00,7.365075378088561386e+00,-6.103925099554816214e+00,-3.514323404148072427e+00,1.206820766913219378e+00,8.226700006940800947e+00,-5.790592675638448483e+00,5.094604474345819867e+00,3.270978809025334222e+00,2.234931545878711567e+00,-3.423556805592470553e+00,1.719616706051283472e+00,-1.165897210990521238e+00,-1.431635008206465498e+00,-1.099052944159598511e+01,3.609656081259983829e+00,-9.612519770297611288e+00,-2.090848557235743144e+00,-1.318966635484426775e-01,-3.005830782892621400e+00,4.099380977665356696e+00,-2.696816234786250988e+00,1.743115874118331243e+00,-8.147930244483915230e-01,-2.592639802982701802e+00,-2.578184875670423981e+00,4.845141265848640799e+00,-1.750257361123881195e+00,5.592186232453911998e+00,1.354422658011443126e+00,-3.846494857788100408e+00,-2.844061888615381672e+00,1.231176385328328404e+00,1.955662468328743131e+01,4.724482579327779597e+00,8.932567530188847416e-01,-2.437683562363082146e+00,6.100845884672414954e+00,4.244375775266229667e+00,-2.191947342023297551e+00,-1.495796667174309702e+00,-1.707396480923605075e+00,-4.017780168731273527e+00,5.116316827814907597e+00,-7.457866091662983976e+00,-2.614808876499153723e+00,1.839142576088550252e+00,-2.386702766580767854e+00,-2.497992634628921405e+00,9.436906602976083969e-01,9.849762462939584129e-01,4.046873809400000965e+00,1.071004262346736802e+01,-7.730977407631047349e+00,-2.886957979663131724e+00,1.775972027950433602e-02,1.553400426556913461e-01,-5.292326274767312100e+00,4.216655233643829881e+00,3.818674837371361708e+00,-4.767121293837089269e+00,-2.243503379904282724e+00,-5.380341166034890321e+00,-4.976726768180818605e-01,-8.579326731565117825e-01,8.820907942968025495e+00,4.943212655230881936e-01,2.941830628097310552e+00,-1.414769148723481917e+00,-1.235874204572081858e+00,2.659283881078322587e+00,-7.106751555117705621e+00,3.516411503299582186e+00,-4.514731892737732899e+00,2.739043724558198445e+00,-4.411772931626881444e+00,7.731781555781973125e+00,-6.062087369753023092e-01,-1.620844435044062948e+00,-1.268109100753074436e+01,1.139476447913125190e+00,-8.014669946729467753e+00,-1.586460185327681183e+00,-1.809731817607929116e+01,9.865871613228861747e+00,-3.483026589526388772e+00,-1.603654149381845695e+00,4.710012517859067493e+00,8.145361631791026014e-01,-1.379626859939649952e+00,5.318795137024633135e+00,-3.620056802685645891e+00,2.101020072732586730e+00,5.971235600644872576e+00,1.694081747281984907e+00,5.014633009615251380e-01,-4.372330638528536539e+00,-1.481689553920517932e+00,1.249363180367459164e-01,-3.398451935915213440e+00,1.458393705381024530e+00,3.628020885331209033e+00,6.017633288208393161e+00,5.964434297515939676e+00,1.062522926119122690e+00,-2.377715154696489197e-01,5.843251963241341329e+00,1.922911565243867194e-01,-1.141592109063285676e+00,5.521883178268889303e-01,4.384837023892457886e+00,3.545246146029890633e-01,-2.521924028089295611e+00,2.229000479140530899e+00,-2.424620430674407690e+00,-1.110448147939497687e+01,-3.836219597780566648e+00,-2.472086400832020914e+00,9.382741969881253086e-01,-3.921321110344346828e+00,-1.538074879565884068e+00,-9.052596293339263411e+00,2.559445406582696148e+00,6.422750106557951533e+00,-1.422360760280399594e+00,-5.501126155357236591e-01,-5.327110010020931874e+00,1.233413823945569909e+01,-3.375573706311653321e+00,-4.771666374265512989e-01,-2.052361260579023128e+00,2.019920357926007881e+00,-1.290958023301413127e-01,-2.827743921677318806e+00,-3.315696722974923905e+00,-7.309757154489068265e-01,-3.186126050697245304e+00,4.987631881221766150e+00,5.239981863653955685e+00,-7.403996743656524604e-01,3.375649397737860991e+00,-1.059282774422688433e+01,-1.222125489014501021e+00,5.094127512224821075e+00,4.250347732935802370e+00,1.836585958729338275e+00,3.744840745116847280e+00,-2.715573352471232216e+00,3.714908431481462436e+00,6.435759569034207317e+00,-3.164906423888128373e+00,2.253242564193072894e+00,4.932785082475182881e-01,-2.671054842832531584e+00,-4.686300424473708315e-01,-2.416521132543897554e+00,-4.302007014845388722e-01,1.386491964236022501e+00,6.366616019902047174e-01,3.790725712513736578e+00,-6.692086155280494886e+00,-3.669302728895842858e+00,3.915565887741008666e+00,2.034810354483938433e+00,-3.644486255030922606e-01,-5.075240302112079327e+00,-3.502819664853693560e+00,-3.910947528583939015e+00,-1.192836755674742566e+00,-1.627915348142996432e-01,1.890578789324906417e+00,4.957355796482191934e+00,6.191961275443960133e+00,8.703454370273204788e-01,-3.836417797633099092e+00,-4.297983371782812867e+00,-1.768907108325082689e+00,5.045401989288458289e+00,-7.050338235736743009e+00,-5.211107312235100375e-01,6.326647439990582544e-01,-1.188205717491330304e+00,-3.961448658323923344e-01,-8.148513511435528045e+00,-3.227850278092753711e-01,-2.731933179506956577e+00,5.195702331262273432e+00,4.297265684488015047e+00,1.662380420852227703e+00,2.230300293689671864e+00,-2.420587533841298544e+00,-1.427930383958804894e+00,5.539525743566351856e+00,3.084887133947250781e+00,-3.132801600142915088e+00,3.465294833078340631e+00,-1.831419092661869252e-01,2.884875867889806322e+00,2.160879059285456261e-01,-1.719283755215799792e+00,9.993719002767317491e-03,-3.082960988057881213e+00,5.360850214338292119e+00,3.699000649276092734e+00,3.949821090266921186e-01,-4.970103708269154374e+00,-2.506921490616608184e-01,-8.545536518755293409e-01,-4.310277743500410708e+00,-5.485031256984925108e+00,-1.044930741020383635e+00,5.272627999177390556e+00,2.479129815892794575e+00,2.251159791500121798e+00,3.284242442187897737e+00,1.371499894353035431e+00,1.870552880490686576e+00,7.387822875783160548e+00,6.482276432161488522e+00,-8.815495804093242072e+00,-6.441318192608615156e+00,-5.896417875302819134e+00,-2.227188313430402911e+00,-8.582371570221757062e-02,-7.575153972637738153e-01,-1.250738141738366727e-01,-1.366644203476113928e+00,-1.721235216787282418e+00,-6.203767812952779792e+00,-2.573028754290255904e+00,-1.627848895437899790e+00,1.652487498734250382e+00,-1.269685275771663457e+00,-1.183130697577469137e-01,-1.487049346868287714e+00,2.656401876050518585e+00,-4.002708556818107333e+00,6.308949544823421185e+00,-2.373259345125804831e+00,-1.923880207429312650e+00,5.053678637115406325e+00,-7.302673488441975280e+00,-1.788019889197089318e+00,-2.769035032592784606e+00,3.539175001715533231e+00,2.588654279456370055e+00,1.931088155818220242e+00,2.120174659960513353e+00,8.999512997362328903e-01,1.339953857416264826e+00,5.891446701412409226e+00,-3.238070690173147526e+00,-3.597219136032066000e+00,2.950115925850046672e+00,6.628952114303474197e+00,5.520715742962255312e+00,-9.561732907322529229e+00,-2.801099596383177293e+00,-2.974938550530480175e+00,-1.273793473880149518e+00,-1.179547990428573279e+01,-4.898339469560151649e+00,1.279803001302170395e+00,3.994842466690190275e+00,-2.425160231566879876e+00,-4.287068911123002035e-01,7.730149175282345020e+00,-6.036035801629581199e-01,-1.310694247952244762e+00,-3.388857627684589424e+00,-1.241380732829570288e+00,-5.038240169192792495e-01,-3.966801593221463307e+00,5.650324486521361322e+00,1.774984964077013783e-01,7.782073333118604275e+00,-3.135062172735536112e+00,5.912117344684736153e+00,-2.995063757461398080e+00,1.060408692368828376e+01,-3.308807442109353847e+00,5.321090655083268395e+00,-5.166911376856341498e+00,-2.675758107785275008e+00,-3.422788626569850390e+00,3.122330273176382232e+00,-1.734612192697492894e+00,-2.856822926292496234e+00,-3.946815651016603033e-01,4.414928939358663484e+00,-5.531776154563634584e+00,-8.962236773752030317e+00,-5.245645083244075302e+00,2.778587208706127853e+00,-1.185810163827369701e+00,-6.956289553238550027e+00,1.047050444458023533e+00,9.337276396527981248e+00,-1.022003736467245405e+00,6.716248234337697909e+00,4.088392697975806733e+00,-7.354019303320190604e-01,-2.163697970637079582e+00,-5.527911634621002435e+00,-2.609226482842172068e+00,-3.457869434515734142e+00,-1.115583199474599141e+01,8.886215136911430612e-01,1.416750465503627820e+00,-1.727265519411047778e+00,-2.254289789376450415e+00,3.320499159852730031e+00,-4.185062921781524281e+00,-2.738317226712933650e+00,-3.979722974698844506e+00,-6.758887882749419873e+00,-1.695839525813334747e+00,2.077307832992579817e-01,-3.262589745847920497e+00,7.975033814605463067e-02,1.965360556745548548e+00,2.664107015411086188e+00,9.706929115210489734e-01,3.609104978979813083e+00,1.210144181119971796e+00,-4.137622152051109031e-02,1.488475904603163080e+01,-4.547424052195278676e+00,5.405697056744491746e+00,-1.180916409287709357e+00,-7.141006991515014946e+00,-4.264415551428392348e+00,5.613147400215722449e+00,-4.422242191455094229e+00,1.411855932146306003e+00,8.109635868829348837e+00,6.333696511518247974e+00,-3.238806772144636525e+00,5.148113002320611198e-01,3.636146420327498241e+00,5.009229584562506332e+00,-2.472326432164755339e+00,2.174956243301583658e+00,4.665921552723578891e+00,1.448191878198811455e+00,3.127917658943658807e+00,1.429742259043720320e+00,-3.855596566276245696e+00,-4.840359733943294884e+00,5.928279006404235218e+00,-2.535054682766623824e+00,-3.226224620855432601e+00,1.845326557545959034e-01,5.584272425788433303e+00,6.505549859000207213e+00,6.407635178085948624e+00,-1.491985434385671772e+00,-3.362005924974721394e-01,-1.673032392193947837e+00,-2.998030007519812301e+00,-4.154841582091205687e+00,3.917041183862474352e+00,4.786897655357729597e+00,-3.220886765378859984e+00,7.785095574436915467e-01,7.334032902879191518e+00,8.423040877117887959e+00,-4.105968243066630552e-01,2.323586714712194023e+00,-1.635532724335471499e+01,8.074789629389254042e-01,2.251836714801126682e+00,-1.819948099636185201e+00,4.917442658055419358e+00,-4.189838044122933675e-02,-9.777201076580904981e+00,-4.679906961553936817e+00,-2.261631688106698762e-02,1.570299821659831396e+00,-7.381703033872425435e-01,-2.790245179963853239e+00,-2.561177944090127667e+00,-2.638146831443463292e+00,-2.447095725555262558e+00,5.627746780986380593e+00,-1.123167257160573529e+00,-3.130630056671129147e+00,-2.666851900089938443e+00,-4.337303247347501056e+00,4.921156586048389237e+00,-3.453456811036572649e+00,-2.216635094883883106e+00,-8.227706450960262430e+00,1.902899228259205877e+00,8.656408381969469268e-01,2.476553335833420189e+00,1.304266106826635463e+00,-1.764099737865184148e+00,1.491126149410180401e+00,-5.147936244181888776e-01,-1.981240016362603829e+00,6.046452933687720410e-01,1.385810948593663161e+00,-4.165155222527798351e+00,-2.832337343374578431e+00,4.887161771217630180e-01,7.926122074347058399e-02,-1.132317645515856119e+00,-2.345199758158968084e+00,2.473437463038666850e-01,-1.153553826243909786e+00,-3.314926134916341471e+00,-4.982117385753839223e+00,5.271932242274075087e+00,1.402487097368019464e+00,-3.044153134107750791e+00,-4.069349866562703255e+00,1.871896722845357797e+00,-5.914961720872664586e-01,1.494148028627945379e+00,1.365680178044959447e+00,-3.373381549369104171e+00,7.509587076819439488e+00,2.905613613184697130e-01,-3.682712249090231982e+00,-6.941928817443137056e-01,-6.511318845106857101e-01,1.755167802043893666e+00,3.524670038745028045e+00,-6.384619196149755593e-01,9.624652269696054585e-01,-7.508108777218216456e-01,-4.187193410260459103e+00,3.063509429343584056e+00,-2.472710115913099305e+00,-1.832317515048240031e+00,-1.386705216529638740e+00,-2.297472603550070325e-01,3.056767924051680740e+00,5.319421173908851941e+00,-2.990766322160440804e+00,3.514768832796842268e+00,-6.100873924576182716e+00,-7.149237532969093811e-01,3.054101592901711237e-01,5.562378064243396203e+00,-2.596790066929113294e+00,-3.800530584692105029e-02,-1.323335729032760089e+00,1.181501785323041398e+00,2.770380432522228542e+00,-1.945210255023425594e+00,2.066860294786399432e+00,3.570367147235488314e+00,-2.201005283089755959e+00,-4.234320064808837492e-01,3.625634149385057459e+00,-7.255040926688651304e+00,-3.598756835402619481e-01,-5.347576347739181557e+00,-5.081304749455908265e-01,2.299484008900884557e+00,9.180221723956856650e+00,-1.289668142881792434e+00,8.149781227084623936e+00,-1.297360135671521952e+01,7.164868882334897160e-01,-3.248730215284197698e+00,-3.647983100237992549e+00,1.710520270453886837e+01,-5.681050853356008901e+00,1.643900944369223183e+00,-3.579508581768177766e+00,6.741642663088877052e-01,2.301468130310352578e+00,4.461399764371953403e+00,-4.898074861398744040e-01,6.179113444858971071e+00,5.189524895017546546e-01,-9.126219883913840869e-01,-5.734061033653517825e+00,2.498676215368535125e+00,-1.982401468785583765e+00,-4.143465463406370008e-01,-6.671490216920117788e+00,-4.086317344720224121e+00,-1.413022144888701703e+00,5.721582169114350691e+00,1.683555617767185764e+00,-1.555857883236559491e+00,-2.712431856582302014e+00,-4.301649346396017037e+00,-4.531043945588490551e+00,1.663393136616668100e+00,-1.436069422760013925e+00,3.705040755866574997e+00,5.948407413112977160e+00,-2.159294370206993108e+00,3.441640363543456260e+00,1.800022837522404329e+00,-2.391016879134659323e+00,1.431606314959085920e-02,-2.323450929100973283e+00,-2.145596361493130377e+00,2.630700759747017781e+00,3.495508104223095103e-01,-5.808539632400255837e-01,1.766125449054069652e+00,7.185292553617225186e-01,-3.390531765423570043e+00,8.558258836167182082e+00,7.131843418296361925e+00,3.706614723313652160e+00,-5.143939334283513354e+00,4.075421468586323037e+00,-4.039917827927728133e+00,-4.297642217573581780e-01,3.848837742232990244e+00,-1.539012617374902359e+00,-4.185846690244759749e+00,-5.929959810810577991e+00,-3.623457630383557948e+00,1.397184127454599301e+00,-1.060139585809007690e+00,-2.409677233738491076e+00,3.034688303625023398e+00,-3.763102887617011394e+00,-4.436819195833327178e+00,1.252175492901347553e+00,4.741986751477636375e+00,-2.293480218152915473e+00,-6.123196952774627722e-01,-5.351144829423456484e-01,-2.597249176159244222e+00,-7.137371942402105596e+00,-4.601833336035649147e+00,2.637862000637464011e+00,-3.266304264408336877e+00,9.944891671281501644e+00,-1.272933066120736978e+00,-3.551047882181337823e+00,-2.976287490025886662e+00,-1.478140300229296100e+00,-4.328167330998088147e+00,5.892036234994373345e-01,1.313455512357780686e-01,-2.013023373314193343e+00,-2.484312824137423714e+00,3.998885608219501453e+00,-3.699439611680133577e+00,-3.159792251172782507e+00,-7.894715284863926819e+00,-5.005939002705025231e+00,-3.468196430603031288e+00,-2.556936841672335259e+00,2.683783262181552054e+00,-4.533362928335054498e+00,-3.084601486952307070e+00,7.483639628701747037e-01,-2.942575720230653502e+00,1.197263561689591999e-01,-3.560917338686477862e+00,-3.074902550491507736e+00,8.074873319359133106e+00,-5.179195699467919134e+00,6.713003710259733969e-01,-2.827333837023678909e-01,-3.976028386463332787e+00,-4.205007739485174811e-01,-1.054369380713304416e+01,4.679681469493755408e+00,2.924674884778327488e+00,2.672689484301844942e+00,3.148841120850724984e+00,7.642361359744984206e+00,-6.471181065101478946e-01,-4.130575867659971756e+00,8.957710156012710812e+00,-1.315320119735534199e+00,-4.243619934077700329e+00,-1.736041679960288187e-01,4.221529015349301694e+00,-4.987499959498425284e+00,-2.278380976314351436e+00,-3.104084238258424389e+00,-1.168216922828071574e-01,9.264672016025735646e-01,-4.691044996585387317e+00,6.719231312764586406e+00,6.803809063546058411e+00,-1.465774438459676476e+00,-9.793159590863822928e+00,-8.132629678281983132e+00,1.818548804894690951e+00,-6.231332108927149172e+00,5.278965770003412494e+00,-1.222225056651338404e+00,6.886172483994328353e+00,-1.095918536871822058e+00,-5.055064801294297361e+00,-1.053041831372894865e+00,8.664206615666502076e-01,1.666301674011026579e+00,-1.313709392689158095e+00,-9.250181932195777890e+00,4.916827588999312937e+00,-7.673087935330145548e+00,1.491157165237009474e+00,-5.214918391811963483e-01,6.333819627811316799e-01,-1.971169478215603288e+00,