9.881447586052522283e-04,2.028353044419025850e-03,-1.115032031971686542e-03,-8.904300185582572288e-03,1.093231260712356281e-03,-6.028273530617151571e-03,-1.757518032363152363e-02,3.618149456225305555e-03,1.593249317809326826e-02,3.423906616226634822e-04,-3.503678225383151899e-03,2.673587528426891926e-03,6.008438125989491686e-04,-1.262815568496247591e-02,-5.150973665286308345e-03,7.157452311718276970e-03,-1.171525622743118528e-02,6.572964783644533529e-03,1.874135322129127056e-03,-1.808104417228226842e-03,6.683155728834612105e-04,-7.310811921740753344e-04,2.113366132507464405e-03,1.170328295896907490e-02,4.436284725351824151e-03,3.430203611553956072e-03,-1.151070032089092018e-02,-5.585954063970904708e-03,3.159668722844702522e-03,-6.831685247516733339e-03,3.744587820546828576e-03,1.035194389115001549e-02,5.421059883515196541e-03,-9.108391004753180458e-04,1.726460947186804007e-03,8.060910259432924052e-03,2.541093241491794354e-03,-5.565173633515495787e-03,-5.568237936983574249e-03,1.156460179861683053e-03,2.228778825499592563e-03,-1.167115949214365955e-02,-4.801972290290165007e-03,-3.638620071904648430e-03,-5.596495974402200362e-03,-4.554164060027043534e-03,1.593223469223845751e-02,-1.144539986599839472e-02,-5.756103311175897810e-03,4.829902097532530296e-03,-8.731727416758977914e-03,-1.908322276287154886e-03,-2.403446712332638784e-04,-5.554235842570872072e-05,-6.459269640957813856e-03,5.050222799124145373e-03,-1.124993276397133132e-02,-4.828832951432401530e-03,-5.896792017646323297e-03,-5.800391283394125234e-03,9.636462041678756085e-03,1.185311706672791295e-02,6.650014928765763181e-03,-1.142549832786921363e-02,-1.119717987151470744e-02,6.059799855972255143e-03,-3.318377785110843484e-03,-7.462065307098538804e-03,-8.158067219190193306e-04,-3.273718117262233458e-03,1.607737588512433589e-03,-1.600887223216303917e-02,2.548262857085398670e-03,3.217140187757817817e-03,2.764205102095228152e-03,4.416760902626579209e-05,7.732752900579047822e-03,3.191237480418443288e-03,1.063560523702226056e-02,1.716842743818797245e-03,-1.330259656252451642e-02,-7.825690005330605478e-03,2.095435970683482904e-03,-1.162423318206206799e-02,1.030700953398302859e-02,6.053859311164883766e-03,-4.181014686991056314e-03,6.965149066302336357e-04,-1.380102743003703072e-03,5.846110075138076165e-03,-1.046283360649891137e-02,4.422173362934469533e-03,-1.653520944895193892e-03,-1.246758348750533207e-02,4.491564948608519833e-03,-2.844186756385274793e-04,4.695458764303184554e-03,-1.516887730088239961e-02,-1.407436712927052393e-02,-5.738870517960015238e-03,6.828022131621594264e-03,-5.102316456030555301e-03,-2.367852692699114799e-03,3.109575688121683171e-03,-8.337514341245225516e-03,-2.666072456839258496e-03,2.705873457847337866e-03,-4.068446561376170244e-03,8.828254327027542855e-03,2.665203365043809086e-03,9.352125856178306398e-03,-4.990660568688262341e-03,-1.083443771855418201e-02,3.004019434955531361e-03,-1.220749274714483246e-02,6.352181214705385996e-04,-1.743097385026120411e-02,-5.724555236177475241e-03,-3.211227178951737635e-03,-1.046389327006315905e-03,4.943552085799605197e-04,7.618469244168397415e-03,5.238936807596179411e-04,-3.685781469636335416e-03,4.128166902918743199e-03,2.826547966134258967e-03,-2.416001114191938109e-03,1.240347086384755403e-02,5.925476613080185410e-03,5.793971425882905521e-03,-3.318630738292033342e-03,-1.261695776553280711e-02,-1.495587199842486801e-05,6.138254324725329197e-03,-7.364287517242502912e-03,1.478590362118932522e-02,1.793622304878858889e-02,-6.810300963630565134e-03,-3.510350400232319264e-03,-1.121002582446409268e-02,-1.373945023785027621e-02,-1.327016948940220329e-03,7.383407940284619081e-03,-1.921436313618888996e-03,-5.351610509696516464e-03,8.625880401887343549e-04,-2.642939208994148559e-04,3.014683533816244019e-03,-3.028737761245613083e-03,8.911150543649782804e-03,-5.045300707995534987e-04,5.489984198893923736e-03,-2.372823065031657609e-03,2.091169556403290816e-02,-3.061569608622573442e-03,-3.842306203758776972e-03,-1.822562902044167973e-02,1.535315650068487352e-02,7.501682778102062785e-03,1.125119476773286074e-02,-1.093948835340641029e-03,6.813398102944532263e-03,7.469850073014139107e-03,9.923343253766885377e-03,3.337526265443948453e-03,-1.849324400631382299e-04,-1.295719014169222257e-02,-5.575673879564742828e-03,7.979908504146017434e-04,6.391094918546166154e-03,-5.374031541220295149e-06,7.268522335668771775e-03,-7.195595454266268641e-04,1.832161157716274621e-04,1.274179104491017858e-02,-9.273368079319315588e-03,-1.463087658575975593e-02,3.772674885240999160e-03,-2.647918716231973443e-03,-1.511630867239580241e-02,-1.882382816811770804e-02,-9.990610823771490720e-03,1.556879196298745216e-03,1.064671856894509362e-02,-1.997587708441450963e-02,-5.580481642724193295e-03,-1.977371243400117239e-03,-9.770577974695632273e-03,5.570392834032357465e-03,3.112242047038338809e-03,4.010010599184142023e-03,-7.241368661642665766e-03,8.719857120009577925e-03,4.315890386492622806e-03,7.530893418656071057e-03,3.095329673681090910e-03,1.548334269367444491e-02,-2.108696730807313176e-04,-1.345300999279402249e-02,-8.380844162585807805e-03,-1.170871589101849138e-02,3.876891686014166411e-03,2.309173411405408306e-03,-4.586591117287372519e-04,5.789461170815800826e-03,-1.334298459001093682e-03,5.143073674883455286e-03,1.219306610881648600e-02,2.153597409507516589e-03,-4.095510573040360078e-03,-1.637904100785417694e-03,6.340769346846092435e-04,2.608606294376471409e-03,-1.343103046227152146e-02,1.285063931928485254e-02,-7.614314777897042419e-03,-3.207004776391836516e-03,-1.649038036993774820e-03,-3.418677871920234104e-03,-5.039392070827508965e-03,-7.987005803884268326e-03,4.704903796616959760e-03,8.946444985376802300e-03,-2.469514107162817159e-03,-1.384701377970334619e-03,6.871970880158952046e-04,-3.736191409567524678e-03,7.837732444985036698e-03,-6.392444712707135226e-03,1.369636551796961192e-02,1.373557636826456228e-02,-1.758947105156049738e-03,-7.306720931246934493e-05,-3.333479876324658541e-03,1.430232305195986396e-02,-4.878340325744471434e-03,-6.881203984853702729e-03,-8.113545617880640534e-03,-1.793861989597576173e-02,-4.601362342959102424e-03,-7.315928087340955836e-03,4.400070601722288165e-03,9.053156315576325192e-03,-1.067623192230260018e-02,1.059133750397151658e-02,1.204879813714039398e-02,-8.579080637958359096e-03,-1.478916930871694048e-02,-6.648838632010817609e-03,-2.197897519057205248e-02,-2.862279049548575871e-02,-7.108960349236416801e-03,6.730789172549204134e-03,3.493437265998361636e-03,-2.629238141847304189e-03,-1.039274209680160314e-02,-1.191053693043618057e-02,2.511041530254551693e-02,8.592516272349423959e-03,-1.832044844514373744e-02,-3.378713213321807903e-03,3.228355971004610078e-03,8.306448458054392289e-03,1.305335109590479055e-02,-1.079093667395708382e-02,3.228723405684538229e-03,-6.694714696338967437e-03,-2.287425506599851527e-03,-1.107185900530896494e-02,-5.771990938510659984e-06,-4.784938609231215688e-03,8.540574352088026698e-05,-1.292348289300721334e-02,-8.066215570820697844e-03,-2.078434636299979557e-02,8.655931533333535710e-03,7.870618176973921427e-04,-1.268328463543499929e-02,4.029083507880342960e-03,-1.993183773460116635e-03,-2.151896072761993323e-02,8.116022186284713863e-03,4.607620543684630941e-03,-5.212319254735816622e-03,-4.004609585688175162e-03,9.823862721922713495e-03,-2.398775649268882273e-03,-1.099974688121512639e-02,7.454763157794087360e-03,1.647137349641395821e-03,9.689260783053470910e-03,1.044600163796389168e-02,-1.171647525736381479e-02,-1.286058825281804130e-03,3.101152264680693410e-03,7.739025004791145849e-03,9.720123980292096413e-03,1.130908064270308433e-02,-8.747607589178287013e-03,1.594183763528729883e-02,7.235548243469178478e-03,6.358182267195293977e-05,-7.050908763973014019e-03,1.289328343320238039e-02,1.689792404089931338e-02,4.333793349043375646e-03,-1.687851151326411503e-04,-9.550885589304312223e-04,8.215644744429356078e-03,-1.281326126568402973e-02,-7.778840064965046770e-04,4.467631213539071527e-03,-1.987155639448328834e-02,-4.466038484405165584e-03,9.127184420992423206e-03,-9.364002645584948090e-03,2.512081494923319724e-02,1.261195465697431510e-02,3.890808205913864025e-03,1.222774333293710075e-02,1.643271399755817305e-02,2.505775002162665029e-03,3.597225457927477957e-03,1.682313416015246074e-02,-3.911199199489416058e-03,1.950567901134812529e-02,9.765819033419084576e-04,-1.634568643924219286e-02,5.246650038794684751e-03,-1.065621110559516940e-03,-2.058998480117407021e-03,4.879834382892764798e-03,-4.458561365541422426e-03,-1.709018690773063398e-03,4.878670716123230909e-03,-1.113150163559230299e-02,1.593069277329554195e-03,-1.195078112804794611e-02,1.191169025972420477e-02,3.350582650522413233e-03,2.439763370952172366e-03,2.188778714186736824e-03,-8.705681315927768808e-04,-1.433131812877025055e-02,8.043082378163972368e-03,-2.696550314423806684e-03,3.224785610102095992e-03,-5.615519536115914923e-03,-9.038002791581538006e-03,4.085894146715788461e-03,1.314789292940616965e-02,6.171288844471652796e-03,1.041325242456133532e-02,-6.158376888625556080e-03,-1.424324267941522865e-02,-6.753011317454389768e-03,-5.916693257713893407e-03,4.703556690316690325e-03,-1.834468947513609362e-03,-1.169784057340935400e-02,-1.587564631857675546e-02,-6.240610858580520649e-03,-1.903262012063629358e-03,9.438885371950650124e-03,-1.742420581954529438e-02,-8.799282858762072154e-03,-7.360144235211672943e-03,-6.147835407432349075e-03,3.750813645437649051e-03,1.372583153875652981e-02,-3.203640960343034482e-03,7.476334631793720049e-03,5.799550048324569711e-03,-1.999570692394491214e-02,1.976835227916643942e-02,3.048804660680558450e-03,1.239658460983674923e-02,1.552575949635689664e-02,2.940883974691485981e-03,-3.378369060715945716e-03,1.035995448895728720e-02,-8.037145271976445585e-04,-1.263227466563718836e-02,-1.544660613667271816e-02,-4.721796092678563067e-03,-8.024921172502641475e-03,-2.233975332229830042e-03,-2.714560413102963705e-03,-5.590002620755266799e-03,-1.617434962490889999e-02,-6.566170281504531137e-03,8.109230521674118440e-04,-3.037411990358154269e-03,-4.612431146968853923e-03,7.957376983794598683e-04,1.058985930404277844e-03,4.965254211772964291e-03,1.157696591803971178e-02,5.317213252977633087e-03,3.481075912727902948e-03,-2.265971249272677023e-03,-9.561442257486948287e-03,1.347135997424653460e-02,7.750186879908371046e-03,9.813653368620211051e-03,-1.374280324390913556e-02,3.582179933438242071e-03,2.326412496509134512e-03,-2.758000300977962380e-02,-1.848574970990309735e-02,5.016892461666409321e-03,2.091223320457969315e-03,-5.496620326800588131e-03,-2.830577078159388169e-03,6.175160064128613728e-03,-7.238089829008381541e-03,9.203872713217150364e-03,-6.424492015134971798e-03,1.421202495427585644e-02,3.929530048620090248e-03,-1.083866950359655074e-03,-1.380640289512405534e-02,3.192294979894792512e-03,4.465075719545344088e-03,2.577680752140456069e-02,-2.160144067095866663e-02,1.354282689856057924e-02,2.268502520742358888e-03,4.285623788119993435e-03,-1.353018942257050786e-02,-6.930585349035347890e-03,4.752022289616096573e-03,3.101703460842120032e-03,-3.423099405131930367e-03,7.845581594102655001e-03,8.339213458228167050e-03,1.321189878424988001e-02,1.292003694054781604e-02,-9.534994956531649005e-04,3.180358110888494017e-03,1.631799897608604056e-04,3.318266597127030731e-02,8.247111211717929324e-03,1.095376867544502891e-02,8.497975772489244073e-03,-5.033352513369168842e-03,1.135153059058542288e-02,-7.119314168942956697e-03,-8.590181675905210826e-03,-5.966520938114960176e-03,-3.225317627556195926e-03,-1.465886707839820537e-02,-1.935111244700873272e-03,-1.565810741746474733e-03,2.735511018305702806e-03,-1.170822837469653009e-02,-7.379037480421050781e-03,3.304717863023410532e-03,-6.308527773912714701e-03,-6.439115351621410403e-03,-3.059822930794469514e-03,2.762071082392833499e-03,6.181708227842543611e-03,-1.514615124538970254e-03,6.336007168393654326e-04,-6.766351194993958790e-03,8.238183940542109524e-04,7.986523993071975927e-03,-1.314146743027968384e-02,-8.577704685423305150e-03,2.851177615831274742e-03,1.770168445728459786e-02,5.067503480892219386e-03,6.912290411419589990e-04,8.180800847081604737e-03,3.162931493105978261e-03,6.837406384350795847e-03,-3.942322320836754573e-03,4.585837819308811493e-03,-7.164912749669806111e-03,9.458878314444807422e-03,-3.040375940634473090e-04,-1.333548103928299325e-02,-3.135128857340361945e-03,-3.811054475445315413e-03,-8.176763788764683863e-03,3.348144541238502747e-03,-2.600506821046142357e-03,-1.485309920034639554e-02,4.571885269859940308e-03,-4.446307054764373629e-03,4.454112555340171073e-03,-3.271721603022078890e-03,-3.436549164491066715e-03,-1.055780363202100253e-02,2.363439091402076610e-03,1.365478515138562367e-02,-4.140885344296676637e-03,6.346630273173147971e-03,3.593261879699955180e-03,8.731641618613709358e-04,3.296920638735246177e-03,1.577787626156965800e-02,1.525273212959697873e-02,-6.022884169713942602e-03,-5.324073458894362093e-03,-1.488944829294004853e-02,-5.975129842173850653e-03,-4.572163410417409007e-03,-7.175817209615783197e-04,3.483508776479397016e-03,6.694143627582326873e-03,4.455038674175148573e-03,-9.422177569200987021e-03,1.073234939979763464e-02,1.285207715498203128e-04,-1.415484518431209433e-02,-1.443928465024416422e-02,-9.245796207208206025e-03,2.699844645658912995e-02,8.608197955766146506e-03,1.181247136235485072e-02,6.044163220000933236e-03,-6.773764700314462497e-03,-7.101883012642937719e-03,-1.246879758712213584e-02,4.495282943937009036e-03,1.260457717805377534e-02,1.131026568940914773e-02,6.101911831689399435e-03,-3.433704150201814624e-03,1.097287484022956700e-02,9.491695074972460178e-03,3.702028417358733947e-03,-1.685403182141699541e-02,-6.950819722728506823e-03,-2.822518212394512557e-03,-2.466478114126291563e-03,1.131177460765501411e-03,-1.265314015540062315e-02,1.402052303813734399e-02,-1.632440101320357245e-02,-1.776214335132794697e-03,-1.453741056985253209e-02,-7.523419768849936781e-03,6.950221655386837165e-03,2.149242839006734393e-02,8.817264319502807896e-03,-1.344530598574641619e-02,-1.451101326735518282e-02,-7.215273567490396167e-03,1.892526233773933822e-02,2.979663497400481930e-03,9.346875330782954128e-03,1.461319382269601549e-02,2.392152420803182744e-02,1.327214107198339960e-02,-4.010312081741347449e-03,-1.281058129291089663e-02,-1.729547029472279767e-03,9.885591676212116680e-03,1.828290924538598233e-02,9.081564460637910063e-03,-5.335140485891567801e-03,9.634594147482172105e-03,3.172747719779212428e-03,2.017797661697904796e-02,3.585470336975256616e-03,-1.216843252136600752e-02,-5.486399946862342315e-03,-6.054682166967932135e-03,2.638964801453426347e-03,1.867767273938798767e-02,-6.503481901087120910e-03,-3.179301264289726651e-03,5.575059188653071728e-03,-1.031293768091046635e-02,8.705704377047179809e-03,2.657330991811372028e-03,-2.418304408645159838e-03,1.418339444833370717e-02,-1.304274097753078780e-02,7.157291256918953647e-03,2.793892718833374846e-03,-3.658980747568929548e-03,9.830441285164262522e-03,-1.647786064338128617e-02,5.948002255312617378e-03,6.548064903965005422e-03,-1.222520118443257316e-03,-5.579516005119480003e-03,-7.015697133783201089e-03,-1.813549307508971475e-02,-7.147078241221359145e-03,-2.714305651118445115e-02,-1.453823591701280428e-02,-4.738372557084345911e-03,1.358335295764627427e-03,1.125252193739085735e-03,6.910926276107121936e-03,-1.658170394821174842e-02,3.236192017149123849e-03,6.835915408705833633e-03,1.255177234371019322e-02,-3.261854785457505256e-03,8.683550739234050658e-04,9.081222566593172025e-04,-5.640411206995271307e-04,-3.874003056450052961e-03,-2.925007805526622703e-03,5.446131018561268730e-03,-7.188252440704146796e-03,-5.707904618624888050e-03,-1.385894286852086196e-02,3.569792057895745073e-03,1.429465484058230901e-02,-2.470141684676937024e-03,-2.251755231026863254e-03,-3.873288160117002461e-03,9.728474425164314321e-03,-7.326175735880727756e-03,1.507192420383110694e-02,-6.093609365715895766e-03,5.764700817174689233e-03,1.843040989291136640e-03,9.836955851907974377e-03,-5.548952226611841496e-03,-1.362610797724663099e-02,1.286450647721260922e-02,1.419872775818577064e-02,6.839687720820057833e-03,6.108724953563581667e-03,1.068769356231167190e-03,-9.232473299678066805e-03,2.278954695270465902e-03,-3.179257380687204853e-03,-2.048202063883606573e-03,7.085586919328786329e-03,-7.625417327848115628e-03,2.542315850134319998e-03,2.129897047024404723e-03,-2.667442802720547054e-03,-3.370367193351236478e-03,4.826018190430590195e-03,3.101456223002745007e-03,-7.985780621005753380e-03,-1.564631604234471406e-03,1.040735371463821606e-02,-3.397117467904583847e-03,3.272598695061377204e-03,1.293528937024941532e-02,-8.901376110946804601e-03,-1.645085087570253082e-02,-3.300485341021614297e-03,4.236842900022734504e-03,1.405895326373155993e-02,3.586256683666165252e-03,-4.024617871701346820e-03,-8.553439857671357033e-03,8.883479870546932833e-03,9.396335006470480852e-03,-3.323612716829953129e-03,-1.426694711928190237e-02,-3.733448019698651019e-03,1.018978703922085449e-02,7.646579586256966286e-03,3.402872059195928035e-03,1.238579167351772613e-02,9.510772134240163059e-03,-8.402507068148367189e-03,-8.454688595024422229e-03,6.593365690776196997e-03,2.165906877720782876e-04,-1.548919906271341122e-02,-1.401641970678465902e-02,1.502259000874908365e-02,-1.192664682331547737e-02,-1.169081401857766621e-02,-9.697108020610271592e-03,-3.731295570112473214e-03,6.427018596969622443e-04,4.871414883556766939e-03,1.008440015622884094e-02,3.993078272607010482e-03,6.894238118612814464e-03,-1.750210817731304852e-02,-1.321666386179998556e-02,4.848665454596022550e-03,-3.070167113705959527e-03,-2.567232504178504522e-03,-3.740528596287440773e-03,4.270476342500990723e-03,1.397934306300266383e-03,-1.621112850679400086e-02,-3.678134380475343856e-02,-3.830123527091484556e-03,-1.776538621385176375e-02,-3.612966260667024431e-03,-6.891558053952913203e-03,-1.045170857980772493e-02,-2.024685222997222103e-02,5.291898530539475808e-03,-1.385903560969478990e-02,-1.207840264751035113e-02,-1.503864408045281313e-02,-5.598606349592874509e-03,-1.495264416533240333e-02,-5.202266970642914663e-03,-2.457430256634079296e-02,-2.057762581806345942e-02,-9.044734153294887655e-03,1.779144217067301931e-03,-1.303373265994032908e-02,-7.807569559297363078e-03,8.088177327717823578e-03,1.684170219817016610e-03,-1.016557810637163869e-02,-5.100401192493448331e-03,1.372585498093465296e-03,6.260379806470342708e-03,-3.114372576014702750e-03,-2.583894905217081622e-03,-5.483296733789532092e-03,3.471219256974534314e-03,-8.331343585647807762e-03,6.775709549141848732e-03,4.304855480526496858e-03,1.045018429208323905e-02,-1.461034861847609011e-04,-5.135577068104821806e-03,5.869059184768339772e-03,7.348172801130692204e-03,7.360531308274858783e-03,-1.889874340282048440e-02,3.677931832902852759e-03,6.707820452454202331e-03,-1.357503499649210035e-02,1.873450806039704195e-02,-2.027384192354585515e-03,-2.041963436194229979e-03,4.181864430623836483e-03,-1.932303538698801337e-02,9.769595711584859454e-03,-2.226480991299820481e-02,8.026136777775704639e-03,-3.321854278366090114e-03,-1.961825444160759761e-03,-6.185565954632296463e-04,-1.383114637671865573e-03,-3.957679346085022157e-03,-4.335776324519844543e-03,-1.974626396673685377e-03,1.557179781167241576e-04,-3.636474262184854339e-03,1.028884418394267544e-02,1.328046222068954632e-02,4.626349564577467328e-03,7.240844134490372584e-03,1.002764195816875648e-02,-5.723080445315881573e-03,-1.709845761127418888e-03,1.686214943945000405e-02,1.054583602304471311e-02,-4.209365390022754396e-04,1.510392094467504290e-02,-9.657148084895572290e-03,1.490182411835169578e-02,-5.232325843271146831e-03,3.501786349921042450e-03,-2.590490857232391822e-03,-7.476320594067939647e-03,1.116665733211325874e-02,1.035057732888382151e-04,1.875434696633557566e-02,-3.820653341999209578e-03,1.704597019329332289e-02,-2.855652040001995830e-03,1.202702601431153429e-02,8.591473705107982931e-03,-4.408715487898620493e-03,1.266715602869798209e-03,5.198457116418342926e-03,1.852699432504227930e-02,-1.215018774746285529e-02,-1.454998992395046577e-02,-2.841936938995644896e-03,-5.124378829209554065e-03,1.436270497341372160e-02,8.640412903805121114e-03,1.928704009083360982e-02,1.141130571318674236e-02,4.702120648628807520e-03,-1.908361647640855339e-05,-7.463301837125877608e-03,-2.507769554604923415e-02,-6.949920413905254744e-03,-1.298520061344687632e-04,-2.037047469281959809e-03,-4.263800748410528745e-03,8.792510531137186225e-03,8.106576793244300860e-03,4.598430960156554663e-03,1.429253455281844637e-02,7.654149057175558407e-03,-1.074965021835461859e-02,4.647858937409571128e-04,-1.202901560330663956e-02,1.239877553772932581e-04,2.113524496746913006e-03,-4.633680400039502656e-03,-2.096334088699421117e-02,-1.263563491553636349e-02,-4.176387129620402240e-03,1.228249772710778183e-02,2.273034839597217263e-02,1.572776815228233566e-02,1.270788803377697999e-02,-1.747993099960987824e-03,4.298592261595914586e-03,-1.217388715043370324e-02,1.031503092248045074e-02,5.148376239930019076e-03,6.631575485966296514e-03,-2.205694780590403744e-03,4.354476499489334795e-03,-2.081847019854944462e-03,5.863651102389095572e-03,-4.234329744766376392e-03,-2.181783367445873281e-03,3.333796616740651586e-03,-5.210884181172349520e-03,-4.401932139713723990e-03,-1.646193146737820814e-02,1.755645000923462470e-02,-6.401763775039653534e-03,3.782992160706989161e-03,1.006362305644671476e-03,-7.536784306200902672e-03,-9.447379012997820591e-04,-1.092468838997636424e-03,1.123329226215105149e-02,-1.495371086991509162e-02,1.302010684422695574e-02,-1.927799500864288071e-02,2.946015739384902007e-03,-1.319412990514316677e-03,5.595676989376437496e-03,-1.072766531608163910e-02,-5.081760402878165994e-03,-9.225803859369855961e-03,1.739917749650505413e-02,7.098707914781773876e-03,-6.326354830025929243e-03,-1.712680248199016653e-02,-4.194092460964985759e-04,-9.771045636598751916e-03,-8.887493010823694153e-03,1.157398498109228797e-02,-1.183970174177498801e-02,1.990388502922690872e-02,3.850671597984135254e-03,-7.968967302953936654e-03,6.972814719543122056e-03,2.167007612296433655e-02,9.947720301038645574e-03,4.951450452312790990e-03,-1.222378015863442684e-02,-7.443600678514804107e-03,-1.204444144360538975e-02,1.191395186403387558e-03,-8.992379533327557245e-04,2.335445271283145482e-02,-1.423070511393357586e-02,2.231453199624479702e-02,7.442094329773650020e-03,1.233500578723410127e-03,1.335752859078706556e-02,2.674721659952597908e-03,-2.385525512069984824e-03,2.425692909912440225e-03,-5.287875889945419048e-04,5.344545374066384663e-04,6.092058807676272239e-03,9.485471683863117270e-04,-7.686536809233802253e-03,9.736189908343963542e-03,-3.845408216785515566e-03,9.836193284813216000e-04,-3.159461094447937879e-03,-4.581274581298435365e-03,1.662691620460182707e-02,4.815458022185053165e-03,-1.208391053391465013e-02,1.022370593160121764e-02,2.948724479194933957e-03,-2.459605640477169342e-02,1.973223953145024790e-03,2.681842621616158107e-03,8.868050257279066692e-03,-2.949027052731995405e-02,-4.460125359869380503e-03,-1.134843812989231107e-02,-2.382934715645209506e-03,-1.047216074248978786e-02,-1.402707054098030828e-02,-1.120351862796046226e-02,-3.104770762486155564e-03,9.054672330027895358e-03,-6.815126397806282182e-03,9.366003785953062530e-03,-4.965353026411190550e-03,3.700780283162059207e-03,-6.521665039788087162e-03,-1.697459293881762796e-02,4.984818461216128024e-03,1.384643970884093071e-02,1.234592162766588556e-02,-5.966268531533768654e-03,-8.535193284009983880e-03,-3.604137255257506851e-03,9.840808547015508778e-03,6.453838650990299797e-03,-1.612724057584418932e-02,4.398327517716494293e-03,9.559901837347664286e-03,1.208053330831640113e-02,6.654685429050575911e-03,-5.250788098623506220e-03,-3.224191417916562417e-03,1.722655735671604557e-02,-1.980455879453564896e-02,1.720778424576047821e-02,-7.053656564266801848e-03,-8.785326300126360816e-03,1.541156770928520971e-02,1.441327179149692363e-02,1.975438971815319123e-03,1.696190847395798174e-02,-9.015488265853978476e-04,-2.249603669309360732e-03,1.510256641005497218e-02,1.252844617247515085e-02,1.127722906691285519e-02,-9.353669394171208046e-03,-3.303227559081546409e-03,3.388479570001057001e-03,-7.483726166768540824e-04,4.404359747774015503e-03,-3.687255110367756994e-04,7.205705061948363722e-03,6.052953062028149783e-03,-4.205425209429282558e-03,-1.065532249540826265e-03,2.014294773422974777e-03,-1.321450981949024751e-04,7.390803688212491812e-03,-5.185938011995647710e-03,1.023482855783053314e-02,-5.980132308896374824e-04,-1.473763207845785010e-02,1.340867740979396041e-03,-3.613739301042267864e-03,-5.676749921678662025e-04,-1.269093200106890737e-02,3.999836322942922941e-03,-7.921433522922845943e-03,-5.419237536982118419e-04,-6.543097279874793802e-03,-3.401681535233990524e-03,6.844220149821254179e-03,-1.655516640627503842e-03,-5.508204202424408016e-03,-2.677946784709793731e-03,-3.575904054841730958e-03,7.875767530344364442e-03,8.278808415321861885e-04,6.995122364508746422e-03,4.732421238314874455e-03,1.357886377806923582e-02,1.511444602225640692e-02,-2.217245244008161399e-03,-2.067053564966254975e-02,1.141959013252439627e-02,1.618274209487838636e-02,1.559759497637496981e-02,-8.679195620847918874e-03,-1.616880948088098707e-03,9.135885574904003149e-04,1.116190208045792593e-03,-8.668225077400426234e-03,-9.228196497943654333e-03,1.324849429637069143e-02,-6.763379043447080921e-03,-4.244937241405529957e-03,5.633814481156690888e-03,8.154740302335787214e-03,9.378033967089404246e-03,2.060439194899272436e-02,6.155135211461267714e-03,9.508768726156422227e-03,5.608691467032108149e-03,9.881447586052522283e-04,9.881447586052522283e-04,9.881447586052522283e-04,9.881447586052522283e-04,9.881447586052522283e-04,9.881447586052522283e-04,9.881447586052522283e-04
