-4.064727178295252763e+00,-4.145845558595405045e+00,-3.283649983072662426e+00,-5.846190426735809353e+00,6.064443927562802372e+00,-3.307348547058355681e+00,-2.463068995067807521e+00,-1.468848986268175505e+00,-1.967233414960231977e-02,-4.388658580565618195e+00,2.671091733614865404e+00,-2.470635934512736664e+00,4.361304028147023892e+00,-2.720306977322143549e+00,1.774501872574059336e+00,2.323902784102914509e+00,-3.582009121863607870e+00,-3.381368268424798096e-01,-1.039750317220246911e+00,5.467152186847876738e-01,-4.298162554807523072e+00,-5.985131526461567653e+00,-2.840276939845681525e+00,-7.570096512243792652e+00,-5.200939210350610242e-01,1.119321110319346957e+01,2.211542075146054831e+00,-4.095158906493689410e-01,3.480033095165263823e+00,4.366583149235076511e-01,1.812644349905423224e+00,-3.217477964861224393e+00,9.030057059411959131e+00,-4.745938184634135304e+00,-4.677491035378892548e+00,-3.612193456737753827e+00,1.293805413737449950e+00,1.976822261078488552e+01,-3.013841144960449636e+00,-4.684916416618704282e+00,-4.533417651033891715e+00,-7.297986993850654969e+00,3.437016053012952099e+00,-3.001713093335567351e+00,-5.191197767065947488e+00,2.924265504765574342e+00,-7.271809358984499205e+00,-2.803596400288162815e+00,2.603190193045927714e+01,-4.537495673846035693e+00,4.359750769476553600e+00,-7.353815299782875403e-01,-1.682344933483909788e+00,1.307548166872917328e+01,-4.156815005452341616e+00,-4.216045023327751551e+00,3.364636082022579355e+00,-8.289016283634500937e+00,2.760782330729830747e+01,-4.322054584704290825e+00,1.068526835174987477e+00,-5.656165364601681844e-01,-3.380483146449929865e+00,-6.717952462360924137e+00,-3.670154662512407295e+00,-2.974934149651104143e+00,1.948138806000733858e+00,1.256747343866766453e+00,-2.102362743631041031e+00,-3.184029500934773438e+00,1.568072369453496151e+01,2.785492222029415377e+00,1.118828744063542224e+01,-2.628380814212885497e+00,-8.872020277358401152e-01,-3.150827605871923343e+00,-3.078590093634867575e+00,-2.647069800254510330e+00,5.683651222079957321e+00,-1.671962875658626446e+00,-1.925360494095894603e+00,-1.476415501502575944e+00,-5.490307231064957882e+00,3.927436701427549637e-01,1.307527498935227461e+00,2.325207601261590895e+01,5.660560143485859896e+00,-4.016288845533630081e+00,5.613306195440046498e-01,-8.489019067657507245e-01,-1.279872163553729347e+00,-8.004832445872646085e-01,-3.171814832181655941e+00,4.188394291673593450e+00,-1.240246158114078900e+00,-5.084242785970181977e+00,-6.020634021839821770e+00,6.006469074034828992e+00,3.631831153349919017e+00,-4.117585547175090177e+00,-3.024328454707352343e+00,-7.727399776520090136e+00,-3.685678097694092159e+00,-4.036805437276819397e+00,-5.610093534657493386e+00,1.294187982829956063e+01,-3.161931283402245718e+00,1.953899569067099717e+00,-3.270744840584158819e+00,-2.822139534752313050e+00,8.762216838002091279e+00,-5.782041416439152037e+00,2.724430100138613753e+00,-2.821107519254584695e+00,-2.911829218213915382e+00,-5.711697869658372007e+00,-5.850109225568232318e+00,-4.526942869665273150e+00,-6.875850336611805780e+00,2.237939972616543205e+00,-2.283486961358314637e+00,-1.788939922779911651e+00,-5.453503768505157723e+00,9.033375106424058387e+00,1.419573056077704676e+00,3.769686387643798042e+00,-3.232367651462207725e+00,-4.887604020383771619e+00,3.181135533291089335e+00,-1.482433413776064635e+00,nan,2.410971456472792498e-02,-2.541381122513808766e+00,5.198946660498230621e+00,-7.774834043601577704e+00,1.138542027033994231e+01,2.904166429928143778e+00,-5.148743984006190821e+00,7.931878365310238266e+00,-8.112009355513587039e+00,5.212382554458285799e-01,-2.717083201981546736e+00,-1.890363838477122416e+00,-9.460851063787545812e+00,-2.784714252817894753e+00,4.388535417640140324e+00,-3.203711245349492032e+00,-2.531533186874037611e+00,-2.891398492157244426e+00,-2.069014213844397432e+00,-5.452044743296719176e+00,1.111755750254489605e+01,-4.784707017271843554e+00,-6.778437348059701328e+00,-1.088441703532997851e+00,-4.465857284233963220e+00,-3.449906568871217161e+00,-3.547632478547442680e+00,-2.035062301784994698e+00,-4.693494511260468904e+00,1.295387745619599684e+00,1.139793233403419315e+00,8.610553707749588614e-01,2.615540819181403798e+00,-3.697492995650077496e+00,6.882949994217829826e+00,-2.281244709398501325e+00,-2.781864396942951512e+00,-2.434831554077161897e+00,-4.785306232151629757e+00,8.202263623758481614e+00,-4.982594367663805812e+00,-4.798334445699412143e+00,-6.739490206412533269e+00,-3.129687082771519524e+00,-3.837074774095130536e+00,-6.674747573184538929e+00,2.319275162305729054e+00,-2.366642710325954191e+00,1.055581327151511983e+00,-1.025515331450381540e+00,9.004132114560174927e-01,-1.978673049759057223e+00,-1.420388126744919211e+00,5.100889861837315742e+00,5.554974747546029157e+00,1.046423039409304367e+00,-4.530142915573049933e+00,-5.505416709859968449e+00,2.132493954791687685e+00,-2.813945927604949659e+00,9.999244787711277782e-01,-1.383181854818755108e+00,-7.482883641641231431e-01,-1.422574674282470752e+00,-4.619386177257514881e+00,-3.931482281159918823e+00,-3.250698702166554543e+00,3.432313662724062464e-01,3.270455809550817605e+00,2.513827909093486923e+01,-3.904373434129758458e+00,3.354327262304356072e+00,-4.946664512521608437e+00,2.275797343225506708e+01,-2.614573024333722628e+00,3.844229259790608172e-02,1.211911490809130854e+01,7.549340545959563720e+00,2.430356612729193788e+00,-7.113635209536955939e-01,-2.679504363435237568e+00,-5.946522798272418697e+00,1.432187923911496696e+01,3.027798272745644947e+00,-1.357041777386524262e-01,-8.979641650615481918e-01,-2.929616229514500958e+00,-1.756764650785115345e+00,-3.453551723244328464e+00,2.521203285834896946e+01,1.516337942296842378e+00,-4.366777787306008740e+00,-3.309833364200938988e+00,-4.892445339155109818e-01,-2.477232553294390627e+00,-4.331892420849348113e+00,-2.705624872472122355e+00,-4.019840307240578170e+00,1.240987162809285144e-01,-4.960635900486833449e+00,-1.177366365843602658e+00,-4.401773119868680695e+00,7.190209552678478389e+00,1.264915358786422495e+01,8.309802721098892564e-02,8.726573941236914322e+00,1.766207357842809600e+01,-1.051312355611178440e+01,-5.134975869088352241e+00,-5.214729204104973981e+00,-5.757947566519965754e+00,-1.127093591849034304e+01,4.166555123834449148e+00,6.015192326193884220e+00,-3.491694752418019299e+00,-3.980180290816119015e+00,8.476776013468809712e-01,-7.491040502728755435e+00,-6.598052480917023788e-01,-5.671195311212018364e-01,-2.172740100518801842e+00,-2.068338077459841884e+00,-3.507002697801390401e+00,-6.714334741255177263e+00,-3.557298393064507014e+00,-9.050339362812469091e+00,1.246543797280077648e+01,2.846005105256424805e+00,-3.255337176575931579e+00,-4.603226152532307047e+00,-3.526805970186182027e+00,1.989224111751068724e+00,-4.489171458471725995e-02,-1.520367468718947901e+00,-1.698826691403160227e+00,-9.143332333826791114e+00,1.233658957764383679e+01,1.211251143484265852e-01,-5.147650954578891769e-01,-5.429948104727395197e+00,-1.100118282731319175e+00,-4.474001138751140694e+00,1.511182398507364466e+00,4.999557315276679237e-01,-3.483678233881204900e+00,2.403910963077523988e+01,2.226243900360977968e+00,-5.881509786910601001e+00,-5.469470568510026887e+00,-3.994978817933298121e+00,-6.485004167576121858e+00,-3.963667661719346480e+00,-5.172549967083362787e+00,7.694378061586944817e+00,-1.929963607577676266e+00,3.723310192862260282e-01,-3.241179936867995881e+00,3.275498067112198042e-01,4.999013319258056143e+00,-1.871960281720813635e+00,-3.510404876220992509e+00,2.958155051348969611e-01,-4.644001181942885026e+00,-2.460387950299954607e+00,-5.298376795271833473e+00,-1.014658555937235818e+01,-5.311285668324109643e+00,-2.092385883405856628e+00,-2.978229403620545668e+00,3.239447344224126279e+00,-5.714629946097020685e+00,1.193422532763823263e+01,1.006960069040125205e+01,-6.744957827048525090e+00,9.057939687588968170e+00,-3.339118451444912372e-01,-1.416765243675463415e+00,-5.767254135612699173e+00,-1.597848654545795499e+00,-3.218848238130652906e+00,6.042116713541298090e+00,1.629199073675705156e+00,3.823197882009824244e+00,-3.030988630125012406e+00,2.236398165999060161e+00,-3.450905962195720988e+00,-5.793698014983240441e+00,3.784095911964988623e+00,-7.628089490244224891e+00,-3.560720335560583649e+00,-3.650864329967433264e+00,-2.777676114601748569e+00,-4.119842430778022369e+00,-5.833389706714183554e+00,-1.669036877348805348e+00,-4.842905305202389599e+00,1.147872733815391344e+00,-5.577960179461388002e+00,-3.716366954510427867e+00,1.335416348738772685e+00,-3.658280516467338650e+00,5.275797032404507370e+00,-5.013892336812026507e+00,-5.906317865606563799e+00,-6.177259841799840778e+00,-3.384994030028332990e+00,-3.635317161770844852e+00,1.103467433907886930e+00,-5.999929646205488076e+00,1.689332851390624168e-01,-5.007538917353053343e+00,-1.152520311553934418e+00,-3.441944255767427574e+00,2.839931921127650938e+01,-1.338307783380137561e+00,-1.136403019946287812e-01,-3.350468390064134994e+00,-8.038465342199231145e+00,-2.845287991952607065e+00,-1.011205750609078180e+01,7.262007069838391615e+00,-3.206404009301710101e+00,1.292969495865687968e+01,7.128697953486939021e+00,-3.374202000951119107e+00,5.739287127473311934e+00,-4.046331807060410846e+00,-4.924274307848871324e+00,1.819810302910963573e+00,-3.413592592149115035e+00,-3.754879220574748544e+00,-3.793701135746148534e+00,-5.185721879680131430e+00,2.652014180155127576e+00,-3.132418062835280015e+00,-2.076670042881945566e+00,-4.844884301762910184e+00,-3.227781501610275772e+00,-6.338884881638452207e+00,4.908420717755127782e+00,3.128867607342834312e+00,9.753616776038569469e-01,1.500643628929287310e+01,-4.029271968756701128e+00,-9.159620880676349053e-01,-6.592696286452682131e+00,8.075955832800223888e+00,-4.457829988972105362e+00,-4.021605789465668934e+00,-6.676861255188920374e+00,-2.581301035064663019e+00,-3.313944102312761153e+00,-2.313664131511965039e+00,4.994016228362616605e-01,-4.466935441930262485e+00,3.182702453854624025e+00,6.173318134341375663e-01,1.244034524151144572e+00,-3.677951797954238433e+00,1.518738014026642702e+01,-1.653284909025626859e-01,-2.023037638791776338e+00,-5.504894905098206337e+00,-2.964956673724174596e+00,-4.617419603677101136e+00,-5.142654793901311194e+00,-3.521504017938800857e+00,5.796229161340628044e-01,-1.312061372052954811e+00,-2.744608524217527545e+00,-2.610501127346628980e+00,-1.061235424627871016e+00,-7.460435747223271186e+00,-4.318084820386451028e+00,-1.238293470545184682e+00,-3.227533342600184429e+00,-8.048991228452834212e-01,-2.845676713643174427e+00,-2.005650807798983415e+00,-3.262495643698246184e+00,-1.421260002551305135e+00,1.926920008197927636e+00,-9.822768214332621151e-01,-4.676997479476605157e+00,-2.599140175794486307e+00,2.192063343399430320e+00,-3.644878090983497909e+00,5.463487992173153174e+00,1.890847755802267827e+01,-2.261207589670145790e+00,-1.791242023377167980e+00,-1.959428358260268510e+00,-2.847786607273638637e+00,7.585784127816690425e-01,-1.493178035226889078e+00,1.565546518796205078e+01,-3.046283415263895122e+00,5.730596793164167480e+00,-3.866327068413355494e+00,-1.911666141092372762e+00,1.470557678180376859e+00,-4.523907881886360727e+00,-1.467398887978326627e+00,6.409976961616514757e+00,1.863048186337744028e+01,-4.758527608984617352e+00,-2.847083343109934273e+00,-4.177194631770062117e+00,-2.520656026467746447e+00,1.167650496997621445e+01,-1.170254355106812749e+00,-9.202445654304364453e+00,-5.840153718394796911e+00,-1.494329705549899412e+00,-1.058959374329442982e+00,4.042543815184849620e+00,-9.470538106932766542e-01,-8.192372025343697128e-01,-8.667272433955194311e-01,-1.992271200796535302e+00,-1.511359452350104604e+00,-1.426971740757708718e+00,7.033809940149342133e+00,2.381760572300996248e+00,1.930263461155596261e+01,-2.824522965646316663e+00,-6.508813517596533593e+00,-3.511373080280253856e+00,-2.247072147270742004e+00,-3.879778045624513449e+00,1.823091087793832443e+01,-4.932027238108764422e+00,-6.753924495217503932e+00,-2.420129657647633437e+00,-1.975427178393647676e+00,-7.382044987646463774e+00,3.397819707452948812e+00,-3.159303579759090930e+00,-7.657903371386914237e+00,-6.207015891010331465e+00,6.417665552080127789e+00,-4.890073400560257966e+00,-2.946437152787038105e+00,-4.509442596999760688e+00,-6.873898469045212956e+00,-4.170117766646907143e+00,-5.399688523019037234e+00,6.387741752470642576e-01,-2.736128024053964936e+00,-5.453389112511916603e-02,-3.396611213312928701e+00,-5.058252602690541444e+00,7.579464768257163421e+00,-9.701040763575326409e+00,9.215281169591936106e+00,-3.852739576793860754e-02,-1.577248179695433405e+00,-1.352802907256422049e+00,-1.413098756837096515e+00,-4.834393694694027133e+00,-4.837314112565229252e+00,-7.128014155825534104e+00,2.509480037918182749e+00,-4.934352182184314373e+00,-7.168400536201808837e-01,-5.655147364115790332e+00,-5.633550780457106555e+00,3.503376245317964433e+00,-5.780607199374304450e+00,-6.743854604713752643e-01,-4.297278204995586215e+00,-8.766636376635686290e+00,6.969068482345312177e+00,1.043806799961792287e+01,4.287560204616099213e+00,-7.308893666050659377e+00,-3.528974893668200163e+00,2.358272703402009451e+00,-3.370642207710773608e+00,2.484340742616383935e+00,-1.409757405968631527e+00,-2.703341717190339999e+00,-3.116487002437938081e+00,-4.964842452272859141e+00,-2.488923276629602999e+00,7.330234417222258436e+00,-2.799971377150281437e+00,-3.603621241862275948e+00,-1.000012566746265374e+00,-3.843670001377158751e+00,-4.018842478658441131e+00,8.025677363397157649e+00,-2.087810088609155734e+00,1.229101178133684691e+00,-3.489781935430520399e+00,9.995426827873412634e-01,9.274961278150106736e-01,-2.703431658146035144e+00,2.886429192730636917e+00,7.885196801251685983e-01,-9.425657059070663424e-01,-2.182759241057844246e+00,-4.938814417236830678e+00,-3.588547288771223975e+00,-4.838423326272345726e+00,9.721497760901284257e-01,4.693877647209673043e+00,8.370795765691935841e+00,1.283781641418015429e+00,2.946536930244158636e+00,-3.740188947158019861e+00,-3.130694927844402287e+00,-2.534700234733400226e+00,2.153684467315807538e+00,-3.698540834814325162e+00,1.462985764275883005e+00,-7.406206792848928799e+00,4.286071267689337105e+00,8.837696486256966466e+00,-1.723675321978449082e+00,-1.856909353232122806e+00,-4.064018139867318524e+00,-7.397984623813949057e+00,2.523292818393640058e+00,-2.501563036816525809e+00,-5.055456869488383909e+00,-9.808691507138006527e-01,-7.080570695280729687e+00,-4.922605259545228762e+00,8.428455962572066085e+00,-3.780918007128867497e+00,6.706238880016699433e+00,2.246002386997087541e+00,-2.163107272960308192e-01,7.580121036024026537e+00,-5.267577117370588979e+00,-2.880202509618993822e+00,-4.248664498540221657e-01,-1.215029747002162708e+01,2.099963884198161423e+01,-5.232821886280280665e+00,3.343170528183889711e+00,-5.990634901213183205e-01,-2.349353939453188378e+00,-3.591236948793072425e+00,-2.405076591007218489e+00,-2.571066095243168093e+00,-2.463702310354231706e+00,2.739375288538548503e+00,-1.102011204709068659e+00,-4.366299478093210951e+00,1.001115014815741056e+01,3.986574323425522426e+00,1.011644970075824546e+01,-1.344138957681514368e+00,-6.846470131290024241e+00,-2.062753663759018252e+00,-1.933008484080273037e+00,-6.195405876386707256e+00,7.804026037063256815e+00,-2.585227916834585749e+00,-3.493458292790199593e+00,-4.152577118064762374e+00,-5.308186779164191904e+00,1.156795811961683018e+00,2.298145753053094875e+00,1.562950575465013081e+01,5.786448093317971164e+00,-2.285282348160079469e+00,2.774641857138236745e+00,-6.485732635261744206e-02,-3.121880344757644199e+00,-5.480935507357922454e-01,-5.111996910182211806e+00,1.227549002459659366e+00,9.082081991802531951e-01,-5.141168900457775415e+00,-6.561180261446725837e+00,2.453587418046485169e+00,-3.743539295471185469e-01,-3.253007615220331328e+00,-1.576502276629864419e+00,-6.592618493157381465e+00,-3.488221144959493980e+00,-4.401427516335977508e+00,-4.468320592287198245e+00,9.759055494367105510e+00,-1.781107253977380900e+00,2.029165403022571645e+00,1.160898872320902525e-01,-2.777251288836662724e+00,-4.766593953227164782e-02,-2.464773013409463420e+00,-3.841531797335634213e+00,-1.579122561701521210e+00,-1.514398421225959579e+00,-2.939643328345053597e+00,-7.031586031564771133e+00,-3.575167978134862867e+00,-5.389797533326177614e+00,8.843635384571918445e-01,-1.532259569967109103e+00,-2.185049977291061207e+00,-3.950641374638457215e+00,8.241981022846553984e+00,-5.536802149871054901e+00,4.943013720722145843e-01,-3.360556843526404602e+00,-2.190751688174298106e+00,-5.954064096976736664e+00,2.767874053735869921e+00,nan,7.730603729666023494e-01,-3.171690731915501882e+00,8.482089304111704031e-01,-7.108657417874283624e+00,4.361585604040107533e+00,-4.960555408234185726e-01,-4.153154780452599226e+00,7.624403875113083373e+00,-6.180862851558780235e+00,2.150691060366488383e+00,-1.742243420746773852e+00,-1.188285851450672226e+00,-7.891456127489551164e+00,-1.957505850005065495e+00,5.406177131413700820e+00,-3.287471319634367006e+00,-2.689707276961650795e+00,-7.078228368445865781e-01,-4.860335068328250685e+00,-5.628572791798265307e+00,4.874106641386115157e+00,4.737594894928831568e-01,-5.359536053003808753e+00,-3.066666308776160865e-01,-2.862624205267018329e+00,-2.501952497192297287e+00,-2.695514779586080767e+00,-2.260964625733979716e+00,-3.323779980517468147e+00,-1.419204215387705803e+00,1.344476481206862362e+00,-1.762984372779671904e+00,2.735460251874817672e+00,-2.992191414930345683e+00,6.729780541238322478e+00,-1.708020876560366830e+00,-1.457028674934076173e+00,-2.117916218761651592e+00,-3.187199624761267724e-01,-4.449938812428650081e+00,-3.939460296410807860e+00,-2.273423916849146131e+00,-2.341024672511891058e+00,-2.299522415893773708e+00,-2.216471822967741367e+00,-5.590695145168404601e+00,-2.612264174759147739e+00,-1.749840470526944802e+00,-1.083361043429576176e+00,-9.100114173178265320e-01,2.195069917389965486e+00,-7.409934335965467689e+00,-1.802301804129979645e+00,2.926558272020412854e+00,1.158716179379005284e+00,-2.683182207232812200e+00,-3.657773851785004915e+00,-4.624274117772011472e+00,2.056107176030033568e+00,-1.822685917051326987e+00,-2.949034423971860885e+00,1.053530671005740438e-01,-1.502732296979871984e+00,-2.990951317898622008e+00,-3.992347931791500049e+00,-2.238076482599038020e+00,-1.940083098103936754e+00,-7.863140264042717265e-01,-3.415746914926179656e+00,2.053430878500271461e+01,-4.032217376134203057e+00,1.350113357585150109e-01,-2.259921166298761275e+00,1.684317420790550912e+01,-9.862633956851130090e-01,-1.967856639198783397e-01,1.202551736509373415e+00,2.298891094757120168e+00,3.565532660405397625e+00,1.868973036648421626e+00,-2.167291681706263962e+00,-4.689430426337629854e+00,6.201679747907178353e+00,3.757116491258587487e+00,-2.351993028655263274e+00,-1.401008810624772671e+00,-1.592039396704163279e+00,-3.546748954602285675e+00,-2.927296270124767563e+00,9.791755248370163756e+00,2.766231739669063661e+00,-4.279575691888065414e+00,-4.634163787455612749e+00,-2.134502766171879173e+00,-7.751677181284677420e-01,-5.146933197466517562e+00,-1.840676254541139256e+00,-6.135504121110121334e-01,1.935120082079732740e+00,-3.000054793178721368e+00,-4.076092923945172641e-01,-5.951324237640324810e+00,2.186479272187705103e+00,5.851861800890852727e+00,1.043787453311613511e+01,1.090209151757712824e+01,1.374685825087591873e+01,-5.140785682990393290e+00,-3.641233165291432261e+00,-3.664645459645714975e+00,-6.023946813275464329e+00,-1.018465050182999043e+01,-4.653123338675763776e+00,-4.056388338785536618e+00,-2.270386334109673498e+00,-3.281824786948143835e+00,3.256119357171662454e+00,-3.282017360290466979e+00,-5.924028932311413698e-01,-3.058930549240982177e+00,-1.530432810774273733e+00,-3.111855880886975623e-01,-2.411716767786906135e-01,-6.730592164541504552e-01,-4.054567509596016528e+00,-9.440191509323607733e+00,-8.456281759302674006e-01,1.217826622870151532e+00,-2.930491382553922275e+00,-5.012963478919123084e+00,4.510002998383134676e-01,-3.668453750527790547e+00,-1.347543504022873151e+00,3.462842507621564092e-01,1.118278613610172723e-01,-6.155042579566553762e+00,1.636252923952549665e+01,-4.515009046660115599e-01,3.581827537130990446e+00,-4.797432969151511628e+00,3.715503218722830403e-01,-5.449414958218206095e+00,-5.892690995731728165e+00,-3.105296440717635775e+00,-2.833428793261150602e+00,1.196717052041619667e+01,-7.609725814751253647e-01,-5.195432958519026201e+00,-2.997363737383610616e+00,-4.091619311728094566e+00,-3.893568781697442027e+00,-2.931848303732328631e+00,-5.022606911205736324e+00,1.764834010155566624e+00,-4.772527934502236446e-01,-2.363618896788254986e+00,-2.589255192512429193e+00,3.062856856300165020e+00,9.827649522918832758e+00,5.430675358424940091e-01,-2.126644301972531625e+00,1.046652038132729112e+00,-4.263266784373105800e+00,-6.373216044305547445e-01,-7.282888243356747893e+00,-8.082970291237803195e+00,-1.930615017473584993e+00,-1.739250551511640985e+00,-1.737955947991376426e+00,-2.831390887256401090e+00,-5.819769163012903590e+00,1.343944364263925983e+01,7.454606542130679969e+00,-5.614451523212265371e+00,1.971409521906957840e+00,-3.857778117571571297e+00,5.541474050487512626e-01,-2.895948058063757546e+00,-1.394581799531272370e+00,-5.028935489670365300e+00,3.486650126794748061e+00,-1.748965224153876452e+00,2.361265484944725213e+00,-2.937240516082443520e+00,-2.412764821795581938e+00,-2.901751284019151278e+00,-5.979043658038471598e+00,2.560402180795354754e-01,-6.106617205938865034e+00,-2.399492398928607440e+00,-4.068019732746475547e+00,-1.359428355413284883e+00,-4.153688325606676557e+00,-6.939070381539333532e+00,7.203791244987756137e-02,-3.923831458114253490e+00,-4.312414110818314050e+00,-6.460753431457874285e+00,-3.188038245052160047e+00,-1.766759386587957170e+00,-1.531994498992784282e+00,1.286577658634716403e+00,-2.166145228893889385e+00,-2.706200482420447972e+00,-7.279594481096532732e+00,8.288536966075117363e-01,-3.496931802988514359e+00,2.688974632482898919e+00,-1.197708407805843978e+00,2.647423135586346898e+00,-3.592380122495826278e+00,-7.495517695798491475e-01,-2.614950698197469947e+00,1.668665805664206303e+01,6.937242218837395002e-01,8.269114511297958048e-01,-2.505537590743825316e+00,-8.627035250617757001e+00,-9.369701167477972881e-01,-8.825857657831754466e+00,4.651156903723510538e+00,-3.125818081128735049e+00,1.023065010186960677e+01,-1.704033267705987065e+00,-3.342404816092825470e+00,3.119634776275153509e+00,-3.479140863995914046e+00,-9.141741999370339045e+00,6.583537043723414195e-01,-2.414036235135471387e+00,-2.448487126218275023e+00,-2.690965965081421274e+00,-2.896226562027987228e+00,8.382505169842511261e-01,-3.927745164995343430e+00,-4.528072280308785905e-03,-2.214950654516658179e+00,-3.363647538291165695e+00,-5.328505482369918944e+00,-3.088968320639490894e+00,3.961967739813960776e+00,7.129020841459468905e+00,6.177424877566151551e+00,-3.809221575659179848e+00,3.334567466419364190e-01,-5.506249666069308546e+00,2.204617785718681056e+00,-3.592802411925081874e+00,-2.983936167251381555e+00,-4.628354651354806393e+00,-2.257063102884857564e+00,-2.938343047843511524e+00,-2.189376037977393441e+00,1.226615226621448285e+00,-4.208450622134090935e+00,5.870876680527655544e+00,7.631818265791353584e-01,1.506185394198367167e+00,-2.285290604620056065e+00,1.474875878664976980e+01,1.742461482011044560e-01,-1.557211899016556655e+00,-2.376818813617525894e+00,-3.264500346740520254e+00,-3.324829226547014738e+00,-5.859893750268218682e+00,-3.779242958917518269e+00,3.729351597174976440e+00,2.632734557453557667e+00,-4.967145197427033088e-01,-1.219353754453661010e+00,2.159936795926450381e-01,-7.151796249591767740e+00,-2.960825919358812897e+00,1.154535714038942062e+00,-3.571267338398786517e+00,4.291095499350169873e-01,-2.682940655075167768e+00,2.852552974850601775e+00,-1.453399745310528957e+00,-2.416770615204353767e+00,-5.801995722940216371e-01,2.205821060132127975e+00,-3.645912378970778356e+00,-2.533993889362700980e+00,1.412924155124256842e+00,4.363385445225793191e+00,7.310339055780343820e+00,1.274783816926231417e+01,-2.627989558096234024e+00,-2.280344781728368186e+00,-1.098258828618382532e+00,-3.728898936300272471e+00,-1.709878443686422278e+00,2.337651439375505458e-01,1.245257064433646832e+01,-2.186719302243159024e+00,6.690415894834661259e+00,-2.574036842916386902e+00,-2.208813340220295629e+00,2.265860544608929494e+00,-3.449566161315559043e+00,2.843144781391868017e-03,-2.944940581864363693e+00,1.835647744523441460e+01,-7.284116133233951018e+00,-1.326037672551300339e+00,-5.615883531253691885e+00,-1.854489521903703197e+00,1.539298530477561222e+01,1.386217683516886845e-01,-8.735945371662676706e+00,-4.579510006065699912e+00,-1.158676279581765112e+00,-4.514143835825691120e+00,-3.990127658868122928e+00,-1.849589496690333679e+00,1.178532241047008267e+00,-1.150731736075122358e+00,-2.753640675254289238e+00,-1.060270863907839534e+00,-3.369899630537442015e+00,3.305424587402105985e+00,3.757223785219401258e+00,9.638801459948000527e+00,-8.928147223348407158e-01,-5.114780133048242305e+00,-2.700138612153948792e+00,-3.180459626894839964e+00,-2.507486133226302094e+00,5.046364711154827098e+00,-4.748518830354472087e+00,-3.876263989989395586e+00,3.586481170943610075e-01,-4.368503284735324677e+00,-5.545365785774782452e+00,4.897675604692496854e-01,-4.346115604243384389e+00,-5.752101774260067302e+00,-6.727657884852983550e+00,2.825441657629765846e+00,-4.182105309513942437e+00,-1.218925204494608172e+00,-3.612922635042982389e+00,-2.257445970160483650e+00,-4.587209388268591148e+00,-4.376169106305646928e+00,1.016417992010218985e+00,-3.035519591390741567e+00,1.992103632629311116e+00,-3.129210913000811001e+00,1.014206393674387741e+01,9.010937462360436356e+00,-7.830631088706370591e+00,5.923407324830300524e+00,-2.477256504352455813e-01,-1.277956275775560702e+00,-3.084210672219977578e+00,1.614004153198397518e+00,-3.599634915583959760e+00,-3.850120403097172961e+00,-6.390466767346826060e+00,2.278397788437249716e+00,-4.297715964676721789e+00,2.343532837237664312e-01,-5.157141190941556097e+00,-3.501296965888275547e+00,7.139497428992090944e-01,-2.296242642200897244e+00,3.169711331103728935e-01,-3.106140312608431930e+00,-4.686469137868026102e+00,-2.240735723593551221e+00,2.014322856656867611e+00,-5.320125175911825544e+00,-5.082853817205835512e+00,-1.942999088255522810e+00,6.494901140892051394e+00,-4.440389582826210102e+00,-2.279158845187778670e+00,-1.787237705927892994e+00,-3.387194033294546713e+00,-3.825315767124827016e+00,-5.327866280000144172e+00,-2.192990627607394882e-01,7.862604157623714229e+00,-1.305247020028246885e+00,-2.589826505718614058e+00,4.669183073661141437e-02,-5.195822589652946633e+00,-3.815926202576601867e+00,5.790779823553410921e+00,-5.995767787523546138e-02,1.685138218837222701e-01,-6.657955950599666606e-01,1.449169088058012811e+00,-4.489124861423093860e-01,-7.263877007525588736e-01,3.632242573256051710e+00,2.152059849683961357e+00,-3.199123602676300915e-01,-1.906618401833968246e+00,-4.562187430230780549e+00,-3.731345064823271773e+00,-4.387481080961563862e+00,3.859434716726026782e+00,3.813886630104826647e+00,9.504866591101754025e+00,3.890849232439709038e+00,2.210282728088705184e+00,-3.005416617605751739e+00,1.759836844220548535e+00,-1.475728808535810899e+00,-2.083261759695631543e+00,-3.935598073866923396e+00,3.980251680961423677e+00,-8.256704065187284058e+00,6.555992443147898641e+00,4.017665068740208234e+00,1.439074751444657352e+00,-1.930155437510718830e+00,-3.886416473608010680e+00,-7.830815377004981315e+00,3.405308557791018043e+00,-3.081980064595147617e+00,-4.382586490239644306e+00,1.211407540344001665e+00,-6.411700265919481723e+00,-5.626664471483323382e+00,5.481427276892389067e+00,-2.852463805103501837e+00,7.385256846856737667e+00,3.787792126322604869e+00,2.619655637069540077e-01,2.727943654067274792e+00,-2.778356142968783082e+00,-2.269473665096027659e+00,-3.761765608175842157e-01,-1.099333180939304810e+01,1.683333956823648947e+01,-4.407592280947789654e+00,6.287611398584461497e+00,1.471763051999270822e+00,-1.651931850748613817e+00,-2.972387429275054505e+00,-2.884682305731036678e+00,-1.914622531455355769e+00,1.168942288173547617e+00,1.581507558337804209e+00,-1.946730423480944883e-01,-1.223915973884367681e+00,1.111970514595640402e+01,2.996403568771300652e+00,8.731055267082695082e+00,1.082284267593100369e+00,-5.515828554525631588e+00,-1.655905832343888218e+00,-1.340100784605692263e+00,-4.814474064214512516e+00,9.041243644871547858e+00,-3.706183115124594973e+00,-2.612066412745951638e+00,-3.127545242702773898e+00,-5.728520617858555042e+00,1.129190353480014064e+00,1.980504484287409106e+00,1.071316804102977649e+01,7.640538822359328464e+00,3.776677158913851473e-01,3.363676448266777363e+00,3.861621823491657168e-01,-3.252944582376622318e+00,8.141296604949471716e-01,-1.846188667575167974e+00,4.837959689822859843e+00,4.556444848015454241e+00,-4.482133548769498432e+00,-6.602870091196495927e+00,4.233328932472832484e+00,-6.477644186663689130e-01,-1.379201004469464031e+00,-4.566006800698330648e-01,-6.518287003732049278e+00,-9.268427039088316111e-01,-4.665229564157752584e+00,-3.536274743925687858e+00,9.552906444717786272e+00,-8.254589157376476249e-01,2.094866781772573461e+00,-2.053214345293500109e+00,-1.601997566544714147e+00,-4.044490401892013587e-01,-2.337549239241625554e-01,-3.055789179431059210e+00,-1.039406151957582125e+00,-1.336181754539887745e+00,-1.098487323002725224e+00,-6.920293852446143923e+00,-2.517000726087779583e+00,-3.823190913452716444e+00,1.863266197886844777e+00,-5.553686419146558473e-01,-1.298501696713534770e+00,-2.281248495949285360e+00,7.918382555878297424e+00,-5.366161753264305112e+00,-1.135253647812173972e+00,-3.509751260096512837e+00,-2.963156919921305921e-01,-6.482527556025760695e+00,4.086600449810444680e+00,-1.083589409930240333e+00,6.109520541821881201e-01,-2.849864415370925830e+00,4.052635487576449869e+00,-7.895609490485767878e+00,2.731867159683469382e+00,-1.323831940117210726e+00,-2.707186326707713864e+00,1.230171237639201109e+00,-4.476724992040182372e+00,3.880239312831939458e+00,-1.166037543351370109e+00,8.863502681588252274e-01,-7.981449007419183062e+00,-1.941166300947335444e+00,6.702419994805874026e+00,-3.074412165468247249e+00,-2.232385034338628227e+00,-1.351773887200609536e+00,-2.649172903736598972e+00,-2.756472497478073880e+00,9.076911526704565247e+00,3.267103713474511784e-01,-5.528078761744668057e+00,7.853198798838232353e-01,-2.689926603570620411e+00,-3.338416787436654598e+00,-3.686529689867605430e+00,-7.370584816878406054e-01,-3.869763793427996035e+00,-3.291838667344448299e-01,1.489402457775002908e+00,-2.275836045525803542e+00,2.538950396636607376e+00,-2.227439098555600072e+00,5.876328184181156544e+00,-1.619038949334360211e+00,-1.174152043106171606e+00,-9.345111418115999991e-01,2.437510840780347632e+00,-1.284390323898025654e+00,-3.295806830676464294e+00,-1.968306173699988282e+00,-1.422724288706259665e+00,-2.314067288184591842e+00,5.862225383989349003e-01,-5.180582292703642011e+00,-2.282257386749692696e+00,1.407528750391718875e-01,-3.307199630545999636e+00,-1.174151067566309381e+00,3.295693060277860020e+00,-6.431832949887930972e+00,6.356671029532128259e-01,5.379473626244368756e-01,2.570312463659351288e+00,-2.241347451826563031e+00,-1.174890408491768179e+00,-3.178509650462463920e+00,8.921381485295284408e-01,-1.352814671731945362e+00,-3.790050308231096565e+00,9.937072785167672118e-01,3.690434100459791950e-02,6.797470544028045847e-01,-3.134418737117320664e+00,-2.230115993874776326e+00,-2.000644429903844834e+00,-7.328394310953212365e-01,-1.909641815364356177e+00,1.460996330110849861e+01,-3.879105493128402138e+00,1.034624660233332896e-02,-1.485933165993470695e+00,1.291440949128171845e+01,-4.603482662958094385e-01,-1.051968475844229145e+00,-1.170440237965452018e-01,-2.518295383694995060e+00,2.944789634095023256e+00,4.185471768716495511e+00,-2.072654520275966306e+00,-5.395549396884628202e+00,2.527703034722353914e-01,4.148660839036671710e+00,-2.067141410802783685e+00,-6.449704854036290014e-01,9.702870541798764847e-01,-4.278768891000530594e+00,-2.508989539893172194e-01,5.688104683027794373e+00,3.627040027584598647e+00,-2.361240312613899661e+00,-3.842681556951547339e+00,4.640768457687715620e-01,3.428651216331527474e-01,-4.678785529266639820e+00,1.230620272216603972e+00,2.255048749307086098e+00,1.445003419232062436e+00,-2.417375885976870364e+00,4.716650960453939168e-01,-6.584328589436465151e+00,-1.399107221874041240e+00,2.711881916910064749e+00,1.048192239754519584e+01,1.412970557620432821e+01,1.277462323532892086e+01,-7.127695171473318325e+00,-2.521554329204224842e+00,-3.144215090506391697e+00,-5.477978275781018702e+00,-5.708393425930564646e+00,-7.155205741707322709e+00,-4.265324146703778574e+00,-6.665083796233319813e-01,-1.886698732884025231e+00,6.015451304311680403e+00,-5.120072149547597595e-01,-1.143151653971339776e+00,-1.542315392060332815e-02,-1.642491962350713042e+00,-3.117368264858370597e-01,5.952880527860910931e-01,1.069971602788864426e-02,-3.389915910370353558e+00,-7.041609658758977375e+00,2.945921120274079819e+00,-9.524561148207346672e-01,-2.460504790368247985e+00,-5.109785966690664871e+00,-3.749989398040904920e-01,-6.675145109388896936e-02,2.040565379726082096e+00,-7.949954028476098333e-01,3.616915607881345668e-02,-5.474333839468809693e+00,9.089180825085401594e+00,1.621055146499671862e+00,6.336509130251501531e+00,-3.813902658236161702e+00,-1.754813000923258315e+00,-5.692022009717599751e+00,-4.049276347563745659e+00,-8.730028234335492909e-01,1.177207986227174041e+00,1.146404407174683016e+01,2.866267608267230038e+00,-3.856118605766949425e+00,9.703093283543399172e-01,-3.781104148922120434e+00,-4.105886218527367681e+00,-2.216589931143026604e+00,-4.202881024128649834e+00,9.201882137565037256e-01,6.843746126113073869e-01,-2.265400488579488947e+00,-2.492517264704533275e+00,3.797410457658159544e+00,8.234865967423962374e+00,6.508610270350033700e-01,-1.346481774750007521e+00,1.087037773029507548e+00,-2.262372421516863241e+00,3.489165011758284529e-01,-6.126447954024396125e+00,-8.597472319864564838e+00,1.593031798921082029e-02,-6.936370212152975778e-01,1.840251124468458566e-01,-1.200222408873751423e+00,-5.452658977586827938e+00,1.006333252460549943e+01,8.873942061049723051e+00,-5.709553657078411781e+00,3.341372462431715373e-01,-7.395004827025600802e-01,7.152192561216759170e-01,-2.600636249584087789e+00,-2.824311898728774084e-01,-3.326633298866406019e+00,3.988090835478384388e+00,-1.744458724374095202e-02,3.012723431706275101e-01,-6.015083316546194769e-01,-3.852709758084964076e+00,-1.806747058180547150e+00,-4.836978654448425452e+00,-4.397138450368846541e-01,-6.332339196269889392e+00,-1.747008126257824090e+00,-2.044051242298928539e+00,-1.472115462531520924e+00,-4.326522589737272106e+00,-5.606205470274243652e+00,-1.340015670238721368e+00,-1.589776985349415472e+00,-2.674014349669878499e+00,-5.375620010964174966e+00,-2.654234498926496766e+00,-1.583307815655632167e+00,-2.481644317076863171e+00,1.543170654478733139e+00,-1.419268942070783579e+00,-6.419756107603143136e-02,-5.724297787198146636e+00,1.767741768021601878e+00,-2.472129289999767554e+00,3.485101464687493600e+00,9.993401255986392173e-02,1.842043919598021384e+00,6.968401037165449039e-04,-6.353381170308413095e-01,7.692743224968892068e-01,1.414975643571277075e+01,4.702833400392523733e-01,4.171528334558639584e-01,-1.453677553867732897e+00,-6.715613405655733281e+00,-1.424778318016211465e+00,-8.564167415381501058e+00,5.966321147864045216e+00,-1.912258705767242883e+00,7.548199693542938959e+00,1.152969183984558166e+00,-9.766816671062898969e-01,1.324982121420684056e+00,-3.816831433560356146e+00,-8.143613243305816596e+00,2.265809499432567264e+00,-2.147812940898897960e+00,-2.174605973920884949e+00,-2.760319663136748591e+00,-1.832044277545863187e+00,2.298175797536360587e+00,-3.940591225472517500e+00,1.001876828462213265e+00,-3.222664879328172027e+00,-1.916425348114427551e+00,-5.951535934352223833e+00,-4.993738520448514961e+00,6.735662271190540729e+00,6.783740751912199940e+00,9.722947608938653730e+00,-1.339028745115194541e+00,2.345711322742912053e+00,-3.163053336118379022e+00,-3.271681452709441773e-01,-4.024067119142364035e+00,-2.676811234441046405e+00,-5.237602870558360380e+00,-1.598875631777486594e+00,-4.690289477666449436e+00,-2.377172464032595300e+00,1.542251825872619664e+00,-3.654036560437792680e+00,6.376417455625094100e+00,-6.195629454533982949e-01,1.113173503644193651e+00,-7.815146626229223514e-01,1.353368511651975226e+01,-6.652210149172284037e-01,-1.113568874987076684e+00,2.479062118917142232e+00,-2.276910599499308407e+00,-2.074594164860990020e+00,-5.366988797787319854e+00,-4.417087622440499572e+00,4.944461413563073116e+00,5.131298503957301804e+00,-1.496509723835474093e-01,6.023004207571327484e-01,-3.143029299498688034e-01,-5.452843618733985487e+00,-1.791947383716302689e+00,5.177441761895311689e-01,-2.232213838637949532e+00,4.719568612063773649e+00,-2.028151111076323065e+00,5.637306872029768989e+00,-1.486633857481064691e+00,-1.516248651825631066e+00,1.376911432387646572e+00,6.447604059565176238e-01,-2.088635768930262149e+00,-1.220456242042962103e+00,4.210478675301825291e+00,-9.730329910950236139e-02,7.783312657769641874e+00,1.176747168760590689e+01,-1.708576451115388695e+00,-1.845484722541293365e+00,-2.048453794944380402e+00,-4.912716459288381188e+00,-9.498399350341130143e-01,1.673414212024099124e+00,1.333643385189334651e+01,-2.760848442115137580e+00,7.251339813671637380e+00,3.092755023829612426e+00,-1.456342022001589909e+00,5.868843164267135704e-01,-3.824862590249956895e+00,1.537669740715598365e+00,-2.088198089597629536e+00,1.522512398166188596e+01,-8.363494091417599918e+00,-2.193582726520290904e-01,-4.742636299456303384e+00,-1.481480060256007425e+00,1.473619126586146955e+01,-4.357076638841604899e-01,-7.872026518245216486e+00,-3.150017933685103966e+00,-1.532052640233826590e+00,-4.372898404628774216e+00,-2.523072978680257705e+00,4.636001610610397394e-01,1.641239515727704212e+00,-1.419890982627326492e+00,-1.712508058660038524e+00,3.110164782589919935e-02,-1.297524920086362998e+00,6.048893434105387712e+00,7.270211719032618092e+00,8.623395131081505127e+00,-7.588479512140363648e-01,-5.233589634076425412e+00,-5.012832986777039368e-01,-1.604285928836224562e+00,-1.523613388363013188e+00,-7.195040726984990309e-01,-2.878169670256792489e+00,-4.128553825894322848e+00,-9.260821757061377113e-01,-4.035829095576913161e+00,-3.749072161175963647e+00,-9.215561821493681860e-01,-4.706285428772248203e+00,-6.387379139743620371e+00,-4.365416956473945120e+00,1.917462080743344455e+00,-3.371431459978321943e+00,-2.006393192656429569e+00,-9.364421488834465679e-01,-2.005243251980961094e+00,-3.775402771560633308e+00,-1.283631815669197707e+00,2.276175479364911158e+00,-3.036746529309344300e-01,3.888378639035431128e+00,-2.489896819202923606e+00,7.439811464822372322e+00,1.105863595735544713e+01,-7.159209160281231554e+00,7.471291163579300232e+00,1.811672198549224344e+00,-9.622315629243197721e-01,-3.975206208114777651e-01,1.107560510680205557e+00,-4.271005754427267931e+00,-4.326834222033245858e+00,-5.576777971785225496e+00,2.843641893503851659e+00,-2.888159937572990277e+00,1.460740808024390658e+00,-4.969841644748118625e+00,-2.822355129458851586e+00,2.851777801771232301e+00,1.238877035458533366e-01,3.260532196189888321e+00,-2.970047123797313837e+00,-3.767206710877352815e+00,-4.772305604042008653e+00,1.591763779001506229e+00,-3.477915868176995051e+00,-3.284357965855455141e+00,-1.354522441074112793e+00,1.037320611846242180e+01,-3.637870752295382815e+00,1.689761251474787840e-01,-1.662020698298157351e+00,-4.003648869260267418e+00,-1.963781800313385562e+00,-3.440090852710873559e+00,9.866777593784293865e-01,8.618042492051888104e+00,-4.254371407234860403e-01,-2.642162231902922986e+00,1.279918279704565620e+00,-4.947571505364233069e+00,-1.974122441961297492e+00,2.194927103409017199e+00,8.778096108370455619e-01,-4.577449055147125301e-01,-1.304694350703836880e+00,1.230570037848157106e-01,-1.271890979740579519e+00,-3.413345287375887938e-01,4.708295715374819501e+00,2.095827336204001856e+00,-7.902130042471623428e-01,-2.534259127917599663e+00,-3.627425199662964950e+00,-3.904436129082595741e+00,-4.198081252116699247e+00,5.198096594209658861e+00,2.821077564285257910e+00,9.045294340257493459e+00,3.051470088088624966e+00,3.448078295218023892e-01,-2.933479717448113089e+00,2.073869422686904773e+00,-1.140122097286391689e+00,-1.777816554169767027e+00,-4.327721874951562242e+00,3.887963119703334858e+00,-7.411041717131764628e+00,6.976246185025283708e+00,3.136896381937362754e+00,2.223205056329573992e+00,-3.106401961662424327e+00,-3.588144067114955149e+00,-5.734641147890245705e+00,3.251471809326163864e+00,-5.160021556381249042e+00,-3.845854650631410188e+00,3.329697165087262128e-02,-5.934852226804052222e+00,-5.994121932120451746e+00,6.586879758540132634e+00,-8.558847548941844741e-01,4.932922259281395938e+00,3.225680580652259710e+00,4.298886106734221835e-02,3.884652098421589539e+00,-9.422985162997804531e-01,-2.778894349568351796e+00,1.335653604797422123e-01,-9.159321040538070946e+00,1.539316287616878398e+01,-4.906782100875453523e+00,8.357573051788579122e+00,1.432045432475166136e+00,-1.891408129767945479e+00,-4.820853179936817945e+00,-3.048546451395053758e+00,1.589009131123175766e+00,4.568731310580914418e+00,3.192206053945731536e+00,5.996707003367659494e-01,-5.801664092555761654e-01,1.249268243070035389e+01,3.345811653833665744e-01,6.649528833528518312e+00,3.901704982453605419e-01,-4.919236659334369932e+00,-1.198357413094701451e+00,-1.500774921564692610e+00,-5.701644579392770140e+00,9.505001747172407534e+00,-2.020346249269450833e+00,-2.729346983094484980e+00,-2.563950751351089075e+00,-5.190007301916064186e+00,1.981760589689007146e+00,2.161148677717626310e+00,9.673251338712399061e+00,4.620133586140980242e+00,5.233998012529961219e-01,4.767555820709817205e+00,1.419311241946243085e-01,-1.243160001679777249e+00,1.004217445853188284e+00,-2.173196218485032638e+00,5.370683062861132839e+00,6.207959886712531627e+00,-3.254886828759999684e+00,-6.816870939453737677e+00,5.293057116219449298e+00,-1.606344430824010239e+00,-7.322317133576344839e-01,7.167066221228149958e-01,-5.420555807164344486e+00,6.416093175010155747e-01,-4.732696531719323474e+00,-5.734719904266553314e+00,8.395570667442580515e+00,-8.813535312783307152e-01,2.714987188912314053e+00,-6.513852473272813137e-01,-8.398112186195419993e-01,-5.432194215824406175e-02,1.050647901167277576e+00,-3.650826309722636331e+00,-1.196988697417328273e+00,-1.826022443720751731e+00,-1.113943477574113716e+00,-5.211857653013644232e+00,-1.652531615425636147e-01,-2.421722284064753872e+00,2.082921123227444493e+00,2.145629246073489593e+00,-1.119569159861406149e+00,-2.592406695590571353e+00,4.002775661315271627e+00,-4.512141376517226021e+00,-1.505812325446226341e+00,-4.073207482778623323e+00,-5.839899154142860205e-01,-5.340501146836128754e+00,3.986607984784203751e+00,-1.677121193959110190e+00,1.891572288752836117e+00,-3.186795514485865510e+00,5.563323584542603228e+00,-7.760463252056941208e+00,3.000252485974946204e+00,-1.324814179379076196e+00,-2.707010267232682121e+00,-1.484790024998414726e+00,-3.418971457379662571e+00,6.542827569400462728e+00,-8.031036968214301242e-01,-1.107275024630009375e+00,-7.263836570081787514e+00,-3.005334809715858757e+00,5.943161456656720354e+00,-2.601161312556810046e+00,-2.906116992949856481e+00,-1.045998762084418693e-01,-1.215161869130445771e+00,-1.648048773374888976e+00,9.468550264212437284e+00,3.241159993993381061e-02,-4.379774164605583664e+00,1.938737375416449860e+00,-2.082641093339860028e+00,-3.880285395144549732e+00,-2.579897470555025940e+00,-6.996435633856173952e-01,-3.736591268861556348e+00,-6.991461716932267922e-01,1.009423399831693269e+00,-1.848974355106647094e+00,2.943384569387566874e+00,-1.729565520066484785e+00,6.592306669245116879e+00,-6.102613304666486549e-01,-1.319094735185134759e+00,-1.741611932237927540e+00,2.886856430338318624e+00,3.097219477188212222e-01,-3.520126122121963519e+00,-3.176331860731961054e+00,1.202638130499471103e+00,-1.935926560080201142e+00,-2.707648389190787097e-01,-4.855992622327898189e+00,-1.629223149868225695e+00,-1.562632476601267140e+00,-4.563435176352020228e+00,-1.587194261247615534e+00,3.172828098484262505e+00,-7.947503862349917014e+00,8.736091554910340173e-01,1.788850333460761055e+00,2.601478444919679944e+00,-1.480616196406417284e+00,2.112259153541614157e-02,-3.905411179850844405e+00,5.114082791422394081e-01,-1.099333673731107464e+00,-3.726988029271516289e+00,1.857930487308928624e+00,1.392340637770999479e+00,2.584114558770614245e+00,-3.738721747645854077e+00,-2.200348289032523219e+00,-2.464309937878967016e+00,-4.737415503716931320e-01,-1.539067766679818261e+00,1.006117245737967281e+01,-2.877581545621112902e+00,-1.168995457649956160e+00,3.080922114135734025e-01,1.185221778704243967e+01,-1.586615314157381329e+00,-1.789805459594109083e+00,-4.639401110306511922e-01,-3.817342438832182605e+00,2.742906269140136910e+00,5.318436559812887765e+00,-1.340175223411208538e+00,-5.246022359196619966e+00,-2.637696357529753510e-01,4.234153070585810141e+00,-2.643898564377675342e+00,-9.940919971866561955e-01,1.432035907530298857e+00,-1.936599312802327777e+00,-8.902998675114850990e-02,3.595492563146195586e+00,1.793271519075315901e+00,-2.467885026634350165e+00,-3.180125240861169100e+00,5.404264007875512199e-01,1.246494695935958630e+00,-4.598357291869858088e+00,1.602504078268924381e+00,1.885516786880679252e+00,2.422999248332373234e+00,-2.590073869491178904e+00,9.365077253858519191e-01,-6.862257195970028256e+00,-1.239117846328209982e+00,2.172824870504646455e+00,1.152755792593601036e+01,1.448588848391930561e+01,1.432420566832194098e+01,-6.940332991714835309e+00,-1.509724788793896932e+00,-2.277073764269867517e+00,-4.610993252837944034e+00,-5.726327438387728286e+00,-4.583036100383643507e+00,-3.035611078263229956e+00,3.825273482552412063e-01,-1.555503674376278456e-01,6.356815807510462157e+00,-3.764383826953031087e-01,-1.198216709250231160e+00,-5.815733986347844109e-01,7.534443347546074810e-01,-5.333117636063815503e-01,1.224993063657324077e+00,7.427434653612411397e-01,-3.094834156873029318e+00,-5.454341332696492906e+00,2.687647111573458147e+00,2.601998133748540387e-01,-2.751168568054196406e+00,-4.453728633232461931e+00,-4.062524458177599329e-01,1.525725771572155720e+00,1.904458442502578785e+00,-3.603588285513355860e+00,-2.920265747836736092e-01,-5.181520963864515217e+00,5.503571001575973121e+00,2.953170427256707864e+00,5.575065794345873904e+00,-2.934479124943928152e+00,-9.327141176208074702e-01,-5.497372162573547882e+00,-2.041215213075114610e-01,5.107736914126280725e-01,-9.778712143585881478e-01,8.002775170664854443e+00,8.344144674542075535e-01,-3.694376545623139663e+00,1.907977856564968891e-02,-3.459064416088247107e+00,-4.214657370719739227e+00,-6.570578872907320012e-01,-3.212913705546099674e+00,8.872120718234215442e-01,5.061996321276037714e-01,-1.713640026233998581e+00,-1.184397093938034384e+00,4.546343683827916315e+00,4.493662324515401707e+00,9.493277602079751576e-01,-1.651776315435381060e+00,1.887389516513698906e+00,9.393226137362015171e-02,8.122727279372065068e-01,-3.794083805117816510e+00,-8.249421557815734829e+00,-2.637309136164357470e-01,-8.308638414201011679e-01,2.183920045556038136e+00,-3.079054915756922473e-01,-5.742255632808095811e+00,7.794445913100561008e+00,9.717764672569630946e+00,-5.270809272540767587e+00,-5.478856037746990815e-01,2.046650797924462140e+00,1.196452510401189606e+00,-2.596882692107364665e+00,-8.639190291719649473e-01,-2.362378636724292491e+00,2.903371855669273138e+00,1.011145508016645156e+00,-1.161623879749406951e+00,6.070509489227126076e-01,-3.656001557580819128e+00,-1.649304905200333682e+00,-3.735989101387988232e+00,2.864092869414454623e-01,-5.464149233248064341e+00,-2.066436330989922077e+00,-1.661085079493669570e+00,-8.683041651352907397e-01,-3.825156919888480722e+00,-4.827999492389405845e+00,-1.858516123780425744e+00,-1.571945536054921932e+00,-1.363241502613426359e+00,-2.789770798389664019e+00,-2.754068618533579205e+00,-9.798294949535063525e-01,-2.684428167347034044e+00,1.129261888136237735e+00,-1.338233544203618397e+00,1.447805813960865828e+00,-4.968986145665851950e+00,5.835522392904157751e-01,-1.825210517764502605e+00,3.583644017989428665e+00,-6.154322830809471068e-01,1.271989307183423179e+00,4.094647839015792101e+00,-6.440031922310096579e-01,1.276029936318017199e+00,1.264146560561805721e+01,1.633232469640532702e+00,-2.390305619309773366e+00,-6.617821290566046066e-01,-5.480967313904158367e+00,-1.321595398892246642e+00,-7.317421199037579704e+00,6.396242836570551482e+00,-8.705512249587341600e-01,5.954417217538630069e+00,2.254233022388426377e+00,2.324433209179680992e-01,5.661442227584098097e-01,-3.541341252428852115e+00,-7.828085864933314930e+00,2.942798244240588890e+00,-1.719998083553286872e+00,-2.307743310339333664e+00,-1.035929939968768698e+00,-1.674082224382346995e+00,1.702125184430173022e+00,-4.501378444586496386e+00,1.577506138806695768e+00,-3.165164730955258410e+00,-1.722305974699913200e+00,-5.441530820665389179e+00,-5.679714792363334652e+00,6.845736460825822434e+00,7.089861063538760000e+00,1.172169555553511167e+01,-3.356309383111630851e+00,2.984842054407522038e+00,-2.707434327953347264e+00,-4.677942495757334007e-01,-3.309806459240935972e+00,-2.099428466349412492e+00,-5.699461955958390114e+00,-8.380444956128090261e-01,-4.972224019285257590e+00,-2.478369929961717677e+00,1.635464423146138380e+00,-1.678723018751702600e+00,3.877093881799304143e+00,-2.936041159673440926e-01,1.126068691128887744e+00,-2.239527364385614228e-01,1.032930852066033189e+01,-1.177663503781139070e-01,-1.489064328935483017e+00,3.687240321900978834e+00,-1.758709653996499034e+00,-2.140974234448077329e+00,-4.915772049002915089e+00,-3.663545992315529798e+00,7.422209164798878156e+00,4.575906094032568205e+00,8.182210448191674645e-01,2.057959380100315427e-01,-4.038973922641396208e-01,-4.129415538023393673e+00,-1.686894061148854540e+00,1.364310287188650550e+00,-1.084490044233332062e+00,4.909370701217124378e+00,7.995834403042761940e-02,6.025784815283084406e+00,3.504321925607579713e-01,-9.326358239260122696e-02,-2.280750139805055809e+00,5.801723179784117335e-01,-2.659273229125217686e+00,6.516665241864220137e-01,5.295884095766933974e+00,1.183052778952596862e+00,7.230894160537295612e+00,1.203617370605100767e+01,-1.185044469810807799e+00,-1.414227280782025309e+00,-2.209713957156870023e+00,-4.619387483478021750e+00,6.302947628076478737e-02,1.963321963895915179e+00,1.348958555626932387e+01,-2.004958339661431665e+00,7.014174053647486140e+00,5.441170988804670650e+00,-8.370408177034571739e-01,-3.728095511729874190e-01,-3.633035458474599189e+00,2.736889466486715161e+00,4.345734892734554045e-01,1.273442116711105676e+01,-6.967245485608563271e+00,-1.042814247427225949e+00,-4.213219462371231572e+00,-3.530580742616917095e-02,1.488552196099175440e+01,3.691083275024633625e-01,-7.269028257718012753e+00,-2.534875883281797027e+00,-1.429890119380184066e+00,-4.113675828562180392e+00,-2.371890757266740923e+00,-4.934831344646804507e-01,2.126590288892062031e+00,-5.092282240854510977e-01,-7.504903696007737546e-01,1.253224218618144148e+00,-1.411436709266517209e+00,5.957746052368833922e+00,7.352882469480970684e+00,1.007395085009548019e+01,-2.054864567162836941e+00,-5.130734627115973723e+00,-1.065615295653311145e+00,-1.830091635864315558e+00,-1.453817074731436065e+00,-3.148266436160524595e+00,-3.043821746330375611e+00,-3.898820803011546765e+00,-2.102138358882685854e-01,-6.049762105434527193e+00,-3.047539867202781139e+00,2.187684492895706878e+00,-4.009427017420148509e+00,-5.078742748429082354e+00,-2.357641561430688260e+00,1.178099852999753061e+00,-2.069703554261932421e+00,-1.701107914879249838e+00,1.596038534689961097e-01,-2.838872430265569680e+00,-3.845506295298155131e+00,-1.651386824253504804e+00,3.961627983789859364e+00,-3.770849093224963311e-01,3.494466562736155524e+00,-1.094669064363316346e+00,2.982743315685941088e+00,9.803348143678521254e+00,-6.539634173829035113e+00,6.537630759352881960e+00,4.997742964202330995e+00,-1.068524746674946124e+00,1.248352121443434548e+00,7.159842834353603580e-01,-4.266633703195950034e+00,-4.212860821036445103e+00,-4.771001623187888896e+00,2.590998008594207480e+00,-2.608190982307782235e+00,1.047271897606434132e+00,-5.314306433356049908e+00,-3.046118457706957994e+00,4.356977111263964808e+00,1.926879442462342551e+00,5.535452449174464995e+00,-2.078517577359916491e+00,-4.771820023046576154e+00,-3.022210116807085623e+00,1.813813317153883276e+00,-3.772899506689912918e+00,-3.749292837206126716e+00,9.249188508505929995e-01,1.108378295750370945e+01,-3.602859002661191745e+00,1.193281926551310601e+00,-2.030799854268056759e+00,-3.788752576770170855e+00,-1.635524257219810318e+00,-1.799105776363194797e+00,2.555633992207463567e+00,8.310998857091906444e+00,-5.660964052549716241e-01,-6.304015441019719113e-01,5.608405263438219768e-01,-2.637814805772394688e+00,-8.272245821401892352e-01,-3.602506926790872033e+00,4.385522511372654808e-01,-1.715329436040437527e-01,-1.143125277478858948e+00,8.909728725495580370e-01,-1.415972024230418347e+00,-2.128133439459026111e+00,5.552804453431185117e+00,1.292299006326856015e+00,-1.614324263222401523e+00,-3.463525011500634854e+00,-4.006612251804871683e+00,-2.983568836316361050e+00,-4.229901201218521756e+00,4.759276884463445434e+00,1.033106824707462401e+00,1.025108848980872089e+01,2.212188891505942223e+00,-2.690244984250899307e+00,-2.403173407470029499e+00,3.820366361933650978e+00,-1.424660638862924600e+00,-3.354650796742963403e-01,-3.711185999885116882e+00,2.975064938777457701e+00,-5.328441622848562709e+00,7.838822791678436985e+00,4.108927528377880556e+00,2.646488531563529367e+00,-2.512611415460410225e+00,-3.238142995537749869e+00,-5.193030979681307890e+00,1.545426914690115616e+00,-5.529909332873878647e+00,-2.344871432798954825e+00,-1.488172358923849081e-01,-5.466900000316245567e+00,-6.266401618893167935e+00,9.761507207756636717e+00,-1.523364614494987501e+00,1.361949970372732244e+00,2.918015427196037681e+00,8.795166392875811701e-01,4.205557976070714687e+00,5.427002007618014767e-01,-2.245340976261320343e+00,2.188654336512386944e+00,-8.897794192133677171e+00,1.337433970594857691e+01,-3.678111683347573990e+00,1.029367447224831977e+01,1.715478925306179736e+00,-1.644915035199109532e+00,-5.935672704074986150e+00,-2.903614196537595671e+00,4.216625039241162831e+00,4.923518680163518013e+00,4.630835952162828839e+00,1.388768927747627391e+00,-4.499572218759720355e-01,1.506101114767547955e+01,9.317576627785021381e-01,4.379003155238478939e+00,-3.890117174366392039e-01,-4.805241691566521922e+00,-3.815180549789189968e-01,-1.695754811071308987e+00,-5.318623102221260446e+00,9.437558244556683462e+00,-1.569719040134914367e+00,-1.221208241038184594e+00,-8.011801208881090819e-01,-4.743966915262173956e+00,1.713407256162108094e+00,2.389157118995563156e+00,1.250710051588548488e+01,-1.975689166141696707e-01,1.272853303926469781e+00,4.875202985838535952e+00,3.404853367297657751e-01,-5.343698914504029229e-01,9.794690377908084056e-01,-2.492300730248473428e+00,4.090854215259770221e+00,6.978235336438014080e+00,-3.956656271561153737e+00,-6.573596387181511957e+00,4.899130307970356313e+00,-1.728071116444948263e+00,-2.473986761796301004e-01,3.551204078405610254e+00,-4.794429457874781697e+00,2.620693516731272599e+00,-5.332867707689869619e+00,-5.843203750340112634e+00,8.371740574730731410e+00,-1.229208681079006826e+00,5.434024469051420780e+00,1.302618015181613131e+00,-1.448120798270754461e+00,3.729423266795388048e-01,2.662359701559716463e+00,-3.940059157412778568e+00,-1.213838308009703271e+00,-1.705003412270360563e+00,-1.191288060382883707e+00,-4.029784881621052861e+00,-1.196888014935073574e+00,-1.707311976597726488e+00,1.334706167016188383e+00,1.160469863412664671e+00,-9.471774156331870531e-02,-3.697691975633012440e+00,2.385071899617418723e+00,-4.872009698482947293e+00,-1.291162021037776331e+00,-3.798065828877612571e+00,-6.731127247821786508e-01,-4.453888350211712144e+00,4.773908175690015909e+00,-1.870427691626730837e+00,2.013292162523715678e+00,-2.668781719981000222e+00,5.023877323752397039e+00,-7.444659756088209512e+00,2.587235606112271658e+00,8.558719829882583952e-01,-2.744577966325679963e+00,-2.890289070740301725e+00,-1.886028306697796753e+00,8.592412775846851147e+00,3.418977804405471943e-01,-1.503785372403315890e+00,-6.665551666958605459e+00,-2.969549367290267750e+00,5.846031309474387427e+00,-9.645111763706423202e-01,-3.163421250626195835e+00,6.795518546178442865e-01,-7.127239557241313861e-01,2.430108000227264309e-01,7.543275579716192780e+00,1.114631946223021853e-03,-3.510028807256617256e+00,2.548500015178044364e+00,-1.629496148042351988e+00,-4.083016102367568401e+00,-6.809360516400110308e-01,-8.251019544238812342e-01,-3.628181370648829507e+00,-1.103847097748315437e-01,2.742116713319876720e+00,-1.841241364553491966e+00,5.612753607802779321e+00,-2.053423177182378545e+00,5.813841049214848233e+00,1.305234092795358181e-01,-4.285976938865704855e-01,-2.572169520998519587e+00,2.362934694299783978e+00,-7.187265719879437631e-02,-3.966772819954567986e+00,-2.806074898677513918e+00,1.922269428364931310e+00,-1.123813747418086040e+00,-1.071881235953308309e+00,-4.881855334303258687e+00,4.191388821441198176e-01,-1.393539201517093984e+00,-4.786437873498362805e+00,-1.223012779374771375e+00,2.724853830982283842e+00,-1.026505787601355202e+01,1.071670773101405932e-01,2.925115233545334537e+00,3.089153122966854959e+00,-1.380964744500331465e+00,3.625916473747279878e-01,-4.572799306523812390e+00,1.338128482802927177e+00,-8.354960217351181662e-01,-3.071667508913693556e+00,2.180181831923189595e+00,1.498871946020562396e+00,4.673863851306193418e+00,-3.856812681676313304e+00,-2.306977108937283472e+00,-2.646507783970280858e+00,-1.303946540411864974e-01,-1.417254548411885251e+00,8.831868104723209711e+00,-1.924226520468987678e+00,-7.362137989364940793e-01,1.620932250813275632e-01,1.194561145079150144e+01,-1.895171584359948147e+00,-1.834662768205954420e+00,-3.347328540167136546e-01,-3.823503873556377552e+00,2.018640246741068900e+00,6.716987218660533721e+00,-1.831736775888386459e+00,-4.965833156377688518e+00,1.551629899745720298e+00,4.468933153467678387e+00,-2.140878566333769939e+00,-1.439992971326681026e+00,1.312922582195199528e+00,4.236659294173089618e-01,8.966918834636820046e-01,7.332274164178752329e+00,1.204377718475115655e+00,-2.243377834473946120e+00,-3.607455363618568889e+00,-7.089534007116048142e-02,1.835422855328503910e+00,-4.117414102155260380e+00,1.167270566383810104e+00,1.120881957038411203e+00,3.424603237399408417e+00,-2.993803004848559102e+00,1.285266421807402581e+00,-6.145051380061402391e+00,4.119849432675304346e-01,3.159740473737497002e+00,9.567519640534442260e+00,1.251993710448945052e+01,1.696444996264900951e+01,-6.279592484047092249e+00,-6.294915820021055319e-01,-1.351605863271183372e+00,-4.747831150345351858e+00,-4.674716742791345858e+00,-2.981180878190467176e+00,-2.835782714704810026e+00,4.172169377765441167e-01,1.127842294085685371e+00,4.904925218531230868e+00,-5.886429534448104350e-01,6.371229146241862429e-01,-1.031247905812282317e+00,1.404400678800732105e-01,-7.965836635442584690e-01,8.750949883249261596e-01,2.265585988648406435e+00,-3.217656471290917253e+00,-5.135073337909221713e+00,4.314671173233579182e+00,-3.239011931923265197e-01,-3.049604688045396639e+00,-4.501065538790870235e+00,-3.265069136203953559e-01,4.275635842618109805e+00,1.723507091252671986e+00,-3.707750974743784234e+00,4.886221963465662557e-04,-5.573555804268703007e+00,4.277238568237152094e+00,3.106650110326438785e+00,4.715707364214848596e+00,-3.135623212669916615e+00,1.882539598436609340e+00,-4.548058448248265329e+00,1.965691029791688749e+00,1.055463950809783613e+00,-2.137061724783538175e+00,5.888324638145569168e+00,-2.651876806148100174e-01,-3.587486669152602836e+00,-1.231051528847624921e+00,-3.014174534692479313e+00,-2.711325876437370219e+00,-3.059364935848490896e-01,-2.915053222862064253e+00,1.561768276101871855e+00,3.832961925258017710e-01,-1.499728650901595572e-01,7.183879098336745650e-02,4.491853753333629129e+00,1.770755176672433651e+00,1.033404749139530843e+00,-1.970255451313295492e+00,1.856581087559023402e+00,1.362699850312853345e+00,1.909898579966940790e+00,-1.979315338854292339e+00,-7.958496998907832243e+00,-8.272403239285239795e-01,5.505606670672295866e-02,4.526454134379775951e+00,1.287453925563468715e+00,-5.607018127521207873e+00,6.752995596330471528e+00,9.484126217059316133e+00,-4.449204215262200890e+00,4.241279166863648475e-01,4.035964891332985971e+00,1.740838820406810372e+00,-2.593557620256483620e+00,4.763611949888216790e-01,-1.454855994645799955e+00,3.092435846148466005e+00,5.142291601269414203e-01,4.839967536607678311e-01,1.186358543188137160e+00,-3.171893149725702354e+00,-5.704610961489835486e-01,-2.785109391209531271e+00,1.301827101585206314e+00,-5.269884756647066126e+00,-2.426799339842170777e+00,-1.355651213299251312e+00,-8.481330926491774669e-01,-2.892210255393197205e+00,-2.892024977542543951e+00,-6.158405093252639073e-01,-1.992962320794651854e+00,5.318200094923583032e-01,-3.663308368479232802e-01,-1.690596061982319931e+00,2.139966184458895193e-01,-1.623559951229052167e+00,1.316283918920070573e+00,-1.542295164491615633e+00,1.795937134620833264e+00,-5.096918534416755797e+00,8.689759665043534920e-01,-2.880740778562761228e+00,2.825492866388986002e+00,8.916095513404672657e-01,8.155307471365151883e-01,7.870750880486232504e+00,-1.074434419056090606e+00,6.146828841280893574e-01,1.133804832360423021e+01,3.019996755094666696e+00,-2.240677490269466610e+00,-2.533494209587835444e-01,-5.901273215002259320e+00,-3.088963317570245781e-01,-6.249905542092681010e+00,4.244470689612106717e+00,-3.139889695698607763e-01,6.351435817732743239e+00,3.584299080819205674e+00,-7.114409402788547387e-01,-5.458877361594579453e-02,-2.583794248629124990e+00,-7.019086121438004255e+00,2.362315749649839258e+00,-1.799034817977841927e+00,-1.535159004415816764e+00,-1.577344320338248451e+00,-2.918521292180566551e+00,4.634692881268274722e-01,-4.571030565151718683e+00,1.850134195406342164e+00,-3.284695025971836824e+00,-1.325080290133804795e+00,-4.582621317310759501e+00,-4.532776843179120441e+00,5.896332337911074362e+00,7.040127039615897253e+00,1.299822537675893486e+01,-3.724981985074056201e+00,2.928228741139207170e+00,-2.732479928058417329e+00,3.511063289432888590e-01,-2.794330054318354239e+00,-1.318431072638362123e+00,-5.780699479169792987e+00,-2.098918649225676170e+00,-4.564522346428358190e+00,-2.567500689561921234e+00,2.320411198763608684e+00,-5.787365479923733957e-01,3.244510790396706756e+00,7.285588295818231641e-01,1.715928915002551403e+00,-7.763881197033734027e-01,7.331567053719797222e+00,1.698542074175680705e-01,-2.055908638718738413e+00,4.173669028856475727e+00,-2.217503247031585634e+00,-3.645275466199442871e+00,-5.068016941709211132e+00,-2.641740943721279322e+00,1.075447973072039076e+01,4.571564729518133419e+00,-1.711111392725133684e-01,-9.825267943261430936e-01,1.408479312236041503e+00,-2.746731871397666502e+00,-1.958469588496452252e+00,1.460092088351266082e-01,9.071399591958649866e-01,5.440067684597735820e+00,1.172931541712478598e+00,5.807451105156689941e+00,2.207455312188503882e+00,-9.846441732141912873e-01,-4.472745299164331279e+00,6.406365498464297037e-01,-2.901199926131684315e+00,1.429052851377640376e+00,5.558532841189360418e+00,1.713650981263867390e+00,5.889397684796593424e+00,1.113408302376930337e+01,-1.709387062409664315e+00,-3.052835200685492523e-01,-1.327537795772861795e+00,-4.866573371076057697e+00,3.394102911206938744e-01,2.585984200893149954e+00,1.373769137616922897e+01,-7.165259008056015233e-01,6.685719355028346911e+00,5.194451116825816506e+00,-9.648108886738922599e-03,-1.559915537931988894e+00,-3.770526547425534503e+00,1.193339954648970025e+00,2.004262156869490052e+00,1.067707945601095965e+01,-6.082759870021149595e+00,-3.195693615806004750e+00,-2.638023202119354149e+00,1.325343100529550622e+00,1.447168534191611045e+01,-3.213971498785456182e-01,-7.532061796163970868e+00,-2.133830215322766843e+00,-1.449731588735799548e+00,-3.852987802702408260e+00,-1.920175787280821167e+00,-1.665318035934511665e+00,2.532277844407092582e-01,-3.550123911218228123e-01,2.209925974420143546e-01,7.468387505449797237e-01,-1.848614642570882260e+00,5.078329076829183109e+00,5.963238989349056496e+00,1.203165646758895235e+01,-2.248074630376291960e+00,-4.817484519024737288e+00,5.515280055739565368e-01,-1.403766422812604331e+00,-1.668502296417994746e+00,-2.721421550880445128e+00,-3.368207819829536209e+00,-4.383908355702088144e+00,-6.309345418914945602e-01,-4.237165595374969840e+00,-2.748519124325958796e+00,4.238593244582110842e+00,-2.192102758317915345e+00,-3.530778401243811704e+00,-7.155544137997608134e-01,2.179625837818609302e+00,-1.856029743952519739e+00,-2.796715000965462217e+00,-1.142223162624353305e+00,-3.122573607996330658e+00,-3.785421225528410982e+00,-2.737460647615139298e+00,4.528972678907318361e+00,-6.935000767239524189e-01,4.083603521439679085e+00,-1.574207579702756155e+00,2.844555399974993737e+00,7.642345708005547245e+00,-5.435074066447659114e+00,5.642566423235567896e+00,6.712286956059414500e+00,-1.347631796290167383e+00,2.671323515649069780e+00,2.248714861592222114e+00,-4.189448551371866003e+00,-3.710901182751277450e+00,-4.152279795190036538e+00,1.743046360631745451e+00,-1.858981434184304060e+00,-1.557810444780029502e-01,-5.574323936678391433e+00,-2.708606895258681035e+00,4.783191274413567839e+00,2.454706962788147262e+00,6.047543321145291806e+00,-3.670060372573918372e-01,-5.647877013039575900e+00,-3.327684234836390531e-01,3.884989167361779128e+00,-2.885095993298159911e+00,-2.888860190833637986e+00,2.086973585560649713e+00,1.015762986708994831e+01,-2.812340162069489224e+00,6.973401528512569447e-01,4.181864209084876771e-01,-3.126659755683806274e+00,-3.035309973316220766e+00,-9.832015454138450794e-01,3.648376505579482565e+00,7.924663404807562372e+00,-6.486619493345997522e-01,2.119085327996551305e-01,-7.461798750583599205e-01,-2.286731406822117563e-01,-1.012181355843892794e+00,-6.851161489313560615e+00,4.898397309178002118e-02,2.332778905527697066e+00,5.896585260452935628e-01,1.895072322826844013e+00,-6.194577247017254429e-01,-3.697566935926180243e+00,5.708110728205568307e+00,1.584018939430257067e+00,-2.379795377114387378e+00,-3.220596790250203512e+00,-4.302883991348644521e+00,-1.127029661794973547e+00,-3.538854091198123886e+00,6.316422375637523068e+00,-1.038503884359281759e+00,1.061562796205166848e+01,3.372681155618382220e+00,-4.375964667948854192e+00,-1.517874957517018730e+00,4.958236753409673625e+00,-2.217139615896339677e+00,-9.733576605458559294e-01,-3.767071295095486771e+00,2.284989321952004104e+00,-4.157551135594767189e+00,7.024928192951281680e+00,6.123998789433372281e+00,2.580669839373988417e+00,-3.890544598642845520e-01,-3.521193215539371923e+00,-5.196828376241017899e+00,1.917137180040727307e+00,-6.204579865005430683e+00,-1.794679687356374398e+00,5.989457416128715073e-01,-5.489089668979036496e+00,-6.084480840620943631e+00,1.264764786317028644e+01,-1.871160307090897090e+00,-1.456899664999130373e+00,3.622747754064983727e+00,3.895067299260118743e-01,3.780594135584042004e+00,1.764930696635823137e+00,-2.311292908643172606e+00,2.380183548715405273e+00,-8.600981205354512937e+00,1.236645154851723483e+01,-3.100656260937426634e+00,1.065094658002790240e+01,1.895066539988214283e+00,-1.962728585191893638e+00,-4.599463897793478750e+00,-2.500155114688956459e+00,4.542227090027321168e+00,4.758287724412813446e+00,3.825408775673318384e+00,1.146785306660593973e+00,-6.365693018052591690e-01,1.676730192666301988e+01,2.780678948395574501e+00,3.641146737567620750e+00,1.086223714456228784e+00,-4.468469379692360022e+00,2.623505162732659921e-02,-8.858178574006374262e-02,-5.127474398921904708e+00,8.152639920551202124e+00,-3.540745843982839425e+00,-5.646224462029082458e-01,-3.709759297288597879e-01,-5.122049712386090192e+00,1.020382043503021752e+00,2.813001450358246558e+00,1.412571681964471892e+01,-3.203822696309199358e+00,2.640852510417466270e+00,5.983564158100634245e+00,6.111084628923429962e-01,-1.546217320148524643e-01,2.285964010132468083e+00,-3.604307865970087121e+00,3.486703366214399136e+00,7.039860343743929327e+00,-4.486610877316249635e+00,-6.471927207731104303e+00,3.048065245659867806e+00,-1.462912303614156251e+00,6.672249304379662682e-01,4.735835455438215824e+00,-5.273258214751738393e+00,4.212499398640636272e+00,-5.541817590812237349e+00,-6.744055870956147558e+00,8.306896445126424666e+00,-1.357635435863545403e+00,6.216483206825315300e+00,2.209676074025033632e+00,-1.531297728129468627e+00,8.808577405697679552e-01,2.681011591790781967e+00,-4.893682146836680680e+00,7.892363197594511048e-02,-3.820195450731365683e-01,-1.141205325517482772e+00,-3.951419566809383888e+00,-9.529732903457107662e-01,-9.578987750388112676e-01,1.338269915379134423e+00,6.883520356350184000e-02,1.400328807826646815e-01,-3.578155446109234195e+00,3.111003668979778425e+00,-5.203739577878569555e+00,-2.114156199267953617e+00,-2.310432620887513000e+00,-1.105128648604770669e+00,-3.846973955516484356e+00,6.685477770103548600e+00,-1.603156666400790797e+00,1.509755318226369658e+00,-1.801509993212887073e+00,3.354545254522444342e+00,-7.333516311757470874e+00,2.418761707850690890e+00,3.240875205114164714e+00,-3.612579189782380684e+00,-2.140210804151216450e+00,-2.461860041203680183e+00,8.599589281458838386e+00,2.967510016187572264e-01,-1.688047500412486412e+00,-5.202880931193520020e+00,-3.348296486079234580e+00,4.982319511217859542e+00,-1.629874943944315646e+00,-3.978256044453685192e+00,1.001024792086613990e+00,-7.717475549753707309e-01,6.810066662982799945e-01,7.587573433685826707e+00,1.558886376652322214e+00,-2.626448454228673235e+00,3.351522316334859308e+00,-1.733549323426036404e+00,-3.794928531536195582e+00,-3.577050554154852235e-02,-7.961060479463566431e-01,-3.730946784710071906e+00,7.310788184270687884e-01,2.468201689685445288e+00,-2.196362525096624552e+00,7.791040028519719662e+00,-2.616020136748836933e+00,2.344046371402680240e+00,2.084287983885636741e+00,3.656441377679546245e-01,1.335391474428608560e-01,1.486196990213889180e+00,6.400782598225278619e-01,-4.711062882137941443e+00,-3.498638991343438587e+00,2.223505148386608898e-01,3.158340233952872667e-01,-6.703050743183639471e-01,-3.680955162682628679e+00,1.978028727271164522e+00,-1.116515790806709596e+00,-4.431370933325711192e+00,-1.865681135169387383e+00,2.563417663524385937e+00,-1.195682917903583053e+01,-4.528994319886514575e-01,9.672576159313486244e-01,3.422221426463934346e+00,-6.884467876631684691e-01,9.807480665268539788e-01,-3.143096172400353439e+00,1.234209901349463623e+00,-3.940101469162902714e-01,-3.861840711910714763e+00,2.805144098273187225e+00,4.699285941301480918e-01,4.502588789465042929e+00,-4.573362551449966062e+00,-1.307076329471795972e+00,-7.125459906955184941e-01,-5.401414887944293586e-01,-2.000809693160813030e+00,1.002282438605060122e+01,-1.619898022698574414e+00,1.448360646814739749e-01,9.876767165432884799e-01,1.317005738503474355e+01,-1.425794506165885878e+00,-4.383612070815284256e-01,2.297439697294857974e-01,-2.661918854947364022e+00,2.753066467267721418e+00,5.434410908674182750e+00,-1.723907316902838494e+00,-4.589666592856591620e+00,2.464127463471909252e+00,4.141861103964873614e+00,-1.245885058416693614e+00,-1.250498242414672889e+00,2.417532288132640872e+00,7.690809868818700989e-01,2.057799850946429476e+00,1.008807988612735151e+01,2.246429483393953319e+00,-7.776451245832244341e-01,-3.645382032234600889e+00,5.800093339874239362e-01,2.001377425354754713e+00,-3.214350159599215218e+00,1.679426839760858270e+00,1.038151917733813656e+00,4.193737351701482652e+00,-3.517654439244028097e+00,1.773435652891691472e+00,-5.325556066945608791e+00,3.341206220676882221e+00,3.471514025065961295e+00,8.026988129778684922e+00,9.946846794810236148e+00,1.713335182864543071e+01,-6.751227872924908446e+00,-9.530606437617533677e-01,-6.955325184589035148e-01,-4.576650452398816959e+00,-2.831645108758939156e+00,-3.154155255101335431e+00,-1.315897706770210229e+00,-1.200134677068523059e+00,1.574720902049131288e+00,2.074231699846448951e+00,-2.510477188755310118e-01,2.412653445351364834e+00,-1.239730152109324024e+00,-1.377985314104898995e+00,-5.971252800802619998e-01,6.454405336922781622e-01,2.807036987794820249e+00,-4.156387683907669661e+00,-5.357626408465614887e+00,6.696270351628141881e+00,-1.573305941331075042e+00,-2.387249317145983429e+00,-5.062701596175886110e+00,1.585184103813432888e-01,4.445295527764590027e+00,1.275489029752765235e+00,-3.390292141177015939e+00,8.444962033313159200e-01,-5.875534347336218488e+00,4.934431604349409639e+00,2.941134454595049075e+00,3.687422025916014867e+00,-2.556630156087205119e+00,3.471612979619612904e+00,-3.945591251152190893e+00,4.058210732848613889e-01,7.709430319824170930e-01,-2.288307789875782206e+00,5.954822177999023580e+00,1.008551045209280794e-01,-2.896054399371569499e+00,-1.981550704606100721e+00,-3.248006596851923611e+00,-1.358632914189399354e+00,4.653629168438455643e-02,-2.756792077034389443e+00,5.741718898255265824e-01,7.458910457905779667e-01,-3.387726590230652479e-01,3.481004225914512418e-01,3.861630157618914705e+00,5.533007948440034074e-01,1.156290374081114569e+00,-2.892381815891919006e-01,2.283246806033171428e+00,1.900754045058130393e+00,1.402903010145860829e+00,-6.062759593960222876e-02,-7.323872538714867986e+00,1.526795044494490966e-02,2.044228827890957945e+00,6.549432053365473294e+00,8.883249257751986150e-01,-5.224510998092445568e+00,7.289980832753403028e+00,6.979501785059954777e+00,-3.782411136292417986e+00,-6.065934322979184001e-01,3.683177427852550423e+00,1.826057389631236427e+00,-3.214424604273462105e+00,-8.985359016156326817e-01,-1.749501683180541667e+00,3.716473489406508346e+00,-6.332509470033143018e-01,-2.525124495556415050e-01,9.254701860207829034e-01,9.567360002589077317e-02,5.712209442116017444e-01,-3.010544756752957518e+00,-4.073587498018434450e-01,-5.482210850328958607e+00,-2.837645484458484635e+00,-2.122541897608015038e+00,-2.317787403507683308e+00,-2.676064883571050768e+00,-2.426865689868950238e+00,1.752237993685475115e-01,-1.136322106306071555e+00,7.378266944819927842e-01,1.650142405229523712e+00,-3.303314719384946585e+00,1.071841237275422243e+00,-3.033322937271893949e-01,8.582750116130742901e-01,-1.709885456851736318e+00,1.454349493788604342e+00,-5.646194633978210753e+00,1.632659176631006570e+00,-3.052044409094656796e+00,3.487075470114339382e+00,1.547819857234490115e+00,-7.149666021312216513e-01,9.412783544954054449e+00,1.129810311812632362e+00,1.955252042206932772e-01,1.187494377689492886e+01,3.149700025566191552e+00,-1.842809986331823247e+00,1.621761152399589789e-01,-6.050621675518128129e+00,-7.194794181253187926e-01,-6.451570400970528141e+00,2.307853578874054623e+00,-5.639729861176018266e-01,6.375393694062191585e+00,4.499912344403566244e+00,-1.856925985077839236e+00,-4.107475967919119175e-02,-2.595580645784116847e+00,-6.857502639906139841e+00,1.175008788689738903e+00,-1.387019251486034443e+00,-1.010663651993220169e+00,-9.203400363310754173e-01,-2.864041242957149791e+00,-1.367298195407941730e+00,-3.879597027402607257e+00,2.380794480955913617e+00,-3.428555425074865326e+00,-3.632651278056138466e-02,-4.022359868215556133e+00,-4.162073616126125586e+00,4.713176602050355157e+00,5.110639936120432658e+00,1.397237251597140251e+01,-3.701420151895583821e+00,2.981865076678834825e+00,-2.922756115888706319e+00,2.348722815606405501e+00,-3.062840073364378579e+00,-1.750336297067790259e+00,-5.391342342926946252e+00,-2.878809223232495995e+00,-5.007810637609240167e+00,-1.610657808648642719e+00,3.989443060782050132e+00,-1.260875069702201534e+00,2.966275172895130208e+00,8.545624043944489712e-01,1.663267725066049474e+00,-4.058264374447876910e-01,4.764867957329297354e+00,2.064790605386279232e+00,-2.877958822578052800e+00,4.424077572476107001e+00,-2.442008425458115806e+00,-3.711246507244133408e+00,-4.980059479658570432e+00,-3.216683065330707691e+00,1.106896973372572113e+01,5.825949483528290784e+00,-5.950919902063578348e-01,-7.171584502246952653e-01,2.622353343268935433e+00,-1.654831845286565795e+00,-1.164744228403799653e+00,-3.952193858138573490e-01,1.320774270989398813e+00,7.143655554456727508e+00,3.314348734778016503e-01,4.810644954168457943e+00,1.782456043553272362e+00,2.169441489624879260e-01,-5.130316603482501847e+00,1.201407036155751396e+00,-1.481775817747303492e+00,-8.924165727399571146e-01,6.105368991297697612e+00,1.975858167086677719e+00,5.024044718840067425e+00,9.717812553707579681e+00,-1.964410298046920023e+00,-1.074768055073732076e-01,-1.408495976120473170e+00,-5.030197568407191788e+00,1.252749981306811478e+00,7.698990644832139907e-01,1.395280549331446274e+01,-6.207437440194271128e-01,6.510672712433906106e+00,5.973344162250421974e+00,-4.639999455649672089e-01,-5.877700036609211365e-01,-3.185863684494323333e+00,1.358641908114672558e+00,2.944065823997254583e+00,9.081799756039885096e+00,-5.499135796459850845e+00,-3.656013344302703416e+00,-2.602091670705362514e+00,8.089484299384352983e-01,1.406436387910459551e+01,2.916392643762726333e-01,-7.588850059425354289e+00,-1.761970734211987910e+00,-1.784968494069755218e+00,-4.020371414589063441e+00,-5.126068615707607412e-01,-1.114408804445662815e+00,-4.558512817081464830e-01,1.258052222875203130e+00,8.717005302052438509e-01,7.480995984267978516e-01,-1.273737017720411702e+00,3.324874911872421013e+00,3.876581177184201366e+00,1.297581786503714518e+01,-1.489579929454359686e+00,-4.983130274309106156e+00,3.055949787062674172e+00,-2.204194039108955838e+00,-2.144589794357545931e-01,-1.142311050013222529e+00,-4.233795008138018900e+00,-3.487802226631770086e+00,-6.615488914244659346e-01,-3.599131847259942951e+00,-3.325611449834461553e+00,5.170579408175773217e+00,7.822107571051438724e-01,-3.011483585191855106e+00,-9.511070429325179099e-01,2.218398975212596103e+00,-1.215909089508740992e+00,-3.008207561029260457e+00,-1.690277640930794023e+00,-2.622264197735417746e+00,-3.680895542912628660e+00,-1.469781071915622128e+00,5.004422109857606493e+00,-1.004905420381140724e+00,5.532144582374903585e+00,-1.947649603840943433e+00,2.573148006639425667e+00,6.778624720290140182e+00,-4.382157317951758557e+00,4.463264958326584875e+00,7.075651455442896420e+00,-1.190612551183050760e+00,4.421101481554452484e+00,2.907849183851981767e+00,-4.146135524866253697e+00,-3.250839569009874808e+00,-4.131884345810596493e+00,2.642607177017582742e+00,-1.683144104828279364e+00,-4.542822501340128549e-01,-5.781048278718902367e+00,-1.349784445606649008e+00,4.274142697730337837e+00,2.842174381859135845e+00,4.877180735047139670e+00,1.267881530449541438e+00,-6.263596986289575064e+00,2.208408378451812926e+00,5.433950002567145887e+00,-2.480981233171192013e+00,-2.913661674214353070e+00,4.179927883427162705e+00,1.000999368906053100e+01,-3.232266236587019392e+00,1.681977621486122898e-01,1.280361547196837702e+00,-2.441116900287321201e+00,-3.303726194411565231e+00,-6.564649938464971468e-01,3.521342596509178247e+00,8.280934830366643240e+00,-1.823895959078414564e-01,8.878785926011254492e-01,-1.008443655583951104e+00,5.995050099128450549e-01,-7.690900907587551183e-01,-4.892439799627540609e+00,-2.382333296434474210e-02,3.364632786686191146e+00,1.198844031715246672e+00,4.152592401935631727e+00,-1.827813459506649307e+00,-3.003563083726715099e+00,5.246076018716156142e+00,1.831299330068232312e+00,-1.850110472099435910e+00,-3.027960157412600051e+00,-4.872946789226192621e+00,1.056655904508767563e+00,-2.586618755408655268e+00,6.470099822160438663e+00,-3.608419224784033541e-01,9.885837720074841073e+00,3.534992500588716169e+00,-2.562393157253252340e+00,-8.289783750765349346e-01,5.760694049454910370e+00,-2.251641356019526974e+00,-1.897586507168125936e+00,-3.125828502429819356e+00,2.723092188653244872e+00,-4.481713840995080744e+00,6.035990552011605281e+00,8.095078849032518065e+00,1.874361377169954768e+00,9.657842807885517189e-01,-3.504571375740294759e+00,-4.762518825077696860e+00,2.639745554374787861e+00,-6.266612807730014723e+00,-1.726829290111683290e+00,9.707681476632794570e-01,-5.836136804371111708e+00,-5.953147116072796230e+00,1.331757093553432902e+01,-1.166202868973386098e+00,-3.235938491443387299e+00,4.351099882436271216e+00,1.414228900077128648e+00,4.172992501449415137e+00,2.130429037866818920e+00,-2.124253668443367271e+00,2.248800258359191950e+00,-8.579599567924429238e+00,1.321127780617934100e+01,-3.026491973011117498e+00,1.113284467792365184e+01,2.334177662095373140e+00,-9.351727292298491756e-01,-3.065904034423343472e+00,-1.422988616590919131e+00,2.118354210034240737e+00,3.866858061109342160e+00,2.672912693728921596e+00,1.357887458310174378e-01,5.036528094011703122e-02,1.790160037818978722e+01,4.606621882635790755e+00,4.625699195919508178e+00,2.796019462299255132e+00,-4.355438426069500935e+00,-6.788777429599240909e-01,9.734556608207894923e-01,-4.666394570757288918e+00,7.379367396656079769e+00,-3.909276628242706941e+00,-1.894237938256778109e-01,-1.306127417717650285e+00,-5.363452639868600436e+00,9.775623635124541799e-01,4.262564582968352944e+00,1.296880529490602996e+01,-3.715663611055054716e+00,1.640809629017796478e+00,6.712515893685023549e+00,8.210951321959046867e-01,-4.414422084590556294e-01,2.755916691583574885e+00,-2.922969663005476004e+00,4.294660064914435971e+00,6.157497691532629602e+00,-3.871411174470651417e+00,-6.415430881877612457e+00,2.674421849712130594e+00,-9.273924364950861809e-01,1.819356148816468677e+00,5.491913895769791054e+00,-4.822133072440916379e+00,5.402815020868399820e+00,-5.131218975935619930e+00,-6.608134252422237509e+00,8.089141086546833392e+00,-1.625865981860613152e+00,6.984191176989846817e+00,2.845010811233659620e+00,-1.464487875273260409e+00,1.021280733647673689e+00,3.692257026007751630e+00,-5.015236732240134998e+00,-1.140199706809215119e+00,-1.063726358584272003e+00,-1.189541259098582771e+00,-4.556566197478347569e+00,-1.874499261232955294e-01,-7.982887667603648374e-02,1.764555111733268289e+00,1.662266567790093408e+00,-1.526983002790930577e+00,-3.249258215263479244e+00,2.080480475135391583e+00,-5.133752117909676116e+00,-9.871032515614808212e-01,-7.201144525682041664e-01,6.619753376709245352e-01,-3.481046615043518866e+00,6.800633193728151227e+00,-1.584559613774272346e+00,1.900400521248388319e+00,-8.373839588122309330e-01,2.006033471457040473e+00,-7.113078713135236875e+00,2.499812643734659279e+00,4.646430448379237355e+00,-2.482606744453776049e+00,-1.590428510485342173e+00,-3.076398171735881704e+00,8.892315430099523965e+00,3.316780574031805706e-01,-9.285752347628686287e-01,-3.014622968644346201e+00,-2.783921618821151078e+00,5.355622855903590107e+00,-9.680095985329569830e-01,-4.169921579600456063e+00,1.446739288345093577e+00,-1.124583104861281768e+00,-3.240419594997159813e-01,7.479948179311740830e+00,2.189392659213381886e+00,-1.976606369480543135e+00,4.381157291660962017e+00,-2.583606778328622955e+00,-3.903463130564924111e+00,-8.525548000693695672e-01,-6.850688564440696737e-01,-3.453851899774348588e+00,1.360823539564752771e+00,2.822558735183433143e+00,-1.865910817399693000e+00,7.991451531363287231e+00,-1.746004629386439300e+00,8.911241510275302868e-01,3.480923928311285831e+00,1.281742313807577194e+00,1.709999116953719422e+00,2.836786088103994796e+00,2.336095504699526593e-01,-4.790493924176741025e+00,-3.790187258659337921e+00,-1.821630999294344688e+00,3.836824162582249675e-01,-6.215946419985408644e-01,-1.623118288326456105e+00,2.376088809125189716e+00,-7.197788397829059381e-02,-4.629217038635028203e+00,-8.463530930852981582e-01,2.171919543736386515e+00,-1.239915713919819140e+01,-2.520105882625821581e-01,5.546957164493839798e-01,3.007459902209633995e+00,-6.394938160424274987e-01,7.242918850603039527e-01,-1.116220583112230047e+00,-1.255481836662249995e-01,-4.873824647111031361e-01,-2.595307975332353578e+00,3.709872526291837946e+00,6.063959593536096815e-01,3.285768641309868787e+00,-3.922597819981399780e+00,-5.719351755278996308e-01,1.469213300698056113e+00,-7.727563081386870092e-01,-1.691906376742475127e+00,1.139218079962058283e+01,-2.930267051168151227e+00,5.191409291260329351e-01,2.440712399596650872e+00,1.324588547894423129e+01,-5.225885385033601782e-01,-6.938680920769431104e-01,1.028910297376685712e+00,-6.786946063527351525e-01,2.888011759505213050e+00,3.620637817943372472e+00,-3.418660497168973245e-01,-4.614863705555940498e+00,3.242051660839352589e+00,2.083727358864553736e+00,-1.307615262217320495e+00,3.975392076586120593e-01,4.766957162940912873e+00,1.734674930479071842e+00,2.010107703471576190e+00,1.107719022797316555e+01,1.199229774835776086e+00,1.886354369079569215e+00,-4.150767438088881711e+00,1.867795781677771827e-01,2.475390331382969489e+00,-3.637901673199279706e+00,2.404188653599981684e+00,2.071794905643800089e+00,4.568024787613893523e+00,-3.527427415119975151e+00,2.579600993627977790e+00,-5.926015775985989720e+00,5.668364223571197513e+00,4.646841237509769407e+00,7.081827552993509300e+00,8.424076554034737541e+00,1.669841115266328302e+01,-6.909444857979029742e+00,-1.324157709288709350e+00,9.136124729057856220e-01,-4.415545670520461208e+00,-7.901327485066416134e-01,-2.468347566579773389e+00,-2.482957299529619188e+00,-8.143312299339853233e-01,1.964444186742342113e+00,-5.252418607096761560e-01,1.364473283679180415e+00,2.657689348101738958e+00,-2.038177123382443057e+00,1.024402699247645154e+00,1.392695599121348549e+00,1.691699609593865006e+00,2.470519218605484735e+00,-2.543433269712755962e+00,-5.038657580774879463e+00,6.827682861871908315e+00,-2.578145765193055716e+00,-2.546717784213611058e+00,-4.626542800423794510e+00,1.554346857762390899e+00,3.594136119684312014e+00,2.082937249823725967e+00,-3.650642462054236148e+00,1.010638715030324652e+00,-5.433791128407362336e+00,6.721134034480709118e+00,4.035861134339651990e+00,1.618653092578666630e+00,-1.968094822333285920e+00,3.330107632484892388e+00,-3.976318040060795145e+00,6.186493508636770056e-01,5.398553276812138035e-01,-1.301983746048995583e+00,6.928822720709704619e+00,-3.778613885923470805e-01,-2.255104316394386021e+00,-8.156341926525034758e-01,-3.603262085237782131e+00,-7.352347391182320058e-01,-6.168255680986122202e-01,-1.861277666266454522e+00,1.072143139554759150e+00,2.198043007850534636e+00,-5.090639188312219288e-01,1.192692741879473273e+00,3.705444213863871461e+00,1.702015712515062118e+00,3.367927520866771385e-01,-6.884586816031772472e-01,2.732796467601262602e+00,1.887167298823049233e+00,2.402287470857240148e+00,-6.991486218649478612e-02,-6.063603906861196435e+00,1.110582682144804767e-01,3.908784378990375785e+00,6.219615405638086791e+00,-3.721617579116892616e-01,-4.482054473075565149e+00,7.760893931140907753e+00,5.364368564830294339e+00,-3.153618963315763857e+00,-1.033124847600325191e+00,-3.333088465090030539e-01,2.169417223921486781e-01,-2.332240312698247386e+00,1.315328353732770239e+00,-1.642403057078465789e+00,4.034396577372937998e+00,-1.115733436521535449e+00,6.188634383392741523e-01,1.850865658412014003e+00,3.318130074728180112e+00,7.567419702459139419e-01,-2.465101559404710319e+00,-5.297067399535048127e-01,-5.491726054970342830e+00,-2.738406389818325959e+00,-2.087034735822123732e+00,-1.697618501069836139e+00,-1.978975903961188054e+00,-2.288937810440709431e+00,2.214370835362764467e-01,-4.188791293882829225e-01,-5.166543954305378994e-02,2.536778923586030743e+00,-1.583935311491162956e+00,1.290318627245937044e+00,1.868131989885751576e+00,-1.083963076468154707e+00,-1.030819403878509011e+00,1.901950287155657282e+00,-5.462612721207945832e+00,2.565879199217243833e+00,-3.069074692393149562e+00,3.386531439546597522e+00,2.587073958056870793e-01,1.823259167407421943e-01,9.993992647447363709e+00,2.013053101292181513e+00,1.173321869944131679e+00,1.350504310567208677e+01,3.593969979566426609e+00,-1.468027874903719665e+00,3.311337726072323684e-01,-6.304958222960787673e+00,-1.482157492580199687e+00,-7.070645864747609366e+00,1.407985938792235769e+00,-8.188242670629196640e-01,5.439724331251612810e+00,4.180686167582233104e+00,-2.866241337672642331e+00,3.510140579932314320e-01,-3.099329038167285777e+00,-6.615285472713770432e+00,9.142915238189197602e-01,-1.272178272626607320e+00,-6.523878764902109051e-01,-2.860589726070263406e-01,-1.817162079921866180e+00,-3.208990748680628169e+00,-2.736630659245456343e+00,3.508850669610506845e+00,-3.202112960155422794e+00,6.319287804864389679e-01,-3.381370755773485115e+00,-2.845115762159060147e+00,5.058303058563713428e+00,3.522077307793339163e+00,1.361962766835318206e+01,-3.651901200734264386e+00,3.955906920410916960e+00,-1.389954073242027466e+00,4.282063314769602336e+00,-2.440663330209976500e+00,-1.080496269991878089e+00,-3.963722425189645460e+00,-2.800130145448878061e+00,-5.335543964030954101e+00,9.955913888692485836e-01,5.058933411295560845e+00,-1.437355515569897602e+00,2.632470296513901076e+00,2.679829673325558215e+00,2.124972002330960841e+00,1.681906319878787859e-01,5.394469785028948472e+00,3.597554869777739750e+00,-3.319832070695111881e+00,3.556690590649325578e+00,-2.086257813433872954e+00,-2.400886396892961905e+00,-4.121479665810068305e+00,-3.255809098020333359e+00,1.011603655571781957e+01,5.873811895250735660e+00,3.061784133833389543e-01,-4.403779262582201426e-01,3.058893959656764583e+00,-9.916662889056291341e-01,-1.634928075142947135e+00,5.699530152184053566e-01,-3.404390833485377854e-01,6.590229896242625784e+00,1.355905250585345057e+00,4.757654781052075066e+00,2.139568166400326987e+00,-1.038840411278699305e+00,-4.316515782722610162e+00,2.636224262183492595e+00,-3.720546219042953351e-01,-1.098674251837584714e+00,6.632551801839039918e+00,8.717395857310044072e-01,4.376940452347573007e+00,8.610911764898480314e+00,-1.776518940517046508e+00,1.169055745324674156e+00,-1.975308642015461746e+00,-4.821078895069837777e+00,3.068785137363692961e+00,2.875883648045655661e-01,1.385380136077117008e+01,-1.246827830582787122e+00,6.876776416132227787e+00,5.508559552982207563e+00,1.691545227119223060e+00,3.502995000333482878e+00,-3.221747965471096098e+00,1.284404186040970508e+00,1.759883272992591285e+00,7.964206106194038348e+00,-4.930175234445666632e+00,-3.741277691059775812e+00,-1.781533991807055850e+00,-5.410100747829256207e-01,1.428299659195178961e+01,-5.765772497984985590e-01,-6.843283378477435619e+00,-1.309529928777021901e+00,-1.691863535337536417e+00,-3.927469699571002337e+00,6.032323910696958391e-01,9.325154980485859113e-01,-3.055928398525342704e-01,2.200527873471393114e+00,-2.266725722839404711e-01,1.745657821618397776e+00,-1.044706164777142732e+00,3.502126758666924022e+00,1.875936065075725523e+00,1.251794508948343321e+01,-1.504471839501436925e+00,-5.303423016840508097e+00,4.736323978747067898e+00,-2.791873371518081903e+00,-1.616629181272099203e+00,7.652260024093740509e-02,-4.443533802630669882e+00,-2.274299288450981837e+00,9.063567498679757015e-03,-2.696310468385585857e+00,-3.115895967161458557e+00,5.367512338229774471e+00,3.072998635410111756e+00,-2.847083821683067839e+00,-4.286926006174427983e-01,2.654018899635850026e+00,-1.900485782485338060e+00,-2.124123861612833064e+00,-3.056031857355139270e+00,-1.745482243770892561e+00,-4.066681010858308021e+00,-1.628476144339060239e-01,5.234083115811452913e+00,-1.978248233309104709e+00,6.679231718443339183e+00,-9.332517345074823334e-01,1.063936332206077306e+00,6.633048815539569709e+00,-3.508530888856557617e+00,4.738614296179364693e+00,7.617079927993759547e+00,-8.909722398304346092e-01,3.976652780319092972e+00,2.280636019512466639e+00,-3.976994777160332006e+00,-3.413660169925992527e+00,-4.412899232199940514e+00,3.523071908959606979e+00,-1.018329536683934222e+00,-5.384372490285228574e-01,-5.728977265402470209e+00,1.790465406881475818e+00,3.689807499284163850e+00,7.557808578471062466e-01,4.323088836872393870e+00,2.176885226020615072e+00,-4.398547080277428023e+00,4.470339229650274859e+00,5.947539301992062377e+00,-2.449068846677949995e+00,-1.989558850520630084e+00,4.706411602276696193e+00,1.032166595996744718e+01,-2.803709453164525467e+00,-2.966378845683253496e-01,1.269296684200114100e+00,-2.290538942343924411e+00,-2.467125874147868991e+00,-5.961084169105103081e-01,2.688288830327822065e+00,8.309268176453237231e+00,4.860296542508023010e-01,1.567646327232086190e+00,-6.477434637106992410e-01,8.845161439438499196e-01,-2.682693531329743419e-01,-1.511006004104233913e+00,-3.863084288711233216e-01,3.120800157622253490e+00,6.420291345441289099e-01,4.200272477234249457e+00,-8.592754317004105413e-01,-1.868805676195997245e+00,4.813847194768226423e+00,2.364328706140862213e+00,-3.419013223967970472e-01,-2.792963577513422280e+00,-5.081434061100335242e+00,2.422759261157799993e-01,-2.889197524870566358e+00,6.522923562161770938e+00,-1.743720849242977877e-01,1.014394279803865473e+01,4.641755715294675788e+00,1.767942597310033781e-01,-4.979608981142080171e-01,4.415182837937609683e+00,-8.443380568608089831e-01,-1.867138752060655715e+00,-3.022391538840681680e+00,2.863970282094875142e+00,-5.144281309612255271e+00,7.272476216260060689e+00,8.119209510987698053e+00,9.991851263346964718e-01,-7.329079513001569846e-02,-3.375855940069502736e+00,-4.391863885469707185e+00,1.072038903581460811e+00,-5.283156409188290326e+00,-1.427824124956448726e+00,-6.169377317116426784e-01,-6.014834544541039385e+00,-5.444812297861829187e+00,1.247712619827581193e+01,-1.835352022444731945e+00,-4.332464982716089708e+00,3.832642540432319667e+00,2.496768992629903317e-01,5.371129510603377177e+00,1.189374381661651325e+00,-3.346305998948255311e+00,2.409823746767897124e+00,-8.835550701626374348e+00,1.326212987192809756e+01,-2.741629033150735140e+00,1.066066382368341792e+01,2.202521741503999930e+00,-5.272451283591518267e-01,-2.836352673433063298e+00,-1.427209873923535710e+00,-2.930788877344983945e+00,4.088886121882587155e+00,3.400992032894674111e+00,1.189234303901192114e+00,-4.486245486654725223e-01,1.732632060061304458e+01,4.925011264408733602e+00,5.213739793435384406e+00,2.077095630833840634e+00,-4.980782404724757306e+00,-1.260584488102846734e+00,9.115887543987581942e-01,-5.159636600700722830e+00,7.787489757416456548e+00,-3.424763332400018623e+00,-8.162900106523016674e-01,-7.331352115666430747e-01,-5.355025966881131971e+00,5.484590580343708943e-01,5.421340722185697736e+00,1.234211168941638626e+01,-2.614180459910885546e+00,-1.216446759051553972e+00,6.637739952271243027e+00,7.337402638942643884e-01,-1.444346653438649764e+00,2.758118476497434024e+00,-2.753242177625519371e+00,5.421699985886706763e+00,6.021939514721338149e+00,-3.426331817241615063e+00,-6.412658775515366116e+00,3.550157171908680187e+00,-1.378044866385345069e+00,1.743892497830741517e+00,4.276835329210075365e+00,-4.111667049657181217e+00,4.384540701971040733e+00,-5.318148754989984184e+00,-5.947086649671068592e+00,6.884298381636121178e+00,-1.261220874579867646e+00,6.708066715335321284e+00,3.349777643882923872e+00,-1.458338760191507433e+00,1.189338232638879944e+00,4.697433712538676254e+00,-5.815263531732084878e+00,1.172471124502920237e+00,-7.003629305120518955e-01,-1.222581884659295737e+00,-5.197213925326574113e+00,-5.201693394558654093e-01,-1.044539702193256314e+00,1.317548770456330232e+00,2.258125029451369947e+00,-1.701727429182521067e+00,-2.175613025398850819e+00,2.888026619213140300e+00,-4.875053208590402143e+00,2.170044359826278635e-01,1.319151614955156315e-01,1.881231932352768199e-01,-3.403949155873324361e+00,6.235224417762730731e+00,-2.118818786237937513e+00,9.490464889809888671e-01,-2.047814788693270049e+00,1.104326855288622067e+00,-6.898837765318679871e+00,2.213594270585951929e+00,4.523048711403449218e+00,-2.229738158102175571e+00,-1.934212977489733865e+00,-2.985583619651191789e+00,9.121506201565802385e+00,-6.702140432260414449e-02,-6.191282073366853878e-01,-3.375163200551843712e+00,-2.095236486721269387e+00,4.939025396307423321e+00,-2.289975646315479604e-02,-3.494537425023304333e+00,3.902714202956764633e-01,-1.565264878556311912e+00,-4.786182686738169600e-01,7.028427818031607544e+00,2.328410620280983778e+00,-2.826314628579376098e+00,3.881123409230527344e+00,-3.437314988245237402e+00,-3.260831747066700093e+00,-3.433230578217284723e+00,-1.303192101839841133e+00,-4.206113158115664774e+00,1.233440144350433698e+00,2.567543373929066508e+00,-2.453293637495526980e+00,7.332179722200650396e+00,-2.493677173577670825e+00,1.991792601972573351e+00,5.618983960812772516e+00,-1.136491557802719488e+00,1.639504936429247328e+00,2.134251582383739798e+00,3.462233734883944924e-01,-4.443042956642246466e+00,-3.441237765930213577e+00,-2.199501217969897393e+00,1.103096685748378825e+00,-1.333516827399611193e+00,-2.782402962803300905e+00,1.308322972303267218e+00,-9.484494235306124565e-01,-3.990648197821619725e+00,-2.346836325968157666e-01,2.276057557782439567e+00,-1.250692912749314623e+01,-2.556196902165764340e-01,1.824229985673246901e+00,3.871651680407473872e+00,-1.293099958566083174e+00,-1.421670620079236613e+00,-5.003346211061822091e-01,-1.451213911257858369e+00,-5.128492955425975053e-01,-8.679710118867403068e-01,3.320310118402626021e+00,5.900039567121764250e-01,3.596196830105499842e+00,-4.209606952191646378e+00,-2.283280016787691546e-01,-4.156418433527626910e-02,9.997915107175095462e-02,-1.370505589220140763e+00,1.213607860534147243e+01,-3.298941634655760957e+00,6.715796360523349495e-01,2.709439852465098664e+00,1.222351986406558311e+01,-1.298066428075230094e+00,-1.778391003338954057e+00,2.060343322351597894e+00,-6.027473353658802102e-01,3.741244695985621149e+00,2.275216124896585423e+00,4.281823288514506887e-01,-4.176302827193985934e+00,3.042318719938260418e+00,3.425489066190952503e+00,-2.160712073792379506e+00,1.819128512303266110e+00,6.055970545687315187e+00,2.321697683854024863e+00,1.081417551166700353e+00,1.015677678330381895e+01,1.237593986798595225e+00,1.877202733243611643e+00,-4.000775514431115454e+00,7.211773336362998776e-01,3.251618979282003608e+00,-3.072303026216590016e+00,2.338665545871784879e+00,1.688494342277051530e+00,6.022111953863460876e+00,-3.237416833991473730e+00,2.917104184761986740e+00,-7.186349627793032546e+00,6.202876164472530540e+00,4.249810243699789325e+00,5.637320442187164993e+00,8.961104699460040734e+00,1.626991024247818274e+01,-7.125086453440085066e+00,-1.088788868300592627e+00,1.308098185037614991e+00,-4.538271318979268720e+00,-9.630840524958494964e-02,-2.331639093844961153e+00,-6.909513800958749785e-01,6.869844798461054447e-01,1.423953022191449369e+00,-4.942807403899602270e-01,-2.404574385801053482e-01,2.270540713007455746e+00,-7.951036672704206998e-01,3.027481057347685578e+00,1.049304200174322466e+00,2.641474184543461057e+00,2.876579967092165013e+00,-2.471176323660925878e+00,-4.485329728849523079e+00,6.105901136760175874e+00,-2.550797455342854292e+00,-2.556935942041223431e+00,-3.927999450907567969e+00,1.536254216810343909e+00,4.550591105802073599e+00,2.393850521673679399e+00,-3.979204782781233352e+00,1.385631105832426213e+00,-4.625799135824013142e+00,8.040026117447478526e+00,4.264286806549939968e+00,1.053405903030685126e-01,-2.288122350121229331e+00,3.136842945473793165e+00,-4.143116105735578536e+00,-6.201122130206687677e-01,1.294331819371012715e+00,-9.629087308026283987e-01,8.276298332511508704e+00,-8.410821019986930436e-01,-2.566661525849028624e+00,4.002955956619640432e-01,-3.219979136143381826e+00,-2.606786572325332951e+00,-1.350476265194784142e+00,-1.060210583835085263e+00,1.909231271594610480e+00,2.073289041026088686e+00,-5.648966402806947507e-01,4.189329488867276075e-01,4.822503438429091460e+00,2.658922928791002782e+00,-5.972183691330113647e-02,-1.011532568081194849e+00,3.171591221161237151e+00,2.439360694633153859e+00,2.837451903597721259e+00,-1.228078472218344208e+00,-5.815252494422775698e+00,7.576212873229890565e-01,3.925224641612156784e+00,5.613571687855027470e+00,-7.777649185037125434e-01,-4.165353407773740635e+00,6.701433979123246232e+00,5.469708574055265338e+00,-3.735662046401047931e+00,-5.799851529263813088e-01,1.816615415438026515e-01,5.995919949599838317e-01,-2.388015915159501290e+00,-2.987960553745725237e-02,-1.412745205628797240e+00,3.915385493384778037e+00,-1.781579191866355494e+00,1.455442517558724891e+00,2.177510115972770333e+00,2.962266485198383759e+00,1.116931859931676874e+00,-3.507282397017840392e+00,-7.768535741668386452e-02,-5.653094111506266728e+00,-2.368037114079325711e+00,-1.252409892550978121e+00,-6.572357092490621611e-01,-1.936943172712854988e+00,-2.230801349385888699e+00,