4.039319637482471065e-10,-7.011513093030715968e-09,-2.244720665891120313e-08,-5.889009211851508259e-09,-1.407245158679017070e-08,9.063965504299729587e-10,4.487938193983233662e-10,-3.714469244428692968e-09,2.366149179923057117e-09,-5.073765552061591519e-09,-7.532787622811888146e-09,7.589238083846784697e-09,-6.983053823330317500e-09,-2.989379765701932189e-09,-9.507711775254034804e-10,-5.143681673483030457e-10,6.872882442885171713e-09,-3.791753076989096827e-09,3.866532868963647383e-09,-5.341782263369443991e-09,-1.135773433350896538e-09,-1.472365880484182441e-08,-2.313332398013217482e-09,-3.040111319597404834e-09,-7.962721153540362321e-09,-2.131358903303376000e-09,-1.114655889581576031e-08,3.813166451744401418e-11,-7.749967787865911188e-10,1.136946175734335491e-09,7.528062397193865558e-09,-1.097518642834176430e-08,-1.246074848247271816e-09,1.089404015617443364e-08,-1.757433483411753743e-08,3.888366949086764913e-11,-2.728057365563664790e-09,-2.355690545133784478e-09,-9.011268571952112005e-09,-1.112884137162682635e-09,1.665525653524435640e-09,-5.361099839750556589e-10,-8.431212530947986189e-10,-1.222324070643575580e-09,7.720989732732881977e-09,7.094035924679875709e-10,1.751393740353270901e-10,-1.355327466198893381e-08,-1.831301637009000869e-09,-1.482139005044313084e-08,-5.313074506704389776e-09,-3.447981300208468043e-09,-1.291760401434583904e-09,-5.231571811326328646e-09,-5.384401666583198888e-09,6.836672535956530184e-08,-3.609305615555977276e-09,-9.661825273064875130e-10,-1.220190959947226123e-09,-6.592083608154236627e-10,4.571063524131533168e-09,-1.309456089282299739e-09,-3.801155414510400315e-08,-1.430387131592074416e-09,-2.464540971862270415e-10,5.822461264185084948e-10,-3.295831422076087990e-09,-5.073550227906199810e-10,6.051978076072437005e-10,-2.909364472435959212e-08,-5.501453161393366795e-10,-5.758261970829418771e-09,7.730796845320087390e-10,-6.593012415387941988e-10,9.052989904139013418e-10,-2.131869438522699006e-08,3.510950769455379401e-09,-1.532433784524513276e-09,5.018639692235405577e-09,-9.344586638765826893e-09,-4.092392491522364393e-10,6.269812861351681575e-09,-6.133639614247093143e-09,-5.469302342285311234e-09,0.000000000000000000e+00,-5.837005055604927402e-09,-7.688661747147534596e-10,-1.366473424050251149e-08,2.155327304549427410e-09,-2.118197646884657965e-09,-6.352107149931180868e-09,-1.085044427728694898e-09,-1.386330458517557399e-09,-1.110817121628195526e-09,1.766100746034368678e-08,-1.106849718539903788e-08,3.940522873846945942e-10,-5.395421120214068957e-09,-2.188241876501394087e-08,-8.321574960070051453e-09,-1.237786346245820232e-08,-2.067800615138525232e-09,5.759122163019263383e-09,1.818249651528080208e-09,-4.672145663441730966e-09,-1.218595601274335585e-08,-5.955222163101897460e-10,-3.359608884649429316e-09,2.193168301962059242e-09,-3.343226561736456650e-09,-1.111671949533190495e-08,-1.822386330648857987e-09,-9.579511074816880070e-09,-2.315477868308428401e-08,1.818600615480029097e-09,-1.089988548744574242e-08,-1.819582375551015001e-08,2.114946825790154191e-09,2.292973742563363965e-09,-2.211331872924666121e-09,-2.779998460085265861e-09,-2.879692259498901581e-09,-7.003364042372143380e-09,-1.688388366240840168e-08,-2.376566439934903012e-09,-2.097770746678691703e-09,1.698433734669333152e-08,-1.276537646415018720e-08,-2.718354845115525327e-08,1.095804747087130275e-08,-2.574366243133476663e-09,3.140680658865131359e-10,2.642184326978418125e-09,-5.955920349719692430e-09,1.552513052051587116e-08,-5.133867566785995837e-09,-6.508773302582371298e-09,-4.023310024550259258e-09,-3.191121767488823863e-09,-4.510954065350407597e-09,-1.307843332875734604e-09,-1.420601725822276639e-09,-4.581251561260302717e-09,9.950865065171862309e-09,-3.601333537821387484e-09,4.444784142944020447e-09,-1.861195549283147054e-09,1.173662426889001972e-09,3.043695307410780401e-08,8.935486407851521048e-10,-1.520038400232831037e-09,1.525703906746513424e-09,-6.430468440239896133e-10,-2.033252758222492339e-08,-4.596641313762207475e-10,-7.806842289652471196e-09,-1.585870053243877653e-08,-3.023972279442899725e-09,-1.231324365450786498e-09,-5.872196232851191075e-09,-1.762670833754692380e-09,-6.368060678448089395e-09,5.221902634717384006e-09,-1.431616704247443330e-08,7.561028825348474374e-10,-1.003024354944756514e-09,-2.760311465712173397e-08,-6.192675751447834545e-09,-3.520687442795799684e-09,-1.504890994190874618e-09,-3.715539645817961523e-10,3.313244225342588151e-09,1.395791248777136405e-08,-1.415433408601309376e-09,-8.163608639748085287e-09,-3.652206479533953394e-09,-3.923282513082828043e-09,-3.512241712462292755e-09,-1.668751676032201637e-09,-6.796417580101946248e-09,2.732315096061315428e-09,-7.820200981634238986e-09,-5.686707685094466122e-09,-1.723678079350066941e-09,3.631856251380017213e-09,-9.368974871174365834e-10,-2.477432497123300920e-09,-1.287154090782187227e-09,-8.423976062898771248e-09,-1.482580889594306267e-09,2.765518245843802103e-10,-2.827139165758351454e-09,-1.725778660634252602e-08,-9.667403719754796328e-09,-1.624825027131453286e-09,-3.240929385586448664e-09,-5.829114896444062067e-09,-7.290121781775475064e-09,1.866373726687882136e-10,-7.031658469345373918e-09,-5.351684072267662964e-08,-8.253511254245537120e-09,7.678321996007757560e-10,-2.175226039882658519e-09,1.329042906669310870e-09,-5.143690852640838119e-09,-1.705897937170860323e-11,-4.224540696097126732e-09,-4.485293243188386992e-09,-1.222656956494669392e-08,1.041504191630113484e-09,2.101261647614286156e-09,2.173078676836141297e-08,7.639043059581186154e-09,-7.575606868825385722e-09,3.326514517663706318e-09,-2.990692833420799872e-10,-6.636082894902932499e-10,3.107881812637961012e-08,-4.564791163197407214e-09,-4.116824246488025177e-09,-4.895629362771028191e-09,-7.982781027179989350e-09,-3.899842836240951204e-09,-8.777049867652518954e-09,-1.258996094847714158e-09,2.237508819502410512e-09,1.823177367621761207e-09,1.700828140512838699e-08,-1.638016377150890634e-09,1.415512902576287746e-08,-7.065022713190669711e-11,1.423452399558189072e-11,-5.733664306147769220e-09,-8.762966923833071119e-10,6.797344029239444219e-09,9.241014036878215742e-09,-9.760743011767249367e-09,-1.238642472765498442e-08,9.199002380883541009e-10,-5.287118436026676306e-09,-9.151335048174004208e-10,8.573016787224349757e-09,-1.272407500450054519e-08,-5.696516229366206407e-09,7.799203862419276171e-10,2.346516382608683596e-08,-2.211727807492836385e-09,-5.148224616345942855e-08,-7.893965932474928996e-09,5.831600172167943539e-10,-5.120852511837550263e-09,-1.973459882562721560e-09,4.519523970567464332e-10,-4.651655941615825104e-09,-2.299538660825377492e-10,-2.120498011810528266e-09,-1.262294265510572835e-08,-5.278655762688937298e-09,-6.576163923919531902e-09,-6.515870835229688883e-09,-1.102446549332884615e-09,1.016085392051434071e-09,-1.020251619596516690e-08,-9.190140870167187075e-09,2.824049644955084045e-09,-1.418499223350505672e-10,-1.369866103913816673e-08,2.613195772525313267e-08,-5.531166704108567453e-09,5.701607558196032003e-10,-1.472134406158750295e-08,-4.963909243151628445e-09,-1.824324493267916488e-11,-3.799159031321335375e-09,-9.520945666591418479e-10,-5.092767664408567953e-10,-3.981942560172079657e-11,-7.820467061227371127e-09,-3.233762538563537950e-09,-5.547925559546047789e-09,-1.511799733910478900e-08,-4.608592299265715094e-09,-3.065704135623330415e-09,-4.409926569875131827e-09,-3.295992092716744352e-09,-5.921785401896099860e-10,-3.218810053553189051e-09,2.890069775123769029e-09,-1.956428899613565884e-08,1.559797610368066081e-11,-1.649508499581947221e-09,2.304777067000689373e-09,-5.436419649614506560e-10,0.000000000000000000e+00,-6.443286234570521071e-09,-4.615883999137380510e-09,7.277006898136388678e-09,-3.043065399920689923e-10,1.731443823104742965e-08,-1.701422715401284858e-09,5.219521895229403083e-10,-6.722183011912719728e-10,-4.850474607231038710e-09,-1.095718179846828666e-09,-1.266064917029566985e-09,-6.436188686370255824e-10,3.490742248240401939e-10,-3.707711639666955140e-10,-2.348483722419501397e-09,-3.363799512085254076e-09,5.069957218312428464e-09,-1.629280978408669425e-10,-1.334548701087493842e-09,2.140347653725330097e-08,-2.993339889212244936e-09,8.851800285824971528e-11,-7.948477165757488086e-09,-1.671512072646549965e-08,-3.753632484976530693e-08,-1.125205586143982768e-08,-5.126171761109567535e-09,-7.570965798663650089e-10,-7.057175521699833125e-09,5.116350962445926081e-09,-3.171538869320328176e-11,-1.118125458827703077e-09,-3.405590490475033214e-09,-3.378669847373254289e-09,-2.465742590014426408e-09,3.784901409089901773e-10,1.426691857292832424e-10,-4.172306526222617166e-10,-3.777341298957202774e-10,-8.122619064747961469e-09,-3.085820529482676575e-10,-1.014384109777507144e-08,8.093052112718698941e-11,-7.955436296820583294e-09,-1.114498546565983862e-08,-5.878144844169878454e-09,-3.729934188594952680e-09,-1.309705904536835805e-09,-7.438302023025750736e-09,-7.018429046786647996e-09,-1.140851434128780258e-08,-6.812299201103225974e-09,-5.180914490158015479e-10,-2.391082087411036748e-09,-1.066361630038998804e-08,-1.292382442900786699e-09,-2.093843543672163206e-09,6.024054848208663240e-10,-6.802692961616939740e-09,8.945574991422902083e-10,-8.702342375046463035e-09,-1.867443353532407027e-10,-1.397597695910279241e-08,2.659326987275925384e-10,-2.958032045188954398e-09,2.024115598286790747e-09,-1.065903656463463095e-09,-3.166266477885488645e-09,-1.681849211506411840e-09,-4.466664697229674738e-09,-3.548481292019071041e-10,-2.147323212978654653e-09,6.771880796611888305e-09,-8.131763265807253849e-09,-9.472302661444712624e-10,-1.222738456138699832e-09,-4.500481618483236892e-09,2.042096072520163912e-10,-3.739188046544725121e-09,-6.126260454146097481e-10,-2.262050684666978700e-10,-1.123417348479315651e-10,3.680823750500265836e-08,2.927360676665496337e-10,-3.128769838287324354e-10,-3.045910028294546940e-09,-1.382880202316689940e-08,1.592413451164275891e-10,-4.467422231562042568e-09,-4.777059443645841182e-09,-6.514501036022305232e-10,-6.305678244494709302e-10,-9.261935235237615841e-09,-3.543428543302136174e-09,0.000000000000000000e+00,-9.524697037443703831e-10,-1.156328779057584671e-08,-7.132587576287689149e-09,1.746874508769165068e-08,4.208326329989124718e-09,-4.699971855698907178e-09,-1.497155929224415950e-08,-5.978596168090385843e-09,-1.176444272050937170e-09,-8.594384962472207952e-09,-1.384059444675179599e-09,2.804345658017390596e-09,-3.733333927353933905e-09,-7.857569747759871353e-10,-4.531316522198142139e-09,1.165433051299858329e-08,2.788555571357615298e-10,-5.545451728014789141e-12,-9.575814205099161438e-10,-2.342421032877059592e-09,-2.210686220878205723e-08,-5.341225468281151003e-09,-1.301108842321482255e-09,-9.779072750982381480e-09,1.322570516247411352e-09,3.061753416170156177e-10,8.682761850479079932e-09,1.163765191353954747e-09,-5.737057468366015684e-10,-8.516158153347692496e-09,-8.091682611353291847e-10,-9.056859446143214477e-09,-1.556129972148973462e-10,4.005479041285577608e-09,-1.993027474513634048e-09,1.179681777303465932e-09,-1.369990892363148072e-09,-9.659323553594134287e-11,-1.050613744572480622e-08,-9.572242497016517102e-10,1.836303936960202871e-08,-4.994766527996742843e-09,-3.819631363331032578e-09,1.511381529206467232e-08,-7.949709443777645587e-09,1.624635767491859303e-10,7.539358088238600652e-09,-3.925169745774646375e-10,-8.886536511345802763e-09,6.479201603573446938e-09,-6.776487016885272906e-09,7.646880275107861095e-09,6.032114873437764847e-10,8.350622688416920698e-09,-6.057584099051215718e-09,-6.356267625072652597e-09,1.814320938069900130e-10,-4.659327824855858099e-11,-7.923343611993258169e-09,-8.588955061670553079e-10,-8.993525308746396260e-09,1.051843836536472955e-08,2.341879077276812876e-09,2.645957388503377141e-09,1.874941662067580470e-08,-8.291275391108162154e-08,-2.098151353922528364e-09,-9.568702778582776391e-10,3.941650080048010675e-09,-4.404500468316256146e-09,-4.559744463387500887e-09,-1.006630703065979271e-08,-2.573785815748144054e-09,-8.129899290164120450e-10,2.524443409093276161e-10,-4.204592842997030549e-09,8.054058397035599034e-09,-3.024602745362244522e-09,-3.394251765060453092e-09,1.354233629244218697e-10,1.305870541512684921e-09,-1.956711043871715264e-09,-8.436131860390591291e-09,1.087693050238779223e-08,5.456954737266944055e-10,-5.295039572820428114e-09,-6.172941359355725818e-09,-6.560030824646006397e-10,-1.885785768922299979e-08,-1.292200977754600615e-09,-1.724755135943548058e-09,-2.346482004284849509e-09,-7.715204780989595237e-09,-9.400386132489108854e-09,-4.185345360886204743e-09,-1.142092846873060303e-08,2.543297651408195347e-08,1.596124108867941368e-10,-2.068444083921506452e-09,-6.537378398181339951e-09,-1.234347063586129996e-08,-9.881226147397025795e-09,2.198781877615502299e-10,1.021805179750586438e-08,-1.193367204690185337e-09,6.118717799383944275e-10,-8.053520183304285551e-09,-3.419184126557948616e-09,-1.578838507564451555e-09,-1.798930690535361512e-09,-4.121460537841343854e-09,1.788827156380075535e-09,-1.850960990080389704e-11,-1.314652060888992593e-09,-1.078427749398980776e-09,2.210469569717816863e-10,1.012950347505824891e-08,4.536040237676699278e-09,-1.010765691873442664e-08,-2.302497036909351474e-10,-5.930384980773128499e-10,-2.900650091566860504e-09,-1.168504507488157997e-09,-5.047775744291755225e-09,-1.246014398715080796e-08,-4.276743453469358570e-09,-3.569175983303897665e-09,3.440019527686799604e-10,-1.257588224250469778e-09,-1.005323599356282989e-09,2.556141421150935323e-09,-5.524662257092645811e-09,-1.499063226684194100e-08,-2.541013209523648736e-09,-9.802009758730434420e-09,-3.546046579437043455e-09,4.378289045603200131e-10,-9.131228434276765871e-10,-3.393287508498439865e-11,-4.467797481467697334e-09,3.201541921565430171e-09,-7.002232992798926494e-09,6.582119710966132236e-10,-8.454736744928428179e-09,-1.024851010229142248e-09,-1.218511990000612462e-09,-4.506838479350451845e-09,3.829382898167667825e-10,-1.108634544908761242e-08,-1.726763270465051103e-09,-1.607854816491724726e-10,-1.208330714582821264e-09,6.906420208317214910e-09,-1.605539309147850162e-09,-3.938344299999646788e-09,6.256152154363002619e-09,-1.833600322890397088e-08,-9.677280440859469969e-11,-5.996885807695686269e-10,-8.941322545060012324e-10,-1.679719435063482443e-08,-1.758491683572335897e-10,-5.671285316333646429e-09,-4.068704527277590135e-09,7.492741563075630025e-10,3.456172273843107645e-09,3.179004914666916244e-09,-1.254786449882251896e-10,1.687647507250897836e-10,-1.482099992848739468e-08,-2.065628768031566290e-09,-1.966487159092144115e-09,4.641249983007626627e-10,-5.660048366736930981e-10,-6.731735114699715874e-10,-5.231859688019303853e-09,3.196584981052659701e-09,5.830074100100249052e-08,-3.266458124504147131e-09,-2.484022225826782486e-09,5.452602392293978651e-11,-6.839442435156347373e-10,7.220235619392251180e-09,-3.236068885342334559e-10,-2.472395574441257217e-08,-9.377432772565401496e-11,-9.273442759134652107e-10,4.490355568748495281e-09,-2.390462622006906969e-09,3.338079677153929217e-10,-3.275824691554221056e-09,-3.277674373861322342e-08,-1.293628245551929851e-10,-8.246092695441552855e-09,-4.941633536446642892e-10,-1.581214486080060670e-09,6.692281577426735806e-09,-1.537196750743795000e-08,2.157955418775665293e-09,1.019376286681872367e-09,-4.915271368728345287e-10,-1.127807235673902229e-09,9.435814179784901523e-09,-1.805993663718085299e-09,-6.781077883531470591e-09,-4.867194180650315367e-09,-7.368346281148247531e-09,-8.085918059031601224e-09,-7.940713813662574794e-09,-1.759951731274492302e-08,4.615157507915661076e-09,-7.480578100371237465e-09,-2.698213384113262813e-09,-5.139223780748735195e-09,-3.052227797567126613e-09,-6.295069488577580487e-09,1.740283516361053232e-08,-9.582428116320733584e-09,4.857527709065497676e-10,-9.727265521412733861e-10,-3.218088349257161091e-09,-7.272989109576777685e-09,-3.075349356956128971e-09,-2.018315729871520983e-09,8.671145720502677809e-09,3.635416150621794001e-09,-7.336314482662241069e-09,-3.693218363328384457e-09,-4.986972130847968253e-10,-6.742899431693367852e-09,-7.205194611292822577e-10,-4.505900279486425817e-09,-1.374053426942647898e-08,1.142859751201919945e-09,-8.644302780592670770e-10,-1.418479307712518326e-08,3.419911791901484269e-09,-6.037871706743621873e-09,-2.761604954909882296e-09,-1.490434901114333986e-09,-7.552894157951234170e-12,-1.143593999988094690e-08,-2.511829095133014986e-09,4.480932632751853796e-09,-1.207529292339369971e-09,-2.287634778086555635e-08,1.112582467274969422e-09,6.527990837880323556e-10,1.510687780387089587e-08,-3.043004680697920924e-09,-2.517659901369405340e-08,8.660020346980324391e-09,-3.408042025122099276e-09,-4.278013446697555498e-09,2.720625248277945290e-09,5.183592005336199312e-09,1.760524473374956926e-08,-4.417150465499510897e-09,-1.384993674937210296e-09,-2.221063932339816136e-09,-2.211278979276790866e-09,-7.722061428705421467e-09,1.986992640787501746e-09,2.512641013125259034e-09,8.810027548690590947e-10,2.600590177355852225e-09,-7.886440866942976059e-09,-9.262576617016527776e-10,-2.831688162793566196e-09,5.466952335194136174e-09,2.227562312629515289e-08,-3.365421870411507882e-09,-3.374393262566940804e-09,1.873739043353646266e-09,-2.157141011806064401e-10,-1.088357889119496660e-08,-3.321106885552413548e-10,-9.040890054303860647e-09,-8.174492347841726850e-09,-1.825868336947893089e-10,-3.364637703441579822e-09,-1.958307916613390918e-09,-6.254711740459046880e-09,7.405715959044345559e-09,2.717524688379220598e-09,-8.757329946115980440e-09,-8.199995076301164301e-10,1.320696643498884059e-10,-4.894989249859458744e-09,-7.910668732941533946e-09,-3.212914988660095642e-10,-1.485404004846996623e-09,-9.335831140044658934e-11,2.852952202887618692e-10,1.812145694709598710e-08,-3.642530309773416690e-10,-4.846810451425193602e-09,-5.806144787638735194e-09,-1.202911969651435833e-09,-1.013377513631979280e-08,-1.587502476446126272e-09,-2.596085228968276157e-09,-6.790770363987782790e-09,-7.283091474833067071e-09,-4.009986275336186235e-09,3.172800710911103362e-10,7.330258053298193760e-10,3.671424639206647057e-10,-1.696449607323616792e-09,2.218602262005540658e-09,-1.103509665548627318e-08,-1.335278560597741349e-09,-2.140622410182221974e-10,-2.684663787762497785e-09,-6.200045709305525240e-09,-5.944797329408266301e-09,-1.613155633055429421e-09,-3.110004192390746839e-09,-3.626116730215821345e-09,-5.854869211189079227e-09,-1.091593297490165891e-10,-9.220591705350603758e-10,-3.964261103233586469e-08,1.545751621426553970e-09,-7.800677199820748181e-11,-1.158486573751755238e-09,-1.957679751383317846e-09,-2.096149255009079274e-09,-1.144427096259223386e-09,-1.019851721137128082e-08,4.040786835104048284e-09,-5.317151322775636468e-09,-7.170503185171981628e-09,1.249875805357802078e-08,3.053090050932059200e-08,1.015453554333550403e-08,-8.948619315219435722e-09,8.296009428741305236e-09,-6.073199939252923163e-10,-3.659226118313928648e-11,2.488053855780486654e-08,-2.850910381455660105e-09,-3.606036065539257483e-09,2.649575859336468002e-09,-1.096020675766659027e-09,-3.073060278975571285e-09,-1.030820962925785244e-08,-2.772627652951602363e-09,-5.160444687554093954e-09,9.119889070666562219e-10,-1.372023686357401896e-09,3.404210262033048743e-09,9.180061537851673886e-09,-2.695939235576649735e-10,3.254941889769430253e-11,-4.845971297534305255e-09,-2.501557692626793141e-09,3.697288952367346902e-09,8.757524630412223716e-09,-3.469781178654243183e-09,-1.085757671946767197e-08,4.792435623041608848e-09,-5.770220274730121613e-09,-8.933337110417554400e-10,1.636734453790744338e-08,3.951633562187058994e-09,-6.033905214271920573e-10,1.411073996316704941e-09,1.187904906070766521e-09,-3.272447257344097589e-09,-4.304458994023397825e-08,-4.677704549671916895e-09,1.893211261937382052e-09,-1.759934512138237452e-09,-8.290805384633674847e-10,0.000000000000000000e+00,-2.605242537725683175e-09,-7.447464762584661226e-10,-1.613136453086591555e-09,-5.636336983133582865e-09,-7.133604616082823095e-09,-7.017562599916984891e-09,-1.823352945206103737e-09,-2.926395649341982791e-09,1.095916478668708340e-09,-1.067056655095152409e-08,-3.580363039056001765e-09,-8.089565212714542256e-09,-6.759665161026417644e-10,-1.665040043406980468e-08,7.152630131908545040e-09,-5.196568623150527912e-09,2.177702020609482329e-09,-1.931924031721737864e-08,-2.347240527710685772e-09,-1.590231779376241574e-09,-8.212074066238224410e-09,-2.322466398309533411e-09,-3.905267854201871684e-10,-1.323016744077333715e-11,-7.906600670021324572e-09,-3.883582410371387682e-09,-3.947644995392961505e-09,-6.661831393875271406e-09,-7.880211601104248190e-10,-4.449779358710273178e-09,-1.392019396033371107e-09,-1.242291433120627802e-09,-1.787983926037259851e-10,-5.541179411214731838e-09,7.761116360819847753e-10,-2.626664318887337022e-08,-2.424162395631705478e-10,2.020819813035925562e-09,1.306976575665613951e-09,2.840780740292030179e-12,0.000000000000000000e+00,-9.766689773810511631e-10,-3.867287754291778526e-09,5.813175030250388778e-09,9.020313736120787791e-10,7.527322186871072340e-09,-2.024736440781846609e-09,2.142749945992320534e-09,-3.020604141672092698e-10,-2.070490604773057269e-09,-1.189732076935417371e-09,-2.758040079292429358e-09,2.167801916983900262e-10,3.290281693683107721e-10,2.640531649609317105e-10,-1.502864025098899740e-09,4.249489184050795734e-10,1.764739718934643733e-09,4.642235280894562180e-10,-4.218335600535149850e-09,1.523502068186684316e-08,-9.044208197230622452e-09,-1.661816730879352411e-09,-3.168194213202612480e-09,-4.593253666518502315e-09,-1.046856293032794745e-08,-6.947090942473095802e-09,-5.564240392411341593e-09,-4.609784034037121506e-10,-1.166213005642502919e-08,1.335629334868525332e-09,1.760596387732069643e-09,-2.531187425132979033e-09,-2.426579500410950727e-09,-4.148975985780636483e-09,-1.010871373093080546e-09,-8.210846442598397534e-10,1.781417702214137147e-11,-5.513175399713350447e-09,3.623024082748198546e-09,-6.279421519024632837e-09,-4.391905399616952683e-09,-7.684870539618333987e-09,-1.127139625176205871e-08,-1.820163003523553636e-09,-9.541338324251725738e-09,-5.506091129737500257e-09,-3.808902961191936555e-09,-4.584820749280510471e-10,-1.170720993105249597e-09,-5.897510583294828231e-09,0.000000000000000000e+00,-4.799367327478180711e-09,-3.890820903982240914e-09,-1.563900062363254602e-09,-2.999129681934220398e-09,5.992536280486826439e-09,-7.048135576200456885e-09,-4.179593841351871389e-10,-4.121064549343752164e-09,9.188129354377639971e-09,-8.084787846635770725e-09,6.241530869107518857e-09,-6.536988234135252857e-09,-9.134168433032138628e-10,-4.050012270582364244e-09,1.146054026032720011e-08,-9.310448720527461980e-10,-1.313521611814863180e-09,-1.402058697496744738e-10,-6.271069586973603775e-09,-3.139922702020340030e-10,-2.308486442628086830e-09,8.877937641692482137e-09,-1.122620650435501201e-08,-1.852796414990868243e-09,-5.095081429835100830e-09,-8.331796147027832657e-09,-2.065002916889547349e-09,-6.483938759202309519e-10,8.817204327304492561e-10,6.058451752097370666e-28,0.000000000000000000e+00,2.694954949937547213e-08,1.577884496544806116e-09,5.737032218150547765e-10,1.099731731520660445e-09,-1.642993183563232390e-08,4.481271424989685796e-10,-4.728496589195327661e-09,1.765142855363443068e-09,-1.497771543900240468e-09,0.000000000000000000e+00,-7.991021664534785611e-09,-7.421330506958206511e-10,0.000000000000000000e+00,-8.920595633796847220e-11,-8.489988518697434953e-09,-1.499261101968054159e-08,1.252855325887829322e-08,1.313232295644550311e-09,-4.487661692916246830e-09,-1.593085414351873997e-08,-2.792642690703765032e-09,-1.380160527562952416e-10,-1.853610037046732305e-08,-2.780352691047650414e-10,-3.255213355108035295e-09,-3.360341503033690751e-09,-9.427987950723852310e-11,-6.051263771780976201e-09,-8.483489848277254707e-10,-8.197794078654102755e-10,-2.706465484437328287e-09,-4.483083058034164096e-09,-2.254158041283787987e-09,-1.503626837238898508e-08,-1.508982059182062272e-09,-2.778014756925041802e-09,-3.350072044977394088e-09,-4.060313026604181704e-09,-3.616497469991402462e-09,1.003204190175302920e-08,1.201845909029812557e-08,-2.818996305682349821e-11,-6.616804464326710631e-09,-5.225296678901568703e-10,-8.342507490570869763e-09,-4.975398159478455051e-10,-3.228544026367797623e-11,-1.229119845078956688e-09,1.391002924365605571e-09,-1.047450907032245552e-08,7.801883427384460616e-10,-1.581954035397269191e-09,-3.019922329426866704e-09,9.401242851784193605e-09,-7.836149166817852622e-09,-3.160167051178949247e-09,9.390160774211302731e-09,-5.943287907144934472e-09,-9.214484755241125833e-10,-2.414947490483693869e-09,-3.539533338946087390e-10,-6.977808434891939685e-09,4.616654536960503473e-09,-2.852014097074982257e-09,7.214245935208209806e-09,-8.442001874884619661e-10,7.806660616520357920e-09,-5.801854022403032159e-10,-8.974077047579224901e-09,8.888680489060424225e-10,4.797300295055402633e-10,-3.813629194581581052e-09,-3.130745692609269691e-10,-8.906008564963850198e-09,7.374690077050387510e-11,6.338695697782283608e-09,4.452817442335461023e-09,7.411215352946793855e-09,-4.137358053271445462e-08,-2.300882504166268439e-09,-5.134499745191933203e-10,1.046588192975935079e-08,-1.014590836137995181e-09,-4.245704520672327650e-09,-1.058748102415430113e-08,-3.523027779896190093e-09,-3.951287547079708595e-10,-4.153203802766692978e-09,-1.253731435457976833e-08,-2.821643847480721950e-10,-1.309331198269216423e-08,-7.626522732276704421e-09,-2.605669539593261414e-09,6.018010243696993397e-09,-3.425104197147243270e-10,-7.622473292660284833e-09,1.415492279141908333e-08,6.197010395952993221e-10,-3.472782259614645310e-09,-4.485704372895405275e-09,-4.487082643434733441e-09,-1.693931728079549718e-08,-1.546299372492999542e-09,1.721440410232314574e-10,1.608423182981707881e-10,2.494739895877171746e-09,-9.904255815227653288e-09,-3.353359441596640640e-09,-7.133981585664638523e-09,3.878411805023115445e-08,-1.475783752339641693e-09,-2.348887096190037581e-09,-4.070840033013943720e-09,-1.590655281890771544e-08,-5.779107796294429828e-09,4.119714664580690807e-10,2.092779858613678878e-09,-2.045819265235043171e-09,-1.712573847960792425e-10,-9.288281324307581287e-09,-1.813890068821410037e-09,1.142266547964225466e-08,9.670855317158068470e-10,1.474708763437048175e-09,0.000000000000000000e+00,9.584018136058115711e-11,-1.758156515912376640e-09,-1.876177963189268511e-09,4.222365978487791262e-10,1.549741344348751440e-08,-4.876469510373893809e-09,-3.108203839203494784e-09,-1.036777194818218816e-10,-3.946840138545225249e-09,-1.881359379755754279e-10,-2.805263307892344574e-09,-6.121149018969923439e-09,-9.458890300576662645e-09,-1.129749724919637819e-09,-2.126334724021971726e-09,3.489828163905083386e-10,1.837887669300961773e-09,-2.222688138172631355e-09,2.680896163837883508e-09,-3.679403536145081488e-09,-6.271096935347960226e-09,-9.895514224381319191e-11,-1.017660023856625945e-08,-2.957460430559100365e-09,4.345355637943005708e-09,-5.615462373782750397e-11,7.065733451747010442e-10,4.864938889738902453e-11,-6.146922561654277820e-10,-5.596782876767486723e-09,3.127546373395657251e-09,-9.469903432990381909e-09,-1.487295364680959492e-09,-1.267005280531871567e-09,-3.370974237318868435e-09,3.146455803216296819e-09,-8.947360970870177859e-09,-2.410378328907981704e-09,-5.375307996804880988e-10,-5.230501128826765017e-09,2.412695461231779665e-09,-1.620821835038156496e-10,-3.428018505445458035e-09,1.743249242753647531e-09,-1.758682402577219245e-08,-3.035963777096578797e-10,-1.961900402793086947e-10,-3.235778102894663113e-09,-1.071159622893529289e-08,1.664640756050236798e-09,-2.937655812463589656e-09,3.067534297332748856e-09,-4.977276461080926485e-09,1.447302274705346662e-08,-2.983304303432014085e-09,-1.369620888804917582e-10,-9.311333289292306367e-10,-1.128530124162755152e-08,-1.098548292033390404e-09,5.701642645836296004e-09,-2.505373234208300929e-09,4.086538398342220183e-10,4.513507615288872029e-09,-5.112353715189656525e-09,9.064381909117365313e-09,4.183397159838574062e-08,-4.976912964103554390e-09,-1.215492520619804121e-09,-5.733876594680398799e-10,-2.187212252195899655e-09,2.630366781425152386e-09,4.706118821349278192e-10,-1.262860384926249444e-08,5.658397114867083959e-10,-5.533134418046163144e-09,6.570097863156378806e-09,-2.544341729392256733e-09,6.611031512411436601e-11,-3.119040359287059612e-09,-3.146795949255993351e-08,-1.892984483406189827e-10,-6.935334227570941015e-09,-4.117451440490928992e-10,-3.220175085962446836e-09,2.621715201707611019e-09,-1.243187132981060204e-08,1.853716593261428599e-09,1.076723300958822682e-09,2.953316983784068905e-09,-2.648092817696815934e-09,1.450345252315273858e-08,4.323107658347496099e-09,-3.775519786287156292e-09,-4.665572930183435648e-09,-1.258800898919304529e-08,-2.311442216989610988e-09,-8.229460822629391859e-09,-2.093518480301544510e-08,3.456629726554083980e-09,-9.982219792209753845e-09,-3.651381588881388882e-09,-2.317048274260458186e-09,-1.281723821561061718e-09,-2.165045361341775972e-09,1.233128968689168479e-08,-4.721235899236473893e-09,1.408503283658776098e-11,-1.814007251052502106e-09,2.534862565280132803e-09,-6.344488438812070989e-09,-3.673001522873707630e-10,-2.261975851131822133e-09,8.278529136710612737e-09,8.700038780328435391e-10,-6.061908659762418461e-09,-7.306857724009530040e-09,-1.302778690920326246e-10,-3.204615459619346871e-09,-1.006396240505712129e-09,-2.800633710844543815e-09,-1.278621777307686695e-08,2.008276213685537432e-09,-2.950872727795436827e-09,-4.333958007252140561e-09,2.649429444816657826e-09,-3.423879346466974880e-09,-7.722683212321997394e-09,3.958366383118318248e-10,-2.423261453605410125e-10,-4.918827865711288848e-09,-3.403972660949786608e-09,3.317326296406610186e-09,-1.589510488217332862e-09,-2.229452806943170482e-08,2.621460418722597773e-09,2.133717708823834662e-09,1.484711570514315530e-08,-1.233630374704772337e-08,-1.939543903830908695e-08,1.123778421305138158e-08,-3.962384678613065319e-09,-2.959683586352463467e-09,2.527551580721275819e-11,4.866125743227579417e-09,7.517158585027234845e-09,-3.547364356813332211e-09,1.130218967599801257e-09,1.197191080765328732e-09,-3.726500450007887625e-09,-5.737854822199539793e-09,2.185810575774168779e-09,4.030649333068004669e-09,-1.229511932910875812e-09,-3.805294681332895638e-09,-7.418552202882154990e-09,-4.882752165810641080e-10,-2.380174984461532551e-09,5.966237919527728369e-09,1.980986819680835773e-08,-3.501372200514197136e-09,-3.679963214395732288e-09,8.533068788236207298e-10,1.478882499320090919e-10,-1.202724385514810569e-08,-1.748391776119591229e-10,-1.896401462198161006e-09,-1.047906561383663239e-08,-5.430682559163152682e-10,-3.172619472437221983e-09,3.505356609176479223e-10,-7.187941954751905393e-09,2.937291908122641559e-09,3.334014900454703312e-09,-6.123580743830863721e-10,-4.845639918159103637e-09,6.197850408039661174e-10,-2.439742614124238512e-09,-7.827885368411379157e-09,-1.815528618555026819e-10,-3.287841609369574044e-10,-4.901005685672844814e-11,1.960776222454770334e-10,2.162583446972654259e-08,-6.772909176868398646e-12,-2.601380605937246581e-09,-1.445437329606190706e-09,-7.624580767901447612e-10,4.368693319557754234e-10,-1.858619294906335652e-09,-3.378933282260741447e-09,-6.783041879674331422e-09,-2.856390213345784900e-09,-5.825334484034950927e-09,3.067825989230494004e-09,2.033849470763104182e-09,-2.667847085332997671e-10,-2.913881874449757027e-09,-5.206430277748428215e-10,-7.498419103892842622e-09,-3.391700781004241045e-10,-2.100996866955266398e-10,-3.671083828656987907e-09,-7.891929559487503880e-09,-6.567312844443567903e-09,4.895064159738694650e-10,-1.722420598935085734e-09,-2.896119136650724212e-09,-4.706514851636817975e-09,-5.686520384371534209e-11,6.469650571115731964e-09,-4.521191689609739804e-08,2.558782364236689122e-09,-2.313849502085452267e-09,-6.521772930116429531e-10,6.774314414229814478e-11,-1.627393958725290649e-09,-1.876235545559495022e-10,-8.392261376276508382e-10,6.272283566212301673e-09,-7.621742238322555719e-09,-4.006167069947844203e-09,8.262383463075788665e-09,2.263644315765842836e-08,5.510126751468408619e-09,-8.847865381374891293e-09,-8.709921391399271996e-10,-5.342546918751769828e-10,-1.884590348864202758e-10,2.473423615722132314e-08,-2.012937807049029695e-09,-2.789254173724209301e-09,7.233827225408344714e-09,-2.668352348261500980e-09,-1.447265568230524001e-09,-6.731288953817293256e-09,-1.223305955611124201e-09,-2.120620348167921679e-09,3.062761544920034005e-10,4.785591573786475480e-09,4.912175037904013787e-09,-1.146780434874013587e-09,2.937708614318832213e-11,-4.351670849726457047e-11,-3.858175962876171720e-09,-2.652052689618035649e-09,5.072885870267110528e-09,4.848967272823103009e-09,1.221357202829995957e-09,-9.782887116232199658e-09,2.145683277978040237e-09,-8.450046649850591702e-09,-8.534100854402435328e-10,1.346183576232329520e-08,1.372146247935587464e-09,9.133350223255891510e-10,-8.943869336927108559e-11,-2.290750206226428184e-09,-6.017462208290287304e-09,-4.404953103561366580e-08,-4.572873715861539063e-09,1.703877888618877441e-09,-1.096173967340296542e-09,-7.165324475230231253e-10,4.976404602228207506e-11,-5.737214578962231212e-09,-5.087008684593371895e-10,-2.369159031134421276e-09,-4.535649997638052087e-09,-7.881094094004162915e-09,-1.429020077916776934e-08,5.809914919036587751e-10,-1.813719823234815148e-09,-2.571099727442016106e-09,-1.465905943797702479e-08,8.328917401232718954e-09,-1.510124103797190610e-09,1.406428498219133349e-10,-1.595328253610929549e-08,8.379599118643591406e-09,-4.078607947799850541e-09,4.842488730906112485e-10,-1.107456464861903116e-08,-2.755226299392858805e-09,-4.778550431765351346e-10,-9.248864445022561040e-09,-3.883636992025878306e-09,-1.677425885404651005e-09,0.000000000000000000e+00,-7.118983546781740144e-09,-1.106910892106567766e-08,-2.343899479088429492e-09,-1.266223814451078658e-08,-1.279610388660340642e-09,-1.094459468642727598e-09,3.122078868682160941e-10,-5.695496467257213039e-10,2.434942851932152823e-09,-1.945252336283801101e-09,4.758446750864627328e-10,-2.857519877642919061e-08,-3.866143016961014283e-10,1.090942805443488691e-09,2.177262140899768199e-09,2.775860069789605545e-10,0.000000000000000000e+00,-1.827608652033281128e-09,-4.541554633783887300e-09,2.970762905929220581e-09,1.326379629642873797e-09,1.466894508471385446e-09,-9.430292131933173089e-11,3.082438840502665416e-09,-9.411891700021210284e-11,-6.018376581209718476e-10,-1.747044783193651278e-09,9.208191070481399092e-10,-1.610930804131870336e-09,4.309695577516718264e-10,-1.244599093956405596e-10,-5.296127620490775292e-10,1.227399765267802730e-10,1.645024104037446066e-09,-1.782632229452095294e-09,-8.951346836084478631e-09,1.031804330005998620e-08,2.578567502393824450e-09,-3.292867525119422196e-09,-6.176497541991502800e-09,2.221249336481844686e-10,-6.832473563924151257e-09,-5.359445197464172631e-09,-1.581461376361141725e-08,-1.548167172610271870e-09,-1.273631700798924867e-08,-2.444795145613351382e-09,5.038153059296454767e-09,-2.127973582992786055e-09,4.524403471737828567e-10,-2.853588272127594783e-09,-1.613037738985878128e-09,-2.087139796512332565e-09,-7.862841453630077526e-10,-1.176855160678762610e-08,6.176593674697063714e-09,-4.781033240762923507e-09,1.535594173664259964e-10,-7.564564394066178869e-09,-1.260303782532961790e-08,-2.779994810548795620e-09,-9.000135254651462032e-09,-5.756438856422574354e-11,-4.858650023720079839e-09,-7.788932162895427666e-10,-4.123681259259896898e-09,-4.864522924100015677e-09,3.657115009071687933e-11,-6.705562551625549841e-09,-5.185021375989662432e-09,-1.894990708703555635e-09,-1.174170022768822053e-08,3.807059327046304293e-09,-3.870357846709327457e-09,-9.471663918903442679e-10,-5.319881190461996258e-09,6.179625856109638320e-09,-7.580732636947197631e-09,7.140492768668436241e-09,5.057028186510315518e-09,5.766762469757551594e-10,-5.570786923039827832e-09,6.054923817702470768e-09,-4.433798374260955514e-09,1.291953175252947333e-09,2.176578870527280570e-09,-2.360681759351077784e-09,-7.031621298210734471e-10,1.792787095171361790e-09,2.057585864314013545e-09,-8.400397887482439797e-09,-1.341517922556438880e-09,2.842814386663313409e-09,-1.725178292724918542e-08,-1.445148369098504753e-09,3.231238158188204977e-09,6.999858424691250881e-10,-3.969604680711580349e-10,-3.093259301341449229e-11,1.963009994295320768e-08,-1.866535251618674931e-10,7.730427853316127256e-10,1.728714526548131345e-10,-2.062365045228300707e-08,-1.809356330002949347e-09,-2.176664213904172288e-09,1.064254943917821199e-08,-1.353684867220344962e-09,-1.330335799398470933e-10,-9.243210406813775905e-09,2.121307717556912719e-09,0.000000000000000000e+00,-2.622702023447520931e-10,-1.026701870373154200e-08,-1.173741783487886163e-08,1.291594951871885086e-08,-1.869433513099154120e-09,-3.960502940977444991e-09,-5.759484950006705514e-09,-1.121601565879609570e-09,-2.063753499735104261e-10,-2.948169752676067925e-08,-1.584274057824934826e-09,7.113690045551429784e-09,-6.685756256422276932e-09,-1.902037118471952844e-10,-2.390533272401068851e-10,5.478454754828262027e-09,1.632478992992293586e-09,-6.319400935060777140e-09,-6.487261969120790636e-09,-3.902363204978887728e-09,-1.566619156528974555e-08,3.895060533925592881e-10,-1.737672425795552747e-09,-7.598021061714019515e-09,-1.220278670775775968e-08,2.031098392295297791e-09,7.524893077506747482e-09,1.437810168253335421e-08,-1.979835869184352008e-09,-5.294975222721624038e-09,3.312750481479548420e-09,-1.056300772442356555e-08,-2.346778580155626297e-10,2.732606461285540503e-09,7.321333623124421423e-10,2.548122159850448619e-11,-4.731792311331733909e-09,1.242949361034070247e-09,-8.250240703186797738e-09,5.818633894505349175e-09,1.128233374593001766e-08,-4.562936146466558609e-09,-2.800261964272315124e-09,3.475848509523554645e-09,-4.820508812578157574e-09,-3.640871863938762115e-10,-2.516161038527623685e-09,-3.084101951323838599e-10,-9.214922062363897663e-09,1.957043296784650021e-09,-1.177510561637547759e-09,2.522355317405918483e-10,-1.131259350277085832e-11,-5.748791687157029698e-09,-5.667532939779609965e-10,-7.509219269921515968e-09,2.983638641713062085e-10,4.168272505823079050e-10,-1.255902168687102369e-09,-1.171349289071303062e-09,-5.112592808994821626e-09,1.032384018009470119e-09,1.203470222045481718e-09,1.304830738535830262e-09,-3.337137354895182383e-09,-2.686965919933448253e-08,-2.348219747678975359e-09,-4.408242315499231669e-10,6.909463791538948820e-09,-1.520636249375130888e-09,-2.914427793685592673e-09,-6.854558267658350433e-09,-3.802139918217788415e-09,3.305070094228921415e-09,-3.574184986319983320e-09,-1.508272336370038118e-08,-3.232464639999578772e-09,-1.170130400925978170e-08,-3.054649851153734506e-09,-9.074138845710138051e-10,2.625187401493012727e-09,-5.422195238807012869e-09,-8.538741738302864357e-10,6.541017694052163091e-09,3.270380973426434605e-10,1.032231745243758835e-09,5.603795940336587787e-09,-1.701014716235199357e-09,-1.419264523801425914e-08,-3.563128653253170926e-09,1.591150117286813623e-09,-1.264025652377390168e-09,3.786351643190760420e-09,-1.061813494390432444e-08,-1.184021838197351491e-09,-7.302428139842435294e-09,2.915088078375850967e-08,1.575189718984354567e-09,-4.275275037834248606e-10,-2.536718973368623217e-09,-1.531329555198150152e-08,-4.796464418425948129e-09,-1.294628739064792988e-10,1.473510087789441497e-09,-3.035699581269350383e-09,1.026795591595649870e-10,-6.651572628575162729e-09,1.436905374773486286e-10,5.592165646136650047e-09,4.451549322932052387e-09,-3.293012302404478610e-11,-7.164406544037753424e-12,6.671867036364791777e-11,-1.947349945488409997e-09,-2.268552342881284386e-09,-8.067224905877357405e-09,1.102848460102711200e-08,-1.024175044439626397e-08,-1.598469191613719642e-09,-1.006368278367914025e-09,-5.918974413713411345e-10,4.863952195710948602e-10,-2.420941665281013510e-09,-5.136063469113958554e-09,-7.664606808859888402e-09,-1.705379002086115435e-09,-1.453982753955066932e-09,8.228243070438459427e-10,4.041039029847638250e-09,-6.085068843750786961e-09,3.311013234892848432e-09,-6.483882620668982152e-09,-7.386622359953947178e-09,-7.683213070388957911e-10,-6.482138742043071887e-09,-2.136055747140795261e-09,-4.086401092108061280e-10,3.245260969239418592e-10,-8.291306246718407033e-10,9.044002393799691255e-10,-3.097782856601474635e-09,-8.247073516207563114e-10,3.215738467069021064e-10,-8.678579754840370142e-09,-4.066985951455481969e-09,-1.165841138741465470e-09,-2.716492153399259702e-09,1.708826640856344629e-09,-9.018986643825561047e-09,-2.746990649552159084e-09,-5.368791192178736610e-10,-3.228285084698431610e-09,-7.655503369478384457e-10,-1.200859176005627121e-09,-7.673321726184371119e-09,3.113126194633521444e-09,-2.237664264759717453e-08,2.793035577098093310e-10,-2.522538899902606016e-09,-4.134103811092025479e-09,-1.168937677619763285e-09,-1.659910899579478940e-09,-3.902123658820175265e-09,-2.944923030442875348e-10,-6.490866638623392652e-09,1.097574314593158015e-08,-7.228559056527136437e-09,7.388270240458448931e-10,-6.236349305472142889e-10,-7.400178821953513260e-09,-1.788756362744955127e-10,7.738853653414839315e-09,-6.487130884954428373e-09,-7.749228794291058484e-10,6.207020992965652601e-09,-3.498586480286505635e-09,5.753093659599300685e-09,3.133721256258128350e-08,-5.674194964617346990e-09,-2.850726832956543977e-09,-1.146774919554433329e-09,-1.736615726164954261e-09,5.404875563130068730e-10,1.959671865046326303e-09,-1.250500798078284013e-08,-3.346785706809107254e-09,-5.926440475923226834e-09,3.200020324109378749e-09,-2.877519523156016780e-09,4.540980547602498511e-10,-3.702334959674469008e-10,-2.649633286729581610e-08,-6.064097105856319347e-11,-4.663986945955948313e-09,2.034006245200475351e-10,-1.823340960491012104e-09,1.256257902133387427e-09,-8.849192682215749753e-09,-1.486816388933638756e-09,1.286573376140273515e-09,-2.595908114486790639e-09,-2.975183233348575674e-10,9.731478522106357121e-09,9.039831675732808315e-09,4.332483845979929056e-11,-4.047591713187966123e-09,1.200640241190780606e-09,2.588613843288022629e-09,-4.044024239148202624e-09,-2.211652845313304734e-08,2.556977269985400710e-09,-7.147459074420638317e-09,-1.495823082438530286e-09,-2.899923639531973075e-09,-1.634114822267196202e-09,-3.554276033914479996e-10,8.297454873913602931e-09,-5.662959511263254664e-09,-4.990468102625944100e-11,-1.957827833019366091e-09,-4.891511956804905532e-09,-7.031507750959629554e-09,-4.275172702819420577e-10,-7.167213729609749811e-10,6.694983455128711950e-09,9.694190650827074838e-11,-4.757944210009083839e-09,-1.027905786574257551e-08,-6.200778256035090337e-10,-2.537473004045100605e-09,1.960869177584977276e-09,-7.569275282139934659e-09,-1.433635224484496484e-08,1.739038062680499936e-09,-2.200235024263381923e-09,-7.267319415934501160e-09,8.111933976063713066e-09,-1.860414390104020343e-09,-7.573923267277702002e-09,4.498930870203747139e-11,0.000000000000000000e+00,-5.045402737481650460e-09,4.270694842474916034e-10,-5.318308174323253192e-09,-1.173452855491342302e-09,-1.594048046672342900e-08,5.077607579401570581e-09,8.975052894789554616e-10,8.272593177800687606e-09,-1.188231544146753165e-08,-1.189668504415970811e-08,1.567330475890194354e-08,-3.866047435117827900e-09,-3.285953072648217942e-09,-2.420120520633386106e-10,3.927680556363257671e-09,8.553708310720940373e-09,-4.435605948903435717e-09,1.979392031466426485e-09,1.335803624673269910e-10,-3.313960220067062580e-09,-2.524947893118701240e-09,-3.364986150281571858e-10,4.469141711111253980e-09,-1.606075462043617264e-09,-4.619864150720351775e-09,-4.480728166373155891e-09,-9.539484906196979622e-10,-1.692914751149076669e-09,1.703541732740564498e-09,1.221276103824557226e-08,-2.897178548638225452e-09,-2.411686753372251338e-09,2.628717000692876954e-09,-2.482385309543232252e-09,-1.136897049150916765e-08,-4.048657571081936699e-12,-7.444798653777074669e-12,-8.768926301658376662e-09,-1.346230595514619123e-09,-1.573276679919484169e-09,2.412596868531181215e-09,-7.773623556922091155e-09,3.107280998993959524e-10,-1.443776959380985029e-09,-2.592550187347420295e-09,-8.304593845068780303e-09,-2.121739267855049545e-09,-2.965509490334060645e-09,-8.922004788952310034e-09,5.588934926036235180e-10,3.988638728148136085e-11,-3.633429341459085431e-11,-6.256788689728352250e-09,2.972442499200927828e-08,-2.631093723455557438e-10,-2.462607524444853113e-09,3.067768471970181320e-09,1.408314688243922314e-09,5.477048530754203523e-09,-4.113377679679061492e-09,-3.544468529887964724e-09,-5.200151047741232378e-09,-5.825394860195035354e-10,-9.057324336931100168e-09,5.801410055273058177e-09,4.495487311656440306e-09,8.270211874167268696e-10,-1.320314178899588367e-09,-8.517961850000957038e-10,-6.320217126772590803e-09,-2.298713716679588912e-09,1.499067817415894055e-09,-2.210459073626633218e-09,-3.511014699593122788e-09,-6.457352892144655669e-09,-4.073695590250380649e-09,-1.496384150603002503e-09,-4.345928756457843006e-09,-3.243223212361426035e-09,-1.218079432740031633e-10,1.499555250360746240e-08,-4.540398930940103904e-08,2.334477969067199840e-09,-1.479984969274567880e-10,-2.449259652496011470e-10,-4.198929366840770160e-09,-1.824712118610625601e-09,-3.208958666788902668e-10,-2.506968809355199841e-09,9.062447675869127305e-09,-1.120212934121614826e-08,-8.832024065881813702e-10,-5.522690243130067068e-09,6.849094335097574586e-09,3.121260446111679718e-09,-9.113498437816552230e-09,-4.662340311583154816e-09,7.880022378057860884e-10,-1.834092707929648504e-10,2.499880029595333840e-08,-2.068519451316565518e-09,-3.716722791875986675e-09,-3.236860400273100763e-10,-4.557206479853743567e-09,-2.715159810254203502e-09,-3.937516689804696252e-09,-7.294070800725088396e-09,-7.642974967720616283e-09,-4.350960463714984266e-10,-2.574481564002352589e-09,3.111952516026392099e-09,-9.301316343255674658e-09,-6.137777936010823579e-11,-2.556017155718112064e-10,-2.339437912442478165e-09,6.642571031192458178e-10,-3.599218942104301300e-09,5.632939347261613194e-09,1.544494170102709439e-09,-6.916880241919911056e-09,-1.858614956796964995e-09,-4.803016118944363589e-09,-1.198768664201557437e-09,6.365726968707318581e-09,-2.278531301159609188e-09,-3.126344925336758151e-09,3.697902187641947703e-10,-5.698015893423117630e-09,-8.263259861422530683e-09,-3.471292954541548158e-08,-3.552330507002270445e-09,2.810707060378074314e-09,6.560743181039928500e-10,-1.071255856537471218e-09,2.774252712623540403e-11,-7.434456066260497662e-09,-6.822982353136496283e-10,-3.779679523745367782e-09,-2.248076583525321784e-09,-2.092867668892831357e-09,-1.511227248758740294e-08,-9.569813184398759464e-11,-3.524302759648653598e-09,-5.723904092493504394e-09,-5.151244961438826348e-09,-8.844372363806417070e-09,-7.477995286314914851e-09,-3.924116565807312656e-10,-1.625587219948587324e-08,8.244307546669733304e-09,-1.167595426742874111e-08,-3.472699343545741716e-09,-6.669817846089138214e-09,-3.980960140911483630e-09,-7.733670239973365189e-12,-6.444157538075010515e-09,-3.585804588283099515e-09,-9.216700329804160286e-10,-3.357210134608268058e-10,-5.456392139275216524e-09,-6.733090014050696225e-09,-2.502255799362600993e-09,-2.083204538956975749e-08,-5.667821190619048222e-10,-1.555696727694307689e-09,-1.380933635068280521e-09,-7.286782764124029122e-10,-3.084870653091443733e-10,-3.568534861442551309e-09,-2.223100107553832313e-09,-2.268663075679005484e-08,6.847011606722030731e-10,-9.718153386103160813e-10,1.410932015016625077e-09,7.637325477019241282e-10,0.000000000000000000e+00,-9.298631165428633302e-10,-4.077453240772916506e-09,5.329483262823054034e-10,2.754872876835282279e-10,1.528962526835941059e-09,-8.328941612986124825e-10,3.606638824140500928e-09,9.857570190603810908e-11,1.341270091228828808e-10,-1.636230038891268011e-09,1.066578348606164213e-09,-6.340276291658335585e-10,7.035480921183114104e-10,1.917234333516908157e-09,3.373724161968294291e-10,-1.799031621173910654e-10,5.078478726018141905e-09,-2.970650785722337079e-09,-8.038884254097833281e-09,2.405504689370567689e-09,-8.218024782383834140e-10,3.416802453337127402e-11,-7.053559143221303610e-09,3.064465150140547055e-09,-7.689492319387436031e-09,-6.625109484138462614e-09,-2.170759150552020177e-08,-4.157235754839857440e-10,-1.280240450449022852e-08,-1.933879678068636426e-09,5.871473153551122314e-09,-1.524295297984044990e-09,1.242038569745448218e-09,-1.881784538933877978e-09,-1.094997454559131323e-09,-9.504997811238167079e-10,-1.368875351879198530e-09,-1.139039042155484789e-08,6.538960521144033976e-09,-5.851647992817175843e-09,-2.222141997643406438e-09,-7.907905896698578430e-09,-2.090238367076824023e-08,-3.099956688147402516e-09,-9.405470734337160587e-09,-5.140897566029018793e-10,-9.069876618538778935e-11,-6.130502087134634240e-10,-3.459204106073914313e-09,-3.676310633762861366e-09,0.000000000000000000e+00,-5.483254840055228900e-09,-9.552770226614631282e-09,-1.809385704413439703e-09,-6.255141948904695588e-09,2.009629948098275585e-09,2.740039948660002527e-10,-4.097925791642750292e-10,-2.292805648321063988e-09,6.469924519059901222e-11,-8.304746495403411113e-09,7.049876540091269405e-09,1.483655743359793015e-10,-1.616228429331241584e-09,-2.798989436936604489e-09,7.095692889241265461e-09,-1.227945067057787469e-09,8.988419714190733782e-10,3.020733194076866059e-09,-5.099915672631996115e-10,-3.960614992543313756e-09,-4.122831796110477723e-09,-2.458047573748790742e-09,-2.294242470875749113e-09,-3.299356439923160537e-10,5.914244899226705604e-10,-2.089390620129051580e-08,-1.180158270493147435e-09,2.442394715721842360e-09,-1.098432936801085949e-09,-7.743732528813184208e-10,2.395159022237064957e-11,4.429754762061029723e-09,1.236086513208104803e-09,6.569374907182124855e-10,-4.502765437195758986e-09,-1.660563059062095106e-08,-2.679022581776808393e-09,-4.965249397889652368e-09,8.725530258203588370e-09,2.412123913984921700e-10,-2.337980971767995580e-10,-5.355514433430581388e-09,7.480997062481585522e-09,0.000000000000000000e+00,-3.483030355868317593e-10,-5.805582126794112955e-09,-1.196480568233041878e-08,1.597024919721186542e-08,-1.011968255969911075e-08,-1.765043346167261082e-09,-1.809551462075006257e-09,-3.813324210272844448e-09,1.288541962922073854e-10,-2.347082480335607947e-08,-1.796628389131576671e-09,2.041564587056868576e-08,-3.789799562802301787e-09,-5.562345820838407231e-10,1.058464365973462364e-08,7.983590567337363086e-09,-8.183762627280848884e-10,-5.901430166819173416e-09,-4.891862172567997566e-09,-2.583495887375119875e-09,-1.046633650629093251e-08,-1.531156042092959738e-09,-2.230559622630208281e-09,-7.760780113735461649e-09,-1.037140381407736700e-08,-1.728390747496223647e-10,-1.966040393750032660e-09,1.436679636527260388e-08,-1.074593277470453810e-09,-1.290905928878933104e-08,1.507990848491503745e-09,-1.222628458525973528e-08,-2.092361564923922847e-10,-2.433604714194015442e-09,-1.049139054002820187e-10,-2.293507380109735213e-11,-3.654979917480206624e-09,-1.875251371382220370e-10,-1.722338939077618491e-08,-8.560985484219164118e-09,5.682624126191883551e-10,-1.684479907791627084e-09,-5.526542485859002696e-09,-2.301535553416561287e-09,-2.875138407047108946e-09,-3.606838346783819536e-10,-6.235182770337844658e-09,-4.351683208591928328e-10,-5.090396725512279891e-10,2.019561030424058112e-09,-3.481572439778099408e-09,3.764972927927279049e-09,-2.109384582928576856e-09,-5.341883006494790444e-09,-2.066926303694794190e-09,-6.258415725564002623e-09,-2.427842414262933961e-10,-9.980952932396631618e-11,-4.476501594805183426e-09,-6.267662012620340372e-10,-3.811844472256034411e-09,2.183391555648295200e-09,-2.856707320776803872e-09,-3.290853729258578097e-09,-1.506364752678959763e-08,-2.214065523863939525e-08,-2.164226305621598584e-09,5.415534390829841369e-10,4.031386486090490430e-09,-4.625219394192327380e-09,-3.846828811379198265e-09,-5.407970124944264910e-09,-1.348674104918119296e-09,1.018714840393883496e-09,-2.706345537076891627e-09,-1.708040333915657549e-08,-4.217283834584803683e-10,-8.769439415457618487e-09,-1.073952518435089730e-08,-4.713772070326208462e-09,3.421665605748925189e-09,-8.796569025774631123e-09,3.021136703181502439e-09,-8.977826842643989968e-09,1.925005520944098097e-10,6.275196797378160489e-10,-4.619845399652605347e-09,-4.738468375610417907e-10,-1.026416483929224845e-08,-2.459192470064433343e-09,2.165798674971203049e-09,5.231912170844758230e-11,-2.799586628780315909e-09,-1.077853508298820267e-08,-1.585415281272463432e-11,-6.380069283091810848e-09,2.916254092092330071e-08,4.705795195770675928e-10,8.066303937375772531e-10,-3.236702457227016375e-09,-1.053087854689214211e-08,-5.172200412291995833e-09,-8.349503963001596933e-10,1.249827431738267265e-09,-1.937930213164909296e-09,2.615682687853973576e-10,-4.034466076787387601e-09,1.783763236626222958e-10,7.079116503184653604e-10,4.443410793482265012e-09,-2.163011011058192006e-09,2.461270829879424761e-11,1.214268803365378341e-10,-3.980776554691809086e-09,-2.357999740592108709e-09,-6.083602612437484344e-09,-8.256331136751545646e-11,-8.882044372465685918e-09,-3.308209173443078831e-09,-6.637235503068201632e-10,4.351057033725329351e-09,1.412247449372918743e-10,-5.504309893802345082e-10,-4.184747115925658242e-09,-7.762029606332338700e-09,-7.642635711760811413e-10,2.791168140410544706e-10,-1.067307896777681798e-09,9.225250167241801710e-09,-1.685223944743592822e-09,4.987583208617154076e-09,-1.302069908005019990e-08,-1.747355386429122498e-09,-2.460235231484260864e-09,-5.569485579496040753e-09,-1.037985259482554923e-09,-5.173957123891260240e-10,1.750353135517513624e-10,3.998012557607027037e-09,-3.545689318630498329e-10,-4.599684057010871884e-09,1.545830837589482832e-09,-4.447957440465689019e-10,-5.666513218253915592e-09,-2.804697630960606533e-09,-1.601734602518769130e-09,-2.038650653352328090e-09,1.199017411735481900e-09,-9.140815903919864801e-09,-1.185921682378762385e-09,-3.948098765363939642e-10,5.160639145984373563e-10,-1.600490008345132039e-10,-6.292763592494275206e-10,-1.654502205035898464e-08,3.581586915000069839e-10,-2.532003405468751294e-08,-2.619014076415589950e-10,-4.336138278083002799e-09,-4.184160055003568551e-09,1.212901544553715355e-09,-1.815644430600738507e-09,9.664333726313091538e-10,3.709370539802197860e-09,-6.648685615248476919e-09,1.013255391783191682e-08,-3.555822070898563971e-09,-1.789798476754797384e-09,-5.077212341286117547e-10,-6.357424484440950993e-09,-2.619421894928277136e-10,3.506097357967429410e-09,-7.264503141709446508e-10,1.912247163949827598e-09,1.033326634298051255e-08,-1.056666022619423628e-09,7.169983792298051481e-09,2.909430547804986125e-08,-3.895220368393687123e-09,-2.227346142700019197e-09,-1.794528352684109991e-09,-3.223210806018540830e-09,-4.403079712016004805e-09,4.514198082307133092e-10,-8.601307757516262718e-09,-1.667693414820444804e-09,-2.107619584851867999e-09,-1.721021044865945787e-09,-2.960110086681761059e-09,6.044432457739369753e-10,1.293521561056142569e-09,-1.846241995946808880e-08,1.981720153526513991e-10,-3.192946653138890264e-09,-1.090728372122449363e-10,-2.007377618559475196e-09,5.428990319357435413e-10,-5.357628925057797906e-09,1.929036499603858976e-09,4.897144659986846570e-09,-1.388418756637735872e-08,3.325296910145009902e-10,6.473133113944498803e-09,1.094587256410051027e-08,-3.535197467291611379e-10,-5.628749950368701707e-09,8.185219762846202503e-09,6.426508988888507918e-10,-3.546099733299754389e-09,-1.660800983320639016e-08,-1.640646963896483615e-10,-5.239176526571352229e-09,-1.109509994008777587e-09,-1.711883426566514533e-10,-5.944668583388950687e-10,3.356596810542316801e-09,6.486091413371582552e-09,-5.441183428674503245e-09,1.018018198071875711e-09,-1.225112097432123015e-09,-5.768648655766637438e-09,-3.583430137623803857e-09,-8.982631584113463551e-10,-2.253922535232126350e-10,3.996343566925592026e-09,1.685572536920124867e-09,-3.223403372891299996e-09,-7.398833344726025880e-09,-1.141506547716387653e-09,-2.018365072616556005e-09,-2.758421631728380341e-09,-1.292900691186758346e-08,-1.209029155918659892e-08,9.400125134507089923e-10,-4.047308024942337185e-09,-3.768771524107452344e-09,1.212596090965629766e-08,-5.195274924625922362e-09,-2.642729942523676530e-09,6.602219371730625687e-10,3.516840993757064958e-11,-1.145663017717157619e-08,2.959612028871946113e-09,-1.048581522955350169e-08,-1.456697507874284099e-11,-1.338956401373218030e-08,3.208065192384235148e-09,-2.590761157086040763e-10,7.187229889862179231e-09,-1.657135663646125896e-08,-2.832103248673506259e-09,1.244293464371461765e-08,-4.607382878885845901e-09,-2.943651978635735146e-09,-5.481785371038487417e-10,7.644658209026704586e-09,3.936924364312196419e-09,-5.054635791070389386e-09,2.211858545903503205e-09,1.424180247763238912e-09,-3.646508412217301270e-09,2.091100647107141100e-09,9.266508382080058670e-10,1.095503413240222055e-09,-2.746473723904239505e-09,-1.438602961371939935e-08,-2.351219539889309267e-09,-4.585703968320761213e-10,-1.494855962554241852e-09,-1.451932154970696459e-09,1.027972047571538042e-08,1.117453318672387325e-09,4.828594508360727584e-10,8.748841051302376929e-09,-1.627891210790559738e-09,-1.342721462261352213e-08,-2.312537588896221319e-11,-1.399376872110745199e-09,-5.324980124806674230e-09,-4.636410405091825489e-10,-5.755270023782601201e-10,4.418617532620935572e-09,-6.310178393186579186e-09,1.861184531305509894e-09,-2.065429443379099761e-09,-2.112679207403739156e-09,4.356835510385800943e-10,6.040003350506063164e-10,-4.843931293989229050e-10,-1.015795756162437865e-08,3.911380038030747828e-10,-3.294086430954814855e-10,0.000000000000000000e+00,-8.122242289023595521e-09,3.077732642356099871e-08,1.127891580748216506e-10,-2.874019168138847542e-09,1.492225233262142229e-09,-8.973035151469857937e-10,9.988558681742963851e-10,-2.797372686432672371e-09,-2.191301053891649444e-09,1.243217677834262463e-09,-2.039696941074091042e-10,-3.851274770074084394e-09,2.736366156370259909e-09,3.029198239539631245e-09,-9.084215091558414616e-10,-1.892547772892473417e-09,7.207643231295908148e-10,-1.964154926034161885e-09,-1.576179074484581222e-09,2.288993807992664044e-09,-4.994483372864035139e-10,-8.135262124161471652e-10,-1.081238447162897847e-08,-4.531927239662754941e-09,-1.686715369506467077e-10,-2.466844058905163619e-09,-2.615267675494990968e-09,-3.087830290068512812e-10,2.028584012906912928e-08,-4.165628730595948544e-08,-5.167760071968160721e-10,9.553326929167362794e-10,-1.727758086922255596e-10,-3.659551267947255269e-09,-2.027383740392496990e-09,4.877172443390492702e-10,2.118963645627938751e-09,-2.862617658965435906e-10,-1.257554655123544863e-08,3.203375570960109023e-09,-1.077684473768628256e-09,-4.321159231241260691e-09,1.994706841920570711e-09,-9.135887449093864573e-09,1.231990724459040243e-09,-2.979864721772379758e-10,-2.881237131996077813e-10,2.435042878829465718e-08,-1.231461320343894024e-09,-1.026072975699404029e-09,-6.936280201966058617e-09,-4.526805235612475933e-09,-5.111018302374190413e-10,-2.846281634160912704e-09,-7.438741148812242935e-09,-9.001402905259298760e-09,5.671667157212679561e-11,-3.196107806627841899e-09,4.854741888067517565e-09,-2.441117761072121502e-09,-1.898541518561266811e-10,-1.674239801010754597e-11,-4.721623809789365169e-10,3.141540934798260594e-09,-3.929227418972768415e-09,5.970722803461601452e-09,3.178289674074297826e-10,-6.557951451795701711e-09,-1.664884172239189198e-09,-3.542450656984388118e-09,-2.671944845104131546e-10,-2.658315784372960409e-09,2.335546897618299802e-10,-1.354691723743999171e-09,9.569586175290276968e-10,-1.071063865060357107e-08,-6.226841223134238246e-09,-3.363488646012352350e-08,-3.158823340277412437e-09,3.243506482371852038e-09,2.255438660521836450e-09,-1.430778949165725251e-09,-1.210809018097060345e-11,-5.186329073440365361e-09,-1.187305106393520488e-09,-6.049831378527546472e-09,-5.979530186676468481e-10,-3.711440636336123122e-09,-1.128189562172061097e-08,-6.767110251383491720e-09,-2.861347757345712450e-09,-6.448198192096190368e-09,-1.740760453776098762e-09,-2.388444569733341335e-09,-1.014369183275648823e-09,-2.810494133035550692e-11,-1.392042545704381419e-08,6.882324236475747512e-09,-6.698965692159929165e-09,-4.878203215689527749e-09,-7.198262703696909574e-09,-2.151766280077268883e-09,4.772316601205767395e-10,3.760316504989445320e-09,1.613032192305315193e-10,5.194378314659428904e-10,-2.861735756328259533e-10,-6.174706954555775734e-09,-3.146490418821522572e-09,-2.016511895314449362e-09,-2.004334470498536651e-08,-1.128849654828788811e-09,-1.664271388058468210e-09,-1.085358789192207726e-09,-9.350066801556693495e-10,-1.215325780250414661e-09,-6.012367902761735357e-09,-1.344325951188175261e-09,-1.554583400858129317e-08,1.730266960265850178e-10,-2.469700890323220510e-10,6.222707137332793326e-10,4.970582446993892032e-10,0.000000000000000000e+00,-1.732621624932418993e-09,-1.856633498848271049e-09,-2.001802319170735150e-09,-6.629204878779516145e-11,6.496607957264511209e-09,-4.136987381218646849e-09,-1.904322758097983264e-10,-3.848999061722699470e-11,5.100665677429163099e-10,-7.401275705573984868e-10,1.597346722350008270e-09,-8.456285770983660996e-10,1.234471044118275284e-09,1.257392598521290929e-09,2.811616007206116589e-10,-3.921419179503246875e-10,1.011276659728364906e-08,4.390032406387302499e-10,-5.230018926357376261e-09,7.303575224415128764e-10,-9.895307561084639454e-10,-2.525485637305752233e-10,-6.647659285919691868e-09,5.238138183211632153e-09,-3.469266647385658577e-09,-5.613942729130234593e-09,-1.357739714974765015e-08,7.455955886441051754e-10,-1.241820103818089383e-08,-2.305174291983617257e-09,2.398293891472384547e-09,-1.419204882575311905e-09,3.510204520560732513e-10,1.315715862506724985e-10,-2.066248456840136290e-09,-1.478644186964235805e-09,-1.051948715750943962e-09,-1.122555246308582641e-08,7.267302251501249486e-09,-1.026639891778469760e-09,-2.619190379932748941e-09,-8.108535448909107589e-09,-2.297622306686402152e-08,-4.212259271677112357e-09,-7.115356050793510750e-09,2.437462529986466681e-10,1.321493803175679263e-09,6.547169626162245143e-10,-1.224062568939480921e-09,-3.454176846001396497e-09,0.000000000000000000e+00,-2.607299736339784066e-09,-1.336389675480106457e-08,-2.695536521588021533e-09,-5.430099450715921434e-09,3.719375665452862418e-09,-2.016697750113084669e-09,1.646018255304287126e-09,-1.579473616617166015e-09,-5.378210448582116808e-09,-8.575935201056386757e-09,4.289184847044434624e-09,-1.207543464273850005e-08,1.148357316935289220e-09,-1.847786191488036577e-09,8.634127472482795371e-09,-8.434025015484994506e-10,1.228908001653965246e-09,-6.759876805625181414e-10,-6.669242902998041593e-10,-4.283861701677783935e-09,-1.657631085688152032e-08,2.979223980286683350e-09,-3.429252809327397760e-09,-1.626197015909886544e-09,4.535362436856688808e-10,-2.067115242027886133e-08,-1.616517393708232770e-09,-3.574921376041261490e-09,-2.993792392221974997e-09,-1.038808333341699927e-09,7.647966650191321888e-11,4.224230573072754143e-09,4.744980248845727321e-09,2.106217000724563964e-09,-5.347302690845931681e-09,-1.468843832159319717e-08,-1.105641924079658908e-09,-2.089391941151762063e-09,7.723598774536483664e-09,-3.836635589469554818e-10,-2.328803687944045441e-10,-6.032811112730094885e-09,1.375068681942785168e-08,0.000000000000000000e+00,-4.619875590816154993e-10,-3.010188055531961965e-09,-6.287638446421561595e-09,1.826199105549928826e-08,-5.758914467590476826e-09,-2.689671904533966635e-10,-4.937797477426433070e-09,-1.073949964113567559e-09,1.630080654148400749e-10,-1.678244134866099499e-08,-3.763821467181843287e-09,1.935072127660859409e-08,-6.949320774723398233e-09,1.080151335841315586e-11,1.030325893321247237e-08,7.236916741463355938e-09,-1.894908131748942057e-09,1.106818958889782200e-09,-4.558811291648392347e-09,-4.935085326317067084e-09,-1.164359744721416799e-08,2.000297443998287072e-09,-4.121378048213207043e-09,-8.195163076578063953e-09,-5.965014682378615779e-09,9.568413783768122362e-10,-1.706294017043547125e-09,2.673541212970368838e-09,-2.722521908622388026e-10,-1.763388447660267907e-08,-4.549702884980577018e-09,-1.305600943057300499e-08,-7.151747571798772454e-10,-4.403334774319237185e-09,3.211573067156291329e-09,-7.248999754885697220e-10,-8.293172676653701382e-09,2.808861740494033366e-10,-1.438114528899186538e-08,-2.691689472286949826e-09,6.264859439551639779e-10,3.126679697250689675e-10,-3.411613841527585573e-10,4.574037046336487942e-10,-2.312105267937064505e-09,-2.244330817010764198e-10,-1.102967403823579067e-08,-8.489686653122555776e-10,1.586010576681055133e-09,8.229566931805523850e-09,-3.422130315598704959e-09,6.470630977972576845e-09,-8.596495948581535477e-11,1.014464589071827464e-09,-3.227368212610060352e-09,-6.014888673984122212e-09,-1.416379983368604472e-09,1.182898453137119377e-10,5.916281667186152165e-10,-6.224013715685610307e-10,-9.166050919029008213e-11,7.801288021811388459e-11,-3.441565651995232425e-09,-4.675542967749782904e-09,-1.714149738088255323e-08,-2.124883231665320875e-08,-9.292995337880341809e-10,4.357651167134623902e-10,4.962907612252846748e-10,-6.585144582117009133e-09,-3.618490765307546970e-09,-4.442169522396354753e-09,-1.982235310918079041e-09,-6.012052295034390162e-10,-2.096610439902398808e-11,-1.264241196437982666e-08,-3.938422370115298786e-09,-5.718939057217539009e-09,-2.122331498502782529e-09,-7.146289718635120695e-09,6.209591145269111106e-09,-5.178810820399091650e-09,7.317986433160515152e-10,-9.280807603326412935e-09,1.482248011996765558e-09,1.058512852558273362e-09,9.010056539067789266e-10,-1.651368479970167842e-09,-4.095489899765126468e-09,-5.155489382298175415e-10,1.302213698294475312e-09,-4.452516208567479224e-09,-4.415487494204592768e-10,-1.019418109321664416e-08,4.923869595992169883e-09,-4.164036133208926782e-09,2.522160484127787979e-08,4.034190018230434632e-09,1.014843076243167189e-09,-4.226269105670949118e-09,-4.394137077299813343e-09,-5.422958171226174875e-09,-3.957877276310548200e-10,7.336582789658753392e-09,-1.839106914093060027e-09,1.213927189860794094e-10,-1.355998825371588255e-09,2.341028544776403735e-09,1.428588900238265433e-09,-1.732652100391116074e-09,-3.529217485191831667e-09,-1.232905182633463090e-10,2.216971560352759256e-10,-8.103714960417028170e-09,-2.468680284037883613e-09,-9.941721682497222608e-10,-1.334818969534375805e-09,-6.110841466722367646e-09,-1.452663523142024662e-09,-8.175789777461283442e-10,5.505166520899986705e-09,4.837565622115240004e-09,2.141853329300550289e-09,-3.360143454228040854e-09,-9.756179882876946985e-09,-5.698263930878675975e-09,-2.943294850467490194e-09,-1.292790680869294827e-09,5.215928356357546086e-09,3.303357952637625674e-09,8.542691323473855497e-09,-1.633846377430241276e-08,2.904930074479118827e-09,3.715007830921789009e-09,-5.601726323028560922e-09,-1.711980312738741709e-09,1.958302834167066309e-10,-1.943513091748932324e-10,4.630826806808114619e-09,-3.037984329052541477e-09,-2.778318260882905372e-09,4.237474242072548294e-09,-1.958564784988402123e-09,-5.539204738046625476e-09,-6.805313043088072065e-10,-2.425124862618841551e-09,-4.843314078335037086e-09,7.754237906228447963e-10,-1.016091017324652752e-08,4.393699867009908634e-09,-2.511123973940788541e-10,-1.601317347330887711e-09,3.822054981182196508e-09,-1.726091784136826869e-09,-2.812929826895144227e-08,-2.207851778460955662e-09,-2.583785250406247965e-08,-1.293564013391605021e-09,-2.023871098803515401e-09,-8.070958570885545290e-09,-3.480500848169735497e-09,-1.524829841119589690e-09,3.409479824306149366e-09,6.507529531087583212e-09,-7.417998151396997270e-09,8.496542044271653839e-09,9.223386512375259156e-10,-6.075504934894191730e-09,-1.769383471042856009e-10,-8.395847875876087108e-09,-7.640175297677958983e-10,3.834009932089207568e-09,1.209348606634825758e-09,2.560438861346784029e-10,1.240600241642428432e-08,4.864354396076087628e-10,5.968416993719975956e-09,3.614516425132173269e-08,-2.336571080606742542e-09,-1.782219702572541819e-09,-3.012150666558477912e-09,-2.813627259286297946e-09,-5.723867622304527824e-09,-5.395298933352243070e-10,-1.108312241519931970e-08,-3.072127032421122935e-09,5.199347721579727632e-09,2.338296251634848990e-10,-3.089484600701118477e-09,-1.484249955855579402e-09,-2.717327317778354400e-09,-1.431081449891800011e-08,7.085253231539094669e-10,-8.266840758250211949e-09,-2.323270375499024929e-09,-6.044309842073408335e-10,2.286188744360190721e-09,-2.791463502426157623e-09,5.669308903652252419e-09,3.844129437320898096e-09,-1.443275186232685434e-08,-7.821568347802199517e-10,6.596806058924125382e-09,7.469882566889436450e-09,-3.092839587129602910e-09,-5.512640238502774900e-09,-3.021610295026524417e-10,2.741495099785080882e-09,-3.781281601777929279e-09,-1.096246948731218588e-08,4.827814142319224326e-10,-7.085051854477824190e-09,8.045435209242447879e-11,-1.528928949928792663e-09,-9.731471154228377362e-10,4.714538476702952364e-09,1.126590917826083053e-08,-1.037797700244087893e-08,1.487958052688866694e-09,-5.719985278505054758e-10,-4.249707848669546508e-09,-2.970687953617034971e-09,-7.059705462285273184e-11,-3.244638906552616364e-11,2.159544900062112662e-09,1.692360881305961568e-09,-1.688911675473771086e-10,-7.010755630700306065e-09,-5.127998038248903548e-10,-1.251441324014322257e-09,-6.780784013489688996e-09,-1.745659366718378296e-08,-6.887757631826279335e-09,-2.235407231449568783e-09,-3.352249674127009070e-09,-4.737326998167409986e-09,1.512705779306482737e-08,-9.759188929121914769e-09,-4.590431074219680585e-09,1.997383122049704573e-09,-1.971114205971429741e-10,-1.055338691748295146e-08,8.507008092810720578e-10,-2.122226273182817528e-08,-1.637535052942760777e-09,-1.241894251486467063e-08,-8.100601803738965640e-10,-6.986268724027459678e-10,1.112100483385758839e-08,-1.456181567474824628e-08,-1.974864856097212234e-09,2.369433551802010948e-09,-6.373207646302341603e-09,-1.945295100761092172e-09,-1.691334587536496454e-09,4.679363369157369907e-09,-2.410652960921753513e-09,-4.176199385018617109e-09,-5.204064471800856748e-09,1.281552989554990962e-09,-4.326084240219461649e-09,5.892607815429269173e-10,1.158243517532768893e-09,5.286290385217139368e-09,-3.902857997633311867e-09,-1.901191547781946584e-08,-2.763304595326637140e-09,1.033660205820754152e-09,-2.982240310003294834e-09,-3.659260161127548428e-09,8.501618327809239504e-09,1.983944632908295714e-09,1.956285213481841878e-09,8.441278966327533969e-10,-3.996268228183463056e-09,-1.559240649307806707e-08,-4.247587077417627359e-10,-2.900720358829763847e-09,-8.520021126743832449e-09,2.966094341624320289e-11,-8.291731744490500671e-10,4.683806694981880238e-09,-2.806351430306005845e-09,1.987354667640739794e-10,-1.210016158635985354e-09,-6.838245312443603231e-09,3.758325892179154674e-09,1.232803594680380008e-09,-3.044431709433257584e-10,-6.675558797749463737e-09,-5.721334188730266342e-11,5.766696038734229113e-11,-1.932121971984467481e-10,-1.121595742267791151e-08,1.937733646282890057e-08,9.853683602652451978e-10,-2.410310698529578865e-09,1.455438622788486793e-09,-2.495948453548786571e-09,-7.699090358293468168e-10,-1.462422926437113098e-09,-2.650336576211890647e-09,5.255174028366262996e-09,3.156689175869578510e-09,-6.597854350751184284e-10,-1.561340203465674976e-09,-2.430423153252289439e-09,-1.089443216246718208e-09,-2.306191813291519030e-09,1.652763794276647551e-09,-2.516375946816256166e-09,-2.462380418462046806e-09,-1.276708096699301712e-10,-2.204018887766742030e-09,-3.055299546135342227e-10,-1.891943982268764856e-08,1.660705087143506489e-09,3.022704289459812697e-10,-2.653964783898505362e-12,-2.729346797343588565e-09,-6.642945598550476966e-10,9.359321858263543076e-09,-3.893085944916969135e-08,-2.277420477233971981e-09,2.435000513046270413e-09,-5.638435910797069170e-10,-2.693906498815842953e-09,-1.792791865584804187e-09,-1.047404768135123038e-09,2.067854453205069503e-09,2.457656672085365155e-09,-1.296679942422344011e-08,9.177714748317922027e-09,1.139155185991151156e-09,-1.004311107697335475e-08,-8.441312495857493401e-10,-8.664912807238079008e-09,1.935199199111827897e-09,-2.762848701570199555e-09,-1.186073453952327162e-09,2.427779080019768316e-08,-2.645642698472316945e-09,-3.430958707668716918e-09,-8.055747589376264705e-09,-5.246525298221384488e-09,-3.072331306020016473e-09,-1.872327734708290443e-09,-1.553921603573098721e-09,-6.824543886723801722e-09,5.543581655710705341e-10,2.893822885807279651e-09,1.728250285272228067e-09,1.002371529952032908e-08,-3.531551580382561291e-10,4.732863624007483611e-10,-6.021544201177891509e-09,2.976233202040066400e-09,-1.840648809978714493e-09,2.898560730490342547e-10,2.127032536685043233e-10,-9.631382697607298932e-09,-3.090441270751040811e-10,-7.077951205110183599e-09,-1.269496070010555940e-09,-6.328805602373763543e-09,-1.294505769579881466e-09,-5.524603529585502625e-09,-5.492471054208634656e-09,-1.241674752172165223e-08,-6.114752742731338397e-09,-3.906367347798536066e-08,-4.284901321868833076e-09,2.353914872487611868e-09,1.783203150872833513e-09,-1.622122773366672565e-09,-6.258429909556276620e-11,-5.607842031895323993e-09,-7.087404436150911970e-10,-5.838519446027915143e-09,-1.692639245815625836e-09,-1.406490141653033986e-09,-3.084870538395832348e-09,-1.192867129419432195e-08,-2.578960457169870125e-09,-4.627218153327782244e-09,-7.011625337574704826e-09,1.109893115942347962e-10,4.510083896156568774e-09,-9.961616831153427594e-10,-1.438299410480093668e-08,1.190760715865161222e-08,-2.644998338292061785e-09,-5.182623188540181709e-09,-5.630879013962536173e-09,-1.577202991414480475e-09,-5.328868094929391777e-10,6.318359685470066713e-09,2.245710978392238837e-10,2.153137317411729865e-09,1.291951098846299776e-10,-9.021335832591781053e-09,9.160661866475832093e-09,-5.357059732396087256e-12,-1.622586279039767894e-08,-2.104835889647909782e-09,-1.853940092823669010e-09,-1.323150539904674106e-09,-1.011091509852437157e-09,-8.222616096987431455e-10,-7.848468735476248554e-09,-2.572153466982653993e-09,-1.493302214269074927e-08,-1.133274208800043097e-10,-1.459605590325467539e-09,1.876177840474986879e-09,-3.711337080127877932e-09,-1.751530725858196174e-12,-1.785771902022672608e-09,-5.761089053596204640e-09,1.246271172602180463e-09,-4.633203747543570996e-09,1.035086404255875436e-08,-5.587113274103307226e-09,-1.397303402674154278e-10,-7.054181050401999085e-10,2.931084272318573165e-09,-7.207121959863304134e-10,1.175879904838672864e-09,-2.322930300153771277e-09,2.505957247553088752e-09,-1.003122976859171391e-10,6.487075069062239462e-10,-2.772853575920971956e-11,1.340761871571938888e-08,-9.160560603556402700e-10,-7.281705482154419409e-09,-4.041264416373029946e-10,-3.026062438026025186e-09,-1.923502017381313818e-09,-2.939524949139455186e-09,6.747622725989541640e-09,-5.610549867082381641e-09,-5.398668047503736963e-09,-5.506143685598957706e-09,7.979192911617025979e-10,-1.316062045267190270e-08,-5.667528902636123109e-09,5.374085447300719819e-10,-2.354659753108343051e-09,-2.701872768814889270e-09,2.111650118007403753e-09,-2.635769512524643714e-09,-1.490331960340651801e-09,-7.014206501001677207e-12,-2.440272233744064400e-09,1.274174753872612611e-08,-4.877937006268524284e-10,-2.410563261264681445e-09,-9.730594936819586996e-09,-2.362098644056560479e-08,-3.767189721545125086e-09,-5.913697272115894918e-09,-1.600705905315675701e-09,-5.100975213979013640e-10,-3.386996543922234537e-10,1.017827156188763833e-09,-1.099164138783889396e-09,-7.657835038294829958e-10,2.952590827300358978e-09,-1.293077290473021796e-08,-5.446776884500196963e-09,-7.404006826500096773e-09,-9.762412042089734079e-10,8.713796772836486406e-10,4.419479762261669259e-10,-2.161555240794010485e-10,-7.924037303297526390e-09,-9.992704325949991467e-09,1.556464555030138888e-09,-8.763843845105374402e-09,3.564988643935616530e-10,-4.945130001083982001e-09,5.600534854169514502e-09,3.952644275003466537e-10,1.727528865577603202e-09,5.695464327481648782e-10,-5.803259384594500478e-09,-5.806146524866574922e-09,-2.470232440043454704e-08,5.040025926482337809e-09,-2.963864275945938786e-09,-3.558041913700867973e-09,2.808945142782889696e-09,-1.525191434282999003e-08,1.913303285403751823e-10,-5.002209608371347917e-09,-5.475435871054066196e-09,-1.092349429790632109e-09,-3.047933479527168396e-10,1.257677968753718071e-08,4.937874716780596062e-09,2.311489537026522546e-09,-2.697078897934229348e-09,-1.624149641233609427e-08,1.175810455480028632e-10,3.442808175677108400e-09,1.248449113655957290e-09,-1.537291182633541090e-09,-3.528060225854654987e-10,-8.090510752541563556e-09,1.578426658882811424e-09,0.000000000000000000e+00,-3.108359459758154185e-10,-5.003489261402985657e-09,-9.984707148916869717e-09,1.473822472633814524e-08,7.421121375371695609e-10,-2.307081841300124215e-09,-7.028878765332926557e-09,-1.346500852427361833e-09,1.237295315865896153e-10,-1.606518569904646248e-08,-3.350023198369159825e-09,1.186188460120609738e-08,-2.569459194954955640e-09,-2.750686654926819568e-09,1.250213477207125247e-08,5.855648493235584622e-10,-3.432667861304330109e-09,5.302379435936261448e-09,-3.806991178889770369e-09,-6.788280636606673114e-09,-1.570852039143178319e-08,-1.731269052536865141e-10,-4.767480898872452777e-09,-1.022343030812946966e-08,-2.386869601592230786e-09,5.588648588432249399e-10,-1.941016603495308480e-09,4.163674498024202740e-09,-1.276330526012188695e-09,-1.326194925787134262e-08,-3.710358547571369959e-09,-2.051658556744779387e-08,-8.588019132795406563e-10,-2.441007040447210729e-09,6.936129328819679469e-10,-6.344551852301663706e-10,-6.161137189917624163e-09,-1.098870942619786673e-09,-1.022058300543986604e-08,-1.579009432360573966e-09,-3.284309923419734079e-09,-4.863345369867948075e-09,-5.237943125808754515e-10,4.109640557345150899e-09,-3.082026173007454643e-09,-8.302779531153085141e-10,-3.095271424686220866e-09,-1.250842163708329579e-09,-6.601692399344497124e-09,-2.263306208439115727e-11,-2.893471044477328497e-09,4.216410448816608594e-09,-6.423829778103302346e-10,8.722894066259430943e-09,-4.741846077850698181e-09,-3.604509093492318366e-09,-5.944811693657487594e-10,-1.588118102470185326e-10,6.020939024481750453e-09,-1.697135953053277440e-09,-7.014374327117631976e-10,1.105423225290217650e-09,1.451492053347352975e-09,-3.158046959569309359e-09,-1.476422531998657759e-08,-1.895185334141359588e-08,-3.067965880725029137e-09,9.638966088450636960e-10,-8.570659373545114063e-10,-1.079133316753559368e-08,-4.089377503292650978e-09,-4.575244226306799902e-09,-3.314237985464315443e-09,-8.717641768312602963e-10,4.774913893759879335e-10,-1.140433894619390751e-08,-3.336948101843019156e-09,-1.321256913963090901e-09,1.323189617827196316e-10,-4.959207110412996835e-09,3.350441604451055935e-09,-3.737667759098682423e-09,5.814684587004715308e-09,-4.356265448237755904e-09,3.118217097742164938e-09,-4.517561204681322209e-09,5.910421575111762474e-09,-2.591831544744598359e-09,-5.082069040220999780e-09,-6.373266663672952683e-10,2.644216423166213780e-10,-3.285197422416648146e-09,1.353962085238746275e-09,-1.868749341893611865e-08,4.298054480047481162e-09,-7.187377625992621820e-09,1.967789631936728355e-08,7.031323184854502337e-09,-1.720947010471312888e-09,-3.729300606280492588e-09,-6.359887434928184485e-09,-3.441036570694245825e-09,-6.526934142915111820e-10,1.265361116522383034e-08,-1.902947300101484202e-09,-3.247891821380964364e-10,-3.413704038060778156e-09,2.414741191932889485e-09,-1.073900902724206748e-08,-5.197512082206029416e-09,-7.014090520874708303e-09,-3.665066909381123554e-10,9.034428055413265810e-11,-1.029161393461038805e-08,-2.235650952666565723e-09,-1.607584674373272740e-09,4.374683400425046636e-10,-6.027183899766910292e-09,-1.554488884635037958e-09,-6.592959268898325916e-10,3.368354668435347521e-09,6.516301561369434156e-09,4.726076576935362362e-09,-4.624401469922583348e-09,-9.117009073685408846e-09,-5.901093944321203631e-09,-4.518933544398109678e-09,3.114435034168184033e-09,-1.202425265415347707e-09,-2.618576219601385264e-10,9.889685324547529472e-09,-1.616913959471798416e-08,1.526767353337994033e-11,7.330172133926260657e-09,-4.345553716573222518e-09,-3.203832618254252457e-09,3.542974104689243758e-09,1.726566815393318648e-11,1.633943216128905490e-09,1.810442137582724332e-10,-2.346771969200609389e-09,1.432199046239040315e-09,-1.798407968202453863e-09,-5.616550911025802940e-09,-1.443872489400698368e-09,-1.850342765433444145e-09,-4.588851394579136749e-09,4.375077518486962239e-10,-1.077242887560779354e-08,1.103843370654828789e-08,1.272830029997114760e-11,-5.829983662622195145e-10,1.412741899935887474e-08,-1.970548573331993133e-09,-3.360325764201692634e-08,-2.276702053509389062e-09,-2.971875733803635201e-08,-1.771505822691484835e-09,-3.067342746060534885e-09,-5.582387273170145535e-09,-4.590471801016696712e-09,-1.951430897798368667e-09,4.164213274978383956e-09,1.170208428676737327e-08,-3.781748278328725294e-09,1.742041994386459470e-09,-1.188497619845757003e-09,-4.112696609899226312e-09,-6.116812001883534417e-10,-1.144455310197003723e-08,-8.668600448064091690e-10,-3.717710481457918284e-09,-1.183070722610448560e-10,5.191113681540532209e-09,1.442852778534047991e-09,1.881194349609569030e-09,2.624313498145484111e-09,3.164730467130094377e-08,-1.943241645313466079e-09,-1.571838699660269293e-09,-4.671261399454165733e-09,-3.918502235376291690e-09,2.913645258585225583e-09,1.067671047389785817e-10,-2.054631688372853439e-08,-8.963549686080406522e-10,8.826701305587539827e-09,1.045993213338922704e-08,-2.752174889168217044e-09,4.892711432259046293e-10,-3.520876859462751173e-09,-1.303146073749263688e-08,1.723837717843134144e-10,-6.048265395183789711e-09,-1.889543835481926482e-09,1.694994908565042549e-09,6.096884323526150962e-09,-4.666999197612091148e-09,1.076329296828048151e-08,3.408336165464021044e-09,-1.743884698050658133e-08,-2.891421522875577571e-10,-1.791304263579571121e-09,9.310730959569856878e-09,-6.989727497254396928e-10,-4.283424698586607995e-09,-7.154088849522419104e-09,-1.343934394333441283e-09,-4.591776478741603592e-09,-1.271205575284124333e-08,1.020905596744663566e-09,-5.565552531968574856e-09,7.284702179189845115e-10,-2.717585843974451468e-09,-5.657241158355204701e-10,4.660622532097767547e-09,9.743087386840011099e-09,-1.477500292257930480e-09,2.593113390995884985e-10,-8.790577780476092168e-10,-4.810633257032882058e-09,-4.705453451433846851e-09,1.821707669448013558e-09,3.006415249881825442e-09,2.352708872283055266e-09,-2.147009833143364372e-10,2.173717831846352190e-09,-1.104828941825778559e-08,-4.780112782775242784e-10,-2.208744438618762950e-09,-5.799598222982221484e-09,-1.996946978808494557e-08,-3.277312448909014619e-09,-1.219920272975790138e-09,-3.135605394663164973e-09,-3.253922423743979403e-09,1.694856378425841381e-08,-9.089685045857938106e-09,-3.600006709784369612e-09,3.468644027142744136e-09,2.803327937237028572e-10,-4.809531892395762773e-09,1.432856926126709748e-09,-2.227243291784924393e-08,-3.821177384653247196e-09,-1.264638222063166188e-08,-1.117540397139563505e-09,-9.624710155629431007e-10,1.186369215260948007e-08,-1.418656112406591561e-08,-2.079529834220584046e-09,-4.086701478868751039e-09,-5.279128390020376159e-09,-8.895323586117309862e-10,-1.596398731230902155e-09,5.807431935276321452e-09,-2.491702113739592227e-09,-3.953787568345527915e-09,-7.423306421827494529e-09,2.083617356941161072e-09,-5.533840827811949460e-09,9.515161919088551522e-10,1.047933736795909313e-09,1.517731668018990533e-08,-6.095845109970620746e-09,-2.192891288269777814e-08,-1.265741235762466381e-09,-2.351488457630976521e-09,-3.705892485629882027e-09,-2.012824677877760446e-09,7.807547725922453299e-09,3.470790545495265307e-09,4.604274649557138354e-09,-7.010374220835464453e-10,-1.421108337547218110e-09,-1.540676845444471942e-08,-9.999252149826479886e-10,-6.798419316018552290e-09,-9.518943781963096149e-09,1.218543495146370302e-10,-8.686117872986601166e-10,4.136797174064434277e-09,-1.748259620300987122e-09,6.624972971612789527e-09,4.285657379827260469e-09,-5.359204144792382649e-09,-1.146858603521028359e-09,2.174611851418553509e-09,2.157506887121679608e-10,-9.277908803428671391e-09,1.365937780383007553e-09,-5.262869156258199928e-10,2.725136580342402653e-10,-1.363698815248039733e-08,1.575548805669749070e-09,-2.767584411053053105e-09,-6.287727642651196159e-10,4.509202088303149097e-09,-1.294491046790720859e-09,8.527501867855340522e-10,-1.071815924749735131e-09,-2.003472760016377970e-09,3.663584783608957241e-09,2.251089429291181978e-09,-2.764608290407274847e-09,-3.166976370910027422e-10,3.505992264673861571e-09,-1.344135570273082499e-09,-2.311783238444826428e-09,-7.357292799593365247e-11,-6.023696386696917308e-09,-1.675355515285548610e-09,-2.539231824554737663e-09,-3.317314708417136634e-09,-3.983418107806172196e-09,-1.431912633191001374e-08,-1.982870756836299964e-09,-1.510931061211085722e-09,-5.866740012001442893e-10,-3.189044609150512438e-09,-9.617557372392584867e-10,7.609490122426922347e-09,-3.868267781206497473e-08,-2.644080327881691217e-09,-4.471698256393733010e-10,-6.343069939790739474e-10,5.100191141104237371e-09,-5.403574547893416226e-10,-2.236021959817317102e-09,-1.678549284503658213e-10,-3.386554838615353945e-09,-7.973398632866386468e-09,8.855420018190626883e-09,1.388010670311910586e-11,-1.465963394054795292e-08,-4.482845657831829732e-10,-4.629400579452130423e-09,-2.388296401101921833e-09,-2.902615094752031745e-09,-2.442049607454249486e-09,1.520455685797968367e-08,-4.415042825252389512e-09,-4.084291695581359873e-09,-9.258587087571109489e-09,-5.067671601033241053e-09,3.395834621068071894e-09,-6.578129568581350360e-09,3.142885380819972340e-09,-3.097698172880041971e-09,4.045288093292470179e-09,2.082411659466597132e-09,6.483866240056141645e-09,1.017437708339859272e-08,-5.146022972014223824e-11,1.512249374551850276e-10,-4.644853449399419732e-09,1.682458051413330098e-09,6.007054827222449990e-09,-3.425356047168577959e-09,2.229948433251628194e-10,-8.660491432653426768e-09,-2.034610520181888753e-10,-4.769774705244264710e-09,3.533542716706489711e-09,-8.026080696645707627e-09,-1.358033560494707826e-09,-7.339954476133286916e-09,-1.077057093913539030e-08,-1.030417334359190028e-08,-4.575965982110174293e-09,-3.907042412851673032e-08,-2.652396558477114213e-09,1.384544800555005039e-09,1.976637935177117892e-09,-1.987974248001932225e-09,6.328869531218585582e-10,-6.197845434475285514e-09,8.202558155676233184e-10,-4.053307153628106250e-09,7.407030383566410354e-10,5.980776472487532788e-10,7.877847894332307953e-09,-8.576910588852820690e-09,-3.466575753107816023e-10,-4.749235504610195856e-09,-1.076623944599979392e-08,1.640491741531811196e-09,-2.114027936685033488e-09,-1.912973709252979027e-09,-1.133220912469933911e-08,1.272727370704438422e-08,-1.600979212681246588e-09,-3.391936732459970090e-09,-5.984284601722361837e-09,-2.518892291149372259e-09,-8.356143915690585198e-10,7.872732650650837682e-09,3.557348051123068518e-10,1.075784576278387569e-09,7.313756995042239084e-10,-1.022167545779415441e-08,6.316797036887282536e-09,-5.708118378412096071e-10,-1.785579160534948385e-08,-5.965899858765286982e-10,-3.500407560215609383e-09,-1.538711016791747267e-09,-9.947680000407258777e-10,-8.895392786778904565e-10,-6.272125364235850408e-09,2.060736169981327234e-10,-1.354493332818883473e-08,6.146952863053248625e-10,-3.159490488664292865e-09,2.366771595518848893e-09,-3.844612164084835546e-09,2.012700144962420655e-11,-3.671710580243747409e-09,-4.017604167101167079e-09,3.365499277224431135e-09,-5.031070854380079273e-09,1.279642987482248062e-08,-5.363569101814615103e-09,-5.134539837935514815e-10,-2.104842962238325813e-09,7.673519169205892563e-09,-3.681336926867697391e-10,2.060763452163159698e-09,-9.539154484411166631e-10,1.259351646098185646e-09,-9.451046500978825640e-10,4.133157760738716411e-10,6.438148642168475569e-10,1.784313368218139567e-08,-1.666867440397704121e-09,-7.374840645117178013e-09,-3.541932410098909887e-09,8.746149609183617977e-09,-7.951031924158587526e-10,-3.024682622712958880e-09,5.628018805492007361e-10,-5.582150311123164589e-09,-4.574148272477299968e-09,-4.064827452265155450e-09,9.361858298581888638e-10,-1.084464855368431552e-08,-5.161727716063093325e-09,8.866779344876354220e-10,-5.052972573043626209e-10,-5.348288551774661718e-09,3.670307714688763131e-09,-3.076199079026549683e-09,-7.233132102566499355e-10,-3.247576202801198234e-10,-4.097893539321475999e-09,1.529643960309839817e-08,-2.785774014739468904e-09,5.264367271680922127e-09,-7.616840971487081227e-09,-2.869349687696342574e-08,-3.237104404519908919e-09,-8.390412441406659812e-09,-3.814375624853877372e-09,-8.145502268576351882e-10,-5.640829403544504561e-10,1.753241602252068008e-09,-4.071513598859922237e-09,1.829289438030963434e-10,8.872383591141793784e-09,-5.391064592086563269e-09,-4.704536441817129103e-09,-8.396608972794799047e-09,-4.285931952782645617e-09,2.040437221618087350e-09,8.045860045342540931e-10,3.104493241002304527e-10,-2.876809055667959660e-09,-1.286168795807056326e-08,6.333529730092980460e-10,1.760689644598175425e-10,1.553258805486528634e-09,-6.488757298681697240e-09,1.628778349264325297e-08,4.099110122293629398e-10,-6.926985445891904971e-10,-3.450600461954102877e-10,-4.818163885204611473e-09,-5.694282427955659280e-09,-3.075400902018293384e-08,7.584638781020069955e-09,-3.787611470562163986e-09,-1.490040066916779245e-09,-6.494771883783294786e-10,-1.037691427778646337e-08,-6.098018188669816029e-10,1.462410212413736924e-11,-4.901209421547442936e-09,-9.820609802636510406e-10,-7.623740672756295324e-10,5.278753425778902269e-09,3.238203806020735642e-09,-1.092672128643269824e-09,-2.617606111388156163e-09,-1.343662173877116464e-08,1.902415922382659173e-09,-1.991308777846054944e-09,1.978766322074969671e-09,2.279697568437593990e-09,-7.007612597066050297e-10,-6.483263304790558225e-09,-6.847224698139940160e-09,0.000000000000000000e+00,-2.277499361704002956e-10,-6.044917279356254266e-09,-9.426356965913884579e-09,1.125044872828473852e-08,2.073192215359068346e-09,-3.314806396493265134e-09,-9.193187942085551969e-09,-5.780136240278642467e-09,3.716264146736231121e-10,-1.351890051709837403e-08,-2.114191405118057357e-09,2.021185738251008334e-08,5.351983898239985024e-09,-2.267988835264874010e-09,9.545815268644027065e-09,-1.500098194420010054e-09,-8.978940860948512829e-10,1.321266063415210739e-09,-4.352756680450648688e-09,-8.623048619328323522e-09,-1.386228029481395012e-08,1.296169917674018511e-09,2.621395214906692321e-10,-1.022875869896094963e-08,2.468735413795696417e-09,1.665954086715481725e-09,2.707522647150135098e-09,8.359622568760512244e-09,-4.658617414764828365e-09,-1.440161404499286639e-08,5.207450003411633069e-09,-1.978240739102443743e-08,9.158337729888464058e-10,1.587024468391414147e-09,8.381436352147769533e-10,1.256688326341989509e-09,-3.595588784794638613e-09,4.000401324333619543e-09,-5.212416052354892276e-09,-2.068128165311702713e-09,-7.988601049953652061e-09,-3.658779080303613843e-09,1.293364680823723133e-09,6.373951381201695985e-09,-2.515384676733638106e-09,-2.338486201155794536e-09,1.779407646269807093e-10,-1.048148829884105693e-09,-6.796605338824439541e-09,4.804183349008999661e-09,-1.123188935977957065e-09,-3.370360482144430996e-09,-2.515639489441444857e-09,8.922022440745847542e-09,-2.051216237595710707e-09,-6.789013143858626163e-09,4.251526391766903332e-10,-1.012663151099189927e-09,7.288661815704113772e-09,-1.717997937025907043e-09,-2.638085821391033993e-09,-6.361655586713188667e-10,8.442936386534777926e-09,-7.229012552963197348e-10,-8.817376888961473094e-09,-1.816024758725340948e-08,-3.158091626163471615e-09,-1.066889459700872825e-10,1.369147991736578752e-09,-1.583868962724127184e-08,-4.504514375487482286e-09,-4.394468998271137219e-09,-3.794214365563411096e-09,-8.227007536494502354e-10,1.826388463365533527e-09,-1.448004824870484125e-08,-3.553389973527152250e-09,3.877669664804300200e-09,1.278918620869440256e-09,-6.215075015761623478e-09,-1.463453416375331450e-09,-6.189320939741618488e-09,5.397707638238774689e-09,-2.890304097828673951e-09,3.259156392212088157e-09,-3.133935033950503374e-09,6.954911005149244636e-09,-2.346923001119700342e-09,-4.728640911109166525e-09,-1.189082332599278415e-09,1.122920533905235032e-09,1.142407942661104129e-08,-1.276072870933929598e-10,-1.493405260113117625e-08,5.828903087686791398e-09,-5.779952917166117956e-09,1.798836207915037660e-08,1.056090763454643205e-08,-3.434003122847059481e-09,-3.308002961699525808e-09,-1.077837720241815674e-08,-3.071640493724391735e-09,-3.513949036442389774e-10,1.108855568653047865e-08,-2.400974898708116912e-09,3.108724303297292385e-10,-6.585825936090349345e-09,-9.436927649654303518e-10,-1.954802369000213266e-08,-1.975829052956972060e-09,-9.157752262321457033e-09,-3.647637280801073460e-10,3.423509673994148684e-10,-7.737825584188006036e-09,-3.551239625369317238e-09,-1.575508701893871858e-09,-4.026858630813164851e-10,-1.165955068252532291e-09,-1.864368093642843256e-09,-3.806618418314026750e-10,-1.511348605105418428e-09,8.600046138755625947e-09,3.494410883534662103e-10,-3.924603099166200731e-09,-9.256821664842164596e-09,-1.249731700478415530e-09,-3.583692910545137662e-09,5.446624800321897915e-11,-1.020469300643729817e-09,2.239708742314744263e-09,1.146955687061741025e-08,-1.492633939362619927e-08,-4.901037400649008248e-09,7.901928115646938999e-09,-5.407413119691364733e-09,-3.699099248449699693e-09,4.925274936061780256e-09,-2.496920941485660062e-10,1.554042637804539731e-09,4.012214769901884896e-09,2.207130452330033365e-10,-6.053768387577122573e-10,-1.474944723540447184e-09,-6.783950650228250283e-09,-3.401974475277568487e-09,-9.032130344144968527e-10,-2.804689227855435665e-09,3.315084887548947792e-09,-7.475588344333881172e-09,1.338584459204037182e-08,2.046778231025767304e-10,3.450149505676758945e-09,1.147183107727275195e-08,-1.769264059948801285e-09,-3.136754801780526275e-08,-1.961048650260125916e-09,-2.914834061052970816e-08,-1.080912777921559736e-09,-3.328830348938811729e-10,-1.109218369295961764e-09,-3.688041917277429092e-10,-1.415016208602340228e-09,1.781283458425435577e-10,9.945140516354716461e-09,-2.204063982653775610e-09,6.183031301083154858e-09,-2.579447017886410207e-09,-1.361842658299734370e-09,1.458200483977671123e-10,-1.155914948871526872e-08,-7.153696583335105669e-10,-3.634644359033693975e-09,7.060597534437588196e-10,5.944833080788575788e-09,-2.774215734757794161e-09,-8.918914773428615576e-10,-2.571666444441663278e-09,3.606879839410347825e-08,-1.720090475204743485e-09,-8.923464669674493919e-10,-3.592726771158920719e-09,-3.244930829995032426e-09,7.265627751222129545e-09,1.216132448524014249e-09,-1.365168565949072985e-08,-9.305026800831676221e-10,2.251062231449493493e-09,2.986159229607364699e-09,-1.222940564484202070e-09,4.793921412306540405e-10,5.346179070086147482e-11,-1.415426765174963821e-08,6.688697060823549140e-11,-6.506236121357937895e-09,-1.685197563846657668e-09,4.087730694610207061e-09,2.758276071936844832e-09,-1.788310232048591360e-09,5.518151201943996434e-09,4.989648278473303577e-09,-1.172705920693821105e-08,-1.312281804437197497e-09,-7.003286240290214993e-09,8.581840638353035598e-09,2.310898913978334933e-10,-4.665657102813257705e-10,-1.007999172495390886e-08,2.353978144537977525e-09,-2.992179490768952374e-09,-1.411542089873055354e-08,-2.226700048094142925e-10,-7.187514332657094155e-09,-2.158066237286052644e-10,-2.692866170381049152e-09,-1.363655933445320047e-09,1.683505095735704444e-09,7.344938572549509315e-09,-7.019235221957530422e-09,-2.408177248024495625e-09,-2.189500497442043312e-09,-4.717523898484917857e-09,-6.673176219680326149e-09,3.482622258506322488e-10,5.231381892806320372e-09,1.193536566357809631e-09,-1.773230792293428032e-09,2.583104919226827560e-09,-1.096035762328729985e-08,3.501992998116715244e-10,-4.667907830789952433e-09,-2.894933803383605480e-09,-1.686646229365684198e-08,-5.054781049461437712e-09,-1.263944832797774733e-09,-2.769181915907338235e-09,-1.346761951126119355e-09,1.507639445041988314e-08,-5.862744504144945542e-09,-7.397039565183100516e-09,1.406513286372190881e-09,1.513946377640690469e-10,-4.714956004750525129e-09,5.310702609630163121e-09,-2.386534961152130366e-08,-2.479211867958101369e-09,-1.245156272701675195e-08,2.612670789091040423e-09,7.793949041029962098e-10,1.625522744271599263e-08,-1.479689408575661928e-08,-4.171404681080675127e-09,-1.062678314799237615e-09,-2.780211173603007151e-09,-2.439469158942447968e-09,1.018055407651445771e-09,6.476457967071300497e-09,-9.023470665913117058e-10,-3.202280452283221944e-09,-5.664859931426495421e-09,2.121943041892103803e-09,-2.238163152011320911e-09,1.730873261890670064e-09,1.895836747245555705e-09,1.379459274903922690e-08,-5.010726068497384430e-09,-1.442917044681921288e-08,-3.483974223740221730e-09,-3.292273370796975766e-10,-1.991003727952920428e-09,3.520754265309859109e-09,3.625080118985392021e-09,4.883702969403102536e-09,8.397663306730936096e-09,-3.699005896259853607e-09,1.317535638723465304e-09,-1.393497841058709965e-08,-1.277057987207490027e-09,-7.539936038091155480e-09,-6.383787054322114888e-09,-4.129088523045635672e-10,-1.750839608554022988e-09,3.128454883162905099e-09,-3.701164545084808293e-09,5.658619158575265383e-09,-1.690438684856248253e-09,-2.411027303209963355e-09,-3.051661583657251892e-09,-7.981202519362110325e-10,-4.809930911551127069e-11,-1.422436242871958537e-08,7.982651799332871691e-10,-1.325322521754780059e-10,3.816220874670925477e-10,-6.535101735489865333e-09,4.455529675688025174e-10,-1.277050374316085380e-09,1.393139305550376527e-09,5.825752423334837053e-09,-2.037880760504035964e-09,-3.763060480963213875e-09,-9.287679144101912785e-10,-1.614055021636673469e-09,1.418449465023743178e-09,1.266382476513507553e-09,-3.305676960563512043e-09,2.787266766623635286e-10,4.242827297117444193e-09,-3.416276628377702152e-09,6.336052172378303703e-10,-2.577406817878697795e-09,-7.137325738107528475e-09,-4.229656446670747090e-09,-2.653077550378947618e-10,-2.595809503233517463e-09,-3.224111154468843569e-09,-1.044541899495403592e-08,-7.020773423671369885e-09,-1.853999611097253767e-09,-2.078547765679406599e-10,-1.334185425989895632e-09,-1.084798301569722133e-09,4.173471962235428936e-10,-4.040479527248975897e-08,-8.307019323590786275e-10,1.628530030947421126e-09,-8.091490430764089889e-10,5.445895996653750380e-09,-6.006130139453578987e-10,-3.588018115199145140e-09,3.390316768892918753e-10,-4.276077921208427559e-09,-7.844450131787809959e-09,3.170331052892343382e-09,4.522669851064999185e-09,-1.289931577593304605e-08,-3.529500084407605225e-09,-4.382311072201917513e-10,-5.260597013502144087e-09,-8.691936908460237577e-10,-1.069361528038713934e-09,1.282271288554213314e-08,-3.646712814017738265e-09,-1.794361636500746898e-09,-2.803027482661952339e-09,-2.469211114269262547e-09,6.789157176867656863e-09,-9.075673677089088771e-09,4.827937854807016526e-09,-7.584584002107283470e-09,4.405252690142537335e-09,1.239711906965362193e-08,1.083777004627251355e-08,4.562899322520996597e-09,-7.364345121012261536e-11,7.610805389329227654e-11,4.748505488446823714e-11,1.649201473755675210e-09,5.787884499198509819e-09,-5.614917769749855698e-09,5.014320519123347938e-10,-7.885531709685462639e-09,5.333774381945818880e-10,-2.622112550204044511e-09,1.551395612733265745e-10,-3.762089168492779323e-09,-6.104528288323998121e-10,-3.077222501334569291e-09,-6.668735361592861049e-09,-5.394377213196201400e-09,-4.291321513415465072e-09,-4.024545851401527478e-08,-3.391633381612772201e-09,-4.684879782581898191e-09,-1.894861365144281796e-09,-9.048342458256220552e-10,8.414339995836686157e-10,-4.454281597473608575e-09,4.322540237717241326e-10,-3.166802393170652730e-09,2.289411169646275544e-09,8.805758302205989441e-10,9.977373899438477386e-09,-3.923371245656605973e-09,-1.066468347793788570e-09,-8.176970868630250624e-09,-7.882114423555351759e-09,-8.211361334733186189e-10,-6.917124969776736308e-09,-6.116281824713479173e-10,-1.445929994295794125e-08,9.935989221594422035e-09,-3.264406843314627162e-09,-1.394170284279399007e-09,-6.352320147613419207e-09,-4.550318432480873781e-09,-3.592170029585441213e-10,6.900286721068574074e-09,6.770959968508413056e-09,-4.649931862981238340e-10,2.439399485468991301e-10,-6.222157389344616635e-09,2.034128104572284780e-09,-1.175720562136542963e-09,-1.555035494091395708e-08,-3.359578646408308862e-10,-6.755152246865904143e-09,-1.810144864387256631e-09,-9.322724751405149186e-10,-1.686865379397311122e-09,-7.813246687258358684e-10,5.961517976089306375e-10,-5.715049398167188871e-09,6.224263949473566323e-10,-7.006125053298262084e-09,1.625757616530381537e-09,-5.723316651777506300e-09,0.000000000000000000e+00,-2.310469559360707558e-09,-4.390787221475462651e-09,-1.950501283216149101e-09,-1.819330982456956360e-09,9.582427794249600945e-09,-5.342950368198078682e-09,-4.074227467353021939e-10,-1.678563736893063251e-09,5.958562941447064402e-09,-1.503381504205402256e-09,8.906372242389773776e-10,-8.643209492552228742e-10,-3.267780078998280484e-11,-1.322381824018934739e-09,