5.994500165525514568e+00,-1.689038858843769697e+00,-1.739175762013501325e+00,-7.071067811865454633e-01,-3.663485009640600198e-01,1.100520840635384090e+01,2.625935022225079241e+00,-1.346846093057237459e+00,-1.251531764943714320e+00,-2.744600455519388138e+00,1.581977140697746975e+01,7.629451000580091957e-01,-4.513497724982555859e+00,3.330716747719431492e+00,1.660061688842974448e+00,-2.539450340035589448e+00,-5.482847123542839540e+00,2.440051891050240229e+00,1.173542511099145358e+01,8.719241653630442457e+00,1.203558056997856340e+01,-1.368626309117167095e+00,-4.640328786878018974e+00,5.631729851890769467e+00,1.776049194317742330e+00,-4.137358072355430849e+00,5.277227976841259327e+00,-7.936621013624802323e+00,-4.900090929056336364e+00,7.159236674829975833e+00,-1.954229856245804919e+00,1.017900116715638958e+00,-2.426948975626348481e+00,-1.619042687121299950e+00,-9.761289892214376485e-01,-7.497015179985655031e+00,1.348293553760582020e+00,-2.696133725325962960e+00,2.813784347603142422e+01,5.303049493632320477e+00,-2.432922385290438860e-01,-1.907083800647275229e+00,-4.562581291015088247e+00,2.461934077283137512e+00,-2.804310551684980446e+00,1.403034340338900066e+01,4.135834186393938516e+00,2.564096493909872709e+00,-6.430121982837003536e+00,-4.355274410918847039e+00,-2.749675321858588983e+00,-9.221267924639169777e+00,3.625616684351911534e+00,4.286862386127326729e+00,-4.802761376494879997e+00,-6.593230441426817023e+00,7.765378508683540737e+00,-1.744709770534354387e+00,-1.368321152201308122e+00,-3.082769934571622628e+00,-1.325868618259495868e+00,-4.881741312994799742e+00,1.620780669167871446e+00,1.232462626048007337e+01,7.447229069505502785e+00,-2.479769916647229344e+00,-4.647859592193230860e+00,5.588090634933422507e+00,-3.705615853435397344e+00,-2.954270185853145048e+00,9.650226707391444947e+00,-7.462772229210048458e-01,1.093871442477913192e+01,-3.758271780717174160e+00,7.793191285902812737e+00,-2.765570938804148060e+00,4.467332131237255588e+00,-1.846025477088971467e+00,8.714481922859787844e+00,1.899999520746508352e+01,-6.090932584495736268e-01,2.459330055708557339e-01,7.845038817375042939e-01,-6.636293856635120392e+00,-2.423234277562711814e+00,6.880671774666545559e+00,-4.897205076048447125e+00,-2.347687158823457132e+00,1.265207027354877223e+00,1.911448149853036904e+00,8.697859317097476506e+00,3.750733338755618984e+00,-3.927657507088481381e+00,-8.073370965057041104e+00,6.412357414441118841e+00,5.883442885432742742e+00,-3.001235884426728617e+00,9.203601395321378220e+00,4.886672108475503151e+00,6.305503430388374575e+00,-9.008372096026370457e+00,2.825993565502038063e+00,-4.603490316591572373e+00,7.069633957894061460e+00,2.774467692326080837e+01,-5.439813159988325708e+00,1.020304886551237011e+01,-2.371173595707778414e+00,-7.295415719760161899e+00,-3.753576106924009448e+00,-3.281084233924173699e+00,-5.809068461516102566e+00,-6.716089747452032022e-01,-5.582588043971040470e+00,1.794908094778043051e+01,-7.616932437639354347e+00,-2.601303565755536340e+00,6.154287453318226575e+00,9.532424843833117833e+00,-4.481058609927832670e+00,-2.883666020728863355e+00,-3.523777693755782536e+00,-4.313213561122243078e+00,2.604567514679423823e+00,1.129933154708100185e+00,-3.632591611043352486e+00,8.658635631353336137e+00,7.190521316580221978e+00,-1.665124071269885819e+00,-4.989147755758955860e+00,-6.881484343921894897e+00,-6.307749413439788455e+00,-1.364448171587895331e+00,-2.391329211216232320e+00,-2.591325000111467158e+00,-2.662593044809892895e+00,-6.974345163653147273e-01,8.313690850324418236e+00,-5.812801922037863278e+00,-3.468024407395869702e+00,-3.602557648611800722e+00,-5.669695618257517111e+00,-2.368210173925827000e+00,-4.838951217498278723e+00,7.320085744882482537e+00,4.667396750996619659e+00,-2.357952015009467495e+00,-1.813293552535171882e+00,5.364135609009609063e+00,4.429764463419360254e+00,-1.399160911973616750e-01,2.833585751837775835e+00,-2.302668657463913249e+00,6.209936776171097961e+00,-5.810002528390627141e+00,-7.060936191772350767e+00,-1.444975501928277284e+00,-7.918862738325492812e-01,6.784263856838797402e+00,-1.654897324773423106e+00,-2.783816773906514275e+00,-4.173147161091847579e+00,1.831123881923891261e+01,2.675897168731947495e+00,7.201282530357294931e+00,3.754119212977813813e+00,2.373012519889792671e+00,-3.560410921113251526e+00,-1.391479163057129265e+00,-4.535583254296655653e+00,-2.971035874003796207e-01,1.795329588498709938e+00,-2.616327604874791657e+00,-2.714860121763646994e+00,-4.517296041919596661e+00,-2.195240802792176371e+00,-1.538634235287489327e+00,-6.952844548786523582e+00,1.108007335170726115e+01,-7.383062611597838831e+00,-8.316087899108314252e-01,1.418055686113528502e+01,2.445296401080070403e+00,5.113693769139106671e+00,1.281347284544531817e+01,-9.056709360354837202e+00,1.897100810778735180e+01,1.093661614038878760e+01,-5.001303038783616373e+00,-1.377383552670623290e+00,7.239560725738702907e-01,2.057720116091127949e+01,7.124517475166323166e+00,1.001309154828698134e+01,1.093964774037876203e-01,-4.363833349260922922e+00,-3.685968470704002797e+00,-9.207771783260298548e+00,1.718803160384867690e+00,6.416045964699176984e+00,1.200647695576016893e+01,-2.525840111773674401e+00,3.888280840765464763e+00,1.077024824928767543e+01,-1.218979930245357668e+00,-3.217956871209780800e+00,1.495685598345661171e+00,-4.556483502800931618e+00,5.967457695404569940e+00,4.878010651698062861e-02,-2.283272259722949338e-01,-5.439008992007334342e+00,1.075966047639904488e+01,6.953223176842804776e+00,-4.976422348061717571e+00,1.039055332497672346e+01,-1.615562365762482022e+00,7.845517134271048576e+00,-5.285224719040389374e+00,1.672006574486523078e+01,5.704663199966575782e+00,2.534856842867925764e+01,-1.461311901464277474e+00,1.299132524859938076e-01,-3.036466050891431845e+00,-1.024605429387125843e+00,-4.902418143020937258e+00,-2.074939971884225631e+00,1.765408580639998704e+01,-4.532093677466799697e+00,-9.944131250065234795e+00,2.153004402309662613e+00,1.692273758757945501e+00,-5.050625163751279345e+00,-8.417858041527376045e+00,-6.874041340929831767e-01,1.947272467219669734e+00,1.051122387344399378e+01,-1.081269799663813025e+01,-4.937910428991503231e+00,-3.644046755493435708e+00,nan,-3.848310257695144898e+00,3.616460871567702129e-01,9.750428014580615255e+00,-3.373549874947126437e+00,2.345869118339526105e-03,-3.505172485366323087e+00,-6.620719664388158066e+00,-3.068870792373829648e+00,3.446276497118147208e+00,-4.457177233884155321e+00,-4.155510940357394212e-01,1.133168536736914511e+01,1.063244538521860605e+01,3.635818627660211355e+00,-5.673413160784813059e+00,-4.626468093916854762e+00,5.395463030082118472e+00,-1.384327148026454068e-01,-2.292192744260262316e+00,-6.678166900917323012e+00,-3.751089494398481161e+00,-8.937580177682693527e-01,7.194573502676755439e-01,2.910995434688579131e+00,7.557706469181333375e-01,1.073321231992982483e+01,2.387503220355479883e+01,3.505898804756230280e+00,-4.482752303449355047e+00,5.178275718520620963e+00,3.363691922095132902e+00,-5.534447842512270732e+00,5.094724054741321062e+00,-2.477908825675989579e+00,1.501486875334074211e+00,1.550915973705119377e+01,-9.736246859835661072e-01,4.981550407505878214e-02,-2.460304744884318051e+00,1.804944756237852488e+01,-4.325833286495514574e-01,-5.366933838294700720e+00,-1.644273979742941982e+00,-3.884894621192887865e+00,5.609960817804758193e+00,6.382005116361433750e+00,-3.229730543218645611e+00,2.090788885326941404e+00,-7.148685161721828329e-01,-1.873831615682526985e+00,-2.347560223809491919e+00,-2.602872177752444838e+00,-1.191528243646559071e+00,-3.396488366236074530e+00,-2.855786112035187951e+00,2.153704802505540972e+00,-1.119218119643606002e+01,1.024443835017995497e+01,1.395379082076880772e+00,-8.558870117740724481e-01,2.370797374922094747e+00,-4.883721639774960543e+00,1.307455607342873449e+01,-1.996500275865715546e+00,1.048152472517259426e+01,9.548194747616900457e+00,5.083482336706849125e+00,-4.155193302389896814e+00,7.466814991073003505e+00,-3.213062072766688537e+00,9.542026826489115265e+00,6.891651390362206087e+00,-5.071454145044582695e+00,1.040298386946787801e+01,-2.817806102913554600e+00,3.613613274672954567e+00,-1.483420960433839086e+00,5.498602725368091804e+00,-1.795162435163624726e-01,1.588587239786521499e+00,7.586691389218763071e+00,-1.049663436862805055e+00,2.296103931693041034e+01,-3.530717956657138501e+00,9.944226429729214445e+00,-5.227534502103906355e+00,3.017402668363191154e+00,8.221454581052638488e+00,6.414161992640077692e+00,-1.723877209283932732e+00,-2.662983533431177996e+00,-1.921980967080043845e+00,-2.471041498940732772e+00,-4.610121379634729011e-01,-9.646375110162296318e-01,-1.113605316629146191e+00,-1.468896743315935671e+00,6.111011346367653196e+00,2.377124125443635716e+00,4.965908691473452374e-01,2.344255452268692252e+00,1.075658296870567021e+01,6.852414819021723780e-01,4.349972807667239927e+00,5.350153245833809024e+00,9.275952436861012451e-01,-8.668693245135935754e+00,2.894713712816865936e+01,1.011625145571043305e+01,-5.574811241857130506e-01,-3.958650959552745263e+00,5.947483400090600725e+00,-3.942505320676483294e+00,-2.878816200109591161e+00,-5.867730129739832989e+00,-3.501127315048928157e+00,-1.276269407385445476e+00,-5.873956811672758072e+00,2.811639780911649567e+00,-3.683996141428368176e+00,8.163694540799225630e-01,-4.460076392180340576e+00,-4.265522080212790890e+00,6.767758617791173048e-01,-2.323106858911267114e+00,2.155270630747035732e+00,-5.864136601811760663e+00,1.459996981379278225e+01,-4.730683346287632318e+00,-3.336142877571944276e-01,-5.801443387259120898e-01,-6.948132493995112569e+00,-6.639372521397478577e-01,-1.234271207170733603e-01,6.589778286339002200e+00,2.196942541962833673e+00,1.081039312458049473e+01,-1.368999690865637664e+00,7.255749467460044677e+00,-6.126498690204456032e+00,-4.247146306698902585e+00,5.480376457105109012e+00,4.509006531717195676e-01,4.999131563546380441e+00,1.650982090736047736e+00,1.868943731788965223e+00,6.118048910643338445e+00,4.010293334980966407e+00,-2.067421712985452853e+00,-4.750535486531914486e+00,-2.650107538817256803e+00,-3.995028442341767683e+00,2.907982102783471579e+00,-1.540210818540124649e+00,1.052811213672201163e+01,-4.512313610492380000e+00,-1.163216370030597524e+01,4.344824528683054687e+00,-1.489171793397433330e+00,-6.774990098440656361e+00,1.818604996412917618e+00,1.568510773992296947e+01,4.831051778011311804e+00,-2.942159108191563455e+00,-2.016495933381313499e+00,1.843021768092734103e+00,-9.784903342919442082e-01,-4.008912413553651355e+00,9.885827235001228175e+00,1.445513832897354511e+01,-2.456034916393349032e+00,-3.401732181835532387e+00,-4.397537052010400238e+00,-3.995435102302381747e+00,4.407557438916349213e+00,-1.287929689600404215e+00,-3.823617015109600281e+00,-1.754411117181086555e+00,-1.284113686289985568e+00,-3.852037634120641929e+00,-8.900045171637101238e-02,-5.177941599124896710e-01,-4.775801218245836921e+00,-2.034560113465843312e+00,-6.678185573414615384e+00,-2.781988355263133261e+00,7.265994693727429343e+00,-2.103892594195479582e+00,-5.077924008611685913e+00,2.862012982438348896e+00,-1.658134735794362546e+00,-8.064448441238797116e+00,-3.547874992193615462e+00,-4.273029530235977091e+00,2.011216396826393193e+01,-7.284110302023060202e-01,-4.930430480473444455e+00,6.251533170376388782e+00,-2.029540377266340734e+00,3.023449186313737602e+00,9.605810137683761241e+00,7.733471845714757764e-01,-7.586947068707618591e+00,1.331521965643127992e+01,-5.367196758042817706e+00,3.623489300866131746e-01,1.114232677674861627e+01,-3.982562515701258743e+00,-6.790302730953560406e+00,4.949177258709418048e+00,-7.781791922785136206e-01,-4.284869449372040506e+00,-2.082242581985512597e+00,-2.102482299174160296e+00,-2.959216755986873171e+00,1.424962692680638021e+01,-6.682487404620106375e+00,-4.292704726919287062e+00,3.559478617518817778e+00,5.165137224080011968e+00,9.071061226513362774e-01,1.776329657957914065e+01,-3.964675848957804671e+00,7.145065256143698029e+00,6.137831116593430281e+00,5.844863174880747358e+00,1.172849918861473828e+00,1.942791803859224453e+00,1.064214726574278380e+01,3.311609629859229020e+00,-5.395081144572712262e+00,-3.881162790408915875e+00,1.741105446370861998e+01,2.675048047449318567e+00,-4.386061997910132959e+00,3.262468776335984533e+00,-2.362736712491598112e+00,1.357037806475046793e+00,-4.727006163587931020e+00,-1.517913218634543204e+00,6.455228911763779109e+00,-2.976313277283267666e+00,1.622738729772695976e+01,-6.695002676542404219e-01,-5.075732479706641875e+00,nan,-7.973040209233287712e+00,-2.847864725249958262e+00,-3.781605618900187427e+00,-3.951839685269099789e+00,1.193808713207725303e+00,8.495959872086483955e+00,3.383277423838652709e+00,2.936737155482148864e+00,1.139155411156939657e+01,-2.417792259027194302e+00,-1.663444194884823535e+00,-3.236055114577278402e-02,8.386868269107795371e+00,5.537192785669569517e+00,-6.974359903740157129e+00,-4.429039036391627659e-01,-1.678544467078444846e+00,-1.054662735043153665e+00,1.436330957007622700e-01,-2.405054404745437857e+00,-5.624573337182874333e+00,-2.089149163256024677e-01,1.822888516013577986e-01,-1.521718504748245993e+00,5.849996677237840892e+00,1.204720080681838335e+00,1.674162450441844641e+00,-3.141218124347023188e+00,4.279022805463932322e+00,-7.270841990583803982e-01,3.022444253307901452e+00,-1.454414180340109830e+00,-2.038041918641622097e+00,-7.961592225262310585e-01,6.654712473850805665e+00,-3.298656179076505879e+00,-3.472446405290213090e+00,2.471967315305208857e+00,3.648979226246080287e+00,1.803444556945776323e-01,-9.241748367737331327e-01,2.261680533241889446e+00,2.739557729278321307e+00,5.412621527144587219e+00,5.599674279321291692e+00,-3.495417628162393875e+00,-4.640662092678909723e+00,3.462090879496912077e+00,2.325654162393829549e-01,-3.460010219630829553e+00,6.014925654604654781e+00,-5.969019260318699338e+00,-7.652786038965892601e+00,-2.845398474323485721e-02,-1.616667545396105243e+00,5.181108697170955679e+00,-2.477935184990740503e+00,-4.750619714949521288e+00,-1.493907149680115731e+00,-3.520420507826526269e+00,2.098774224554308621e+00,-5.213016965840405526e+00,2.139871724474651771e+01,-1.274417081689761755e+00,-1.849983631380905935e+00,-1.415215544553556581e+00,-3.223476345386817599e+00,1.910167029912642089e+00,-2.688418335508085732e+00,8.734617547944889537e+00,1.842676885309410872e+00,2.183825877262212181e-02,-3.829777217662992950e+00,-4.719209334897967345e+00,-2.447300829009663836e+00,-6.076769076003572856e+00,8.740732857254352339e+00,-1.438659716509687714e+00,-1.414589592169721799e+00,-2.273670041808840914e+00,-1.322215740759726144e+00,-3.083154449265316899e+00,-9.119569265278131276e-01,-4.140244110005524725e+00,-2.726801686992855966e+00,-2.963849054608742151e+00,-3.733892384595388858e+00,2.462292449071184830e+00,-5.632938372659648252e+00,-2.801887113600905366e+00,-1.772349600449122597e+00,1.342123532001605613e+00,-2.575216367074993684e+00,-2.778057711541632280e+00,-3.430614240437510176e+00,1.407435771009090342e+00,9.229936808818180793e+00,-2.942225478525712479e+00,2.258170158599404065e+00,-1.364687532940969339e+00,1.536298669023317798e+00,-2.128982402095067616e+00,2.241715178291228683e-01,-1.992245130762965832e+00,-3.150260510730526486e-01,-4.951869144567885961e+00,-1.923759641045113655e+00,-5.396458940370222557e+00,3.105670981988633561e-01,1.027751911208221003e+01,-5.071859472486183407e+00,-1.978774268154899874e+00,-4.137979786830373818e+00,1.735106259867271294e+00,1.204036636448994102e+01,-1.124449835531942526e-01,-8.290391562513612644e-01,-5.310352045844316748e+00,5.133555791961092574e+00,8.008914111490614829e+00,-1.371902652705669690e+00,-7.162996340862801126e-02,9.059790278717118284e+00,-4.231755346815421426e+00,-5.818358743740365213e+00,-3.478641582407816735e+00,-4.717638102842687808e-01,3.400657625657312888e+00,1.554123669531841934e+01,-4.021092834509811809e+00,7.357511157312422723e-02,-1.260219181994896021e+00,-5.792347348082889980e+00,-2.620923053259645918e+00,-3.503460891295157698e+00,-5.621462454054619862e+00,-2.830222367331263200e+00,-2.100981316406692390e+00,1.581280472559354422e+01,-3.428877026845043474e+00,-1.836912674432646497e+00,6.815292061834192339e+00,9.860080860853010165e+00,1.756969826196914219e+00,-1.819774591803514419e+00,-4.831537277388973095e+00,-3.299263672710158968e+00,1.914263518752638893e+00,1.300603039536685879e+00,-5.140562192471731073e+00,8.136461542703678163e+00,7.253218289961095300e-01,-2.045134352475395240e-02,-4.691205554505481601e+00,-4.783135680898164210e+00,-7.275021668061694591e+00,-2.717154269542292777e+00,1.291310829571599372e+00,-3.345898220894484520e+00,-5.448287089842354547e+00,-2.628101172881215586e+00,1.888855307865030753e+00,-4.680695356197171364e+00,-3.900603711497797388e+00,-2.154836813368027126e+00,-4.465529980521051101e+00,-6.491993268660244176e+00,-8.828269395511911810e+00,8.421869540888671235e-01,-4.629025190897454678e+00,-3.618403093201173704e+00,-9.704674690986737629e-01,-2.188421593773545837e+00,-1.792085119592490949e+00,2.931507356864603953e+00,-1.252615798479401521e+00,2.902478058621123402e+00,6.060944788437017117e+00,-5.811289250003643936e+00,-5.804412675629815332e+00,1.871186985998032792e+00,-1.776873409510436319e-01,3.827192769742223888e+00,-2.244276955660617912e+00,-1.009800846691057075e+00,-4.907765898319931708e+00,1.491370920558991386e+01,-5.196054697416379042e+00,2.184982492743901439e+00,9.904833762726060753e-01,-2.930300893223688696e+00,1.982451198590771568e+00,3.072752653540044426e-02,-2.399009088144906432e+00,1.422104601461063211e+00,7.255289406362062543e+00,-3.687691138427609427e+00,-2.199999816674998332e+00,-1.503240884470694372e+00,-7.165683998471553018e+00,-1.894527387095318594e-01,-1.703586663467263618e+00,6.303815746985304891e+00,-5.560289283102509472e+00,-2.959769960512863562e+00,3.230046363717233415e+00,8.451418549037637007e-01,-5.732872197269095693e+00,1.336465558968114564e+01,-6.379314204620115447e+00,2.213826410999487404e+00,6.462468538239883209e+00,-4.545781233211637407e+00,-6.823693950887850690e+00,-1.150360404754601440e+00,9.937611039366338161e+00,-1.534430964980899592e+00,8.151636697951033739e+00,-3.134235721107879957e+00,-1.858273063093270006e+00,-2.284658251596543010e+00,-3.100860655056588477e+00,-2.442505809348645140e+00,2.432369565488704310e+00,1.001405253686966645e+01,-7.015482605683051709e+00,-2.186705897391420184e+00,4.802263529204024550e+00,8.960729787473716845e-01,-7.488592410333922089e+00,-9.478309663407007424e-01,-4.653350781475051434e+00,6.606760721729250108e+00,-1.883104741204683741e+00,-3.927845648349835184e+00,-1.591823815634813677e+00,-1.918507619892503291e-01,6.819506755622197325e+00,-2.942205339186075630e+00,9.213473507986980948e+00,-1.235290515689055235e+00,8.712295943930849162e+00,-2.985077963930396830e-02,1.274302802957460123e+01,8.747676720093759684e-02,1.521695223775748573e+01,1.736410489624753639e+00,-7.076763748161142287e-01,8.704313189134575524e+00,1.672603251411797665e+00,-3.338537890554539089e+00,-5.053614119660551296e+00,3.971587200112851601e+00,-6.077887161054392529e+00,-9.223749984104550492e+00,1.148907616413772592e+00,1.467532584575498289e+00,-6.302824236589472662e+00,5.108811601953712866e+00,2.654201739545579031e+00,-7.304040837409561782e+00,5.734482552396820587e+00,-7.433680274128663612e+00,-4.216561660327320382e+00,-3.668020401933439700e+00,nan,-1.364721466463260757e+00,1.221178641614480087e+00,7.832987068202964309e+00,5.129788979265545557e+00,-5.924327764772610028e-01,-2.362277464712422503e+00,-4.932178055514073733e+00,-1.880422868387197965e+00,5.924053427084801093e-01,-2.479630168612010799e+00,-1.598618015884307519e+00,4.911550646332161207e+00,8.066056063869991632e+00,3.324939916253388361e+00,-3.282400816675275834e+00,-2.756417198581359695e+00,1.095362316032551631e+00,-1.164749035961847978e+00,-3.689935564568312398e-01,-9.775679057170510333e+00,-2.101845444214282654e+00,3.400374381474593477e+00,-8.611684226459158653e-01,8.914493216607494164e-01,4.276877208035823941e+00,2.604781246431715047e+00,2.121017204789433208e+01,1.923484144782159622e-01,-1.067374804356930468e-01,3.481976893702432019e+00,1.045795377011364546e-01,-3.953619943065729725e+00,2.175930472847102504e+00,-1.250361084406626411e+00,-1.591738733245480653e+00,-3.440423524569740543e+00,-3.358117689975482545e+00,-3.500538491876808767e+00,-2.334503301966655453e+00,4.741505698605525509e+00,5.538023671531540515e+00,-6.463360815589007657e+00,-2.541961859725007322e+00,-2.992164840849066199e+00,3.380546800102614657e+00,-3.128578833518094626e+00,-2.973904715827524026e+00,9.681881535718072085e-01,-4.196214880420821025e+00,1.223584762595949949e+00,-6.675406837927338799e+00,-3.963201598705603512e+00,5.063175802004308501e+00,-2.241918789763378328e+00,-1.339113560636191469e+00,-1.901055375061841302e+00,-7.526517522416362738e+00,5.145174683846021502e+00,1.125598431205077743e+00,-9.143833200015004659e-01,-2.524604301990359900e+00,-2.587746172550277279e+00,5.076338608435704280e+00,-3.955150320157482469e+00,5.652808160640990565e+00,4.139002141977169202e+00,3.344284604799126370e+00,-3.692483020585912712e+00,1.687058496630942539e+00,-1.394896533835201957e+00,4.542935643481738062e+00,5.383096276072077302e+00,-4.739068934330822103e+00,4.979760511328396255e+00,-1.470469133867076783e+00,6.686119935399688963e+00,-1.174049871530489897e+00,5.906670646910602507e+00,7.371868067947078274e-01,1.701550821018099902e-01,-1.973826488419339609e-01,-4.548982158547490329e+00,1.170546456091773635e+01,-8.141351269571661664e-02,8.975268269075064254e+00,-4.126024301782311277e+00,6.754697079539923266e+00,-5.417173216021699211e+00,6.220623885558471677e+00,5.116417485669770837e-01,-5.890357816601472507e+00,6.492837738683072679e+00,-1.484765567697550637e+00,-1.019788414483048022e+00,-2.537946135884380006e+00,-7.137645169738142670e-01,-1.641969861880295811e-01,-2.120411946551018278e+00,-2.776701029041868551e+00,-2.168916805225358235e+00,2.596563564380559797e+00,2.218833534437132826e+00,-3.957553882323509242e+00,5.987490961103524079e+00,-2.476039954021590717e+00,5.646990112035635834e-01,-5.886506028929306744e+00,9.856116264397881466e+00,2.916665660956848427e+00,-2.383543775923633756e+00,-5.263363275775902572e+00,-7.799276759711644136e-01,-4.989683558551978315e+00,-2.456316826863564007e+00,-3.241613339759202628e+00,-3.716118228946276858e+00,-4.081098913797246430e-01,-5.449224367379080114e+00,6.098910647124580642e+00,-1.105337276477040692e-01,2.421532483032685423e+00,2.216984553329154117e+00,-5.618901523358966088e+00,-1.376006767223628469e+00,5.203183724064249643e-02,-9.846340119609973129e-01,-2.290299879118471438e+00,1.001951517392709334e+01,-2.379930200933972451e+00,9.165462948993855496e-01,-3.103806868871789026e-01,-5.519873640428199835e+00,3.784172368051765822e+00,-2.378063372621602944e+00,3.696807363943678482e+00,1.830821313169587850e+00,4.470656015461733190e+00,-1.997321407164508456e-01,1.458423300507442066e+00,-5.541183014411444674e+00,-1.780128990197475725e+00,2.093774579441118444e+00,1.879479614097367968e+00,2.306009958183454778e+00,2.847562357514136777e-01,5.375973841421244792e+00,2.583869552255416036e+00,5.936340512987264617e+00,-1.220377821106222171e+00,2.648518561947834193e+00,2.951360697135339883e+00,-5.677164239973914839e+00,3.333190219401998000e-01,-2.975823044388311800e+00,1.198733312480551660e+01,-3.694027805329968217e+00,-6.596793534510275947e+00,-4.447488210233500050e-01,-2.404020922033883512e+00,-3.376640553915614351e+00,-1.249709069459436384e+00,8.896552189344543393e+00,4.881982249974490706e+00,-4.192662006266891339e+00,3.301827709255282350e+00,5.885179333275997182e-01,-3.258879912671845069e+00,-5.324107445857434451e-01,7.763759566124858402e+00,6.841440024074768367e+00,-3.319506845975613185e+00,-3.136034383102052292e+00,-9.075612496458312917e-01,-4.897255308675110830e-01,9.105726157670966936e-01,-1.760909628798898119e+00,-2.217790720134368065e+00,2.099025037574655084e+00,-3.611557666685194512e+00,2.864438762696882357e+00,-8.757598924141846153e-01,-9.298352110251145719e-01,-4.260695766947046437e+00,-1.613579316522081752e+00,-6.408209443407202777e+00,-8.463159989093933522e-01,2.095561010527291490e+00,1.147064523404699582e-01,-3.981505736240863236e+00,3.511189037888159392e-01,-5.095283694256996121e+00,-7.994854508262424275e+00,-2.561304863060124060e+00,-5.721183985522704241e+00,1.480045716328613459e+01,-4.138098742598865343e+00,-3.303742635982009013e+00,1.209634218942504669e+00,-1.307936580839435814e-01,-1.134970238648533858e+00,3.033502664984103259e+00,-5.626261347079410058e+00,-8.412650591600575822e+00,2.709560735405668108e+00,-3.450370966313944354e+00,9.018285299641800590e-01,8.055814667557230635e-01,-5.415393807042724106e+00,-5.422043896733722335e+00,7.067879767946547709e+00,4.125599095369656966e-01,-4.337213293976348361e+00,-1.080315311301485615e+00,-3.069131685299941292e+00,-3.668304855094550732e+00,1.888875500244291405e+00,-4.570425232335985299e+00,-1.770351651840629703e+00,5.334334787653867593e+00,9.778937939285439640e+00,-2.861177420770375068e+00,8.019381788064743333e+00,-1.122733391843630857e+00,6.255200671594670858e+00,4.608285624931967583e-01,4.300931779951927325e+00,-7.352966015387918386e-01,4.770242427287779918e+00,1.047205813898294835e+01,7.424111594562813332e-01,-3.063149730278809102e+00,-1.464737543084392302e+00,7.193781212348382859e+00,5.366138449442042990e+00,-5.399968536688171561e+00,3.895877910693766655e+00,1.631183920066227699e+00,-2.226640329859512768e+00,-6.422638647804884471e+00,-3.747726585253384091e+00,4.643609627116616068e-01,-3.030714231176417695e+00,4.558577585715674729e+00,-9.905775145256113801e-01,-4.484101210660512926e+00,-6.186463584235634805e+00,-3.884525449519173890e+00,3.569409092079993129e-01,-2.984965879847762071e+00,-3.323761389725544468e+00,-1.516311659010976531e-01,9.809665057056767168e+00,6.882404345939153956e+00,5.922490150038018264e+00,1.985747201238985182e+00,-3.161817135408290458e+00,-1.637185080848746921e+00,-1.505096621597186601e+00,3.567895714106510408e+00,8.315362585192712430e+00,-5.569892951749782384e+00,1.921384153869011957e+00,-4.700830901639199588e+00,-9.705386926328416486e-01,-1.606168468468423427e+00,1.883134824540342755e+00,-7.546205136924990953e+00,-1.537527514995971956e+00,-4.166678149275764298e-01,-3.545662400148297255e+00,4.802049557388140322e+00,5.910648436440651965e-01,2.904991900254096038e+00,-1.104691267942853328e-02,4.643075925686704686e+00,-1.905858759319617457e+00,1.512015094583827324e+00,-2.724727810297477237e+00,-1.200702960292834520e+00,1.940406207375690695e+00,5.877418366630357660e+00,-9.244603024208427611e-01,-2.784262883080777851e+00,5.889258969884147099e+00,6.351157036296038783e+00,2.704818734711243455e-01,-4.100275250741484689e-01,-1.408579545817434386e+00,3.139178186322185038e+00,3.250905109494194090e+00,2.011084908056147036e+00,-1.040075923590199070e+00,-3.760391465193244187e+00,2.203152703792200295e+00,-2.238739764680579558e+00,-3.149700927749834900e+00,4.568061903995577211e+00,-5.458623711086616481e+00,-6.444228861898706917e+00,4.304272757019382389e+00,-9.786394118557651955e-01,4.032864155503757431e+00,-2.982267850493861339e+00,-2.760290628763664600e+00,-1.541057624546818605e+00,-3.753404046838086927e+00,-5.567797845452620020e-01,-5.585562709412579707e+00,1.756369917356487775e+01,-3.511031152496344593e-02,-1.585017700145726405e+00,-2.369493479936085389e+00,-2.612519650032654628e+00,4.274139021263452243e+00,-2.101870695728761174e+00,4.093062275957832341e+00,4.869498082313765686e+00,-2.390930782974899138e+00,-8.163957009222257977e-01,-1.095646499893006443e+00,2.477647547405555095e-01,-6.476879737588667751e+00,4.513195810301614763e+00,-8.243137571513478035e-01,5.680531705048074365e+00,2.990494019963966910e+00,1.773210756099929120e-01,-2.686660481913264231e+00,1.611415171127039914e+00,5.242414783210852525e-01,-1.767823474768373648e+00,-9.097370932451108727e-01,3.034805451966777201e-01,4.234162639778537240e+00,-4.816954731602757889e+00,-2.428975572692696705e+00,-9.301231077963854066e-01,-1.620362608509003932e+00,-9.037391730959646319e-01,-1.630911812033904340e+00,2.274170752012786512e+00,5.751248401347378802e+00,8.018433986086366261e+00,-2.487237570468251668e+00,3.222568595905847211e+00,-3.962244288359342281e-01,2.284504257505582725e+00,9.250462892053421537e-01,2.897463431860240579e+00,-1.742315581298794047e+00,5.304706808459002110e-01,-1.688040002031453435e+00,-1.002204177399254270e+00,-4.525991162227698261e+00,-6.609986662803346569e-01,7.278444146421876759e+00,-2.998853958591205071e+00,-2.598965326879686177e+00,-2.934811481996689064e+00,2.999678369746914264e+00,1.135494381746108594e+01,-7.276980122863441203e-01,1.686758468892788632e-01,-6.114116845954707280e+00,6.539198899687233890e+00,6.647742069828160183e+00,1.801919483718468662e+00,-1.679594983250750628e-01,6.413855397802937119e+00,-2.467710285033144046e+00,-6.256533483386173877e+00,-5.352350193024602021e+00,-3.204968894350218811e+00,4.577827522904414970e+00,1.567113660577871848e+01,-4.226467039655748437e+00,-3.822746323308181537e+00,4.076314610710890518e-01,-5.460526542255029092e+00,8.691003726261120610e-01,-2.792772813992469239e+00,-4.069405011104319847e+00,-1.609352290444289402e+00,-2.661851737659313155e+00,1.714857574909947147e+01,-4.261726401141292087e+00,-2.442391168534550516e+00,4.128200326568023826e+00,7.085350382979101802e+00,1.149129652707314042e+00,-1.103600593204296515e-01,-1.607490433002566999e+00,-2.554439413771362855e+00,9.783825494199811512e-01,1.025399647145609272e+00,-5.010938011086765620e+00,5.151611966610945892e+00,7.058605143117745451e-01,1.570257106252278101e+00,-5.688130957167971680e+00,-4.834981992200272138e+00,-5.446120072419442515e+00,-2.309856225832846555e+00,-5.062658038428925061e-02,-2.967946344157890159e+00,-5.487155387053355149e+00,-1.361978912185104251e+00,-2.199100574972099320e+00,-1.811591471165958422e+00,-3.046462273156168798e+00,-2.340429020955503148e-01,-1.958471533927777841e+00,-5.733190932093696901e+00,-7.376713110802076478e+00,-3.614414466427978478e+00,-7.212514476970062205e+00,-2.226474754612461027e+00,-2.526953816029469557e+00,4.931742013981206540e-02,-1.138507216023227242e+00,2.432849562430584367e+00,5.980305364745512886e-01,2.105650232537619182e-01,5.782784436196378719e-01,-7.422222477775779481e+00,-4.571776825075195561e+00,1.691992000378885308e+00,-5.316881846272379919e-01,7.230096262589907896e-01,2.538917661404888726e+00,-2.242236500287045631e-01,-2.410539478144175796e+00,1.467339160163087719e+01,-5.154880882577235646e+00,6.745504875547263246e-02,2.168496198188273549e+00,-5.069069890708667314e-01,1.671191041641076680e+00,-9.347588275853623285e-01,-6.428450554995153166e-01,1.805949778800566952e+00,6.680507116568771941e+00,1.411850309018816807e+00,-2.789963213620084481e+00,-2.184076633142306267e+00,-5.709944789900869289e+00,8.629551339439648361e-01,2.076151075305410210e+00,5.165846408037109150e+00,-4.602946912378995670e+00,-1.796320445755906103e+00,6.743499382395302888e+00,1.396902890954646148e+00,-2.989631732636924610e+00,9.636802855399576373e+00,-5.828300718259145974e+00,5.751783859040563440e-01,2.515202905448488124e+00,-4.671059252851016197e+00,-3.304046306759180762e+00,-5.555668568776258587e-01,8.289784090698162800e+00,2.087276402809116860e+00,4.747928054058638381e+00,-3.341977665818117949e+00,-4.188434509081537804e+00,-2.027138562530220511e+00,-2.886820069610136930e+00,-2.080818855868593609e+00,3.054067280478215629e+00,5.929551133358341275e+00,-6.615065355048720619e+00,2.392942900372132531e+00,2.485597895347992470e+00,3.954338691341628298e+00,-8.504243778435043311e+00,-3.250123709823562468e+00,-2.956371208249061855e+00,5.471873022121084063e+00,-1.917300447985691214e+00,-3.848631583794355215e+00,2.075511990357414849e-01,-5.854645126417520329e-01,4.555361747346495349e+00,-1.954028271530674932e+00,8.384994347178125196e+00,-2.331539361024614898e+00,7.916773990441638986e+00,-1.432243613413263228e-01,1.077288775779145880e+01,1.340072398491160888e+00,1.342286183586318238e+01,3.970404232793480759e+00,1.435189575979693766e+00,1.257540616256238764e+01,-1.207985349360669147e+00,-3.301307628228320912e+00,-3.679731924001567123e+00,2.300043611229436902e+00,-4.825751934991184378e+00,-7.128548874536895674e+00,4.257103983667041902e+00,-6.645301373297232694e-02,-6.817089021597109166e+00,7.716940733134197927e+00,9.666283983800643131e-01,-7.190775142111557550e+00,9.352262582956772263e+00,-7.117143347028771494e+00,-1.545072277008385786e+00,-1.899364098454414451e+00,-7.071067811865408004e-01,-1.169855813484042439e+00,2.902843707942439622e-01,6.496164697281987976e+00,8.040839161529689250e+00,5.979105472659220766e-01,-6.985757605094063960e-01,-6.136705893917862475e+00,-2.794088170621819689e+00,-2.021481354645832784e+00,-2.559536155302769345e+00,-1.138187786996564810e-01,3.935810164199244898e+00,5.211604093221477996e+00,8.989740505275298776e-01,-1.305136066307701848e+00,3.929044368454105013e-02,1.362879325330636604e+00,-1.287382720116170276e+00,2.285103219467078617e+00,-9.202019179994413989e+00,-2.865554710123099813e+00,8.662641639880185096e+00,1.182525939780760538e-01,-2.171492674432199177e+00,5.212067384494186051e+00,2.193503413923509449e+00,1.658992248194597607e+01,-3.167918884946654967e-01,3.281658479560359165e+00,6.221919559228090257e+00,1.521284487102681160e+00,-4.726674086229952998e+00,1.379570377780293233e+00,-1.312060196025268244e+00,-3.951056095143144820e+00,2.951503115916767617e-01,-4.710082851094489875e+00,-2.444490738338812807e+00,-2.890248229881038800e+00,5.335195532414885200e+00,6.082063907679312820e+00,-5.028113752027420169e+00,-1.565387510530537485e+00,-3.120600618864133757e+00,7.412923821437340521e+00,-3.985782366145210087e+00,-1.636215251911455670e+00,-6.641881491244756575e-01,-3.123571936633751545e+00,2.463254096948305438e+00,-5.773419618413908161e+00,-3.432501496021785670e+00,3.766612441148296853e+00,-2.146876217510268692e+00,1.907014570523042352e+00,-4.447290528018678080e-01,-7.386866730929644298e+00,4.080961570983832054e+00,3.623177045330449708e+00,1.536671247759314740e+00,-2.407660488535822374e+00,-2.334847884491667802e+00,-2.156238145594988748e-02,-3.631494081229084792e+00,5.109663319768257495e+00,-1.723455135001348004e-01,4.416281190626111020e+00,-2.737251153747408239e+00,5.855686467452490440e+00,-1.740359632375909904e-01,2.687216859683385639e+00,2.252374716312307346e+00,-5.523604001633729332e+00,-2.243064535673828727e-02,-5.824472708366479345e-01,4.442285096043654846e+00,-3.318453968082810124e-02,7.794375231388493752e+00,-8.175719325600850906e-01,1.103194423490252207e+00,-3.018294390677382033e+00,-4.257560980791303962e+00,5.789841254138012872e+00,1.227212808810339562e+00,5.545954153575500811e+00,-4.080100629404066481e+00,5.438570807224645698e+00,-4.701059169599166587e+00,3.603030959941730504e+00,3.366149958551291288e+00,-1.056193803274181553e+00,1.190551737745451000e+01,-6.500278738423602709e-01,-2.041765014251881727e+00,-2.049119487437470521e+00,-1.809133196265076959e+00,2.457051680685989670e+00,-3.301058425910798011e+00,-5.722236546746297670e-01,-4.834426981896440267e-01,4.772574742749331911e+00,1.979029331633361588e+00,-3.016910856228371518e+00,2.535693268700028202e+00,-1.314203584161845351e+00,7.537599848359221033e-01,-6.458085249980034526e+00,6.243000987231948073e+00,-1.071012904606563954e+00,-7.084248539609886430e-01,-5.584273975689276526e+00,-1.242044249785792198e+00,1.231888342353619992e+00,-2.300185030833579169e+00,-5.055274709827548563e+00,-3.289201771788705209e+00,-2.053094278411836449e+00,-5.560564634474714829e+00,3.741582527870035868e+00,-2.340890663722301479e+00,-6.179369167714694466e-01,-4.782093127609532424e-01,-7.216943790557037275e+00,-8.777537488931979048e-01,2.411595278138080278e+00,-1.320903795798485492e+00,-2.328095531906425375e+00,5.698393263477700366e+00,-2.984365141206121841e+00,1.756398452313689962e+00,-6.006677661492589859e-01,-1.222078171531665536e+00,7.163114915927838666e+00,-2.661973478763542289e+00,-2.586834780187310390e+00,3.045506714326281283e+00,4.270756224177768345e+00,-8.592920485873598579e-01,2.203431300139406801e-01,-5.854857561913755504e+00,-2.077287719925389631e+00,1.076018443571608696e+00,1.891437663012078607e+00,3.081860194559718380e+00,-1.077955004771403491e+00,7.148593977480088846e+00,-7.316232486132181467e-01,7.462595295522165273e+00,-1.714853578214778462e+00,3.032877360069793582e+00,1.926085838996034028e+00,-3.691993770914388406e+00,1.980356351312759555e+00,-1.083652337210587513e+00,8.608085192560205101e+00,-2.907763611213320498e+00,-6.506805798942053798e+00,-1.760163413109114394e+00,-1.542543105246872770e+00,-5.538150839989967045e-01,-2.817848264113865575e+00,6.022157248034862853e+00,5.757525152064212115e+00,-2.727507113837031039e+00,1.587292644355702498e+00,-7.677640115438870427e-02,-2.270738488336777827e+00,3.033669624107514506e-01,9.307461184349611116e+00,4.868909100274167123e+00,-2.676982412164694569e+00,-3.922031232417823254e+00,6.635801238515982581e-01,-6.633197206338085072e-01,8.715914913536181308e-01,-2.649953179335433173e+00,-1.305561757422351921e+00,3.300451361786916671e+00,-1.041040138356106759e+00,3.675618679239063269e+00,-2.131624447884811424e+00,2.600669126495507300e+00,-2.867195768589458016e+00,-1.339438712056289393e+00,-6.881555237674184866e+00,3.487372029955896346e-01,1.376200054541806050e+00,6.600942761628636468e-01,-3.837118940922918942e+00,1.709415045374442554e+00,-3.695034228585869940e+00,-2.980959834613064796e+00,1.135557166861300260e+00,-6.137922144439587946e+00,1.200865589634187103e+01,-3.062556416207164567e+00,-3.990367683487476835e+00,1.517555066297079369e-01,-5.138427982449753628e-01,-1.839363149941052544e+00,3.395935464780062585e+00,-6.358097042552288691e+00,-7.875767635156852187e+00,2.378421113688103272e+00,-2.001710563641952323e+00,3.445486297735973924e+00,-1.782449876868870575e+00,-5.191790826640653833e+00,-5.111718711019710426e+00,6.782333436083899159e+00,1.016117197932950633e+00,-3.996801778334440503e+00,-1.431528343627336719e+00,-2.080155308834703121e+00,-3.838377835093269130e+00,2.646925892280341142e+00,-4.800786016688603830e+00,-1.501968453777219326e+00,3.441439871439667897e+00,8.595117088373392278e+00,-3.637355153182092682e+00,2.446445140996241108e+00,-1.451410408706298449e+00,5.759300378985590996e+00,1.855299180750411558e+00,5.976771389067362605e+00,-6.991973766780622546e-01,4.392867314229971676e+00,1.158723863460335046e+01,7.119052380011597903e-01,-1.016935938523813032e+00,-1.599503025602952766e+00,6.576719231556988454e+00,6.432737932668977088e+00,-5.709230116336672545e+00,6.064252170279070597e+00,8.725999417915079048e-01,-4.577179579824118605e+00,-4.229432730990223099e+00,-2.394634303880673443e+00,-1.474349784778142824e+00,-3.052367643108722106e+00,3.999026622784567664e+00,-2.625754025002436376e-01,-5.152654326279214381e+00,-4.571006096064047952e+00,-2.453195070699489388e+00,2.373292261859035079e+00,-3.080699715709596997e+00,-2.668564915960758288e+00,-6.081195359900699593e-01,8.034517710768668053e+00,9.423183987534816453e+00,5.699380179421627446e+00,-1.799310796003599888e+00,-3.472823139313020224e+00,3.033308352991696655e+00,2.838713052219136723e-01,3.136717852136253981e+00,5.838215280275493413e+00,-3.660588881121808136e+00,5.246950075211325171e+00,-3.623611400078385447e+00,-1.149716554138104030e+00,-3.104015274287349246e+00,-7.225313261874115600e-01,-6.349683183089774197e+00,1.393540147431423959e+00,4.699552767873772519e-01,-3.238377876610970763e+00,3.814474489856041650e+00,1.793780962599836659e+00,9.014590511192701605e-01,2.918223812436400610e+00,5.287846138657943840e+00,-6.783852265020056116e-01,-4.683620324023584636e-01,-1.499267223736694188e+00,6.833660004301014279e-01,1.463402574523616106e+00,4.704231027023123346e+00,-9.531154330344902004e-01,-1.693066854148685518e+00,5.892230900340070576e+00,7.707727484939704610e+00,1.363615711735922442e+00,9.836594513357089786e-01,-7.603358146661762795e-01,4.211889720594811592e+00,3.167423717090692925e+00,1.654195803930167186e+00,1.470436741983450479e-01,-2.365530099897821259e+00,2.101114329023313854e+00,-8.342220265511935962e-01,-2.728943950884334946e+00,2.178343730975404569e+00,-5.658401346060964343e+00,-6.097536719618620538e+00,4.188624202161151722e+00,-1.918552721432051023e+00,2.252374727588171144e+00,-2.212357523897702904e+00,-5.856953837705194399e-01,2.163308277304179406e+00,-3.101953472384995081e+00,-2.100915840756173214e+00,-5.369227994854110619e+00,1.644827415626368605e+01,1.975137711315765765e+00,1.600846165807266130e+00,1.220574914181384862e+00,-1.363837469682597670e+00,4.739927822737065810e+00,-3.265431275343690487e+00,2.745417940448156013e+00,4.178052332578132244e+00,-1.019910430067982654e+00,-1.603556343551116647e+00,-8.721490729335772407e-01,9.887440266646806142e-02,-7.488657458616932772e+00,1.618707298621945068e+00,1.191039182698183208e+00,7.045820925199692830e+00,4.510860461486387862e+00,2.406969417217884377e+00,-1.585723458649921147e+00,1.514990756468068911e+00,3.365723011075608895e+00,-5.345850212281811897e-01,-1.808036935468617212e+00,2.078680797709442363e+00,5.864584563825216534e+00,-3.919852940675963460e+00,-1.682053065304971007e+00,-1.354502635854816228e+00,-9.375583925952462039e-01,-1.794764191721692548e+00,-1.258894752202826650e+00,5.228112526296948420e-02,6.208276378317610700e+00,5.690338298773703229e+00,-3.002278465593116064e+00,3.160033147851416757e+00,1.087119981265805280e-01,3.320004206486871112e+00,1.843007860940580223e+00,3.401380426014207536e+00,-8.101240709762949077e-01,1.040120063891737390e+00,6.718856328259036337e-01,6.233386100982399869e-01,-3.560845699218213145e+00,-9.303655265226786764e-01,7.512668674452941175e+00,-2.614498829362109866e+00,-2.543551920845800396e+00,-1.784522975407447865e+00,2.000532014628047417e+00,7.713858669537919432e+00,4.555978627649096002e-01,-4.567213818276028570e-01,-5.713023768260275581e+00,6.907431004816244169e+00,3.845860527224405079e+00,1.674415926832136803e+00,2.605353403874819840e+00,2.162653061212242545e+00,-2.089680975848102751e+00,-5.884314928631987129e+00,-4.650468587814502897e+00,-2.527485724792509991e+00,7.399897913921407167e+00,1.616240935948617263e+01,-2.852741032973932001e+00,-1.475308604919854938e+00,-6.383846725393177435e-01,-3.722127132627369495e+00,-7.647361814465717389e-01,-3.476576516021795182e+00,-3.302968663049338005e+00,-2.263858324052269388e+00,-2.734660287652606936e+00,1.557277849161938121e+01,-3.652441707137079607e+00,-1.702096559836092426e+00,-2.395060456142166228e+00,4.180843262234204438e+00,4.914101729007033237e-01,1.451538279018967925e+00,-2.621969869256383312e+00,-2.240603153746864695e+00,1.986842164371633412e+00,1.810711646482132231e+00,-3.762622842773902132e+00,4.319439906693049558e+00,1.747131728946191398e+00,1.792983942412307741e+00,-4.651904665561513497e+00,-4.430948210751385119e+00,-5.135988521085127267e+00,-8.971325006522402612e-01,-5.304839246794664787e-01,-2.707825072058567262e+00,-3.740035536552861473e+00,-3.796889053173686523e-01,-2.321327093741743841e+00,-2.291985589799198753e+00,1.236012865284899925e-01,8.211119280328306180e-01,1.505578074181107284e-01,-4.992970000856134405e+00,-6.378228319937958801e+00,-3.766468056303488687e+00,-6.098611688746674808e+00,-1.840936009850138833e+00,-2.591498953857450882e+00,7.565961637767022463e-01,-2.448332165779190106e+00,4.899026120516619898e+00,1.194614713762926828e+00,1.751619068312132876e+00,-1.279161680930837930e+00,-6.347378827877111718e+00,-3.237537795618330883e+00,1.587678645853444426e+00,4.309571771412895602e-01,-2.330676010635947204e+00,5.832200615911397712e+00,2.896577451519935842e+00,-3.087108058693431190e+00,1.581336653913268542e+01,-5.728849722193489313e+00,5.291523294998402155e-02,1.003025170024575141e+00,5.058893154381111090e-01,2.540003288050636687e+00,8.639659720034480461e-01,7.807248063874722144e-01,5.161554135660390008e-01,2.989338103301397265e+00,4.175632345426651071e+00,-3.178900208926535687e+00,-2.636422603916184659e+00,-5.947854947654187541e+00,1.153267954263954342e+00,1.952263830783251608e+00,2.325585495033742234e+00,-4.234380803668314819e+00,-3.003786772098965968e-02,8.968359954512754584e+00,3.708061963688153995e+00,-2.968770235175760330e+00,7.084304620808328679e+00,-6.809340217031204290e+00,1.401770372878859139e-01,1.228886633101598513e-01,-3.350577075641065772e+00,7.141940107146868000e-01,-2.313568760102208799e+00,8.736215844959810184e+00,3.747951422688008627e+00,2.807189104273666302e+00,-5.035715231416789450e+00,-3.687400129525597148e+00,-3.569023184174379359e+00,-2.996983701541323430e+00,-9.489133692114395391e-01,3.397449184700834124e+00,4.801658857429011995e+00,-3.716221133255478204e+00,5.333999894891127802e+00,1.679410538615050852e+00,3.187418297107571075e+00,-7.098798961067114277e+00,-3.038276010976971975e+00,-1.487240945584645591e+00,4.077532516289148035e+00,-3.565916531825777724e+00,-1.580354812921281660e+00,-7.485949985584988697e-01,1.568082599623508600e+00,3.904501192986456370e+00,-8.303308965216064097e-01,7.511702762518525311e+00,-2.792518009809510815e+00,8.198809698742822505e+00,-4.997119714012324687e-01,6.956486057204797291e+00,2.669135841650309704e+00,9.251844031355764386e+00,4.128167392207045872e+00,9.728153210781844695e-01,8.840367247603738932e+00,-2.065996073272569955e+00,-2.314386962924714020e+00,-4.293971189695255042e+00,4.174515517969856759e+00,-2.101183327230034870e+00,-7.252229382377596067e+00,8.967092249647120594e-01,-4.822771938109424728e-01,-6.249934637514865443e+00,4.962331645898530041e+00,3.168164343324379129e+00,-5.828616486861037060e+00,9.302122254780247346e+00,-7.260206945006757451e+00,-2.353173740907943845e+00,-4.526235331485710667e+00,nan,-1.750042175217307427e+00,-9.005192963231607450e-01,5.557987864660555388e+00,9.381822216738497033e+00,-9.601361903836499456e-01,1.691211551646113254e+00,-5.722057985812321945e+00,-2.651320102125665823e+00,-1.854207535944175200e+00,-2.329496003554162975e+00,3.292321680821790747e-02,2.253469903245585382e+00,3.744623818528053594e+00,-1.477501101356698765e+00,-6.496774900510726702e-01,9.165056614262347967e-01,1.803706027893623665e+00,-7.093094671838608978e-01,4.066886772419874063e+00,-7.169478900649878916e+00,-3.344076011827032513e+00,7.361564429995591574e+00,1.255913971189400069e+00,-1.848831806693633228e-01,6.920582702445317480e+00,8.809083624143109192e-01,1.351852681552416868e+01,1.067369955161557193e+00,7.102333914194159270e+00,6.818372643378663334e+00,3.278507116402103794e+00,-5.228119112821802972e+00,3.169291961883174302e+00,-8.217711639227388565e-01,-3.803766425078129565e+00,2.583989315574237278e+00,-4.723142670879852290e+00,-1.719757005273877759e+00,-2.591321780122958440e+00,5.993183719535890575e+00,4.190029342390888090e+00,-4.900895989450747336e+00,1.408643184850227659e+00,-3.431965377450159504e+00,8.631168013293381236e+00,-1.603705915563921947e+00,-5.600854370244927605e-01,-1.571850454477340620e+00,-2.225316767467397039e+00,2.923535390527764122e+00,-6.727778147038994128e+00,-1.286681126672952757e+00,1.147655833795436342e+00,-7.678429879290542548e-01,2.498487225838825765e+00,-1.010346304151436447e+00,-6.650884974314667630e+00,4.281166320455803032e+00,1.689346554389840493e+00,3.436457208756558135e-01,-2.402909742565813911e+00,-5.173100236206862323e-01,-2.473115583328489714e-02,-3.212885182184181954e+00,4.292740452918457628e+00,-2.406462804571318337e+00,4.275478410995341427e+00,-2.002750240235628532e+00,4.391503556419076304e+00,-1.530829114403901681e+00,5.000045035201813981e+00,2.040526956965924565e+00,-5.440802430300886172e+00,-2.248239292314746507e+00,3.313084890467115629e-01,2.355719810660139135e+00,-8.407930273685859657e-01,3.305490181933381511e+00,-2.767101310102352940e+00,3.352835593776404721e+00,-1.606907845195104656e+00,-4.415928222392144775e+00,6.195724614737021518e+00,2.919074397588595549e+00,4.328283840254398385e+00,-3.693260625779057893e+00,4.810908481192798902e+00,-5.247372965274929690e+00,1.118604132046378208e+00,2.986476788592930642e+00,-2.175869079345952584e-01,1.113062867107279352e+01,-6.425069739388813428e-01,-1.418880331869913247e+00,-5.869851964758207030e-01,-2.293103500697715624e+00,3.599003038286745060e+00,-5.910244799465370624e-01,3.806628356007133895e+00,-1.662981750367722167e-01,5.811763255112545323e-01,8.947928519310337225e-02,-2.873740926767378578e+00,7.440615079352033145e-01,-2.328290813330348707e-01,1.956059125462909387e+00,-6.901796610564064238e+00,5.720641348825472150e+00,7.415151618803401956e-02,-2.807230043209619774e-01,-4.650455478505209683e+00,-2.283916605849634518e+00,1.688804978778850385e+00,-1.317855977381071186e+00,-4.350422943990346347e+00,-1.160438906177447604e+00,-1.604016498870010743e+00,-4.230639663873030365e+00,2.851791999727786742e+00,-1.824109023325525269e+00,-9.919943176461847312e-01,-1.867103929531813034e+00,-6.848151264320981646e+00,-2.302998826545849198e+00,2.021325891157878196e+00,-1.134849638042840780e+00,-1.904830718840960779e+00,4.077169834822586658e+00,-4.115668534416917268e+00,1.706574876066813129e+00,-2.789844499338239858e-01,-1.091630940879670941e+00,5.477909629821663628e+00,-2.076976706994443145e+00,1.047300925241692715e+00,1.800559116094413659e+00,6.054282047699237168e+00,1.145455059435547041e+00,-1.559591163836885119e+00,-5.869520674660654080e+00,-1.901293559144606071e+00,1.385927395381311156e-01,1.608352132766443621e+00,2.524529484997874107e+00,9.395186588182800058e-01,6.408415991546636548e+00,-1.923936545192924896e+00,7.844100321207045923e+00,-1.661733534039814497e+00,1.608112276523184336e+00,1.607307839743627786e+00,-1.850083510072533688e+00,4.381989750728573441e+00,-1.509845293199920668e+00,5.796107128959276267e+00,-2.386991898680413948e-01,-5.528114553544578591e+00,9.479214210663913093e-03,-1.193173458181277180e+00,3.168742701970789777e-01,-2.470416116707445209e+00,7.632255629416216713e+00,4.681165608540825751e+00,-2.753292639917666040e+00,1.267125092822475985e+00,1.835438813982142037e+00,-1.098171439870758048e+00,1.793130022290652326e+00,1.076114826505564182e+01,4.935755234407778858e+00,-1.039522164751109035e+00,-2.043703354305130837e+00,-2.760235352569361811e-01,-1.822831871251722191e+00,1.734065307732860939e+00,-2.305863147868131957e+00,-1.641144479524023092e+00,2.429905414690811671e+00,4.675183263960003277e-01,4.013860004348053678e+00,-1.001459352015324100e+00,3.546521176022597643e+00,-3.540075827437370481e+00,-2.037386814988918271e+00,-6.258981168236863901e+00,3.873161799528966887e-01,1.238170551959186350e+00,8.534300012610662733e-01,-4.199807824324337524e+00,2.855537870009825507e+00,-3.985337166734280512e+00,-4.006895086031896369e+00,9.058068446192494294e-01,-4.800663829320767739e+00,1.045532423865276606e+01,-3.051301714260869602e+00,-4.250644562164163531e+00,-1.229825813675058423e-02,-5.833696086852846463e-01,-1.590025078421916094e+00,4.196420420443710775e+00,-2.831771047687881016e+00,-6.963186675534427827e+00,2.913205655299095920e+00,-2.727819592839145990e+00,4.879631884280977161e+00,7.364458922624296522e-02,-3.702797125269231771e+00,-5.163854993651344927e+00,3.933945595611246127e+00,1.296351573427404480e+00,-3.025061483799928119e+00,-1.517078406440102611e+00,-2.439923429071576777e+00,-2.487226257099385496e+00,3.288097312064173217e+00,-5.571809220421124920e+00,-7.906201508985448712e-01,1.141606608691638991e+00,5.496941939839261160e+00,-3.104698929139838359e+00,1.992540080763388399e+00,-1.909867734690706698e+00,6.622908190772132109e+00,2.951237544646107214e+00,6.600218905642225131e+00,-1.482710190739015221e+00,3.927810490673524502e+00,8.849901733042635499e+00,2.080197483534406366e+00,-1.189329565115842202e+00,-1.930705045134303077e+00,6.895160823419335117e+00,4.177213185483608093e+00,-4.151066167074822566e+00,5.508316412600094303e+00,2.935920472296317807e-01,-1.723437510021793129e+00,-3.378310572355172070e+00,-2.529942393914489163e+00,-2.054673978506230902e+00,-2.221664035926168790e+00,4.043486741098537784e+00,4.792975473906271877e-01,-4.934518281354664637e+00,-2.427934943491862341e-01,-2.387992943138765867e+00,8.548604870236019559e-01,-1.807731414453475738e+00,-3.098865066733694107e+00,2.392854372403228902e-01,3.431187979945207189e+00,1.065859155916544942e+01,3.114565202523623899e+00,-2.136505646656953417e+00,-3.546678970151214028e+00,4.882128261753966747e+00,7.559138204170090525e-01,3.721098650451206691e+00,4.295071837635153322e+00,-8.569100761683366985e-01,5.819432061487558094e+00,-4.293760816942694625e+00,-7.909944721504276188e-01,-4.366296551255904212e+00,1.716087449570409262e-01,-6.039240094354160426e+00,1.022036625362806150e+00,1.263802137281774929e+00,-1.519586880254609085e+00,2.604066576732485316e+00,1.476009775832112902e+00,2.314841352839029032e+00,3.203060862653850371e+00,4.954309074661828127e+00,1.662695674238540144e-01,9.717702319715050274e-01,-2.094143827665797541e-01,-3.939360085716823168e-01,1.164971273586300260e+00,4.476498353584045020e+00,-1.424696509088859697e+00,-1.688167482470217085e+00,4.228772705573231150e+00,7.655525574591461435e+00,-5.978342008408279451e-01,1.736705364687810338e+00,-1.578937748613912895e+00,4.114645801702381256e+00,4.206677163727170488e+00,3.066638379574473383e+00,-2.414003333178947885e-01,-1.523159943461336541e+00,2.572186145982241268e+00,-1.835637259727522785e+00,-3.610880428169500611e+00,3.572413106018655360e-01,-5.637908457227338133e+00,-5.411604448592282068e+00,2.212602152389910870e+00,-1.895041894670358440e+00,2.348752714321976909e-01,-1.988480982992620660e+00,9.123028513315979415e-01,-9.740182745474252890e-01,-2.818646031882166891e+00,-8.793955047506190059e-01,-3.757920338623125023e+00,1.740477918669221680e+01,1.490640973948935688e+00,1.796760109721381893e+00,1.769403828775538479e+00,-2.306387288699922156e+00,5.123794232060075338e+00,-2.999103752225498631e+00,1.068672249303763255e+00,2.162966730711226138e+00,-9.902709202845434017e-03,-2.045294786676848275e+00,-9.289793610965013659e-02,-1.423666814812462933e+00,-7.359486319845768065e+00,2.722036323153830928e+00,1.668354061805291000e+00,5.178551223890401900e+00,3.231439930079499145e+00,2.160396649329991536e+00,-9.504271599952022198e-01,1.712634629806165876e+00,5.162101761979663195e+00,-2.451383484002330970e+00,-3.162665364768654452e+00,2.086902363081385658e+00,7.609221626436021957e+00,-2.714476854387736449e+00,-2.039018200901792088e+00,-1.499023600477252804e+00,4.875258107641858851e-01,-1.698053238436119550e+00,-9.200221803270407506e-01,-3.306012018227408866e+00,6.875435174792198012e+00,4.031025670656829263e+00,-2.182990398310562075e+00,7.417729397232277755e-01,-8.776901483765207901e-02,2.758679290898903513e+00,1.052266313188729319e+00,2.993868057682286921e+00,-2.034479338522373060e-01,-3.167820989633082784e-01,3.319850165619103954e+00,1.170321831162107085e+00,-2.430282542941978541e+00,-2.103913291105122818e-01,6.937949718394420096e+00,-2.917595085970948077e+00,-1.598371496201005382e+00,-9.408323229948351019e-01,1.542125221120268286e+00,5.795166908392428873e+00,1.454921836241499955e+00,-5.874902843978015987e-01,-5.709088966484114458e+00,6.756781001547730980e+00,1.893450630332998763e+00,1.341702558266971490e+00,1.996371158659118406e+00,5.779699102282649381e-01,-5.609914781438150033e-01,-5.224874584537255728e+00,-2.218952544752333278e+00,-1.182270385919714339e+00,8.377717433369564759e+00,1.617353634698377718e+01,-1.226682652605839641e+00,1.563449801278121276e+00,4.037301159309297782e-01,-4.900668604489666791e+00,-4.861569900649352904e-01,-3.208578723965472168e+00,-3.399803850380005432e+00,-1.240808550840524660e+00,-4.286160033736003960e+00,1.495598508633148427e+01,-2.757324460212109862e+00,-1.991108958739680856e+00,-7.855561015743647957e+00,2.970094625112049691e+00,3.087430553304623682e-01,2.392184606344607722e+00,-3.580859998952490741e+00,-1.831636936306102248e+00,5.802156354468375188e-01,3.795087440216478036e+00,-2.677357124637910424e+00,3.913400529464226008e+00,2.418077349729957692e+00,8.030006022136509936e-01,-4.691265578202784781e+00,-4.624785195919056235e+00,-4.229139336269462923e+00,6.439728881578338227e-01,-6.665956209551473499e-01,-1.599867168572874698e+00,-3.046230380932984261e+00,3.015365349628737479e-01,-3.104429586315694323e+00,-1.430012354996028856e+00,1.328316046151807539e+00,1.078028048348095291e+00,-1.650428510479688970e+00,-4.503899687891546932e+00,-6.760035524362081105e+00,-1.451868128947200409e+00,-5.346339354924531939e+00,-2.880877734095669496e+00,-1.219239409660728413e+00,-8.665952622930009897e-01,-2.622962734605684521e+00,4.775804016003136532e+00,9.796734912042821541e-01,9.568291680351876938e-01,-1.302209163184966156e+00,-6.163758118027095279e+00,-2.746341146561531055e+00,3.038229776039698127e+00,5.783916773012754975e-01,-3.722754365650087216e+00,7.672325648257664277e+00,1.550290521129696231e+00,-2.996855469434023700e+00,1.703552755523675444e+01,-6.193939085409638778e+00,9.784185882725188188e-01,1.661240050531943568e+00,8.485202954150695698e-01,2.379750122780733612e+00,4.170080335419919237e-02,-2.476772431574295052e-02,1.075727619710993066e+00,1.055215479265407152e+00,4.231952076296385812e+00,-2.403768059796211887e+00,-1.658536603613845362e+00,-6.249789053884582835e+00,2.397401845594276715e+00,1.252354339720427534e+00,1.651715089973348149e+00,-5.526597281985962340e+00,-2.621648669396764997e-01,8.232210389500117742e+00,4.725321546983242804e+00,-2.989781051979525373e+00,7.046117154305504116e+00,-7.100550077614266264e+00,1.205787595362972864e+00,-6.420855991742433488e-01,-1.022517386349190094e+00,8.978905586204386502e-01,-7.061583012768289924e-01,1.070900171459722294e+01,3.349377308221880067e+00,2.815572878241504817e+00,-3.925936522220148106e+00,-3.953554481367361984e+00,-4.605954555463775968e+00,-2.522642483046358741e+00,-1.755955863229730740e+00,3.367954746597322746e+00,7.123029010202314382e+00,-3.910656627106862793e+00,6.424931006873975115e+00,1.380289212410320099e+00,1.891639726422892132e+00,-6.301752726175258168e+00,-2.200980531114506089e+00,-2.790333306337925645e+00,3.806128141657668884e+00,-2.188417392998945221e+00,1.650227300793509766e+00,-1.344249636882822285e+00,5.001299657098464913e+00,2.645365998882445169e+00,-1.346798444036953146e+00,5.675963975456395083e+00,-2.356424859743253997e+00,4.701341998660161892e+00,-1.042647756524398561e+00,7.203130163695694144e+00,4.636628944800770036e+00,7.827133634384844996e+00,5.394511414823741191e+00,3.105344507060768255e-01,5.309655612993645413e+00,-2.737838174481769027e+00,-1.273641974466320326e+00,-3.368062389511012000e+00,5.611649438310442051e+00,-4.139022179754114350e-01,-6.485215509110784815e+00,-1.288975937577224951e+00,-5.169450584660256753e-01,-6.122326843636328064e+00,8.788709932976745964e-01,3.627503745420126879e+00,-3.200865796838192612e+00,9.581895733024067496e+00,-8.101644809106602452e+00,-3.635889806867390828e+00,-3.677815206938775283e+00,nan,-2.427308469167412497e+00,-3.217898645746598840e-02,6.115987590697645970e+00,7.433807327251177988e+00,-2.270411862965648453e+00,2.290665100458062486e+00,-5.221832129946975876e+00,-2.589651159623667986e+00,1.362927634550952782e-01,-2.399685040285038706e+00,6.981838982202396293e-01,9.657590706110708023e-01,3.996115133273058451e+00,-1.623830443366456544e+00,-3.052214715848532503e-02,6.588212656060662420e-01,3.943063676422903896e+00,-1.870156015891965895e+00,2.225646864424746241e+00,-6.706589180839977793e+00,-2.249206429033127730e+00,4.765068957480736778e+00,2.365794662355812594e+00,1.685935173084998961e+00,7.516034592211953580e+00,-1.009531425962060691e+00,1.071882138770839177e+01,2.739307229848505276e+00,7.728429743140120323e+00,6.835796854886966756e+00,1.826087590277392314e+00,-4.535598216720130971e+00,3.368585541546639472e+00,-1.591010320104217168e+00,-3.762554406585779443e+00,2.286677316861597031e+00,-4.124370504556138073e+00,-1.861092732146339745e+00,-2.374128041558905000e+00,7.005232274645701196e+00,4.917759945397113697e+00,-3.792437953528136507e+00,1.748690091856610895e-01,-3.392455347461708293e+00,7.870430955261511485e+00,1.335509777385677888e+00,-1.295690562004019108e+00,-1.582262469431541918e+00,-2.243267114404671414e+00,-1.989501719891426379e-01,-6.289079250653151654e+00,-1.137292881468868977e+00,-2.781345765632966760e+00,-2.186673017591462376e+00,1.482733504588842122e+00,-2.727600332985752329e-01,-6.601082068327226438e+00,4.508787623088370111e+00,1.162522056206071408e+00,4.069101235226725843e-01,-7.633975664002520256e-01,2.261228738701959728e-01,-8.297953982692045649e-01,-3.450423056769309493e+00,5.012403071326980708e+00,-5.157571648453621371e+00,1.516345064865795900e+00,-1.345409250929958223e+00,2.039429007031690499e+00,-2.070309180809013494e+00,7.925398286882770371e+00,3.765193640515557050e+00,-4.651730576407637763e+00,-2.794948946193388739e+00,2.119999807945830914e-02,2.616553912775436253e+00,-1.787167119879800925e+00,-1.656872821503139193e+00,-4.664770287505305646e+00,4.269183867860036230e+00,1.616961575795676120e+00,-3.293478732817296084e+00,8.041074333863393875e+00,2.248526117307353189e+00,3.234680956133536345e+00,-4.186494736630939961e+00,6.954620367087554378e+00,-5.398180261890180631e+00,-9.857837583246777113e-02,4.031861885907057186e+00,-2.381078663699377485e-01,8.286090720798810594e+00,6.905314847165492376e-01,1.052918341151152237e-01,-1.902367127657835777e+00,-2.136526413250932954e+00,2.288373214839319214e+00,2.771844694675096310e-01,5.299962852774840805e+00,-1.480539516949113121e+00,-3.715609668650157738e-01,3.747237934648325330e-01,-1.026340382983403465e+00,1.658657383923213047e+00,8.008764452869001627e-01,3.033471838234154561e+00,-6.595216802848814730e+00,6.595148463231653935e+00,2.568647577026303086e+00,-2.043282227867258438e+00,-5.036603548339673608e+00,-1.121299010545630637e+00,-3.546117275987220041e-01,-3.283498477793889703e-01,-3.222909583840732672e+00,-1.754980320437652397e+00,-9.278481097433960434e-01,-3.429445700418069620e+00,3.391010590407527836e+00,-2.268678727182220189e+00,-7.552791662865908640e-01,-1.133596351394739576e+00,-5.521623401663538822e+00,-1.940786293462288814e+00,1.782752819848153703e+00,2.315180085400295185e-01,-9.411451061258834239e-01,5.289702380671162274e+00,-3.570254466120513559e+00,1.824295769466299122e+00,1.471381010093183450e+00,-2.220796603928185675e+00,4.907315836371583195e+00,-2.629118595149468884e+00,1.930563537337877111e+00,-8.633788589725577278e-01,6.708760769033650817e+00,9.825792197109992632e-01,-3.475243324668419453e-01,-5.969495475018097963e+00,-2.340637131843661400e+00,-1.500661175915037227e+00,1.472879926751841762e+00,3.508847374218513337e+00,7.741735287003466137e-01,5.296872047415718932e+00,-1.203224829917653782e+00,7.581346023881272878e+00,-1.246065409247085976e+00,1.746481942705446100e+00,-5.518526896522423231e-01,-3.513663296606289510e+00,4.698436920296754415e+00,-2.829134610677668249e-01,4.903496667999134750e+00,1.512989119782331138e-01,-5.819584179633391585e+00,1.901128085430029868e+00,-2.903068013042563233e+00,-4.630973027617418247e-01,-1.108280611513541070e+00,1.027532657605132549e+01,4.145559379031856118e+00,-4.739844851132920533e-01,1.043395210166545573e+00,3.259239532291096975e+00,-4.596640904502416469e-01,2.326612634588068662e+00,1.231818421455424328e+01,5.278513135381749599e+00,-6.422607503258693784e-01,-6.446513698762273981e-01,7.606461995112376862e-01,-3.987674537681869857e+00,2.737595183379133434e+00,-2.276662835167135412e+00,-2.345904337286969898e+00,1.875229424420184587e+00,2.569123699212913170e+00,2.737008032048850126e+00,-2.256540522340097846e-02,2.174003817154753992e+00,-4.104874252792059863e+00,-1.843399794782057288e+00,-5.920447956206239759e+00,-1.470293299974427370e+00,2.151715517129328958e+00,-2.358446331812283359e-01,-4.209155155554536343e+00,5.922473189269227056e+00,-3.974301605156724371e+00,-2.769099250637734322e+00,3.445262843594662505e-01,-4.295838837447305991e+00,1.128599935494787054e+01,-2.623289902607843782e+00,-4.923596932492747769e+00,1.427604594394626947e+00,-6.646097806976694056e-01,-1.221445428708330727e+00,5.596098438836628830e+00,6.818103566203681520e-01,-5.150060735382184340e+00,2.698841371200637607e+00,-3.557158558931178494e+00,5.488690887748980174e+00,8.198429125145529905e-01,-2.787540518600744477e+00,-4.418481650202525479e+00,1.016163858981515622e+00,2.457986180158406864e+00,-3.224002072719808432e+00,2.019764938477599248e-01,-3.832570994893097271e+00,-2.967788024027843363e+00,5.235380257878524901e+00,-3.812702415913532317e+00,-1.306525728598796565e+00,7.083801607505830766e-01,4.932001194647024356e+00,-1.770932093016200692e+00,3.727918773381247330e+00,-1.593580141707249931e+00,7.156926342344542391e+00,1.742177354967177738e+00,7.748214487685861407e+00,-2.116077231365882216e+00,1.120212502151084033e+00,6.227409697244006281e+00,3.082053691472574908e+00,-1.585076759545616776e+00,-1.670564181069447374e+00,4.967953009717342994e+00,-9.187164867658632883e-02,-3.175956913996533792e+00,3.761190409884078267e+00,1.140523183317669442e+00,1.051986641978782000e+00,-3.026661640493354621e+00,-2.311059014085378838e+00,-3.653434437687249847e+00,-1.510961807952519775e+00,3.385079354516434158e+00,7.241281607707216184e-01,-4.925379128748305746e+00,9.921324997855892613e-01,-2.354797210946580677e+00,6.156962503769463080e-01,-2.392774600946204977e+00,-3.471648793387358989e+00,4.396835649304908777e-01,4.468868947796028612e-01,9.310213946237004379e+00,7.816221396646692021e-01,-2.895273590275294406e+00,-2.222222113431314483e+00,4.723079117253684345e+00,1.722698644059357687e+00,4.369694670035610962e+00,4.256038898644347590e+00,-7.582538739468355216e-01,4.302841820899442560e+00,-3.555252086615164675e+00,-2.149719336124899627e+00,-3.101537698983330760e+00,5.750503498796697421e-01,-5.398652711065823340e+00,-1.943077601346496208e-01,3.742193889194910472e+00,-1.518915793133002401e+00,3.510971863871528598e+00,7.053623320473464409e-01,2.572781461321151930e+00,2.907375769695447421e+00,4.649711538269778011e+00,-1.033069176663356403e+00,9.375585435485290775e-01,5.644383004950576099e-01,-5.376205773948546929e-01,8.878777759615114062e-01,5.065363717973745850e+00,-1.917533055463841229e+00,-1.987544276433927504e+00,2.526387468017198934e+00,6.000504178823333312e+00,2.066649935972023067e-02,-5.919203283046493569e-01,-1.617337758395149150e+00,4.179511535036366077e+00,4.380693296449660323e+00,3.660506425222590732e+00,-1.383915099824602368e+00,-1.981178479187730934e+00,2.533740333370848585e+00,-1.499138080132832673e+00,-4.729571827879734514e+00,4.644530353438712234e-01,-5.506671599028782893e+00,-5.092204498467745033e+00,5.212252488443623599e-02,1.458109798920524947e-01,3.679444516921079877e-01,-3.637410660331010237e-01,1.566135084698903723e+00,1.957491165778753872e-01,-3.015244489189714994e+00,2.212837947586764997e+00,-4.602697782460515974e+00,1.829635627766108286e+01,2.253255378615785509e-01,1.343394426508460748e+00,3.316610439906440555e-01,-1.782686681257110495e+00,4.351936065916953034e+00,-3.019670624419612537e+00,1.650163369704142013e+00,2.627121718280408302e+00,-8.418694610970982595e-01,-1.316868509275337606e+00,-4.134545894035455693e-01,-9.098284956555037217e-01,-5.850756037925894937e+00,4.925917518910039483e+00,2.514680756904103198e+00,3.934069035338839004e+00,3.922336590703805026e+00,2.001268290408106942e+00,-1.349517717915484250e+00,2.263515310250760137e+00,5.122450636097019228e+00,-6.275975058825942199e+00,-1.639329842123422365e+00,1.565095614253250389e+00,8.201967886507304684e+00,-4.682073606879364469e-01,-2.129860175062250338e+00,-4.389752025721065376e-01,2.126449158673260342e+00,-2.034242857856251030e-01,-6.853895359675555854e-01,-4.398613725137123787e+00,6.807825393723492269e+00,4.117585409492856563e+00,-5.639622465529166018e-01,3.390589006041059839e-01,5.633539298375794119e-02,1.824508694782508433e+00,-6.776461172267661537e-01,3.168771712522896244e+00,1.951923301946244305e+00,1.665896613628194689e-01,3.153271589965148891e+00,1.836270655689653530e+00,-1.927922894247446894e+00,5.704567165028269216e-01,5.723972813990887865e+00,-2.294405459077417664e+00,-2.687084068778132995e+00,-1.752477848840753527e+00,1.510357896998712146e+00,5.009047145314372784e+00,1.031419289903179992e+00,-1.027579299591740325e+00,-5.312251828950606658e+00,6.087406831708602972e+00,7.791077860235156027e-01,2.642035276269173227e+00,1.722233487551286579e+00,1.589327346817396958e+00,6.404637124759313682e-01,-5.491806229112149218e+00,5.972060848982769371e-02,-7.979708525794218521e-02,8.776911468762254032e+00,2.005778658421676752e+01,-3.844722616978362595e+00,4.325777716306450138e+00,2.813595714214329746e-01,-3.939047366006372286e+00,1.210933940159757860e+00,-1.601452273665427084e+00,-3.412000291907504312e+00,-1.236629992983961923e+00,-2.653227239889809130e+00,1.554697556165536554e+01,-3.223470733490417572e+00,-1.243369713266024856e+00,-1.037071413958177857e+01,3.060507421117104165e+00,1.624162088226592582e+00,4.721506896261018049e+00,-2.925713354325885085e+00,-1.302341445511483897e+00,-1.046701051928821957e-01,4.784809104743878549e+00,-1.695031810084525192e+00,3.186524549491545510e+00,3.350000675294788621e+00,1.575177870968123450e+00,-3.243100240101950860e+00,-4.024140562885290429e+00,-5.017468327163754793e+00,2.935536322446352098e-01,-1.254502728076144713e+00,-6.491672320457957390e-01,-1.388578776946932880e+00,8.424751476028928820e-01,-2.631396632878581610e+00,-2.347077629394657361e+00,3.466724872702825699e+00,-1.016364967970285083e+00,-2.024604498052855917e+00,-3.975355070700697269e+00,-5.924593604530952184e+00,-1.541417228639839487e-01,-4.371724300009794284e+00,-2.293566042261468318e+00,-1.801464079328093604e+00,8.181813950359763110e-01,-1.800937741470486630e-01,3.868497431219334981e+00,-1.296499606183260767e+00,8.424462184694262445e-01,-2.690059173447422847e+00,-7.138431787234853054e+00,-2.268881842362056478e+00,5.191074954654733453e+00,-3.922315106399679729e-01,-3.384555899389063871e+00,8.422378627693984043e+00,-3.625968669976741832e-01,-4.142749794621799708e+00,1.903029871116903138e+01,-7.232631965852669431e+00,3.595261234311033505e+00,2.200000390682370188e+00,1.734791395540850711e+00,2.133723337663977038e+00,2.641328193522442191e+00,-1.173433928807792181e+00,4.427835182921069368e+00,1.213866680808911802e+00,5.611079328576679792e+00,-2.298237181295819997e+00,-1.763413732603429374e+00,-4.262971205634927152e+00,1.724602188809065684e+00,1.578188882359628786e-01,1.976633287010665541e+00,-3.540226834042904613e+00,-1.395651995816864055e+00,7.151488284045560029e+00,4.694881389781794923e+00,-3.299128155245837135e+00,7.910464586241597651e+00,-7.326013603867732371e+00,1.983118917227475686e+00,2.780033304888646639e-01,-3.132417265707340692e-01,8.351224868972221271e-01,3.951585153203351908e+00,1.285033694197277043e+01,3.845917993563637172e+00,4.335745774843669409e+00,-4.671372730186503119e+00,-4.048379425156916511e+00,-4.139476185788134366e+00,-2.830724088075887490e+00,-1.340243171885250772e+00,3.713129380080425257e+00,6.586821862825831708e+00,-3.614607309532924528e+00,4.203710133515729197e+00,1.760587516511653128e+00,1.674221514502073127e+00,-6.476306671033812634e+00,-1.820145093870057185e+00,-2.614959080001065583e+00,1.953196107438924134e+00,2.160904156695320655e+00,2.008065419087330827e+00,2.664865788162455035e-02,7.906026890905835103e+00,2.724333242018085244e+00,-1.023911461985219429e+00,4.067151259553398290e+00,-1.498467498523606833e+00,-2.697133911515442461e-01,-5.405306828242676387e-01,6.980516783785998491e+00,2.931689325666481327e+00,9.607512915264758036e+00,6.821424768803372451e+00,4.227435747199731475e-01,3.460206324780949139e+00,-3.320245044313497651e+00,-1.356453656583120670e+00,-2.967975654711852318e+00,5.119352377428531220e+00,3.631761646479541583e-01,-5.820988847220525564e+00,-2.043628057291862810e+00,1.125614953582154021e+00,-5.937617836926227355e+00,6.356813849085735102e-01,3.345519449006005175e+00,-3.016472300446882748e+00,8.310086349343437817e+00,-7.402060985985014163e+00,-2.567796131201306231e+00,-3.050946680588763282e+00,nan,-3.433466843824279469e+00,6.068885424573657872e-01,5.307542830628700692e+00,6.239699732322863568e+00,-1.715546556015207891e+00,1.262655881025280591e+00,-6.103790846255584768e+00,-2.351515580347260936e+00,9.077093030097421744e-01,-2.052867103834932205e+00,-1.377851543987685501e+00,1.817440007801461643e+00,3.374875036453809152e+00,-2.851806375195128918e-01,6.934177325609283682e-02,1.726474190999424119e-01,3.709948882074857401e+00,-4.303414058467569525e+00,2.278441502080802650e+00,-6.750351797551525479e+00,-2.662785722545846667e+00,5.668886578846646707e+00,3.095568199557852562e+00,2.482072452063253110e+00,6.069556415413315698e+00,1.344100210431857234e-01,1.004134156623416985e+01,2.071154897789629690e+00,4.912247368605476616e+00,6.321538332014240424e+00,3.929230131740188536e+00,-3.930931229638616298e+00,3.913136503015842482e+00,-3.550253447043995703e+00,-3.370877591243750970e+00,3.645917338082830028e+00,-4.475745367848356970e+00,-1.624738208786384419e+00,-1.535721331931242162e+00,8.109519911760806110e+00,4.761972642976700421e+00,-3.601245915597513392e+00,-6.699932021867265330e-01,-3.873399301676642370e+00,6.689979993545311032e+00,2.220589696123515200e+00,-6.639975748101742958e-01,-5.770496539918550383e-01,-2.574989419098766774e+00,-2.961119620090253868e+00,-4.324788891620215736e+00,-2.701918231240343360e-01,-2.880332049841711761e+00,-2.966959768986146440e+00,1.732586783403966768e+00,4.705321648180382232e-01,-6.697024804352830429e+00,3.169376006742126162e+00,1.867691267525313004e+00,5.036114809217484556e-02,-1.444964247445074346e+00,4.016876303862343955e-01,-1.214999305325516810e+00,-3.478847491127615488e+00,4.199698031298665590e+00,-6.146466498403709622e+00,-8.080911167662970795e-01,-1.593768522437230883e+00,2.313266216850689450e+00,-2.608158150386914897e+00,5.454536037760298939e+00,4.015128977587473003e+00,-4.980965810343545463e+00,-4.848898235108068944e-01,-7.465496820680866952e-01,4.072759887272415114e+00,-9.035331407606039811e-02,-3.982293110559727900e+00,-7.205850661061347751e+00,1.268066785084123627e+00,2.123803134597434195e+00,-3.786218786653023471e+00,1.063960407588901269e+01,1.927941455111546132e+00,3.639290792309584077e+00,-3.810580802120149713e+00,5.644095303355450177e+00,-4.601088603346105366e+00,-1.159348249760056015e-01,3.682747257213666803e+00,1.451086534846949494e+00,6.921275680560431631e+00,1.318871120931551788e+00,-4.029811956994130973e-01,-5.689642241913305476e+00,-2.158704181756207596e+00,5.773113876932992383e+00,1.708816055058022476e+00,3.410264972258344240e+00,-1.263364923331917966e+00,3.235140269030922222e-01,1.025132542633066413e+00,-8.175295975832658213e-01,4.278394087724312733e+00,2.364620998607975366e+00,2.773315872949787320e+00,-6.583891777947844304e+00,8.450912820077144616e+00,4.327594051681109555e+00,3.968237060136948768e-01,-4.373377483386041042e+00,-1.649588779357015478e-01,-4.247316920707577381e+00,-3.487199966223691883e-01,-1.742578015727758611e+00,-1.073844474695134776e+00,-1.153726969013585624e+00,-2.674746672826838978e+00,2.701176192375720486e+00,-6.212154127080712351e-01,-6.102407138887844251e-01,1.303731323632636441e+00,-4.582039030414970959e+00,-1.682536369525149844e+00,3.124651350107841452e+00,2.591312042514212211e-01,-1.420107879830840192e+00,4.121620576227046584e+00,-3.515760550212178703e+00,8.563542370496781686e-01,1.557544273723617367e+00,-2.651988912680092181e+00,4.323656330886260335e+00,-2.844364414642180705e+00,4.208838238438894486e+00,-2.793472138218821232e+00,7.445983712231064366e+00,1.327452493976858827e+00,-2.893066230573694830e-01,-4.661099653592229330e+00,-2.539298838548920134e+00,-7.618641616616401713e-01,4.506059619798077343e+00,3.420835322851697669e+00,2.100441985826739355e+00,4.565297030000634138e+00,1.264716420334416780e+00,8.374475479162153846e+00,-1.970910741888938666e+00,1.413156792414283824e+00,-2.589957570121444341e+00,-1.540696805606093012e+00,3.742173698232220680e+00,1.322533022839821104e+00,6.443748827015372882e+00,-8.866059301471085341e-01,-4.773657653599838291e+00,1.561549938113409475e+00,-2.664643874025475423e+00,-2.559118256921741885e-01,-1.628503319863230825e+00,1.036588544035146953e+01,4.601221138879430406e+00,-2.353608616210084659e+00,2.771644782162586695e-01,3.833879614523166168e+00,-1.527983892844817726e+00,2.901999427808776844e+00,1.297550581101988953e+01,6.880464375546834432e+00,-1.713098915021765700e+00,-6.256493530911498846e-01,3.156938678919377628e-01,-2.854302490100099288e+00,2.985605159232895822e+00,-1.551770836009392918e+00,-8.703525864546337587e-01,1.853701150712884216e+00,4.582385043189804996e+00,3.381608908521096968e+00,-1.556904409230163711e-01,3.677894414122343303e+00,-4.440938137277910869e+00,-1.385169964854261471e+00,-5.585214351568355440e+00,-1.340598406762864458e+00,1.891996766890846837e+00,-2.556905267745146135e-02,-4.426063018829450080e+00,7.698210868642273219e+00,-3.398388930165590516e+00,-3.392890595742164450e+00,7.976957284094958744e-01,-4.845457291653941567e+00,1.477185173581041511e+01,-3.226806377984442697e+00,-4.918147135935521774e+00,5.326801068089693780e-01,-1.157678489370794761e+00,-2.203722891680642171e+00,7.028499904263041387e+00,1.397879560562529822e+00,-5.943829377572289019e+00,3.984461190446162870e+00,-3.690270930632792545e+00,4.238050293663436996e+00,1.906905402483575873e+00,-1.670159993678704380e+00,-3.945047018702242614e+00,7.748324708456185705e-01,3.405956399866882922e+00,-2.171688987852430586e+00,2.419854502545685015e+00,-4.705672516388592186e+00,-1.709045526265382975e+00,7.266181206785399027e+00,-3.050679700924769033e+00,-7.617363340173282094e-01,1.479977995764183651e+00,4.884408617242483430e+00,-2.301842629748467872e-01,5.566166479433625192e+00,-9.048965404509589083e-01,6.318172005036736039e+00,-1.716281451188629847e-01,6.117542893605892651e+00,4.996708770514757258e-01,7.374983918230826330e-01,5.336932410461487919e+00,3.585728831020869478e+00,-1.928303745070849562e+00,-5.014539819469054915e-01,5.998021026843771253e+00,-1.491082547465940822e+00,-3.047913691254266588e+00,4.363329295228829174e+00,1.779967926208494200e+00,1.348220514775707368e+00,-3.518338741153062443e+00,5.633896710686188136e-01,-3.960911275330984527e+00,-4.174627881127734308e-01,3.910695278389868967e+00,2.541022798724597465e+00,-4.238363321491956270e+00,-1.853036715377337051e+00,-1.763516817218480082e+00,-2.402840298195249247e+00,-7.285731735947915677e-01,-4.107703028026184811e+00,4.021466351461061572e-01,1.156490126152716069e+00,8.397244572268228069e+00,2.600645293451993911e+00,-2.044574947851638402e+00,-2.685378185860570532e+00,3.724657146040149858e+00,1.663584115130984253e+00,1.658407270839975522e+00,1.955249663721008391e+00,-1.501681663587889126e+00,3.795445659051893461e+00,-3.891622673179305103e+00,-2.519035205964143653e+00,-2.647701286034905177e+00,-3.997273330864877794e-01,-5.460670150270845014e+00,-2.077146633893600658e+00,2.528246937892760560e+00,-2.704365526683819354e+00,4.575952452549367777e+00,7.930169602396753836e-01,9.705621030547891825e-01,2.710714388270095032e+00,5.930045832949681461e+00,-1.361835912716572450e+00,5.402050718974721555e+00,-8.800914936308339431e-01,8.418157328112937376e-01,3.680371599952914075e-02,6.655353248861623605e+00,-2.069970402687577593e+00,-4.562559529056313123e-01,1.299137077293604614e+00,4.662852287944790675e+00,1.745311053446547689e+00,8.934945027009310037e-01,-3.015591517515473718e+00,3.294469888794319345e+00,2.844261354215621207e+00,4.065734801268120258e+00,-1.757252059188675997e+00,-3.042668966167508593e+00,4.776827323617064969e-01,-6.389789530400109552e-01,-4.595028381574787879e+00,1.476632248390163105e-01,-2.719159010643177332e+00,-6.666774304680596508e+00,-6.172422788121797455e-01,-1.561271393433525834e+00,1.672765279772331359e+00,-1.593592830359479573e-01,1.948399792015892695e-01,-1.015048291097950806e+00,-3.427190592072683728e+00,5.371608616867016295e+00,-3.883152174168579052e+00,1.893846210755968684e+01,9.549608094208199560e-01,1.861631639191883902e+00,-5.617094888548996856e-01,-1.786188737705888041e+00,3.584286011142813866e+00,-3.432066427059587976e+00,3.031657964770823610e-01,2.330148769064529723e+00,-1.277386783617177946e+00,9.966523800324040838e-01,3.482101488354758967e+00,5.216798373528891419e-01,-4.092236894813623849e+00,2.802106180578059824e+00,2.620680387999874128e+00,2.914194720932141713e+00,4.098331562197252254e+00,-1.724003093361865524e-01,-2.064450987704108620e+00,2.288575038940495077e+00,4.134073807627066444e+00,-8.587683422989087489e+00,9.441610622099680938e-01,1.355779050080129222e+00,8.279548609721246066e+00,-1.729499651882359990e+00,-1.827663061888627594e+00,1.001290772925308215e+00,1.493548580170251938e+00,-1.348314752381069681e+00,-3.259667080241354653e-01,-5.459143595571793739e+00,5.992027285349173837e+00,3.200871941506905127e+00,-2.239187337019814983e+00,1.133936933433166816e+00,2.886248342627315000e-01,7.354219214872664834e-01,-5.011645227625282084e-01,3.286704802046070739e+00,1.409906127152905198e+00,-8.324858517393964041e-02,3.621784412495812511e+00,1.641542277183473120e+00,3.711623389581788501e-01,2.251676881962368260e+00,5.665194544926575482e+00,-1.546944850745741507e+00,-3.186594851732890810e+00,-3.128678204559200982e-01,3.773455081512708364e+00,5.983856009514285645e+00,-3.987321075785792146e-02,-1.203583164110901604e+00,-4.964739189891696824e+00,3.646501811376003044e+00,1.166245136580210451e+00,3.625098966534114453e+00,2.090250583288355113e+00,6.777133952011694662e-01,1.952135167487110357e+00,-5.052451904179090292e+00,1.676150349631237546e+00,-1.831588229301603254e+00,7.116646163777969214e+00,1.934077133924483149e+01,-3.094389476369868941e+00,6.270864302174452121e+00,-2.131478794306506386e-01,-4.315163106187441144e+00,-1.269173958689810144e-01,-3.121372113280542968e-02,-2.212611817462508235e+00,-1.060623302217706287e+00,-3.677025496190691745e-01,1.632206965314603053e+01,-2.841422158803042830e+00,1.445919853858590731e-01,-7.068582381631090428e+00,5.355756520083932770e+00,4.680192035824337182e+00,5.985128825308012601e+00,-2.110201116585451064e+00,-5.621561154013380301e-01,5.615601770421050354e-01,4.564711685601675839e+00,-2.143027084374967473e+00,4.675669297780291167e+00,-7.855450548293041457e-01,2.479427138428226041e+00,-1.241241286149386447e+00,-4.042454119963471371e+00,-5.720691784836387406e+00,9.033088014597759341e-02,-3.196101216100235565e+00,1.440124632295277651e-01,5.209416767579310159e-01,5.669620216509150268e-01,-1.748080242362950676e+00,-3.312845227602775888e-01,3.352428663173367962e+00,-7.828390946686448748e-01,-3.106387956518550375e+00,-2.291712685849961684e+00,-5.475200879717442959e+00,1.492104773470686929e+00,-5.245391248004973583e+00,-1.069587052813373074e+00,-1.162735532477433775e+00,9.001123275203927188e-01,1.195751647384330152e+00,1.708076951029336321e+00,-2.059031847777503810e+00,1.047187820382595724e+00,-3.313710002209774519e+00,-7.642431527708845707e+00,-1.620121021726325550e+00,6.312894255521774411e+00,1.283860049259727854e+00,-2.145357366314572189e+00,8.347158912030408828e+00,-1.805944417835042781e+00,-3.565657769199699345e+00,2.082009349570697765e+01,-6.440120196648525308e+00,4.065070457874958798e+00,2.984070862531092327e+00,1.965464763563359585e-01,3.902335335484711898e+00,4.117127805739232649e+00,-4.397528150482714615e-01,3.336823256081297373e+00,2.829547041135178631e+00,5.234718680913005961e+00,-2.410280141208769322e+00,-1.540902809805974050e+00,-3.530077928347770122e+00,-1.580753172351132996e+00,9.680726402394805863e-01,1.569204369396209442e+00,-4.351329088551344704e+00,-1.816335388596765910e+00,5.656969310126696904e+00,3.017185634444626618e+00,-2.019631519273314968e+00,8.398250616281092817e+00,-6.916803424178703530e+00,2.806694805789168079e+00,-7.825106313017705650e-01,-6.015082689367585306e-02,3.420919181957537969e-01,6.706108521494470232e+00,1.159129656380525653e+01,3.907792761451983399e+00,5.393744348435479452e+00,-4.444005264493625873e+00,-2.677177167010022174e+00,-3.630146575507565920e+00,-3.779588043614268589e+00,-1.715648838321362613e+00,4.802381078172985873e+00,5.950868455643830046e+00,-2.555734909711163905e+00,3.686309065715331901e+00,2.236292999960840966e+00,7.674091450639202172e-01,-6.524658298674050450e+00,-2.237394877211634103e+00,-1.555343727468890824e+00,3.320239215145822431e+00,4.617088598994158466e-01,1.844255414692140826e+00,2.194772535298309180e+00,7.879689254775318119e+00,2.065223887741725495e+00,-2.486997420208270360e-01,4.144378460665507191e+00,-7.733732043998109429e-01,-1.332298169026617130e+00,1.842340628467240837e-01,5.598251101810389763e+00,3.376187340834730932e+00,1.001104018378426552e+01,7.008193870212979348e+00,2.441362007950885982e+00,3.494250914366509253e+00,-2.905424980326527518e+00,-4.447455144415579653e-03,-2.804612213968624257e+00,5.480125586051147302e+00,2.759500265418208365e+00,-5.005375422545162323e+00,-9.447152684191295613e-01,2.892594095087907546e-01,-6.012199497754979305e+00,2.021073649048424237e+00,3.755467961114065556e+00,-4.676152057255610117e+00,8.741834653770801822e+00,-7.473673674242872877e+00,-1.588279157968361721e+00,-2.629967705551047530e+00,nan,-4.330663506078707314e+00,-3.104420065694903919e-01,6.119050705487077302e+00,5.848597613881098667e+00,1.169552596218269569e-01,8.997961556617022350e-01,-5.133106520458308175e+00,-2.304254552236737474e+00,2.507041518865237517e+00,-9.469618717733185864e-01,-1.626877706811555191e+00,4.263333443719733218e+00,3.279234961993091613e+00,2.043380828696320872e+00,1.173730643126353224e+00,-3.296681584728327064e-01,3.140737454327469536e+00,-3.862664055423501441e+00,5.656396089530272064e+00,-6.646794024103165555e+00,-3.394527490247809975e+00,4.740145668384854183e+00,5.452937366808210840e+00,4.435000627726009448e+00,3.493682968617253248e+00,2.705210167187407921e-01,8.492235131673275816e+00,2.183808741835257639e+00,2.025561125953411867e+00,7.724097281011586880e+00,5.478258898847620628e+00,-3.198144026796614359e+00,3.310024517691704471e+00,-3.226961308401241624e+00,-1.116650175174789927e+00,3.488777116661073041e+00,-4.458029317324436747e+00,-1.864059707863483517e+00,-2.051857221054697700e+00,9.254848086073989677e+00,2.818560888851966428e+00,-2.683360293366684246e+00,-4.550882105364369989e-01,-2.870505264122809930e+00,8.056279651942814368e+00,2.850962862560611821e+00,-1.892176351460233441e+00,-4.408543784964132906e-01,-1.911812734664608771e+00,-4.801779283335656956e+00,-3.078010172890035978e+00,4.833947811037720560e-02,-1.955494246242052370e+00,-6.081336476092429333e-01,3.747598080813383525e+00,1.062292255495500104e+00,-6.619416535498472420e+00,2.025196464247382089e+00,3.098507989147553765e+00,6.141424436170206391e-01,-1.171951429717413173e+00,1.220705840186674607e+00,8.145006613128427109e-01,-4.294646784275255591e+00,3.155436172626072455e+00,-5.128853946991079660e+00,-2.572490502568069104e+00,-2.880671354578295151e+00,3.290433425208201701e+00,3.037104201485249164e-02,5.649018308343820571e+00,2.672100729958082788e+00,-4.948711614275782544e+00,1.334074820053893884e+00,-1.768448922985728089e+00,4.571568002123417962e+00,-1.134682492747217442e+00,-3.901249116716204668e+00,-6.029418615597721853e+00,2.668978259981201528e+00,2.512501238237111245e+00,-3.167999300775563132e+00,1.150559667160154653e+01,1.240105368151473986e+00,4.815644419407536958e+00,-3.736107898707896613e+00,6.567366723881613133e+00,-3.902783808293368573e+00,2.229282548736505110e+00,2.470389891019305395e+00,2.790227547450520262e+00,6.603522728436972855e+00,1.758060158929043715e-02,-1.562119036796814742e+00,-2.631405042558703666e+00,-2.713324201342760311e+00,4.446785215625321364e+00,2.710619152082488270e+00,1.857449695764761710e+00,5.340366606673753180e-01,2.203190502753259450e-01,2.896861873055368353e+00,8.760890785540766945e-01,5.847029036568354599e+00,2.526163611397995723e+00,2.398673129127752102e+00,-6.244531333444718335e+00,9.188595833174268535e+00,5.879360491792507304e+00,-3.746606872637270325e-01,-3.344806833519136990e+00,-2.072983602539531844e+00,-5.873319754861480391e+00,-7.419038136180264864e-01,-8.777916356052033464e-01,-2.946836388274482466e-01,1.249457582738092487e+00,-1.757195397690890060e+00,2.654610084958342053e+00,-5.905138691519964400e-01,-3.484577735253766018e-01,1.821423511727769506e+00,-4.005360399367469348e+00,-1.368821973731406905e+00,3.868533276601494819e+00,-2.844081401969971168e-01,-1.726183416937429715e+00,6.405639848711233597e+00,-5.148859081104347979e+00,1.132387772194035191e+00,1.140298243320329918e+00,-2.810284557435188457e+00,2.995595439311301789e+00,-8.777509073682260299e-01,3.097281401360303832e+00,-2.585686004122471182e+00,8.025202737853806667e+00,1.070174819869832206e+00,-3.932578015560159179e-01,-5.046554027654972074e+00,-1.882842772919782304e+00,3.041630972620996617e-02,4.465745909708578765e+00,3.690290306250394892e+00,2.747152311635701061e+00,4.227201001226442045e+00,8.495635496406829523e-02,1.060451422619932060e+01,-1.243972664214062940e+00,1.945864613316947045e+00,-1.482524821663775638e+00,-7.276732157172546844e-02,4.264100783034510123e+00,6.343303027825845097e-01,5.863425480724654193e+00,6.798306888120232427e-01,-4.094155952099361784e+00,9.260919706733091727e-01,-1.735005427332697137e+00,1.885452719733446747e+00,-3.004890811291657471e+00,1.015658838215164472e+01,4.424746960571016352e+00,-2.545178263003761376e+00,4.613153282795621341e-02,2.646001443402079101e+00,-6.412558422190913765e-01,2.867633495320607295e+00,1.286793174873681878e+01,7.532795693949450033e+00,-9.506519653920432467e-02,-1.295473903409206651e+00,4.739580261007935932e-03,-3.087760090237084976e-01,2.974912146430687798e+00,-1.552105722310116676e+00,-9.704682335554275507e-01,4.310965990972660755e+00,5.563814903943700152e+00,1.749005773537010366e+00,1.384912438840489313e-01,5.144301588765952893e+00,-2.834140226780898164e+00,1.506681334422183882e+00,-5.556238607564744747e+00,-1.021985464854546777e+00,2.150993821204253198e+00,7.689869248931566759e-01,-4.428137100161485762e+00,8.008764425506296192e+00,-3.693012245231252599e+00,-3.029295420102067649e+00,2.830150323226796605e-01,-5.060142408738840025e+00,1.582304119508459905e+01,-3.085121012251876849e+00,-4.926680129527478691e+00,-9.266471712634645197e-01,-6.077921859897736923e-01,-1.517018249642023031e+00,7.185907105000114647e+00,1.963371032204043409e+00,-4.937127006968719201e+00,4.498887234489777676e+00,-2.228872303087287232e+00,4.258350794661786232e+00,1.604465851244113228e+00,-2.149109256386980693e+00,-4.123322683795687560e+00,6.440842620854295708e-01,3.285282066395782241e+00,-2.964571416119395675e+00,-9.179654926552063832e-02,-1.772256622771363421e+00,-2.108214688699919126e+00,8.019460294497800845e+00,-2.216212065948549359e+00,-4.930987469937780365e-01,1.928291799328692546e+00,3.124555974899593913e+00,2.003451717487636508e-01,6.398367887874243820e+00,-1.814757638124247396e+00,5.976606879395916394e+00,9.620966414504649178e-01,5.669296594805786960e+00,3.105897540973632243e+00,3.754886032272062746e+00,4.011657213079922180e+00,4.180899593083127641e+00,-1.429102050334114971e+00,-1.257504897757586892e+00,5.561933846209635490e+00,-2.980707565806393511e+00,-3.630335211986488453e+00,4.724208325967530264e+00,2.300292248093087633e+00,1.590416005925798792e+00,-3.826433324188450946e+00,4.379709608865125503e-01,-2.723269414617542239e+00,-3.447954013871805667e-01,4.399872521359686317e+00,4.600328120722544156e+00,-3.821534138458183349e+00,-1.338244632936356648e+00,-3.378996780166679814e-01,-2.084122665003303787e+00,-8.855258585022331153e-02,-2.819489283715882255e+00,1.796137889484615169e+00,4.011769615613639317e+00,8.233842530203295595e+00,4.542818617835140849e+00,-1.286761932062981284e+00,-2.771016540357682967e+00,3.295507016249089816e+00,-1.264080174193638328e-01,1.501202427165994502e+00,-1.797793965494830573e-02,-2.349440263516438421e+00,4.778123333389763694e+00,-2.890859430975596389e+00,-4.237342194104776638e+00,-1.829294908262894870e+00,8.531321186317699645e-01,-5.093679793055002847e+00,-2.510053039339140923e+00,2.003000891893842450e+00,-3.049332214916233852e+00,4.650221799958986324e+00,9.639214655597597714e-01,6.271154017847206941e-01,2.019444991748295948e+00,7.098781288222188124e+00,-1.188804783084913996e+00,4.565574337634796365e+00,5.990012975568227427e-01,2.010070625964534230e+00,1.980906485497120118e+00,6.092408418198405506e+00,-1.163452277964737380e+00,7.006710051378629844e-02,1.173117304232379920e+00,4.925131317519071850e+00,2.953326589531644508e+00,-1.315952694786158561e-01,-3.008200063043495742e+00,4.220786409968345865e+00,9.815383730825733011e-01,4.028164233637675729e+00,-3.650032555019796510e-01,-4.345122799135260117e+00,9.673677108328391228e-01,3.148494330785238382e-02,-3.455257831500281096e+00,1.074605669486945470e+00,-2.860857365229210192e+00,-6.879111219547874967e+00,3.636946593266101035e-01,-1.725589579193391510e+00,1.460141884352530672e+00,-9.000476160184694985e-01,7.894194630391948575e-01,-2.976081897373915819e+00,-3.255657284238627547e+00,4.194969125135314059e+00,-4.501164191253186786e+00,1.874246381050059185e+01,9.772082098725335397e-01,2.477211747746937309e+00,1.789112478083579871e-01,-1.574794942152742960e+00,4.066023418783585974e+00,-3.032772545953901666e+00,-1.895764055371340906e-01,2.473440980000037648e+00,2.505631967151078499e-01,2.644973214686871188e+00,3.917793831697251594e+00,1.127341419322523741e+00,-4.113543565420071602e+00,3.521398246476220795e+00,1.020720487029628476e+00,2.121317105729547237e+00,1.975849462014154900e+00,-1.064197473174182118e+00,-1.661449140919895706e+00,3.292427062151250805e+00,3.272667187041610859e+00,-8.889952057127617380e+00,1.631039149133909127e+00,7.138961726560077992e-01,7.357981783447152146e+00,-3.288885898556888510e+00,-1.782456274430775256e+00,2.085988880100135834e+00,-9.247858242212800284e-02,1.581806716696000648e-01,-8.432442863825092561e-01,-5.927939068940637490e+00,6.305985727874393376e+00,3.055262801845111120e+00,-1.672177646326254152e-01,1.932487936075340418e+00,-3.393175945214825795e-01,1.230120666368062832e+00,-4.946539972739584790e-01,2.637424853159259008e+00,3.092677146037317026e+00,-1.291168689300963734e+00,2.763934618474303218e+00,2.693705976245839739e+00,2.497331645958564827e-01,1.092847521555572632e+00,5.325712131165718510e+00,-1.934172394460418332e+00,-1.247719016748278786e+00,1.158461860819961275e+00,3.451785455681104509e+00,6.997003152967699258e+00,4.475784307836437881e-01,-1.725957489194680727e+00,-5.170600413946922380e+00,3.221238392960636077e+00,1.343026562717677841e+00,2.870433989782166240e+00,1.639963779289745682e+00,2.711978920516986413e+00,1.966891693700756560e+00,-4.029105725280295758e+00,8.770354693954843794e-01,-1.510103985104982893e+00,7.085786556363943056e+00,1.818440914821003673e+01,-4.204913235248499248e+00,4.689503418196440343e+00,1.318758461031087625e-01,-3.704626079384177206e+00,4.505594792780831526e-02,-1.904016611546974547e+00,-6.868507270571642120e-01,-2.014297300836163374e-01,2.354435843698743924e-01,1.585189450480025819e+01,-3.156965336421367230e+00,4.550944241350594610e-01,-5.469971884521835470e+00,6.932491088586580474e+00,4.301517232867952956e+00,7.354989207035755427e+00,-3.437193409857895787e+00,6.124859180945265574e-02,2.148029579579181281e+00,5.396790135268666688e+00,-1.929310819854034076e+00,3.460482521937099154e+00,-2.364035136804629289e+00,3.211199252556813377e+00,-2.128812612028136098e+00,-3.780133044817822086e+00,-5.766065827445316039e+00,1.343067867504854351e-01,-1.839173625124871814e+00,1.278228961081612214e+00,-3.462476642448730768e-01,-4.894027130561606209e-01,-1.144415298247689616e+00,2.800473164187112785e-01,3.292165886582741674e+00,-5.933384656192191020e-01,-2.175060316971129559e+00,-1.942909261607604021e+00,-5.322514576961458133e+00,2.215550124056921977e+00,-5.512490194645590869e+00,1.397447546093033843e-01,-1.636707176957938437e+00,-5.036257138075233009e-01,-9.830171596813733759e-01,1.557126574290032206e+00,-8.147187465798853001e-01,1.600553964919826933e-01,-3.279297791514967919e+00,-7.859729970106235974e+00,-1.793864007962728380e+00,6.097688768123344261e+00,2.433958477918483965e+00,-7.575582207713029703e-01,7.654897843166067695e+00,-2.556983858364535234e+00,-3.415504653511320488e+00,2.007814034682960980e+01,-6.406649727110615977e+00,4.351318367544712018e+00,1.757726912935131836e+00,2.528035711235570471e+00,6.800145790400923929e+00,2.224683052462719690e+00,-4.552272482718980329e-01,1.168790364842090979e+00,3.038468817848567038e+00,3.646295504621466677e+00,-3.045389709663145705e+00,-1.903816889220805830e+00,-3.622483111418121293e+00,-2.229121654170092004e+00,1.780263205775049817e+00,2.943967716260614154e+00,-4.046003499988216845e+00,-2.782776772444542246e+00,6.760594859405854251e+00,1.077192834326499371e+00,-2.923127463517387614e+00,8.118832784684439474e+00,-5.690202038272690110e+00,2.643924903324197828e+00,-1.246448185440532042e+00,-5.510017856187215957e-01,6.989476765751523324e-01,4.488748259809116625e+00,8.198123119711720364e+00,5.512118947226521293e+00,5.253398708896538594e+00,-3.636562202931831411e+00,-1.886912462153738756e+00,-5.950160023125203868e-01,-3.223251451204019791e+00,-1.197421490727310411e+00,4.918609060874469030e+00,5.208327310235762120e+00,-2.494978562471149797e+00,3.401919993431918421e+00,2.493301484027285575e+00,2.415027337283977893e+00,-6.606509079828607689e+00,-1.932364964040928390e+00,-2.228936250224943461e+00,3.687445907736729200e+00,-2.423990443516244486e+00,1.488953587026415670e+00,2.879243997262710408e+00,6.102506714899829987e+00,3.711485260723299984e+00,-5.376031357141938249e-01,4.004682324731860810e+00,-9.321047659451624501e-01,1.427982996425068429e-01,-2.395692144461453177e-01,5.954552261452161765e+00,1.530744862412137142e+00,8.820270131760681309e+00,5.587013217973040291e+00,1.989404585930603542e+00,4.056333770039244335e+00,-1.685178580151105887e+00,2.578300148230004973e-01,-3.703129185934829870e+00,5.845433072710532585e+00,5.899710767416903145e+00,-6.458640376863322707e+00,-3.459569146626444852e-02,-3.225680842649293334e-01,-5.984760699933389105e+00,3.395388986211080429e+00,4.235148964278610428e+00,-5.374590226879863764e+00,9.633080120006365377e+00,-8.148565801942902809e+00,-1.595323313409993116e+00,-1.711978235494028278e+00,nan,-3.822575703977077577e+00,7.085965497717501282e-01,7.973051425672518455e+00,5.243393215573416200e+00,-9.852552406008915353e-01,4.337027751992899582e-01,-5.594837257667791164e+00,-1.706877647183819846e+00,2.586086610685621512e+00,-1.935797845471816325e+00,-2.586007464345967399e+00,3.794287515863185689e+00,4.245251374824316137e+00,-1.150065780187710940e-01,6.583914516370391601e-01,-2.317065094407573522e-01,1.927539781711771205e+00,-3.725430473014152533e+00,5.559104815475237160e+00,-5.421782614689465873e+00,-3.207558639021458102e+00,4.452471927311102640e+00,6.107686219499548486e+00,4.394689456146939399e+00,3.710826123029840051e+00,2.384356200607596232e+00,7.360044224351784514e+00,1.402479962978497863e+00,2.413567075342400781e+00,6.802212954359944774e+00,5.557077543774157746e+00,-3.671433493387767921e+00,2.650570493891909241e+00,-3.448216740208563280e+00,-8.966510397996321213e-01,2.796193344496090916e+00,-2.150075148178239193e+00,-1.767921549002857695e+00,-2.326596178423091299e+00,7.975673318126268896e+00,2.793590309054006848e+00,-3.289163227937143219e+00,-1.428692201047322641e+00,-1.747547684079021613e+00,9.516460464882689152e+00,2.974850523801677138e+00,3.094342748116921116e-01,1.535988800142235045e+00,-1.348376692258560494e+00,-5.265882191305217397e+00,-2.358788007257598629e+00,2.405180934514122848e-01,-2.800477212842086283e-01,-1.467392210921962536e-01,3.658400796781976272e+00,1.205895095149815299e+00,-5.889639978071378401e+00,3.451985323577582143e+00,3.864795455807431779e+00,7.418316975196430629e-01,-3.750013325284650145e-01,6.587658161188468808e-01,1.425587838927711015e+00,-3.843990411132218732e+00,3.233046113663266219e+00,-4.757007924346002170e+00,-1.495860746122522400e+00,-3.124462768556936165e+00,3.685543672439622220e+00,1.517689459548369202e+00,5.518716391032532975e+00,1.169627828278644532e+00,-4.743287182750979269e+00,1.294175827590287042e+00,-5.444732066503114032e-01,3.346372923925405196e+00,2.211420106264739005e-01,-2.332674543194784622e+00,-5.936940098967971480e+00,5.100215262534125493e+00,3.830990745754080162e+00,-2.971731118354251855e+00,1.099951989832291943e+01,6.264931056812889087e-01,4.800733651250369327e+00,-3.884047078444779810e+00,7.085027831139646182e+00,-3.358241322566243969e+00,3.592022716404468241e+00,1.658743877024760671e+00,3.374510700830874121e+00,7.494255543096778105e+00,-6.595508446638630451e-01,-1.480716363708756367e+00,-4.466229626734867786e+00,-2.155056918873989424e+00,3.859907844896024898e+00,1.198169179678403529e+00,2.188123285558100317e+00,