-1.847298605712050963e-05,-2.622145181976842600e-05,2.094548076962586550e-05,9.548992906142259889e-06,-1.318773102296614023e-05,1.102612687745006986e-06,2.497743723529459255e-05,1.078724440271579848e-05,1.017734046138612767e-06,7.362833164907115182e-06,2.018795033230818311e-05,1.181489735468908935e-06,-1.203572779364283039e-05,-4.273755882593961849e-05,-7.074392645377553799e-06,2.775434269361681631e-06,-2.667302506470211801e-05,2.832289146410946193e-05,-2.398609257167816087e-06,1.115179004538005934e-05,-9.658076871617989278e-07,-4.359008044814071573e-06,-2.317793375173775021e-06,1.473772806844688199e-05,-5.295388558440304186e-07,-1.126212214607592105e-05,6.762712418625011644e-06,-2.046609816526225880e-05,4.746262968130675278e-06,2.936845689292499049e-05,-1.073832949248116046e-05,4.441617322953964833e-06,-1.007571109221592050e-05,-5.793791504151472365e-06,2.410833772417445332e-06,-1.670028992737312097e-05,-9.665854571619658518e-06,2.855493357059906362e-06,-3.990817541602368299e-06,-1.405438763801445706e-05,-1.169241479673901248e-05,-1.012134400372927381e-05,-9.920500017965245807e-07,-1.110324859544206485e-05,-1.025231302771445282e-05,-1.411508607081428014e-05,2.928808265031524656e-05,5.811430753153047019e-06,-1.330975577771985097e-05,-1.513415744963300847e-06,-1.200762573654537508e-05,3.452078743130167390e-06,-5.144218575992631090e-06,6.131149982686778430e-06,2.697612921683315351e-05,-5.901490046674016146e-06,2.643488032408515152e-05,2.419867386199209414e-06,-6.663046964229784888e-06,6.889957745007939692e-06,4.499010547157365033e-06,5.124654789614512068e-07,2.680044486243257674e-06,4.042966867962079105e-05,-1.807557534844288530e-06,3.014683726639788802e-05,-1.354437319618746199e-05,1.278983229586739379e-05,3.039830444732701710e-06,1.268071676709219608e-05,-6.454366147969236618e-06,-5.039097274942971098e-06,8.341690049343122789e-07,-1.787919879364905257e-06,-2.564665556837565000e-06,-7.387938410572666504e-07,1.366852737599050378e-05,-8.323497403090469911e-06,4.543677117381183577e-06,1.527028150902568615e-05,6.509703305847781019e-06,-5.150371398616560858e-06,-1.132438416098282215e-05,2.041480749558954293e-06,8.570528861183054746e-06,8.726472955390303505e-09,-2.792093127943157880e-05,4.168458402181425635e-06,1.341866848620378277e-05,5.341433271852415312e-06,-3.241251748697531292e-06,-2.312169316301525668e-06,1.810238574456937010e-06,1.404050401394999375e-05,9.623012697246663430e-06,5.974663720847931067e-06,-3.318520971045925089e-07,1.644389988576630787e-05,-6.615340177823036877e-06,1.286933958975670208e-05,3.664483316365367516e-06,-1.172283052284139953e-05,9.742727042683385719e-07,-1.258098462581688444e-05,-1.066979341773266661e-05,2.567830248199741207e-06,1.599491347837015502e-05,1.363358953713631540e-05,-9.409244358038453416e-06,-2.759530713489883974e-06,5.327288394317961269e-05,4.292026631952951334e-06,4.122612509189107395e-06,-9.069428707881066723e-06,-7.763596279033724019e-06,1.471130900479574650e-06,-2.090956702368761542e-06,3.864971986577982325e-06,-4.765758168111162114e-06,-3.530803437277634330e-06,-1.402409522860106661e-05,4.562901696629528631e-06,-2.736273786092971236e-07,-2.734819124790338125e-05,-1.168797982481500348e-05,1.025962571063508357e-05,7.954119761667553234e-06,-1.258810669129290446e-05,-5.990017346687227119e-07,-1.869388039520874195e-06,-8.679835782081629292e-06,-1.600929932052717747e-05,7.680046792702569005e-07,-8.361902578855462799e-06,-2.073619642763821947e-06,-1.209190258694634170e-05,-1.553372135484790305e-05,-8.587540085026796713e-06,-1.854040210171316137e-05,1.253695631563968735e-05,-3.236741495598255614e-05,-9.831030035451112154e-06,-2.399983840435987225e-05,6.442577398767317526e-07,1.282645986012018933e-06,-3.763661288541769295e-06,3.576511646831107541e-06,-8.618030290436227564e-07,7.052348376706101437e-06,5.776571459468766465e-06,1.357089272360462644e-05,-1.886194395759299410e-05,-1.229795023715267350e-06,-1.101303550760605589e-05,5.076931345891204162e-06,-8.920889832157718346e-06,-1.043945443727321170e-05,1.561332949980274884e-05,-1.455794357812402499e-06,8.791159456197621355e-06,-7.802189878779453635e-06,1.734808505520567026e-05,-2.481269851166538148e-05,-2.459978813046385077e-06,-1.227009765754302851e-05,-1.744980216224396264e-05,3.925721360877698862e-06,-6.868643938250236944e-06,6.816293152101691392e-06,5.540086326283602155e-06,3.878600190280530182e-06,9.405533122767764710e-06,-3.545871315740552044e-06,-1.707636382612463056e-08,1.139131251970307153e-06,-3.369429807127783501e-06,-9.614215931039556945e-06,5.373567314030320721e-06,-1.697457214003433133e-05,3.883657841356192217e-06,-1.803274731446025616e-05,7.965919759565700731e-06,-4.772420100494736593e-06,-9.322331277195521824e-06,-5.551849619993242310e-06,-1.155443270925676346e-05,2.810061883833712831e-06,-2.007512338115876815e-05,2.170848483543299045e-05,-3.346764926337490446e-06,-1.284340983392976194e-05,-1.292876442084829661e-05,-2.187294213085993620e-05,5.719218729425949031e-06,-5.864891617902020565e-06,2.709477850890399310e-06,-6.815723799295058274e-06,6.147112358127276993e-06,-9.294328946859146227e-06,-4.887069718625901261e-06,9.644609375278118794e-06,-1.668766212300947771e-05,1.433325619626469481e-05,-7.353133588250112980e-06,-2.710307115469492355e-06,7.753519255615790026e-06,5.257052022541476668e-06,-4.175642333974460187e-06,-1.053404462514575727e-06,-8.381038857048854869e-06,-8.408426119055559668e-06,-1.268126095333420474e-07,-1.059235028203151415e-05,3.333335572289519878e-06,2.941108830441277637e-06,5.698575372403473112e-06,-1.819147052798472804e-05,4.958770759111066963e-07,-1.175074370236251350e-05,6.678835510020564868e-06,9.223252566028755655e-07,-1.003501054078480077e-05,-1.232785904371088334e-05,2.748489922526972335e-06,-1.915679014510352209e-06,5.049892730905972485e-07,6.406628113506349956e-06,1.140992434615586658e-05,2.313067714025855169e-06,3.352092027767271708e-06,3.970672881116470565e-06,4.601360775389860694e-06,-2.046021216044629939e-05,-3.046039228353313423e-05,7.326068759841111241e-06,2.390399098763557772e-06,-8.948530643091305171e-08,-2.991137653561871409e-06,-2.634475471911324864e-05,-1.311340438226037677e-05,-2.694961264667172148e-05,-1.082303271435648848e-06,3.809107245531966025e-07,-6.343519294118229092e-06,-1.646896627504231941e-05,-1.189835297903782773e-05,8.109348629277969659e-06,4.412433296229756804e-06,-8.455362666071981138e-06,1.405074333540016141e-05,1.553659698752953812e-06,1.099104447185608344e-06,1.044087932121221999e-06,-1.635155175162706300e-06,-1.064084274995377752e-05,8.819619857195963345e-06,2.684429788361152120e-06,2.223966779553516307e-05,-1.181785633866467414e-05,1.767116836157385572e-05,-1.058590972927110621e-05,1.081560352148680149e-05,-6.964730229967216613e-06,-1.121325725411559714e-05,-1.401335574010723894e-05,-1.275679261786526892e-05,3.511845270762420800e-07,-1.691907639409414142e-06,-2.089361327104809847e-05,3.079636435284793493e-06,1.466703486372446503e-05,-4.089293279226305857e-06,-3.805417399885986098e-05,5.925182592332455344e-06,4.545368578280142971e-05,3.189527947390541530e-05,-4.978193571311374937e-06,8.640984011429229353e-06,-9.706124625045453466e-06,3.801729307024163718e-05,1.641075393288749765e-06,1.207990653324146288e-05,5.588619889591423384e-07,2.525155295290599766e-06,-8.360694167813105009e-06,-8.108326243028615688e-06,-7.103926252396017353e-06,5.652445850352234802e-06,-1.451426274958220341e-05,1.526739592966313414e-05,-2.690857931103720103e-05,-4.675449191174645049e-06,-6.544319994407385225e-06,-4.797348795175612671e-06,2.783153613258162157e-06,-2.129648770968393202e-05,-5.985533558556613817e-06,-5.026093837383310809e-06,6.436331683939968926e-06,5.954003245170951469e-06,6.448465549400179484e-06,-1.384272563993027678e-06,6.865700367477858220e-06,-5.148469088888604071e-06,-1.176261544789206340e-05,-1.680103120969940334e-05,1.267381693941588919e-05,-1.084616850953249364e-05,-9.906162528138965639e-06,9.960655898667180840e-07,-1.477405571127943754e-05,-9.026704517206227626e-06,-3.507850073758777575e-06,1.502057318277707749e-06,7.557393459447229947e-06,6.573654244356652422e-06,-7.127019432040342366e-06,3.130857704731193411e-06,-2.890278659282889811e-06,1.979979245892155755e-06,-2.016982833090214647e-05,-1.965002376457886669e-05,-4.860489040183856271e-07,-7.604647601373478199e-06,-2.357233511199428329e-05,9.450560468491054592e-06,2.790845864219260366e-06,-1.045430744521475950e-06,-2.245212393220046955e-06,2.188376949423812478e-05,-5.540149213109137037e-06,-3.315467757377437555e-06,-2.220819971658278457e-05,2.291867080166905768e-06,9.872331601214779263e-07,-1.741941473894304194e-05,-1.854178148717614002e-05,2.155660156741587355e-06,-1.115064424814176157e-06,-1.611844791561334585e-05,-1.526918917352242013e-05,-1.946698508114572240e-06,-8.273447177161206241e-07,6.708552577906837549e-06,-3.109352915194956722e-06,-1.575624619520228924e-05,1.211725815977460015e-05,5.568051007623797354e-06,1.286602713583246441e-06,2.858513693667935713e-06,-8.127435007168747952e-07,-3.776259394992895448e-06,-9.853182775644195494e-06,6.134144924774258599e-06,4.540341305246311020e-06,1.370336815801015197e-06,5.795306935997330980e-06,-3.023405886933723062e-06,1.864832645687817927e-06,-1.099692713243206840e-05,-1.792233047924169878e-05,1.273836207568654228e-06,7.495837271244206030e-06,-6.855767944355571136e-06,-3.487321146199258039e-06,6.376688801629901774e-06,6.108914735452486963e-07,-5.498313693765297611e-06,-1.025817214317836286e-05,-7.776846046136839843e-07,1.195487614864384919e-05,-7.750685636121527159e-07,-1.489713272407506551e-05,3.149753892361445827e-06,1.146609733232369307e-06,1.389903901780742337e-06,1.598332621186322931e-05,-2.300925044730766397e-05,-4.006960906701599790e-05,4.306723195808795508e-06,-8.323123483729375559e-06,-2.084446887846460185e-06,4.159073750282889717e-07,1.125768912897002316e-05,2.002272487473609448e-05,-1.219618888976895858e-05,-3.419475361128518110e-06,4.564588558397538916e-07,3.037265560319959628e-06,2.186960782168895638e-05,-1.739289149028664378e-05,0.000000000000000000e+00,-1.053102555313666230e-06,-3.755096166768612642e-06,-6.538109279694090578e-06,2.994177516326371354e-06,-1.231758365087049683e-05,-2.163784177220510148e-05,2.565332977200933821e-05,-1.239810844498754350e-05,1.142042211709753630e-05,8.532851977411000758e-07,7.102864717131637412e-06,7.399113308141698039e-06,6.118256550853298106e-06,-1.323828006412392140e-05,-7.215845780733340012e-06,9.856644042284398182e-06,-1.723978859267530697e-05,-8.823251989845336434e-06,1.075630788465631252e-05,1.079416359775840949e-05,-7.043693225614255895e-06,3.876113423635929600e-06,1.305632766338896294e-06,3.859830667126587643e-06,5.525014599787504908e-06,7.166384428840024975e-06,-3.695966952876126341e-07,1.200220381611074651e-06,1.568954536873985503e-06,-4.758559473770356464e-06,-2.080206657009744175e-05,-6.119399172572956992e-06,-1.130472080868362043e-05,-6.243324390243234584e-06,-3.500816882304541851e-06,3.334501229063838880e-06,-9.839499149084026270e-06,-1.410926914113343726e-06,2.699347020861265418e-05,4.201209777276892426e-06,2.060604308142004241e-05,-3.427023030601582400e-05,4.006632334270395444e-06,-1.604822098663861841e-05,-7.188844367243559456e-06,-3.035113675626597402e-06,-1.356695786196572112e-05,-1.395070089050783495e-05,-1.965000500175615028e-05,-2.626572969546082381e-05,-4.159462209978783175e-06,6.127290914650785204e-06,-9.153793464949508196e-06,-1.565355921542375820e-05,2.125161798717613550e-05,-5.888794575700513788e-06,8.584063080525064304e-06,-2.272418889912588912e-05,4.190152823990113534e-06,3.222577946318335425e-06,-2.762733162416592455e-05,-5.334884281384564388e-06,1.279745490740914559e-05,-2.199403900269060000e-05,-1.530231723896088695e-05,-1.534792096055939480e-05,2.150580985764929698e-05,1.149807227808310632e-05,7.342084893440770448e-07,1.780787248615417157e-08,8.057340004710192001e-06,-7.141138371306761955e-07,1.823852382117045423e-05,-1.354103129338276269e-05,-3.383127387530428321e-06,8.844785384377330231e-06,-2.445298703609683651e-05,4.135487459894315149e-06,6.269695702241368132e-07,1.154669791544410623e-05,-3.325790479978642248e-06,-6.013743118128994267e-06,-1.806394763992870988e-06,1.149958273949845744e-06,-7.766404909386803526e-07,2.407963478581050468e-08,1.366021442027491587e-05,-5.242980013788833157e-06,-9.696756284912248009e-07,-1.578651867477171154e-06,-9.762707874729504703e-06,2.724055450363121016e-05,-1.173134110423492358e-05,-5.710211581502496745e-06,4.878813820632174527e-08,-3.848400583466469058e-06,-1.099668611450012586e-05,-2.914473640845496740e-06,1.110757268984161881e-06,-2.121548059050771885e-06,4.772135626348186310e-06,1.155582062701330005e-05,-1.679745224160837716e-06,8.074545137761367515e-06,3.458047301068752782e-05,-1.438458053711207888e-05,-1.062347187793674259e-05,7.827732818823638606e-06,3.098966684975144726e-06,-7.010640342860394328e-06,-6.810503831066212015e-06,-4.413597449675768748e-06,9.870656771349138714e-07,3.639934581537205082e-07,-9.265443002521293908e-06,2.865733074236380485e-06,6.276334075681294426e-07,1.342351334361131226e-05,8.090732215891270900e-06,1.351094278731484552e-05,1.450617413894873886e-05,-1.360041579997661679e-05,-4.356201977576649630e-06,-2.516747086593504020e-05,-6.829608476267219042e-06,-1.956023276528590368e-07,5.966884638114116475e-06,-3.400085804298023487e-06,-1.644818019870804233e-05,6.538858187362206776e-06,2.259022484696667028e-05,-6.582805314219154003e-06,2.476255160278323895e-06,6.990954809064623886e-06,-7.304027881597445048e-06,-3.258513576571139754e-05,4.405014128323553637e-06,-2.984561193766565583e-06,2.986003044629375875e-06,1.247800293623625937e-06,4.470041143887883057e-06,5.218043730209496529e-06,9.194308489702052232e-06,-4.961172184085312241e-06,-5.612172886944320115e-06,-1.447752075217908202e-05,8.660152884804627388e-06,6.778438180825307806e-07,-1.045007616478026605e-05,3.448663500481649042e-06,-1.292072483067365662e-05,4.720386120401957678e-07,-1.342083277518130687e-05,-1.515234980059546330e-05,2.921366836316541795e-06,-6.558734356044436294e-06,3.905947138551547251e-07,-1.889454230659630955e-05,3.499184894371794460e-06,-1.254209278643121223e-05,-1.449949407925929294e-05,4.984164017148156952e-06,-1.123980754140568016e-05,-2.779186959326935982e-05,1.557576224850344449e-05,3.804054741452304337e-06,9.242097119444509575e-06,1.075420980605600633e-05,6.661857034589011789e-06,-2.752571175139034720e-05,6.343532224134458348e-06,8.247176712565861009e-06,-1.992056168789600918e-05,-6.792851342897448877e-06,-3.501597613427340601e-06,-2.251341455452863702e-06,-1.610129493030099690e-05,3.181446820301291898e-06,-1.632244308145062290e-05,2.375132771318525370e-06,-1.178283370421103100e-05,-1.933518033951996633e-05,1.949444498707665299e-05,8.826068874916967731e-08,-5.742140305276391543e-06,7.057083962582245159e-06,2.206661825616042289e-06,3.626658751416408934e-06,-6.505162046857857772e-06,-1.547586631306710323e-06,-5.002956584801005445e-06,-8.233798282624177903e-06,5.520420913794006633e-06,-4.692996136083032272e-06,-3.126413488828554449e-07,-7.000908136093155878e-06,9.994676969841625479e-06,-3.689110857108157494e-06,-4.662400246745037341e-06,-7.307579019735646786e-06,-1.058495849586461500e-05,-1.036083499274000426e-06,-1.066973470386164881e-06,2.347934287492362857e-06,-1.760326838602631474e-05,2.803809637032004406e-05,7.956249011254920670e-06,-1.623058504622639099e-06,-7.676453035545627388e-06,-7.844819241522353007e-06,-4.031962288674479493e-08,4.919216183437624016e-06,4.490486775289974555e-06,-1.026381757140672509e-05,-1.032756536078822402e-05,1.815958861594830384e-06,7.440626433970015382e-06,1.296980443524444820e-06,2.066865900813113886e-05,-3.986331215767869779e-06,-4.650030586761402221e-08,1.461942331311297675e-05,-2.554851298798602602e-06,1.350559778711643023e-05,-3.474847283913956869e-06,8.412695366096167320e-06,4.558260630811548789e-06,-5.240348039426964663e-06,-5.479836158452817579e-06,8.555314667990667724e-06,-5.238188755782921089e-06,2.505862306301991671e-06,5.212328345890697774e-07,-1.144526426321206993e-05,-9.349691933145814912e-06,-2.885684411406363530e-08,9.835447237629326030e-06,-5.694127659504678217e-06,-8.622590714456827549e-07,1.917334041028728703e-05,5.021632945709042694e-06,-2.554517114220428354e-05,-3.764426640977357841e-06,-4.934381365992461502e-06,-5.038542583853346001e-06,-7.105586266001535819e-06,-7.381190434851717437e-06,-8.284360403861548843e-06,-3.292991535922708947e-06,-3.312437111819561259e-05,-1.647329400432664148e-05,1.699040212904941335e-06,2.730521874045859434e-05,2.016611969242067446e-05,5.066243372026560231e-08,-4.403918255647860912e-06,-2.146609086129535273e-05,1.674927059852769745e-06,-1.367031077855297374e-05,-2.849493453596482573e-06,7.473747305027323677e-06,-9.304860559492983575e-06,-6.666139510428872234e-06,-1.125718030634120002e-05,-5.316572271999643667e-06,8.747650874800439786e-06,-6.634630822686320485e-06,-4.428755227454302056e-06,-1.522423473220122291e-05,-8.494938815179944164e-06,-1.298574948218983846e-05,1.084160395637258443e-05,8.124573398820971818e-06,4.431655760382285336e-06,-3.133770630897000207e-06,7.684363547436761182e-06,-4.103327853161133074e-06,2.203616677242245788e-05,1.324454494147182389e-05,3.042255677434985426e-06,-1.902677668672746494e-06,-1.347511689577026375e-05,1.648857592711999536e-05,-2.756931620967271767e-07,-1.013434754242830939e-05,-2.284827388973750470e-05,-1.416131387070561356e-06,6.101448371552209536e-06,-2.100332754129639122e-05,-7.090420553058269336e-06,-1.218787276749103539e-06,-2.945284364606257416e-05,-3.143562619328958259e-06,-1.214167235413447286e-05,6.219663119473460158e-07,-3.625532639817796694e-05,4.325857238220712379e-07,-1.520855229914712818e-05,-1.501642706864942636e-05,-3.503210210625967256e-06,-1.056372699362157157e-05,3.717938288835352775e-06,-5.123185144535400876e-06,4.190001262590658345e-06,6.381311693936879596e-06,-1.128174449028641333e-05,-8.239733940045884566e-06,-2.078364660210260683e-06,4.850615556973102664e-06,3.497338183478544050e-06,-4.443166003122463601e-07,5.719708666327810586e-06,-9.096566358574095649e-06,-1.109421371529785692e-06,-2.804075336801484884e-06,1.355361936726161309e-06,1.426673079416270638e-06,-2.008833281316832570e-05,-4.874584837309971536e-06,1.507048683163090925e-05,1.383370117044933151e-05,1.033028038728664539e-05,8.208529402133415298e-06,-2.536067341256607110e-05,-1.500913950696175335e-05,4.718357621784443048e-06,1.113774388236180403e-06,-2.420686169774898436e-06,1.282847549673773279e-05,4.113012651257555286e-06,-5.625361089976871400e-06,1.708520810422221918e-06,2.342962463324991188e-07,9.042269277250116185e-06,-4.374558335752531771e-06,1.936747176597760099e-05,1.099224713691446298e-05,-3.525457465069986660e-06,5.595561564899148517e-06,-8.437209893680627898e-06,-3.124943886840418817e-05,-8.724027301340800812e-06,-8.438637726458293774e-06,2.547727418099504342e-05,3.160565417039635301e-06,-4.705647466497658452e-06,-4.723701169728625879e-06,1.496432162257870551e-05,5.319811136518367256e-06,2.503307751674351181e-07,-1.147846697870729088e-05,5.489142898046417472e-06,-1.126855401042306905e-05,5.884227358412192339e-06,1.193300879400793316e-06,-3.607972699625994383e-06,-1.745524652799482863e-07,1.835127426386126297e-06,-7.787996986545466866e-06,-3.842495939017486826e-06,1.565291662210244783e-05,2.074051188280751843e-05,-2.800906790112758389e-05,-8.128353883581846063e-06,5.119957422397279656e-06,-3.528699378179162562e-06,-2.166820911594096355e-07,-1.065034140148300451e-05,-9.560987154692173525e-06,6.478760929051942345e-06,1.609793499561536950e-06,-3.752003690879462741e-06,-1.000796524755243359e-05,7.495038325491666446e-06,-2.038439787931796649e-05,1.605027048414233749e-05,3.083686152872068559e-07,-1.347736025074961435e-05,8.034452054190378956e-06,-7.014764484173749826e-06,-4.964472497130931791e-05,6.489641505021799222e-07,-1.685139117045170242e-07,-2.841717341963913913e-07,9.608117192678450590e-06,-1.992476281059761371e-05,1.412999129567734398e-05,2.091739017842852709e-05,3.449002565175162411e-06,1.148253282617202988e-05,-1.266036255464922815e-05,3.161229500962926218e-05,-4.656314860837154753e-06,2.085761442917931405e-06,-2.552376622785902682e-05,-1.403640827263239430e-05,-7.624819438058265523e-06,3.384936390076173141e-05,1.230211202651081140e-05,2.314479794311850641e-06,-1.625949170388902546e-05,1.977719253728814247e-06,6.173024443403404378e-06,-1.324937689722313737e-06,1.072036952350592470e-05,-6.243597881890617948e-06,-2.882649134311977775e-06,-3.596647262066862375e-06,-1.018619031104047980e-05,1.288002397095116025e-05,-6.191476370716243833e-06,-2.922893393123336960e-05,1.180325403664502052e-05,-5.012782303508929967e-06,-2.604267186492088842e-05,-3.732514445710337963e-06,-1.017585990605711658e-05,1.351432118359895967e-05,-5.809491603654909101e-06,-3.796547456384258378e-06,2.728619490700980949e-06,4.004102193247387972e-06,-7.189495939056747114e-06,-1.420693798399370064e-06,-3.595156182897246651e-05,-1.585115885205329127e-05,9.842404969509696691e-06,1.411099494056378507e-06,2.091282788613088401e-06,-6.565171663527988526e-07,2.768709956814321032e-07,-3.515121917726236108e-06,-5.016210630640259663e-06,-8.045524166623991470e-06,-9.521130836789274869e-07,3.493018302028925792e-05,1.900558587378754210e-05,-3.652742497852335885e-06,-1.830550317502898513e-05,-7.989301629150827536e-06,-4.871742831555286345e-06,2.535986117801625505e-06,2.498663011664678902e-07,-2.763937181366771877e-05,-8.918176217219762729e-06,9.472435108770947597e-07,-1.137598372279341496e-05,-1.433453646198426981e-05,-9.153414258860452648e-06,2.146559804306422430e-06,5.309150972402050491e-06,6.514165944739325457e-06,6.357506028601035906e-06,4.744361287820211348e-06,-1.064302141362021029e-05,2.108789587275624160e-05,-2.335726819136660972e-05,5.261787940082741444e-05,-6.822761677663421541e-06,-1.148594710544616920e-05,3.307209532988850961e-06,-3.812790125648091392e-06,-1.688307395620290097e-05,7.898799349310070542e-06,1.227692915549767180e-05,-2.121161782685017755e-06,-2.006875238085214784e-05,2.140714329267509575e-05,-1.480882535736478910e-05,4.946964421936462505e-06,-2.045538991721375428e-06,4.100127140730485148e-06,-7.596513101031236894e-06,-8.437054967001614537e-07,1.636646422980690441e-05,9.748007044819763383e-07,-8.510499563118815942e-07,2.712194537753268977e-06,-2.098212865248087966e-06,-6.841559922389182788e-06,1.968658052314703081e-05,1.632081000362976820e-06,-3.336830106273626493e-06,-6.307762830977271078e-06,-9.501250247484998814e-06,7.852303214610287439e-06,-2.539087241036623750e-06,-1.179039960486459666e-05,2.052961038747861378e-08,-3.904052739538440850e-07,-1.895800255897417828e-05,-4.148846170608372488e-06,1.713207566599164516e-05,8.673447115921491124e-06,2.867937535232450824e-06,4.513342699513699861e-05,-1.001104755677411578e-05,-2.116953456258652134e-05,-1.064164161480140103e-05,-2.909242611720734784e-05,-9.089907693064697066e-06,3.179977535489545633e-06,-1.371477321396793133e-06,7.630518110596214512e-06,-4.023912559623683121e-06,3.248681090748879332e-06,-2.336541455433235880e-06,1.168302311229301260e-06,6.692903745974180471e-06,1.592223273338908357e-05,3.168738998098241478e-06,2.649076887740365968e-06,6.981947279616472377e-06,2.452677264749664754e-06,-1.853590687222993408e-05,5.486119246506272881e-06,-3.623426660422374976e-05,-6.278925706004308861e-06,-1.889575789207463772e-05,-1.037031426133362469e-05,3.505691857191894342e-08,-1.261335502571439608e-05,-5.137740183461169340e-06,3.499450354967992454e-06,2.135962830055543092e-07,-1.214405705946109985e-05,-1.469894776584571617e-05,1.280262517402524167e-06,1.332385265135490078e-05,-9.864595850022831293e-06,5.141911863854934281e-06,1.475420588786057276e-05,-6.972454543578646440e-07,-9.484695421942900370e-06,4.344791881740907320e-06,-1.302596523582138699e-05,7.741770075997046836e-06,-1.854809690249067974e-05,6.042920373342769127e-06,-1.690035489902464187e-05,1.741154572939190631e-05,-4.443270106852714067e-06,1.677580723724343288e-06,-4.579091952282345248e-06,1.501181482356110944e-06,4.578249166328101921e-06,-9.950110418541928423e-07,3.776323053084171186e-06,-3.394591713968449085e-05,-1.242383771842472877e-05,-1.421455614629205376e-05,-1.160593831891985195e-05,1.467951093892172886e-05,-6.384375076422052830e-06,-1.324059276628036805e-05,7.804644182126289609e-07,-1.440689399714634210e-05,1.781994263704078022e-06,-2.029198876967723851e-05,1.460031858486727901e-05,1.908377150201981496e-06,1.778663105965765057e-06,-6.864068277344594256e-06,6.627148200967326001e-06,2.077471839054098504e-05,-8.036729994896049710e-06,1.483720294895417807e-06,2.642848118865484820e-05,-7.981777124912805047e-06,-3.573894744689685933e-05,-5.868889559934427022e-07,5.420775776787098645e-06,-5.185451082195951705e-06,-9.055986690231403459e-06,1.717424851580659872e-05,-1.001022998371763969e-05,-1.613494176480115148e-05,1.204298721879107599e-05,-7.398438558205955715e-06,3.791134562670313730e-06,1.677585987177522106e-05,-1.395688088607603863e-05,5.311964226672577576e-07,-8.717531025287749124e-06,8.918579586940773130e-06,-2.289274880628977804e-05,-2.268192962594329723e-05,1.207642332881035307e-06,-7.099827877519157072e-06,1.478328796726018275e-05,-5.905625339593614283e-05,-1.785732033686306239e-05,-9.259825285678050698e-06,-2.154682469648481531e-05,-1.758727957622006400e-05,6.986508968868736756e-06,3.062757883831582147e-06,-8.360248095526439123e-06,3.783530205357997365e-07,-2.058734513871283949e-06,1.631964983864624309e-05,6.153816199681207884e-06,-1.374961481076306718e-05,4.785093834648212728e-06,-9.034551505365765792e-07,-1.502367139202363924e-06,2.039440733155345085e-05,-7.551845836913950342e-06,-2.688099005122033129e-06,-1.709288527311958296e-05,1.009853067649631796e-05,-2.443399315582379970e-06,1.061513531270837408e-05,-7.318556604743569810e-06,2.519582496363669481e-07,2.607512727532366692e-06,-6.771022286060296681e-06,-1.923915233276585061e-06,-8.696534476658299392e-06,-1.133751436719151119e-05,9.561614002030629386e-06,-3.160457065728583926e-06,-2.835778688001074254e-06,-7.667789696673700767e-06,2.362557162261822244e-05,-1.476434225115809985e-05,2.136215112353102703e-05,2.379071420532552036e-05,-1.600678990027352896e-05,1.535951351782411549e-05,-1.997150288691109639e-06,1.816590607592552084e-05,-1.633022858659768983e-06,-6.256791974913654490e-06,3.809703601416485108e-07,1.331330122528355081e-06,1.739035874717540013e-05,-1.356078029413004722e-05,2.763528210233646352e-06,3.038480686914612531e-05,-4.090886268324274528e-06,-1.859195305152306157e-05,7.254545197262797803e-07,-7.932517780102318598e-06,-5.467838167234825954e-06,7.213946865907328714e-06,-9.029124489835008342e-06,1.838232517052599453e-05,-1.805657128265835367e-05,-1.733185807449632508e-05,-2.659426757995513641e-08,9.047324637809746641e-07,-5.200585087057921412e-06,1.005246165469865048e-06,-7.531398780177404939e-06,-7.919298261819105502e-06,1.535971974408864552e-05,-1.161836763467202463e-05,-2.181327105502951205e-05,-4.058462958015907990e-06,-2.095017034537580911e-06,-4.621990884694870924e-07,-9.751426921183343739e-06,4.113989000097713436e-07,1.151427033492886076e-05,1.839014813844946642e-05,-1.216480898348907773e-06,-8.141276575658887161e-06,1.435008886919202132e-06,-1.338847263341159104e-05,-2.220051481355249644e-06,-1.250564290027174039e-05,-9.507493989099402844e-06,-8.260369832983921495e-06,5.509204477725297961e-06,3.111015477762818553e-05,-2.009217507262537616e-05,-1.267913646311494756e-05,-1.352958428891094729e-06,-1.516810923665951439e-06,-1.024585007784368768e-05,3.158739480194086243e-05,4.437333231779637723e-06,7.632970094812401748e-06,-1.703423436699436484e-05,-8.376659767610479564e-06,7.853901462689771010e-06,3.744425238172139498e-06,1.206471129789368803e-05,1.806916565760253687e-05,1.196818168090181657e-06,3.044753698787322309e-05,-4.824683491836971981e-06,3.830784825800518273e-06,-3.381326349153947287e-06,-5.412184798945949192e-06,4.727658013691862985e-06,9.476082494492104989e-06,-1.932105851394814595e-05,1.337849458526417396e-06,-1.230527382680517711e-05,1.146294721982953605e-05,5.083137072394740535e-06,-3.257558666932605443e-06,5.660691814318002450e-06,-2.847874039359597922e-06,-1.788361948223944639e-06,-4.563390083133023062e-06,-1.210060274213815004e-05,-1.100553381143844909e-06,8.353925649499993326e-06,1.424427840557178964e-06,7.554970270313102791e-06,-1.135002890759989044e-05,-1.333952267859678832e-05,-2.336152140420231043e-06,-2.163366833099839029e-05,1.843146262248226730e-05,1.176443856332017145e-07,1.660725232342334724e-05,1.476350544556462150e-05,-1.423636434265632116e-06,1.991346074460167536e-06,7.934473295296371129e-06,1.478866871979252055e-05,-8.754607109335266926e-06,-1.442614544305552346e-05,2.399640150214993506e-06,-3.529961893649034996e-06,-3.642702770228097890e-06,1.187958527380719613e-05,1.570303703411291682e-06,1.399545153255595603e-05,-1.224665861746975358e-05,-3.659459935756540609e-07,-6.299454999781582202e-06,-2.955479172137905091e-05,1.080888718020626486e-05,-2.811786381230758073e-05,-4.607290399845866083e-06,-1.186755084998276447e-05,1.744898299966656536e-06,3.817115671279314240e-06,2.461170375377545500e-05,2.106549531456153361e-06,-1.601991544086508727e-05,5.413222674994741929e-06,-4.833090739482607096e-06,2.406410579388035000e-06,-7.045977189203329531e-06,1.083602716393016082e-06,2.982721209246358270e-06,-1.859698729695128710e-06,-9.740794190463287926e-07,-1.165118475053307668e-06,1.168849360643839956e-05,6.792496239364493727e-06,6.971693749727982230e-06,-5.145034083204692231e-06,-3.674792245136605074e-05,2.998804969215237542e-06,1.526734685222080036e-06,-7.656175982886396237e-06,-1.307210141269164073e-05,-1.024797885053240437e-06,-7.860181620268625029e-06,-3.400945310271859284e-05,8.300236891608724305e-06,1.379223776904359208e-06,-1.916600625150777834e-06,1.209142193081256983e-06,1.462870151917304663e-05,-3.527857485511275409e-06,2.414377279018767598e-05,-7.685932056636512010e-06,-2.582471099937641894e-06,3.553806826503119099e-06,1.534718661039892427e-05,4.496646062494688288e-06,-5.335302871578469626e-06,1.390874223490473285e-05,-4.523238201905552054e-06,-5.658694133040382640e-06,8.006051925159829487e-06,-1.654063243540025070e-05,-2.143653976927920602e-05,2.022964248220345476e-05,6.085620783443929673e-07,-6.874163338982315933e-06,1.468168644216917251e-06,1.442372575561399640e-05,-1.701172873139094577e-05,1.841079518408682541e-05,-6.012629778410113087e-06,1.191712828922799864e-05,2.180426542586718134e-05,3.472720423770458081e-06,-4.420939643299235580e-07,-1.752079604633913874e-05,-9.592519384809131684e-06,1.175162577226344605e-05,2.595586352011867924e-05,8.006277794744014710e-06,7.099187674831430293e-06,-7.770694941143610365e-06,1.127093891836694641e-05,-1.683722502648569744e-05,2.646436165918608147e-05,-4.206868449195632121e-06,-5.792820803489691784e-06,2.644798141786029633e-06,-7.118865508347268649e-06,-6.851148554147741270e-06,2.468598026480979403e-06,4.466478739606359111e-06,-1.348834943350830125e-05,5.050852617951501502e-06,1.070239022467170467e-06,-9.946176286942786114e-06,-4.568861885564015641e-06,-4.401848497055374772e-06,4.687577961872447125e-06,-1.350449032232371597e-05,-3.299657173452456105e-07,-5.808267023026559840e-06,2.264757761947423938e-05,2.881421786376139990e-05,-1.028589567406315503e-06,2.360376506063377541e-06,-2.117218917837607315e-06,-5.126827199278830402e-06,-2.900618428024669151e-06,-5.381419421326629337e-06,-1.544774284271011220e-07,-1.287447007495129403e-05,-2.763030060731568108e-07,-1.642799781135116365e-05,-6.323431507970998269e-06,2.986013826931977485e-06,-6.024876869504325494e-06,3.009838337155511874e-06,5.367045778398322608e-06,8.773528552086587694e-07,7.588776066055182588e-07,-1.358851796876718946e-05,-8.810826657083719910e-06,2.885243965366807335e-05,-4.234878946901721168e-06,-2.147758169589411123e-05,-2.366727702703995810e-05,8.160640940262820387e-05,1.782087772674392597e-05,-1.984311655182244042e-06,9.573651324012315389e-06,-6.197195282095502300e-06,-2.290785593913017544e-06,-7.827421507495087735e-08,1.738792980552955686e-07,-3.988041623975574094e-06,1.007293148713952848e-05,-1.875711099171664589e-06,3.514039068689971009e-06,3.507647864531579746e-06,-3.233583373151927622e-05,1.129722336559481784e-05,5.928576353195885222e-07,-2.278998066023490855e-06,-7.152811681372282694e-07,-1.135641080923014727e-05,4.283938086632934421e-06,-8.122762098587766238e-06,-4.416058734651406849e-06,-7.668083216142410383e-06,3.506318946506203521e-06,-1.959876758004030226e-07,-1.123804951191268345e-05,-2.337329488844955722e-05,0.000000000000000000e+00,7.433232978307598558e-06,4.571120947047183143e-06,-1.068722603293308421e-05,-9.855621626151228859e-06,-2.314594316740758650e-06,6.224496226652675248e-06,-4.392273933480671354e-06,-3.679538460610417103e-06,2.151813829825051304e-05,-6.737816061217240046e-06,-1.569248883829363123e-06,1.220410252933365129e-05,1.136010335617932426e-05,-4.047971606056984729e-06,6.210176802456525963e-06,-5.342455929929795476e-06,-1.800295995555580263e-06,1.556451721890272558e-05,-1.855028448888057348e-05,-2.118494291440682352e-07,-1.879947046623022056e-05,2.550317390165878000e-06,-8.968594576133805587e-06,7.261191962369278726e-06,-5.370102972123343064e-06,1.246029001805066353e-06,1.047568073827461881e-05,-1.357907337444899132e-05,9.116517567985103307e-06,-3.475596576369295870e-06,-7.430911082954841230e-06,-3.752366928101204506e-06,-1.713463810086196016e-05,-2.326282141000006227e-07,-2.392508656508234783e-05,-6.728306043021287235e-06,-4.945906188897702827e-06,-4.491634514426975713e-06,1.003969263078839110e-06,-1.442849268461306735e-05,8.701195376268339160e-06,-2.990454530135022064e-05,-1.593279174930304105e-05,8.500945524205883819e-06,1.754741223156573322e-05,-2.363136168149437569e-06,1.959263468746200520e-05,-3.357716751689839666e-06,6.927801738611965351e-06,4.841292858142542787e-06,8.213419622988326753e-06,-9.212598889834279378e-06,-1.772221242013264205e-05,1.957854836839174167e-06,3.077291434344937957e-05,5.633170293945059475e-06,7.548180825477173686e-06,5.926240508344144500e-06,-2.450511108079898477e-05,2.136695743681275089e-06,4.800000644433890087e-06,-2.069341859063262502e-05,8.870378913194699707e-06,-1.691002277299683232e-05,1.839081072789900415e-06,-3.459978092601644425e-05,-1.929090830965560159e-05,7.505138967434740237e-07,-2.743129613203579392e-07,-4.010076537804747220e-06,-6.638070556612034185e-06,-3.011764425107390275e-05,2.154647917994177554e-05,-1.543682522854588371e-05,-1.591811177797511275e-05,0.000000000000000000e+00,-1.373082570409380886e-05,3.477562011486874017e-06,8.767033566129997621e-06,-1.071955708930727509e-05,3.989738861900289761e-07,-4.017140976880722951e-05,-2.608188527294398438e-06,8.543971119958702182e-06,-1.522282570688193625e-06,2.003148061485125346e-05,-1.398574865122356013e-05,-3.165800614628679860e-06,-1.444769591881552712e-05,-9.783621418078181350e-06,9.735754917123061889e-06,-1.246099728282377246e-05,-2.033448334326477076e-06,-1.218985472929957645e-05,-1.535050179026719544e-05,-5.144520990788179989e-06,5.949647609027028799e-06,6.688099911753914131e-06,5.330283372610557288e-06,3.431879279727726479e-07,7.497863801613881316e-06,-2.728716199272090170e-05,9.874453306091457420e-06,-8.591101869700173215e-06,1.528282668036159988e-05,6.265063475075843454e-06,1.612546315389479934e-05,-3.092767117686858484e-06,9.236358882308425783e-06,-5.655187050309438828e-06,4.773187620822942778e-07,3.357803692198551161e-05,-1.402021374739507145e-05,-4.766848988164149665e-07,-8.475977978985601804e-06,-3.001238842401149544e-06,-2.878166700129269236e-07,1.852065730669602000e-05,-1.216908494238246322e-05,4.389110127833805717e-06,-2.224627045073344170e-06,4.842135825424849302e-06,1.611926702819085200e-05,-8.990623507837522234e-06,1.210093457342701175e-05,-8.607896138587509211e-06,2.890055415340938620e-05,1.021445902655751668e-06,1.203765956037705144e-05,2.171564430529762808e-06,4.822247364645578488e-06,-1.131309452651194671e-05,-8.546323495348778752e-07,2.109668909890948809e-05,9.017373195889456290e-06,1.959985675744202658e-05,1.047351412530562650e-05,4.287041913415437993e-06,-1.715551712635231084e-07,3.323972165398200774e-06,-8.518257430028898421e-06,-4.833271271534897103e-07,-1.732367994083174010e-05,4.319635568031191528e-07,-1.838954659983194392e-06,-7.108842039908697951e-06,2.625669276692000136e-06,1.892267398287704879e-06,5.554776189270586449e-07,-9.235009349303043423e-06,-1.672535712998414112e-05,2.712529227327652276e-05,-6.113245136238413956e-06,-7.185090982512338401e-07,2.725181870223755038e-06,-3.167318360561392098e-06,-3.060847447015168754e-05,-9.717917246918717601e-07,-6.586802805621853570e-06,-2.471952527369264670e-05,1.029778257768361119e-05,-1.270521314455557501e-05,2.326609699407000283e-05,-1.029427698205439518e-06,6.764672730369393372e-06,-9.709120104544966608e-06,1.843114844010385723e-05,-2.007105005919140593e-05,-1.665449915950484051e-05,1.151507749364934358e-06,-4.175022601934594109e-06,-9.191926439273243420e-06,1.887514849646477002e-05,-9.345747684801488742e-06,-1.495703512435326954e-05,-8.209533354057751126e-06,1.270101242425263456e-06,-1.541967369187376097e-06,-8.010730257325825813e-06,-5.344792107632773751e-06,-5.106229267058323187e-06,2.468346772345498797e-06,9.523661683762494823e-06,-8.038445004299472066e-06,-3.787426908572097204e-06,-8.441736978024697881e-06,4.436526620402385759e-06,-2.149896923133379217e-05,-9.059023854435163523e-06,1.624931110007203045e-05,7.804173198393239428e-06,-3.249275492123117928e-06,-3.031925159530092310e-06,-2.680285778892841189e-06,-1.280200232253361143e-06,-1.996786576273591659e-05,5.570261117188355497e-07,-1.052760132951539315e-05,-4.473858450047105516e-06,-9.993666704581157830e-06,2.073254455210622805e-05,-8.385676555934347647e-07,-7.260911674204696533e-06,-2.196439019687615028e-06,-8.383170007970492860e-06,-9.953569245925766366e-06,-4.432453905282110563e-06,1.572877839634487588e-06,-3.761618655595991997e-06,-5.763504547930943886e-06,-4.848026514567695288e-06,-1.899484695047671276e-05,1.095616434104550214e-05,-1.160098207667989743e-05,1.483440285080843257e-05,-1.472640923715294841e-05,2.728324801747532773e-05,2.898699178809016486e-06,-3.473896661332207125e-06,1.899653091684901337e-05,-4.122763235593574096e-07,1.537033458452426778e-05,1.289304228157042842e-06,1.776466842137628766e-05,-1.235261380564217221e-05,-1.000655401872832626e-05,-1.290650818744889375e-05,6.787074625407108130e-07,1.068195819521282935e-05,3.790652552099321196e-06,-6.358587646871226604e-06,2.305483402805687073e-06,9.080685045764431146e-06,-1.014417412721211660e-05,1.539953422748691379e-05,5.918091081706894178e-06,5.014476804175277527e-06,3.649564710237176361e-05,1.311032555820373539e-05,3.059503115949038230e-06,2.091070801230465596e-05,-1.140728419955327768e-05,1.607738651554241693e-05,1.433427809563333752e-06,-2.251575554273485227e-05,6.192962796210496343e-07,-4.833323886865195444e-06,6.681632236489290436e-06,1.747387085946659145e-05,1.635252234985510707e-05,-1.519150167989432195e-05,8.196188809562117257e-06,-2.013106367543226452e-05,8.552033197826398867e-06,6.952747974371637513e-06,1.293864000484163475e-06,-7.620564406305275110e-06,1.599453812298629187e-05,6.546389809701490981e-06,-2.267398908914099520e-05,8.535426696336640445e-06,1.608178834272033141e-05,3.657468101380803713e-07,-1.961321602974180447e-05,-2.267799361187116934e-05,-8.127430614807226405e-07,1.818808950816163118e-07,-5.407872712474779373e-06,-7.130649062078430442e-06,1.351958078775499179e-05,-5.180299172632012938e-06,6.610434649163956002e-06,-1.032368146680893790e-05,-1.353505297106460404e-05,-1.085013651124700633e-05,-1.092694083773539332e-05,5.669577597619262236e-06,9.692438279251795994e-07,7.415388580774405643e-07,4.123892698558676678e-06,5.298257802110516390e-05,-5.201958994517137363e-07,2.838873198310030253e-05,2.018648890545587363e-05,1.716658604916236796e-06,9.766601310698468132e-06,-4.995333557771967110e-06,-3.738632282026884700e-07,-2.969848059828553528e-06,6.637732968871412402e-06,-1.280352734462867249e-05,2.297338718188872318e-06,3.216468345889338730e-06,-1.996465232651272567e-06,1.295455648955946743e-05,-2.197582974001355045e-06,-3.630911697246880684e-06,-6.671929744128233085e-06,-4.137608351657141929e-07,-1.205562290857701654e-05,-9.152118818555575136e-06,2.111297804870456636e-05,-1.071731463169929610e-05,1.371811851904226985e-06,-1.592308883861656250e-06,4.955150677948501526e-05,1.006306494776058631e-06,-2.045877902156650297e-05,3.563908692741408430e-06,-8.408083624098754629e-06,-7.283834320308776143e-06,-9.570797564531951908e-06,-4.798111232451381255e-06,-2.691922684457393691e-06,-7.993035363458421026e-06,-1.232782450480344707e-05,-8.393175895467008940e-06,-4.211149951715717264e-06,-3.256165741583080093e-06,6.462782203273304613e-06,8.000784279131489110e-06,1.201459813765116467e-05,-1.102367861415349734e-05,-1.040121559712042032e-05,2.566197959105873187e-06,1.475994973283996648e-05,-1.668479854884399478e-05,9.546570639411042333e-06,-2.068465957374804966e-05,-3.755546355260109160e-05,-1.853058860035175047e-07,-2.746291349684279093e-07,5.190234102090343177e-07,2.291938694940292964e-06,-2.291126602231153714e-06,-1.633311233366306894e-06,3.728142204329717876e-06,-1.155528400473019505e-05,-5.762577066200165029e-06,-1.961395111268700837e-05,-1.139434513363358968e-07,-2.820011597933176761e-06,1.428585831206880646e-05,-2.257782385908526858e-06,1.385462365523182554e-05,-9.788391809703682357e-07,1.456314315238779053e-05,-1.211758896235026021e-05,-3.879110344906578611e-06,-1.858346858026966987e-05,1.640425327475301178e-06,-1.708326390257363116e-05,1.922301602475078302e-05,-6.395423820082217474e-06,-6.664499396913339772e-06,8.596958165864119073e-06,1.126451036333076626e-06,1.033482195468231082e-05,-1.858739690408782620e-05,7.461965092527456613e-06,-1.111307658585791863e-05,2.834968845150898840e-06,8.980946328394312877e-07,1.070791012910686782e-05,-7.939451047276700569e-08,1.672170082549652336e-06,-8.142570806479071624e-06,-7.921593277065850630e-06,-3.494320698307683086e-05,-2.258612448553124491e-05,-1.281369337628526580e-05,7.180908813697129112e-06,1.725202393096280916e-05,-4.466622215916576415e-06,-2.420129195630784216e-06,1.715782787515155862e-05,-3.373102441757591571e-06,-1.001914996193174619e-06,-1.373474601606103045e-08,3.275529221090837077e-05,-6.149664810840470774e-06,-6.455690812308485164e-06,6.305413998511043958e-07,1.327353083056911157e-05,1.833870845684720620e-05,-1.052328338004922952e-05,-1.689970670177938785e-06,-1.281362682968189438e-06,-8.066288955976910438e-07,1.322964875564335485e-05,-4.911770761581622217e-06,2.819466335620436626e-05,2.651537444238656858e-06,-3.729674347595110378e-06,-8.739940352212554668e-07,-5.479994877847325167e-06,5.279723535207260455e-06,1.336565900364569982e-06,2.141307370079563066e-06,2.242421590407629866e-05,-3.268838815277040155e-06,1.347196875199649083e-05,-7.392461779399815966e-06,-3.285090098782577103e-06,2.186471603517241683e-06,5.397953286002291205e-06,1.427284454519354118e-05,1.412576813680626521e-05,1.030618294475203192e-05,6.897010887324198040e-06,1.126635713811252704e-05,1.198388217454337584e-07,4.005013772991046514e-06,5.760805247058821406e-06,-2.669344154727691385e-06,-9.630079902024085031e-06,1.146376926388842431e-05,-5.629922974452091758e-06,1.088793952622607902e-05,3.697788639501200366e-06,-1.021535776037842161e-08,-7.369122457488948848e-06,-5.579060485214479115e-06,-4.146104417719896932e-06,8.973014995457511054e-06,7.701662522010002283e-06,-1.112635725525423901e-05,-9.717557718459341810e-06,-1.854298536116990455e-06,-9.698076182106649652e-06,7.593273936111937207e-06,-3.663772603272591094e-06,-6.411649716298399469e-08,-1.524939566685870189e-05,8.036900612193188182e-10,4.561194177872825101e-06,-1.505276629038820326e-05,-4.464008905408870811e-06,2.419550548652245632e-05,-5.452313051048106700e-06,-1.148565430668942896e-05,-7.342553069525577720e-07,3.702870287947242418e-05,1.286909801696471140e-06,-4.059905553590524270e-06,2.117909145132319031e-05,-1.779393287758210872e-05,-6.879437122326179181e-06,-1.855274580764675125e-05,-1.752639566307471071e-07,-1.387568429848773807e-06,-7.273847627553120776e-06,8.874933667630910568e-06,4.109310079722648294e-06,2.770258962112781477e-05,-2.060242195078065827e-05,2.301760840877605293e-06,-9.231154570147329495e-06,-3.256043433990357001e-06,-7.355597733664757033e-06,4.092175501838435072e-06,2.766832699755580974e-06,1.547135267300115574e-05,-4.120993067243445276e-06,5.934108643690913530e-06,5.250384663895789549e-06,-7.775305209709447332e-06,1.367889258258487032e-05,-1.395906241662094200e-05,-1.864042105348428886e-05,2.154076866413815395e-06,6.805366800681088972e-06,5.212773590350422193e-06,2.385770560270533542e-05,-1.932801054748067987e-05,1.484331525384055992e-05,-9.304715305309078905e-06,7.422857930063962183e-06,-3.878591290948071245e-06,9.325135021252443525e-06,5.876355676372235316e-06,-1.093429027115681252e-05,7.440374633702317094e-06,-1.479113114923662030e-05,-6.645102849128027102e-06,8.754195752439060185e-06,-9.701260366909539943e-06,-1.348189591477887288e-05,2.351019977072478707e-05,7.492766124776732608e-06,-6.648326374555695652e-06,-7.600415862852909077e-06,-1.877788017430486294e-05,9.996891615336802879e-06,-1.339562711250776428e-05,7.759541229516944574e-06,-2.210396062228449563e-05,7.608459192780478463e-06,-3.469709066110120277e-06,1.287712825604852983e-05,-1.015719443428068031e-05,-4.544215856436393458e-06,-2.993166283437515146e-06,-2.835342753441311958e-06,-9.476481489506057194e-06,-1.393027305998097178e-05,9.731965226204897289e-06,-1.034699432040011543e-05,6.191489137293199411e-06,-8.652289451654389811e-06,-3.028821934740552290e-05,-7.343838071350830490e-06,-6.122707828771352109e-06,8.604683370179695912e-06,-4.775104835214287576e-06,7.610113891806603941e-07,1.528855740203840013e-06,-3.961750147556896654e-06,-1.297200650839392152e-06,-2.320955388916583000e-05,-5.499193887439472208e-06,-9.196136772482272517e-06,-8.325888368327152427e-06,-3.555386958592973989e-07,-1.771031533606591633e-06,3.324164920767863414e-06,-7.658262594384832115e-06,-5.924927004107654851e-07,-3.025490989467739120e-06,-4.787144769668452526e-06,-2.599649373354236289e-06,-3.476223404577963662e-06,-4.973350058565375428e-06,-2.105287528700304136e-07,1.017887220397515106e-05,-3.786282606108254064e-06,1.830119624775088607e-06,5.038993231977077135e-06,-2.508358612187603008e-05,-1.155238999764306715e-06,1.938376187996198899e-06,-2.103113775070661949e-05,2.725646585096623700e-06,1.045259465705945333e-05,4.168637232912199164e-06,4.469162619110910867e-06,5.790051353359034271e-06,-5.289961477448097456e-06,2.739306436454499143e-05,7.284822037402989805e-06,-5.874735782655900221e-06,-7.782317598657189679e-06,6.826094599272886230e-06,3.208029439269663305e-06,-1.559329601917675917e-05,4.945336380363063886e-06,4.363210963902190632e-07,-3.425752324985825801e-05,-1.296175859999553941e-05,-9.028558033356395002e-06,-1.380299717770638403e-05,1.648746116286066514e-06,6.457416474321298486e-07,-3.017945014761969032e-05,5.947660278021144422e-06,-3.329970763030868654e-06,6.296117588803601557e-08,-8.821379895267525574e-06,-5.513165146600022458e-06,-8.650635703838002987e-06,2.698729602779590184e-06,6.907762227230453573e-06,-1.952436953962042573e-05,-3.784348353639654172e-06,-7.229160117163099817e-07,2.911036711828631952e-05,-8.279936527498662021e-06,-5.049143072603133238e-06,-2.113688011215661118e-05,-6.000569912860421894e-06,-1.254157856111391150e-05,-1.128218400486546200e-05,6.073733936857069695e-06,-2.414182785812520320e-05,-1.879576012987477010e-05,1.344752504175195952e-05,-5.970233515904414934e-06,-1.530754568903668967e-05,3.606423808090829321e-06,-6.038388639174205290e-07,-5.372427293177513773e-06,9.540366108021740418e-06,2.817132579679374858e-06,-1.070457563999475021e-06,-1.763710102436027529e-06,-1.030762625327163885e-05,1.727255007566476318e-05,2.978997101565085484e-06,-5.818176928347031725e-06,-1.202864261062760366e-05,2.285344520923135138e-05,-6.721060646552803857e-06,-8.036081161870107582e-06,-4.483937884207931849e-05,4.432194364436324446e-06,2.921439545406781939e-06,-1.422293356721338467e-05,9.592348484163332255e-06,-1.144474921403700422e-05,-9.031432753002897443e-07,-4.448383533520793686e-07,9.875112763334370001e-06,-8.350181327918303816e-06,-2.128458991145595850e-05,-3.950106906105053128e-08,-1.340123547444677965e-05,-5.049707967238303305e-06,-8.271806125530276749e-25,1.196070612371207093e-05,-3.456411131474040922e-07,-5.084586429100286789e-07,-7.226124347761466165e-06,-1.036484235901946258e-05,-2.583910462444312816e-06,-3.902060272193838589e-06,-9.654299380244001307e-07,2.808670258140696788e-05,-3.992845389358787745e-05,-2.526993334940674929e-05,6.367763249817556444e-06,-1.667753918952331787e-05,-8.950041698759781913e-06,-1.695070729998038016e-05,-1.137858577962797919e-06,-3.671661044669358859e-07,8.778142093510034943e-06,6.060401536067558598e-06,2.602222008017225226e-05,6.223434074120488039e-06,-1.031476992935959808e-05,1.391238085954080609e-05,3.965594619729305545e-05,1.989655260748030404e-05,7.999957963371925112e-06,-2.043014368444944916e-06,-1.237664258762722431e-06,-9.801958933898614209e-06,-3.258974027668699863e-06,9.841920471884143143e-06,2.108068828734876243e-06,1.139397852449593621e-05,4.860851347780799341e-06,2.130269045674895954e-06,6.544121885705281381e-06,7.181498180566153798e-06,-2.982279723145882415e-06,-8.574819351910421973e-07,6.161106962941553171e-06,-4.095788630119399747e-06,-1.266428369010827150e-06,4.212919594735251350e-06,1.557548062003476414e-06,-1.888644049167263622e-05,5.202554012509127368e-06,2.836736536333608436e-06,-6.931945369973787411e-06,-4.239523386092362215e-07,-5.719568749532995777e-06,-5.231336467976830198e-06,7.844379743283399982e-06,2.093683491778630952e-05,-4.654101841427072265e-07,1.675378909475858411e-05,7.542707944549798737e-06,-1.112583513398620779e-05,-1.363608053560369647e-05,-4.555444584054816147e-06,-3.148229548565941910e-06,5.161654003026428456e-07,-3.882370395054417373e-06,-1.412161657436818893e-05,1.271928840658882597e-05,-7.481285136596860207e-06,7.017698633815180457e-06,1.969077085512416937e-06,-1.257460573011354402e-05,6.099694672607331479e-06,-8.418752183471544566e-06,3.053891755022913034e-06,1.934710286422040986e-05,3.134230824453396407e-06,-6.842156014550752262e-07,-1.505202672601127720e-05,-2.943758899422304972e-05,9.847197194894476233e-06,2.482568504236796373e-06,2.519386172209318564e-06,-6.942709948911675662e-06,7.875950814569899802e-07,-4.983919059879739051e-06,-1.491545310317068856e-06,3.062056880739383685e-06,-2.534712013100402111e-05,-1.066135221364372332e-05,-9.472177208290652616e-06,1.050050306622207699e-07,-2.886739210850874103e-07,-1.752540449314660790e-05,-9.866515307511242874e-06,1.208042823716147014e-05,-2.240735529579913504e-06,3.221508817640934263e-06,-1.486963246100795260e-05,5.825969552594562368e-06,7.713884483237279546e-08,1.068990873825032117e-05,-4.660639571218484924e-06,-1.064435199468076485e-05,-7.561921775913440621e-06,1.152109885760718465e-05,-1.899183994340049894e-05,-1.047991982959180166e-05,3.578126761865162075e-06,7.149202544103576251e-07,4.994526997221904622e-06,2.107984306013446234e-06,1.633226255876235868e-05,9.504205547606052599e-07,-9.565611989354240745e-06,-2.294249070180833389e-05,-2.354617841407733985e-05,-3.847369577552952181e-07,6.898709899690365021e-06,-1.647744064809569191e-06,-3.846421380194822850e-06,5.375395658076495067e-07,5.717630736515265186e-06,-1.141391956537412157e-06,1.450212313842068686e-06,-7.822970711355525618e-06,1.249980094823901004e-06,2.876090872800180809e-06,-1.083109973590173596e-05,-8.432054707720621159e-06,4.128826486155803146e-06,-1.994133504785287615e-07,-9.039879221230969321e-06,6.545649035402005813e-06,-6.359614250695084428e-06,-1.155563171709726280e-05,-1.714803972253114457e-05,-6.289392722376335832e-06,-1.287343021274059666e-05,7.593859090785285814e-06,-2.702486684786196860e-07,-1.518530971056779242e-05,-1.936457487739849542e-05,1.416478449180095781e-05,-3.035764711636758087e-06,4.751487742397598914e-06,-1.213430562249948207e-05,-4.393385315159197653e-06,-6.243105589595196755e-06,-4.864867385365368889e-06,-5.531631646312773193e-06,-1.213362468805374758e-05,3.001406619170764540e-06,-3.024530000848440708e-05,-2.398497733298179276e-05,-2.309175277292149977e-06,7.228892666114710089e-06,-1.684448287868975818e-06,9.495730884584574071e-06,5.957618582859126247e-06,-1.054290130197723192e-05,-9.626582254733753808e-06,-2.704225277350170179e-06,1.927554485884104127e-06,-6.722391887668843587e-06,8.959109607192710295e-06,4.177304635200041007e-06,-1.864070076850674797e-05,2.519050360492094970e-05,4.350172849634068914e-06,2.483361008943212084e-06,1.221201822611836097e-05,-1.799416101968784218e-05,-1.546911732121161793e-05,6.623063286899238311e-06,-6.753648935044824318e-06,8.665254082000762062e-07,8.838753463616652096e-06,-2.815984622462291662e-06,2.857886588203402509e-06,-5.435570047631594748e-06,-1.436037397333315087e-05,-5.549777057101979267e-06,2.341347182589201053e-05,-9.313589301541659054e-06,-7.044041478262208927e-06,-7.378776272407432044e-06,-9.534617083684168392e-06,-1.499909338485274939e-06,4.602906816242069058e-06,1.283189453175067245e-05,-2.093979954975039643e-06,1.541066727588353126e-05,-4.700879611779982676e-06,-1.668635793793018004e-06,5.893676266067760186e-06,-5.379977935487740263e-07,-7.828328683734484339e-06,7.958388966866447687e-06,-1.778939206354744840e-05,3.705773913507414957e-06,-5.109867139758969791e-06,-5.905249558475784554e-06,-1.269216744355261781e-05,7.237952229844461378e-07,-4.251029086991768315e-06,-5.820241228736534784e-06,5.356643166914415032e-06,9.753167112127338046e-06,1.770038796271411244e-05,1.334915370826518846e-06,8.371896494861453297e-06,-1.606224479279423314e-05,2.777214972169998112e-05,4.323846782998515137e-06,-3.969866490538120122e-06,-4.395785332837685156e-06,-2.073000442194081346e-05,1.421671264942909484e-06,-1.797457784024194470e-05,-7.920029593461584325e-06,4.736012002272759192e-06,2.311455923421432039e-06,1.423379657947436637e-06,2.224778105592511778e-06,6.233144790065704068e-06,9.944617422363978031e-06,-7.019640643913546249e-08,1.554406070872114707e-05,-1.362673331206645571e-06,1.093345299036513002e-05,2.177696337605456180e-05,-2.280066082509643445e-05,3.183340473610040584e-06,2.107659862346982432e-06,8.763219193928668997e-06,1.172929361081084599e-05,-1.002337905004652716e-05,-9.359220858010412750e-06,-2.209270142443157124e-06,-2.046654850919798733e-06,8.375352915789906376e-06,-7.893191485779504947e-07,-1.028788922292049979e-05,4.153682488883095097e-06,-1.408128415723985368e-05,-8.452593873725979744e-07,-1.205210602665494518e-05,-1.414420091821334492e-05,-1.422745678260049795e-05,-8.050113338015836456e-07,1.956478397718483537e-06,2.207103476153404781e-06,1.125492726699857819e-05,7.128414889766359330e-06,-4.536883920371823572e-06,4.288556099436152510e-06,-8.200589278051354081e-06,8.645105005983752408e-06,6.339900688480061025e-06,-8.427727175708907083e-06,5.153952936402838355e-06,-6.982002134243101563e-06,-5.081785152685426388e-07,-3.038457771949424009e-06,-6.118755784276948736e-06,7.790246904041887757e-06,-5.507783087342789335e-06,4.809253808156445289e-06,-8.067848742735250075e-06,-2.601636079120275027e-05,2.115608929756882266e-05,-3.135091797263232910e-06,1.162871687745335603e-05,1.886216664699612508e-06,-1.402858442441832084e-05,1.270550350373375357e-06,-3.660818578152345662e-06,2.230710754575510107e-06,4.986760802202973186e-07,1.338832828864512858e-05,-1.026384508084141367e-05,5.593774638154192934e-05,-3.220211696304439489e-06,8.837176616888901519e-06,-9.414933284431475713e-07,3.542086424962357145e-06,7.093595849746221437e-06,4.807414690181354464e-06,6.005086012152453417e-07,-9.337520080681751365e-06,1.452272067690882816e-05,1.602380725674536344e-06,-2.178372921524894987e-05,-1.015040141358202872e-05,-5.184074748878946962e-06,-1.175036221862125646e-05,-3.334530782262701835e-06,-1.265361172598723716e-06,1.381694270976494914e-05,0.000000000000000000e+00,4.008249255231091406e-06,-1.317749034078011453e-05,-2.755127147599461228e-05,-7.566417993662180327e-06,-3.422746867257471901e-06,5.364684698074421838e-06,-1.522537854238464723e-05,4.447149569592418105e-06,1.632084696901644101e-06,-6.977542265234539196e-06,-2.994248621012833120e-06,7.830325930293267428e-07,-2.249622462544837830e-05,-6.924764720602593737e-06,-9.635791936773898113e-06,8.402160642063382368e-07,-4.999580929977412620e-06,-6.451278821323958451e-06,1.521951675410028969e-05,-1.387847499646287610e-05,-3.181105901355950561e-05,1.151175342692726209e-06,-9.172271678384009383e-06,-1.275369489161444084e-05,-2.327616329665498757e-06,-2.108843016214842930e-06,1.579826914640591735e-05,1.069590348776460224e-05,-1.505355038437553605e-05,-1.416092326186653568e-05,-2.602134220494381450e-06,-2.039223626160917456e-05,-3.242953275806613945e-06,7.094470781184578008e-06,-2.652812883253210667e-05,-6.268024265807318107e-07,-1.309445011725396922e-05,-1.466721855209107076e-05,-6.807054242260042760e-06,-2.191082724348712290e-05,-1.877429889576552581e-06,1.273482057005732867e-07,1.274028764774590864e-05,-1.349131588961542644e-05,1.429165018016835882e-05,-1.034860790109176255e-05,-2.162522497624325604e-05,-4.019750591443323551e-06,-1.568401899973433234e-06,3.861848827131862921e-06,1.876270771909862396e-05,-1.510446202303228293e-05,2.466294863084638605e-06,-2.747988898947093324e-06,5.541240017866444602e-06,-1.228758288036102878e-05,1.628408968919584995e-06,3.397077203330457670e-06,-2.872421508658194898e-05,-2.509399247774331496e-05,-3.843840670626226581e-06,-6.368737468063847304e-06,1.418989949996381958e-05,-3.017481459641630434e-05,-1.296255380471408850e-05,1.918551607724838323e-05,1.326941295796300049e-06,-1.390353214620704226e-06,5.857871872776418237e-06,-5.470680277764809250e-06,-1.565603628768897631e-05,-3.450759221771171245e-07,1.628601471215275013e-05,-2.646977960169688560e-23,-1.997659508375393083e-05,-8.539505939195728760e-07,-7.138002414182645464e-06,-1.958681564462702950e-05,7.087553882904067819e-06,9.231353823480841259e-06,-6.804560391602157239e-07,1.927421938716918654e-05,-3.116870529293722965e-06,6.993294344890654559e-06,-7.520545160100977927e-06,-5.958426179154453687e-06,-1.431498535412859503e-05,6.769993531450652781e-06,-1.563107931703298979e-05,2.328536076259696218e-05,2.923975422201434041e-06,-5.099100192849097882e-06,-1.626911249276126727e-05,1.399939938289864758e-05,-3.882809162677590256e-06,-6.077039233186119314e-06,1.209329439419269121e-05,-1.090376825436151868e-05,2.621063978574483762e-06,-1.212198871839559625e-06,-7.575019219552270402e-06,-1.810688834416129570e-05,0.000000000000000000e+00,-7.034307607893140018e-07,-6.522069526283115664e-07,-7.515839916413586342e-06,-1.013864354173096411e-05,6.670993396467421082e-06,-2.469797970435247981e-06,-1.377553802379580444e-05,-1.512368040933688884e-05,9.822154383445213190e-06,3.847004695720080875e-06,1.798657120188220759e-05,-2.237558618980781563e-06,1.531870783982533549e-06,-1.105999151552411881e-06,-2.265749872005112683e-05,-1.352601610387169372e-05,-1.155192003869656807e-05,-6.905969190073861139e-06,-2.039573558729021704e-05,1.948226746776289087e-05,-1.909756462268329439e-05,-2.813426322167197286e-05,0.000000000000000000e+00,1.319722791962414363e-05,5.163108920207395085e-05,1.477233144797522486e-05,-7.976510660928724100e-06,7.365754281629412735e-06,-9.475286017466602641e-06,-1.249893637277412808e-05,-1.230140603745193131e-05,1.357958705353564576e-05,5.225938883756422160e-07,-1.261426268011467451e-05,-8.166667368715531386e-06,6.845313336778833681e-06,-2.693556550235422715e-06,-1.149577253516934403e-05,-1.324664043106937048e-05,-6.131943359340993393e-06,-1.141836733702979927e-06,2.320800273721963612e-05,1.307255587354285697e-05,6.375628857521203472e-06,-2.229965642759720708e-06,-9.006583735980173248e-06,-1.718798232446144857e-06,-1.172566991862319831e-05,-2.366973599812724052e-05,1.898113532089138746e-05,-7.812199898557302557e-06,-4.582052323821568478e-07,-3.521195236061736772e-06,-5.606178534538411471e-06,1.564709418986467968e-05,-1.037935357662136753e-05,-8.169447309196423195e-06,-8.199979276557069056e-06,-1.251197859316316562e-06,-8.593559672823280885e-06,1.681014836684727743e-05,-8.442298953737751674e-06,-3.125434443723972056e-07,1.188235328902480410e-07,5.391112571279045377e-07,2.317857023686174116e-06,9.840562910959856665e-06,-6.809778014675858260e-06,7.560276508737541416e-06,3.265756874149028437e-06,-2.147079629647641878e-07,3.157189506088763413e-06,-3.287421641283955628e-06,1.155749339458303931e-05,-3.765861230070027252e-05,-7.029872441934760683e-06,2.865712767864023351e-06,-2.622563384815385852e-05,-3.824464615548618628e-06,-1.857381145003256521e-06,-6.262512006066095996e-06,6.155041753508626017e-06,9.953488410995647170e-06,3.064602269964780278e-05,9.632321605480360433e-06,1.657273259082004183e-05,9.619587165889926809e-06,-3.450744031705980368e-06,-1.705855653238143112e-06,-2.691601035792772265e-05,2.324844375155055197e-05,-5.487712117621170559e-06,2.890106802259890606e-05,1.404176366912512635e-07,1.377396342030219387e-06,9.028095547823976766e-06,-9.615301296343092935e-06,-8.707329559215164810e-06,-1.990348010795861688e-06,4.248734775766970671e-07,-1.133510181297366979e-05,-1.662131575907949626e-05,1.454478991083467737e-05,-4.536500188704877040e-06,-1.155634840505643690e-05,0.000000000000000000e+00,-3.422491028258733744e-06,3.510564650817620777e-05,-3.388219989097266489e-06,7.857941844366618238e-06,-5.662896332427571493e-06,-1.711544886453220083e-05,-4.265442177839721213e-06,4.857431371838360862e-06,1.342426744979978834e-05,-1.469997694546549075e-06,-9.821612965492060532e-06,1.461843107007781769e-05,-1.484151897377028140e-06,4.729325304700478535e-06,3.869344397606041446e-06,1.667388157738955058e-05,1.116677219968576043e-05,-1.164689318907103133e-05,-1.380033274361956872e-05,-7.122254522613200786e-07,-4.320336599592257557e-06,-1.896961010039025967e-05,-2.745732056129943381e-06,-5.472497827317675015e-06,-4.397747367445281654e-06,1.065453295286323956e-05,8.944742089820616310e-06,1.913305182748054094e-06,1.623526578685123041e-05,-4.174298769544995482e-06,-1.393194892094209881e-05,-2.211372994063149472e-06,-8.683215968109097466e-07,-1.036471815786096977e-05,-1.063910216839405132e-05,-3.699190329674367453e-06,1.117101715886294367e-05,2.593958350644766103e-06,2.462813434846863731e-06,8.397996758850446693e-06,1.420151657245733752e-05,-4.917551835852998624e-06,6.410112504600307796e-06,-6.657034119417758933e-06,-3.073667906415132272e-06,-2.500586396450421657e-06,1.330478704599395969e-05,1.408173740246506782e-05,9.090122012274950519e-06,1.008147885740863137e-05,1.011585934357301483e-05,-9.596063565717238896e-06,-2.358292681914112666e-05,1.334114267001087086e-05,8.064514014621323917e-06,-2.360152885729081528e-05,-4.617431927651653619e-05,-3.742184889976280079e-06,-2.598842771482701207e-05,3.537552936166676786e-06,-3.347259342342356125e-06,1.507017845247008414e-05,-1.510309738748800810e-05,9.973354346702337984e-06,9.136933146443374621e-06,1.164889514275424634e-05,3.733586694344225231e-06,-4.677140475769056835e-06,2.666294443747432942e-06,-2.244462278484250880e-06,-1.703779228735694670e-05,1.663942679152393284e-06,-2.242146943344059006e-05,-8.032726051539382249e-07,3.352947289366556926e-06,3.320334265316006281e-06,9.031343570982597299e-07,-7.513697079479352720e-06,2.375159574352189719e-07,4.682997164582305692e-06,9.501539261557985931e-06,4.623810599350198684e-06,-9.171263272052474896e-06,2.044242394546536083e-05,-7.945829921866324995e-07,4.112849236854555573e-06,-1.212600160939289352e-05,1.666142467848701620e-05,-4.259339545874936343e-07,-2.261530792144331032e-05,-1.931983531679141663e-05,2.178028292391698565e-05,1.092079152088266451e-05,-1.269987971389147311e-05,-1.326561547062090913e-05,1.305921029168174929e-05,1.396813390575434361e-06,-1.082293880324123541e-05,1.908808679194176795e-05,-2.191605689509570893e-06,-2.513396923239694127e-06,1.346262168701776744e-05,-8.824958736460342527e-06,-6.282140567087003250e-07,-3.110891005961998213e-06,-1.161042096561453719e-05,1.025938653865305103e-05,-1.346005219641346295e-05,8.640407277105941302e-06,-4.129893353623295942e-06,2.623308722398914851e-06,1.987335479788413256e-06,-8.098502325880311509e-06,2.145465541448058703e-05,-2.220079311074518730e-05,-2.237584482089061076e-06,-1.387244889350534807e-05,-8.806653019090018256e-06,-1.180545474350857693e-05,-6.824007452644219107e-06,-1.869189873626355281e-05,4.119448101471262661e-06,9.460891645499221308e-06,2.617935476318632939e-06,-3.894590288261717379e-06,-3.506763725689545437e-06,-3.414666669163804783e-05,-1.196624339811750462e-05,-8.738353714351701287e-06,-2.715756337113319597e-05,-1.050207874339475661e-05,-2.231350354858854291e-07,-4.531217780038516745e-06,-1.240012171531805767e-05,1.178725634032475943e-06,-4.775512030428941796e-06,3.464415550448158462e-06,-6.796421211374435811e-06,-8.871132360366114890e-06,3.436285557022053824e-06,-1.372398263776251243e-05,-1.669329057409284732e-06,-2.514851790662863505e-05,-3.462519549833215263e-06,-1.431624229428829374e-06,-1.800270610379286882e-05,-9.219322800736560889e-06,9.050368191023855954e-06,-1.200118024353669361e-05,8.009959291330841112e-07,9.814196232611764336e-07,-2.105866465522055115e-05,-5.822794884947144663e-06,-1.122876362785527653e-06,1.510023161313038556e-05,1.012944815129817923e-07,5.203671317106812411e-06,-1.117770017769637866e-05,5.205421817406186187e-06,-8.560581975019736060e-06,-2.512706541952529127e-05,2.090797416677053069e-05,-1.687403029612687233e-05,-6.462895470213175608e-06,-4.956029128534404372e-06,1.121599639633339038e-05,-1.292169085644329486e-05,-8.755555714780666800e-06,-1.563371381878742201e-05,2.620327310149948014e-06,-2.267032397205834676e-06,8.292270661648868299e-06,9.744887137609518029e-06,1.168684301816612481e-05,2.453167586186971448e-05,7.497896160642455723e-07,3.169573739076942180e-06,-1.555807258302428986e-05,5.768885189932527690e-06,-1.302184682428547129e-05,-9.511319998229668548e-06,5.825560029159261597e-07,2.027033251338121842e-06,4.669968516986455316e-06,3.469234611254238680e-06,-2.899358302807357790e-06,1.917796095246422809e-05,9.937919929130028816e-06,5.746335095850516243e-06,-5.062546433059717944e-06,-7.865999612917224472e-06,-1.108482168308234276e-05,1.043477821442944357e-05,-1.147339173218076635e-05,-6.041823385696180539e-06,-7.493996216180721668e-06,-2.299823662217448001e-08,-8.602725412179567689e-06,2.846029504240232930e-05,1.777868114292136699e-06,2.003540914047043296e-06,-4.126181434030676754e-06,1.263335654142189508e-06,-1.379212043937377931e-06,-5.705396463688658138e-06,-1.304565306836709973e-05,-9.997885637274299671e-06,2.178719063211837229e-06,-4.249719681326177687e-05,3.700955638264133699e-06,-1.083072427308180959e-05,-6.758459681795531998e-06,-7.202484975719226150e-06,-1.514196026400626539e-05,-3.312202696036669773e-05,8.847228991753404041e-06,3.770263323723675063e-06,-6.381016627054118463e-06,2.649163122361760819e-06,2.152421978015101143e-06,8.893514567679987532e-06,-7.719298946044307583e-06,-3.012005337377835890e-06,7.089805343591192446e-06,1.856512203304275157e-05,-3.429859847759723871e-06,2.311386459406123878e-05,-3.423753441012415607e-05,-3.518717789767894155e-06,1.172820680515959945e-05,-9.481707314595477136e-06,-2.383201959108551674e-05,-3.333021971902878544e-06,-1.696127820614302793e-05,1.038499783789454745e-05,-4.999363169771980807e-07,-1.524693863861871210e-05,-5.320436925635069653e-06,-1.120911344152584220e-05,-7.641815856194326473e-06,5.230063754753894615e-06,-1.229755249935654662e-06,5.543075694217986946e-06,-1.003823225811372328e-05,6.803676558219279527e-06,-3.135288605079906899e-06,-3.197522935114998447e-06,-1.143904441445049071e-05,-1.478907143717330552e-05,-2.622354431998812671e-05,-1.479251850968427848e-05,-4.669319012850401023e-06,-1.546889562545681582e-05,3.335070298627653202e-06,4.075419552975469152e-06,-4.319626895449266224e-06,-8.572602118921394970e-06,-1.724281573614788244e-05,-5.495340036355916148e-06,-7.607043950668240966e-06,-1.695214468515870228e-06,-1.015086482557103432e-05,-2.502239205090730112e-06,-9.985556859974822316e-06,-1.944331123084404813e-05,-1.281368681174616608e-06,3.259887521229602955e-06,2.165817778292757073e-07,9.614868083274550904e-06,-1.824246155875734310e-06,-4.205437021430993170e-06,-3.071636675727095140e-05,7.981122732957696530e-06,2.099630675496738847e-06,1.087714362309155321e-05,1.874623337064450177e-06,2.651717298339526192e-06,-9.665249686443504168e-06,3.876264852631868401e-06,5.436315591241012490e-06,-3.992281417274949135e-06,-4.596912319436504336e-06,-2.772497397974113206e-06,3.032523682588151636e-06,5.262347950542027477e-06,3.688635068346337244e-06,9.117660436230598810e-06,-5.883741853622941257e-06,-2.771329020764227375e-05,-4.040099172412829075e-06,-3.667415301786194542e-06,9.493661010549348368e-06,-3.436295102431193397e-06,2.408841429099261547e-05,1.698174919365537408e-07,-1.385447030217447453e-05,-1.038867348030956565e-05,7.657504182402419512e-06,-1.759988769379415657e-07,-8.102545738914259022e-06,-3.837444928503769688e-06,-2.391630378606843603e-06,-5.176250965545915486e-07,-6.134964843759470887e-07,-1.915611176937075319e-06,3.388625410156948961e-06,1.129523384169452394e-05,2.874140065876581293e-05,-8.386211318040711832e-06,-1.920069268078679572e-05,1.253645642493621499e-05,3.146967562721043538e-06,1.493199005592526190e-05,-3.932787864163002895e-06,-4.227816450667335492e-06,-7.795769399185422317e-07,-1.912609756079882171e-05,-1.009294994820675893e-06,-3.995277054794838439e-06,-1.193782326629900240e-05,-1.728424002351913470e-06,6.160705761265479802e-06,-1.689787411122982739e-05,-6.016162621663136938e-06,-1.425272289983005087e-05,5.508430400937830447e-06,-5.366685583389690756e-06,4.517083966911146552e-06,6.767530271600301794e-06,-1.596380240679353264e-05,1.700459833408450328e-05,-1.109781717820002357e-05,-1.648700643263267888e-06,1.413020953991833387e-06,-1.447885386278535382e-05,1.621296140067142119e-05,-4.279107695611726238e-06,-1.869819040950984799e-05,7.579935426855092064e-06,3.246220568310905147e-06,3.836813895565820078e-06,-4.946555600154337958e-06,1.189914607343142424e-05,-1.318294270128948899e-05,1.004820920431471904e-05,-1.118381341810092624e-05,-1.983840318414387637e-05,-4.229415063315234972e-06,-1.347168192035782290e-05,6.031855507988035421e-06,8.399405946755765751e-06,7.597217070643635095e-06,-5.781431221180408592e-06,1.008071443825542444e-05,3.134446938485336137e-06,-8.580830387512909237e-06,5.193098738952447642e-06,-3.606028855903013388e-06,-5.554107545375906926e-06,-7.051931144308492454e-06,5.807534832882694963e-07,3.334865372659184965e-06,2.538249668201719234e-05,-1.393923887219712645e-05,1.513140336728503815e-05,5.055191094728851936e-07,-7.952052125415304845e-06,7.440406159911540384e-06,-1.121878658479359839e-05,-3.380664896936915654e-06,-4.362799579010522934e-06,2.263943362998943056e-05,-5.597297316696409921e-06,-1.452387398840897393e-07,-2.278267517600092004e-06,-7.481233470364922245e-06,1.391505569706358220e-05,1.959236249000570552e-05,-8.637731246351064196e-06,-1.780282160158804325e-05,-2.390495244823842804e-06,-8.961008703736566473e-06,4.798846816859466655e-06,-1.594175703919465675e-05,-4.482887270003695266e-06,-1.124103742751901685e-05,-5.811872945733544725e-06,-9.257464936707807576e-06,6.203357558355508375e-06,-3.673120714707615984e-06,9.076957829603164431e-06,-1.451555666561255413e-05,-3.078291419694094509e-05,-1.643809013904732978e-05,-1.405527425730493274e-06,-1.288839719882348662e-05,-5.624725688757591903e-06,-1.138557309082951916e-05,4.592098966831894245e-06,5.226871301126959928e-06,2.150699705432782535e-07,-3.639237474322787756e-06,2.973682643963403457e-07,1.209312202638122026e-05,7.978766682137698551e-06,-2.826371604628350880e-05,6.105544941756388246e-06,0.000000000000000000e+00,1.981046550178734296e-05,3.246801400107052662e-06,-8.853908594565551714e-06,2.156971032682012939e-06,2.712371562959815335e-05,1.461548298502089766e-06,1.278211872611906863e-05,2.011044183677986102e-06,1.747841237670895834e-06,-8.700990764136386869e-06,4.822522799482510839e-07,2.465307507355331222e-07,-7.079117911086600625e-06,-4.707241525146517406e-06,-2.335127239623889015e-05,2.648502128382080279e-06,-4.939353686625930678e-06,2.530204851022256909e-06,7.083395010850854043e-06,-1.688570043217625384e-05,-5.722080052449759970e-06,0.000000000000000000e+00,-2.538387575477034079e-07,4.401300998353405993e-06,1.050480516626599470e-05,-1.528524373599742930e-05,-1.091534972469732652e-05,-1.223190868060378444e-05,-5.483647032477762831e-06,9.433996330453609264e-07,1.917676261917382467e-06,7.389500126017147304e-06,-7.952139658267348300e-06,1.537590653815013429e-05,-5.428139499870715130e-06,8.243771749173795562e-07,-1.044016592614637986e-05,1.551300757639841668e-06,-3.351266881657130099e-07,1.580211337967339438e-06,-6.614458508506526330e-06,-1.046307950382837759e-05,6.382975965000053866e-06,-1.293305033464897329e-05,1.925001935734912850e-05,-4.455915398636139672e-06,-1.115049809964076030e-05,-4.896831809600020292e-06,-2.805303771714224911e-05,-1.822265384302460334e-06,-4.408077578407012002e-06,1.920511510643817829e-05,8.306876247309681128e-06,-3.343239346523644478e-06,8.550884131752218493e-06,-1.039838827421541940e-06,2.603324721388281088e-06,8.178681729954294678e-06,-2.626217548086112153e-05,-1.611407981573270272e-05,-1.079473950594345389e-06,-1.381512100189809922e-05,-4.225668552441173194e-06,4.060763935882239323e-06,-1.263616109334181044e-05,-2.999135133174186900e-06,-1.427011920657286148e-05,-1.685786789187043994e-06,1.169767401622406236e-07,-8.280305182386276354e-06,-2.099324956167180017e-06,8.366129839898778789e-06,1.587697342778001744e-05,-6.776624777803254935e-06,-1.689304785946141479e-06,1.543801325413273964e-05,-5.995966163101245035e-06,-4.972170450046899127e-06,-2.356332067036468750e-06,-9.673365722670147437e-06,1.170565475965314828e-05,7.170285143989645538e-07,-5.103005795288812876e-06,1.361027601119194641e-05,4.492880531967649170e-06,-6.535730316187059836e-06,-2.007288564741374748e-05,-2.019979487247498744e-06,2.182857031768414629e-05,-4.806208466375577627e-06,1.173417600093691458e-05,1.132599861364720391e-05,4.618299227562947577e-06,7.233835989397323771e-06,4.385048516052453962e-06,3.715382695554781642e-06,1.163902716487607828e-05,9.886653231844759934e-07,-7.869485260886271852e-06,-1.218623470137195704e-06,-3.094135827328234367e-06,-8.460543272482217537e-06,-1.929543831283498561e-05,-8.472817714777415411e-06,5.746492830848730815e-06,-7.907964826839718417e-06,1.332940623505462227e-05,-5.751430214171630283e-06,-3.407332834713668313e-06,-1.150832931503664109e-05,-5.511861594525886470e-07,3.658623916567502696e-06,-2.138365902579749067e-05,7.314411714642829125e-06,7.777811754170209959e-06,1.392050560678342264e-05,1.112962698245503199e-05,5.876095883261308126e-07,1.623489633150530559e-08,5.837476514961331307e-06,-2.504318578120748261e-05,-8.055504126622520440e-07,2.332499416105391341e-06,-1.166600442722802874e-05,-7.009793619027462539e-06,-5.663354008818508147e-06,-3.517225856838022375e-06,5.748241790310764161e-06,1.421865443090215615e-05,-2.765161953860561820e-07,-5.371062763716971294e-07,-1.086338874324035615e-05,-1.053380032273723964e-05,-1.224028385554912037e-05,1.793779895243835144e-05,-5.462939777652300508e-06,9.865275380142772766e-06,4.287355591238177378e-06,-4.144381954985477993e-06,-9.551632701812851029e-06,-9.054397540262055103e-06,3.487141715951092907e-06,1.411814219037345971e-05,-2.031544805549016851e-05,-2.610974899626634224e-05,-2.077835635999665768e-06,-1.769347277976291127e-05,-8.876378558928796808e-06,-1.027515748451210240e-05,1.947289073249188663e-06,-5.579509777663306316e-06,-5.313140576512943480e-06,-1.008042274241855688e-05,-1.898825399837917531e-05,6.838957794845217836e-06,-1.291263231015230451e-05,-1.520772110817263888e-05,-1.277628233306970503e-05,-2.547815603881192030e-06,1.598015972187841955e-05,-1.771989995694429499e-05,1.613158958163462383e-06,4.894022008297009843e-06,-8.314373562802780546e-06,-4.476898530130641949e-06,1.369220230426795618e-05,-7.442758159849009573e-06,3.791168391933879678e-06,4.234560800759890043e-05,-2.025584688676086527e-05,-1.012628885583850401e-05,-7.974174315551295553e-06,-1.204122082648166186e-05,-8.926924678688457344e-06,-1.138527252834810465e-05,4.221013965588732427e-06,1.861935443039224069e-05,-1.999409503217072659e-05,-2.229580501925060374e-05,2.050979119400469230e-06,1.515997018157417044e-05,3.720372510146493085e-06,3.421004061487806865e-06,-1.763749191948961058e-06,4.651511469280501156e-06,-2.483137579349328799e-05,-8.404868380000874833e-06,-1.609529059434454108e-05,-7.902498782591577304e-06,-8.310145358290940424e-06,-2.153663695537730330e-06,-5.554196019405198721e-06,1.826441301981853272e-07,7.370126163115514222e-06,-1.614043213177846506e-05,-3.110052021481506302e-05,-7.425865813673579970e-06,1.295770748493360489e-05,-1.396637639446375852e-05,5.658421626576899949e-06,-1.106467827869355936e-05,-1.827211502371558604e-05,1.638611243407412778e-05,6.591774583868864327e-06,-5.191127316688829780e-06,-2.832982245852358764e-06,-3.571127592691358591e-06,-6.129925684525138358e-06,-1.669485933668774576e-05,-7.157132148562691387e-06,1.593343840609968008e-05,5.313687869848230211e-06,-2.426555834844639517e-06,-1.112680332158140977e-05,-2.342010722886179249e-05,-3.318208559755288770e-06,7.271442790225723227e-06,8.584189085822670602e-06,-1.968047496918225525e-05,-1.135179305875924424e-05,2.843657522093715311e-05,1.412163000184782356e-05,-1.493418740859951653e-05,-1.717148085035654712e-05,2.176357277924036331e-05,-1.428980651961420265e-05,-9.891397813804168711e-07,7.394298867598056821e-06,0.000000000000000000e+00,1.003528782469090123e-05,1.912578171880078906e-06,3.973064514670035188e-06,-2.579295023571279114e-06,1.868757204328710429e-05,4.095292802247240797e-06,-9.834340570419479949e-07,-1.656567224700971491e-05,3.033181905086360867e-05,9.225011024702671375e-06,5.297585406216010028e-06,1.636706886782218206e-05,2.263863948770612707e-07,1.086828882835841470e-05,-8.147489570213831340e-06,-1.337095088947930419e-05,-5.407399370637095975e-06,7.523785435717472130e-06,1.129184078682569319e-05,-2.866611335533680499e-05,9.277941614502379589e-06,1.783656472447678296e-05,-9.302519110011698745e-06,-3.952125855744147192e-05,-1.176162273693130983e-05,-5.777919199040521274e-06,-7.428034063242451612e-06,-1.330230673909383059e-05,-3.414998775136844337e-06,4.057976637836781605e-05,-2.722772177398039606e-06,4.286888607608802658e-06,9.541512640989058502e-06,1.699531051896863043e-05,-1.868752106345497959e-05,2.705484923396658562e-06,-1.876043235633561525e-06,-2.475886030342391703e-06,-8.534054414710603230e-06,2.280202940475549569e-05,-1.640000603857422458e-05,-1.524999964096991717e-06,1.023735621679132614e-05,7.172716817814980661e-06,-1.383523314595430159e-05,-1.440299204565740370e-06,6.375848485884032151e-09,-6.909116585504772315e-06,1.304185480657611600e-06,-1.076573383077266876e-05,-1.015652708854592637e-05,2.328865838426018748e-05,-3.222356554826716442e-06,-1.985765201278640279e-05,2.057293817367129169e-06,-1.662245968596215475e-05,6.217126550062544183e-06,4.914841173222997625e-06,-2.894184055129856118e-06,1.235113426165941841e-05,-1.198113581397075624e-05,-2.772747372826625957e-07,-1.376059295692311300e-07,1.074960798692371264e-06,5.904451225570010357e-06,2.377959772756087986e-06,-1.880854499940464571e-06,-1.123026731113263813e-05,1.500397260526839455e-05,-1.863692045053799603e-05,-3.987992696359420171e-06,-1.421246428865597019e-05,9.158436005268411517e-06,4.622983767587683868e-06,7.672148143439508490e-07,3.476295846658950167e-06,-2.503074738716139192e-05,8.588244290755225307e-06,-4.873122386862765396e-06,-1.164167127599290552e-05,-1.825021343785213264e-05,1.212446196008107354e-05,2.617049870593442330e-05,3.933724003650864416e-06,-2.738532657821012838e-06,-3.441841227048782710e-06,4.006111817247951582e-06,5.836330314948206359e-07,4.204002283768900750e-06,-1.844342540242772699e-05,-2.668149944454397000e-07,-1.008107986556092263e-06,9.990214774153781472e-06,-1.494590517742616425e-05,9.685386471747334838e-06,1.044753905264473366e-05,5.192688400497977147e-06,-1.008222317283237292e-05,-4.991546765966503242e-06,-4.298687971832368469e-05,-7.271933970847003278e-06,-1.327779354836067261e-05,-2.850924419804968712e-06,-6.803487779653556210e-06,-2.679870922573635673e-05,9.251657734045277796e-07,-1.478632185065518301e-06,3.731797972711235620e-06,-3.260404168106815120e-05,1.976238603553936871e-05,-2.014722465025006979e-06,-4.200631539830579563e-06,1.081058186053849542e-05,-2.099274128546224148e-05,1.571708120479781170e-05,-1.631318968613631259e-06,-2.250465812360778563e-05,-9.715840428749463556e-07,-6.005817916228113105e-06,-1.861910246633047246e-06,-8.857603689419129954e-07,-4.479105783762476547e-06,-2.168040596713904483e-05,1.246454080737735842e-05,-1.933856616910418358e-05,-5.438480987930344843e-06,1.683642804374174722e-05,6.212383808667271952e-06,-6.537542523165935311e-06,-6.184595022829938962e-06,-8.211043071766532518e-06,-7.049448763623792937e-07,-1.982807153580359024e-07,2.282661217418823912e-06,-2.654563232079882400e-05,-2.336748856789140140e-06,9.309909539333485751e-06,2.391530916315717359e-06,-9.973275685516433948e-06,9.809504034618716779e-06,1.165771683244988404e-06,1.287108691001247050e-06,2.701405409856237777e-06,-5.089092364761867117e-06,9.320444411022609009e-06,4.794071921799347190e-06,1.452373974662736039e-05,1.326597765313674654e-05,6.929612388216820262e-06,-1.307819720897952291e-05,9.884241895835549924e-06,-5.436944616981089935e-06,1.305242719040565754e-06,9.676099961322257662e-07,-2.835723364591719705e-06,8.553515300855121637e-06,4.387413830720222904e-06,-2.507341493218949387e-05,-4.807269875021035219e-07,6.188644305008131959e-06,-2.446295373275085290e-05,1.378725910899476355e-05,2.497161015176957178e-06,1.078335806514291456e-05,-1.676327162567076620e-05,-1.525880291753503918e-05,1.429144681345715677e-05,1.453879844248705379e-05,1.254497595448078816e-06,7.579019067025034493e-06,1.582994531114066209e-05,2.070406070001746821e-05,-1.654723001607223177e-05,1.034203282511264035e-06,1.113311768729431904e-05,8.815125382107783731e-06,7.599642509934342547e-06,-5.888121286772685404e-06,2.933518587034061030e-06,-2.436624048860245819e-05,2.566735042644306816e-05,-4.924418114113609228e-06,4.978782530523349078e-07,-4.497726968071313121e-06,3.264472199982632643e-06,-3.951818443154822478e-06,2.571048687558219844e-06,1.001336304234192359e-05,-6.752484593479972547e-06,4.729563678972211031e-06,-1.079712791560990954e-05,1.519913737965727814e-05,7.746606313285885485e-06,8.745142174138559576e-06,-9.839347439476465985e-06,1.951866963659945153e-05,-4.837412758811309712e-06,8.520838462753769311e-06,6.135969918043172984e-06,1.843096074584246408e-06,-1.683391724665381708e-05,-1.696808304536463966e-05,-1.704425747052925298e-05,1.386878133787199633e-05,-6.375050496547418924e-07,-1.112108663427037771e-05,1.052759543889621208e-05,1.092942295686440027e-05,-3.500501431127549385e-07,5.959937652012383300e-07,1.061549099141707170e-05,-5.903779082562064224e-06,4.451434411756490899e-06,8.894905732399625270e-06,7.114637098766753423e-07,4.815582369517792084e-06,7.523257736671706903e-06,-4.570834866862710241e-06,2.920057817601437523e-07,8.990454632243132663e-06,-1.338023575977265502e-05,-1.108353163460193722e-06,-2.836606752963439849e-06,-2.083294746207476035e-07,-5.716469976100013164e-06,-1.762807988409697863e-05,-3.951959649765464604e-06,1.847682760327875191e-05,-5.108602286084589077e-07,-1.848820070943098498e-05,-1.195198492190227042e-05,-5.284807499483669352e-06,1.131922964051645624e-05,-3.937844313072799872e-06,-1.968251761659283282e-05,-1.777229660389119231e-06,-2.969301792236784241e-05,-5.758797168666596005e-06,1.058321191247124569e-05,2.569021826079986832e-05,-6.221612345260602458e-06,-8.888689606141701738e-06,1.223895558266608137e-05,-4.412912416791837385e-07,-5.078952803493263699e-06,-8.856461289247904845e-06,3.515442497871917548e-07,-5.624405530027226220e-07,6.708043001453021602e-06,9.161376229496412263e-06,3.401111358657738285e-06,-6.401593958226086794e-06,4.461730496087884403e-06,-1.202427031356424041e-05,-5.501522989181359107e-06,8.660578148881491588e-06,-5.079482561543342816e-06,-1.683953274521897493e-05,-2.355009768163237151e-05,-4.642969389868715380e-06,-5.105412293451072871e-06,-9.184909759946244509e-06,2.724786938605062732e-06,-1.300220944391540233e-05,-9.130433281560780483e-06,-8.115897764148347255e-06,7.769372355388977309e-06,-5.118172658907293304e-07,9.585004587255682338e-06,1.766378591120108944e-06,-1.519402049976320851e-05,7.902399903289294045e-06,2.579892794535183087e-05,-1.695947557971744965e-06,-7.120503658825051790e-07,8.121230989141275703e-06,4.508283984765523840e-06,1.773460091660241601e-07,1.919501427177769548e-06,1.437993923493827108e-06,-7.838083872221303784e-06,-3.327534767284382338e-06,-2.660320892283265759e-06,-7.833171773400144944e-06,1.625835683681124514e-06,-2.193763478998077915e-06,2.270978468012748030e-05,-5.913020308172140332e-06,3.901317864941843705e-06,6.319297167932360711e-06,2.496138954504355790e-06,-9.929789293983878117e-06,3.819530561058031736e-07,9.431401326460972238e-06,3.026555560483151939e-06,-1.155639848558323250e-05,-1.118576833243409212e-05,-1.320480294158858853e-05,-2.633006600331797462e-05,4.659836348298641135e-07,-3.950689220679096381e-06,0.000000000000000000e+00,-8.132601860793959810e-06,-3.786796255985485957e-06,-2.672862952518508394e-06,5.122069039114678600e-06,1.593505666896959909e-06,-3.776060959146403382e-06,3.640891576690686851e-06,-1.476425718776165547e-05,-1.813978816898098169e-05,7.619718113760412848e-06,-8.007401077619126211e-06,5.583336018591917186e-06,2.827795501860318171e-06,-2.252391559013799230e-05,-8.613205264950338360e-06,5.187243606674317918e-06,-3.721380295895904556e-05,-8.091031657058482622e-06,-1.161693378412308770e-05,8.178307795864771211e-06,9.002111928788070804e-06,-1.776191004586907026e-06,-9.883184523132973118e-07,-1.229982844854465259e-05,-6.365491263685846437e-06,-2.253156024436775944e-06,-5.737413324257447998e-06,-2.055785434714509910e-05,4.581001389992917129e-06,-2.008709351597638145e-05,-6.865852865691983775e-06,1.219752669594396280e-05,-1.681838990535725552e-05,1.837523322787751448e-05,1.005106608325763110e-06,-7.574627908996594706e-06,3.350869364480569870e-06,-3.119581536437947903e-06,2.617922837605456292e-06,-5.676413662516149044e-06,-6.880865062502108584e-06,-1.677068573499530090e-06,-1.709735911870631888e-05,4.533541529101883734e-06,-2.045752118406167161e-05,7.412677685308251841e-06,9.354224602610734722e-06,-6.685516469042845583e-06,-2.699152590411083065e-05,-3.141179610581450037e-06,-4.341571957703648788e-06,-1.397160114542146709e-05,-2.972803542337226090e-05,-4.991561191597204950e-06,4.952617377687087353e-06,-8.764901135928233043e-06,-9.906375254589937642e-07,3.441707247771834529e-05,-1.258211524987466225e-05,-3.576606053789112436e-06,1.055951243162698074e-05,-2.031805389628326218e-06,2.130510562334017279e-05,1.968659598499819397e-06,-2.144797793640690944e-05,1.823933890738866341e-05,5.593097357895627562e-06,-8.662689518603112414e-06,9.503864782860130736e-07,2.220143687808204858e-06,-8.591849500628564559e-06,3.893399910793565429e-06,-6.242807311779777388e-06,-1.260886413238008783e-05,-1.036992061764568999e-05,-1.391617034618710922e-05,2.839886794311637256e-06,2.894158309289515129e-05,5.822768182968964567e-06,1.633132593755128227e-06,1.243436650478281975e-05,-1.933433700662833782e-05,-1.643202633491634861e-05,-9.288499791283266315e-06,-6.834404868630525850e-06,4.449828743850712904e-07,-1.744236055016254764e-06,-1.987512770813980090e-05,-1.244139144987460198e-05,-1.024063645215040376e-05,9.208160906325022265e-07,1.681842848475502365e-07,-7.245929617434053266e-06,-1.011384586927382616e-05,2.880420810474342561e-06,-5.322897358930963162e-06,1.590396784953203183e-05,9.306703041684275245e-07,3.294709821033569960e-06,7.705723464536953841e-06,8.076835979130340238e-06,2.899336484897426032e-06,1.758030089839176515e-05,6.177343952031779307e-06,-1.826048552325423865e-05,-7.155272961831530956e-06,-8.455866596135932020e-07,-7.455194350386415206e-07,-9.057413147707625968e-06,-7.208566077191852518e-06,-4.277282397782219782e-06,-1.930372427121472030e-05,-5.460957926231284833e-06,-1.233435771596039650e-05,1.026093330760550415e-05,6.433500322205673900e-08,-2.034133340126905991e-05,-4.915996574057548782e-06,-2.199987849112506702e-05,-1.044468123544272457e-06,-1.096577912810964904e-05,-1.967873017249071405e-06,2.114189405533340837e-05,-5.150627799457102192e-06,-1.397950321121372933e-06,6.727930542767843448e-06,1.153695929944300891e-05,2.053472583521700380e-06,9.615007443214522375e-06,-4.524429469964649721e-06,-8.290224721499001557e-06,-6.431411439761346719e-06,-6.433509798342535542e-06,1.392219620474932989e-05,-1.945155928835390810e-05,-3.405451771638225253e-06,-6.823300194548010864e-06,1.558604346553957095e-05,-9.311425790635256150e-06,1.494929191150045009e-05,8.704794139015056104e-06,-4.466733055649973796e-07,-1.366591734798073226e-05,-8.320953718787820760e-06,-9.503580681530871612e-06,-6.397921758276751627e-06,5.406391306215434399e-06,-5.435016870391067542e-06,4.093889074908586047e-07,5.155278662931960177e-06,-5.138235116382580327e-06,-7.124033577863713606e-06,2.178854039621575904e-06,-1.169646239994918081e-08,-2.363176501039909521e-06,-6.962222752535995640e-07,-3.062979125489200197e-06,-5.175766619376529645e-06,-8.986532509170905134e-07,-6.961374203371157640e-06,3.307611689117140681e-06,-1.150540002455866320e-05,1.241386763828944257e-05,-1.053692431582617992e-05,-1.164051066655310841e-05,5.125575106421855241e-06,-2.149408502660444807e-05,7.830644161677821638e-06,-5.337839583961090243e-06,-7.747075857437263710e-06,2.368524703048143020e-06,-6.608855280852486077e-06,1.315854680176503691e-05,-1.036665287970632897e-05,-1.176746926409375711e-05,1.538457759676341099e-05,-5.915330832425246926e-06,-7.365905624892784725e-06,5.059449417601292815e-06,-1.280295430277161197e-05,4.233673729202096667e-06,5.575462236348590523e-07,1.610931209272559669e-06,-1.720206089079127088e-06,7.654308023033765820e-06,-8.092493888626132558e-06,4.992528185666574397e-06,1.118788780484220685e-05,-8.610863857652307354e-06,-7.230759910677746559e-06,-2.134944601966869891e-06,3.729559678908028103e-06,-7.177634356261276851e-06,5.615545371691594148e-06,7.732980810820347985e-06,-1.793539589834361881e-05,5.821101532504384507e-06,-3.565793553830346347e-05,-5.716707517950504687e-06,-2.004507391147988108e-05,-2.152273529775697579e-05,-9.107394982533480879e-06,-1.551440643526361709e-07,1.200637041610341445e-05,-1.963681145763612950e-06,-1.815748056168436822e-05,-3.882609738040922133e-06,2.694772764919573593e-06,-3.122402122347282902e-06,1.161397467100828083e-06,-9.234512497501383122e-07,-2.974765510753351440e-06,-2.465808669499190405e-05,3.913950513927503280e-06,-1.536325576022450393e-05,7.884452052715909483e-06,-4.517455337706743572e-06,-2.294122679696207617e-05,-2.113831561290868170e-06,6.548492470764696332e-06,-3.277202548287998900e-06,-6.493214585276782213e-06,-1.485380939476424476e-05,-5.895712667992989049e-06,-3.051754262158174049e-05,-9.678713792946288508e-06,1.940998655608457414e-05,7.530838273467930848e-06,-2.310583705391440634e-06,1.431066423420898390e-05,-2.610740761577876580e-06,3.183215073201483105e-06,-2.215835658371556925e-06,1.361738102408314988e-05,-9.316977553517290754e-06,-1.020332832654907793e-05,-1.001532520074206057e-05,1.152362788712626225e-05,-1.362354201257015272e-06,-1.823209430311116342e-06,4.801626638919290969e-06,2.834487482438956445e-06,-6.065950016891928211e-06,9.957913397741317501e-06,7.972209465998857053e-07,1.593262159183756715e-06,-1.885813378015530397e-06,-2.835153566614204228e-06,-9.067479291736580226e-06,-1.110464095768447777e-05,-1.595928073062967498e-05,2.274149124521168219e-06,-2.612149533456970412e-06,-6.553128250914368442e-06,2.552444012742853294e-06,-1.407144422747621303e-05,4.194732279539391147e-06,-1.947988120395879909e-05,-1.082426341636507514e-06,-1.366584083602841033e-05,1.244972833770189235e-05,3.911057790565570788e-06,1.437906351945355440e-05,1.118069871764319770e-06,-7.799451692048054005e-06,-2.248611139779312470e-06,-1.398545556485122442e-05,2.972380501175253667e-06,-7.448443174551678313e-06,-1.355186000876999487e-05,-1.920992622197541510e-07,6.722944634998033890e-06,1.662892028247660154e-05,-2.152556278553674466e-05,-5.099655433032009874e-07,-1.328734877326819565e-05,4.320454152231837251e-06,4.151149717279793389e-06,-2.303936747699835897e-05,8.263956393109972501e-07,4.353913752467063132e-06,-1.229115142339627740e-05,-9.917200311127311236e-06,-6.324890159446133716e-06,-1.588622517225458749e-05,2.987315343598659633e-06,-7.693079078387102317e-06,2.535155690690451582e-06,9.538913179113866540e-06,2.631153554435696824e-05,-4.940725679688136826e-06,2.708573582386604011e-05,-2.549155551793632919e-05,-6.043266222900872786e-06,-1.696465424211696614e-05,-2.615627594656329339e-05,-2.071958312225149359e-05,1.206629540779579757e-05,-1.429475681424300207e-06,-1.689383544912986549e-05,8.161615555173268760e-06,-5.377682687033789596e-06,-4.539723909045423241e-07,4.976489836658831222e-06,-5.366406110447564076e-06,-5.391449388646955894e-06,2.217808345316197674e-05,-2.151805751181001803e-05,6.993735081857682845e-06,-1.814256956103013803e-05,-9.404483279332195660e-06,3.640278786722126107e-06,4.229568364491633311e-06,2.077008990027830939e-06,5.575769381801445465e-06,1.614007927155875009e-05,2.383051450974659597e-06,1.847174701897724117e-05,1.663741551432388835e-06,1.727184745322194088e-05,-1.881494142382570558e-05,-1.186895159371116828e-05,1.988776658311267401e-06,-1.569302986364234484e-05,-2.392412475520908278e-05,2.147211872027412436e-05,3.727875787616016004e-06,-4.082054641894023319e-06,1.523760450089308299e-05,-6.637867618385248652e-07,2.109153084805244286e-06,-4.272291618361646258e-06,-1.991202383880006621e-05,-2.629598761809999062e-05,-1.518375690804495221e-05,-3.469133065735136868e-06,-1.507431167866475997e-05,-1.787983585855024759e-05,5.836194295038199783e-06,-9.500051015637935850e-06,3.128312675003673435e-05,2.703594213360688984e-06,-4.537592521545690655e-06,1.141305559048726342e-05,-1.570678523156811390e-05,1.041264755530328679e-05,-5.703789636657322574e-06,8.966288881199692919e-07,-1.861309157063031984e-05,-4.317074381239482321e-06,1.171657328961963611e-06,-1.277660034480737081e-05,-6.260369143589500841e-06,3.291816247941894264e-05,-9.060623459020141372e-06,1.336107579053894623e-05,-1.859382667194972515e-05,9.907078946755251857e-10,-1.396490356858288078e-05,-2.592414523417475653e-06,-3.156570073314175269e-05,1.909555034591912514e-05,-3.958826035393500806e-06,-6.151635117209149284e-06,-1.403826123678949772e-05,-2.462818173015969065e-05,4.094227825673541270e-06,-1.571844466065502492e-05,8.967015819233123341e-07,3.081151447320689625e-06,8.926572085991779515e-06,-4.036453244644151224e-06,-4.213953379521400646e-06,2.604391298122363637e-06,-1.045310920981071109e-05,-2.778983786990153817e-06,-2.416612860257292965e-06,-3.266543291493890935e-06,-2.497780640016274159e-06,4.697048518317269862e-06,-6.600434353265897980e-06,2.044565780962531818e-05,-9.151172332047653811e-06,-2.230877695011928956e-06,1.147175572149613325e-05,-1.205348048579234736e-06,1.270052899158200779e-05,3.024563780131194683e-08,7.202070963588419239e-06,4.440106538595022706e-06,-1.707658426020706248e-05,-5.045009650654262691e-06,-1.515218760950027355e-05,7.609148263227256370e-06,-5.415816420703690987e-06,-3.131404630076043503e-06,3.159719087793005689e-06,-1.244660909229384158e-05,-2.840498353556832272e-06,-7.153542697063788755e-06,-1.467170339241964139e-05,1.439362017210576524e-05,-2.709798352032605849e-05,-3.253287244668793225e-06,5.781391029145869023e-06,-4.223319438374672604e-06,-1.495967982791819799e-05,-1.335733805788341331e-05,6.882482383394990846e-06,-1.220691602788485019e-06,-3.930477046384213145e-06,8.733653927691400988e-06,-1.576805894088777988e-05,-2.909099299197770674e-06,-3.372033995898246928e-07,5.148610697582726353e-07,-2.372029486759155748e-06,-2.240234957131924771e-06,-2.701842491299010031e-06,1.895419688855917629e-06,-2.212605444897145165e-06,2.273590100453767377e-05,-1.069692918481062070e-05,2.302904287980119352e-05,-1.364118591417353363e-05,-2.956872090596859005e-06,9.484296719819244802e-06,-4.865251423694146359e-06,-4.611482096480404137e-06,-9.131189959805678706e-06,3.905572115782920277e-06,-5.948307352923489808e-07,-1.030172490590516313e-05,-2.309690370880119597e-05,-6.193302596700767461e-06,-1.241675826960152806e-06,-2.165826373072962248e-05,6.755042652105354641e-06,4.956019736648197978e-06,-2.492942041567238721e-06,-4.357602184446710656e-06,-2.244494913795511422e-05,-4.972343058643240992e-06,-1.191320807135871240e-05,2.519688760667620868e-05,9.224744030347971097e-06,-5.354938565612852261e-06,-1.549070700971402770e-05,-4.792618321733260688e-06,-7.907830574089406937e-07,-3.861622838996091109e-07,-8.438714025494808418e-06,-5.667320008325575414e-06,-7.028663454036590900e-06,-7.603093403822307201e-06,5.055098546855317474e-06,1.217940734367406191e-05,1.796511761543885392e-05,5.481586875120861111e-07,-2.347305587263110710e-05,-9.032783966947089359e-06,4.797335384546106103e-06,9.727600847855483843e-07,8.414825399693759593e-06,-6.839004960495203699e-06,-1.238641793993628530e-05,-2.394541078598854330e-05,3.858977871947879534e-06,2.393826794759136185e-06,-3.058327606484589824e-05,-1.070082333622551749e-05,1.012007353782785351e-05,8.301238845432176979e-06,2.330363873371622031e-06,4.132280684810677487e-06,-6.167139675722557887e-06,-1.587852913576129883e-05,-1.443526921083878327e-05,2.075397506294060320e-06,2.191409815311597611e-06,1.871067563066310585e-05,1.932480021115963697e-05,-1.070695320015249282e-06,-9.529053524579460670e-06,-1.279493360542027565e-05,-1.199509447402951720e-05,-5.983393510320087113e-07,4.290335205712891667e-06,-1.193271664096173934e-05,-1.722669585320833776e-05,-5.761869035950040900e-06,1.056630947675389577e-05,1.095615713457137789e-05,-5.841919807270910238e-06,-4.826897013098178287e-06,-2.767036751344242607e-05,1.639537370592151593e-06,-1.046463925627783256e-05,1.122454819096677668e-05,-2.780731142126418403e-06,-1.448075353227661885e-05,-6.448611373946950690e-06,-1.318010244639225927e-06,-1.178347837881226653e-05,1.034361718894985051e-05,4.342763797736017441e-06,1.551418931284149317e-05,-4.462453114343749064e-07,1.024559235293282044e-05,4.679543417698355048e-06,2.072358482618873239e-05,-3.841199563755578762e-06,-1.829544945437494615e-05,-1.431354835977015881e-05,-3.037838476842667525e-06,8.813716809345037267e-07,-1.998857186092997391e-05,-1.770514080330415979e-06,3.411020766661115760e-06,5.301218838926760028e-06,1.387131516166420333e-05,3.000886262437500848e-05,-6.954703818714075633e-06,1.154254259715493912e-06,1.246346120669028809e-06,-9.285529461924215764e-06,-7.352605249871611306e-07,5.123747256508736528e-06,-1.307868098476078792e-06,1.081454389787554308e-05,1.537394642543087385e-06,-1.328845779823631322e-05,3.277225723226160306e-06,-1.929373002532803267e-08,3.124848712719412842e-06,-1.884017282762987048e-06,-4.777501748630072644e-06,-3.472616513162712150e-06,-1.567145284782192049e-05,1.587645285417865092e-05,-1.569701654636503933e-05,1.623804900253705350e-05,1.325619535477760685e-05,-7.042917990867361928e-06,7.121464269586240190e-06,-1.202898941674475127e-05,1.915402927425501707e-05,-1.021233037081887025e-05,-9.753090847919078387e-06,-3.416670254032933200e-06,0.000000000000000000e+00,9.282851867603391207e-06,1.548816362496091692e-06,-2.963492618660641855e-06,-8.550751529810723373e-06,1.253126014561087968e-05,-5.144585005734171284e-06,2.975524796996638751e-06,-3.127604916055705512e-06,-2.234232581007354424e-06,1.397472895514670643e-05,6.610125318818337351e-06,1.429371755248153249e-05,1.892879649966928906e-05,-6.771062494193368263e-06,4.927871870495713851e-06,-1.674034866944919289e-06,5.915272916775041438e-06,7.369974713097332365e-06,1.001360656379229717e-05,-4.208961111871359652e-06,2.232924391218887359e-05,-9.136047548941865452e-06,6.340844361350473021e-07,-2.357620585990398901e-06,1.316283360469226470e-05,-3.290674874729763582e-05,-1.484216487804323154e-05,