2.103812934475186958e-05,-1.554508638716364200e-05,-1.881733783676353228e-06,-6.673075814643480175e-06,2.632293735624931100e-05,2.639724872995563477e-06,2.475031715332164624e-05,-1.605814474231806715e-05,-4.159528289374818820e-07,3.826719461065418374e-06,9.552330640571231587e-06,1.434930180687612893e-06,-3.358097637317183225e-06,3.681765074241275844e-05,-1.364564270038114592e-05,9.334855426687405634e-08,2.509159855501764749e-05,-2.316901364542406605e-05,-2.429376879341213320e-05,6.918014002833977051e-06,2.522771738007301322e-05,2.326716165119188906e-05,3.297608558167945615e-05,7.572422340510423595e-06,1.006817274657964883e-05,1.065986136095123644e-05,6.490129685722623207e-06,5.938491115338930111e-06,2.230081367595886560e-05,2.632436599601542003e-05,1.898886232217239991e-06,8.617324690956344296e-06,-1.500144259354100914e-05,-1.912836306712417637e-05,-2.947053767887334585e-06,-2.705263992579788965e-06,-2.545673695197280255e-05,2.086251328915512474e-05,1.826097361785745490e-06,-2.006390752845091849e-05,-1.830400501718117557e-05,-5.056727941829547474e-06,-1.144712009223983324e-06,9.338395351336027287e-06,9.713410303881170741e-06,8.554013242156228595e-06,2.725218225839592306e-06,1.342116258218562170e-05,1.801728168987290835e-05,-2.516930946528900899e-05,-2.193393417951183127e-05,2.305658840902992930e-05,3.331870675502804531e-05,3.704088288457101866e-05,-2.355070428592613468e-06,1.022582617699514309e-05,1.129503827605962244e-06,3.395871063924738780e-05,5.564656135491932247e-06,3.126528774801705705e-06,-2.550766577948628523e-05,1.507286764260744488e-05,3.217537559389811428e-06,3.835412482695485956e-06,3.956150191642542859e-06,-7.239087638557207192e-06,-8.218624315264861881e-06,1.269452004589451501e-05,1.241143730087732843e-05,-2.535395527478346484e-06,1.108209807726938598e-05,-1.053834225110243299e-05,3.971072053957298479e-05,-4.285231564784680953e-06,6.077007963421978038e-06,4.288706431533730122e-05,2.127056860816398616e-05,6.567418283222064450e-06,-3.710048734862476748e-05,-3.581722085490376080e-06,-1.371650181707828364e-05,1.528358045085447128e-05,-1.077795284503303928e-05,1.650040034469570967e-05,8.202400922301879343e-07,-5.981124348860117087e-06,-1.109714571489917761e-05,3.010835959733216343e-05,1.810359607807325495e-06,2.318784886805087022e-05,1.441597288824929157e-05,3.999452151303219837e-05,8.024213933034874687e-06,-1.806432780431949792e-05,-1.705241654288570981e-05,5.359687477666009200e-05,2.280580455203698806e-05,-1.572044246984841793e-05,9.440152318747841036e-06,-1.250161007750179323e-05,9.454292828378390030e-06,-2.951481824920368634e-05,5.451282300480987371e-05,1.637393907092996902e-05,1.983156179724267177e-05,1.454268727169629729e-05,1.562268911274436984e-05,5.068469171346703380e-05,2.295029122658592618e-05,7.224293790623978828e-06,4.577314665627228761e-05,3.137468326257734879e-06,-1.522612209389090014e-05,1.036204548546196393e-06,2.039355724539974586e-05,5.105760298224366737e-05,-2.018856255297729627e-06,1.336689744869213342e-05,1.451482068676355637e-05,1.067009061244879782e-05,-1.621593284668479900e-05,1.378153508913247322e-05,-1.026607794264582332e-05,-1.087588906732397630e-05,-3.181843007420405932e-05,1.922555737715287851e-05,-4.581905742668782478e-05,2.793234089347300205e-05,1.543403868699723465e-05,1.286182419684246271e-06,-2.164591768917563380e-05,3.528316947665096877e-05,7.356796275002656037e-06,1.931981800282495329e-05,7.267643681201194088e-06,9.093332224506964293e-06,-1.225667153835545207e-05,4.330798162898078207e-05,-5.361440692079248237e-06,1.114423404857098048e-05,1.511959508828235125e-06,1.245593082635926590e-05,1.206324585117949344e-05,-6.047244142628104499e-07,-5.735292985651783623e-06,-3.693824265010034816e-05,-9.073016502129895395e-07,-1.144146333608601497e-05,7.030592632416718641e-06,-4.579040610085359794e-07,-1.698712622413328636e-05,-5.790221667528479091e-06,1.614926544471845601e-05,3.570147744716029454e-05,-4.862913931823702575e-06,1.725107435742922541e-05,1.443616499443798022e-05,2.957025057864878288e-05,2.455500514469019673e-05,-2.524636401183827909e-05,1.583287222204170016e-05,1.653144439287434459e-05,-3.391062707407981841e-06,-1.802051762614066070e-05,-2.258549058186481941e-05,2.532083213337248050e-05,2.225283542892100939e-06,-7.832166231396815620e-06,-1.782704889137262351e-05,-1.060241849555261381e-05,5.840552366976525264e-07,1.632527617445508070e-05,-1.701283065150635153e-05,-2.284932878621265265e-05,-1.232733788499596538e-05,8.457849696036227180e-06,-2.602635436327195952e-05,-1.490963567240599153e-05,6.036834856454106829e-06,-1.481479088562172884e-05,-8.058028275313964563e-06,8.894967373296354046e-07,-2.438990572267780619e-05,-3.171818576272843188e-05,-3.240545052565553150e-05,-4.438128953290242838e-05,-5.692389741514557977e-06,1.867590955400166519e-05,-3.246107954477748251e-05,-6.008611058483548535e-05,2.111820895811763443e-05,-2.972022371999527454e-05,-5.900381187141434937e-06,8.111985179370727821e-06,5.081925860304748008e-05,1.774415428133396978e-05,7.897012470224674296e-06,-1.605556027738336443e-05,-1.321902024092807762e-05,-3.129141251787586546e-06,1.789144840343799212e-05,5.836649301765132652e-06,1.514585983102825256e-05,2.034493744647952008e-05,2.307080935903530180e-05,-1.319989985868053395e-05,-1.025340188638368752e-05,-5.202462524223519035e-06,-2.295126351184515788e-05,-1.898587378587074169e-06,-1.248300729626997307e-05,-1.612772915961037298e-05,-9.765973010443765960e-06,-1.791414941278467038e-05,9.512976679060202885e-06,-2.260526562315140516e-05,2.403041925598015476e-05,3.740819155918003597e-05,-2.148893532258332047e-06,2.785890260943894923e-05,2.464415316003838987e-05,1.764646330798538089e-05,2.433494880102191532e-05,-1.924515568672958036e-05,-2.774839897608806754e-05,-1.888328039591760036e-05,6.638516159008573574e-06,-4.927062405495871415e-06,2.683197837127057655e-05,2.001551940355434688e-05,-1.655031686332840445e-05,-7.439157340391167977e-06,-3.073599899453195754e-05,-1.585477828246471108e-05,1.998216064475210495e-05,-1.639494038896938507e-05,1.436802867060287945e-05,8.444842791370530248e-06,1.752874229444870881e-05,3.151591229867474096e-05,-1.518068574079678497e-05,-1.968578640566795004e-05,2.577334397321826806e-06,-5.980858635920119787e-06,1.181139291373162452e-07,8.693068648164011439e-06,-1.826015157310854524e-06,1.396189183104382105e-05,-2.099059648372245842e-05,1.118250114899926638e-05,-2.181154085594705987e-05,-1.087492186205523476e-05,2.391864779623912603e-05,-4.597518040048982721e-05,-3.316550887423829846e-05,-2.018017740557270144e-05,2.991878836094588580e-06,2.457932737823735587e-05,-3.692868273097927426e-06,-1.417862920854292117e-05,-3.397613684404300903e-05,-1.181169008285632421e-05,-9.429717134296432106e-06,5.263757438617489861e-06,-3.747350354750513050e-05,2.408469399958480502e-05,2.051991395492142641e-05,-5.962001395035524484e-06,2.646458159423406548e-05,3.295616628490097938e-06,-8.108809851391704911e-06,-1.938455941953837514e-05,-2.982846540950823770e-05,-1.639090718535357206e-05,-2.859570704155767982e-05,5.466821478948720199e-06,-1.863531827086438919e-05,-1.182571043286747679e-05,1.749372239996172073e-06,2.585906896939823072e-05,-2.217235187659641032e-05,-2.308259662145272238e-05,-3.086435364819147524e-05,1.061201379457247998e-05,9.876646149740669777e-07,-2.001424468216463084e-05,2.638923359229797136e-05,-2.592865352501268040e-05,9.135432669343283447e-06,3.832686781632287023e-05,1.943273311341059460e-05,-8.776593268753907285e-06,-1.718413369368180696e-05,-1.327425412165099736e-05,-2.193079888564148963e-05,3.276592008135383306e-06,-5.209336703041781684e-06,1.110610793451466700e-05,-1.708766621427624152e-05,-6.375591320427956045e-06,-1.203895951284599019e-05,-3.663658945664579730e-06,-4.379680661555200255e-06,-2.979506495402338331e-05,-2.672798573534178137e-05,4.805931909814323538e-05,3.926190946770951869e-05,-1.497074272018696181e-05,1.789514893401484408e-05,-2.430572161514825980e-05,-8.934586607526464212e-06,-9.076059114641674825e-06,4.506723448481970977e-06,-2.280090719594236612e-05,-2.193980396315165497e-05,-4.162111021649963072e-08,3.324700563084566563e-05,-1.379340904655115749e-05,-8.678784062496506805e-06,-9.359549791815963580e-06,1.448929248859661378e-05,2.302129038086652018e-05,3.525192994274806981e-05,2.955389782189409039e-05,3.013881543378591586e-05,6.150262827352323514e-06,3.405417846790414745e-05,-1.872571835205492140e-05,-4.868959445440524521e-06,2.591880426970066825e-05,-3.300457100028520590e-05,-5.454461976938787456e-05,3.710831194287980933e-05,2.632271186191627294e-05,2.608683085823662942e-06,1.399512853727345328e-05,-2.133721563212768893e-05,-1.537230284720750447e-05,-1.434854776028527769e-05,1.890409842303950125e-05,-1.942014541363778287e-05,-9.392629162329734028e-06,7.879702218321162199e-06,3.842229658965736020e-05,1.220610658481223606e-05,-3.718811379418870923e-05,-3.534835431063078024e-06,-1.538628858260728223e-06,-3.090063406666098548e-06,1.777310847398184910e-05,2.649756299367112295e-05,2.765645726321674971e-05,1.306954012944817801e-05,-2.345275518707722517e-05,-2.851149836064911997e-06,-8.858217888123019507e-06,-7.152757366079013008e-06,1.104698143381547690e-05,1.911457873641413206e-05,3.054786841834653536e-05,4.872455919216483214e-06,-2.490963810455620468e-06,8.202066915904672001e-06,1.753022826507855451e-05,4.050509703421593450e-05,2.630479253344240789e-05,2.178113788021768398e-05,4.929056849539322413e-06,-2.316329784320423459e-06,-1.602940412603672432e-07,4.660400922156076713e-05,-1.161883398520558291e-05,-5.937359290922857247e-06,4.422437718499662222e-06,-2.681081128163815777e-05,3.387900000239545530e-05,9.894483914028853939e-06,3.122693451594069438e-05,6.818911279154266038e-05,2.805757728414048281e-05,2.030150217627493990e-05,3.335887045346541192e-05,5.526364806495197231e-05,-1.394067185390203975e-05,-9.162805583916002811e-06,-3.964491196584369118e-05,-2.056814423454538567e-05,1.370229555493960586e-05,2.215158197894138254e-05,-4.448458194713430041e-06,7.063250720809865730e-06,-6.506849295963412620e-06,1.328830440495586629e-05,4.762734343077665202e-05,4.267675270209782053e-08,-3.116190486848567772e-05,-4.797183499993646688e-06,5.891524480537511645e-05,-5.357446252463251180e-05,4.657092188845509697e-05,5.986265570028073734e-05,-1.757468789043034648e-07,1.812521993470956057e-05,2.121089875672571475e-05,2.723769456217985864e-05,2.373185276924992621e-05,-1.680052597677323236e-05,-1.424865468374176336e-05,-5.556807832490696698e-06,-2.307683183658792699e-05,-2.537770940140548551e-05,-3.856723536404850765e-05,-3.356588230376802490e-05,3.093407201674375689e-05,6.493632148647273895e-06,-5.958664191275012231e-05,2.615990016814067164e-05,1.507363597778187953e-05,2.461733730369215729e-05,7.527941640075554514e-07,1.336979348641938779e-05,-4.002976882482202218e-05,3.301563703988919115e-05,2.921830014318384643e-05,4.797534310213222975e-05,-3.990998941276824113e-05,1.964365304576220968e-05,-5.734748285110306609e-05,-2.755378157884231776e-05,2.755736347458165759e-05,4.189668335122024819e-05,6.245560171788626228e-05,5.239398165330441811e-05,5.050385867490029357e-06,2.027989510982301062e-05,1.695419918266904340e-05,1.479303880163392211e-05,-2.340132803449043180e-05,-7.131834159017035849e-05,3.524274592528969476e-05,-3.943995192103429354e-05,-1.132568648448536548e-05,4.609375226167067077e-06,-1.712370621081352721e-05,-1.551584313598323420e-05,2.981719076432426169e-05,1.119746071869421461e-05,-2.766217332805731772e-05,-4.750256370016882541e-05,-2.322867901842472091e-05,7.686142318807759808e-07,-2.213962600741186868e-05,3.677748170210299385e-05,-1.250192525758693383e-05,3.000254968920565582e-06,2.933885623334590322e-06,-2.363594896814143323e-06,-9.509547057773421643e-06,-1.421518526473476867e-05,4.969958281538587705e-05,-2.501907863497274882e-05,-3.111388089054471703e-05,-2.302561548697027951e-05,-4.113520859029472731e-05,-3.663761857997419828e-05,2.223930086441789429e-05,4.849435895565583528e-05,6.831645328332295524e-08,-5.820967607976282299e-06,-4.477140175520077155e-05,-3.022766445931316355e-05,-1.452841924003966741e-05,-6.157756564937507380e-05,-3.339627142064168420e-06,7.253340024896705500e-06,4.092957124471810747e-05,2.517376920434934599e-05,-6.729173320737681500e-06,-1.643281081647142623e-05,-6.234855678021832021e-06,-2.038104893469267986e-05,1.548556290655457484e-05,3.823708192787911303e-06,-2.467397966217873721e-05,-9.334681725028640993e-06,2.714430574955337920e-06,4.861719017716248251e-05,1.459561985782968994e-05,-2.560956750758070839e-05,-5.281778822835274039e-06,-1.185572142233867579e-05,3.346959260812224971e-05,-1.290204235584113072e-05,-1.585197611625516125e-05,-4.859219149876768781e-05,2.647204226701661126e-05,1.300313638977636566e-05,-2.503143637396475896e-05,3.657305099704778509e-06,1.518608544093624233e-05,1.821596492341125788e-05,4.011262315241030657e-06,-4.284397833774162623e-05,-2.692578105138786503e-07,1.513605236416988115e-06,-4.680164233964552515e-05,-3.238396200013816430e-05,-2.881907788350684953e-06,-4.039294269216750694e-05,-3.548164034173895810e-05,-6.130404543457070520e-05,2.781498467020813479e-05,2.729051067738696058e-06,2.827354368450887037e-05,-4.108012395504306115e-05,-1.675021034272226476e-05,5.189251206677769005e-05,1.875156971938332404e-05,-6.017005632267947274e-06,-4.639497564499392267e-05,4.471206975948232443e-05,2.763758415082016653e-05,-2.943232760037924333e-05,2.472292077560808214e-06,-3.486605097579716594e-05,-5.761039533218412239e-06,-9.632913981398882558e-06,-7.639174802933669517e-06,1.036366518843516054e-05,7.047308795641511509e-05,-5.390509390921199010e-05,1.637730523099277980e-05,-5.200110211218843443e-05,-2.121668225064635672e-05,5.251907682878916304e-05,5.678864963401537006e-05,-3.198855675520481824e-05,1.915172635597973077e-05,2.261625021344083270e-05,4.923310870606671875e-06,-1.615106954688867955e-05,-2.107024281923821011e-05,4.099416527247632205e-05,4.790443516808576426e-05,-3.204247786787380058e-05,1.819622417673213968e-05,-4.760252562090223040e-06,1.600984426338994068e-06,6.415967670171887440e-06,5.001758162513493495e-05,3.043337941175800791e-05,6.861207612714927541e-05,-8.279597655294298171e-06,-2.241157938242654613e-05,-6.306331867498588746e-06,-5.219738335240293945e-06,-7.626019167746502088e-06,-2.216415257311035158e-05,7.628703249724831232e-06,-4.471173858296236030e-05,-1.798359500786295024e-06,1.139457244234107551e-05,-3.787350299159161646e-05,5.454672346164846912e-06,3.482319770609149025e-05,1.988576396259281610e-05,5.377751217120941016e-06,9.893415246533525346e-06,2.176798235201922186e-05,-1.604773402810904436e-05,-5.520979553974674885e-06,-2.424459646563160634e-06,-8.052082007245660571e-05,1.966039830801570150e-05,1.732780357904185518e-05,-1.083679538684374132e-07,1.197690281232367933e-05,-4.807626681975121317e-06,1.790957388333540201e-05,5.442029936805893819e-05,-2.519291786899107750e-05,-1.687855584773193736e-05,-3.519118700643910437e-05,1.147427248057550605e-05,1.497717523388603181e-05,4.568377518400868143e-05,-1.927397819469942213e-05,1.400051528700892869e-05,-3.659380264211125550e-06,9.470319977169897074e-05,5.092457958425588942e-05,-4.011240281524171653e-06,7.400261217251667223e-05,-2.095760657757389143e-05,3.857340996325779754e-05,-3.631263275490244358e-05,1.292223399389149761e-05,4.027086832439045761e-05,-1.039087502320405493e-05,-4.175596019719094582e-05,-5.079265421906301498e-05,2.438581649266476041e-05,3.328339757681808580e-05,-1.041443987554154341e-05,-4.729454706364202157e-06,3.796956509374588718e-05,-1.487691533610830880e-05,-1.300683502041094747e-05,-9.381860385908251078e-06,2.164836019603845036e-06,3.176208719502225132e-05,3.915395168384735993e-06,2.979031121973112938e-05,-2.121175278320415639e-06,-2.176400786626670004e-05,1.520132234180069102e-05,-5.294727403711459439e-05,-1.348758020942624301e-05,-5.483546690954994260e-05,-5.160640826418985710e-05,4.818315563619393090e-05,-3.421141049562177597e-05,2.046647200961303591e-05,-3.599199267892241486e-05,-1.149583652647730714e-05,-1.051848401245580133e-05,-2.711128595333031502e-05,3.074724490327326816e-05,-9.677185228547780080e-06,2.682179973418247852e-05,1.349689447886498410e-05,-1.863926217992852653e-05,-3.226289656424940686e-05,1.443157209459204280e-05,9.579849727998204426e-06,-9.790653343837877337e-06,-1.955323621225189395e-05,-4.079019291112499557e-05,-9.438479517089316717e-06,-1.390774800838808289e-05,4.021567718769458537e-05,-5.625844959720845075e-06,-7.143005098199642822e-06,5.809272172557337379e-06,8.226621979318339269e-07,-2.523240391082661439e-05,-1.046772815679791654e-04,-3.715472820485523183e-05,1.896786703513951572e-05,-1.239538047837891983e-05,4.356035200198908331e-05,-1.044265512380321756e-05,1.233697458891098810e-06,-4.049291102507579032e-05,2.435227202718950418e-05,-9.575218226418369979e-07,3.750372320711602633e-06,-2.065249229191877254e-05,-1.568429517177442726e-05,-1.694578454892709692e-05,-6.795364258624481741e-06,2.369674618557402807e-05,2.144497376206467180e-05,9.994276513858098586e-06,-2.266510407793770224e-05,-1.091951269993696394e-05,-3.924541433825031567e-05,3.553229406197020660e-05,4.027632961042791908e-05,1.665191249115630158e-05,1.065128559945055286e-05,7.430110274014252196e-06,1.902105054874224106e-05,-1.716531437667127049e-05,-1.386932447675249961e-05,4.323047179394369992e-05,7.989750240850363537e-06,-1.648348561806709766e-06,3.679509476463512684e-05,-1.720151814717267978e-05,6.003859554705325023e-06,5.537462028667533104e-05,8.173970347253500985e-06,2.812575486981935171e-05,-6.482870887992951150e-05,2.444869366191295752e-05,1.720029475242342489e-05,2.830354540711928194e-05,1.852400594191794175e-05,2.337605410346313534e-05,8.647169646437192865e-06,-4.433786994369079202e-06,-4.297156928575049725e-05,-3.018802262335076319e-05,-1.574589717906105363e-05,-7.383362998550845150e-06,-7.060412362979219998e-06,-1.150278715316309502e-05,2.976736257859933786e-05,1.839137351151052280e-05,-1.845421763365536313e-05,-8.526854799261720987e-06,4.433148986520282778e-06,-3.510155708293115801e-05,-1.833857691301705973e-05,-2.418274519430138023e-05,-3.118178187472986232e-05,-2.518157736322499033e-05,7.147543900833838050e-06,6.011206154960129022e-06,-1.124109738724305503e-05,-3.768497664647191362e-05,-1.388142304708350225e-05,3.641377784484518717e-05,1.710159949545131213e-05,6.564658391237549922e-06,-3.842390635458201817e-05,3.857217053172826931e-06,-1.646922000650537856e-05,2.665628725939722511e-05,-1.425265629378057526e-05,-3.096441243170928531e-05,2.277882508171492646e-05,6.782634374609907389e-06,7.080497478972117450e-06,-5.118578006962622927e-05,1.300062599061451238e-05,2.871381979141095811e-05,-5.072734877236343131e-05,6.149976093271414746e-06,-2.567474229656132377e-05,-3.507324394864877437e-06,4.590392828563683941e-05,-5.214865918754299344e-05,3.195662296795512530e-05,-9.166512995463482931e-06,-1.429817584837638355e-05,-6.963619537906985170e-05,-5.329104479500689162e-05,4.114239750877962269e-05,1.645465490680940508e-05,-3.219886197641959585e-05,-1.861265474611585300e-06,3.731747589991867719e-05,-2.843222385715213972e-05,5.743129420866213870e-05,4.004807854504181198e-06,1.877235281811977786e-05,-8.415549932642618075e-06,-2.542367578447383153e-05,-2.487805769247833913e-05,-2.972550129248977167e-05,1.931547160356090139e-05,-2.692739121644905219e-05,5.855639512306610329e-06,3.895930248002348181e-05,-2.847767021609068637e-05,4.437009434654997194e-06,1.099047766900992368e-06,3.877096551423504691e-05,1.137356257453740240e-06,2.689875657519678819e-05,-4.099296479916649221e-05,4.274323336458310388e-05,2.781979781845157480e-05,-2.584172522867544195e-07,-2.685261822435835701e-05,-1.430662277199716453e-05,3.545299136983766093e-05,-3.068078733127528160e-06,-2.491859785784116631e-05,-1.726854335594895786e-06,-7.474596424542961296e-05,-5.220678746543971958e-05,-5.644466504908801511e-05,-2.061779462368872404e-05,3.808917322926047924e-05,-6.432912912525972836e-06,-1.448378286084307668e-05,3.457012736991982364e-05,3.014587897253314882e-05,-2.406872577799234257e-05,-1.337184123750918878e-05,-3.869998771999800521e-05,-2.344627796763189219e-05,5.951181249669583884e-05,-2.247034988297369839e-05,-4.713304347332115219e-05,-5.512424230994008366e-06,-1.853660080777308334e-05,-3.126500605753161898e-05,-3.339699032479732970e-05,1.843804221144271938e-06,2.988644828480775103e-05,2.521448615109857431e-05,4.972604549070360409e-06,-3.790941234015013513e-05,1.074450248348261736e-05,4.821070206812734228e-05,-4.146247575872318255e-06,-1.571470104154269691e-05,-5.901663910816574830e-06,-2.322117841311758517e-06,1.373476938677188281e-06,-2.408381763739891784e-05,1.751929804010423313e-05,-2.559015598940546845e-05,-1.423575426814898701e-05,1.984624441121176849e-05,-1.936105281491306695e-05,-1.430298446327834452e-05,-1.001914893498788286e-05,-1.864654794615515205e-05,-2.094971546164748258e-05,-2.145312948676880022e-05,-6.816438422533286342e-06,-2.802343039827761802e-05,-3.571048227264903029e-05,-2.459223191394699790e-05,1.004333079543076628e-05,2.065204615450277095e-05,1.538131579965806481e-05,2.254680871282472137e-05,3.328478311734499383e-05,-8.171206191125624215e-06,-2.742528248518622243e-05,2.143855862359504103e-05,-4.699556275148496486e-05,1.649158324976194204e-05,6.473920501562428721e-06,-4.481455301845315581e-05,-8.189047326302677706e-06,-4.876674318794580060e-06,-3.058521060666205321e-05,2.720787701673379783e-05,-2.894646511826069351e-06,-2.062399568847066386e-05,-1.327336168945121793e-05,2.101702091188073284e-05,1.258923838175968256e-05,-5.567656002367711750e-06,1.456869475206926652e-05,-2.024194939614099302e-05,1.903003421720935335e-05,-2.637738422725847436e-05,-2.238674492311626619e-05,-7.024100329533558291e-05,-3.512046398251314215e-06,8.879314074950110366e-07,-2.069504385609221385e-05,-3.330801070568402698e-05,-3.393020497658255055e-05,-1.047260396630983332e-05,2.636486822834896755e-05,1.678880404554098580e-05,-3.699119123485046360e-05,-2.061092990354923738e-05,3.677770153009032980e-05,-6.371247826531846628e-06,1.561301979842215983e-05,-2.053863507304008734e-05,-5.780438195720540774e-06,2.204628002654242922e-05,-2.497239003830558200e-05,-1.849185868102715447e-05,-9.595688043536283049e-06,-1.264818623387936823e-05,-3.667286605634920512e-05,-3.323945959346843743e-05,3.571767635804188602e-06,8.867390518247820369e-06,-2.645564611257321684e-05,9.276626967904468910e-06,4.174341429491176868e-05,3.613896045934198082e-05,2.187958770810677147e-05,2.006462272251288795e-05,-1.474204803540056476e-05,-7.680850912364109433e-07,-2.536839653882767826e-05,-2.658875535384184615e-05,1.227923628163028897e-05,1.480004239849306934e-05,-7.082493850074646181e-05,1.031368925067957941e-05,-4.349134049687155727e-05,-1.362704531709333974e-05,1.383416267568415175e-05,-1.309078473788781853e-05,3.775592641852856080e-05,3.289407566934082956e-05,-1.752904980076851091e-05,-2.758605073889817665e-05,1.957614550421295040e-05,-2.004035096900761814e-05,2.629564387060511903e-05,-3.108550218847215378e-05,4.628391012730218067e-05,-2.812778518875536061e-05,-7.094071217449089738e-05,3.509918520397557268e-05,-8.074349752644475165e-06,-4.339284970141500338e-05,6.971730891958768819e-05,-2.147646175680848182e-05,-1.166945025618777853e-05,-2.877460756057205563e-05,-3.764023799949543585e-05,-2.231018252706713849e-05,3.889487427059753105e-06,-3.251999989002463061e-05,-4.078676048945688179e-05,-6.329516255181568622e-05,9.465200129710485695e-06,2.633335454089316490e-05,-3.886733561229724305e-06,-5.521597000551939289e-06,-7.716223260623486564e-06,-3.138753989258176684e-06,-8.732329152282029887e-06,1.036474142452735972e-05,-5.035310418500523144e-05,2.871414654804805975e-06,7.436181586247898978e-07,-2.647945883231881396e-05,2.811789242908733008e-05,4.003898430960112361e-05,4.155106552154255163e-06,2.405333757993040111e-05,-1.839879123171919872e-06,-2.879019258690633973e-05,2.869398827321065812e-06,-3.195843952942082228e-05,3.738297972095868662e-05,1.218921442483052335e-05,4.622994049130186960e-05,1.635267430413724825e-05,2.216903508495272874e-05,1.840767307379798551e-05,1.103308389043017848e-05,2.078662784071431426e-05,1.799377147524906619e-05,2.225635702381557638e-05,-5.575816586822006372e-06,-4.882469795529047530e-06,2.702185297091385524e-05,7.687287759388255584e-06,-1.992882624741991205e-06,-1.326282447439284704e-05,-9.285898359105774065e-06,-3.331435610000987841e-05,-1.826675124815947294e-05,-1.236322887918763463e-05,1.503964595649857653e-05,-4.208880795251787695e-06,2.088937714600452671e-05,2.483995276820186231e-05,1.123345984016126672e-05,2.667542071536345113e-05,3.130420654762995555e-05,1.565393085499296451e-05,2.856197494872864871e-05,3.269070755342637862e-05,-3.106393542227363227e-06,2.873448195184913294e-05,1.366311655299673544e-05,-3.030781464291513707e-05,1.395249919927981986e-05,-3.861785793810312172e-05,1.264605635881059551e-05,-4.977256136672470865e-05,-1.921109693185788148e-05,3.039992288918404460e-06,-4.836471774768475216e-05,3.613730073212078871e-05,-4.460110539835660263e-05,1.621393897511962427e-05,8.270451147297058455e-06,-4.792943947636088451e-06,-1.092897329962835161e-05,1.524565469249240563e-05,1.303953166956071786e-05,3.633259262401450162e-05,4.349314847396453963e-06,1.666564850124083668e-05,3.560866676262924852e-06,5.715696223141043575e-05,-4.759810085485033718e-05,3.967697925743829000e-07,2.670216240350149772e-05,-2.630003490228069523e-06,6.544245213887579950e-06,-6.619277782938408709e-06,4.477004071764531306e-05,2.110356912363688721e-05,-7.987995951224804010e-08,3.665402956650367794e-06,3.175704108421872397e-05,-3.079233030920574735e-05,2.667390370325277760e-05
