1.483761739729787813e-06,1.448281927911408497e-05,1.704693290178540963e-05,3.364446552033995984e-05,-4.314619924596268857e-05,-3.649991843749048120e-06,-5.986749138861875453e-05,2.593540671100516711e-05,-6.263293243610499819e-06,-3.289539986353259420e-05,1.911408120987989233e-05,3.849172918733649693e-06,-9.630566776904987294e-07,-3.256438345158243222e-05,-1.732155536991209046e-07,-2.582878046216907837e-05,1.766361194629097666e-05,5.108931130865065651e-05,-1.089333092026486794e-05,-1.985122471205722010e-05,-1.744823184970988465e-05,2.300186747672183568e-05,-4.039416607529625584e-05,-4.142366103958424281e-05,-2.711552961082722962e-05,2.238304852089495942e-05,4.470122339477208644e-06,-2.900031243992105251e-06,4.366916167558962159e-05,3.705082405422441506e-07,-4.115533214371287806e-05,-7.391110899872424552e-06,7.237259688518156341e-07,-9.893159834810895327e-06,2.149674881328304229e-06,1.142611530544515107e-05,-6.203955679947845191e-05,-1.022953606659865771e-05,3.522093842357316127e-05,-6.242900935678881663e-05,1.192981883925226838e-05,7.927443120889804298e-05,3.283145487850171185e-05,-2.120631026193135550e-06,-3.648957982314118999e-05,-5.922382679104190595e-05,-2.514133304301332199e-05,-1.319540505599316998e-05,-3.620618994784011602e-05,4.095631068076811164e-05,-5.781867918232272901e-05,6.391749068132064134e-06,1.787399553652542914e-05,4.787883932031885799e-06,7.847612459789641838e-06,-3.949149335732379693e-05,1.778963971199922915e-05,1.623224137043746131e-05,-6.541616364919053785e-05,9.949366704257232373e-07,1.159361742209782398e-05,-5.567299927301832028e-05,5.680590390106349598e-06,6.451130971517868915e-06,2.496745520772432843e-05,-4.617753335245165607e-05,3.986648416514205448e-05,-4.131999080993466270e-05,3.166098875872463400e-05,-2.261543556001988469e-05,1.455715214175488092e-05,-2.996266215961605969e-06,5.952850503682776404e-05,2.380836334912282286e-05,-4.524169364012733344e-05,2.642188676521910919e-05,-5.846648505337120617e-05,-6.743824818229291385e-05,4.412623028523856168e-05,5.498954264595232053e-05,2.947858541900328380e-05,-7.172353504236099460e-06,-6.340093080361279000e-06,7.711000562905627465e-05,-3.522958224450570595e-05,-1.175989494452882906e-05,2.226187357678744853e-05,2.444007502903081670e-06,1.746020854859468808e-06,7.595210333956715917e-06,2.186145543268195040e-06,1.849973109690584099e-05,4.053203361629976412e-05,5.021086885300668755e-05,1.480643885158086198e-05,8.613767482796270774e-05,-2.996239135666838442e-05,3.518705239704918359e-05,8.878624145417531152e-05,1.332789222173808202e-05,-4.359356518051592098e-05,1.071859273492799925e-04,-5.172560687746860422e-05,-6.192110935589466595e-05,-4.410017619477146985e-06,3.059337392499170182e-05,1.570213938866155573e-05,-3.086633452656036193e-05,-4.012705495280578495e-05,-1.251274376769815475e-05,-9.965010621859632327e-06,4.091802474617425671e-05,-3.841036060502590823e-05,-2.783957171246435628e-05,5.828335585687459962e-06,-1.656683481542355640e-05,-3.515258191240179427e-05,-5.749862565209874353e-05,-1.185330534385972277e-04,-1.177666809056417425e-05,4.254660214584980596e-05,-4.184995398534194234e-06,1.684325270951982204e-05,-4.072266682753662313e-05,-2.562934730349439677e-06,-2.428119324469641543e-05,8.816098874593144254e-06,-2.725802108170365259e-05,-6.435166087077653372e-07,4.717443198706147115e-05,-2.599354647667963960e-05,-5.748930066686409131e-05,-3.278451147606677141e-05,-3.937900781305927843e-05,-4.406594568695346869e-05,-1.872423793453496482e-05,-1.944675085970612016e-06,-4.521240358201408766e-05,-1.646670842572941628e-05,5.581160854344274540e-06,4.149814950641193139e-05,-2.890076426356416882e-05,3.969989849876855815e-05,-2.418191182147165090e-05,5.996719798447805714e-06,-1.094817911112587311e-05,3.276575335797563443e-05,4.180933457959579857e-05,2.725601330901716545e-05,3.280517353004372985e-05,-8.507908488580205814e-05,-3.313185517925407652e-05,3.722535438895082619e-05,-4.788565240076497553e-06,-3.951266371782276281e-06,-1.149004168970946805e-05,-6.366440154984848588e-05,-5.024403342853227646e-05,-9.178998248899519465e-06,-3.910932608527521769e-06,1.547740314547994846e-05,4.211300184207561329e-05,1.030373549974250511e-05,1.216488609458043350e-05,3.279797682387132707e-05,3.395869198668009732e-05,5.524433825666084881e-05,3.764553707263123736e-05,1.636055024657711557e-05,2.185837360245985458e-05,2.747365564981979195e-05,-2.690024233943423220e-05,6.127204997153409133e-05,-5.026016650378876689e-05,2.010757965231440748e-05,4.185414042692040670e-05,2.039272830500105549e-05,9.884276557275311061e-06,2.778904852224522353e-05,-6.947920396428849268e-06,-6.274400699633487163e-06,2.981824033912758193e-05,2.891837108639795843e-05,6.508719372188878616e-05,-4.655024911728566658e-06,1.124662549602432698e-06,6.251641233410413937e-05,2.159122162994733907e-05,3.101401979497222556e-05,2.648247331669056426e-05,5.149444196176510322e-05,1.869761889594721065e-05,-2.537708493657226486e-06,9.382988316648136230e-06,-3.829907485033360714e-05,-2.386352794817865242e-05,5.501288936214342716e-05,5.784683033688390914e-06,5.071548023233615467e-05,2.703798810615359248e-05,1.339614831989221622e-05,-3.208109190864371377e-05,1.707408150856703263e-05,-6.693987542748461718e-05,-4.466457942183695820e-05,3.448528149705137603e-05,-1.386903493826089124e-05,-2.883110469114159018e-06,-6.433073854229097528e-06,-5.211713232379068739e-05,3.306479334521614808e-05,-5.326579615502685997e-05,-1.553587994996908763e-05,-2.154355409148865785e-05,-9.413862217001541004e-06,2.557633129967595639e-05,-6.226156772246744522e-05,-4.227839750313759447e-05,-1.077386739139413996e-05,-6.298932756405697714e-05,-5.011707089805569079e-05,-4.786918917247479582e-05,-1.998449247240623579e-05,-3.009672278101618821e-05,1.296370101056522353e-05,-2.429394324668157014e-05,-2.037914001074768141e-05,-4.104531152591135583e-06,-3.292130177711466898e-06,1.373811395387442930e-05,-3.231707595479973034e-05,-4.568989408336132484e-05,7.256689410073768770e-06,4.052573936276219249e-05,-3.950485456336585787e-05,3.245295236859194811e-05,-9.660482476901650949e-06,-3.756436988278505351e-05,-2.504795410112766564e-05,-4.224741441158759653e-05,7.756572411155611351e-06,-5.505252962588149911e-06,-5.340978155902235779e-05,-2.817446692491937471e-05,1.312603779657876075e-06,-1.126722577287145782e-07,-5.566155463630079937e-06,8.438942730335595880e-08,3.340609151170163002e-05,-1.502689175859792228e-05,-7.272916740747529676e-07,-4.089175309781353362e-05,7.782883544230413369e-06,1.180623906048898488e-05,1.877085203861147394e-05,-1.628128419135801395e-06,4.527118904932565696e-06,-5.271944230195013258e-05,-1.308554818094855342e-05,-3.667395572679188899e-05,2.159011665140746829e-05,1.815012655175474145e-07,5.706679262745467727e-05,-3.270429232867583713e-05,-1.698537671566258852e-05,-3.232965579372441378e-05,1.576051648914159438e-05,1.108915288759915336e-05,-6.644741862491648111e-06,5.136669669282152890e-06,2.857335237406767467e-05,-2.512057183118391592e-05,1.419034929568512863e-05,-2.756437329168280225e-06,2.808180573805777746e-05,3.967855009584564700e-05,5.137389814390269242e-05,-2.812535935165432166e-05,4.076240848677436775e-05,-2.157426633831074412e-05,-7.566095759973882738e-06,5.883420450198370598e-05,-5.569769951269888803e-06,2.673835794145890666e-05,1.497927495312627480e-05,4.902730756467731609e-05,-4.544742970386837933e-06,1.006446631812562086e-05,3.697369229011759309e-05,-1.094281183843856447e-06,7.062841638632337213e-06,1.163518978697651482e-04,3.875569539662175313e-05,1.149780708615917605e-05,1.920534457980107695e-05,5.784106870902760051e-05,5.847309132460957781e-05,4.575568210719963984e-05,-6.154182358245398365e-05,5.892676779694344748e-07,1.255892528992369321e-04,2.895772828625291310e-05,1.330076133049914913e-04,7.227249801298542590e-05,5.170346614717606496e-05,1.113137699953901106e-05,-1.450366861466632653e-05,5.227817008444299974e-05,6.640407305831773344e-05,5.672171904320523435e-05,-1.035123116504353958e-05,3.415407875495014427e-05,4.453904100335852675e-06,4.522968554419805245e-05,5.526945241537420883e-06,7.250756378348657274e-05,8.706772094320008203e-06,8.802677387403803308e-06,8.413037594820718559e-05,5.895488341347053458e-05,9.028001404652921173e-06,7.278171065805522835e-06,9.397412564974379543e-06,2.127173240504760378e-05,2.202274932296695000e-05,3.786838685741995630e-05,-2.547752920943886808e-05,-9.352146699860136434e-06,-2.454504604049084012e-05,-1.975442627931948500e-05,-2.023675746136657945e-05,1.510569653007913995e-05,-2.292229691622445456e-05,1.843533561009581438e-05,-2.272604624738385111e-05,4.776871378219701134e-05,5.827592380268892943e-06,-4.831862704565571522e-05,-3.779810596560211018e-05,2.664106158654627185e-05,3.413995941924097955e-05,-3.706037794929796380e-06,-4.816409527985224360e-06,-2.662150870494909725e-05,-3.708385732861736354e-05,3.235921206559299099e-05,-1.591140013968214486e-05,1.071046719303062118e-05,3.605855652029186347e-06,9.147740570938185648e-06,1.143334843750043440e-06,6.814517269107199223e-05,-3.166238551137010907e-07,1.430828611983416230e-05,8.061922662193090575e-05,-3.342532417988753013e-05,-5.355505193953860555e-05,-9.902434035814431659e-06,-2.287574880982753988e-05,3.467117840285976679e-05,-3.163965773192258972e-05,-1.601824506640285481e-05,-3.875478821902629198e-05,-1.133843623166680591e-05,-1.562526946641231205e-05,8.549426065975241382e-06,3.048080001318759956e-05,3.521620580462457280e-05,1.913146418704390206e-05,1.954665275565626865e-05,6.107343247257147159e-06,1.566701293130603776e-05,5.206341527282526145e-05,1.091044107253843819e-05,3.918644651789976311e-05,-1.031502628346713790e-05,4.844674672399719412e-05,-2.530862486490767269e-05,1.567350805874540779e-05,-5.864035428893883475e-07,-8.972813536893933014e-06,-5.414334770897313869e-05,-6.586621698311941383e-06,-1.874750621811153219e-05,2.682686657814674873e-05,7.070370697793876042e-05,4.758110567192486167e-05,2.909323987660351245e-05,4.856950775871201435e-06,1.853884407538137845e-05,-3.602262865945937768e-05,3.108906270339145301e-06,2.020161212494665947e-05,-3.246307853845382073e-05,2.941479394098759259e-05,3.755773994186862078e-05,-3.026082594891315035e-05,-4.357558361064515075e-05,4.690452666713007703e-05,-9.741561627652605543e-05,1.406741334702515816e-06,-2.087788494185556251e-06,-3.624285180139703893e-05,1.886090364150471146e-05,3.427847280986945523e-05,-3.526139160820854724e-06,1.061041690250370317e-05,4.667399133051218934e-06,-1.412682315879642902e-05,4.217502166711940132e-05,4.111196535312525033e-05,-2.502200162552325096e-06,-1.438404361135263905e-05,-2.914948771523700297e-05,-8.428270135159033347e-05,-4.353883398360665677e-05,-1.991532823705094011e-06,-7.393945114449765278e-05,4.124217435134397951e-05,2.201426954894649700e-05,-5.223768750053505252e-05,8.602744162881794889e-06,-5.512050247930329920e-06,-9.398110794689487873e-05,-9.423840383055295605e-05,-1.950200311025272781e-05,-8.285662791613463188e-08,-1.507479407600993715e-06,-3.829548114517794473e-05,-1.122115370205753205e-04,-5.635815714208092806e-05,2.839023083927615841e-05,-9.145621195482517805e-05,8.239223906109966830e-06,-2.846601220443401511e-05,-9.577912210502482744e-05,2.716823706613164308e-05,-1.646577014827006342e-05,9.029729190404949522e-05,-1.481647643376832061e-05,-5.706361082562838501e-05,-6.079034014014561517e-05,2.458941680394479375e-05,5.480724664426800332e-05,4.640451389530224618e-05,-2.782204423379593952e-05,-6.444988948986095020e-05,-1.995392248138232462e-05,8.263470573499699418e-05,1.027936027282842203e-05,5.336057957607211633e-05,8.015316572987275388e-05,-6.256802280938931551e-06,1.911728385179361554e-05,-7.389981145107739791e-05,-4.259107207482504362e-05,3.863943402866472089e-05,-1.567469957490581997e-05,-5.552925600231430075e-05,-1.323550638058334085e-04,-3.162023599434995590e-05,2.975248462405904527e-05,-6.839086660981923897e-05,-4.144415666346017732e-05,9.770069591115463313e-05,3.923888089323515215e-05,5.025255335938683030e-06,2.988498036626583652e-06,-7.207358593411530803e-06,4.396892534101076201e-05,2.749795406929765682e-05,-2.032887991526235275e-05,1.368574592477288394e-05,4.739372627358588659e-05,2.279211987055069184e-05,-3.678630276048827332e-05,1.605172990236107853e-05,8.033757245186371680e-05,-1.266017458477994757e-05,3.071752406116266777e-05,-1.129283555971106768e-05,3.293079910281868382e-05,4.835023094622134434e-05,-6.420642143414715709e-05,3.479806674040074381e-05,1.071429176580732462e-05,-8.899603480031308936e-05,-3.779192375739830401e-05,-1.221071146248180008e-05,-7.303508998213372538e-07,4.622450972381756719e-05,-7.091392347015490906e-05,4.252752678189706918e-05,3.861758794109823166e-05,2.366774096509621431e-05,-3.449370229979986820e-05,3.888798351711546204e-05,-9.200528820885180115e-05,-8.409652090497616553e-05,3.697103964510826382e-05,-6.019622060859110529e-05,-1.915221066442485132e-05,-3.062070054536467344e-05,-5.393709023228805384e-05,2.051395828161949722e-05,6.118958690290523552e-05,-2.932466748551025635e-05,-2.547654851907246311e-05,3.128459757508311983e-05,-5.122706119295450806e-05,-5.947588796653796822e-05,1.915225666306016858e-05,2.830963497650878792e-05,-4.460216963985419729e-05,-3.649052300657186295e-06,-8.268159278391076057e-05,3.390480487359318182e-05,-1.327663800126220176e-06,-1.037818114852822480e-05,3.592777929870297150e-05,2.140167202046310525e-05,-2.656568839909351793e-05,1.165609506077234738e-04,-5.694813790254502582e-05,7.353157676763237712e-05,-8.705642095754715553e-05,3.489686409986892778e-05,3.557175454687885147e-05,-1.579870462689779381e-07,-3.889912013331715460e-05,7.091187277750432018e-05,2.069985836766380878e-05,9.409784090749648494e-06,3.830322878973099835e-05,-7.987473665149382059e-05,2.084216149775689730e-05,5.525942315761575981e-06,2.901943450619400607e-05,-2.631230852529402203e-05,-2.594305343598038094e-05,1.977330201610784738e-05,-4.382429152551256454e-05,-4.195614189820245341e-05,-6.386630216289063014e-05,6.088337014487576328e-06,3.447485827309915260e-05,-1.199616163728326993e-05,1.237621253437913038e-05,1.519945820314885589e-05,-7.620041058308293610e-05,6.372487059539156946e-05,-1.340692356651699382e-05,1.704104660608639636e-05,-3.422328357296777486e-05,-1.524967186663159190e-05,-4.257271925118225216e-05,5.600882263084629853e-05,3.387402321792752082e-05,-3.636855335973664859e-05,-1.887179465669500618e-05,-2.394027587551754050e-05,-5.539258808036089667e-06,-6.607512781134826320e-05,5.200591508189378532e-05,7.456256187711458709e-05,-9.069558827009394477e-05,-1.623656953250251725e-05,2.853982123367723519e-05,-1.031044200727980126e-05,-2.324126229713274072e-05,9.486476174186652928e-06,-1.076985443545446027e-05,2.089507634309696358e-05,-4.965043175355853114e-05,-3.165462521601510780e-05,1.784863555077215194e-05,-3.432737547284632837e-05,3.301324944274700653e-05,-6.546314964693383516e-05,-1.300892723831044147e-04,-3.078849203770459746e-05,8.832940426134607914e-05,-6.544825465297814864e-05,1.200324350232337363e-05,9.303280363755947978e-05,-6.940069244260576979e-05,-1.684561853078703951e-05,6.534891286325216441e-05,1.153508254648236500e-04,-3.404516571459810742e-05,-5.885476422287733915e-05,-1.069707066100737577e-05,-9.003848437222803053e-05,4.118703395236039731e-05,-6.125239189676458121e-05,-1.226045739619062498e-07,1.774018139679404242e-05,-6.267643172969036272e-05,-2.197591156121132271e-05,5.400512599181859022e-05,7.917675615011402857e-05,7.244414227640392828e-05,4.697813394314894908e-06,2.239255950670714459e-05,6.604236245065041430e-05,-1.860702766443984757e-05,1.114260505300630711e-04,-3.809659895330868882e-06,-2.324854913375580970e-05,6.229266101712244990e-06,3.186952196638086649e-05,-3.693282486455302976e-05,2.291618944461432876e-05,2.333500079070817618e-05,-8.559890810126359847e-06,-7.379501043095630425e-05,-2.031007101888100009e-06,6.936696540513726070e-06,3.986418376958465448e-06,1.130617654498156810e-04,-5.198701267193748968e-05,-2.536141926848735310e-05,-7.588853754143844030e-06,1.535938713267404868e-04,-4.719290775587178447e-05,1.804789884694014799e-05,-2.118363134249374346e-05,-2.292961560421263585e-05,-6.475269475994187122e-05,-1.788855270825950305e-05,-5.210283577464621227e-06,2.977730029944511734e-05,7.223400566380875026e-05,4.519606670510229683e-05,-3.701546695951488255e-05,4.998129843531347067e-05,1.082240060594337056e-05,-2.399612778879574521e-06,3.529181120034548757e-05,6.392158283407952865e-05,-2.563784817633264407e-05,5.438943689579359473e-05,3.268444894866111186e-05,-8.409386003117526301e-06,5.548030557774889988e-05,1.430780019181980338e-05,-8.053142259621624550e-05,7.354846150625588242e-06,-9.032505726169096723e-06,-1.640364878995258067e-05,-6.040537151907077206e-06,-7.164122657367131258e-06,-8.265471787055069484e-05,5.439806951992122224e-05,-4.149157884402425315e-05,4.586041206943684896e-06,-8.081609480798860836e-06,-1.512381632729250036e-05,2.077720035618904496e-05,4.181690508587136305e-05,-2.260622142601407354e-05,1.708044492910143115e-05,-2.350388638906315990e-05,-4.806044298866298827e-05,-8.513990417673432442e-05,1.406338224815803335e-05,2.623567463286388435e-05,3.688762555057283608e-05,-2.880006952451256988e-05,-1.498345888629398304e-05,-1.698785667486770709e-05,-6.956796736934251477e-05,-3.636954326697248076e-06,1.360666652443553990e-05,7.945869291699153645e-05,-4.472333386222625463e-05,1.822068639476989141e-05,3.398487526025133258e-05,-5.842476704718523728e-05,1.011849008517932394e-04,7.572128267014343868e-05,-7.363799987869306621e-05,-8.665079123208698950e-05,-4.112539150283148654e-05,6.513333221441712354e-05,-1.247308238013116315e-05,3.759708045535194084e-05,-2.815647899094075198e-05,-4.724938346449029871e-05,7.114156411972887776e-05,3.300800464326010070e-05,5.426211676503683135e-05,1.675603139196738596e-06,-7.673000534821741904e-06,-4.228216511063408092e-05,-5.435859829120960824e-05,-3.639141447465342157e-05,8.038537799938776898e-05,-9.716166546640470558e-05,3.127569538639926193e-05,-4.165095990841063446e-05,2.618556068457355540e-05,5.145893155747928893e-05,5.150783318870546130e-05,-3.862409991590649622e-05,-1.923795933806927625e-05,-2.690991183936605367e-05,2.247156410229305025e-05,5.226117658183957734e-05,8.553798087250221685e-05,1.024911559441023630e-04,-3.090236302352960922e-05,-2.235013972690721719e-05,-2.354822778063072751e-05,5.620672186277072711e-05,4.098589960324792780e-05,5.914230666386548694e-06,3.403874247788084875e-05,-2.541566245871174697e-05,-1.127992672038534127e-05,1.693314300233325712e-05,-1.107803452595277426e-06,-7.514841835540662506e-05,-3.980334387623988995e-06,5.190267742861317662e-05,9.108653667998571851e-05,2.568216035183079469e-05,-9.038939449727569867e-05,3.090653176043122580e-05,8.477913588356774006e-05,-1.369065903725210370e-06,-3.753506008640336073e-05,-3.574332864148439408e-05,-7.806711408042522437e-05,2.128121813596821360e-05,-2.446286669195436685e-05,-8.779268579322907175e-06,-1.271603862326350424e-05,1.084577940896753888e-05,8.141690915227930644e-05,-4.076978551028317907e-06,8.544411770114082645e-06,-1.558086814411444414e-05,-1.215922502304667970e-04,2.152685885662147350e-06,-3.918297916925611232e-05,5.719082967441648310e-05,6.952170159298681575e-06,3.273426021830899216e-06,-3.784297513132606081e-06,3.850236358606362559e-05,4.182379790499137596e-05,-3.343304139189523825e-05,2.868150480309556683e-05,-6.399316293769085500e-05,-3.620456059488435721e-05,2.574449722734550215e-05,-1.104425962699374074e-04,-2.629288433688873344e-05,-2.116529021219086881e-05,-2.390288422954896518e-05,-5.238131823541248769e-05,-6.982798272473021272e-05,-1.128907665673782167e-06,-6.170199639798674019e-05,1.137030831743815723e-05,1.664632209821736357e-05,2.324913867175964973e-05,-4.718173811312924596e-05,7.303405127912363979e-05,-6.229637639750551796e-05,-3.971155334204831537e-05,5.737448788165017626e-05,7.008382417586125196e-05,3.938757045877955981e-05,-8.306499992648724894e-05,-1.025393805146681707e-05,5.482492086426860972e-05,6.469297297281333061e-05,-1.140814554803533079e-07,-2.359370503389050764e-06,-3.569516567624227984e-05,-4.623672945240522007e-05,8.823873978024722103e-06,2.989011395810425148e-05,-2.848581660379307553e-05,8.563274064798191937e-05,8.721952358017524799e-05,-9.290253217010165912e-05,7.254453294173719619e-06,4.075300499472194252e-05,-5.352054419536601202e-05,-4.104467841280167969e-05,-1.192638213189775703e-05,-9.118398270882280201e-05,2.403078963914611886e-05,3.993741959758139885e-05,-3.834422620653598295e-05,-2.431208276562375143e-05,-6.620593843927417290e-05,-1.364906817995011874e-05,6.998239401345303086e-05,4.205821472677064178e-05,1.497884318443626983e-05,5.435437439842833156e-05,4.315205160313968721e-06,5.970927995371823632e-06,7.354411841086077348e-05,-8.938150687478016204e-05,2.231951171847105099e-05,6.703171074353163122e-05,3.494754311243984397e-05,6.611880721137147351e-06,-8.007647522331855239e-06,5.594016072437582810e-05,-7.899721895657363228e-05,4.468372202383858420e-05,1.101957130214536860e-04,-3.023418425451278272e-05,-9.211672835160348660e-05,-1.600356460692161940e-05,-3.091279783584060457e-05,4.437341182926859398e-05,5.281217484927697251e-05,2.768838576375795983e-05,-3.870508879410159103e-05,-1.450837335424254575e-05,8.676391022997996722e-05,5.732605129944925648e-06,-6.255616881285579970e-05,3.716438500644829083e-05,7.897748692865622251e-05,-1.021479958698139778e-05,1.624834848359991843e-05,-5.358962065122211218e-05,-4.774497755237600401e-05,1.943697480751178851e-05,-6.774338492528256081e-07,-3.407513276598654037e-05,-5.601216500416083903e-05,-9.977623176866591982e-05,1.172311170330098959e-06,9.143037383632284323e-05,5.042806685465309912e-05,-1.333409629622525747e-05,1.848680687987803927e-05,1.339156284464534810e-04,-5.629813752848281930e-05,1.543806329382120372e-05,3.554322420082901249e-05,5.563822087151741721e-05,1.411715891735527322e-06,-5.227009724850522097e-05,-1.350353141178771193e-05,-1.468943481120645548e-05,2.450000538136029392e-05,3.410738509796732625e-05,-1.882370128477622764e-05,3.310301328559383988e-06,-1.722990013530990275e-04,-5.178880253984256441e-06,-1.697433129427295008e-05,-3.267762875484627594e-05,-3.726118719826067131e-05,2.674926701109081351e-05,4.548525019954045021e-05,-3.365700614153915336e-07,-1.731881798971218533e-05,8.725658042009097008e-05,2.092843953849996742e-05,-2.931911776448276798e-05,7.773258468034537896e-05,-5.038743512396179510e-05,-6.560245757586757680e-05,-1.065349941031752631e-05,-5.002799401382107016e-05,-6.734404190635765407e-05,-6.234440345900277545e-06,6.916681770823671538e-05,8.422684318122274208e-06,-3.830162750813647948e-06,-1.104296785047753095e-05,1.304901769539943135e-05,8.047138347313084934e-05,-7.454591539418140684e-05,5.559196305773044308e-05,-4.148086066091610043e-05,-2.586226013282517646e-05,-2.915761546241373210e-06,-6.311470514536011794e-05,-5.814782858987447200e-05,-3.068302031996520389e-05,3.035115062443314774e-05,2.108389568751483253e-06,6.375318718795687783e-05,1.398007791996789548e-05,-3.059439388065164482e-05,-4.734847732372106382e-05,-1.112797586236912670e-04,3.202813681448499238e-05,-6.772183711716976999e-05,1.379612531023703367e-04,5.702854783071554850e-05,-1.198153884562806282e-04,2.744837039318779242e-05,4.376816290221022846e-06,1.209928230626897361e-04,-2.280795653411381844e-05,1.030534534755914459e-04,-3.123038797882658074e-05,1.034392529879242838e-05,-2.575659082229909916e-06,8.486527024274557519e-05,-3.336772848611229547e-05,4.905454398636366033e-05,5.145063805180655669e-05,6.705467703067524124e-05,6.027820020924992490e-06,3.524683604263351150e-06,-5.095833717293281559e-06,-4.321991833166257275e-05,8.537003716205644960e-05,-7.304033583455895229e-05,3.054479264311047413e-05,2.137688239506571031e-05,6.897533920945225750e-05,3.500329528440637272e-05,-1.504627766049277254e-05,-4.826125820315108441e-05,-4.018816862585058292e-05,6.091162264139569058e-05,4.085598767878705816e-07,9.633067908424020235e-07,1.763494827870514003e-05,2.836934758320373422e-05,2.405975971604912156e-05,-7.934143154326824053e-05,1.309231298618494571e-05,-6.359054222846102043e-06,3.827414994891852290e-05,4.381241940731408468e-06,1.020693939546882969e-05,1.335214483049471279e-05,-3.357468388716707160e-05,-5.662315948105476926e-05,2.432377328807014410e-05,5.746476714075519739e-06,-6.109173862555148085e-06,-7.716682121294784916e-05,-1.732683911474073123e-05,1.063909401978352488e-05,-2.159016590639995898e-06,1.331987534440472724e-05,-3.960243573976739980e-05,3.327989134200571555e-05,-4.241866290641456845e-05,-3.845438893016329789e-05,-9.617815745033373835e-07,-7.984055707789617707e-05,4.785269894054285501e-06,1.161372743403597856e-04,-3.151684850387533043e-05,2.820856645680265931e-05,2.083028075283082997e-05,7.503736499510368892e-06,6.370128314865829340e-05,-2.391496959919061469e-05,1.203286334516111661e-05,2.501133119604533216e-05,2.851233408079503499e-05,2.182402165046476036e-06,-9.204400665235199723e-05,-7.935587239380118940e-05,-4.024317149082697867e-05,-3.544637651308362906e-05,-1.505419823171137876e-05,-4.046766964623039792e-05,-5.289969870761260206e-06,-6.477929812488596802e-05,-6.609254608213647694e-05,-1.117684076071922830e-05,-2.701943808861494519e-05,-6.345130318308750818e-05,-1.288280208671777813e-05,1.171171460276541778e-06,1.963501950021597398e-05,-4.014328084831980813e-06,-2.220428703753144842e-05,-9.667669645917429533e-07,-1.189291782588703308e-05,-6.055616123394699129e-05,-1.859085324577972503e-05,3.204120446740906203e-05,2.926056604917088194e-05,5.196213564958051840e-05,6.634730156493724045e-05,2.491810414826701415e-05,-3.092125565492179732e-05,-7.875123241621027914e-05,-3.066494603696641273e-05
