-6.573418685900825836e-06,1.281372955198845438e-05,-4.128481911688199524e-06,5.055478399062134333e-06,1.671035980478127652e-05,-2.053670872530125618e-05,1.761344674332661637e-05,-3.056107768174324109e-06,-1.239098829530557987e-05,2.736512496072595029e-05,-3.326765896520735716e-05,-4.311367428567159636e-06,9.101858370666247760e-06,1.984738599450105274e-05,-7.747330658572531130e-06,-4.535278533268785963e-06,-5.156528208675971101e-05,-1.824313979605154685e-05,2.604001398691762324e-05,-2.808105564072732387e-05,-2.518314234318017015e-05,-5.906518645193857602e-05,-1.509837454405633968e-05,1.813950076683956228e-05,1.674441478127074929e-05,-2.550644515458272009e-05,-1.555885594263926833e-05,-1.483364358378498775e-05,-4.607498948546021506e-05,2.047095332333757518e-06,2.857685109935951604e-05,-9.362457995527121229e-07,-2.163214852512184368e-05,2.071665282513555966e-05,2.493489590932266979e-06,4.698593048358687517e-06,3.105388808727385484e-05,1.029737849674794936e-05,-3.219935222446529372e-05,2.980479162083528392e-05,-8.316572658168014753e-06,-3.591599929688222599e-05,-7.341957076733084048e-06,-1.167940213407034932e-05,2.783563198332661973e-05,3.413220093446079283e-05,1.652115365750033879e-06,-1.486666788529559647e-05,2.442486205891094151e-05,3.558950014839830077e-06,3.971996834425530967e-05,-6.219016143328973589e-05,-6.968845653916476517e-06,-3.444436135683282067e-05,3.641435207061386072e-05,2.510255104295962912e-05,6.497695871766527985e-06,1.868948300113304348e-05,6.291527089693531240e-05,-3.314192033947382392e-06,3.136159889144889785e-05,4.658653092403253220e-05,2.173367603787862830e-05,1.184932724734679609e-05,-1.893449153410690968e-05,3.538319333477834541e-05,-3.423731673199573615e-06,6.505236206553614885e-05,2.013710788023877485e-06,1.508764233058981975e-05,-6.312913243836404396e-06,-5.385898997218315153e-06,-2.840854051407628992e-05,-1.044026381545870428e-05,5.011892464502183485e-05,-4.325648715390446967e-05,4.509620932130636476e-05,4.592833953154822670e-05,2.076384025825356637e-06,-9.608380332039950734e-06,-3.354358730483993382e-05,2.213563198124935649e-06,-2.589354133772127297e-05,-6.379560061667296860e-05,4.027473039084582794e-05,-5.804346852081980693e-06,-2.720009070570075660e-05,2.826328709299679204e-06,-2.306133323199835593e-05,-2.309632415679428250e-05,-1.199877934947622283e-05,-5.666778457805669568e-05,-4.381892115036488118e-05,1.391539589421785977e-05,2.568159487183279647e-06,-1.034313481253354091e-04,-1.587025443185251483e-05,-3.911025755546997627e-06,-5.158852356423111496e-05,-1.928755793941642913e-05,1.546247911085901381e-05,-3.495034004877318627e-05,1.003086908956303547e-05,6.368892375036641265e-07,1.891491606727863223e-05,3.232122621292188655e-05,1.626822380785853821e-05,6.346809016565124756e-06,9.957913836580407080e-06,-5.101458537724552865e-06,-2.892943113374858539e-05,-2.299728868209638584e-05,5.525010340517543509e-05,2.365717908641763891e-05,-2.827002603754899071e-06,-3.438916734949649620e-05,1.166270693661566750e-05,3.454726646832651627e-05,6.622921795827019882e-05,5.960226125233333781e-06,-5.154116974585332245e-06,8.817763881901726967e-06,-2.100092596029615248e-05,1.244619022562606403e-05,1.645811414086343158e-05,4.020669737269932920e-05,-1.898144637514381799e-05,-1.235492641786618487e-05,-2.870530862021947871e-05,-1.374074854797302023e-05,2.380400190698440157e-05,2.814158246031790624e-05,1.740388388807432072e-05,1.291261927524600164e-05,1.404237293160841590e-05,1.070125297841592561e-06,2.037109640609768615e-05,8.783989614185172525e-07,1.877986847710167727e-05,3.881615869074577118e-06,-1.039888665968421720e-06,1.381485785872075800e-05,-3.282479551878718626e-05,-4.824684077378868196e-07,6.052400010774801891e-06,-1.756957700295446012e-05,-3.643511768479673499e-05,-5.136842700749919759e-06,-1.711916329871215818e-05,-1.815210531583159845e-05,6.253824435845811323e-05,3.724604902156521611e-06,-3.884025677856381935e-05,6.930069213172811622e-07,1.223195679925828707e-05,1.891919952090923059e-05,2.603237901610955450e-05,3.502655251596915477e-06,-9.924082739993694743e-06,9.562149049135991823e-06,-2.525425048081547728e-05,-2.721024476368642938e-05,1.473361515889718237e-05,-2.747268070531830162e-05,2.714370404409705356e-05,-3.587390871106734469e-05,-2.249857576482926030e-05,-2.301496458779067080e-05,-7.328819634820471581e-06,-3.775163543224815963e-06,-9.734338935188282309e-06,2.612075046931028221e-05,1.269423863636905852e-05,4.658858946194306488e-05,-1.164709336929912950e-05,-3.657784389405278799e-05,7.568413331616623475e-06,1.202637466667983199e-05,-8.313319091246325224e-06,2.608140678524750494e-05,2.559902891910055680e-05,-1.254310127885306975e-05,6.307870869715564420e-06,-1.138287594023984190e-05,1.672501175740718837e-05,-7.694845891393776435e-06,-3.515771783461992710e-05,1.443870682453251745e-05,-1.109809207767711522e-05,1.696757390796535951e-05,-4.492844447178836835e-05,4.655181958731488237e-06,1.451068195001850407e-05,-8.201735929021078378e-06,-2.487209010946715547e-06,8.686250545356427038e-06,-1.024180508949410742e-05,1.231857352030828079e-05,-9.231429269221326758e-06,-1.340080773280900898e-05,-5.143831746059489193e-05,4.975733840770575264e-05,-6.931752007538094127e-06,2.659504074953429294e-05,1.821914585722188916e-05,-1.716852668577933908e-05,6.406109261128761701e-06,-1.506974847699905078e-05,2.445119614337970272e-06,3.275303880909849567e-05,5.769091613162224941e-06,3.007483125021594522e-05,1.589720202778342571e-05,6.946061182126065907e-07,-2.695686230592776720e-05,1.205679994647796114e-05,1.595109293149531091e-06,1.584946532110185436e-05,1.433990804810329238e-05,7.530449098105256496e-06,-3.230660072018507422e-05,1.185447677784663283e-05,-2.860435047322851541e-05,2.588043032064615430e-05,1.075784722522120630e-05,1.739313974995341144e-05,-3.626012925428533104e-07,-2.109196337944820162e-05,-6.822311765533918853e-06,-9.377864446850500297e-06,4.140238330912698010e-05,2.338860887394878139e-05,4.779031815433876751e-06,-4.957785072042687334e-06,1.500340710209571042e-05,-2.511515104252691439e-05,-1.945039105018834337e-05,2.795386071679873359e-07,1.384251201370539790e-06,1.043540677104142517e-05,-8.208228155443250004e-06,3.652552383661372367e-06,4.572406993896555982e-05,7.561541098618206306e-06,-3.644857833776699339e-05,1.424647637892490785e-05,-1.409642951070602604e-06,-9.208895261692737110e-06,-1.322966960612997023e-05,1.095330293542575769e-05,2.279044304589557441e-05,4.448996152409358175e-05,-2.905921844355930988e-05,1.295963464258846223e-05,2.249238373847235479e-05,8.326844442595956826e-06,-3.245055983276980534e-05,9.550280391161928539e-06,2.542166964721298957e-06,3.192393657051875657e-05,9.430016257785423714e-07,-1.031007328347326139e-05,-3.997189070087754967e-05,1.432311547666559505e-05,6.947197220362174167e-06,2.946918133843105900e-05,-8.131045782232665557e-06,3.931472534349536265e-07,-1.189555919943105421e-05,-1.823789175801966331e-05,-3.266938870102765194e-05,-4.530340951378763127e-06,5.436717855541375228e-06,-1.314220602120047815e-05,-8.634785855741736524e-06,-1.330712312135426597e-05,-3.028551551799767462e-06,1.857771557001404843e-05,2.302664631333135217e-06,-1.907264219073371612e-05,1.333128943778018369e-05,5.143421748973823056e-06,3.419323991617636519e-05,-2.850220740154257087e-05,-3.907296794250747870e-06,-4.135413480221370388e-06,-2.375941118707641670e-05,-5.204978421938046321e-06,-3.579112873387291677e-05,-2.214708003899440049e-05,-8.382954422227867195e-06,-4.491859558351274405e-05,-1.445587508418443612e-05,-8.155658782321141838e-06,-6.409170196869829429e-06,-1.757592825831743783e-05,-5.192585262304889339e-05,-1.782874777909142098e-05,1.518359836054342560e-05,-4.527437214163601608e-06,-6.770839890345201441e-05,-1.987776470360383798e-05,-8.897923910800470708e-05,-4.911077558560037083e-05,-4.462752212792723633e-05,-2.354530545847449241e-05,-5.174530445225093304e-05,-2.972636331544010701e-05,-3.259084369427353410e-05,4.604255037380108113e-06,7.771818079506484945e-06,-1.148379290383509682e-05,-5.556955025252371902e-06,-4.858406185196420830e-06,-1.013789101194978192e-05,-4.046722587460758424e-06,-2.030699293302514356e-05,-1.388676985092180338e-05,-4.586113360370645386e-05,-2.962290537202282432e-05,-4.880737386931098858e-06,-2.344218908427012939e-05,-1.442979177763014130e-05,-4.907998159206450952e-05,-8.380580664356874481e-06,-2.859934984358438285e-06,-3.243326310136823218e-06,-9.993615243556978206e-07,9.258194540967839995e-06,-1.301421252503226546e-05,4.801923277711607306e-05,2.077009234614789573e-05,5.719798566775200263e-06,-4.909894695048842586e-06,2.228441490110800283e-05,-1.055052579485284297e-05,3.900122501755211199e-05,3.230354572328948020e-05,4.067995379232748859e-05,-1.742867730776793918e-05,-8.597189632243714368e-06,2.542529876673301414e-05,1.151968353938846933e-05,1.345354024511621060e-05,3.302158788174550959e-05,1.361893631299103338e-06,3.281442637207303200e-05,8.320724090801122648e-06,2.053533113264737668e-05,1.052813049491764661e-05,-2.374894976880557139e-05,-5.542823799560080524e-05,-2.838107250164499201e-05,-8.793159205500330583e-06,-4.242000925427565365e-05,-1.532432079221071809e-05,1.836595644211378635e-05,-3.070130498070898282e-06,1.370903253238460316e-05,-2.906452205176952497e-05,2.089134414887258268e-06,2.995726044251235219e-05,1.255340341701165598e-05,1.670250808588246154e-06,-3.181586065885918954e-05,-1.551719860609848673e-05,-2.178990149308677404e-06,1.079056778378667867e-06,-2.600624858216783997e-06,-1.627349055670998743e-05,-2.363358542790654289e-05,3.825121222002485329e-06,2.070548846976176955e-06,3.086060015365263784e-06,1.128852233015577773e-05,3.181720383891463106e-06,-3.127916605529104188e-05,-1.339281741237852714e-05,-5.211252909614404562e-05,-1.859600594433017163e-05,-1.922944379727099169e-05,4.537675731788202206e-06,-2.130383767707508719e-05,3.704173525499635211e-05,-2.854151915250737384e-05,-1.840144163214105295e-05,-2.978577138038274313e-05,5.164576104697755457e-06,3.416076446845609614e-06,9.126662015737080624e-06,4.478299427755755009e-05,2.784103807209875383e-05,-4.488417665607581419e-05,6.714071633853697960e-07,-1.082118269378257760e-05,1.890888097383409985e-06,3.008272241850429101e-05,-3.707481942405640697e-06,-3.161096107074434783e-06,1.464318522707298304e-06,-6.095664308735356874e-05,-2.453107480818022548e-05,-2.325770591343599206e-07,-1.267921665839289174e-05,-3.115176510324006162e-05,-3.510780616258732975e-05,6.525832641090687988e-05,-5.118585686981985160e-06,1.922808456150852468e-05,-1.225414617348972460e-05,1.057649551419143443e-05,1.532955606287151793e-05,1.705779145385173545e-05,-1.849744698491762837e-05,1.173334683924803426e-05,4.303936982670245075e-05,1.519535941636343990e-07,4.241750295493542121e-05,-3.884801036877223154e-05,-7.631330244289897147e-06,3.299356853243561478e-05,2.135377896304657965e-05,1.578250445649481817e-05,1.558411266170483780e-06,5.201799750164023408e-05,4.717398609922751200e-05,-1.041921295098232093e-05,5.954889031166281104e-06,4.320110234136879344e-05,-6.938442820293043155e-06,-4.076519331398778651e-06,-8.185867925042523529e-05,2.380850196998094868e-05,-3.387733541988433277e-05,1.449465127226022267e-05,4.538299334409169497e-05,-7.910114520469400275e-06,9.774899703006184699e-06,1.281218185501413598e-05,-2.151725531600277988e-05,4.943156616320884582e-05,3.636109587941181118e-05,4.625567231847870717e-07,-2.654617138010612051e-05,-4.098694581650178220e-06,-1.397948481757480336e-05,6.179971631640507915e-06,7.468875612070736375e-06,-2.564392979565890439e-05,1.363265485579012606e-05,-1.421066025357130157e-05,-2.599358275597800187e-05,-6.683764774796887514e-06,-1.399912098572567910e-05,5.544769055210405784e-05,6.141493047463390828e-06,1.233823585844252573e-05,9.331451958158528084e-06,6.352978835350418948e-05,2.775079337398317223e-05,5.429546797074813182e-05,1.153852194620375074e-06,5.798090367943190069e-05,4.713718621393550616e-05,-2.494923553152107620e-05,-8.895350569314091314e-05,1.709694660254301759e-06,3.317949266989909425e-05,2.638054834870074753e-05,9.774918225737024268e-06,-1.351358136286405792e-05,3.801911508269249708e-05,3.704542640931081685e-05,-4.741057460058545721e-05,1.585289428105159213e-05,3.184180811348955953e-05,-2.865958018086798992e-05,-5.520697199489901026e-05,1.717511009166127224e-05,-2.996576928361109187e-06,4.796895577767053514e-05,-1.620166377091867828e-05,-2.326032539069347591e-05,6.958161111595567456e-05,2.050985454483852216e-06,-1.416043073477681379e-05,4.213217690673011896e-06,1.597150786823330130e-05,2.463990176964350124e-05,-1.604887619993954117e-05,-4.177604543767586694e-05,-3.091235425627935225e-05,-2.152947317476058536e-06,-4.143110755426698279e-05,-1.236932938472812536e-06,-2.301129615813784281e-05,3.860348763365367748e-06,7.783795112460818418e-05,7.931609079498953916e-05,-7.979268949262523363e-06,1.679590872036873956e-05,1.712342875562247567e-05,3.402628677969224045e-05,-1.373590734655942019e-06,-7.053916410101327531e-06,-5.625944984482118995e-07,6.897949038268061220e-06,-2.397130297075798682e-05,1.883712763583343723e-05,4.620841745025929204e-05,7.713588595506419359e-05,-1.728493211130782914e-05,-5.588944019550590734e-05,7.544781341510338337e-06,4.369377474333876104e-06,2.782512125993971013e-05,-5.950734261442051551e-05,-1.047604023496117846e-05,-3.017096356499355273e-05,-8.237957428286335137e-06,-7.043272196638796499e-05,8.024863615453374245e-06,-4.164001553617183068e-05,2.196059839600244366e-05,-3.985746978414097895e-05,6.339635127870377142e-05,-3.468692238550613700e-06,-1.232171513474657417e-05,-1.036206110757155657e-05,-2.297164721068282412e-05,-2.764627079490670350e-05,-2.897012361934869049e-05,1.050112353685977483e-05,1.644650253445022181e-05,-1.172469542704345045e-05,-2.752400207230844972e-05,2.999241294233478969e-05,-2.269569683723918907e-05,-1.460007623622564954e-05,1.200671236349982802e-05,-7.346953773782935472e-06,-3.057603145823938206e-06,-3.908462291377089372e-06,3.447116651659744925e-05,2.266526866621069872e-05,-5.053288287965588188e-05,2.750772667002364010e-07,1.961964952074662504e-05,-6.353012434613464450e-06,-1.825822358040621534e-06,-3.694767918822785928e-05,-4.447458206309031409e-05,4.430025496574187638e-06,2.025688871482082099e-05,2.855694212547347315e-05,4.657318142602435312e-05,-4.784100943398613575e-05,-9.334613050084364553e-06,4.095310924628392036e-05,-8.024005579245668116e-06,1.014705618973257763e-05,1.605644007173189693e-05,7.243307487577816057e-05,-2.229436858949958663e-05,-3.697901360729178617e-05,2.901637570189836185e-05,3.695919489991261145e-05,1.038355146783473087e-06,6.485962386453096516e-06,5.574372414215005033e-05,-1.321137558055677528e-05,2.840267432060920473e-05,2.066920035156790799e-05,3.089620800033124337e-05,1.370033120686763602e-06,8.117636773059444232e-06,1.057824207463249109e-05,2.993227179512552772e-06,4.556193623518681586e-05,3.027850138046099367e-05,2.669081331952912289e-05,-2.356946120266300901e-05,6.320657890483123524e-05,-3.749971106407819107e-05,-6.280446951994064439e-05,-1.059142046720950064e-05,8.697139119648636917e-06,-4.629173502029120115e-05,-4.426998115449722667e-05,-2.807603054544799355e-05,-9.091294696000071915e-06,5.245673098529337202e-06,3.485965028902115860e-06,1.995530631446366499e-06,1.421591299930123960e-05,2.291467484715445740e-05,-5.058728062805208889e-05,-5.173243180757925308e-06,4.533769303985567723e-05,-5.506146535190203906e-05,-1.511710992478824004e-05,-3.698340108180935422e-05,2.969840058395133851e-06,3.922056425221117178e-05,-2.939632996640753100e-05,2.580094021058762881e-05,-3.849021807146299961e-05,-1.122870352563710148e-05,4.265645486105389865e-05,1.158056874262400497e-05,-3.823708601107378543e-05,7.103787202755651242e-06,2.012288913817216141e-05,-1.942643559792385068e-05,3.182448053860391618e-05,1.269534630352043246e-05,4.385526713352919754e-05,3.486011405993666136e-05,3.270428001877641978e-05,-8.589896657850648679e-06,9.606340383744167881e-06,4.086359494486961299e-05,3.411811887028287637e-06,-6.102756424143925365e-05,5.256559169723497304e-05,-6.604479682502475854e-06,4.248299726193739844e-06,1.698581559240048129e-05,5.620303801474739355e-05,-1.530136139863292133e-05,3.282490759673043271e-05,-1.164463887461465672e-05,-1.716479171325240849e-05,-1.746349259059231423e-05,2.711891311009798053e-05,-2.283487826248827365e-05,-3.696863026855413286e-05,4.449802424993123229e-05,-1.796304388034931611e-05,-3.355725736823230733e-05,3.351882005129576950e-05,-5.817373584588967381e-05,-8.641473848432928046e-06,-8.697917048912542673e-06,-6.124853063171277110e-05,1.060539445374967014e-05,1.258495585242498606e-04,2.422996315804364811e-05,1.536631995300530794e-05,1.466237132624144925e-05,-5.104070368715165219e-05,1.281273302476701342e-05,2.117393380975995454e-05,1.562573552612269492e-05,3.224686955086576956e-05,1.508994741787801878e-05,3.805420252789694455e-05,2.359220206255575452e-05,7.429385206654877048e-06,1.735214403177318820e-05,2.431944384619530341e-05,7.603557018088703060e-06,-6.675521747066689532e-06,3.671432552493709202e-05,4.835248539872221389e-05,2.149104849876747972e-05,5.314183419572645744e-05,-5.619785682250954677e-05,-1.373452589115758409e-05,5.018713221769490797e-06,3.935753295107581823e-06,5.569088540772746575e-05,-1.487376116128469014e-05,-7.750682364833716897e-06,-5.814760338047145216e-05,2.672424172443466176e-05,-5.428585579277124925e-05,-5.577668867588268759e-05,1.688696467354728739e-06,-3.310990402260604611e-05,-3.807582350203413932e-05,4.812136101172702858e-06,3.914907618386175079e-05,1.894202372854494263e-05,2.883840551036139145e-06,3.876484370839166125e-05,-4.183531552282140692e-05,2.666101649286581029e-05,4.115261305979124113e-05,-2.088298478532334718e-05,-4.908177823862219816e-06,-1.726639633137537949e-05,1.598022097347245006e-05,1.738908864207118991e-06,4.977716809304668532e-05,3.195247986254451118e-05,1.111511807521861510e-05,-1.449230136736148372e-05,4.166416764421499721e-05,-2.152997710419666630e-05,-2.490535072408609497e-05,3.845250363381842127e-07,-1.548213317681666050e-06,1.117587719447038373e-05,7.171053450625596340e-05,2.293885980926923968e-05,3.138260831179013287e-05,3.215003986010862418e-05,-6.819480141721548610e-05,-3.162447911203842800e-05,-6.456297593620847087e-05,1.981810365556942072e-05,5.218964814039404117e-05,-2.682281778289843132e-05,-6.004944632197092543e-05,-4.599123054902934458e-05,1.729049022210031177e-05,-2.516219063949782971e-07,1.520797528854559600e-05,-1.688719150720925660e-05,-2.738034502221275041e-05,3.345120735979960770e-05,4.434330987150886965e-05,3.902806596836685519e-06,-3.570576800916242861e-05,-2.025953062092886932e-05,4.853809196652573578e-06,5.499485627878009542e-05,2.567774843138808746e-05,-7.104659876245529083e-05,3.020194419815221105e-05,1.962840164097732863e-05,-8.055236557316847838e-06,4.585256712430694202e-05,-6.271436084555367981e-06,1.516020573959259260e-05,1.278584157003168355e-05,3.757566001280027108e-05,2.658723062763115346e-05,-7.314302611413831846e-05,-4.578929449104615748e-05,2.219229094629899510e-05,-1.815744413604484321e-06,2.556750113704316966e-05,1.293648926246070498e-06,6.813346189718839805e-06,-5.939068543922644051e-05,-2.879086743392650735e-05,5.940129186524255676e-06,-1.338395109905359501e-05,-2.198543350020196950e-05,2.674168059336210439e-05,9.954985682045326348e-06,8.313567352364649861e-06,1.159357893445422849e-05,-1.610996688439456114e-06,-1.264371334675980897e-06,5.329867453980478739e-05,1.315078227809644299e-05,-1.647387936646419295e-06,-2.970034832209143615e-05,-2.269370291445054134e-06,4.729033230070912842e-05,-3.628056547222532990e-06,1.751479986476548267e-06,-2.640021695304294803e-05,-1.919308913615439427e-05,-6.951899398292434764e-06,-3.557183512676184793e-05,-2.849438895686759091e-05,3.725207600534522140e-05,3.474404902860247178e-05,-1.529626991004607933e-05,-1.453931641493817656e-05,4.035815468528275988e-05,2.299518027241383074e-05,2.089879516326126737e-05,-2.831729837405375625e-05,-2.441151092293694760e-05,-1.415850952373838400e-05,-1.999099270808316246e-05,2.320509655733210222e-05,3.087940789072073181e-05,6.139484713983883156e-06,-1.388167426710086081e-05,-4.012442085640513604e-05,8.511222541770007433e-06,-1.215472523210176837e-05,6.097119162257195248e-05,3.201681688829785075e-06,-2.020787726666876767e-05,1.827989205720315617e-05,-1.595081358842839324e-05,-2.443145040611038838e-06,2.657932022538557679e-05,-1.636188626424092850e-05,-9.886160252280856345e-06,-1.573390351633428312e-05,2.301054182559523944e-05,4.986132790651446413e-05,2.048646405590837848e-05,-4.812274471854024424e-05,-3.000245865592237308e-05,-1.566745563397864685e-06,-4.599861766022955148e-05,-3.400648513373837701e-05,1.156303585632170028e-05,4.532034902817159530e-06,1.912670780917206546e-05,3.773313661089382058e-05,-7.699132254641073510e-06,-4.683948189471535148e-05,2.249947776175335916e-05,1.513506118068684414e-05,-1.459420614150423459e-05,3.450009334115748769e-05,-2.366527514633343989e-07,-4.705541818314066329e-07,-3.509296760802976762e-06,5.528973428499185151e-05,-9.491380184808493364e-06,1.593234609983566952e-05,-3.088220273854287961e-05,-1.234888326809803678e-05,-2.475844000787390248e-05,1.991913649326189383e-05,-2.219067388554461171e-05,-3.790319433782537263e-05,-3.061601877683892934e-05,4.099647092476925794e-05,-2.426249480777847633e-05,-3.565846958750240397e-05,1.189663284353138906e-05,7.369383619908203221e-06,1.340313569480990298e-05,3.018915383455440739e-05,-3.834322682228608710e-05,3.246564570129449487e-06,-1.177289598418479825e-05,1.161056593471647610e-05,5.399591219083165969e-05,-1.248780675811374155e-05,-2.657088189767421607e-05,-1.902657967524978762e-05,3.226667302034332588e-05,1.704841314362043981e-05,-3.129914919577875081e-05,2.179127268577171390e-05,6.963287472180397027e-06,-4.538568539082381958e-06,2.305995708191291510e-06,3.414868746587179876e-05,-3.562476993189573493e-05,1.574994824676513382e-05,-7.489623029119812641e-06,3.001853591035780690e-06,-3.302190516871620686e-05,-2.162870168826502168e-05,-4.245140996637839818e-06,5.301194121304392975e-05,1.019408607126961940e-05,3.048420247227063374e-05,5.584663097100410190e-06,1.849836136377668551e-05,1.434190500043553015e-05,-2.631447100262200833e-05,1.919665511947368780e-05,5.609672506790376790e-05,-3.636997496866001544e-05,4.021516658898340725e-06,9.534161194129242583e-06,-6.335177553532253612e-06,2.435246266501813728e-05,-7.502829423301408292e-07,-2.047490447160690510e-05,1.566140559623552689e-05,2.140857299238257150e-06,1.667721569756631421e-05,-2.631254526985392849e-05,1.939056049705382520e-05,4.234168246160650742e-05,-2.291468878080420667e-05,2.317266697081811557e-06,-1.466350806924175827e-05,4.045417385322379843e-05,-1.291868614052558203e-05,4.256073307393151326e-05,1.933615491875561500e-05,-5.066752909011338901e-06,3.042868676647544827e-06,1.004871695659021438e-05,8.825481701720228769e-06,6.397583576061035592e-06,-6.982996793717629614e-06,-4.248079619286483893e-05,-5.631763297785217002e-05,4.824161337792869076e-05,1.155087255395516315e-05,3.128374573485460383e-05,-4.373979893531028438e-06,-9.712679568757858785e-06,-4.741578551078288317e-05,-3.767594301628811207e-05,-1.501592891843347564e-05,8.980094536606955311e-06,2.505942340347531723e-05,-8.053900382391564010e-05,8.649416317842246725e-06,-3.264749922049822023e-05,4.772453842168349855e-05,3.390463112391098490e-05,-2.526489429266284582e-05,-2.459859104156190160e-05,2.150187940305403207e-05,-1.910011406880554198e-05,-5.072639679820595504e-05,-4.251656055098761660e-05,-3.744140952534355156e-06,1.159490520567031972e-05,3.933934794696464736e-05,-3.002615601993006695e-07,-2.185096998207721239e-05,2.228867248904185041e-05,-1.599754986708148318e-05,-2.762459135285242065e-06,-3.205882359232530346e-05,-2.356373612054577971e-05,-9.278298355682295867e-06,2.421455264419039178e-05,8.907423364354913678e-06,-2.633668559921940836e-05,-1.423210529204360843e-05,1.430958954564110087e-06,-3.301936574059429440e-05,-5.410137381755313738e-06,-3.506027018753437354e-05,-4.470574153002820374e-06,-5.384482367634700546e-05,-3.995851380733836356e-05,-2.670459558593853925e-05,-3.706925243473215513e-05,-1.888514042719787117e-05,-2.602608802099868053e-05,6.857854265000407451e-07,-1.325501473842896547e-05,-4.821004456853359089e-05,-2.892731097453192843e-05,2.848169040712621979e-06,5.365565173610093806e-06,-1.708477859355660912e-05,1.344935941397718674e-05,6.983823555899595526e-06,1.142875578860956629e-05,1.137716310399005931e-05,-1.260109629379506106e-05,-1.104603552691673964e-05,-2.552399386619448840e-05,8.458387523421522492e-06,4.020957374147079012e-05,-5.105083034895399923e-06,-8.622135514927546684e-05,2.300245614704564984e-05,-3.627598669323775575e-05,2.758587053325036194e-05,-3.096267019014827703e-05,-9.020582641563149541e-06,9.814980250769994645e-06,9.890487651507909536e-06,1.609322161784323770e-05,-4.180096803497302229e-05,3.382775539201062761e-05,7.260604161256280394e-05,3.109264600062897982e-05,4.110504799720292605e-05,5.051851889796063732e-06,3.036909299940062713e-05,7.168646180578431685e-06,1.363019157008027255e-05,1.981459045090263205e-05,3.204134152557455847e-05,1.398274753413963659e-05,-9.921579446768011751e-06,4.707084418537343533e-05,1.440382022056778834e-05,4.912524161073692560e-06,-2.795454098006343321e-05,-1.299553087564523561e-05,5.348561860512677927e-05,-1.481879193350449427e-05,-4.506808320307112436e-06,1.597735712940507861e-05,3.724723358084336445e-06,-2.448532682338659813e-05,-3.590048461738732191e-05,-4.997437688221812141e-05,-3.939794369197765258e-05,-3.194934596489253927e-05,1.053784466029146143e-06,7.029781656174062272e-05,1.635517543176364768e-05
